1372 200
سودان -0.030806772 0.04649844 -0.020032534 -0.0031791686 0.100931235 -0.12882298 -0.07443277 0.012907642 0.12362236 0.032158714 0.008449082 -0.07133047 -0.09776741 0.07740016 0.10221644 -0.0036051522 -0.12051767 0.016747847 0.008354453 0.029840717 -0.015550987 0.024282908 -0.111374006 0.041834477 0.042698544 -0.03210468 -0.18317983 0.034431852 0.026807867 -0.110048 -0.02277145 0.1763175 -0.0778664 -0.0835624 -0.07016032 -0.090469174 -0.113715716 -0.016951015 0.005108887 0.029375685 0.103752166 -0.050200805 0.022247057 0.050301302 -0.00940273 -0.0010726291 0.05049763 0.15725008 0.057955924 0.05527288 0.03441725 0.013844664 -0.031800024 -0.006274638 0.0010719738 -0.041669983 0.005441423 -0.012787478 -0.058685314 0.087316595 0.06671797 -0.20273118 -0.12541185 0.044481643 -0.019030109 0.079315804 -0.006482211 -0.043029122 -0.09417596 -0.07090262 0.009646949 0.013713141 -0.06319884 0.060898803 -0.13374797 -0.02910461 0.040577218 0.021396777 -0.0018050023 -0.008020177 -0.06399015 0.005936534 0.111533284 -0.13495082 0.0021078961 -0.0152171515 -0.0061062244 0.11144889 -0.06592056 0.061291605 -0.057454586 0.011579442 0.014420126 -0.07571732 0.03254639 -0.0039203856 0.03623516 0.041894972 0.11041394 -0.0044750185 -0.0030653896 0.036355786 0.005093891 0.029373547 0.034526523 0.09293229 -0.036663774 0.09688033 -0.022724774 0.07810641 -0.026495177 0.083946295 0.0641057 0.14133479 0.06811551 -0.07867181 -0.12556708 0.07253352 -0.0070235427 0.058911584 0.17384534 -0.004899292 -0.089902714 -0.1036915 0.02135806 0.12030635 0.09727988 -0.06485625 0.03719447 0.0688285 0.15661713 -0.00013238585 -0.077932514 -0.07406498 -0.06570825 0.13327657 -0.14901517 -0.020041041 0.011113287 -0.06743487 0.1245439 -0.09515773 -0.046826 0.004722499 -0.06496902 -0.046706118 -0.0058700694 0.08014092 0.029713944 0.028062575 -0.009138894 0.013907438 -0.05266126 -0.04944433 0.079243526 -0.043919586 0.054199543 -0.058535792 0.084440626 0.008723022 -0.0013618509 0.12158131 0.19861555 0.065349735 0.06905285 0.046662457 0.051948167 -0.0049930513 0.07491411 -0.1002059 -0.017448485 0.05848551 -0.029112589 -0.117596105 0.0064057624 0.042662755 -0.05150884 -0.05300513 0.01044933 0.07331395 0.05077865 -0.09176223 -0.036228973 0.09374877 -0.0018549606 -0.007675986 0.039201763 -0.049205914 -0.01595259 -0.011223339 0.045694094 -0.0721541 0.073795564 -0.007242839 0.0098120505 -0.042934455 -0.038939893 -0.06904364 0.07743032 -0.0076305256
در -0.028571542 0.044631287 -0.019862378 -0.004356216 0.101455934 -0.12986477 -0.07494986 0.012951363 0.12473696 0.033341616 0.009121762 -0.073128864 -0.09538615 0.078511626 0.10340349 -0.0026552493 -0.11926781 0.016442655 0.00900905 0.031549647 -0.015381934 0.022145718 -0.11025629 0.04017951 0.042404704 -0.0332023 -0.18204178 0.03672647 0.025458302 -0.10734938 -0.024828458 0.17513116 -0.077860415 -0.08436089 -0.07014716 -0.090397984 -0.1138535 -0.016446892 0.0077651516 0.028201872 0.10317895 -0.04910524 0.024259161 0.05069286 -0.012015018 -0.0017192011 0.048893478 0.15671673 0.05650555 0.056239564 0.033176623 0.014213395 -0.033186916 -0.0071125305 4.6173605e-05 -0.04163151 0.004361114 -0.011301726 -0.0590572 0.08457647 0.06523121 -0.20187694 -0.1243853 0.04503257 -0.019320702 0.07763733 -0.007051636 -0.042072885 -0.092667654 -0.07154481 0.008309961 0.014835182 -0.06457818 0.061519444 -0.13430183 -0.028329032 0.041768976 0.020933978 -0.0039704484 -0.00712937 -0.06436694 0.006922966 0.11183402 -0.13611576 0.00058716786 -0.01455637 -0.0079254685 0.11153437 -0.06793905 0.06095761 -0.05748771 0.0135811865 0.0131892115 -0.07531032 0.03556774 -0.0028763935 0.037288208 0.039143648 0.110959455 -0.005158878 -0.0017823714 0.03694196 0.008014686 0.031515952 0.03336548 0.09352589 -0.038607553 0.098718025 -0.022385478 0.079174474 -0.02642894 0.08350347 0.06423544 0.14234363 0.07056114 -0.07738923 -0.12382797 0.07217162 -0.006267975 0.05777093 0.17468615 -0.004628969 -0.09107143 -0.104663365 0.022140894 0.119872816 0.09509207 -0.06712739 0.03849765 0.06986819 0.15770799 0.0006126976 -0.07515035 -0.07428159 -0.06596736 0.13349651 -0.14695421 -0.01829284 0.012169704 -0.06900711 0.1257887 -0.09708211 -0.04394783 0.00156874 -0.066379674 -0.044823702 -0.00585481 0.082922265 0.029583216 0.028091675 -0.0119052855 0.016170094 -0.054389235 -0.051429145 0.08024157 -0.042653337 0.054339778 -0.05797559 0.084411964 0.007785106 -0.0014002804 0.11957247 0.19804236 0.06351017 0.068984166 0.047672283 0.053992923 -0.0042369533 0.07528408 -0.1018365 -0.01628862 0.06081636 -0.028479949 -0.11808826 0.004063772 0.041313343 -0.053745918 -0.051734615 0.009059593 0.07264554 0.051139217 -0.09129167 -0.03903463 0.095547155 -0.0012624911 -0.008329512 0.038067304 -0.047834605 -0.016265616 -0.0116574345 0.046979096 -0.0705105 0.07288905 -0.007631079 0.010408189 -0.04124493 -0.036952995 -0.070026055 0.075648755 -0.0083767595
به -0.02929286 0.046001133 -0.020485677 -0.0033927131 0.10175347 -0.12796879 -0.07301053 0.0130726285 0.12361775 0.03292539 0.006508616 -0.071135804 -0.09780622 0.078292415 0.10135199 -0.002964633 -0.12170121 0.01451266 0.008613889 0.029752385 -0.01398858 0.023594597 -0.10999374 0.040531587 0.04524146 -0.0339649 -0.1822761 0.034477178 0.02462974 -0.10825458 -0.024237942 0.17621922 -0.0775357 -0.08331334 -0.06906643 -0.08914932 -0.1142348 -0.016376663 0.0069452887 0.029891087 0.104248784 -0.049215466 0.023480717 0.0498889 -0.010924462 -0.002480536 0.049642414 0.15508531 0.056406036 0.056480344 0.033989124 0.013482058 -0.031289488 -0.006141245 0.0011711902 -0.04207287 0.0041651684 -0.01079531 -0.059807096 0.08466008 0.06500633 -0.20176327 -0.12323023 0.04626778 -0.016339462 0.07745267 -0.0074732685 -0.04183849 -0.094822235 -0.06973003 0.008891151 0.014085453 -0.064171106 0.06139284 -0.13398565 -0.028999515 0.04054461 0.022277325 -0.00327602 -0.0059745917 -0.063284054 0.0062100645 0.112946205 -0.13699071 0.0016887218 -0.014132372 -0.0069838455 0.11258261 -0.06622669 0.061019618 -0.055321515 0.011832095 0.014008765 -0.07580239 0.033734478 -0.0026958536 0.036704436 0.040093593 0.10860576 -0.0053934865 -0.0025274074 0.03553355 0.008085634 0.032316353 0.034069996 0.090508774 -0.039176635 0.09944225 -0.021496667 0.07978892 -0.027683616 0.083218366 0.06348606 0.14356257 0.06989789 -0.078301795 -0.12554173 0.07172207 -0.0054788855 0.06040741 0.1746525 -0.005317395 -0.09066543 -0.103201225 0.020893699 0.12246239 0.09721574 -0.06763522 0.036505815 0.06983713 0.15739667 -0.00053835136 -0.07817166 -0.07277867 -0.06525565 0.1335076 -0.14863837 -0.021065129 0.013777206 -0.068364605 0.12419472 -0.09365017 -0.046622515 0.0045537595 -0.06651252 -0.046093304 -0.005617788 0.079984605 0.027921712 0.025384018 -0.009562558 0.01592639 -0.055119585 -0.049269285 0.08018595 -0.045055557 0.055718057 -0.059649818 0.08472177 0.009257246 -0.000979654 0.12199465 0.20047405 0.06425699 0.07047294 0.045614496 0.05454743 -0.0045885467 0.07599132 -0.10240051 -0.016656332 0.058304794 -0.029386777 -0.11744991 0.0037492868 0.040373165 -0.051830705 -0.052445363 0.0099066235 0.07265679 0.050802227 -0.089174286 -0.03846003 0.09343304 -0.0032533007 -0.006842103 0.038035907 -0.0492649 -0.0144173745 -0.011339097 0.04564555 -0.07082407 0.073982194 -0.0058652996 0.009015333 -0.042819995 -0.038137924 -0.067551576 0.07780922 -0.006619488
از -0.029971084 0.044828676 -0.020666042 -0.0046988535 0.10155401 -0.12972592 -0.07473274 0.013728239 0.1217505 0.03412785 0.0075089405 -0.0725058 -0.09615527 0.07807446 0.10185107 -0.0026034506 -0.12060328 0.01672235 0.010330363 0.031917155 -0.014535497 0.023600612 -0.11029114 0.03978008 0.04279706 -0.033464413 -0.18400408 0.034645915 0.02686716 -0.10735081 -0.025554087 0.17670222 -0.07915718 -0.08539421 -0.070319705 -0.09099406 -0.112902164 -0.01630661 0.006752145 0.028310476 0.10283817 -0.04823317 0.02213589 0.04912155 -0.009696216 -0.0012039115 0.049194057 0.15739141 0.0580219 0.055411372 0.03274584 0.013336239 -0.033311475 -0.007518423 -4.8527356e-05 -0.041429564 0.0054540015 -0.010217291 -0.0604221 0.08739145 0.065842904 -0.20229064 -0.12402276 0.04364728 -0.017673971 0.0784919 -0.00489657 -0.042035803 -0.092333555 -0.069914974 0.009669241 0.014574591 -0.06602206 0.06141946 -0.13232996 -0.02882556 0.04020884 0.021906467 -0.0017236976 -0.006758462 -0.06514803 0.004404367 0.1126987 -0.13700148 0.0011263889 -0.015198731 -0.005215436 0.11176221 -0.066892065 0.061047375 -0.057692803 0.011062133 0.012390406 -0.07458935 0.033630043 -0.0021845794 0.03832994 0.040293068 0.107909776 -0.0025332416 -0.002195344 0.036182996 0.0069898292 0.030837085 0.034367733 0.0921623 -0.039208435 0.098663785 -0.021275418 0.07854186 -0.028459469 0.08443773 0.06474476 0.14326115 0.0695303 -0.07828101 -0.12464966 0.07248537 -0.0043304292 0.060080014 0.17443103 -0.005327415 -0.0898129 -0.103481196 0.021169249 0.12202032 0.095051624 -0.065198064 0.038323235 0.07090593 0.15709327 0.0019266425 -0.075831085 -0.07210887 -0.06699248 0.13362916 -0.14873126 -0.02085931 0.011334268 -0.0665798 0.12423269 -0.09682699 -0.045857504 0.0023577006 -0.06657443 -0.044830278 -0.0053213667 0.081878744 0.02907455 0.0268622 -0.011055994 0.014930785 -0.05300655 -0.051196486 0.07779142 -0.04513601 0.052933507 -0.059257224 0.083928876 0.0091115255 0.0001536477 0.12009747 0.20058241 0.06534544 0.06762235 0.04573997 0.052550342 -0.0047532106 0.07536957 -0.10106232 -0.017879268 0.06079031 -0.029998712 -0.11607127 0.0050440733 0.042059027 -0.053517744 -0.051695775 0.009938453 0.07126684 0.04980626 -0.09097823 -0.03656359 0.09591808 -0.00089413807 -0.007867471 0.0391975 -0.047488507 -0.0152441785 -0.013464022 0.046644185 -0.07143397 0.0718454 -0.0067967717 0.008721667 -0.04206144 -0.037776593 -0.06791635 0.0776413 -0.0067486833
و -0.030570323 0.044212144 -0.020723533 -0.0044294163 0.10081148 -0.1301324 -0.07415675 0.012198316 0.122572534 0.03432969 0.0075099 -0.071800984 -0.09592414 0.07747059 0.101797104 -0.0033558062 -0.12127253 0.015110054 0.0109195905 0.03154892 -0.016029762 0.022918716 -0.11124356 0.03963646 0.04511375 -0.034039095 -0.18405668 0.03587491 0.025067085 -0.10793346 -0.023183309 0.17502742 -0.07785127 -0.08373633 -0.07032186 -0.08810659 -0.11371922 -0.014930528 0.006683158 0.028254328 0.103427544 -0.049790904 0.023535348 0.048031393 -0.011729547 -0.0015395973 0.047933873 0.15477128 0.0556816 0.056566935 0.03526177 0.013197025 -0.03349077 -0.0073551233 -4.911491e-05 -0.041633535 0.004607047 -0.012636635 -0.058160108 0.08548841 0.067353696 -0.20390081 -0.124650955 0.0444635 -0.017029792 0.078074254 -0.006889042 -0.043680675 -0.09171481 -0.06951332 0.00952543 0.014226607 -0.06465157 0.06155764 -0.13212565 -0.027737876 0.041638147 0.022119584 -0.0017478849 -0.0059211846 -0.06317246 0.0049900077 0.11185862 -0.13505246 0.002385865 -0.015369219 -0.0053861463 0.11135056 -0.06732084 0.06139897 -0.05524215 0.011199699 0.014034295 -0.074855894 0.034424223 -0.0020927005 0.037417192 0.04231504 0.11004216 -0.0033978343 -0.0013275023 0.03476796 0.007288827 0.030613855 0.034472477 0.091014035 -0.03820456 0.09780155 -0.022020554 0.07965105 -0.028427903 0.08490158 0.063095234 0.1421786 0.06920009 -0.07845169 -0.12415048 0.07431968 -0.0056858277 0.05946805 0.1750901 -0.0064370125 -0.0906188 -0.105551146 0.023004893 0.12231549 0.096506245 -0.0656732 0.03614033 0.06980012 0.15777618 0.001499716 -0.07580875 -0.0733415 -0.06568682 0.134263 -0.14880863 -0.018716695 0.012375227 -0.06681222 0.12623802 -0.09392063 -0.04385194 0.0029020978 -0.06649348 -0.04500373 -0.0071682096 0.08189005 0.02719129 0.0269534 -0.011775961 0.016836466 -0.054762807 -0.05095206 0.07791842 -0.04515715 0.054499213 -0.059339 0.084139876 0.009195872 -0.0026312512 0.12154315 0.2005174 0.063766226 0.07042731 0.047408033 0.053724013 -0.0057288087 0.074644394 -0.10157387 -0.015544733 0.058795176 -0.029015243 -0.11709122 0.0048455354 0.04076701 -0.052176766 -0.05232621 0.010910166 0.07087575 0.050114464 -0.091821775 -0.037164833 0.09669512 -0.0022833582 -0.0092600845 0.03774033 -0.04884126 -0.014386103 -0.013104007 0.048578404 -0.07156029 0.0739532 -0.0062167845 0.008490476 -0.041071147 -0.038202453 -0.06818609 0.07638525 -0.0072346036
که -0.028206969 0.04606013 -0.020514188 -0.0027150984 0.10235238 -0.12853979 -0.07486942 0.012323366 0.12394454 0.033753365 0.0067122485 -0.073103055 -0.09573989 0.077205524 0.10212439 -0.0036911306 -0.12005022 0.015159855 0.010171695 0.030996347 -0.01490256 0.023239424 -0.10968854 0.04140435 0.042981286 -0.03429642 -0.1840488 0.037595782 0.025674772 -0.10925062 -0.0237717 0.17567283 -0.07916058 -0.08537405 -0.06744314 -0.088397086 -0.11409944 -0.01593648 0.007825123 0.027477438 0.10262893 -0.049393177 0.023213355 0.048650518 -0.009360191 -0.0017315911 0.048760746 0.15613925 0.05659455 0.05614173 0.032115232 0.014947449 -0.032561857 -0.0054445826 0.00091595517 -0.043238565 0.0052126157 -0.011364413 -0.058789466 0.08714889 0.06715794 -0.2037234 -0.12576284 0.044580575 -0.018111227 0.076871976 -0.004486426 -0.042116597 -0.09311218 -0.068457276 0.0078287795 0.014847397 -0.06555085 0.06347306 -0.13422051 -0.02884061 0.041031417 0.022544097 -0.0030496176 -0.00849497 -0.06289595 0.0066902656 0.11252055 -0.13554545 0.0026438853 -0.015411826 -0.007615021 0.110278554 -0.065498605 0.059895914 -0.058174618 0.012227515 0.013230337 -0.073580235 0.034370523 -0.0038125995 0.03851561 0.04235305 0.11068152 -0.0031848561 -0.0029951008 0.036048826 0.005699539 0.031084964 0.035770833 0.092565924 -0.038843956 0.09699901 -0.022445817 0.08018824 -0.0257743 0.084352106 0.062689215 0.14166753 0.071188465 -0.079128265 -0.124100484 0.07213727 -0.006954434 0.059911788 0.17440523 -0.005486873 -0.089403704 -0.10410743 0.021000315 0.121348456 0.09650891 -0.06793754 0.037583984 0.06850809 0.15670517 0.0016259647 -0.0778648 -0.07391421 -0.06808622 0.13270111 -0.14924996 -0.01951179 0.01206084 -0.06718821 0.12598902 -0.09646508 -0.045884985 0.0045635863 -0.06712455 -0.046539854 -0.008104888 0.08174558 0.026632233 0.026238186 -0.012436358 0.01531773 -0.05455139 -0.05110534 0.07784285 -0.042184144 0.05246718 -0.057706594 0.083386764 0.0076851 -0.00024530807 0.119863406 0.1995165 0.06437082 0.07037102 0.047502115 0.05243697 -0.0047894283 0.0748235 -0.10095124 -0.015749456 0.060551926 -0.029569868 -0.115427986 0.004843573 0.039861333 -0.054443195 -0.049851708 0.008774461 0.07068254 0.048946332 -0.09032756 -0.03891574 0.094700456 -0.00026620863 -0.008156467 0.03764405 -0.049208134 -0.016707567 -0.013234869 0.048116434 -0.07193129 0.07453206 -0.006255809 0.00914716 -0.040063497 -0.039119206 -0.06943267 0.07622348 -0.005767097
را -0.030387465 0.045605637 -0.021947125 -0.004429545 0.10081943 -0.13051389 -0.07266442 0.014519988 0.12418008 0.03429249 0.009725799 -0.07128627 -0.094673045 0.0785849 0.10290946 -0.004216801 -0.121025614 0.01452795 0.008240231 0.032704625 -0.014554665 0.021420535 -0.110657275 0.04129283 0.044519424 -0.033706065 -0.18423314 0.036985435 0.025379892 -0.108006075 -0.02348205 0.17607908 -0.08002767 -0.08249122 -0.06855852 -0.09072223 -0.114714384 -0.016896062 0.0052645705 0.029764256 0.10351276 -0.049586218 0.02221027 0.048038006 -0.011473968 -0.0017363913 0.049804293 0.15505858 0.057286106 0.054987583 0.034700677 0.014611263 -0.031018306 -0.006934997 -0.0011497231 -0.041380923 0.0046532517 -0.010779384 -0.060646757 0.08404314 0.06728766 -0.20295808 -0.12494572 0.046399064 -0.01805345 0.07862635 -0.0056496244 -0.04113542 -0.09321801 -0.070469856 0.007983053 0.013971944 -0.06488832 0.06339528 -0.1338167 -0.029674692 0.041039154 0.021673802 -0.0042869956 -0.0072161304 -0.06442595 0.0058800657 0.11314366 -0.13654122 0.0029381865 -0.012588047 -0.0049463855 0.11175901 -0.06585238 0.060183093 -0.05790038 0.011487263 0.0121428 -0.075507686 0.03612613 -0.0030674662 0.037308287 0.039673917 0.1095567 -0.0033345374 -0.0034595656 0.036408547 0.0076327682 0.031660333 0.03315639 0.09147888 -0.03887765 0.09612845 -0.021291515 0.0781625 -0.027404811 0.08285705 0.06375378 0.14199628 0.068794765 -0.07637897 -0.12573503 0.07392734 -0.006591343 0.057643153 0.1741706 -0.005886452 -0.08840017 -0.10447811 0.023074092 0.12234664 0.096490346 -0.06748399 0.0361199 0.069346786 0.15533167 0.0019065725 -0.0756912 -0.073553585 -0.06629208 0.13406429 -0.14756612 -0.02009948 0.013562135 -0.06886246 0.12577455 -0.094672665 -0.045364484 0.004093902 -0.06521401 -0.04561036 -0.0065437937 0.08143236 0.02795793 0.027582223 -0.010800529 0.014951194 -0.054206077 -0.051927328 0.079721384 -0.04304219 0.052757934 -0.05870125 0.08560888 0.00905238 -0.00059638626 0.11974418 0.19998278 0.06454318 0.070752665 0.047286324 0.052596387 -0.004847683 0.0751352 -0.10170086 -0.01762674 0.058341745 -0.030128336 -0.11616095 0.0043000914 0.04036539 -0.05324321 -0.05208962 0.008887205 0.071890995 0.049285784 -0.091642626 -0.03826262 0.09637697 -0.00011031601 -0.0067813853 0.037251156 -0.047540963 -0.016463673 -0.011880326 0.047014486 -0.070085466 0.073949754 -0.006691056 0.010309524 -0.040152542 -0.038660273 -0.067741156 0.07803027 -0.0086697955
جنوبی -0.030769708 0.04386463 -0.018816005 -0.0018304526 0.10048276 -0.13104449 -0.07345217 0.014320495 0.12344639 0.032585207 0.0071646287 -0.073954895 -0.09710089 0.07528936 0.103074685 -0.0029760767 -0.11915487 0.015375502 0.0114532495 0.030940076 -0.012890169 0.021373827 -0.11190393 0.04088819 0.042710077 -0.03427088 -0.18324882 0.035249766 0.025866924 -0.11000753 -0.022092074 0.17301396 -0.0781501 -0.083789036 -0.068553925 -0.08833892 -0.113252185 -0.015738338 0.008060552 0.027529094 0.10483426 -0.04956511 0.022164514 0.050752323 -0.009738867 -0.0027531888 0.048270702 0.15640208 0.057910293 0.054816615 0.0330686 0.013900863 -0.032142617 -0.0075248573 0.0016504996 -0.041772958 0.005518153 -0.011491308 -0.060914278 0.08531654 0.065819874 -0.20425941 -0.12372444 0.046364173 -0.020069445 0.07875217 -0.006067049 -0.044822358 -0.09309386 -0.06890218 0.008103702 0.012799182 -0.0662177 0.060329344 -0.13079394 -0.026753636 0.04194877 0.020292014 -0.0038713147 -0.0073458194 -0.063346 0.0036117407 0.111516446 -0.13757707 0.0034948539 -0.013009241 -0.0056611584 0.11178442 -0.06690506 0.06296832 -0.058214013 0.01408491 0.014147786 -0.07640814 0.03260827 -0.0044377525 0.038968317 0.04239825 0.11009241 -0.0039343247 -0.0044179927 0.034645956 0.005170695 0.03185618 0.033916563 0.09308017 -0.035729002 0.09819203 -0.023723222 0.07805015 -0.026920691 0.08346092 0.06368058 0.14191702 0.069094166 -0.07788405 -0.12531257 0.074089855 -0.0060866117 0.058032285 0.17562671 -0.006121184 -0.08903962 -0.1057711 0.022847058 0.12317265 0.09738001 -0.06528385 0.03863929 0.06835618 0.15818153 0.0004887051 -0.07662101 -0.070998274 -0.065908566 0.1351104 -0.14928542 -0.019026585 0.012210304 -0.06841232 0.12590364 -0.095729925 -0.045423843 0.004950902 -0.06428432 -0.043520853 -0.008471863 0.08283992 0.02692136 0.025307609 -0.00996043 0.013606606 -0.05418109 -0.05183555 0.07922298 -0.045126047 0.055735502 -0.058125343 0.08446788 0.008227857 -0.0024147124 0.11893578 0.20008346 0.0630779 0.06965881 0.048212864 0.054790176 -0.004810773 0.07411445 -0.10125741 -0.017360479 0.057460874 -0.029091787 -0.115130655 0.0038762032 0.039672572 -0.0515528 -0.050388277 0.011819786 0.07110449 0.04781027 -0.09232085 -0.039371297 0.097231366 -0.00017078612 -0.00997495 0.039572906 -0.04621682 -0.016863948 -0.010737274 0.04522929 -0.06971442 0.072301224 -0.005378438 0.009327493 -0.041983705 -0.038341302 -0.067194626 0.0779263 -0.005568896
این -0.02707778 0.04672881 -0.022083849 -0.003118219 0.10299791 -0.12927997 -0.07336254 0.013668039 0.1240113 0.032280173 0.010071104 -0.072961435 -0.09752474 0.07619739 0.104446165 -0.0021741786 -0.11903991 0.016220283 0.00793661 0.032961003 -0.0135586895 0.021397453 -0.10811479 0.04104985 0.04371855 -0.033420503 -0.18355781 0.034373768 0.026978485 -0.109785944 -0.02390114 0.17683172 -0.077588476 -0.08498827 -0.06947044 -0.09060903 -0.11517769 -0.016596101 0.005759787 0.0292808 0.10485475 -0.048944425 0.024373483 0.049953803 -0.00957798 -0.0013722507 0.050785128 0.15398741 0.057393037 0.054917198 0.03516148 0.01383734 -0.03174352 -0.006511952 -0.0011669307 -0.04378553 0.0051900065 -0.010893019 -0.058370646 0.084310114 0.0677301 -0.20249255 -0.12538832 0.046258423 -0.016841112 0.0769617 -0.007057434 -0.042696755 -0.094267204 -0.06964685 0.00720753 0.012187675 -0.06399824 0.06251699 -0.13488166 -0.027379831 0.040128328 0.019278413 -0.000946265 -0.005096513 -0.063324325 0.0046889894 0.11037647 -0.13643491 8.655624e-05 -0.01466857 -0.0064472645 0.109702736 -0.06762843 0.061433285 -0.05617666 0.011222647 0.014416952 -0.07303328 0.0322676 -0.0014530934 0.03785027 0.042186595 0.11064175 -0.0048633404 -0.003316704 0.036978446 0.006395945 0.030950235 0.036619585 0.09222879 -0.036290184 0.09985685 -0.02252588 0.07739749 -0.028346097 0.0852556 0.06378048 0.14170747 0.07042269 -0.07756452 -0.12645589 0.07402835 -0.004426888 0.059365712 0.17452323 -0.0048298975 -0.09087494 -0.10334391 0.020537661 0.11963586 0.09507507 -0.06527115 0.03705982 0.070273355 0.15719892 0.00022446837 -0.07819476 -0.07150965 -0.06690595 0.13263838 -0.14823605 -0.021384353 0.012650276 -0.0660084 0.12558791 -0.09625599 -0.045044817 0.0049683605 -0.063436754 -0.045754846 -0.0075144423 0.081758864 0.029185332 0.028282696 -0.012167951 0.016184516 -0.054154508 -0.04978648 0.08071123 -0.043088462 0.05406909 -0.05716663 0.08579425 0.009379477 -0.0008143557 0.12113116 0.19896209 0.06511445 0.06790521 0.04567364 0.05340948 -0.006289475 0.07359999 -0.10220546 -0.017815588 0.060734224 -0.029748838 -0.116326384 0.0035799833 0.04102834 -0.054104403 -0.051182147 0.011307746 0.07216561 0.050509606 -0.08904205 -0.035681315 0.094141245 -0.00283563 -0.009387917 0.037674986 -0.04851148 -0.015676348 -0.010746205 0.047370173 -0.07276504 0.073610954 -0.008278369 0.008770398 -0.040804528 -0.03729305 -0.06878244 0.07847583 -0.0093906
دو -0.027772546 0.043894973 -0.022405837 -0.00205871 0.10261209 -0.12800491 -0.07585306 0.0131133 0.12326066 0.03349374 0.00935778 -0.07073095 -0.09885876 0.075926036 0.10248627 -0.0023889677 -0.1182404 0.01549524 0.010348508 0.031094931 -0.0143957855 0.024262281 -0.11050971 0.04218029 0.044852816 -0.034137707 -0.18333761 0.037925992 0.026885636 -0.10988395 -0.025546012 0.17609586 -0.07836263 -0.08558586 -0.07129638 -0.08756136 -0.11446583 -0.014090216 0.007522781 0.027658401 0.10491119 -0.049637888 0.023082547 0.04847867 -0.012053796 -0.0028063536 0.04808155 0.15497316 0.055781133 0.056702286 0.032994747 0.014593342 -0.031880595 -0.006722113 0.0010189052 -0.041915122 0.004945455 -0.010566514 -0.058028553 0.08574346 0.067389525 -0.20466393 -0.12524536 0.046567667 -0.018655337 0.07949048 -0.0072710617 -0.041880503 -0.09447174 -0.06964552 0.008063027 0.013084079 -0.062672704 0.06457058 -0.13314706 -0.030179698 0.040290788 0.02131821 -0.0034756649 -0.007712931 -0.06348175 0.0075716074 0.11324114 -0.13693322 0.0010781542 -0.0151337935 -0.004113319 0.109249346 -0.06798696 0.060492314 -0.05518705 0.012365669 0.013783254 -0.07453641 0.035351958 -0.0019723892 0.035706814 0.039312135 0.10760932 -0.0036834783 -0.002769376 0.036120046 0.008236877 0.031021204 0.033443436 0.0913235 -0.036409378 0.099389985 -0.020012468 0.08105552 -0.02749762 0.08553752 0.062013276 0.14086072 0.06828777 -0.07799291 -0.1247634 0.07270852 -0.0053405645 0.060612462 0.17459835 -0.0060996315 -0.09182506 -0.10274455 0.020370733 0.12261345 0.09520174 -0.06637167 0.03710186 0.07075207 0.15655917 -0.00013709906 -0.0779292 -0.07088596 -0.06515114 0.13177527 -0.14873526 -0.018485129 0.0130706355 -0.06778312 0.123914674 -0.096721575 -0.04374612 0.0035409897 -0.06498744 -0.0468617 -0.005519848 0.0813908 0.030031528 0.027996864 -0.0107559785 0.016701786 -0.053742405 -0.05037763 0.07895955 -0.045224033 0.05372164 -0.06031902 0.085391745 0.0060923146 -0.0017538104 0.11895998 0.19919035 0.06341792 0.07071354 0.046738606 0.05192732 -0.00378091 0.073831305 -0.10116278 -0.017358419 0.058934074 -0.030419512 -0.11687967 0.0054552043 0.039579675 -0.052924413 -0.049639914 0.009545339 0.07282173 0.051162824 -0.09111808 -0.038584437 0.09675052 -0.00048305807 -0.007929254 0.04002353 -0.048974857 -0.016263172 -0.012898127 0.048589125 -0.07109897 0.07478572 -0.0084081 0.009593524 -0.041663084 -0.038448002 -0.067747794 0.07675049 -0.0063919304
است -0.030032534 0.044244897 -0.020207234 -0.0040406073 0.101265736 -0.13049097 -0.07258422 0.01447896 0.12176698 0.03456579 0.006730887 -0.07020927 -0.09771723 0.07585667 0.10332238 -0.0022533657 -0.11881026 0.016112868 0.010921542 0.030551031 -0.0137340445 0.021410981 -0.11088212 0.041695993 0.042773303 -0.032214884 -0.18485318 0.03729281 0.024100514 -0.10865089 -0.025341937 0.17564324 -0.07912577 -0.0841762 -0.069119334 -0.08913596 -0.113023765 -0.015700288 0.0057673356 0.03004793 0.10363509 -0.048561495 0.02372333 0.04803766 -0.011771465 -0.0016806915 0.048710775 0.15739092 0.054849613 0.054809693 0.032455847 0.013796661 -0.03323301 -0.004818339 -0.0011119702 -0.042062808 0.0044830074 -0.012829019 -0.061118424 0.08654471 0.06486071 -0.20220579 -0.124979965 0.043589424 -0.016792629 0.07784674 -0.004292369 -0.0418333 -0.0942419 -0.07055594 0.008045183 0.01349576 -0.06340732 0.060451336 -0.13278878 -0.028516172 0.0390793 0.021733345 -0.0021855303 -0.007701367 -0.06523454 0.0046766945 0.1109213 -0.13470776 0.000810072 -0.01578132 -0.0070968643 0.11228154 -0.067828685 0.05986677 -0.057950012 0.012214695 0.012233373 -0.07572586 0.033728406 -0.0012580744 0.038115803 0.04201585 0.11045986 -0.004233893 -0.002940961 0.037042778 0.00748413 0.031288493 0.033369575 0.09280475 -0.03608615 0.099857844 -0.020347591 0.079388306 -0.028548833 0.0833355 0.06350463 0.14361975 0.07088927 -0.078634396 -0.12626888 0.07421649 -0.0069036167 0.06006383 0.17536266 -0.0047972067 -0.08997123 -0.102095105 0.020922337 0.12174493 0.09723359 -0.067976944 0.03707947 0.06824028 0.15859291 0.0005394832 -0.07647892 -0.07452412 -0.06501028 0.13196819 -0.14639352 -0.021507468 0.014102834 -0.06763144 0.12418217 -0.09508104 -0.04377646 0.0017820601 -0.067311645 -0.043801583 -0.0072830473 0.081842214 0.026719918 0.028070139 -0.012645134 0.01649223 -0.053800024 -0.05051559 0.07818475 -0.0446746 0.05380926 -0.058462415 0.085769676 0.0070533357 0.00049961417 0.12181264 0.20060903 0.06362809 0.06955342 0.046041783 0.053053338 -0.005601725 0.07446018 -0.1009244 -0.017584324 0.06012592 -0.028302837 -0.11571164 0.007023757 0.040583156 -0.052662186 -0.052542496 0.01106477 0.07172088 0.05071323 -0.08859934 -0.039390467 0.09609952 -0.0026279143 -0.006773461 0.03736746 -0.0491646 -0.017112225 -0.013154388 0.048233736 -0.072573505 0.075010575 -0.0078891795 0.010449474 -0.03951703 -0.036893368 -0.06894117 0.07620649 -0.0062058307
با -0.030626789 0.045596547 -0.02227113 -0.0046050786 0.1006653 -0.12980549 -0.073787995 0.0137050105 0.12386487 0.03272761 0.0070178467 -0.07105657 -0.09808186 0.076028846 0.10400198 -0.0030453594 -0.12099969 0.014946194 0.009215308 0.031401895 -0.016346166 0.021551015 -0.11087983 0.039907783 0.044982754 -0.032373864 -0.18214792 0.034518663 0.025242249 -0.10958462 -0.025168262 0.1738068 -0.07700746 -0.085705794 -0.07052919 -0.090894744 -0.1126049 -0.015007401 0.006874062 0.028133709 0.105016865 -0.050020877 0.022134595 0.049328644 -0.010030524 -0.0013165519 0.04819194 0.15609376 0.05749563 0.05374069 0.033193737 0.012811575 -0.032889847 -0.0067244773 0.0007515219 -0.040827803 0.005413527 -0.013217408 -0.0583694 0.087341845 0.06664058 -0.20139252 -0.1256286 0.044846844 -0.018302314 0.079407185 -0.0064252275 -0.04099211 -0.09199505 -0.069743186 0.009837258 0.013747959 -0.06457065 0.06101558 -0.13209961 -0.028993206 0.040965065 0.020526815 -0.0022073167 -0.007549316 -0.06449283 0.0053290045 0.112222165 -0.13481735 0.0031200538 -0.014331916 -0.006385688 0.11104378 -0.06642268 0.06231657 -0.05665866 0.012534519 0.014358353 -0.075628616 0.03477077 -0.001431331 0.038367454 0.0390274 0.110665806 -0.0023303058 -0.0021688822 0.036386132 0.0053999606 0.031706806 0.03495992 0.09329744 -0.03866145 0.09897858 -0.02210973 0.077998094 -0.026774 0.08394674 0.06341396 0.14340849 0.0700683 -0.07629194 -0.12559997 0.07243053 -0.004624284 0.060140204 0.17531511 -0.0056668413 -0.08853371 -0.10543344 0.022586416 0.120061055 0.09761225 -0.06855454 0.035863686 0.06895069 0.15708928 0.0007115111 -0.07614394 -0.07396774 -0.064961284 0.13483159 -0.14730476 -0.021258064 0.011375773 -0.067766964 0.12432723 -0.096246436 -0.044477474 0.0051173954 -0.06521948 -0.043760624 -0.006735455 0.08215459 0.029719982 0.025217723 -0.010306415 0.016708737 -0.05413608 -0.051499024 0.08070365 -0.044661473 0.054427154 -0.05903509 0.08505003 0.009348356 3.430176e-05 0.12060553 0.19892846 0.065681815 0.06805624 0.046565417 0.051907793 -0.0068464 0.07673051 -0.10108107 -0.0151148075 0.058826074 -0.028897444 -0.11706764 0.005180432 0.042651616 -0.05220347 -0.052146096 0.008683339 0.072207406 0.05080462 -0.09187172 -0.03720749 0.093545765 -0.000804814 -0.0070715514 0.037319485 -0.048215143 -0.01532535 -0.01246719 0.04754798 -0.07186841 0.07385842 -0.007010806 0.00900337 -0.043079063 -0.03737077 -0.06906986 0.078510426 -0.0071185804
منطقه -0.028107556 0.042967085 -0.021971146 -0.001299009 0.10148516 -0.13046925 -0.07471213 0.013813698 0.123693995 0.033514198 0.009392892 -0.07339816 -0.09545472 0.07802567 0.10426069 -0.0033104962 -0.12124143 0.0149998525 0.009390287 0.030021554 -0.014464357 0.02094406 -0.10806963 0.041327987 0.04199709 -0.034234222 -0.18446152 0.037313364 0.024079956 -0.10819682 -0.024374556 0.17594114 -0.079592675 -0.08248138 -0.069824755 -0.08981693 -0.11376572 -0.017011158 0.005833628 0.028512381 0.10487499 -0.047025397 0.023139939 0.047089994 -0.009639518 -0.0038379156 0.047944117 0.15499333 0.05600258 0.05448203 0.03282644 0.014589532 -0.03131836 -0.007571555 -0.0015697207 -0.040946644 0.0036410743 -0.010821381 -0.059140425 0.08408692 0.06522347 -0.20381394 -0.12565255 0.045883823 -0.017578203 0.0768028 -0.007519389 -0.041769966 -0.09423903 -0.069022834 0.009370334 0.013354645 -0.064485036 0.063614085 -0.13196681 -0.027826207 0.03867107 0.021087881 -0.0035412007 -0.0054823034 -0.06362367 0.0042136568 0.11241431 -0.13688426 0.0014971192 -0.012942601 -0.0074880016 0.11239611 -0.068076305 0.06138464 -0.056666397 0.013541094 0.013842007 -0.075996384 0.03441689 -0.0017757167 0.03600813 0.041876376 0.10764147 -0.0037210062 -0.0033397817 0.036147736 0.008418709 0.030872218 0.03538467 0.093605235 -0.039562073 0.098166324 -0.021323051 0.0788654 -0.028498868 0.08546394 0.06315877 0.14309089 0.06811904 -0.07657111 -0.123622485 0.07333841 -0.0063112658 0.060212053 0.17520063 -0.005732547 -0.08969748 -0.10415407 0.021655751 0.12086777 0.0960275 -0.066583246 0.03564465 0.07064515 0.15806775 0.00057811436 -0.077565685 -0.07268927 -0.06743335 0.13323918 -0.14878416 -0.02068981 0.013144973 -0.06685219 0.12387747 -0.096797936 -0.044135507 0.0035195635 -0.06664983 -0.04574366 -0.006220704 0.08215186 0.028093819 0.0283297 -0.01063539 0.014431352 -0.052766338 -0.05057164 0.07893416 -0.044968523 0.053195324 -0.058153626 0.08499434 0.0083747115 -0.0017595534 0.12168675 0.19969061 0.06465805 0.07090504 0.04688337 0.051680375 -0.006248703 0.07670371 -0.099576056 -0.017773265 0.05889553 -0.030519612 -0.117649406 0.003998067 0.040063117 -0.053656206 -0.052280236 0.0121120075 0.07185299 0.04932191 -0.0906117 -0.03608904 0.09442272 -0.0030720108 -0.008949652 0.03712218 -0.047635164 -0.016703572 -0.013709738 0.046223596 -0.07096759 0.07385605 -0.0072941086 0.010078693 -0.0415453 -0.03832046 -0.06748214 0.07758278 -0.006164825
مذاکرات -0.030768862 0.046855398 -0.022450615 -0.00390926 0.10026534 -0.13023734 -0.07391852 0.013991934 0.122504726 0.03311679 0.008244729 -0.07198253 -0.09799789 0.07585363 0.1035011 -0.004657027 -0.120047756 0.015952202 0.008274596 0.030838186 -0.01486789 0.021502795 -0.108987205 0.04187025 0.042899366 -0.03436789 -0.18447186 0.0364546 0.023914894 -0.10841251 -0.023290329 0.1731818 -0.07961044 -0.08413008 -0.06859653 -0.0879881 -0.112702794 -0.014365476 0.006056878 0.027379032 0.10532928 -0.050180368 0.02236874 0.05061276 -0.012183443 -0.0026134863 0.04860182 0.15443684 0.057851057 0.05570267 0.033385117 0.016177984 -0.03175093 -0.00680981 -0.0019109717 -0.041601244 0.0032895945 -0.0130735105 -0.0599389 0.08591305 0.06796628 -0.20413145 -0.12501344 0.04698948 -0.019232374 0.0789771 -0.005084872 -0.044166572 -0.09199908 -0.070554554 0.0108330175 0.014527021 -0.06619725 0.063305095 -0.13403295 -0.028909264 0.038995888 0.021208063 -0.0017476496 -0.008079016 -0.062596336 0.0036892116 0.11012763 -0.13562584 0.00059790147 -0.013000682 -0.003902842 0.10974353 -0.06674229 0.06085607 -0.05467949 0.011622397 0.012732662 -0.07381164 0.03526965 -0.0030446777 0.038951315 0.039945636 0.11112137 -0.004238814 -0.004300516 0.036729112 0.00647313 0.030012492 0.03353001 0.09312809 -0.03648016 0.09922224 -0.020648682 0.07897145 -0.028770577 0.08537492 0.06336716 0.14136799 0.07108627 -0.07811861 -0.12656473 0.074204154 -0.005863274 0.058993 0.17160767 -0.0048245564 -0.089120835 -0.103885606 0.021645067 0.12135673 0.0943292 -0.06726757 0.038919836 0.070206776 0.15518953 -0.0012920847 -0.07839964 -0.07136189 -0.06796033 0.13426073 -0.14999269 -0.01870274 0.014209314 -0.06745582 0.12622608 -0.09534552 -0.04434733 0.0033883913 -0.0641431 -0.046857655 -0.0067975093 0.08231236 0.02657095 0.027013963 -0.010288985 0.016671466 -0.053368244 -0.05120816 0.07732694 -0.043408398 0.054776073 -0.059709586 0.08406798 0.006684118 -0.0025805922 0.121537045 0.20013203 0.064916454 0.07119655 0.04593201 0.054280475 -0.004674481 0.076350264 -0.10138948 -0.017013125 0.05991483 -0.030855354 -0.11626681 0.0069238073 0.04020585 -0.053613376 -0.052866776 0.012309456 0.07232197 0.051141586 -0.08943272 -0.03743598 0.095007524 -0.0023815911 -0.0074927057 0.040172283 -0.048850473 -0.015428661 -0.01355127 0.04704316 -0.07302136 0.07415443 -0.007811148 0.008385706 -0.040828742 -0.036664624 -0.06757536 0.07635562 -0.0074802153
کشور -0.030619446 0.045088056 -0.018974781 -0.0045221066 0.10242696 -0.13046694 -0.07488578 0.01122478 0.12496921 0.031889997 0.009800014 -0.07214872 -0.09778489 0.07602511 0.10446919 -0.0014168891 -0.12099892 0.017779507 0.007989641 0.029609717 -0.016331043 0.020874007 -0.11109498 0.042025562 0.043328986 -0.033051547 -0.18431371 0.037388373 0.027544292 -0.107536845 -0.022382615 0.1744151 -0.077935316 -0.08305777 -0.069339804 -0.08999508 -0.11426099 -0.013878963 0.005813985 0.030277219 0.10469806 -0.05048192 0.024194963 0.049607676 -0.01118032 -0.0015553392 0.05079953 0.1574832 0.057987854 0.05516104 0.03503637 0.015405717 -0.030839095 -0.007400088 -0.00090547936 -0.03946283 0.006869483 -0.011634016 -0.05883185 0.086489506 0.06590172 -0.200686 -0.12560415 0.046589512 -0.019625481 0.07928896 -0.0035361797 -0.04359554 -0.092592165 -0.07049413 0.009451594 0.01547532 -0.06350672 0.064134404 -0.13501789 -0.028918417 0.038115244 0.020762669 -0.0049007954 -0.00537806 -0.065441 0.0046566175 0.11337975 -0.13719694 0.0018129884 -0.015379618 -0.005207105 0.11201183 -0.065060474 0.06191939 -0.055054165 0.013104595 0.012528541 -0.07485028 0.035222642 -0.004146439 0.036725312 0.041464772 0.10856444 -0.005499884 -0.0027174482 0.037032206 0.0071276096 0.030357467 0.034284808 0.089824356 -0.038310997 0.096149325 -0.023587694 0.079980694 -0.02603611 0.08357792 0.06130764 0.14083605 0.06838523 -0.07775034 -0.12557799 0.071063824 -0.0046104905 0.059874196 0.17316833 -0.0066082836 -0.08927636 -0.105459936 0.02365576 0.122441165 0.09652165 -0.06556012 0.037692565 0.06990003 0.15749514 0.0005461873 -0.07869033 -0.07365861 -0.06755533 0.13184 -0.14846376 -0.017370015 0.0119805215 -0.06859721 0.12583733 -0.09536472 -0.04404651 0.0037915267 -0.06467205 -0.042923674 -0.008359996 0.0806279 0.029372597 0.025153846 -0.010930384 0.015486355 -0.05435313 -0.049098667 0.0798334 -0.042175323 0.053641237 -0.060557388 0.0835704 0.0066445656 -0.002303881 0.120584585 0.20059583 0.06454252 0.070667155 0.047880244 0.052601404 -0.0041776556 0.07605896 -0.10129569 -0.017363451 0.060763296 -0.031850655 -0.11556736 0.0050921026 0.042291936 -0.05387591 -0.05152222 0.012229522 0.07289208 0.0481953 -0.08878376 -0.03789571 0.09415324 -0.0029513228 -0.008054318 0.038357016 -0.048485316 -0.013524557 -0.011955094 0.046699256 -0.071000576 0.070901915 -0.008811952 0.008470097 -0.04143312 -0.039011825 -0.067272246 0.07503917 -0.006707457
کرد -0.029932002 0.043702718 -0.01982476 -0.004891293 0.100208916 -0.1278685 -0.07433114 0.0119079845 0.12218532 0.034228135 0.0096464185 -0.0716587 -0.09527879 0.07760844 0.1041236 -0.0023567886 -0.120052926 0.0132644065 0.01098853 0.03170488 -0.016702909 0.021290308 -0.11131826 0.04041255 0.043512315 -0.032971036 -0.18319112 0.036836684 0.026370049 -0.10757586 -0.024945587 0.17486638 -0.0786432 -0.08581476 -0.068282895 -0.08942766 -0.11527925 -0.017361559 0.008043598 0.029634753 0.10492038 -0.047742166 0.02080575 0.048959516 -0.010334063 -0.0010494562 0.049319837 0.15416555 0.05691374 0.05732266 0.03471228 0.015547958 -0.030562071 -0.005513633 0.0022543643 -0.04164267 0.0037896654 -0.009780616 -0.060572863 0.087426536 0.06767797 -0.20347515 -0.12415056 0.04367712 -0.01981011 0.07710711 -0.0054018646 -0.04214628 -0.09194404 -0.07104101 0.0084749535 0.0138043575 -0.063348375 0.06094984 -0.13445282 -0.029197691 0.041505363 0.020864904 -0.0038086707 -0.00558007 -0.061935205 0.007518789 0.11275519 -0.13642053 0.0038291109 -0.014249774 -0.006314445 0.11217293 -0.06681668 0.059499077 -0.058173925 0.013829209 0.012769369 -0.074910216 0.036707845 -0.0036428138 0.037116323 0.040555354 0.10986351 -0.00515781 -0.0040154625 0.03738906 0.005821063 0.029704755 0.03643028 0.09113794 -0.037447434 0.097709596 -0.02377965 0.0799911 -0.025353575 0.08532312 0.061218534 0.1437722 0.07018333 -0.07863867 -0.12509996 0.073458366 -0.0068090186 0.056980792 0.17467396 -0.0064940453 -0.09087346 -0.10431185 0.02320471 0.12011882 0.09715506 -0.06848981 0.038895365 0.06749655 0.15598704 0.0010374412 -0.07737681 -0.07287086 -0.06667964 0.13253526 -0.14881825 -0.018189857 0.010580146 -0.0678444 0.124505416 -0.09480403 -0.045481082 0.0026024205 -0.06707463 -0.0467675 -0.0066043767 0.08271846 0.029797273 0.025097378 -0.012001587 0.01404109 -0.055485535 -0.0515764 0.078295365 -0.04228754 0.053261377 -0.06010136 0.08506532 0.009288335 -0.00025052004 0.12191047 0.20024224 0.06262788 0.06755883 0.04871301 0.052033875 -0.003557488 0.07532481 -0.101217754 -0.015835688 0.06032556 -0.030309526 -0.1164106 0.0070022875 0.042556096 -0.053970814 -0.049282983 0.007975756 0.07153519 0.050835863 -0.091460556 -0.038939837 0.09646294 -0.0022294787 -0.008718157 0.03847184 -0.048819687 -0.014333876 -0.013079872 0.048498504 -0.07078475 0.0718934 -0.005909236 0.007930862 -0.03919392 -0.039751105 -0.06877689 0.07602171 -0.0067402828
برای -0.028681532 0.044673923 -0.020029368 -0.0036853582 0.101612374 -0.12853944 -0.0730936 0.0139284255 0.12477633 0.033849243 0.009376075 -0.07076898 -0.09877186 0.07903457 0.10348694 -0.0020478973 -0.12035942 0.01653647 0.010471772 0.029285733 -0.013329882 0.021814065 -0.10847576 0.040606383 0.045900043 -0.034270365 -0.18535125 0.03481463 0.02432785 -0.1081154 -0.025050497 0.17428395 -0.07722555 -0.08481663 -0.06783021 -0.09054244 -0.115210466 -0.013907131 0.0048360243 0.02990571 0.103903905 -0.048024833 0.023235321 0.050699364 -0.011936655 -0.00037073263 0.04825777 0.15571359 0.05815874 0.054253623 0.033153757 0.0153258275 -0.034178134 -0.0047934903 0.00063363777 -0.041066855 0.0043786094 -0.01334895 -0.057834197 0.08703608 0.06588278 -0.20429888 -0.12501363 0.044089027 -0.019703532 0.079950675 -0.0042048045 -0.04408371 -0.091886796 -0.07108454 0.009204356 0.014889177 -0.06515069 0.060876243 -0.13326025 -0.030676043 0.03903494 0.019594463 -0.0019276567 -0.006027558 -0.06464681 0.0041066185 0.113554195 -0.13608989 0.0037065186 -0.015153952 -0.005089782 0.11009778 -0.06518701 0.06098026 -0.057030935 0.012561628 0.0117039755 -0.07459725 0.03553277 -0.0036619771 0.03649042 0.042095445 0.11015919 -0.0025778483 -0.0021636921 0.036774352 0.0058247824 0.031497546 0.0351761 0.091052055 -0.038577333 0.096956134 -0.021527737 0.0784454 -0.025523506 0.08351 0.063666776 0.14342207 0.0696911 -0.07824716 -0.12709142 0.073938854 -0.0054906467 0.057665635 0.17527542 -0.005186411 -0.089151755 -0.10553526 0.019862 0.11995409 0.096834384 -0.06552674 0.035453767 0.071342774 0.15683363 0.0008993654 -0.076008484 -0.0744579 -0.06514279 0.13529623 -0.1488852 -0.021128418 0.012417059 -0.06628239 0.12610357 -0.09653115 -0.046113424 0.0024837414 -0.063945904 -0.04648683 -0.007374055 0.08012698 0.027861094 0.024987249 -0.011359876 0.014200496 -0.053201694 -0.05190002 0.07735922 -0.04265473 0.05525781 -0.06074826 0.08336939 0.007283 -0.0032535244 0.120411105 0.19794019 0.06328385 0.069707416 0.04703469 0.05397546 -0.0051372126 0.075083986 -0.103318 -0.017868789 0.05730199 -0.028517863 -0.11693181 0.006133855 0.039873794 -0.051619884 -0.050278094 0.0102929445 0.07143709 0.048550174 -0.09069 -0.03788637 0.0967835 -0.0010586899 -0.007989415 0.03856364 -0.047703233 -0.014499403 -0.013171153 0.045377135 -0.06979331 0.07354602 -0.005474789 0.009780234 -0.040800724 -0.038269453 -0.06813099 0.07637315 -0.006051877
دولت -0.02875829 0.044365533 -0.021996927 -0.0026988988 0.102972545 -0.1280985 -0.07478551 0.013921234 0.12469504 0.034964245 0.009848747 -0.073277295 -0.09472801 0.078636006 0.10340505 -0.0028873342 -0.11888672 0.014067309 0.011123848 0.032839943 -0.01371073 0.024215234 -0.10916037 0.04020459 0.04408902 -0.031471502 -0.1825985 0.035325248 0.02497137 -0.109238476 -0.025599334 0.17570342 -0.0789512 -0.08493773 -0.07076292 -0.090139285 -0.11465897 -0.017478378 0.005706408 0.027948063 0.10467934 -0.047348734 0.020770337 0.0490359 -0.009322452 -0.0025198567 0.048886456 0.15444994 0.056313343 0.05602313 0.034414362 0.015112046 -0.03247035 -0.0046668085 -0.0008462688 -0.043787796 0.004228707 -0.011609091 -0.059818495 0.08557001 0.06523239 -0.20230874 -0.122901924 0.04671346 -0.018967008 0.07702526 -0.0064620194 -0.043993335 -0.09414229 -0.07114981 0.008362204 0.014246361 -0.06431985 0.0628954 -0.13215345 -0.027137965 0.03819031 0.019177837 -0.0016258684 -0.007871871 -0.062444214 0.00686052 0.113098025 -0.13766178 0.00019365617 -0.01454592 -0.0074277166 0.11262988 -0.06527886 0.060023107 -0.057557683 0.012803078 0.012448477 -0.0726655 0.03583021 -0.0028473018 0.036707707 0.039321445 0.107511505 -0.0048854635 -0.0017556653 0.03443869 0.0050228704 0.02910149 0.03619065 0.09350909 -0.0381395 0.09899044 -0.0197488 0.07745654 -0.028822426 0.08459862 0.065262206 0.1433999 0.070169784 -0.07765814 -0.12329422 0.07133858 -0.0065873866 0.058374446 0.17478515 -0.0070746923 -0.08939218 -0.105173305 0.022557646 0.11997606 0.096200526 -0.068554945 0.03672424 0.07045647 0.15843067 -0.0006473848 -0.07709113 -0.07517345 -0.067888565 0.13484238 -0.14735574 -0.021189183 0.011818 -0.06827258 0.12382279 -0.0962981 -0.045745976 0.0027948397 -0.06413006 -0.046828933 -0.0072199767 0.08271404 0.029217329 0.028316373 -0.011349218 0.017551567 -0.051950883 -0.051874362 0.07868641 -0.042343456 0.055677284 -0.060398627 0.083490446 0.008776647 -0.0030029146 0.12147662 0.19768801 0.06521641 0.06993025 0.04778754 0.05258115 -0.0063583297 0.07471895 -0.10170924 -0.016917896 0.060609665 -0.031374454 -0.115506746 0.004507692 0.04272968 -0.052065108 -0.052681737 0.012086249 0.07139264 0.05114499 -0.09005333 -0.038316 0.09687431 0.0004139295 -0.008948401 0.039467257 -0.04883399 -0.016653145 -0.010482972 0.047048744 -0.069846004 0.07323508 -0.006816807 0.007013312 -0.040954642 -0.037428066 -0.06934014 0.077602975 -0.007225082
نفت -0.029962147 0.044357773 -0.02184456 -0.002068745 0.102162294 -0.13054809 -0.07500937 0.014255224 0.1250323 0.03161382 0.006904985 -0.07146997 -0.097258486 0.07616617 0.10381042 -0.0038652066 -0.119017296 0.015056607 0.008063229 0.033100594 -0.015823783 0.024085911 -0.10863797 0.041780207 0.042395826 -0.034398533 -0.18515092 0.036099736 0.025028216 -0.10778127 -0.024197154 0.17503534 -0.08065564 -0.08637015 -0.068039425 -0.08908311 -0.113223895 -0.01658774 0.0068736793 0.026936267 0.1023914 -0.047974415 0.021981703 0.04797311 -0.009853593 -0.0015640375 0.04728379 0.1566301 0.056830656 0.053438835 0.03588452 0.015309812 -0.03355738 -0.006474459 0.0008606921 -0.040136345 0.0044330666 -0.010507199 -0.06094587 0.085780926 0.06481762 -0.203354 -0.12318071 0.046509806 -0.018089758 0.07936881 -0.0060594436 -0.043749247 -0.09269397 -0.06907312 0.008785192 0.013701295 -0.06636517 0.062322382 -0.1344583 -0.029357027 0.04134081 0.018949654 -0.0019417646 -0.007961707 -0.06411134 0.0074123703 0.11394083 -0.13798149 0.0013859469 -0.012829593 -0.0077275406 0.112030976 -0.068271406 0.06042768 -0.056275398 0.012862525 0.013527423 -0.07565115 0.035509136 -0.0011020547 0.03682643 0.04119408 0.10930599 -0.0022035139 -0.003090495 0.034384254 0.0058411676 0.03232956 0.035931762 0.09102607 -0.038021874 0.097115435 -0.020971417 0.0793217 -0.02907733 0.08502009 0.06271962 0.1418222 0.06956724 -0.07571753 -0.12648186 0.072386794 -0.005517619 0.061348576 0.17299192 -0.0067082294 -0.09055401 -0.10555197 0.02171574 0.122947775 0.09546977 -0.06528591 0.03740534 0.06892265 0.1577042 0.0004970588 -0.077444844 -0.072694905 -0.067039855 0.13369341 -0.14773598 -0.020898582 0.011531589 -0.06834924 0.12455893 -0.09664123 -0.0436781 0.0030249553 -0.06621371 -0.043896824 -0.006347981 0.08033809 0.027915636 0.026880488 -0.011624475 0.017666737 -0.054373313 -0.05137993 0.076958045 -0.04360725 0.052646656 -0.058777817 0.08487078 0.009840944 -0.0021020286 0.119413026 0.19826804 0.065795615 0.070344344 0.047524113 0.053386673 -0.007010522 0.077356696 -0.10266494 -0.0145365205 0.058752384 -0.028422907 -0.11624186 0.005869115 0.043548424 -0.052538093 -0.049278975 0.01107706 0.07047804 0.049113087 -0.0891986 -0.037459888 0.09444923 -0.00035060692 -0.00592999 0.03861959 -0.046082985 -0.016585719 -0.012727605 0.047058143 -0.07125028 0.075457126 -0.006031831 0.008671809 -0.040026847 -0.03947035 -0.06666807 0.07721578 -0.0056678327
بر -0.030873105 0.045731198 -0.020091057 -0.0032498885 0.10092786 -0.12888008 -0.07194593 0.013180521 0.12326024 0.032052945 0.0073870714 -0.07175453 -0.09684992 0.07757292 0.10143036 -0.002096486 -0.120581344 0.016454572 0.010418119 0.029963346 -0.014896654 0.023633612 -0.108267225 0.038247943 0.042604152 -0.031323493 -0.18344149 0.0345268 0.024563953 -0.11046041 -0.023197383 0.17483233 -0.07813881 -0.084931955 -0.06807771 -0.08758112 -0.114773475 -0.0155210765 0.0072754817 0.030222839 0.10499737 -0.049403798 0.023985561 0.047886353 -0.012999346 -0.0036977541 0.048517074 0.15485744 0.05465662 0.056499723 0.035010047 0.014497539 -0.03352367 -0.004559879 0.0012233035 -0.04275043 0.006097884 -0.013551708 -0.061433133 0.08653254 0.066640645 -0.20240206 -0.12500542 0.044053413 -0.017899584 0.080253266 -0.0038664527 -0.0435274 -0.093486235 -0.07174357 0.00749783 0.014248493 -0.063250676 0.06259217 -0.13466093 -0.028310295 0.041866455 0.020385928 -0.003800364 -0.005607258 -0.06401789 0.0037126353 0.11014728 -0.13781197 0.0024032304 -0.013327801 -0.006600374 0.11166466 -0.0669723 0.06301149 -0.057385016 0.010531015 0.013625765 -0.07370987 0.03284213 -0.0009923163 0.036283918 0.041821856 0.10775526 -0.0060208472 -0.0035891968 0.03366596 0.0050123176 0.03307471 0.03609626 0.0926285 -0.03786101 0.09627127 -0.019604558 0.080906205 -0.02616299 0.08574832 0.06492667 0.14087471 0.06953088 -0.07916682 -0.12481057 0.072601 -0.0039621075 0.060540836 0.17261581 -0.0058737407 -0.089367 -0.103967145 0.020035375 0.12202172 0.097509846 -0.06678994 0.038239487 0.06720982 0.15854439 -0.00018184168 -0.07616368 -0.072801664 -0.067355804 0.13324453 -0.15011916 -0.018582856 0.014036876 -0.06839466 0.12590665 -0.096623465 -0.045787323 0.0036637152 -0.0666945 -0.045349758 -0.0056089824 0.081445396 0.029497474 0.027791178 -0.010563876 0.016695175 -0.05244632 -0.05021268 0.08064334 -0.044576306 0.05267353 -0.057190664 0.086321235 0.007884501 -0.00069211295 0.12109551 0.19834882 0.065148145 0.07012619 0.044977494 0.0535186 -0.004646239 0.075409666 -0.1018701 -0.018281305 0.057870645 -0.029584398 -0.11772252 0.00646009 0.042963397 -0.05201661 -0.05237945 0.008887825 0.070681125 0.050321564 -0.09075813 -0.038624838 0.09706015 -0.0021304965 -0.009138008 0.038700033 -0.046662383 -0.016083729 -0.013884222 0.048904635 -0.07057278 0.07097702 -0.008164058 0.0069082016 -0.03972657 -0.0399398 -0.069071405 0.07805724 -0.0071098544
جنوبي -0.029413626 0.04551762 -0.020659706 -0.0031548156 0.101937175 -0.12847298 -0.074821554 0.013402249 0.12539014 0.031655505 0.008669965 -0.07162533 -0.09772637 0.0778571 0.10468777 -0.00084542506 -0.1198385 0.016974725 0.011685832 0.031655665 -0.013341986 0.02157278 -0.10993835 0.03856036 0.042996187 -0.033434723 -0.18242303 0.037849914 0.02582 -0.108275376 -0.022747178 0.1753431 -0.077931195 -0.08611474 -0.06812143 -0.09092119 -0.115538865 -0.016772436 0.0061725117 0.028867498 0.10273369 -0.048794895 0.021566413 0.047765907 -0.011979525 -0.0005110218 0.04765702 0.15704547 0.05691725 0.056575432 0.033946134 0.012255373 -0.033560425 -0.0075269975 -0.0004113861 -0.042802762 0.0033539794 -0.01312127 -0.059706844 0.08603092 0.06553099 -0.20295976 -0.1238402 0.043450307 -0.01776181 0.07809812 -0.005729941 -0.04126583 -0.092075765 -0.069782406 0.010598033 0.013861647 -0.06330702 0.061511774 -0.13440424 -0.02998601 0.03975979 0.021642264 -0.0030767538 -0.008090047 -0.06398219 0.005289372 0.11262004 -0.13668306 0.0013173011 -0.012336199 -0.007993345 0.11196007 -0.06588442 0.060412962 -0.055261098 0.012459417 0.012899114 -0.073250346 0.036089268 -0.003886966 0.036750644 0.041007582 0.10950834 -0.00309248 -0.0041979426 0.036769647 0.0054471362 0.031832106 0.03643558 0.0932389 -0.038949564 0.09799631 -0.02364138 0.07737885 -0.026243377 0.08422166 0.062534526 0.14366828 0.06962298 -0.078511775 -0.1266371 0.07234978 -0.005298928 0.06012802 0.17434129 -0.007713902 -0.09090223 -0.10507501 0.02139078 0.122834586 0.096722044 -0.06674448 0.03837316 0.071042314 0.1583585 -0.00026795262 -0.07505705 -0.07177745 -0.06608183 0.13377818 -0.14808224 -0.02011801 0.012814215 -0.06678661 0.12496376 -0.0969688 -0.043882415 0.0040495405 -0.06624261 -0.043876268 -0.0066002575 0.0810275 0.02730832 0.027819658 -0.010094392 0.015254869 -0.054904226 -0.0513627 0.07911495 -0.04430235 0.054545734 -0.059674527 0.08393942 0.009790691 0.00020862297 0.11946376 0.19896622 0.06428398 0.06783735 0.04780588 0.053971596 -0.0052691465 0.07468737 -0.10212708 -0.018676504 0.05839819 -0.028608236 -0.11528321 0.004956354 0.043397788 -0.05427631 -0.050240327 0.011902727 0.07051497 0.04797654 -0.090684175 -0.037092566 0.09583952 -0.0029533925 -0.007066396 0.039004795 -0.04968798 -0.014481754 -0.013894729 0.04811509 -0.07096817 0.07169451 -0.0065207514 0.008795314 -0.040108755 -0.037168108 -0.06634087 0.07535445 -0.007595595
آن -0.02990069 0.0451175 -0.021997161 -0.0045236344 0.10349037 -0.13147233 -0.07654989 0.012778704 0.12197113 0.035253327 0.00840466 -0.07229308 -0.09512956 0.07560599 0.10135273 -0.0011072904 -0.121710435 0.01660686 0.011532901 0.029132497 -0.014570847 0.021807633 -0.10887366 0.03921989 0.042755872 -0.03249801 -0.18180947 0.037907116 0.024064243 -0.109609194 -0.026270404 0.17694296 -0.08070225 -0.08536163 -0.06788217 -0.08892709 -0.11206542 -0.014303228 0.0058974703 0.0296135 0.10412965 -0.049621608 0.021735122 0.04841756 -0.008627896 -0.0036427844 0.049259212 0.15751103 0.056441918 0.056998644 0.034706764 0.015790844 -0.031116707 -0.0077733914 0.0011481119 -0.04086485 0.0034150123 -0.013590199 -0.06159132 0.08468812 0.06677344 -0.20107785 -0.12606256 0.045092843 -0.01909683 0.07776653 -0.005186572 -0.044230856 -0.09486559 -0.07036348 0.010672892 0.0152363805 -0.06463639 0.06185521 -0.13398999 -0.029942855 0.039331444 0.021830147 -0.0023870238 -0.008261576 -0.062281925 0.006846837 0.11118392 -0.13390717 0.0029154588 -0.013246168 -0.0073622935 0.1129824 -0.06515765 0.058738407 -0.058326297 0.012562145 0.011729181 -0.07283529 0.035991725 -0.005065351 0.038756523 0.03917091 0.110140644 -0.005379313 -0.0019894056 0.035854712 0.0075515676 0.032274317 0.033464357 0.09096212 -0.036508594 0.09625359 -0.022622425 0.078452356 -0.028568389 0.082388744 0.061836176 0.14469351 0.06976379 -0.07589198 -0.12484149 0.073261775 -0.0048578843 0.061350193 0.17266783 -0.0067602783 -0.08952255 -0.10512388 0.020492373 0.12091267 0.09475691 -0.06832574 0.03526355 0.07042782 0.15867019 0.0018716897 -0.07753135 -0.07431538 -0.06782093 0.13174641 -0.14812544 -0.021802183 0.012398984 -0.06830474 0.124549516 -0.0962612 -0.04676065 0.005340345 -0.06359448 -0.045827955 -0.0062685637 0.08306604 0.030302295 0.026416752 -0.010183576 0.01789663 -0.05542416 -0.050104827 0.07810601 -0.04242622 0.053579386 -0.061070688 0.08336694 0.009180182 0.0010405283 0.119087026 0.20050412 0.06497566 0.06802371 0.044754673 0.051631626 -0.0054764007 0.077626124 -0.10094483 -0.014545659 0.0610447 -0.03167821 -0.11565294 0.007147607 0.04130931 -0.050907623 -0.052133247 0.010948918 0.071838684 0.05094201 -0.0909671 -0.03863383 0.09632879 -0.002548981 -0.006930156 0.037505344 -0.04828191 -0.017036157 -0.011718459 0.04833246 -0.07178389 0.07506755 -0.0045687566 0.010361738 -0.03986098 -0.038449973 -0.069644146 0.0791661 -0.0065394505
خود -0.027899554 0.044893388 -0.019138778 -0.001821618 0.10121413 -0.13055849 -0.07581257 0.01331918 0.12452948 0.03147632 0.0075427946 -0.07175544 -0.09673639 0.07652821 0.10155907 -0.003525652 -0.12177145 0.015515175 0.010264099 0.029832495 -0.013431066 0.021369655 -0.11132084 0.039629366 0.04283864 -0.034006834 -0.18399768 0.036722086 0.025800845 -0.10924227 -0.02311884 0.17522618 -0.07971651 -0.086030334 -0.07094601 -0.089528434 -0.115219004 -0.015474785 0.007867828 0.030720312 0.102839485 -0.0475408 0.023397744 0.050922073 -0.009037826 -0.0026878668 0.050214898 0.15764569 0.057020545 0.05498604 0.033352107 0.013300075 -0.030586127 -0.0045921514 -0.00012584888 -0.042175453 0.0032640414 -0.011032598 -0.05853019 0.08670567 0.06504256 -0.20356192 -0.122380905 0.04585931 -0.018174209 0.0792888 -0.0050238064 -0.04123578 -0.0934912 -0.06793766 0.007051758 0.011850398 -0.06517642 0.0625405 -0.13467696 -0.03061317 0.040933628 0.019905237 -0.0030490803 -0.005258578 -0.06286545 0.005749139 0.11222412 -0.13737786 0.0015340601 -0.013041087 -0.0061706076 0.11223402 -0.06483136 0.06200534 -0.056254797 0.011369029 0.013832736 -0.074924916 0.03569688 -0.005087168 0.03514508 0.04029033 0.108956456 -0.0038746018 -0.0012617891 0.034052778 0.0075268946 0.031208528 0.03535301 0.09050229 -0.0357045 0.09797249 -0.02286428 0.07999209 -0.025526388 0.085843585 0.063979425 0.14107871 0.06991392 -0.07581496 -0.124014206 0.07316107 -0.0048013343 0.059195224 0.17240174 -0.0071658436 -0.09171931 -0.10416626 0.021914588 0.11915169 0.0956691 -0.06750115 0.036017053 0.070963174 0.15777303 0.001559724 -0.077327915 -0.071328275 -0.06474055 0.13264172 -0.14869918 -0.01874137 0.011995473 -0.06761763 0.1268592 -0.09721183 -0.04421516 0.004293401 -0.06507839 -0.044287946 -0.0076640164 0.07953441 0.026683051 0.028567262 -0.010876863 0.01649981 -0.055265456 -0.048422698 0.08032089 -0.042648934 0.052230466 -0.057998493 0.08467621 0.008346062 -0.0011328284 0.12175036 0.20047812 0.06336408 0.07086007 0.046362612 0.053863022 -0.0049697296 0.07631824 -0.10048117 -0.016615175 0.05815458 -0.0286152 -0.117154635 0.006975822 0.039213248 -0.054596458 -0.05104301 0.0095130205 0.07155771 0.048966553 -0.09010514 -0.036523264 0.09675364 -0.0012560083 -0.008647931 0.037894513 -0.04882286 -0.015113895 -0.011233051 0.04624566 -0.07127466 0.07460084 -0.006566895 0.009620284 -0.042419415 -0.040453974 -0.06934013 0.07600471 -0.005651419
اين -0.02798719 0.04478374 -0.02208682 -0.0014949634 0.102555074 -0.12772931 -0.07444714 0.0116482545 0.12482714 0.03509215 0.0077930046 -0.07265637 -0.09631775 0.07881151 0.1026555 -0.0042565223 -0.11944113 0.016775347 0.010210021 0.029681137 -0.013004312 0.020971393 -0.109800704 0.042046543 0.044556953 -0.03432769 -0.1820669 0.038013678 0.02716433 -0.10784204 -0.025668873 0.17706957 -0.07905609 -0.082964696 -0.068090275 -0.08949557 -0.11464586 -0.015070201 0.006210897 0.030302824 0.103347644 -0.049531884 0.023324994 0.048311178 -0.012288392 -0.0006136754 0.049258165 0.15669702 0.05828822 0.057044808 0.032904726 0.0133403065 -0.03219227 -0.0047960714 0.002062758 -0.04216481 0.004074062 -0.013215682 -0.06076313 0.08677309 0.06676254 -0.20427984 -0.12406978 0.044641975 -0.01797281 0.07896044 -0.007375708 -0.04275797 -0.09294777 -0.068871 0.010158715 0.014956767 -0.0663079 0.060893714 -0.13259597 -0.03088036 0.040795334 0.020718172 -0.0015582439 -0.006267814 -0.063198484 0.0055443607 0.11270813 -0.13415706 0.0008854662 -0.012307025 -0.0073035546 0.112206884 -0.06709959 0.05941098 -0.055002447 0.012141656 0.012624494 -0.07563375 0.03346915 -0.0030098567 0.03624817 0.040414102 0.10825706 -0.0029318877 -0.0031390784 0.035936173 0.0075136707 0.032821257 0.036638927 0.09322304 -0.03846448 0.096588574 -0.021639485 0.07794022 -0.027965989 0.08465941 0.062319998 0.14233546 0.06973248 -0.078827664 -0.12361067 0.0729267 -0.0070238602 0.059475888 0.1761391 -0.005227183 -0.08891033 -0.10346712 0.021754825 0.12305101 0.097285844 -0.06755962 0.035961412 0.06993582 0.15577087 0.0023596596 -0.077636845 -0.0745734 -0.06734713 0.13503785 -0.14988719 -0.018215368 0.012307313 -0.066457644 0.124876365 -0.09595785 -0.04329507 0.0037184763 -0.06662552 -0.044051457 -0.007735451 0.08089634 0.027449142 0.026813202 -0.012775173 0.014346269 -0.052316554 -0.050319918 0.07907157 -0.04401479 0.052741498 -0.06125058 0.084531456 0.0066552805 -0.0016288508 0.12121091 0.19876805 0.063944876 0.07101379 0.048349723 0.051660378 -0.0039405767 0.07576256 -0.10165697 -0.015058179 0.05937038 -0.031187266 -0.116041444 0.0060988218 0.040017884 -0.052729335 -0.050118625 0.010236818 0.071002096 0.051765498 -0.09231183 -0.036265943 0.09369892 0.000314933 -0.006456515 0.03778075 -0.04686193 -0.014348099 -0.013992037 0.047548864 -0.07031553 0.074432544 -0.0058315084 0.009355083 -0.041083045 -0.03869726 -0.06624734 0.07541042 -0.0061104633
روز -0.029075893 0.04470131 -0.02181222 -0.0018869028 0.10191399 -0.13104847 -0.07297597 0.012677967 0.12277658 0.03423414 0.009955836 -0.07280069 -0.09741163 0.07912156 0.10136912 -0.0011749559 -0.12103196 0.0137499925 0.011000885 0.031548295 -0.014713547 0.021661606 -0.11156856 0.04177262 0.04568611 -0.034501106 -0.1824022 0.034853928 0.025421556 -0.11024212 -0.023848215 0.17370228 -0.07921511 -0.0846233 -0.070173115 -0.08987861 -0.113603994 -0.014807633 0.006476076 0.027200246 0.10402015 -0.04830164 0.02224065 0.04971313 -0.011430416 -0.0021477148 0.0489536 0.1565631 0.056080732 0.055348318 0.03400154 0.014960764 -0.030794965 -0.007684796 -0.000908548 -0.042263374 0.0045084707 -0.010507004 -0.05954375 0.086634904 0.06758025 -0.20399092 -0.12348356 0.043533195 -0.016887993 0.0772477 -0.005482278 -0.04332118 -0.09339866 -0.0691323 0.0095444815 0.014587638 -0.06347432 0.061997484 -0.1317647 -0.029586395 0.04033513 0.021387318 -0.004014476 -0.0074366 -0.06451091 0.0057239817 0.113466196 -0.13497595 0.0030110618 -0.013532032 -0.0051248968 0.109771304 -0.064499 0.06277723 -0.057006847 0.013140196 0.01161028 -0.07621162 0.03573554 -0.0036038668 0.038809985 0.040273122 0.108596936 -0.0024760715 -0.0016778018 0.03538487 0.005880168 0.03139791 0.034206066 0.09377094 -0.03850644 0.099969186 -0.023587517 0.07719472 -0.026585853 0.084771864 0.06440457 0.14276096 0.07039413 -0.07840504 -0.1267101 0.07265996 -0.0075060492 0.05970634 0.17523381 -0.0046127364 -0.09024601 -0.10468047 0.023225373 0.11996741 0.09443501 -0.06879177 0.03740188 0.07010416 0.15520509 0.0002157131 -0.07736322 -0.075187765 -0.06473956 0.13439296 -0.14700198 -0.019237643 0.010536434 -0.069596946 0.12531857 -0.09623901 -0.044797905 0.0025031064 -0.067597896 -0.045360945 -0.007868053 0.08150896 0.027422708 0.027649011 -0.011239601 0.015248821 -0.053370386 -0.0515332 0.07817509 -0.0448656 0.055004817 -0.058702234 0.08416101 0.0066008465 0.0004933499 0.11911494 0.19889379 0.064169794 0.06934433 0.047929443 0.054426517 -0.0059301974 0.077430986 -0.10094067 -0.016135074 0.05863977 -0.028819317 -0.11570555 0.0051976372 0.042286687 -0.053064264 -0.05044341 0.010099007 0.07078213 0.048140958 -0.090629846 -0.0382358 0.09633776 -0.0006368646 -0.0064623337 0.038567115 -0.04676735 -0.014200199 -0.013447961 0.047491822 -0.07026471 0.07244448 -0.00499622 0.010207052 -0.041536704 -0.039203722 -0.06703399 0.07807833 -0.0061411615
گفت -0.029512666 0.045471318 -0.019926295 -0.0047256895 0.10112605 -0.12955882 -0.07499221 0.013301285 0.12254317 0.032620165 0.006814371 -0.07291073 -0.09777466 0.07815881 0.10365191 -0.0030575076 -0.12061946 0.013532138 0.010581271 0.03247835 -0.012975076 0.02184967 -0.10828964 0.041644312 0.045145918 -0.031817578 -0.18520768 0.03658713 0.024306877 -0.106412 -0.023564957 0.17585021 -0.077297 -0.085739605 -0.06730039 -0.09014726 -0.114412874 -0.017205149 0.0054786266 0.028173734 0.101925015 -0.049485352 0.022324406 0.051022645 -0.010202949 -0.0016556368 0.049094874 0.15398146 0.05866738 0.05713274 0.033434495 0.012928822 -0.031159429 -0.006267504 0.0007844055 -0.040937386 0.0043648193 -0.011076594 -0.059782185 0.086778924 0.0665417 -0.20157453 -0.12560518 0.044409424 -0.0164289 0.077759385 -0.0044574593 -0.04288759 -0.09334139 -0.07025981 0.010345422 0.012100678 -0.06378749 0.06089803 -0.13244808 -0.029980186 0.040474504 0.021471083 -0.0023672176 -0.005977074 -0.06262232 0.004125991 0.111123845 -0.13796867 0.0020323778 -0.01282486 -0.0052813888 0.11055444 -0.06470473 0.062739156 -0.055933043 0.012784017 0.012936532 -0.07486261 0.03398236 -0.004070381 0.03878441 0.038851816 0.11132875 -0.002659616 -0.0042055063 0.03609128 0.0049250796 0.030850435 0.033868182 0.0937949 -0.037119508 0.0987487 -0.02092167 0.07941747 -0.027147725 0.08582161 0.06417125 0.14230803 0.06873855 -0.0784392 -0.12571125 0.074327625 -0.004010703 0.059997443 0.17315626 -0.0067170043 -0.089774735 -0.103297405 0.021136848 0.12262992 0.09603269 -0.065837674 0.039040573 0.07041693 0.15766166 -0.00019264742 -0.07581042 -0.0725917 -0.065283716 0.13174897 -0.15023583 -0.019558052 0.012157783 -0.06727897 0.12658761 -0.095940374 -0.04437391 0.0025836346 -0.066116825 -0.04366497 -0.0058606276 0.0804484 0.027001716 0.026445527 -0.010471704 0.014274905 -0.054480724 -0.049802568 0.07767098 -0.045781687 0.05514859 -0.058127224 0.08421185 0.008303547 -0.0014111819 0.12226534 0.20067148 0.06324299 0.070963666 0.04653298 0.054661024 -0.0059402846 0.07741516 -0.10139506 -0.016434973 0.05977144 -0.02886164 -0.118085235 0.0067142393 0.040945336 -0.05345774 -0.04943934 0.0109413015 0.072749116 0.047745313 -0.09011973 -0.03743209 0.09441132 0.00011744262 -0.0069927485 0.039945565 -0.04683554 -0.0147810085 -0.010830228 0.048423592 -0.07151402 0.07285535 -0.0069636167 0.008090312 -0.04125075 -0.039649997 -0.067260295 0.075644284 -0.008176084
بین -0.029748447 0.04565246 -0.018849824 -0.0029480748 0.10372221 -0.12773685 -0.075035065 0.012557619 0.121161714 0.03479307 0.0101735 -0.071278885 -0.09911572 0.07749051 0.1010073 -0.0031214512 -0.11868694 0.017494982 0.009506988 0.03209093 -0.014109412 0.020479951 -0.10748046 0.042252492 0.045347184 -0.034076054 -0.18156685 0.037299722 0.026796874 -0.10701346 -0.023097217 0.17329878 -0.07945385 -0.08549402 -0.069680855 -0.08723393 -0.11394805 -0.017195469 0.004398186 0.029643428 0.101524405 -0.047517486 0.021578308 0.04911647 -0.009890599 -0.0025924614 0.05039561 0.15745184 0.05682789 0.055740476 0.03253172 0.014750198 -0.03391195 -0.004544958 0.0014385498 -0.042636156 0.0027842908 -0.013042215 -0.06125093 0.08625145 0.06802445 -0.20355028 -0.12491812 0.044868972 -0.019708842 0.0770199 -0.0063281897 -0.043236006 -0.093613565 -0.0715856 0.010280608 0.013776432 -0.06441488 0.06387326 -0.13349341 -0.02716558 0.037427276 0.020000728 -0.0010571912 -0.006598052 -0.062354453 0.005655507 0.11290437 -0.13380158 -0.00018350148 -0.014680843 -0.0056741317 0.11253931 -0.067205615 0.062298823 -0.056697626 0.012077267 0.012832644 -0.07545162 0.03467744 -0.0014816072 0.037121214 0.042251963 0.10765522 -0.0042956844 -0.0023180335 0.037940457 0.0072484044 0.03296504 0.033681557 0.093336865 -0.036801394 0.0969731 -0.020271448 0.08075839 -0.025529448 0.08618652 0.06347056 0.14335528 0.06920823 -0.0770434 -0.12607455 0.07345885 -0.0055722445 0.058227774 0.17515329 -0.006332228 -0.08847855 -0.105851345 0.021515183 0.12051727 0.097517766 -0.06708153 0.038469274 0.06801896 0.15801175 0.0004260276 -0.07898622 -0.07408544 -0.06834195 0.13339406 -0.14928053 -0.018900763 0.0108928215 -0.06920763 0.12574206 -0.09761452 -0.04568803 0.0016408828 -0.06556064 -0.04660062 -0.006949008 0.080396876 0.028511543 0.02810049 -0.012264123 0.01769965 -0.051811907 -0.051124148 0.080559805 -0.042940952 0.05358874 -0.06021599 0.084166534 0.008446439 -0.003044579 0.119376 0.19944505 0.06312869 0.06852244 0.046500474 0.05106285 -0.006298762 0.07674948 -0.0994658 -0.016165016 0.056859888 -0.032230556 -0.117475204 0.0035472983 0.038291585 -0.05350265 -0.053086013 0.012307857 0.07432467 0.050497726 -0.08948883 -0.037814323 0.097074136 -0.0010005329 -0.0079506785 0.040025372 -0.046025958 -0.01704053 -0.013039666 0.046482485 -0.07078195 0.07256995 -0.006339905 0.010064485 -0.043345094 -0.038796954 -0.06798361 0.075092554 -0.009290984
خارطوم -0.027632102 0.04649215 -0.02143544 -0.001556744 0.10212963 -0.12796059 -0.07411445 0.014249718 0.121992595 0.032573413 0.010858337 -0.0722648 -0.09859599 0.079168685 0.10241178 -0.0050312 -0.12117993 0.016634932 0.011780271 0.031201983 -0.015460515 0.022608042 -0.108717196 0.0381419 0.044838157 -0.032641277 -0.18153827 0.0367354 0.023184245 -0.110189736 -0.024043031 0.17528042 -0.07706636 -0.08595069 -0.0674275 -0.08937484 -0.11422083 -0.017105693 0.0049197497 0.030298168 0.10322591 -0.04802924 0.021068882 0.04823511 -0.00895913 -0.003984939 0.05007901 0.1558678 0.056162063 0.056732897 0.035259195 0.014919372 -0.03335784 -0.005028836 0.002476815 -0.043565456 0.005461143 -0.011904329 -0.058395796 0.08467935 0.06390054 -0.20083785 -0.12490912 0.04308781 -0.017651435 0.07933149 -0.004273432 -0.0403427 -0.093937516 -0.071023405 0.00948907 0.0127249425 -0.06499676 0.061979752 -0.1304445 -0.030941794 0.042204216 0.022433193 -0.0018512122 -0.0076882183 -0.065114595 0.0067062527 0.11311207 -0.13665281 0.0021540797 -0.016688317 -0.0044868626 0.10814615 -0.066892825 0.059105985 -0.057797264 0.012517334 0.010647979 -0.07568348 0.03269666 -0.0017774432 0.039491426 0.041059718 0.11032034 -0.005525351 -0.0018636524 0.035003413 0.00698662 0.032424152 0.03393873 0.09135006 -0.037346214 0.09633251 -0.02014701 0.07881883 -0.0278292 0.0854505 0.06419331 0.1420968 0.06918512 -0.07859058 -0.124872506 0.07473822 -0.0042596813 0.059740063 0.17580566 -0.0034043456 -0.091319814 -0.10523923 0.023136802 0.12015544 0.09739518 -0.0678454 0.034938607 0.069966406 0.15708613 0.00180677 -0.076320775 -0.07219453 -0.067815825 0.1328141 -0.14796191 -0.020862136 0.013521502 -0.06849699 0.12584062 -0.096308716 -0.04606918 0.0047864523 -0.067321055 -0.04253621 -0.005320931 0.08309632 0.029799443 0.028627122 -0.011747671 0.01703418 -0.055468258 -0.047948595 0.081036925 -0.044370577 0.05512887 -0.060610905 0.08224236 0.0068043615 -0.0022666135 0.11981908 0.1997109 0.06527519 0.06995116 0.047983658 0.05422648 -0.0041656247 0.07683072 -0.10320661 -0.01736215 0.05839771 -0.029103018 -0.11526269 0.0060509485 0.03902475 -0.053151134 -0.051830992 0.008207219 0.070092365 0.04710922 -0.09199058 -0.038919583 0.09697675 -0.00063504186 -0.0058324756 0.04045845 -0.04946381 -0.0135849435 -0.010533915 0.045721557 -0.071544416 0.075491086 -0.0061756126 0.010200553 -0.042945314 -0.036632944 -0.06816425 0.07844582 -0.008886006
توافق -0.028093291 0.042997215 -0.020250939 -0.0049495907 0.103497125 -0.12825431 -0.07216 0.013284312 0.12345196 0.035217684 0.00857166 -0.072523184 -0.09650811 0.077145666 0.10206667 -0.0032887673 -0.121148035 0.013766497 0.0092483815 0.029609539 -0.01498059 0.021483095 -0.10855211 0.04016679 0.04572882 -0.031222496 -0.18552151 0.03674715 0.025317334 -0.10761675 -0.024699757 0.17518163 -0.08022556 -0.08437155 -0.070615664 -0.09055353 -0.11293179 -0.014372107 0.008042331 0.0288209 0.103690445 -0.04900646 0.02267934 0.047817208 -0.011557429 -0.00385736 0.04721681 0.15591697 0.0583499 0.053645335 0.033110406 0.015267211 -0.031056149 -0.0046302713 0.0011069013 -0.040427394 0.004830415 -0.01218754 -0.06091532 0.08582632 0.066610344 -0.20308244 -0.12381278 0.044114344 -0.017892946 0.079262815 -0.0035580988 -0.041291676 -0.09352119 -0.071022876 0.009392737 0.014861257 -0.066368654 0.064745806 -0.13363244 -0.028838843 0.04113858 0.020989375 -0.003794685 -0.006659756 -0.06371291 0.00578462 0.11402538 -0.13463928 0.0035096463 -0.016498573 -0.0065310095 0.109842226 -0.06574812 0.05989983 -0.056656677 0.011435047 0.011713439 -0.07289877 0.03307412 -0.0037990185 0.037677202 0.04275539 0.11114986 -0.002561206 -0.001696092 0.03540022 0.008200976 0.032601386 0.03276991 0.09235048 -0.03722862 0.097226344 -0.02379782 0.08175791 -0.028388001 0.08333607 0.06166675 0.14407869 0.06940549 -0.07641767 -0.12603651 0.07437911 -0.004703696 0.059566047 0.17388003 -0.0037357265 -0.091840655 -0.10214812 0.020884171 0.12241666 0.095630564 -0.06799649 0.036749713 0.070887275 0.15524149 -0.0013517337 -0.07607326 -0.07069036 -0.06814814 0.13543412 -0.14852712 -0.021805894 0.012009198 -0.06802083 0.1231357 -0.09609156 -0.04334729 0.0056540216 -0.064384386 -0.04639206 -0.007629421 0.08275589 0.030041208 0.025894335 -0.009756059 0.017566787 -0.054569762 -0.052042816 0.07751764 -0.042378705 0.052117374 -0.060110677 0.082945205 0.0067662927 -0.0037775612 0.11965379 0.19996895 0.06642914 0.07091901 0.04507246 0.051748384 -0.004132538 0.07733873 -0.10320724 -0.015707674 0.06056054 -0.029308293 -0.11816124 0.003889996 0.038798865 -0.05477804 -0.052271053 0.008021622 0.070526615 0.051170275 -0.0912286 -0.037049722 0.09321195 -0.00018504912 -0.0084410515 0.04072116 -0.049461715 -0.015659316 -0.009912367 0.046247035 -0.071081646 0.07185528 -0.0063259276 0.009613133 -0.040217232 -0.03886541 -0.068433724 0.076410376 -0.00785348
مذاکره -0.029815823 0.046298683 -0.02328568 -0.005409521 0.100945085 -0.12817472 -0.07434346 0.014720817 0.12209047 0.035301816 0.007117724 -0.07327307 -0.09901105 0.07857367 0.1047494 -0.0047083534 -0.11997856 0.018168837 0.008418639 0.03253936 -0.012943896 0.023667952 -0.10964128 0.040415533 0.04391047 -0.036178675 -0.18335986 0.0376361 0.023283472 -0.10737916 -0.022254344 0.17488024 -0.07874791 -0.084187254 -0.06778995 -0.08734247 -0.11141473 -0.016964091 0.005757583 0.029478893 0.10503939 -0.04774916 0.025007753 0.047613606 -0.012896377 -0.0011965857 0.05130905 0.15373729 0.057392895 0.057670575 0.031298734 0.012859612 -0.03275176 -0.0073268684 -0.0023707787 -0.042242445 0.0035794517 -0.012437371 -0.06036526 0.088755116 0.06473767 -0.20429604 -0.12489628 0.047012053 -0.020195885 0.077275276 -0.0070650787 -0.042509783 -0.09398188 -0.0704746 0.010228063 0.011402877 -0.06442567 0.062487427 -0.13197343 -0.026896628 0.04005815 0.01994222 -0.0027891053 -0.009030281 -0.06626123 0.006030872 0.1143301 -0.1358841 0.0029078103 -0.014251243 -0.0037320633 0.110093415 -0.066032864 0.05908035 -0.054802336 0.012360658 0.0140540125 -0.07395886 0.031641994 -0.0051141214 0.03988604 0.040847246 0.110775866 -0.0053985603 -0.00566565 0.03509721 0.0043053576 0.028784225 0.034682732 0.09265083 -0.038669948 0.09713233 -0.02185459 0.08130396 -0.028081635 0.08286916 0.06433162 0.14219777 0.06832272 -0.07567905 -0.123996295 0.07237566 -0.0043528946 0.059315782 0.17502868 -0.0074013597 -0.08949137 -0.104365066 0.023660757 0.122073516 0.098079726 -0.067898996 0.038979895 0.06837301 0.15551297 -0.0014885343 -0.07489235 -0.071195915 -0.065063946 0.13205035 -0.14791736 -0.01910038 0.011736045 -0.06918751 0.12707582 -0.09642778 -0.047153566 0.0019377539 -0.06445216 -0.042960722 -0.007657694 0.07974318 0.030642856 0.028396659 -0.01232485 0.013358625 -0.05404862 -0.052101053 0.08078798 -0.044996295 0.053722974 -0.05868309 0.08361676 0.006746237 -0.002565648 0.12227451 0.2004651 0.062401902 0.0719126 0.04423273 0.054013558 -0.006596343 0.075319365 -0.10345806 -0.014998269 0.05666014 -0.031658553 -0.11537886 0.006603446 0.039171256 -0.052839987 -0.049898166 0.011013127 0.072571 0.05066442 -0.090541154 -0.039726168 0.09418344 -0.0029344258 -0.00885672 0.041205265 -0.050767858 -0.016476262 -0.013821501 0.046943575 -0.073557064 0.07527807 -0.005158178 0.00786597 -0.042006154 -0.035458148 -0.06906923 0.07566869 -0.00552221
نیروهای -0.02706711 0.045912556 -0.021781355 -0.003360204 0.10107035 -0.13155277 -0.07343833 0.014080999 0.122496806 0.034242176 0.0100385 -0.069714144 -0.095567346 0.07907518 0.103850976 -0.0016023511 -0.120179676 0.017563038 0.010346242 0.031154713 -0.012591113 0.020985201 -0.11024411 0.041080944 0.044383988 -0.031167457 -0.18486297 0.035286818 0.028039224 -0.11003227 -0.022260517 0.17376699 -0.07727472 -0.08344446 -0.07085484 -0.0913268 -0.115213424 -0.016798174 0.0065012705 0.030314565 0.10274014 -0.049829125 0.020782756 0.047862884 -0.012230328 -0.0014950397 0.050453905 0.15688702 0.055783525 0.055233646 0.033190243 0.013995324 -0.03334905 -0.005151163 0.001739949 -0.040944647 0.0026660725 -0.013501167 -0.06174684 0.085427046 0.06825173 -0.20103724 -0.1235464 0.04636748 -0.01635606 0.07946169 -0.00582756 -0.04278224 -0.092628255 -0.06975777 0.010251052 0.014457741 -0.06406297 0.06391389 -0.13199817 -0.0277208 0.04080643 0.020151911 -0.0034018245 -0.008627628 -0.06225616 0.0045045516 0.11300427 -0.13738637 0.0008953736 -0.015930686 -0.006118438 0.111696 -0.06623018 0.061931904 -0.05454918 0.011035472 0.011400963 -0.07570438 0.033736847 -0.0047582705 0.03687248 0.040536568 0.11107007 -0.004372306 -0.002152526 0.03339516 0.006674512 0.032278102 0.03507516 0.09269561 -0.036544353 0.098313816 -0.020446567 0.080217324 -0.026280826 0.082935415 0.062654905 0.14174923 0.06803686 -0.078341305 -0.12545916 0.072852 -0.005034895 0.057651173 0.17611127 -0.0049685487 -0.08869613 -0.10589899 0.023232749 0.11994813 0.09622055 -0.06629064 0.035212517 0.06748945 0.15684155 0.0027058478 -0.07741912 -0.07395987 -0.06467366 0.13176562 -0.14866604 -0.020254299 0.012817505 -0.068442814 0.12630284 -0.09581154 -0.045331102 0.0022610554 -0.066703826 -0.045907233 -0.004737653 0.08329836 0.025997143 0.025622891 -0.010842416 0.016950509 -0.05260488 -0.051617227 0.078277856 -0.045045003 0.054362733 -0.058126282 0.08526469 0.0057768095 0.0012673629 0.118388645 0.20007896 0.06493577 0.06691381 0.04832526 0.053791568 -0.0033417286 0.074949004 -0.10196946 -0.017269572 0.058835052 -0.031356942 -0.11769324 0.007015603 0.043705076 -0.051179513 -0.050700482 0.008560152 0.072529785 0.04903234 -0.08856466 -0.039487485 0.094898134 -0.0032879254 -0.00961921 0.039294347 -0.049631167 -0.013362748 -0.014288716 0.04779475 -0.07205812 0.07482622 -0.004926741 0.009633361 -0.041264996 -0.040466674 -0.06585405 0.07885475 -0.009008278
ارتش -0.027197177 0.04671554 -0.019511836 -0.0031245323 0.10293529 -0.1305474 -0.07265657 0.011987238 0.12449618 0.031963546 0.008511767 -0.07168097 -0.09695281 0.078205585 0.10065014 -0.00042780745 -0.12116995 0.015170967 0.008498349 0.031668402 -0.016368538 0.021452663 -0.10868462 0.040073168 0.044719934 -0.033658776 -0.18392332 0.035732772 0.024684206 -0.10741954 -0.025316292 0.17343357 -0.07905317 -0.083881825 -0.06958628 -0.0897994 -0.113292426 -0.017714048 0.0052203066 0.02672462 0.10236172 -0.04891497 0.02428904 0.050196476 -0.0119461175 -3.2493834e-05 0.04843482 0.15693992 0.057615284 0.0557672 0.035667364 0.013414354 -0.03200731 -0.005597119 -0.001758176 -0.043802127 0.0027981335 -0.010239089 -0.059907693 0.08689262 0.0671964 -0.20411316 -0.12504086 0.044843145 -0.01843065 0.07840405 -0.007001344 -0.04451704 -0.09400947 -0.07126201 0.0073864018 0.014472241 -0.063317545 0.062258605 -0.13508092 -0.03069001 0.041624703 0.019444022 -0.0014261444 -0.0064046914 -0.064954884 0.007114508 0.110111974 -0.13767263 0.0032990784 -0.013125099 -0.005165222 0.11226671 -0.064501695 0.0628336 -0.055419344 0.010476915 0.013078856 -0.07619446 0.034630883 -0.0012684645 0.039151605 0.040382057 0.10981585 -0.004672081 -0.0031220126 0.03394384 0.006210156 0.028941568 0.035017762 0.09308974 -0.038267896 0.09730939 -0.023411479 0.0768437 -0.026088975 0.08475643 0.06516354 0.14178438 0.06897936 -0.07810439 -0.12626976 0.07333463 -0.007212024 0.05908712 0.17428811 -0.007178434 -0.088103205 -0.10532335 0.021456992 0.120675415 0.09757832 -0.065538794 0.03601837 0.06897849 0.15753214 0.0004179788 -0.07675491 -0.07238002 -0.068531744 0.13257486 -0.14744993 -0.017745797 0.011417155 -0.06872392 0.12590551 -0.09525035 -0.043238956 0.0015038177 -0.067074254 -0.044123963 -0.005830572 0.08025507 0.027329125 0.024879687 -0.011584633 0.01623075 -0.055949785 -0.049456093 0.08068104 -0.045341183 0.05510724 -0.0594299 0.08604373 0.0063102953 0.0012443747 0.122272864 0.19818656 0.06183115 0.06794838 0.04535934 0.05304411 -0.0063341344 0.07690808 -0.103616685 -0.016339086 0.05807972 -0.029174957 -0.11522592 0.004392462 0.042422254 -0.05191053 -0.052506406 0.011594109 0.07165879 0.04921425 -0.090746775 -0.03708722 0.095769405 -0.0025699816 -0.0065537477 0.039161187 -0.046466377 -0.016483534 -0.011071285 0.04615128 -0.07071938 0.07454038 -0.0073032696 0.008825965 -0.039196167 -0.0379849 -0.066371776 0.07601839 -0.0058241384
مرزی -0.028419793 0.04450202 -0.022088522 -0.0037041309 0.10255225 -0.12930733 -0.074549645 0.011545202 0.12129663 0.034531567 0.010737453 -0.07341709 -0.09851887 0.075785555 0.10135657 -0.0018852648 -0.119908206 0.016585808 0.009755483 0.03189586 -0.01623429 0.02102077 -0.10934536 0.04038503 0.044202294 -0.032313943 -0.18469192 0.036477197 0.027319528 -0.10872442 -0.025036031 0.17513502 -0.08016924 -0.08432143 -0.07096618 -0.08917476 -0.11200928 -0.01601385 0.006285483 0.028204286 0.10510679 -0.048163958 0.022527076 0.05077904 -0.012433742 -0.0034679251 0.04976758 0.15495972 0.05684557 0.05443991 0.032424413 0.013531942 -0.03385717 -0.007337144 0.00028164574 -0.04075744 0.0044786697 -0.012682939 -0.05743297 0.083708964 0.068382464 -0.2038462 -0.122326665 0.043767672 -0.01765491 0.079713784 -0.0061232294 -0.042942874 -0.092454955 -0.06894031 0.009355184 0.012315254 -0.065470405 0.06406322 -0.13423252 -0.027409445 0.038493894 0.018880125 -0.0037207035 -0.0055301907 -0.06284412 0.0069039953 0.11242503 -0.13643062 -0.00051300164 -0.01336354 -0.0057300446 0.111820795 -0.06762474 0.061437353 -0.057985254 0.0133428285 0.011177672 -0.07266671 0.03410534 -0.0021290975 0.03496748 0.041100003 0.10764573 -0.0047807456 -0.0024335694 0.03441222 0.0073668906 0.030716898 0.03505361 0.09105877 -0.039391197 0.0988048 -0.02164763 0.0775878 -0.02851155 0.08447788 0.06290667 0.13986306 0.0712503 -0.07638603 -0.12646969 0.07425885 -0.005393998 0.05989226 0.17262058 -0.00669653 -0.0912444 -0.10523079 0.020722106 0.12291023 0.09765079 -0.06797202 0.03723036 0.069807865 0.15882728 0.000750504 -0.075595 -0.07138213 -0.06668581 0.13213176 -0.14808902 -0.021022698 0.012459586 -0.06885534 0.12375206 -0.095408805 -0.04616939 0.0034848622 -0.06624039 -0.045544103 -0.0049180374 0.08131357 0.029118804 0.024817966 -0.011098407 0.015643045 -0.05341457 -0.051624164 0.0775216 -0.04539328 0.05407027 -0.0574702 0.086984634 0.0073759314 -0.00017468697 0.1218134 0.2014637 0.06434883 0.06981674 0.04640447 0.05210748 -0.0048018945 0.07537151 -0.10187065 -0.015553834 0.05901989 -0.031776596 -0.11582904 0.005488856 0.038730577 -0.053350993 -0.049774762 0.010438742 0.07214272 0.04869706 -0.09217754 -0.035452273 0.095906384 -0.0018814888 -0.007729627 0.038398784 -0.046302814 -0.016729541 -0.013261796 0.047236785 -0.07299946 0.07535578 -0.007146824 0.008110681 -0.04249563 -0.036097337 -0.06978608 0.07809616 -0.009578987
مورد -0.029973112 0.045254875 -0.02074147 -0.0012597579 0.102241665 -0.12794442 -0.07326131 0.013291509 0.121478476 0.033022996 0.009743909 -0.07206486 -0.09692157 0.07612355 0.10427302 -0.0046908692 -0.11819545 0.017352395 0.011454927 0.03153427 -0.016829949 0.024150515 -0.11178979 0.03847967 0.044287346 -0.03537974 -0.18261851 0.034992464 0.02728691 -0.10974079 -0.023336915 0.1765783 -0.079573266 -0.08325262 -0.07154113 -0.08870012 -0.11162221 -0.013686426 0.00563637 0.030737966 0.10378524 -0.046979893 0.02512282 0.047580846 -0.013582082 -0.0032091627 0.0481666 0.15841357 0.054873616 0.05582839 0.032352705 0.012216342 -0.033312727 -0.004911558 -0.001848394 -0.04148542 0.0072430437 -0.009691624 -0.058667596 0.086609036 0.06493326 -0.2042012 -0.12611762 0.04455538 -0.016067512 0.07747261 -0.0054880627 -0.04450103 -0.09444374 -0.072516225 0.008289366 0.012675283 -0.06603677 0.060567547 -0.13158558 -0.027476015 0.041419484 0.019952742 -0.0037841068 -0.0071292836 -0.06303692 0.005460557 0.11086119 -0.13707449 0.0020245577 -0.016691325 -0.0040098857 0.11315669 -0.06582598 0.058836225 -0.05502432 0.01251782 0.010733978 -0.0727373 0.031780425 -0.001815926 0.034855697 0.038769674 0.1078075 -0.0026168192 -0.0021372435 0.03523339 0.0065986235 0.030992739 0.033110924 0.09233982 -0.037669033 0.09576176 -0.019381156 0.08123686 -0.026183343 0.085181884 0.061024003 0.14246374 0.07053892 -0.07593179 -0.12567176 0.071324475 -0.0043223333 0.06014119 0.17533349 -0.0062395795 -0.0913847 -0.1049293 0.023730984 0.122899465 0.0982304 -0.067671984 0.03729249 0.07025223 0.15680857 0.0025778278 -0.07678215 -0.0718196 -0.06593985 0.1338618 -0.148979 -0.018920107 0.013753224 -0.06865077 0.12382545 -0.09692186 -0.04366708 0.0033805312 -0.065338254 -0.044175025 -0.008136212 0.083171956 0.02731637 0.028405217 -0.0109353345 0.0139124645 -0.053351324 -0.05272204 0.07787141 -0.04483775 0.053934727 -0.060639367 0.08333242 0.005982026 -0.001447596 0.12017995 0.20007627 0.064849086 0.06762714 0.049439732 0.05070309 -0.0036963497 0.07751115 -0.10365832 -0.017428901 0.061561033 -0.031105265 -0.114792444 0.007007035 0.038832426 -0.053614803 -0.050585423 0.008589924 0.07324856 0.04729382 -0.09230844 -0.039473765 0.09426712 -0.0035214438 -0.008728578 0.038711913 -0.047175784 -0.014950383 -0.013941503 0.04843491 -0.06985649 0.072935775 -0.00685017 0.009772331 -0.039560057 -0.039843738 -0.070893295 0.07590663 -0.006029607
شد -0.03128121 0.044866934 -0.020879885 -0.0043374933 0.103483595 -0.12802014 -0.07475621 0.012285596 0.12415628 0.033988208 0.007904039 -0.06942708 -0.095922396 0.076585665 0.10185928 -0.0038941177 -0.12121906 0.016421866 0.011930863 0.03267826 -0.015778916 0.022280077 -0.10994116 0.038047757 0.046007942 -0.030977162 -0.18447597 0.038336843 0.024721507 -0.11079784 -0.025113171 0.17663133 -0.077672645 -0.08322867 -0.068616405 -0.08996086 -0.11376737 -0.01629501 0.007218482 0.029635834 0.10264064 -0.050549906 0.024304938 0.049955256 -0.012854609 -0.0010337047 0.048344165 0.1578276 0.054454897 0.055943184 0.03560099 0.011799986 -0.032664817 -0.0053983964 0.0009834315 -0.04033542 0.0039728126 -0.01383354 -0.058336362 0.0881869 0.064210445 -0.2029107 -0.12258061 0.043845255 -0.019274315 0.07742705 -0.0071471445 -0.04265429 -0.09396199 -0.0719597 0.009919089 0.010967043 -0.06615791 0.063021876 -0.13272695 -0.029766897 0.03923807 0.022833578 -0.004891048 -0.00712546 -0.064295374 0.007993734 0.11079876 -0.13632336 0.0031837304 -0.014258959 -0.0046476745 0.11068265 -0.065024205 0.0599409 -0.0581058 0.011547353 0.0111709535 -0.07570023 0.034226175 -0.0016387397 0.0355223 0.039898828 0.11109782 -0.0016258985 -0.0015660041 0.034503475 0.0072099515 0.029385407 0.035609584 0.0915167 -0.03824197 0.0961512 -0.02097894 0.07949502 -0.025849598 0.08608877 0.06509048 0.14348233 0.06996154 -0.07829122 -0.12744913 0.07180183 -0.0073910262 0.05740752 0.17366497 -0.004738945 -0.0883892 -0.103348315 0.02315989 0.1212022 0.09805068 -0.06539972 0.037045516 0.06973383 0.15721768 0.00086459704 -0.07679565 -0.07429964 -0.064772554 0.13092142 -0.14949867 -0.020597322 0.014617664 -0.065908566 0.12472383 -0.09532089 -0.04368499 0.005800515 -0.06800612 -0.045551635 -0.0063045947 0.079851665 0.02724975 0.026842779 -0.011179392 0.013433171 -0.054456007 -0.048845053 0.07740235 -0.04148341 0.055196207 -0.061114892 0.084734514 0.0084320735 -0.0004994717 0.11935577 0.19984299 0.0640558 0.067768954 0.044684667 0.05214771 -0.0053985245 0.07753261 -0.10301561 -0.016332688 0.06107336 -0.032227352 -0.11827074 0.005205814 0.043127537 -0.05212907 -0.05094527 0.012447781 0.0736559 0.052021928 -0.09228908 -0.036507156 0.09269047 0.0011254607 -0.010122533 0.037811372 -0.04679717 -0.014775709 -0.013337351 0.046802208 -0.07331494 0.07204588 -0.00845479 0.007889621 -0.0422422 -0.04027128 -0.06782187 0.074978866 -0.0055736015
اتحادیه -0.031454783 0.0454897 -0.018875837 -0.0025269687 0.10084486 -0.12741707 -0.074026465 0.014930131 0.12533289 0.033240266 0.0082617635 -0.07087414 -0.09643928 0.079226285 0.10359636 -0.0015187807 -0.118008524 0.014705949 0.010936208 0.03257976 -0.012076996 0.025238154 -0.11172138 0.03933485 0.046956588 -0.031088166 -0.18620989 0.035060138 0.024085587 -0.10646872 -0.024355575 0.17645833 -0.079647474 -0.086341254 -0.070293784 -0.08676241 -0.11324469 -0.014149053 0.004084018 0.031171817 0.10423399 -0.0464011 0.0213932 0.049938995 -0.007672113 -1.3034975e-05 0.051197704 0.15550724 0.058125272 0.052954603 0.031171601 0.014859248 -0.03452483 -0.0074345316 0.0006657798 -0.04116742 0.005640281 -0.009802664 -0.06099431 0.086649284 0.06616733 -0.2046974 -0.12678583 0.045868345 -0.018381752 0.07962258 -0.0076647424 -0.039822772 -0.09326266 -0.07224361 0.0074928612 0.01355215 -0.065414995 0.06248433 -0.13082998 -0.02927728 0.040378224 0.019133076 -0.0011137618 -0.008417536 -0.061833132 0.006530797 0.11182131 -0.13438348 0.0015251095 -0.012659775 -0.0073237317 0.1124055 -0.067407824 0.06337434 -0.05486546 0.0100251185 0.012669236 -0.075119935 0.035748303 -0.004132652 0.037305705 0.04138168 0.10999933 -0.006001247 -0.0018982991 0.03437408 0.003207176 0.03092381 0.036913153 0.09250788 -0.03506118 0.09689956 -0.02389471 0.08129471 -0.029834038 0.081642516 0.06110202 0.14251621 0.07169717 -0.07601595 -0.12448658 0.071759686 -0.003534025 0.060829222 0.17229745 -0.003382078 -0.09146087 -0.10540146 0.021728203 0.11916235 0.09497345 -0.06672181 0.03455538 0.06683966 0.15446454 -0.0007419493 -0.07805219 -0.0741017 -0.06380683 0.1352076 -0.15068291 -0.018170347 0.013104345 -0.06531479 0.12739722 -0.09235987 -0.045583095 0.0052913954 -0.067475855 -0.04230056 -0.004785599 0.078119345 0.0278825 0.027148854 -0.010127525 0.01796166 -0.05437444 -0.050939385 0.079614684 -0.04455374 0.051592123 -0.06023451 0.086629964 0.008508971 -0.00358824 0.121241674 0.20151512 0.06333437 0.07112864 0.046448927 0.05547764 -0.0028494427 0.077016264 -0.10255101 -0.015288718 0.058512658 -0.032938633 -0.11506755 0.007116791 0.040432908 -0.054165523 -0.05015597 0.007889456 0.07306087 0.04827936 -0.090660505 -0.036818795 0.094752364 4.3429376e-05 -0.010361936 0.040643677 -0.046519812 -0.015333943 -0.009668764 0.044867862 -0.07385042 0.07428002 -0.0053883684 0.009083467 -0.03938978 -0.038356144 -0.06536294 0.07730857 -0.006701725
آفریقا -0.028063517 0.043096468 -0.021158911 -0.002458597 0.10222199 -0.13077417 -0.074536785 0.011929715 0.122870326 0.03497601 0.009479529 -0.0727053 -0.098839015 0.07542059 0.10012569 -0.0060830773 -0.12229887 0.013696945 0.010141984 0.030940708 -0.015889166 0.021075824 -0.110335775 0.041116107 0.045634292 -0.031850837 -0.18533531 0.036646377 0.024005888 -0.108638115 -0.025698371 0.17701273 -0.075189464 -0.08322337 -0.06868861 -0.089361876 -0.11353666 -0.015421362 0.008004017 0.030453542 0.10342061 -0.04724746 0.023852808 0.04893332 -0.009026553 -0.0030044727 0.051704988 0.15751557 0.055029906 0.05494786 0.03264917 0.01500405 -0.03407502 -0.0056972383 0.0010641657 -0.042740148 0.0034014317 -0.01158832 -0.058007892 0.088358715 0.068083145 -0.2032072 -0.124901876 0.045548815 -0.016745517 0.0775364 -0.0053812815 -0.04095462 -0.09445274 -0.06916885 0.007946865 0.014827858 -0.06423062 0.06322344 -0.13012645 -0.03160963 0.0386613 0.023125114 -0.0038278718 -0.006105452 -0.062132753 0.006159813 0.1106754 -0.13578139 0.0005053798 -0.016516246 -0.004347479 0.11000355 -0.06552879 0.05855101 -0.05843893 0.013655949 0.014186111 -0.07264159 0.0313021 -0.0007315878 0.03796303 0.038817722 0.1125953 -0.0039429883 -0.0014373731 0.033055086 0.0057077436 0.028969185 0.03661612 0.09124562 -0.03722758 0.10029961 -0.021070618 0.08033385 -0.026055587 0.08320879 0.06238886 0.14367686 0.06791193 -0.07806537 -0.1266358 0.07059256 -0.005434246 0.056420997 0.17449717 -0.0053278976 -0.09069496 -0.10595844 0.022552703 0.120461695 0.096611045 -0.06700235 0.03610063 0.06826489 0.15526335 0.001982199 -0.076564886 -0.07255092 -0.06476337 0.1338606 -0.15044649 -0.0216203 0.013432532 -0.069769025 0.12697098 -0.09256253 -0.04397253 0.005597852 -0.06467275 -0.045265973 -0.004463653 0.078369826 0.026366448 0.02501081 -0.011514117 0.01691344 -0.05582772 -0.050134134 0.07907633 -0.04595287 0.05322686 -0.057341654 0.08563049 0.0106384475 -0.0002567503 0.12140982 0.20077676 0.06545196 0.0706639 0.045267448 0.054254886 -0.0046517802 0.07380254 -0.09910457 -0.015955968 0.05976168 -0.030905275 -0.117127806 0.0051603448 0.0422735 -0.055422343 -0.049849793 0.011939203 0.07234092 0.047549803 -0.089011915 -0.036376573 0.09486697 -0.0015775417 -0.0072294245 0.04032479 -0.04937161 -0.013735401 -0.01064821 0.049032144 -0.07262209 0.07455585 -0.00851178 0.011288368 -0.043014664 -0.037064455 -0.06800397 0.07761547 -0.010026415
حل -0.03131536 0.046713084 -0.020022243 -0.0024839158 0.10117319 -0.1310318 -0.073655814 0.011755714 0.123517565 0.035072673 0.0089820335 -0.07150201 -0.099425964 0.07888714 0.10348591 -0.0049629235 -0.12114458 0.016328612 0.007972045 0.032074977 -0.01590166 0.023446139 -0.108420625 0.041743923 0.044791806 -0.032295432 -0.18336882 0.035250973 0.02442368 -0.109105684 -0.0244338 0.1773318 -0.079053 -0.08301409 -0.06839971 -0.090070814 -0.115714446 -0.014515132 0.0077901683 0.02721487 0.10326437 -0.047172662 0.024002671 0.05009001 -0.010696225 -0.0021221992 0.04830471 0.1572523 0.056441177 0.05371882 0.032155342 0.016174853 -0.031037886 -0.0044451654 0.0005826154 -0.043749914 0.0043508816 -0.010603635 -0.060528237 0.08507695 0.06736351 -0.20185828 -0.122803 0.04711729 -0.01637063 0.07697854 -0.006986986 -0.04446541 -0.09093596 -0.07048563 0.010225788 0.014226077 -0.066254 0.06367927 -0.134318 -0.030480305 0.04207274 0.021156773 -0.004037191 -0.007743731 -0.06316446 0.004311647 0.112449124 -0.13488571 0.0014192938 -0.0147278365 -0.0054962016 0.109212756 -0.064131506 0.06103188 -0.05668928 0.013358459 0.014185618 -0.07403514 0.03245692 -0.0009593307 0.03741029 0.04015193 0.10946571 -0.004727411 -0.0043146126 0.03447204 0.004296735 0.03219008 0.03603132 0.09350141 -0.03804999 0.098632745 -0.021195285 0.080753796 -0.025141383 0.08498403 0.064423874 0.14174446 0.06975209 -0.07579044 -0.124707855 0.072928004 -0.0065689404 0.060661238 0.17446403 -0.0042665084 -0.09084659 -0.103015296 0.022790575 0.11991632 0.09496753 -0.06827648 0.03623858 0.06755915 0.1584244 0.0021646034 -0.07914581 -0.072670944 -0.06603425 0.13461539 -0.14719771 -0.02132663 0.011787391 -0.068225406 0.1250081 -0.09501634 -0.04345748 0.0033060883 -0.0664212 -0.04392016 -0.0066892086 0.08268125 0.026674377 0.027680472 -0.011453182 0.016700683 -0.053692024 -0.050674696 0.07930748 -0.044775777 0.05371373 -0.058763657 0.08301508 0.005622964 -0.0014470371 0.11957776 0.19868714 0.06532015 0.06864421 0.044899166 0.05440594 -0.0037156625 0.0750073 -0.1010083 -0.016466053 0.059448574 -0.028751954 -0.11685313 0.0050138477 0.03890003 -0.05529849 -0.05003178 0.0120032 0.07334664 0.05093979 -0.09159962 -0.038044747 0.09584443 -0.0012176037 -0.0081593525 0.04037174 -0.0496873 -0.01713511 -0.011126955 0.04581218 -0.07123767 0.07241643 -0.005683496 0.009651334 -0.0426389 -0.03851755 -0.06696706 0.077098414 -0.009345707
بود -0.027326684 0.04622442 -0.022343045 -0.0038189024 0.10143394 -0.12941028 -0.07216163 0.01162063 0.123537436 0.03135036 0.007168483 -0.072938174 -0.09575466 0.07647523 0.102795936 -0.0011435098 -0.1200242 0.016717872 0.008584048 0.029200943 -0.0133065665 0.022978697 -0.11165891 0.039692372 0.04546433 -0.033758886 -0.18452819 0.03622304 0.0273327 -0.110617265 -0.023488905 0.17517632 -0.07728235 -0.08417338 -0.06732317 -0.090407126 -0.11274178 -0.016561396 0.006758506 0.02920027 0.10413643 -0.05008297 0.023727374 0.04767281 -0.010597057 -0.0035322907 0.050295107 0.15545304 0.057367876 0.054918908 0.032663245 0.016153384 -0.03377491 -0.0065492066 0.00039478365 -0.042516995 0.0039184038 -0.010041867 -0.05903012 0.08775429 0.06649306 -0.20202284 -0.12595524 0.046230707 -0.019986872 0.07650602 -0.0039029117 -0.041255716 -0.0947994 -0.07218102 0.007438801 0.014722235 -0.06275566 0.06356306 -0.13490365 -0.02959292 0.039731737 0.01896869 -0.0018509346 -0.008412085 -0.061738785 0.006802789 0.11317566 -0.13626537 0.0007113916 -0.014268323 -0.003965053 0.11287318 -0.06479675 0.060722675 -0.055375014 0.012920813 0.014126655 -0.07530037 0.03638739 -0.0023395894 0.03654431 0.041994028 0.10902108 -0.0038153022 -0.0029491528 0.037226904 0.005621083 0.029114515 0.03306223 0.09287455 -0.037892304 0.09892482 -0.020857295 0.07982885 -0.028122162 0.08598957 0.06202707 0.1437616 0.07062726 -0.0786569 -0.1262236 0.07152111 -0.006724724 0.057254635 0.1745023 -0.0036320323 -0.08912732 -0.10365486 0.019625526 0.12165052 0.09435284 -0.065977916 0.03796351 0.06790714 0.15570003 0.0025453581 -0.07758467 -0.07496821 -0.06822219 0.13282648 -0.14901412 -0.021177672 0.014180851 -0.06653203 0.12428069 -0.09480413 -0.04307421 0.0045092623 -0.066509835 -0.046815153 -0.006806965 0.079485185 0.027575025 0.02872534 -0.0111450525 0.01467115 -0.052673332 -0.049057648 0.07944364 -0.043288924 0.053856146 -0.058703177 0.08397115 0.008374902 -0.002551922 0.12197606 0.19847195 0.06455654 0.070446014 0.04841311 0.053863566 -0.0050886767 0.07756749 -0.102286994 -0.017616656 0.060488887 -0.031295527 -0.115480654 0.007102713 0.042031698 -0.051932093 -0.049887057 0.011560816 0.072943486 0.050550785 -0.09153819 -0.037929066 0.094702505 -0.0020705054 -0.009085646 0.039204728 -0.046348166 -0.014416045 -0.0135582285 0.047669675 -0.07226886 0.07160907 -0.008257806 0.007322053 -0.039889045 -0.03873382 -0.067604825 0.075750306 -0.0076743513
هجلیج -0.0266471 0.042840257 -0.019049611 -0.0026507725 0.10130701 -0.12942171 -0.07453754 0.013817909 0.12478328 0.032996546 0.00830395 -0.07195346 -0.09565269 0.0760577 0.10315629 -0.0013722465 -0.11972644 0.013763999 0.009873851 0.031900577 -0.016735103 0.022045374 -0.11013346 0.041486237 0.045546725 -0.03439016 -0.18310866 0.036926102 0.026414584 -0.10770333 -0.025666544 0.17470099 -0.07868892 -0.084661424 -0.070734315 -0.09042701 -0.112864606 -0.014415698 0.0073972307 0.030639976 0.105181515 -0.048997913 0.021494297 0.048735473 -0.011096373 -0.0012461301 0.05015048 0.15731244 0.056915246 0.05339829 0.03455487 0.01245182 -0.03051547 -0.007761687 -0.00039402975 -0.043334257 0.004174372 -0.011871974 -0.058508277 0.083971545 0.06598337 -0.20334508 -0.12401591 0.04667999 -0.017051367 0.07897912 -0.0071851057 -0.043499175 -0.094058424 -0.06809721 0.0070892293 0.013679624 -0.063823216 0.06170617 -0.1329474 -0.028163005 0.03988275 0.020601837 -0.0035677413 -0.0068926695 -0.06342251 0.005998602 0.1135594 -0.1372227 0.0011091997 -0.014162138 -0.0074174544 0.11016672 -0.06807546 0.061024364 -0.055260126 0.012829627 0.013509545 -0.07292454 0.03524434 -0.0044487943 0.037107803 0.03991028 0.111151494 -0.0027896105 -0.0028530469 0.033198524 0.006888291 0.029225735 0.032949734 0.09330242 -0.038425624 0.09998758 -0.021969795 0.076953895 -0.028045896 0.08435364 0.06395482 0.14194421 0.06850355 -0.07719439 -0.1272094 0.07196255 -0.007578028 0.05810819 0.17351013 -0.0049355146 -0.08974603 -0.10423835 0.023391452 0.12216745 0.09776302 -0.06865144 0.038424216 0.06815277 0.15687542 0.0018303975 -0.07818483 -0.07423833 -0.0673312 0.13240758 -0.14678396 -0.01804022 0.014152637 -0.06955907 0.12448929 -0.09501461 -0.043374386 0.0034985144 -0.06432484 -0.047251914 -0.008581815 0.08194616 0.027215907 0.02782127 -0.010001371 0.016406829 -0.052763257 -0.051793292 0.08126744 -0.04271786 0.0549954 -0.060845748 0.08464923 0.00627278 0.0008320164 0.11934941 0.19793622 0.06386259 0.07085809 0.04815889 0.053733137 -0.007450655 0.077195376 -0.103001565 -0.018614136 0.0579721 -0.031373546 -0.11778509 0.006455693 0.03975668 -0.051814605 -0.053218193 0.01023184 0.073106155 0.05082199 -0.08985067 -0.03613664 0.096506685 -0.002670381 -0.009528568 0.03789884 -0.047382943 -0.0150767965 -0.0110844625 0.047678288 -0.07319854 0.071406424 -0.0058769905 0.010931 -0.039483365 -0.036697734 -0.06753707 0.07836632 -0.0056583458
درباره -0.030874994 0.044160597 -0.019929932 -0.0014803883 0.10155961 -0.12889792 -0.07373499 0.014218825 0.12436023 0.0339896 0.009901433 -0.07247735 -0.0987705 0.07605789 0.10257766 -0.0033561974 -0.12212911 0.013854852 0.01171077 0.029643033 -0.016149333 0.022516819 -0.10858377 0.03970529 0.04394488 -0.033483654 -0.18286033 0.033984225 0.026877215 -0.10858464 -0.022722142 0.17678083 -0.07835082 -0.082353294 -0.06939816 -0.08909535 -0.113915525 -0.01502699 0.004959027 0.026849769 0.10562724 -0.049655475 0.024753815 0.0484074 -0.009056193 -0.000303806 0.04745727 0.15730709 0.05526724 0.055384286 0.03329374 0.013001425 -0.033590022 -0.004545313 0.00047739528 -0.043028478 0.0025830981 -0.011124078 -0.059837613 0.08685215 0.066817306 -0.20243008 -0.12342637 0.04450639 -0.019100955 0.07746611 -0.0037056734 -0.041440986 -0.09233175 -0.06866033 0.010601791 0.013910422 -0.06594146 0.064722784 -0.13155518 -0.02722165 0.0424526 0.019068647 -0.003974921 -0.007854671 -0.06584413 0.0069485256 0.110641226 -0.13362774 -0.00026471636 -0.013099315 -0.0042243777 0.11193304 -0.06780702 0.0626286 -0.05768601 0.011311829 0.011473043 -0.073660776 0.033300836 -0.0016257049 0.03533626 0.04157999 0.111576304 -0.0030558056 -0.0023927144 0.03692294 0.007820718 0.031179985 0.034383405 0.09341997 -0.039188396 0.09699644 -0.021898339 0.081239 -0.027685184 0.084663466 0.06414648 0.14230236 0.069937974 -0.07661882 -0.12509397 0.074074574 -0.0068076784 0.060864437 0.1740813 -0.0046739047 -0.09029613 -0.103819184 0.019880367 0.121350475 0.09751137 -0.067525044 0.03691047 0.07072974 0.15760276 0.0030887825 -0.079227746 -0.0734015 -0.065486915 0.13482389 -0.15002972 -0.018169787 0.011953323 -0.06995271 0.12494787 -0.09380399 -0.04564357 0.0033551313 -0.06333909 -0.045454554 -0.005159737 0.080024995 0.026325718 0.0274478 -0.011271389 0.01785501 -0.052937638 -0.051073473 0.079498544 -0.043874476 0.055105224 -0.05911163 0.083288535 0.007628621 -0.00082273735 0.12149966 0.20026813 0.06619652 0.06848722 0.045239538 0.05503312 -0.0033563178 0.07548809 -0.10073976 -0.015140787 0.058207624 -0.030963993 -0.11677203 0.0058035315 0.041431043 -0.055128273 -0.05193142 0.008604375 0.073323354 0.047779597 -0.088611536 -0.039383646 0.09294158 -0.001604656 -0.00712073 0.037453134 -0.04739561 -0.014921901 -0.010210899 0.046570912 -0.07043879 0.07434213 -0.006357778 0.01093834 -0.039269704 -0.037899222 -0.066996 0.0762152 -0.006781023
