146 200
در 0.048998013 -0.032440457 0.077913344 -0.08521538 0.009351121 -0.070518754 -0.08543543 -0.03434645 0.0840942 0.02410812 0.04740507 -0.08404214 0.11619769 0.10065273 0.012166362 0.036653064 0.03608 0.058609374 -0.035397623 0.03490247 -0.060818538 -0.023890665 -0.030946463 -0.032144144 -0.096233845 0.010188386 0.1027051 0.044285577 0.020878626 0.095703445 -0.051113524 -0.018282322 0.06349793 -0.024901543 -0.085678644 -0.03939979 -0.03895461 -0.049283233 0.11069823 -0.05081647 -0.016257582 -0.018355343 0.105362885 0.1235587 -0.06955492 0.031113692 0.01715299 0.088924505 -0.018968306 0.06301428 -0.024452621 0.0024269053 -0.070163205 -0.0729607 -0.021138357 0.0151382 -0.022188095 0.03893498 0.022714978 -0.07474936 -0.060472734 0.04784065 0.008293196 -0.037910417 -0.08735257 0.019222585 -0.073429346 0.043933455 0.031833693 -0.09915549 -0.05227321 0.10362638 0.013570058 -0.04232567 -0.107250474 0.035101235 0.11252468 -0.01639222 -0.09685627 -0.02114483 -0.05684487 0.08747092 0.011834358 -0.038414963 -0.10772981 -0.023429906 -0.118408345 0.019888343 -0.11483842 0.024540452 -0.0541826 0.06838479 0.030242007 -0.06643342 0.1258393 0.0053185243 0.030192181 -0.105009004 0.12280074 -0.110928014 0.058443587 0.09498135 0.096509315 0.05190108 -0.09595266 0.09863026 -0.06755917 0.041324567 -0.05060519 0.0098538045 0.07311149 -0.051599637 0.08650335 0.010135428 0.07591447 0.016176054 0.09498144 -0.038903385 -0.06739147 -0.0848061 0.07199529 0.05777186 -0.09948328 -0.05062386 0.03926606 -0.12789273 -0.1125849 -0.029663907 0.107327804 0.031894278 0.05092464 -0.005102824 0.11211291 -0.10719418 0.054638624 0.023036437 0.11832358 0.11342343 -0.030196294 -0.10541945 0.06305736 -0.11498641 0.07621175 -0.11921141 -0.07168665 0.051054858 0.06878183 0.11839485 0.10237089 0.10567341 -0.107972875 0.03158886 -0.048339292 -0.081771396 0.10093473 0.09773538 0.042890042 0.07958172 0.004346811 -0.024055552 -0.010594446 -0.06425706 -0.09568492 -0.07238578 -0.023835687 0.08258589 0.077805795 0.088194415 0.0190531 -0.04169493 0.04067879 0.12079946 0.10332394 -0.12549405 -0.08750727 0.051788546 -0.067694165 -0.030690521 -0.1088888 0.049608406 0.11359996 -0.045934062 -0.11858379 0.06573308 0.011435909 -0.0181543 -0.033853266 0.02608675 -0.04980623 0.02946872 0.00509 0.07213241 -0.03279588 -0.11117566 0.101087645 0.020792782 0.05394807 -0.10883638 -0.10257071 -0.051432814
از -0.06419744 -0.033043765 0.03445834 -0.11870943 -0.021940555 -0.044941023 -0.020033132 0.030587109 -0.12599725 0.0763215 -0.09637772 -0.065081134 0.07050969 0.08697565 -0.08324804 0.024987265 -0.06011121 0.07961795 0.06249307 0.055301577 0.025995139 0.11038143 -0.017747898 -0.0594921 -0.10952542 -0.039454043 -0.057734832 -0.10452553 0.112012796 0.10835611 -0.12681824 0.100598976 -0.051191386 -0.07890846 -0.100167364 -0.08484884 0.058132462 -0.048325982 0.006034747 -0.056309573 -0.039662123 0.03881363 -0.052555658 0.004420669 0.09611816 0.047723114 0.022209968 0.110465944 0.117453426 0.012129357 -0.07389916 -0.10587869 -0.11287003 -0.0803815 -0.024125537 0.011647667 0.06814284 0.12327883 -0.05254791 0.1142885 -0.036532465 0.01843051 0.0030746588 -0.12641183 0.03749404 0.042910714 0.07681489 0.042724773 0.08441606 0.026176954 0.04602091 0.08567256 -0.12271697 -0.08439348 0.045411196 0.008174109 -0.007952065 0.082099535 0.106332526 0.013086246 -0.09786847 -0.124901414 0.05964378 -0.096374184 -0.070038065 -0.06700245 0.077721015 0.06591175 -0.044884685 0.029384267 -0.07106772 -0.1273 -0.04962782 -0.019552423 -0.03987595 0.049606547 0.10697744 -0.028817426 -0.113554396 0.1065527 0.03552643 0.048634056 0.037278384 -0.010708272 -0.022269221 0.027646406 -0.09481619 0.043619994 0.04662441 -0.058916055 -0.09322586 0.060139943 0.13024393 0.0985518 0.0154378405 -0.07102362 0.046828285 -0.025619207 0.10486338 0.07309359 0.02707477 0.005793858 0.026081543 0.0502729 -0.041419398 0.042866353 -0.09366603 0.12344801 0.08786407 0.09095286 0.019466521 0.10232708 0.069893844 0.069403924 -0.04110333 0.034179382 -0.04319136 -0.097028375 -0.10163392 0.098268665 -0.05289364 -0.120866515 -0.056910656 -0.08735057 -0.090375826 0.030300748 0.123802386 0.03806348 0.049681894 0.0036929958 -0.010782499 -0.0745134 0.074930266 -0.08478329 -0.08902582 -0.08829018 -0.06569278 -0.029488677 -0.04059701 0.090543 0.100610204 -0.01804374 0.09920486 0.06299396 -0.11379629 -0.045097508 -0.03644659 0.0416038 -0.016754001 0.054296877 -0.10487253 0.10297926 -0.020804541 0.0052100215 -0.01562014 0.08251558 -0.033475246 -0.06366317 -0.015019939 -0.07288247 0.028468082 -0.049151614 0.057683364 0.08943984 0.045788355 0.0073731635 0.06948078 0.038514066 0.030548356 -0.11514966 -0.012000614 0.015218555 -0.12061883 -0.025921585 -0.023377258 -0.0263063 0.029785493 0.035894316 0.041969422 0.07432696
و -0.11925653 -0.07360766 0.0053601847 -0.107265964 -0.03632659 -0.08141175 -0.039263465 -0.0876154 -0.09140327 0.07580813 -0.071616895 0.002018616 0.075552575 0.025063464 -0.08883112 -0.05066622 -0.11125036 -0.019146899 0.079318926 0.03100795 -0.10359743 0.04439344 -0.09758871 -0.05152146 0.09640703 -0.048905727 -0.036814127 -0.028468048 -0.03377147 0.057270564 0.066016264 -0.0072162077 0.071177304 0.029642154 -0.09240674 0.09427763 -0.006380772 0.052035898 0.016295955 -0.039759215 -0.016683094 -0.089387566 0.062943265 -0.08534587 -0.06582848 0.038286015 -0.05744351 -0.06436611 -0.0757613 0.11920189 0.12404587 -0.08361654 -0.11283456 -0.07408165 -0.020608852 0.006328308 0.013338978 -0.06439706 0.10300733 -0.011987248 0.09403645 -0.11110489 -0.03271192 -0.06640161 0.09188711 -0.001484799 -0.08702391 -0.07839599 0.110076174 0.043117013 0.05233079 0.0684351 -0.017629098 -0.060349904 0.063418776 0.096284345 0.12067017 0.08877555 0.10063508 0.09608932 0.016227433 -0.047236335 -0.00013100384 0.060499094 0.03649826 -0.12572716 0.03714648 0.017814575 -0.094600506 0.013391148 0.11474655 -0.09664923 0.0795272 -0.0470349 0.014601824 0.061339337 0.048475295 0.11197315 0.050709166 0.029550618 0.10977056 -0.051875208 0.06268333 -0.04216824 -0.0072046644 -0.07677182 -0.047343407 -0.0026863837 -0.02405611 0.058951814 -0.09857821 0.075134315 -0.0015209813 0.0049811644 -0.0009670699 -0.07794472 0.09108064 0.112120666 0.009624851 0.03259728 0.11268047 -0.055859257 -0.06637316 -0.10361283 0.10978293 0.04868283 -0.008803969 0.08374349 -0.09412291 0.04666264 0.06524706 0.045537155 0.1003185 -0.029516323 0.043487627 0.0922816 -0.055064157 0.09183492 -0.00017466005 0.085943386 0.1203872 0.100500345 0.08784422 -0.060253423 -0.06818738 0.016479367 -0.017231928 0.07444325 -0.0767909 0.024165533 -0.0771923 0.08062499 -0.061401304 -0.023052223 -0.089338645 -0.09152473 0.061839942 -0.02464521 -0.03135579 0.099851795 -0.107827164 0.10401072 0.12590432 -0.030819157 0.08525873 0.07585653 0.05024206 -0.049869526 -0.057394683 -0.0017863308 0.08302238 -0.0126621295 0.079132855 -0.0777558 -0.03842925 -0.030211426 0.053423308 -0.09237135 0.04632787 -0.095062576 0.06668973 -0.10079831 0.04674588 0.12894432 -0.07642414 -0.10701613 -0.07451207 -0.0900791 0.08177842 -0.0896992 0.10671605 -0.02755116 0.050248068 0.0015230444 -0.05070076 0.0042272806 0.008288254 -0.008389833 -0.0720294 0.0014914692
كشتی 0.11437864 -0.0013387386 0.05478287 -0.11086808 -0.06798366 -0.04160945 0.11777736 -0.08527595 -0.051953122 0.010149898 0.055473037 -0.0055683204 0.10105814 -0.09891988 0.112857886 0.08602738 -0.016216325 0.01852578 -0.112954564 -0.027682498 0.06523949 0.09491938 0.020559106 0.101587 0.058104143 -0.083578594 0.016548749 -0.0019154353 0.037766278 -0.020600663 -0.074909955 -0.08024925 0.03956665 -0.0015107887 0.028028574 -0.054916818 -0.091046065 -0.1037832 -0.11691214 0.021347996 -0.045792725 0.018092124 -0.015585713 0.079570256 0.020710861 0.05384138 0.103486255 0.0005632686 -0.030208701 -0.08044878 0.11069955 -0.081963584 -0.084686965 0.014947714 -0.102889866 0.016980564 0.10372548 0.10406464 0.010768554 -0.054721363 -0.10873133 -0.086559534 -0.016290937 0.094782904 -0.00070237316 -0.079166375 0.043519218 -0.11195413 0.052635767 -0.09309475 0.046011314 0.06903564 -0.023489533 -0.07630698 -0.051757738 -0.0038025551 0.06515528 0.11310096 0.11315772 0.07078298 -0.060171224 0.040869553 0.11251862 -0.11992681 0.03833439 0.07549199 -0.007220981 0.04929005 -0.09268479 -0.04402614 -0.017509846 0.07342988 0.10352731 0.04398062 0.10906586 -0.09918446 0.10776037 -0.04670007 0.0144623015 0.114788815 0.07005578 -0.0018549344 0.06456529 -0.042948637 0.016975367 0.11059169 -0.057146 -0.077505164 0.034023922 -0.06502848 -0.016411364 0.10222846 -0.05901753 0.01709963 0.09453868 -0.120686024 0.016067632 -0.03551704 -0.0020948122 -0.06641735 0.05048356 0.009003434 0.08546928 0.011702726 -0.012625358 -0.0377369 0.086868174 0.058137503 -0.021889988 0.011217994 0.11247332 -0.10516235 0.043000504 -0.097191215 0.11382159 0.11110223 0.10019982 -0.09637576 -0.0066731763 0.09670617 0.039336648 0.013787483 -0.057563733 0.002792689 -0.031757165 0.03827166 0.11924377 0.015226488 -0.038311217 0.07209337 0.1062011 0.080693446 -0.0061620944 0.026249355 0.10118416 -0.0550019 -0.013311806 -0.06615444 0.05106289 -0.049113095 0.08725991 0.03574626 0.106135726 -0.036874305 0.0695155 0.11405508 0.123159625 -0.106831096 0.09860203 0.056944035 0.02220176 -0.101006046 0.060669255 -0.09491854 -0.11263896 -0.0002629131 0.013728433 -0.06429473 0.107763946 -0.10104243 0.035394378 -0.02374664 -0.052481826 -0.0592942 0.0351925 -0.0009372296 -0.0019495043 0.0025879515 0.023242924 0.07265929 0.11567034 0.0020726838 -0.08374804 -0.07790494 0.11584973 -0.011837179 0.0042524575 -0.08156261 0.0600987 -0.048663337
می 0.02295832 -0.05410777 0.029776055 -0.021268457 0.013625184 -0.082843356 0.11254886 -0.036192715 0.030444426 0.021587769 0.05868396 0.08510362 0.08488843 -0.022183096 0.110356174 -0.021290675 0.001721001 0.1250454 -0.021426393 -0.0032083457 0.057998713 0.014914848 0.04209349 0.10422247 -0.11789469 -0.039813556 -0.036011595 -0.102461584 -0.034358516 -0.07254765 0.11237837 -0.013979195 0.07592267 0.10514206 0.06961729 0.023828354 0.11023211 0.0035793616 0.104396366 0.034120813 -0.10840023 -0.10401812 -0.024311718 0.018973004 0.05220841 0.11291856 0.0768281 -0.011926341 0.0002799588 -0.10577878 0.070064865 -0.12549897 0.08981841 -0.017778957 -0.056139182 0.09475619 -0.009572271 -0.09962457 0.06899595 -0.00033922648 0.016023168 0.047919367 0.07158466 0.0016273822 -0.003354335 -0.033435535 -0.06510466 0.01885978 -0.055628024 -0.035596848 -0.038003914 -0.047627494 -0.06257167 -0.09291122 -0.054605477 0.02272791 0.07296545 -0.10202462 -0.119160384 0.096657656 -0.0025584889 -0.11869789 0.0723123 -0.07688931 -0.09630144 -0.048287086 -0.03924581 0.10629704 0.0632562 -0.049092773 -0.030120095 0.048635762 -0.071383856 -0.033649575 -0.0017741148 -0.0545475 -0.023830533 0.08371503 0.122349374 -0.12089717 0.085274026 0.12975393 -0.08687344 -0.058730148 0.031268835 0.033606734 -0.031443954 0.007846994 0.10852885 -0.07953084 0.12273695 0.03433176 0.04797455 -0.06358593 -0.0351854 -0.0363803 0.043805677 -0.03852473 0.049466778 0.091494046 0.07612117 -0.025193434 -0.0682751 -0.0115557425 0.12040243 0.04598742 -0.032889355 0.04288557 0.114260435 -0.047547817 -0.014411872 0.09516251 0.09953882 -0.025407072 0.027198287 -0.045144517 -0.087339476 -0.09798427 -0.0881956 0.055381745 -0.10358037 0.056593116 0.07145356 0.010179131 -0.09340474 -0.014097414 0.059512418 -0.05362054 0.05879903 0.03022815 -0.04217785 -0.005155627 -0.11358013 -0.123385556 0.12338251 -0.051358987 -0.09720812 0.08275863 0.03936065 -0.07614691 -0.03050282 0.02936086 0.107044876 -0.033463757 -0.026311371 0.108953655 0.02426749 0.0050165406 -0.119199134 0.1289363 0.121552736 0.116588034 -0.101226605 -0.012476445 0.03914634 -0.093374185 0.065787025 0.05073226 -0.053511433 0.09392154 -0.108189814 0.105335474 -0.13081591 0.079183914 -0.0100145545 -0.0010536774 0.055437975 0.014505915 0.13827744 0.018016852 -0.023828778 -0.07469039 -0.045638956 -0.027918588 0.037524376 -0.095860675 0.026416913 0.025473375 0.0216201 0.05029324
بازی -0.097051464 -0.050968096 0.066126116 -0.018897405 0.10051503 0.11708651 -0.05277671 0.04384067 -0.012741502 -0.06222077 0.001705242 0.07667258 -0.06649889 -0.028062643 0.04740356 0.01653991 -0.11744421 -0.04000867 -0.09499308 0.053622145 0.008069939 0.004374837 -0.0024762016 0.10194568 0.06590435 0.059435055 -0.035417717 0.0890064 -0.0189174 0.06267196 0.067644894 -0.05701229 0.025413949 -0.1236416 -0.1222764 0.02639825 -0.017224796 -0.06284328 0.06628321 0.039068464 -0.03200789 0.082896754 0.060948946 0.04068331 -0.10880317 -0.06667472 0.070543356 0.022305219 0.06911747 0.063366175 -0.022021325 -0.08473085 -0.05108919 -0.0789267 0.07505468 0.08323172 0.12771267 -0.103189506 -0.08763225 -0.029852653 0.14085579 -0.053377885 -0.0015228299 -0.010709491 -0.04664607 0.009959612 -0.113547884 0.020627161 0.075060375 -0.003929934 0.00361513 0.12244907 -0.0022550013 -0.025042087 -0.0046799583 0.048237987 0.111792155 -0.0479606 -0.09940239 0.00423618 0.01780407 0.103088245 -0.004131566 -0.048187226 -0.04576742 -0.11565985 0.052104335 0.11643324 -0.022185687 0.049579926 0.029550536 -0.04694241 0.04774009 -0.050451387 -0.080643386 -0.1296445 0.05403491 0.08784664 -0.0013823137 0.03768682 -0.11728201 0.1374657 -0.06602287 -0.008620571 -0.0016080334 0.11694604 0.11450077 -0.0026014664 0.025532607 0.11586199 -0.023326878 -0.006616806 -0.004398529 -0.03790574 -0.05468327 -0.062763944 0.027418433 0.07454079 -0.034529556 0.08294451 0.10781985 -0.032344155 0.08722198 -0.10038223 0.11473504 0.05716048 -0.044137336 -0.07102023 -0.08705071 -0.12467121 -0.05774267 0.06956492 0.090631835 -0.09229957 0.094198294 0.0658086 0.11651525 0.07294824 0.13569592 -0.090627745 -0.051985573 0.029797763 -0.13723531 0.021816611 0.10678952 0.056962915 0.087609105 0.1276497 -0.03981034 -0.018155592 0.025991715 0.020514334 0.13415734 -0.032864776 0.06144625 0.024476707 0.12556973 -0.078875735 -0.09200041 -0.036394864 0.10548269 0.027634377 -0.008429059 -0.015411647 -0.042349737 -0.012065063 0.034786988 0.030369211 0.045131207 0.050904315 0.0653248 -0.12804471 -0.096201085 -0.016046474 0.009988492 0.041024722 -0.062969014 -0.06320133 -0.02373333 -0.12676896 0.085340574 -0.03055716 -0.03750943 -0.071832575 0.016726425 0.018934723 -0.08591401 0.12207266 -0.08297485 0.00055369653 0.04369107 0.09900212 0.008634727 -0.09733579 -0.10275035 0.03321156 -0.058329154 0.04126822 0.012284039 -0.013650704
این 0.116549894 0.09579459 -0.053858336 0.025469106 0.09701651 -0.04901124 0.051862437 0.00041727672 0.06370886 -0.046968505 0.0806545 -0.07702911 -0.04297353 -0.052685693 0.08443888 0.058880463 0.06751899 0.042018786 -0.09420894 0.115179 0.08295591 -0.08124058 0.095199816 0.04769568 0.009914716 -0.03487498 -0.023279173 -0.08669985 0.088506445 -0.09302594 0.014424636 0.086676896 0.041200127 -0.06718165 -0.040695608 -0.052481327 -0.10351218 -0.03586142 -0.05663187 0.009953157 0.07687649 -0.018400762 0.10967854 0.041037347 0.102183804 0.04579394 0.11147403 -0.11136962 0.048090223 -0.016792707 0.10800837 -0.03220667 0.0041090166 -0.002893378 -0.1015088 -0.10862838 0.03453329 0.075364314 0.07766873 -0.094666965 0.10832412 -0.017952137 -0.083992384 0.057765964 0.093821846 -0.04733564 -0.062191606 -0.005383383 -0.07140191 0.020904224 -0.11843793 -0.08198253 0.027907794 0.007803365 -0.11357546 0.09207861 -0.022429029 -0.110998005 0.119941555 0.11405391 0.030642908 -0.05788109 -0.10435337 -0.038284864 -0.10815411 -0.0047980524 -0.021654302 -0.06526437 -0.083731614 0.065273434 0.032057125 -0.08636509 0.10544085 0.076478764 -0.11052623 0.093459584 0.045457795 0.09755656 0.08032572 -0.06510873 -0.032174326 0.087290406 -0.006515849 0.0076880674 0.10989156 0.024133315 0.094484836 0.10913032 -0.0425334 -0.07913987 -0.07949746 0.09152065 0.039729163 -0.0050878185 0.07414903 0.004430324 -0.07122326 0.10387429 0.07908054 0.0068106838 0.06788754 0.01738331 -0.060751442 0.024906166 -0.08269049 -0.078494266 -0.0771191 0.09570799 -0.003906429 0.071842186 0.032644007 -0.032191686 -0.08911324 0.095404774 -0.011848651 -0.016903864 -0.011996273 -0.11059338 0.010741846 0.11303964 0.026325284 -0.043558232 -0.00069636124 0.075755775 0.11705587 -0.018561976 -0.062130988 0.029668279 0.06670769 0.1062189 -0.097579725 0.03351734 -0.017479524 0.027542295 0.0922865 0.03567546 0.025286758 0.10059696 0.08883345 0.10771582 0.012167415 0.036077835 -0.014135224 0.0367742 -0.10332138 -0.056371696 0.04046432 -0.07021293 -0.11600376 -0.057077948 -0.06677927 0.10470641 -0.017765455 0.0015436129 -0.11338659 0.031543378 -0.08924707 -0.0049476614 0.09458743 0.026214067 0.057442956 0.11230691 0.08730083 -0.035403788 -0.08936028 -0.09242285 -0.035222966 -0.027884224 0.0070008696 0.06545171 0.016389908 -0.0874763 0.0142136775 -0.12410203 -0.013079412 0.033623997 0.039990976 -0.002002203 0.07862059 -0.11319617
ملی -0.08996578 0.039367218 -0.059765827 0.06847515 0.10332004 -0.04741122 0.038500354 -0.06182152 -0.022067768 0.06245426 0.08481356 0.039951984 -0.009095534 0.02427609 -0.040243745 0.08622672 -0.10348277 0.030792106 -0.11356006 -0.00637178 -0.07506133 0.068837956 -0.03306176 0.033663116 -0.071267635 -0.06825418 0.052218612 -0.0035488785 -0.08189108 0.04441863 -0.004613541 0.007413501 0.00014379821 0.006830557 0.0069169034 -0.019245088 -0.06909712 -0.12275596 0.0320777 -0.11244072 0.036944304 -0.11635546 0.047774516 -0.07578908 -0.0003563227 0.032304708 -0.07212333 0.061789654 0.06185369 0.08689263 0.03925037 0.017906325 0.051211424 -0.04619825 -0.08955621 0.07904726 -0.016959174 0.029851085 0.102322005 -0.006488859 -0.04224041 -0.07441951 -0.0051614633 0.07927229 -0.08300088 0.08570113 0.07109626 -0.04966331 0.11318151 0.0996733 0.05074532 0.07596339 0.005793719 -0.050552998 0.0018786223 -0.1133267 0.10575848 0.045948908 0.088082105 0.056398954 -0.056120846 -0.073122635 0.05239329 -0.06194704 -0.11129842 0.014657973 -0.12341159 -0.120665975 0.07242598 0.068194665 -0.06871117 -0.08501912 -0.07509923 -0.052270684 0.07321002 -0.099814236 0.112307616 -0.013161823 0.07687727 0.012913584 0.02152257 -0.064705014 -0.101086274 0.07331102 -0.09200317 0.02646993 0.06537678 -0.11028527 0.07719982 0.021843063 0.12221382 0.0019544084 -0.06903575 -0.0266129 -0.028266234 0.08538097 0.09766128 -0.07781329 0.0051221456 -0.025731131 -0.07295799 0.013476485 0.042681575 -0.077548735 -0.10855247 -0.122194126 -0.113446146 0.007566026 0.07304765 0.07152964 0.058953777 -0.015198654 0.12800622 0.0125799645 -0.10779057 -0.004619548 0.12107273 0.036965463 -0.06866054 -0.05744161 0.009834385 0.058541052 -0.088932514 0.122075275 -0.021193884 0.06415472 -0.025801014 -0.121279486 0.007225678 -0.099641465 -0.07129312 -0.10707221 0.006822497 -0.120083496 -0.111557566 0.07083025 -0.008052179 0.06596628 0.079444766 0.044505313 -0.05396689 -0.007629335 0.054845247 0.022379752 0.09497181 0.12379065 -0.03548559 -0.11479719 0.11270805 0.10863283 -0.12032826 -0.10571085 -0.024348488 -0.06296946 -0.014923219 -0.048834875 -0.018140301 0.009911024 -0.064149804 -0.109347746 -0.029501552 0.015558499 -0.04492911 0.122764446 -0.001440411 0.034702394 0.08668826 0.07935874 -0.057530466 0.021882417 -0.022912895 0.07702206 0.01847689 -0.08723685 -0.08354139 0.10820522 -0.04644652 0.12147661 0.0589515 0.011784827
های 0.042633656 0.013171926 0.014041399 -0.019212082 -0.052091595 -0.08152396 -0.0083280755 -0.05275232 -0.07117577 -0.036247373 0.10384652 0.025551222 -0.017776778 -0.08587029 -0.09596455 0.033504467 0.089080594 -0.10172717 -0.0028647594 0.117940895 -0.037849978 0.0044693043 0.040660705 -0.07476578 0.113069266 -0.096099 -0.049300097 -0.004464764 -0.07071302 -0.022623824 0.06477583 0.10270938 0.058678042 0.034959342 -0.120441735 0.074833624 0.11135919 0.074560486 0.057890624 0.03435907 0.058153626 -0.04358658 0.11077508 -0.01482108 0.057667173 -0.047979474 0.025065904 0.112429745 -0.0880591 -0.084697396 0.073042095 0.06509123 0.0911768 0.008701717 0.09975308 -0.10992341 0.100105636 -0.10450392 0.088447034 0.051107902 0.1094893 -0.038333535 0.06305623 -0.013281701 -0.03886392 0.07619409 -0.058199152 -0.116980754 -0.018309692 0.064590104 0.015382059 -0.11545723 -0.030313408 0.108461395 -0.025779767 -0.017579254 -0.046491444 -0.023180189 -0.039779074 -0.094634764 -0.081066474 -0.10291622 0.06327838 0.025995346 0.105090484 0.0035687566 -0.07914043 -0.06315832 -0.002233574 0.102879606 -0.11684476 0.11052706 -0.062067535 -0.045691364 0.0057455897 0.03945367 0.10414036 0.06272247 0.01770476 -0.07697149 0.11700398 -0.10788426 0.002479108 -0.111512244 0.09038696 -0.102482975 -0.04334529 -0.039048802 -0.026598055 0.1061574 -0.07719486 -0.09053751 0.044266365 -0.016666874 0.07379621 -0.07422915 0.11288173 -0.0116361175 -0.03405789 -0.023039496 0.103549555 0.01563921 0.047493827 -0.09243014 0.018503381 0.09501737 -0.099676184 -0.103141434 -0.012300811 0.0347865 0.10573415 -0.0135673825 -0.094757564 0.08293881 -0.104184404 -0.073172696 -0.057518292 0.013671234 0.0018793108 -0.043142147 0.072202235 0.09551141 0.010820235 0.050957005 0.03881804 0.0027554194 -0.07439418 0.045358725 -0.016899657 -0.108211145 0.11050416 -0.009719017 -0.013214119 -0.043504905 -0.037582822 0.048362955 0.026210707 0.036069322 -0.10623414 0.022506 0.11210817 -0.037948094 0.10018311 0.105419 -0.017147766 0.10900917 0.07835251 0.05107744 -0.056045342 0.023066217 -0.02669447 -0.05585968 0.04239027 -0.09509332 -0.0699673 0.11278458 -0.0057738824 -0.021829363 0.089499325 0.054301985 0.050155144 -0.07110771 -0.068542846 0.055044133 -0.08807764 -0.036411736 -0.09294989 -0.08578493 0.07253619 -0.014845663 0.02635745 0.09631992 0.07750805 -0.11255527 -0.100164585 -0.112132706 0.001139483 0.047081042 0.07292664 -0.06771913
المپیك 0.030471142 0.011613964 -0.10633847 -0.036145594 -0.107203975 0.016405031 0.050041776 -0.04715605 -0.005688112 0.09125397 0.055913415 0.050426677 0.027772188 0.005855002 -0.023486212 -0.065573506 -0.12000858 -0.07632082 -0.10592402 -0.0048782527 0.07555292 -0.00047938 -0.059292845 0.035972457 -8.7661916e-05 -0.10432444 0.11870095 -0.08732882 0.043571733 -0.0701738 0.034888685 -0.10076339 -0.039287932 0.018968662 -0.03614362 0.124436766 -0.11657151 -0.01439086 0.064968355 -0.018607575 -0.10668148 -0.1151449 -0.09395634 -0.04432657 0.11908817 -0.12382896 -0.09538784 0.0023986564 -0.07009644 -0.107227646 -0.005882864 0.012594842 -0.011564759 0.07243672 0.08432799 0.10522081 0.054182082 0.07607381 0.09973306 -0.07249195 -0.027715223 -0.048150934 -0.024685467 -0.11640219 -0.014633345 -0.025913073 0.026589563 0.00014965773 -0.09854482 -0.025125291 0.07333371 0.10818523 -0.11666211 -0.0062105376 -0.114098266 -0.10427442 0.084292024 -0.046174254 -0.08726719 -0.014901619 0.029827828 0.014000329 0.016869897 0.106214955 -0.019105377 -0.020599097 0.11494935 -0.070985705 -0.07844053 0.05945529 0.07386139 -0.07507735 -0.037460715 0.043559287 -0.043974463 0.060060535 -0.043467574 0.041720353 0.02750718 -0.029273383 0.097891815 0.10210706 -0.06933839 -0.108685516 0.06676488 -0.0536518 0.023303838 0.04838901 -0.031084616 0.10184724 0.09064368 0.008571807 0.0049659745 0.066063456 -0.06258295 -0.097285576 0.07158464 -0.109460056 0.044176787 -0.06909165 0.017307214 0.011312738 -0.11337047 0.11406757 0.07671292 -0.022166941 0.02174676 -0.046368755 0.10671297 -0.044248305 -0.06279894 0.053451274 -0.0549662 -0.10081477 0.012651365 -0.107760094 0.10724827 0.11819285 -0.0748761 0.05840146 -0.021985007 0.006869319 -0.052414555 -0.069900826 0.11825469 -0.010502944 0.08794501 0.035062708 -0.07282315 -0.11197681 -0.03498073 0.042041052 0.065544136 -0.06483727 0.021108782 -0.109220035 -0.03406875 -0.10449461 0.073011644 0.032042652 0.06279889 -0.032857135 -0.043286346 -0.120307975 -0.11245611 -0.08557772 0.016174637 0.09227577 0.024582097 -0.03658102 -0.07010132 0.08122073 0.035780743 0.08220012 0.11380104 0.021637378 0.03992009 -0.014620871 -0.100281596 0.115804195 0.066528104 -0.021904178 0.007988106 0.05473521 0.031747956 0.119016096 0.105744734 0.108235046 -0.06500621 -0.030154638 -0.07569891 0.011619349 -0.017807702 0.0018543593 -0.04020763 -0.033578437 0.1142217 -0.12203103 0.033040598 0.031061428
است -0.05188274 -0.05392392 0.05016498 -0.0708139 -0.015122851 -0.08244706 0.102831595 0.08879918 -0.08904804 0.103317484 -0.11904011 0.11187465 -0.046595946 -0.07685125 0.026762798 0.04142944 0.044407126 0.025902843 0.09037958 -0.038997617 0.0565127 -0.048096463 -0.0654125 0.08110658 -0.06889757 0.07034389 -0.10512572 0.06739204 -0.086014375 -0.01127769 -0.07914958 0.025863856 -0.04572606 0.0073573645 -0.006023725 0.024937754 0.02671211 0.006116057 -0.056575265 0.07892891 0.00517224 0.015403414 0.06353489 -0.07157582 -0.053286612 0.023547567 0.008659875 0.10964199 -0.10318039 -0.025410075 -0.07829939 -0.032473404 -0.06662629 0.09606533 -0.08680721 -0.011299577 -0.005672032 -0.06240165 -0.10253017 0.04579431 -0.07230416 0.016366798 -0.057279777 -0.1108714 0.09217442 -0.008565163 0.084873565 0.057773944 -0.07423693 -0.022386158 -0.045371052 0.0034626897 0.054134376 -0.113417715 -0.00081307517 0.025444211 -0.0784794 0.07194025 0.044794846 -0.044173762 -0.10672411 -0.048921376 -0.047270246 0.083345324 -0.064545736 -0.10527563 -0.04948579 0.07781618 -0.091300935 -0.065078326 -0.08940922 -0.02893563 -0.049280897 -0.08662469 -0.02811632 0.09485671 0.0732699 0.0677267 0.08823479 -0.025073467 -0.027107764 0.100541495 0.047647923 0.027666045 -0.097302675 0.043080166 0.095470175 0.10878278 0.09677616 0.030274207 -0.07817891 -0.040627822 0.02685358 0.10391982 0.08861659 -0.06617394 -0.079693966 0.11474277 -0.08151857 0.068754405 0.098626964 0.059364304 -0.0037451189 0.10919175 -0.025861692 0.030598816 0.053097226 -0.083259806 0.0034965812 -0.07515684 0.11906747 -0.012727643 0.026098168 -0.09923115 0.10238512 -0.070807286 0.10910465 -0.117304735 0.10657596 -0.0090208445 -0.040624175 0.019228987 0.073109865 -0.09828664 -0.1149824 0.08658223 -0.016384909 0.043592785 -0.09114322 0.08950913 -0.099172726 0.047406655 -0.008864622 -0.010957515 -0.045718282 -0.05289704 -0.008771946 0.026813202 0.08655396 -0.051612645 0.11386343 0.10625016 0.1035368 -0.048316956 -0.003772866 -0.04555762 -0.002989435 -0.025422165 -0.044927757 0.028151639 -0.056748487 0.06813918 0.096803024 0.02762828 0.10920173 -0.017895443 0.039762344 -0.09753116 0.049466062 -0.016997503 0.074454166 0.114842735 -0.11259042 0.07061204 -0.060594093 0.083195485 -0.072086304 -0.08862978 -0.10297958 -0.06955908 0.092761956 -0.08764875 0.10561272 -0.077584125 0.08338388 0.11608886 0.073379 -0.0563784 -0.057079148 0.07547796
ایران -0.027716406 0.013947985 -0.030573279 -0.11972328 -0.10709211 -0.047165986 -0.05254842 0.07795535 0.050792724 0.11157557 -0.08197735 -0.10535208 -0.017555475 -0.013346733 -0.027936505 0.05587625 -0.061430857 0.028968154 -0.052304547 -0.04970587 0.122316875 0.07738883 0.050550394 0.088094145 0.08333769 -0.0021653445 -0.111090675 -0.1167404 0.020680556 0.11344764 -0.040255636 0.07390044 -0.016982516 -0.113720916 -0.017223267 0.039719895 0.023705283 -0.09415016 0.09271336 -0.039735947 -0.07408494 0.011168813 0.05444001 0.116909206 0.033346713 0.04856089 -0.027244572 0.014016772 -0.063364916 -0.08129563 0.0057715615 -0.105465494 0.009846124 -0.0936868 0.09078064 0.020981569 0.044016615 0.012444397 0.05442782 0.0058504 0.006581714 -0.12829664 -0.047224544 -0.07311272 0.10636465 0.018425817 0.113406576 0.016549401 -0.09779839 0.032789554 0.04749354 0.041248016 0.037601605 0.09018219 0.114628255 -0.012316575 -0.05616982 -0.011212735 0.053216103 -0.014107837 0.06428138 0.018780356 0.06599373 0.013265155 0.022806486 -0.04267344 -0.12773837 0.004802212 -0.050357483 0.031037422 0.029027138 0.073626354 0.108531654 -0.08185208 0.022917215 0.08374872 -0.105439454 -0.06128957 -0.088952914 -0.024069315 -0.081923634 -0.031632878 0.11652329 0.08058851 0.002879785 -0.06867866 0.0009831506 0.0025103523 -0.07686881 -0.12218045 -0.072634466 0.102408834 -0.07133286 0.061782483 -0.055713106 -0.04621679 -0.014688547 -0.088927984 0.04699516 0.012615503 -0.046159882 0.10913203 0.08750882 0.07194661 0.04986718 -0.06669429 -0.07822524 0.04555871 0.080112904 -0.07442115 0.09207911 0.021676041 -0.11008477 0.080331646 -0.10545601 -0.10970944 0.10076165 -0.061854687 -0.015866678 0.07886947 0.037188347 -0.055433977 0.05917785 -0.029073078 -0.06885218 0.015253643 -0.038677875 0.07506356 0.11125016 -0.01615434 -0.1166142 0.100092575 -0.116342515 -0.009552458 -0.03604206 0.030265063 0.10340929 0.08222027 -0.046688117 -0.022842787 -0.08716329 0.0053900466 -0.09694595 -0.063059665 -0.117706776 0.08395938 -0.09584174 -0.028754804 0.06648255 0.0128540695 0.040400982 -0.08021304 -0.093216866 -0.07713586 -0.00031851194 0.031469166 -0.11468033 0.112929724 -0.025575975 -0.049095508 0.077476144 -0.03374462 0.10327625 -0.0709984 0.015638229 0.10237744 0.040341187 0.112190425 -0.098068185 0.056035142 -0.09290297 -0.11700318 -0.056019794 -0.043592535 0.07889251 0.11117494 0.108627245 0.06270021 0.0040597753 -0.031254258
كه 0.08437762 0.00934776 0.047822468 -0.08947122 -0.077746525 0.07254083 0.039472606 -0.040257253 0.021687634 -0.061423745 -0.021838427 0.095168196 -0.04231219 -0.10237671 -0.041506473 0.06656649 0.11399264 0.017365826 0.026952114 0.10161575 -0.059562344 0.050672285 0.07288334 0.06323797 0.015776588 -0.05344926 -0.09990268 0.051867068 0.038095813 -0.0022516726 -0.096819796 0.026387908 0.00044861413 -0.054628406 0.061579876 -0.013237036 -0.03365469 0.020209452 0.08778705 0.053538725 -0.018893702 0.028801322 0.09245318 0.0007673509 0.045807756 -0.07956125 -0.10406884 -0.045483656 -0.100868456 0.08857396 -0.08168575 0.10159823 -0.11441602 0.08962787 0.06428863 0.085299104 -0.050383005 0.060836285 0.07687207 -0.012718982 0.09827121 -0.002702945 -0.083584994 0.11264191 0.04389117 0.05121065 -0.018491333 0.11213003 0.10357345 -0.0012399397 0.03247146 0.07993643 -0.09075261 0.04216484 0.08112033 -0.049200535 0.00139609 -0.11971831 0.11606657 0.058499753 -0.1148563 -0.059435144 -0.03805752 -0.016714193 -0.026934199 0.0060329633 0.008950455 -0.09167899 -0.087555036 0.008608326 0.0009761905 0.018369196 0.06527106 -0.020796364 0.11899909 -0.025581826 0.08934841 -0.03566933 -0.100029305 0.012454354 0.047484364 0.12065859 0.08697365 -0.024586944 -0.11547342 -0.10172042 0.03889303 -0.05203696 0.11516772 0.093725644 0.042745788 0.11404527 -0.012563286 -0.06569352 0.05629308 0.10900212 -0.08677507 0.10077719 -0.0218195 0.11246151 -0.07602922 0.060628615 -0.08544878 0.03162285 0.051903453 0.09626026 0.08896174 -0.019980188 0.116760455 -0.10950601 0.08176781 -0.039176147 -0.114554375 0.055803332 -0.022630984 0.025795553 0.07051191 -0.10031124 0.12060132 0.09251925 0.07472564 -0.04062016 -0.07247881 0.039338958 0.07807335 0.09977724 0.023694674 0.07628176 0.113758035 -0.024863541 -0.026894975 -0.107209355 0.027219296 0.05195232 0.066958316 -0.0467339 -0.07810733 0.018685438 0.030405918 -0.084694825 0.11857754 -0.0040482897 0.019638008 -0.02471029 -0.069545835 -0.063302495 0.11612231 0.09408611 -0.04554255 0.010280395 -0.10542366 0.0025509745 0.108785085 -0.117993824 -0.03788323 0.059683036 -0.054114588 -0.051565934 0.019800374 -0.02428962 0.08008919 0.090147324 0.05156607 0.06269366 -0.027823003 0.007082255 -0.0378701 0.053483903 0.066199996 -0.077250764 -0.078540616 0.016801754 -0.08451611 -0.011525984 0.11055734 0.11740199 0.061242107 -0.06855395 -0.112878814 0.000355171
یكی 0.009786837 -0.042393684 -0.07006278 -0.049793623 0.09276706 0.043678407 0.06280927 -0.06478745 -0.050675888 0.09892379 0.11596621 -0.10743876 -0.12375337 -0.1241406 0.0011166034 0.113994874 0.09007279 0.0011494323 -0.11025645 0.0759721 -0.07629409 -0.09331566 0.0027357696 -0.08079435 0.054026708 -0.021800896 0.07429518 0.00067077443 0.10001189 0.06231053 -0.096432045 -0.042123932 0.011974649 -0.104238294 -0.008339252 -0.09982315 -0.02553876 0.04611159 0.08270893 0.08633502 0.010309685 0.079357624 -0.038731173 -0.08901183 0.06833933 -0.05180568 0.015164819 0.09467635 0.08879827 0.026276572 0.053002298 -0.06442003 0.08934322 0.078044124 -0.08875166 0.020259311 0.03514687 0.07823862 -0.10261539 -0.06189641 -0.112920776 -0.066939354 0.0604587 0.06177731 0.005989349 -0.03659922 -0.009509449 0.064808264 -0.09670392 0.104547925 0.026252337 0.107222155 -0.11794053 -0.04956048 -0.06718055 -0.06691992 0.028107097 0.12041927 -0.048082147 -0.05313518 -0.11192838 0.110417016 0.055627048 -0.10464584 -0.097039826 -0.102269255 -0.049193993 0.014007438 0.039169095 -0.09494684 -0.11620643 0.04013931 -0.01831423 -0.0010572224 0.060960736 0.05621274 0.07130826 -0.10130485 0.081642695 -0.10706227 0.017476367 -0.0060464395 -0.028744685 -0.11903793 -0.027941843 0.081718035 0.008992364 -0.058461495 -0.014574781 -0.061668105 0.1063085 0.10059926 -0.11762554 0.04999653 0.08941949 0.015215347 0.108553074 -0.057392076 0.056356546 -0.037051182 -0.006759779 0.022839013 -0.0026227904 -0.04141376 -0.011794869 -0.048709657 -0.11716607 0.08608363 0.0050113127 -0.12505026 -0.024836697 0.12142333 0.122694276 0.1120469 -0.051430766 -0.0016792971 -0.016010774 -0.10052804 0.107447214 0.0677611 -0.011442834 -0.055003688 -0.01980018 0.03601927 -0.079009406 -0.098364525 0.034994565 0.032873344 0.042323638 0.12013178 0.0443925 -0.020285932 0.058000904 -0.0024116063 -0.040449873 0.02420727 0.017943947 -0.11354862 0.048008107 -0.011824853 -0.0815727 -0.021334635 0.03666312 -0.058930002 -0.011010684 -0.1064764 0.09805098 -0.09551325 0.06522566 -0.042188276 -0.078478396 0.09849 0.11053595 -0.07684275 -0.00895548 -0.0121468315 0.028279733 0.012562856 -0.04894046 0.09427217 0.11046251 0.0067806235 0.06953043 -0.010601432 -0.02204348 -0.016634071 0.01849328 -0.03849081 0.05161491 0.07544647 0.0637302 -0.010187325 0.06343042 -0.07676215 0.12438301 0.0701346 0.053362496 -0.020334996 0.08946485 -0.05135908
تواند -0.07155586 0.025819972 -0.04210314 0.09196826 0.08568726 -0.10460454 0.038798027 -0.0075638313 -0.09165075 0.047529887 -0.09918322 0.032489024 0.031973653 -0.103737354 0.087996975 -0.1118514 -0.01064121 0.07765613 0.09051112 0.118012704 -0.004382859 0.03142801 -0.04241158 0.09036858 -0.063098125 -0.032182336 -0.04049228 0.07039833 -0.088457346 0.01750521 -0.10473237 -0.089965634 0.04241988 -0.08126791 0.048246484 -0.11084166 -0.002524062 0.025741894 -0.081497796 0.098585956 0.096798874 -0.12279852 -0.012010199 0.010423497 -0.097996406 -0.05277272 -0.024649642 0.06374387 0.09388861 -0.0042054337 0.11920825 -0.04032047 0.074050054 -0.0040694606 0.08165968 -0.032797195 0.012069876 -0.060149163 0.035290733 -0.05894257 0.10301505 -0.11465177 -0.07126291 -0.029744275 0.06083391 0.07909011 -0.08348477 -0.09083269 -0.038347546 0.06437609 -0.06335887 -0.0750233 0.047258265 -0.0048258933 0.045645036 0.02812555 0.07003938 -0.02474246 0.1189898 -0.085442774 -0.011852566 -0.06186058 -0.064793445 -0.08112422 0.111759 -0.071756095 -0.027735481 -0.11416729 -0.08722373 0.02207419 -0.03493294 -0.08560122 0.117306195 -0.06317484 0.028896634 0.07254076 0.081723094 -0.05540097 0.08623527 -0.10438501 -0.028708488 -0.06450078 0.10500204 0.053734753 0.09849806 0.014630949 0.053215746 0.013188059 0.08680209 -0.11705703 0.009298199 0.028474035 0.103736185 -0.10439098 0.011390041 0.026781913 0.03949782 0.10502335 0.10262014 0.007696588 0.06813114 -0.020094289 -0.0126437405 0.090206675 -0.06244218 0.031402227 0.019860268 0.045671802 -0.10620138 -0.117129184 0.11281288 0.11141626 -0.10359288 -0.019421304 0.11431239 0.09986737 -0.01396423 -0.017477889 -0.038162544 -0.09806423 0.11405274 -0.03347912 0.01850935 -0.039396543 -0.10563664 0.09511377 0.0020854105 -0.08445436 0.10814958 0.03054634 0.051213402 0.0738611 0.050898295 0.017701581 0.12085909 0.10236141 0.06808609 0.016362937 -0.06861727 -0.030520253 -0.00522104 -0.023452677 -0.02303313 -0.07292719 -0.0003478332 -0.110918805 -0.10587701 0.10346685 0.07017024 0.051328268 0.041436292 0.024422476 0.004230796 -0.103095636 0.0385479 0.08704309 0.10094711 -0.0693149 0.08484238 -0.08250755 0.052126676 -0.06353526 -0.1127196 0.08512115 -0.08334115 0.033149682 -0.056849808 -0.014353806 0.002691102 -0.016852936 -0.0018331463 0.07236942 0.09685256 0.06662439 -0.066375375 0.034258828 0.05011784 -0.023193674 -0.0041690706 -0.055214837
به -0.020284723 0.07111042 0.033840988 -0.015647683 0.02681077 0.09884198 0.09642466 -0.028682915 0.019674685 -0.016044242 -0.12259058 0.058079686 -0.07446017 0.0857198 -0.06830358 -0.012008478 -0.12454113 -0.076705486 -0.07829449 -0.11669938 0.043743398 0.090568975 0.01895918 0.03717352 0.10452639 -0.03381958 0.0878623 -0.106761985 -0.052801006 0.03089147 -0.005744467 0.084786996 0.08101634 0.08710822 0.0022902489 0.03283386 -0.029593246 -0.03931563 0.047650367 0.08901636 0.06601342 -0.06536505 0.059284307 0.042819884 -0.014303346 -0.034148086 0.053310987 -0.04418505 -0.031689484 0.07843774 0.030289613 -0.07936492 0.05678884 0.04153369 0.07625792 -0.039655186 -0.010466575 0.09140478 0.00231117 -0.081561476 -0.09468287 0.057682138 0.084093496 0.09732109 0.12596814 -0.036184352 -0.10879404 0.071502216 -0.10072018 0.0031879335 -0.00806279 0.050780427 0.026890893 -0.072884105 -0.09554419 -0.019676868 0.027368234 0.09869437 -0.043661527 0.06857517 0.06340372 0.027065637 0.09679986 -0.090799235 -0.040945917 0.003736727 -0.07922577 0.09907039 0.012432141 0.01627118 0.108708665 -0.04184937 0.057995737 -0.110281594 -0.031632975 0.0016462676 -0.039230477 -0.052246697 -0.055957977 -0.11200772 0.027281469 0.010995734 0.12147998 0.114191905 -0.062076084 -0.109932594 -0.105648935 0.0868838 0.06536103 0.049531873 -0.010978467 -0.03599832 0.0203435 0.08899408 0.033161804 -0.07565408 -0.049945824 -0.06209142 -0.0016232355 0.114830926 0.0552882 -0.002931178 -0.042637818 0.08191736 -0.040206533 0.096710816 0.10092944 -0.06245926 -0.05844993 0.028285269 0.017219495 -0.08301579 -0.09676401 0.0043895184 0.091672905 0.020944 -0.008942809 -0.11436455 0.08610989 -0.061918803 -0.05518559 0.10463159 -0.11276515 0.103976004 -0.067507274 -0.06515408 0.08994424 -0.08343489 -0.03922848 -0.12312857 0.09190098 0.023537274 -0.09860132 0.06562784 0.092042275 -0.07761289 0.11614132 -0.0371034 0.017493052 0.07569467 0.029534526 0.109675325 0.12622078 -0.01582577 0.119054526 -0.002595666 0.0947985 0.048175722 0.0014620718 -0.080600105 -0.005030314 -0.06202441 0.007387548 -0.09379299 -0.11426652 -0.06333572 0.065603815 -0.0731666 -0.050192676 0.044924553 0.080127865 0.08812806 -0.09525231 -0.08665781 -0.12205636 0.07766186 -0.04665945 -0.09178667 0.076681785 0.06607128 -0.09580533 0.08342554 0.05079997 0.023322437 -0.011874567 -0.08510968 0.030832611 0.0125450175 0.064894855 0.0942158
باید -0.117682785 -0.071025535 -0.014462067 0.021143911 0.08800707 0.034963943 0.06657642 0.06331662 0.00012490524 0.050330088 -0.057710107 0.07701723 0.051170286 0.034203492 0.07874892 0.058560614 0.018753825 -0.064350106 0.046772808 0.10575182 0.07645289 -0.1106023 -0.008918838 -0.08268447 0.00043337385 0.101444274 0.03826761 -0.11000876 -0.050626464 -0.0528153 -0.11815672 -0.051081665 -0.034144178 0.054933507 0.107443795 -0.025833974 -0.057035502 -0.017556697 0.078917004 0.089166924 0.06593932 -0.051633175 0.10651984 0.08736751 0.06904914 0.058257613 -0.090451874 0.028980052 -0.0043122484 0.111918844 -0.09972515 -0.10139661 -0.0574341 0.036015574 -0.0018044894 0.0724366 0.050346673 -0.052512087 0.10390067 -0.1078255 0.043362442 0.062060047 -0.1074193 -0.024312371 0.049942948 0.043124482 -0.02489263 0.057194274 -0.041584097 -0.07470578 -0.09669018 0.04699132 -0.00057685515 -0.032263685 0.11497579 -0.030789478 -0.061491903 0.11429249 0.03107652 0.001651891 -0.0044424394 -0.09351798 -0.049559217 -0.068128906 0.012455598 -0.10853125 -0.0617278 0.028732797 -0.07829326 -0.025291562 -0.0848319 -0.05303151 0.05181238 -0.020675762 -0.02402328 0.046334073 0.099571176 -0.069645286 0.09623538 0.043492597 0.00016188591 -0.0964414 0.09231603 0.044873726 0.108992554 -0.039518874 0.04125018 0.053182863 -0.11381375 0.09094213 0.06380449 0.111639634 0.059919514 0.008977741 -0.056491062 -0.11544007 0.09836643 -0.100925155 -0.07477305 0.10017204 0.051866278 0.05534562 -0.016778843 0.009698767 -0.11595444 -0.052116208 -0.0702549 0.033571526 -0.08565942 -0.040877588 0.059141524 0.044776488 0.07022871 -0.10891671 0.026827777 0.00017699225 0.12101805 -0.089729704 0.060037673 0.09632437 0.11327973 -0.10038696 0.048383284 0.06342065 0.053482726 0.0742458 0.06818263 -0.08343764 0.061895728 -0.061001815 0.0109253535 0.04568677 0.08919688 0.09390004 0.0802379 0.10551017 -0.030800665 -0.06739059 -0.03153536 0.08301165 -0.009633608 -0.05518374 0.1141947 -0.0060114954 -0.08826517 0.012052891 0.10473939 -0.119003735 0.085294925 0.066614866 -0.052187268 0.0030679146 -0.076790884 -0.008279419 -0.09326084 -0.0007743947 -0.08094506 -0.040962532 0.1139745 -0.0635807 -0.10061706 0.12029502 -0.041653164 0.05436075 -0.0065324293 0.12237079 0.0039501977 0.0749475 0.042106755 0.021734297 -0.109799184 -0.073533855 -0.11817097 -0.034238394 -0.013769407 0.08676035 0.030282164 -0.10407555 0.025615381 0.009649612
پوشان 0.06201831 -0.08610552 -0.06538001 0.09494057 0.08453299 0.007394696 0.10317726 -0.074719846 -0.10884444 -0.051588748 -0.098305635 -0.025767315 -0.0186036 -0.09626641 0.083256096 -0.05237108 0.07922942 0.04837468 -0.03594546 0.024224976 0.061644938 0.033701424 0.04313254 -0.02410473 0.044807166 -0.06605827 -0.02806715 -0.110846534 -0.09575653 -0.078337945 0.03838661 -0.095692895 0.033142425 -0.07173322 0.113564126 -0.09746598 -0.064152494 -0.033990834 0.0981891 0.015760535 0.026998881 0.015571328 0.053464886 -0.06645816 -0.052131753 -0.03409879 0.012874479 0.08250903 0.029965606 -0.015719913 0.111529745 0.103279 -0.0042744395 0.085428804 -0.03953634 -0.104504324 0.08900342 -0.023830663 0.08263785 0.08793613 0.008830272 -0.013930345 -0.051280815 -0.048134133 -0.010946532 -0.1033531 0.0062395274 -0.04369791 0.11200598 -0.040138055 -0.08812173 0.026434321 0.10643125 -0.059872787 0.0777699 0.0067556105 -0.00025787242 -0.05898186 -0.083350405 -0.09996876 -0.103065826 -0.11838535 -0.036788944 -0.12093117 -0.008077713 -0.074702166 0.09872248 -0.053469837 0.08212508 0.09470129 -0.113225825 0.09526202 0.029256962 -0.0030994157 0.029873297 0.11609784 0.0019946664 -0.08865899 -0.042682067 0.08618835 -0.09946661 -0.0019696052 -0.10917843 0.043155193 0.11257534 0.01952727 0.11258751 -0.011675135 0.07573853 -0.035147123 0.053927794 -0.0037334373 0.085098356 -0.09869545 0.097390085 -0.028284457 0.0035199835 0.07297249 -0.0864212 -0.064974904 0.11915462 -0.043052882 -0.022138944 -0.00096759433 -0.06369777 -0.09135387 -0.038091734 0.052082025 -0.0563127 0.10110429 0.024074456 0.10818107 0.04563895 0.022821303 -0.11432873 0.036964487 0.004196058 0.03849003 0.07685437 -0.0776926 0.10681432 -0.116206564 -0.11160534 -0.031518765 0.09478863 0.022654189 -0.106663905 -0.051475093 0.056128893 -0.10641589 -0.084016465 -0.059730534 0.019164372 -0.05618233 0.10546277 -0.08786804 0.0966308 -0.035351247 -0.012816961 0.06627493 0.008707228 -0.06326423 -0.073921405 0.0014834688 -0.02757085 0.014337498 -0.0030761303 0.055927668 0.07582577 0.093182445 0.029956963 0.081017286 -0.017017893 0.06249004 -0.09293061 -0.012925316 0.07019329 -0.07827034 0.116587155 0.05593404 -0.04520176 0.117251 -0.01644001 0.03971136 -0.014499333 0.05851293 0.096895136 -0.09918377 0.07913613 0.04755748 0.08253314 0.007745703 -0.09142932 -0.10507316 0.04362367 0.026916817 -0.05242357 -0.09445652 -0.0883992 0.11213397
روزهای -0.027809374 -0.074131876 0.073160045 -0.11053964 0.10154122 -0.052529894 -0.049784753 -0.06416412 -0.072345205 0.09150234 0.05806231 0.06229633 0.025090694 0.06907771 0.032049425 0.07123108 -0.042086657 0.04919443 0.09967733 -0.030878419 -0.00086864457 0.030628648 0.016180545 0.115459435 0.031795546 0.10406921 0.03848311 0.025103485 0.10589896 0.09195189 -0.025238184 0.094851285 -0.0049757273 0.0055792592 -0.04104946 -0.111933134 0.06984302 -0.04585821 -0.018680234 0.09047 0.084881485 -0.0357893 0.09208319 0.11762896 -0.06801287 -0.08246179 -0.117831126 0.10544999 0.06851948 -0.010296051 0.003601996 0.10565708 -0.11440816 -0.022038069 -0.08698386 0.11770267 -0.015060774 -0.03938445 0.08336447 0.066789806 -0.08502374 -0.037577733 -0.004742536 -0.09259068 0.012060195 -0.08279812 0.07638031 -0.11201042 -0.055533376 -0.025250632 -0.063742414 -0.05270569 -0.10181694 0.0091451155 0.038084976 0.109459706 -0.045086645 -0.014252642 -0.044797104 0.10059147 0.04143597 0.071110584 0.08343435 -0.12287652 0.002077164 0.046030104 0.0769208 0.10522131 -0.076198086 0.086848944 -0.068081304 0.05389513 0.057047594 -0.003152878 0.051760722 -0.049987093 0.0008766209 0.07029235 0.08582511 0.098240264 0.010815863 0.11989883 0.09370085 -0.016448352 -0.012534882 0.009088235 -0.007511768 -0.0049935267 -0.11596182 -0.069523655 -0.0747721 0.058647644 0.123035 -0.06537774 -0.035750397 -0.12095825 0.11927827 -0.09254218 -0.03293058 0.010771524 -0.004937921 0.05193187 -0.11641828 0.0077113532 -0.101378165 0.01857293 0.11179014 0.09044324 0.09628854 -0.009865686 -0.085679136 -0.07981124 0.10497898 0.04081033 -0.007365003 -0.09663845 -0.034927152 0.07295819 -0.030363528 -0.07062325 -0.049326878 -0.07401121 -0.11675672 -0.11314166 0.0362563 0.04694326 0.0054702824 -0.073866904 -0.05699629 0.084305935 0.11394666 0.02373234 0.028243875 0.036505003 -0.022092283 -0.05868082 0.0667481 0.03815829 -0.048060488 0.05807878 -0.09133871 -0.00039989472 0.12083269 -0.021724751 -0.09263239 0.043364216 -0.05160868 0.09202386 -0.109070316 -0.09847174 -0.01784993 0.0826866 -0.07382944 0.064387284 -0.08788863 0.027585518 -0.044292167 -0.09785462 0.06514092 -0.08494906 0.0015571075 -0.05818305 -0.015274202 -0.01993008 0.07143113 0.0025384421 -0.10242481 -0.027363732 -0.10835329 -0.04050961 -0.0043922686 -0.006462347 0.05532206 0.084594674 -0.0057298597 -0.065365754 -0.11343668 0.10249343 -0.10530254 0.034063376
اسماعیل 0.09850834 0.11647161 -0.10060147 0.046340574 0.039269466 0.043145303 -0.013688277 0.09146291 -0.07092717 0.020438574 0.06470895 -0.12198956 0.11677602 -0.045183077 -0.11744678 0.12432183 -0.053543672 -0.097194076 0.03370474 -0.08881828 -0.015613891 -0.06859163 0.007149518 0.0011361183 0.104211845 0.02600928 0.037166648 -0.028512932 0.056871988 -0.046644155 -0.0008504682 -0.10768047 0.109386265 0.06314733 0.09068193 0.01860737 0.055522244 0.053913496 0.037004657 -0.05246598 -0.051665906 -0.04072876 -0.039434314 0.111972824 0.00072155974 0.017867092 0.07387105 0.005484254 -0.07707984 0.10494707 -0.07552978 -0.015906943 0.08985174 -0.11603685 0.061542045 0.021064058 0.11412504 -0.018839661 -0.031493187 -0.119567126 0.042390466 0.04247956 0.062379748 0.09349951 0.03205424 0.043695375 -0.03708148 -0.09298818 0.09323666 -0.016819345 0.025119195 0.0954661 0.12252563 -0.00035417502 -0.088596046 0.117251605 -0.07790648 0.10897728 0.021808589 0.05485814 -0.07548737 -0.11889524 0.07171485 -0.05927623 0.049821954 0.04382629 -0.008847673 0.101092696 -0.11368632 0.022115577 0.033080738 0.074969366 0.06485772 -0.048104383 -0.023076423 -0.08422235 -0.032550946 -0.07108553 0.08082036 0.11515605 0.04532856 0.087437086 -0.03190555 -0.038017556 -0.07246107 -0.11017204 -0.09615711 -0.0232672 0.08486068 -0.1043171 0.04757915 -0.022796493 -0.060507722 -0.09571343 0.0015400617 0.108942226 -0.058341216 -0.01642471 0.115628466 -0.059221562 0.07421602 0.04266649 0.039745253 0.09212992 0.0935408 -0.06788805 0.087659135 -0.02356326 -0.072165914 -0.09526124 -0.018032566 -0.023931932 -0.03912698 0.08620725 0.049853116 -0.024219336 -0.11426408 0.082080424 -0.07284281 -0.018985854 0.0019651754 0.0850358 -0.015524072 0.1187107 -0.06324043 -0.085621655 0.024961125 0.0019477366 0.122569405 0.10037866 0.046033673 -0.055935234 -0.010403577 -0.054995663 0.05781737 0.11413458 -0.114998065 0.022226479 -0.021073071 0.010635361 -0.06513399 0.07118533 -0.069663405 0.07545653 0.08695736 0.011117198 0.04831054 0.045951374 0.010734859 0.008843119 -0.026012568 0.031769074 0.09230556 -0.010987791 -0.11031444 0.017939242 -0.052196037 -0.12389048 0.03142602 0.08603961 -0.020333579 0.104203396 0.036828313 0.020280289 0.085002154 0.08391105 0.115201205 -0.10990202 0.012531324 0.048802696 0.073028795 -0.021865996 -0.015210572 0.0006642742 -0.06260445 -0.11225411 -0.0025357308 -0.052467808 -0.09762175 0.11902853
هر -0.012347311 0.10813744 -0.04101894 -0.051311843 0.0402771 -0.08450492 -0.09966121 0.034745026 -0.121126026 0.08062221 0.07877265 0.09715648 -0.12110462 0.055159874 0.042078864 0.040140316 -0.01763188 -0.026269455 -0.109295815 -0.0423791 -0.11264453 0.040043786 -0.08237827 -0.1091917 0.06438864 -0.04276587 -0.04131677 0.03874316 -0.0026303348 -0.03430796 0.10226042 0.015567835 -0.034311786 0.036159948 0.08886991 0.08156933 0.071685396 0.06937109 0.056615647 -0.05239034 -0.044560768 -0.038754527 0.09184061 -0.028237158 0.105472825 0.03954506 -0.09682783 -0.1182129 -0.11095569 0.060850285 -0.042155754 0.004442426 0.027461987 -0.009554055 0.06156651 0.028661013 0.078215785 -0.049997523 -0.04800928 -0.09606428 0.10725151 -0.04985761 0.0626423 0.07022523 0.04564683 0.09499189 -0.11262723 0.0038959691 -0.0035111122 0.035096694 0.09271851 0.06197227 -0.006799045 0.07533034 -0.058756016 -0.11497815 -0.09816596 -0.072645105 -0.037788637 0.0824437 0.033109915 0.05340108 0.08111214 0.08861339 0.10602365 -0.10160405 -0.04586071 0.028962884 0.08072808 0.055667073 0.060297158 -0.011856536 0.017282335 -0.023268133 0.06827628 0.07774679 -0.011092268 -0.041571643 -0.10280034 0.06698342 0.09604715 -0.100902826 -0.030591637 -0.05266043 -0.06550426 -0.11161762 -0.11614853 0.1217924 -0.0006951728 0.10013251 0.030218652 0.08945359 0.006448398 -0.008127597 0.013620988 0.09870362 0.10176552 0.09319321 0.11613375 -0.049053255 0.11587371 -0.050619457 0.04566258 -0.033099294 -0.05461068 -0.036269028 -0.1078676 -0.099114016 -0.0034271313 -0.030077823 -0.019519996 -0.006825145 -0.020965278 0.08493702 -0.08365878 0.080758154 0.09074631 -0.043329816 0.0060447454 -0.05169087 -0.075631455 0.0038852096 -0.10056285 0.017251503 0.0019344806 0.08985475 -0.033998583 0.09309507 -0.011614917 -0.084001064 -0.030964574 0.04665121 -4.3744454e-05 0.08660305 0.08177245 -0.06710279 -0.09497267 0.074396156 -0.07577568 -0.10855826 0.09325971 -0.097061224 0.10418565 0.10607752 -0.107201405 -0.037074067 0.047624905 0.10399611 -0.01637558 0.03998698 0.015155256 0.049689833 -0.090784125 -0.08692585 -0.079362206 0.10413655 -0.05675143 -0.024477346 0.015278909 0.03191545 -0.09673704 0.12283242 -0.09674151 -0.031534564 0.11570074 -0.07943338 0.004978034 -0.07966056 0.049312368 -0.086699545 -0.025974547 0.063497566 -0.016612645 -0.118107 -0.010762428 -0.008311589 2.6181968e-07 0.09967988 0.072449386 0.011369516
2012 -0.038120672 -0.09226012 0.0726613 0.11280245 0.09493102 -0.064699836 0.09843469 -0.080522664 -0.05332815 -0.10061786 -0.026877716 0.09980944 -0.10394084 0.033520795 0.08793429 -0.077043675 -0.039465398 -0.034113277 -0.09219331 -0.1031863 -0.008038042 -0.09991054 0.049612366 0.05635567 0.096448235 -0.07732147 0.03383676 0.066255234 0.11975352 -0.07692503 -0.069937155 -0.09216119 0.07420466 0.058668446 0.087512545 0.10283056 0.054093365 0.00094126305 0.103540726 0.041878782 0.10081553 0.026961857 -0.041674234 0.049442515 -0.018166633 -0.03471337 -0.039189182 0.023361962 0.049293093 0.114987984 0.04699742 -0.028128522 0.018227166 -0.052742522 0.08002337 -0.048192732 -0.10425551 0.068646826 0.07634517 0.03619322 0.07419074 0.06341792 0.02095758 -0.002619539 -0.047462486 0.048644084 -0.04369824 -0.11141505 -0.081619844 -0.11668197 0.018428076 0.041446563 0.026990164 -0.049092077 0.059740134 0.10852305 0.05178974 0.05635131 -0.0547981 0.00012056767 0.07035325 -0.056938257 0.012944891 -0.010499178 -0.04085619 -0.00391256 0.049184505 0.060769934 -0.08598296 0.04118423 0.008021153 -0.11873482 -0.032912284 -0.11567685 -0.08008591 0.018639416 0.10092801 0.08191229 -0.06620588 -0.09821305 -0.09945081 -0.042509172 -0.03849885 0.11781423 0.007302336 -0.091647595 -0.108648494 0.07485872 0.0458859 -0.117728725 0.08917695 -0.004552113 0.015522065 -0.060268663 -0.09513515 -0.007716985 -0.040197533 0.08319562 0.016815262 -0.11233913 0.06412359 -0.010445069 -0.044349894 -0.0896835 0.025467606 -0.07784971 0.10056138 -0.026079167 -0.033942472 -0.06467757 0.050704286 -0.095764354 0.054134883 0.11443775 0.046063263 -0.009382605 0.04465684 0.116333716 -0.11610331 0.06644595 -0.024807986 0.09522209 0.054854948 -0.080819376 0.069325574 -0.028911475 0.05364221 0.08657432 -0.10244809 -0.020477306 -0.075559966 0.10943911 0.028925981 -0.076652326 0.085532 0.115398526 0.11928032 -0.081140585 0.01705902 -0.028474227 0.016416637 -0.024371212 0.028277699 -0.043284148 -0.018478235 0.021285724 -0.061378654 0.08911761 -0.10020906 0.06315543 0.008363704 0.093100116 -0.028245088 -0.0400295 0.01090419 -0.07601995 -0.07263434 -0.1193783 -0.08142023 -0.014479707 -0.06004011 0.1054123 0.09911832 -0.045646634 -0.06635906 -0.0034851974 -0.120403945 -0.114177994 -0.026529193 -0.069062606 0.075350806 0.11016404 0.019130185 0.10847769 -0.071174435 -0.10810711 -0.022342067 -0.028886797 0.04671312 0.06380105
بر -0.120951176 0.023956483 0.04635041 -0.029951992 -0.012656336 -0.0059685223 0.1129989 0.0026290915 -0.005097698 -0.08123961 -0.06250665 -0.008246196 0.011493547 0.0114771975 -0.07146454 0.040589415 -0.07103265 0.05496945 0.037570793 -0.08122869 -0.009399937 0.07452094 0.09880082 -0.11403722 -0.090305805 0.120286666 0.016916243 -0.10918708 -0.06530564 -0.10915479 0.06307821 -0.02029834 0.026681343 -0.04991751 0.088736326 0.0861759 -0.06580947 -0.00042257266 0.06475028 0.08728869 0.08369619 -0.01672788 0.075445466 -0.0681632 -0.101177625 -0.10207904 -0.013045965 -0.031456098 -0.11084434 0.07972767 0.074133806 -0.0007761879 -0.08203096 0.10066426 0.06551016 -0.048180755 0.086460784 -0.0935586 -0.10894165 0.051570944 0.029796716 0.008937422 -0.04117077 -0.05567685 0.006031756 0.107676454 0.0903067 -0.029512394 -0.024330202 -0.08966274 -0.06962648 0.055230416 0.052342657 0.000119357734 -0.096120276 0.03622966 0.084000416 -0.042734247 -0.049238592 0.06715311 -0.026836373 -0.0831862 -0.093442954 -0.114877984 0.015501288 0.033810917 -0.059166007 0.05719239 -0.054758273 0.10525018 -0.037630312 -0.1150757 0.045386367 0.027438326 -0.08806536 0.11500763 -0.026292209 0.05176663 -0.073375255 -0.1147946 -0.061364036 -0.083716884 -0.09721152 0.11257514 0.07238083 0.049259532 -0.024700023 -0.101044044 0.11191742 0.11066829 0.055134345 0.11867063 0.1062656 -0.05448118 0.019937113 -0.10400054 0.013204564 -0.004740446 0.10968278 0.08632462 -0.06373582 -0.011861666 0.013874333 -0.012020975 -0.07709645 0.02719188 0.073953494 -0.005951651 0.07544833 -0.11244607 0.09952801 -0.053879503 0.04392041 0.009214458 -0.08945296 0.0071113803 -0.108377986 0.06254615 0.093641125 -0.04291833 0.09727259 -0.083913006 -0.032050367 -0.013110698 -0.061774243 -0.0047653643 0.074753374 0.031536445 0.077052705 0.07388151 0.003717916 0.06213311 0.06740151 0.02023755 0.104275286 -0.03507518 -0.061293073 0.10942512 0.08904812 0.020962019 0.035699777 0.064601906 -0.04880352 0.056730386 0.033314247 -0.09414945 0.03233441 0.026616978 0.029438686 -0.023269419 -0.07703294 -0.06049245 0.013256161 -0.09549415 0.053518444 0.121965855 0.06994191 -0.08545816 -0.08407846 -0.076712996 0.03866851 0.004860868 -0.05474735 0.12166904 -0.047969226 -0.07581444 0.022508316 0.0685862 -0.027551278 -0.10759654 0.11461777 0.035412304 -0.12054484 -0.09209128 -0.116743736 0.08721323 -0.08229023 -0.075963 0.07048748 0.01891719
مطمئنا -0.01602499 0.08325541 0.04124021 -0.046480138 0.025554745 -0.046376843 -0.05313428 0.0909295 -0.12595244 0.025968688 0.010644437 -0.06666657 -0.056377377 -0.1097159 0.06534581 -0.10212124 0.024898946 0.033048432 0.059762344 -0.073162824 -0.07360661 -0.09542625 0.07016881 0.034102015 0.0729852 0.045898676 -0.11164507 0.08265031 0.07384445 0.04775662 0.03845947 0.044245046 0.074387364 0.007182169 -0.05766043 0.020199236 -0.012375516 0.059352074 -0.094650336 -0.078309625 0.09343279 -0.05346094 0.028908757 0.039550874 -0.11724696 0.030084668 -0.1008341 -0.12045525 0.0036142305 0.027459946 0.041963354 -0.018125948 -0.075944774 -0.08206323 0.01620434 -0.095929585 -0.11186679 0.089238696 -0.03444612 -0.002041643 -0.09950422 -0.12694211 -0.041736636 -0.06394322 0.12650074 0.03857698 0.06555068 -0.05085835 0.101353206 0.08273471 -0.04803363 -0.0058686584 0.10756177 -0.06613338 0.10235098 -0.006227645 -0.07956502 -0.047843777 -0.00073321525 0.024009997 -0.06887841 0.0045718886 -0.022372857 0.10461659 -0.07383802 -0.059834953 0.040224947 0.09358853 -0.04031773 -0.12496476 0.07019374 -0.08501079 -0.01993849 0.10447328 0.12612708 -0.09686647 -0.03944108 0.06294251 0.081333295 -0.007538762 0.00038435188 0.07450846 0.00067670795 -0.039720222 0.093311444 0.11675671 -0.09395591 -0.04722227 0.057078686 0.090988 -0.122861736 -0.093247734 0.0023306736 0.0023559462 -0.043601606 0.074081354 -0.106812984 -0.053274684 0.09339655 0.05266885 -0.05299477 0.10938265 -0.11392609 0.08022718 -0.03418092 -0.07042075 0.11461897 0.11230702 0.09652615 -0.101364784 0.12422237 -0.07744273 -0.0038423012 0.037753917 -0.032572683 -0.014794748 -0.07233506 -0.115328915 0.06721297 0.08139442 0.05626401 -0.06480138 -0.0022314845 -0.12232641 -0.06957631 -0.08515447 -0.013569092 0.057688165 0.03608117 0.004876924 -0.10547862 -0.04177921 0.045506436 -0.09393523 0.009061922 -0.0648475 -0.06589204 -0.041937806 -0.09792199 -0.0006400962 -0.05225638 0.017252438 -0.038814683 0.022565618 -0.035300653 -0.014897905 0.0388922 -0.08845258 -0.024661548 -0.014652484 0.0083108535 0.072282895 0.08673934 -0.023094429 -0.12334537 0.106320746 -0.081930876 0.01417536 -0.07105097 0.12204866 0.066711046 -0.061401453 -0.011893269 0.012757386 -0.055433817 0.0498158 -0.03913469 -0.12508409 -0.0013370267 -0.11744781 0.014757449 0.021229211 -0.104795836 -0.058638193 0.072586544 0.064532176 0.046372615 -0.079021424 -0.045348044 0.08337362
گفت -0.01851625 0.011934063 0.054459617 -0.09453092 -0.0005582355 -0.012745968 -0.06019963 -0.00843924 -0.08119179 -0.033727992 -0.120587155 -0.059084766 -0.049923405 0.04857082 0.021465052 -0.011933418 -0.07077436 -0.13238788 0.07153191 0.0979699 0.10965394 -0.025726743 0.108781315 0.084616855 0.072035305 0.098962486 -0.11287936 0.046102244 -0.06627184 0.13294287 0.026658855 0.047074523 0.08553588 -0.08537802 0.118057355 -0.04989599 -0.07206078 -0.09094851 -0.06578381 -0.04974917 -0.104007415 -0.052522473 -0.03976695 0.12773755 0.049344204 0.011846739 0.0035121057 -0.11888492 0.106949 0.12057632 -0.021790223 -0.10434808 0.06015963 -0.0016809144 0.039186984 0.058442935 -0.01071764 0.059626747 -0.016134582 0.0448751 0.014165614 0.07426888 -0.06027238 -0.053854622 0.13543114 -0.024288971 0.08352591 -0.008006419 0.0010634183 0.0046804016 0.06980068 -0.09215701 0.042656317 -0.07777466 0.06373489 -0.07340418 0.031825285 0.035705693 0.045245606 0.05740583 0.079605594 -0.092714965 -0.052949358 -0.13148941 -0.012822964 0.0893742 0.059344806 -0.06539394 0.078771666 0.09912027 0.04170092 0.0056400215 -0.0038653095 -0.011600377 -0.016823977 -0.07413156 0.10283356 -0.11506775 0.10899857 0.07729116 -0.08247615 0.029167563 -0.08390384 -0.0028584418 -0.051728223 0.098066054 0.035262972 0.049048133 0.10524166 0.019943016 0.0026236158 0.11577573 0.07855354 -0.0011383315 -0.044759843 -0.062244553 -0.015204804 0.10169092 0.10266496 0.08536082 -0.03270274 -0.07031307 0.008551347 0.06490974 -0.049803186 0.093343735 -0.029294427 0.057346273 0.10696164 0.058676858 0.040637136 -0.06414056 0.08123379 0.014641325 0.09495054 -0.087508984 -0.111830905 0.012353098 -0.0076697175 0.025381 0.09363593 -0.034738947 0.03745579 -0.046571612 -0.034898795 0.106525384 0.06712196 -0.05359451 -0.07265082 -0.019560995 0.028219398 -0.086494625 -0.03465579 0.037117988 -0.093201116 -0.11485082 0.090977095 0.048273124 0.0035405462 0.058442917 0.0072324635 0.1222842 0.10498038 -0.07253951 0.11547524 0.006720553 0.09842044 -0.060589984 0.11203553 0.03449177 0.024330605 0.05787532 0.062120534 -0.12365561 0.10973623 -0.0019239685 -0.028306652 0.12222979 0.046930544 0.027564147 -0.103427105 0.028349997 0.022197466 -0.030812692 0.12318987 0.057775356 0.083713345 0.07862318 0.052357532 0.0643444 0.10119857 -0.0022341334 -0.020830005 -0.04682053 -0.07649837 0.010482597 -0.09219851 0.049501635 -0.10546156 -0.037455548
تیم -0.029001478 -0.103741966 0.05313427 0.076754354 -0.087560974 -0.019490639 -0.092374675 -0.05921114 0.10795709 -0.00014705195 -0.11057403 -0.004387519 0.03766393 -0.02537579 0.110573426 -0.04283425 -0.09685611 0.081327654 0.022768704 -0.10590438 0.09309162 -0.011426985 -0.058787774 -0.060600176 -0.04323809 0.020343816 0.0034007044 0.07610719 0.04156919 0.04574516 -0.08544536 -0.10361066 -0.10239336 0.1015299 0.04453347 0.04943811 -0.03134274 0.110111415 0.057678122 -0.07333774 0.015984342 -0.06750119 -0.046212185 -0.08726039 0.06534356 -0.018126123 -0.023589257 0.024555583 0.08849401 -0.024431774 -0.053507075 0.026857086 -0.08984634 0.024267433 -0.006282891 -0.056326397 -0.024592858 -0.015924493 0.047240924 -0.03543307 -0.051032506 0.07352894 -0.031744905 0.094723694 0.029382532 -0.10713685 -0.041733436 0.08499577 0.07186611 0.05782152 -0.09063827 -0.08691606 -0.03515986 -0.0649547 -0.08743065 0.09820912 -0.07681538 0.06951755 -0.0057036346 0.008671287 0.09072674 -0.007971783 -0.0011926666 -0.09360011 0.0030863713 0.045457173 -0.00390114 -0.10656435 0.06864261 0.010715253 0.10897776 -0.0571855 0.116363175 -0.0652931 0.11296767 -0.10931638 0.010082696 -0.114485964 0.11530086 0.09186924 -0.041342955 0.07332411 -0.05037071 0.08911662 -0.043644506 0.09174898 0.0480536 0.055267327 -0.09304445 0.11399095 0.11356498 -0.018422246 -0.024976164 -0.08176444 -0.06385131 0.04917434 -0.06451837 -0.09505041 -0.10499127 -0.09735408 0.07532646 -0.104638115 -0.07352234 -0.027323725 -0.1100613 -0.005320665 -0.06715858 -0.010280507 0.025294786 0.074707866 -0.044715628 0.08163798 -0.012937323 0.03310999 -0.008525893 0.10423369 -0.06597771 -0.020765787 0.05681312 -0.08949422 -0.10737234 -0.10431655 -0.00012667578 0.10676267 0.07251142 0.1162068 -0.07520729 0.10118902 -0.080118366 -0.051475897 0.072611004 -0.11136909 -0.03645673 -0.057514004 -0.10039318 0.060707353 -0.09671926 0.041994393 0.022351006 0.06927202 0.0067709107 -0.09937692 -0.101109065 0.03450254 0.08814327 -0.014530007 0.011952772 -0.053286664 -0.05089001 0.0029709318 0.032737937 -0.10842532 -0.029387893 -0.010907745 -0.09070567 0.049523283 -0.053772453 -0.10345361 0.0674168 -0.10400223 0.10845986 -0.029315514 -0.09343152 0.09478826 -0.10987903 0.08909659 -0.02050162 -0.029674377 0.04759665 -0.05795586 0.076621614 0.1081636 -0.08453887 0.08794393 -0.06143669 -0.011145095 0.04952056 -0.104198575 -0.033349153 0.02438504
باقیمانده -0.06911971 -0.102572165 -0.07266502 -0.013188865 0.031010589 0.09734085 0.0038400465 0.094008185 0.090079874 -0.063662075 0.11190705 -0.09593764 -0.080112316 0.07352385 -0.018818067 0.041523986 0.033574663 0.11485183 0.1140234 -0.08292014 0.04681968 -0.0045428765 -0.011703154 -0.025027776 -0.008684795 0.07829842 0.046624556 -0.11058075 0.0013628304 -0.0885385 0.10645191 0.006933527 0.044715166 0.037270047 -0.08904356 0.04289432 0.09476798 0.10466413 0.04142232 -0.11063395 0.10753761 0.048169445 -0.028770607 -0.06428204 0.0010159482 -0.017675903 0.07259895 0.013563667 0.046360593 0.13009149 0.12620047 0.06563663 0.01294605 0.049367093 -0.030078625 -0.034626532 -0.020478172 0.05484846 -0.11385716 0.008374906 -0.034932192 -0.05519438 -0.050173968 -0.051549643 -0.07367507 -0.041424356 0.04856563 0.02391857 -0.020160154 -0.122733116 0.013602323 0.06460752 0.12406989 -0.02098586 0.0911041 -0.08736379 -0.08670077 -0.009267636 -0.054539543 -0.09658826 -0.108162835 -0.10508821 0.060444612 0.01819015 0.051795594 -0.113450035 -0.09201097 -0.09567118 -0.093541525 -0.033880733 -0.08628351 -0.077675305 0.04495247 -0.11549057 0.1176292 -0.027148912 0.03216816 -0.044614784 -0.014715989 0.02633756 0.03485679 0.0017923494 -0.101301245 0.015018677 -0.09109257 0.011168643 -0.103721276 -0.08593773 -0.07184713 -0.023210896 0.13090959 -0.07450341 -0.0050903014 -0.07296916 0.08659567 0.0865972 0.07084421 -0.09726255 0.07743037 0.022139985 -0.094753645 0.09914856 0.022068508 0.07766232 -0.039884284 -0.11210218 -0.08942177 0.038871363 0.08526285 0.07679242 0.03173009 -0.06039938 0.03676988 0.0029755216 0.00374952 -0.030963521 -0.030212188 0.10906222 0.07605517 0.102698885 -0.0023913337 -0.052716378 -0.06040714 -0.06465824 0.0946109 -0.03283898 0.07915254 0.03818524 0.052855328 -0.10009954 -0.12499633 -0.07234701 -0.07175454 0.015997339 0.09897066 0.064791076 -0.08625285 0.040212903 -0.024859942 0.0028487744 -0.11269143 -0.003976703 0.0045040087 0.012319824 0.11209339 0.028286519 -0.0050843917 0.006202283 -0.09490442 0.124127716 -0.07816951 -0.10996311 -0.12199888 -0.083113395 0.026509216 -0.010835585 -0.012212047 -0.0049826386 0.025050675 0.11018277 0.06855947 0.053684115 0.013437532 -0.06999341 0.04232791 -0.07296141 -0.047358215 -0.111556575 0.0119003095 0.07303614 -0.045629274 -0.06644817 0.038442243 -0.028439466 -0.10202489 -0.100150615 0.067498475 0.0247353 0.08187827 0.109355636
نیز 0.09912225 0.018828087 -0.08319701 0.08346143 -0.073225036 -0.018070104 0.10093659 -0.083045855 0.060635667 0.10715718 0.0804394 0.02401309 -0.036645185 -0.06932713 -0.014439035 0.052352116 -0.057541806 -0.09620607 0.08932116 0.0043953187 0.06539594 0.04387903 -0.10090165 0.025036262 0.025902692 0.041506603 -0.11216567 -0.044182274 0.010790361 0.04681355 0.097478285 0.11298794 0.10718428 0.077717766 0.052832026 0.11304732 -0.0161498 -0.042924557 -0.01609219 -0.1115566 -0.10765313 0.08635433 0.10637097 0.06875376 -0.101735994 -0.0941799 0.10016351 0.1082807 0.087327816 -0.03947153 -0.094329156 -0.045993812 0.083230145 -0.027238244 0.108673014 -0.093687795 -0.053866602 0.079206534 0.096835926 -0.08767125 -0.0090378 -0.0108853355 0.02213724 -0.10263966 0.124892265 -0.11801237 0.033598717 -0.09786839 0.029041762 -0.083637044 0.0030704343 -0.01431507 -0.053052276 0.044634793 -0.009097636 -0.026821867 0.10312724 0.017959908 -0.1079837 0.006884937 0.08445136 0.037056565 -0.08674008 -0.07330708 -0.10101431 -0.08167916 -0.083746955 0.010030737 0.07916612 0.038580686 -0.0029401563 0.058891784 0.003857575 -0.088011995 0.08462834 -0.08306424 -0.033592083 -0.06744982 -0.026402118 0.08525833 0.0465862 -0.06408351 0.08771919 -0.1140044 -0.026532477 0.11415959 0.09134246 0.04673336 -0.018759778 0.005483865 0.006035858 0.08343691 -0.095708616 0.046503976 0.07989615 -0.07469082 -0.0794681 0.09491658 -0.03034561 0.095647864 -0.027518345 0.034636926 0.0647461 0.060706977 -0.061759472 -0.045795057 -0.028978195 -0.02827614 0.122564964 -0.0033540577 0.11943182 -0.0210714 -0.07935436 -0.09183007 -0.06500607 0.03565841 -0.10270428 -0.042209964 -0.09499725 -0.11345916 -0.02007193 0.028391385 -0.022828275 -0.05827963 0.063407205 0.021131048 -0.0653026 0.06143442 -0.05821769 0.05259415 -0.076160416 -0.117881775 0.10509557 -0.06392609 0.09701383 0.056471568 -0.06178188 -0.03614641 0.086856455 -0.04097889 0.043480393 0.012334772 0.10665423 -0.11228147 -0.047127172 0.075218916 0.030931734 -0.0038718747 0.057715286 0.012613741 -0.09078313 -0.030957071 -0.10622548 -0.09741631 -0.049113028 -0.061454624 0.048201077 -0.010659721 0.024353996 -0.058892462 0.02944809 0.07860771 -0.10286767 0.07407316 0.01506152 0.11568449 0.118907094 0.01356781 -0.0010247882 -0.06731752 0.025250016 -0.067254364 -0.039518274 0.06866012 0.07181963 0.04549614 -0.041021395 0.08172932 0.07093372 0.033684198
داشت -0.07696106 -0.11081001 0.08418636 0.08840963 -0.103329286 -0.115240455 0.036594924 0.10396031 -0.02953942 0.042850025 0.08812293 -0.06396665 -0.08629285 0.060493086 -0.041351296 -0.093537785 -0.071921624 0.08281161 -0.05684491 -0.028377715 0.11168026 0.056934845 -0.06233498 -0.10205491 -0.074364245 0.07477868 -0.019031152 -0.0352672 0.0122493915 0.03696122 -0.11381254 -0.11292898 0.06689663 -0.03090496 -0.092196815 0.07582819 0.09560151 -0.04768824 0.0053068995 -0.014962505 0.046513077 -0.018238962 0.03593422 0.054545477 -0.011633582 0.11845321 -0.07129641 -0.04905989 -0.015074861 -0.0015457296 0.01601136 -0.110461846 -0.012514295 -0.030578084 0.057430457 0.014674832 -0.07747629 -0.03179072 -0.017073276 0.040836025 0.0824773 -0.092164956 -0.08528308 -0.12319062 0.009986136 -0.044148214 0.11540048 0.030844452 -0.04488074 -0.035640985 -0.016055588 0.032940045 0.107539274 0.023332112 -0.056824803 0.06276661 0.088298514 0.03767952 0.01747126 0.02620591 -0.07771018 0.04621988 -0.014993624 -0.07443257 0.0996524 0.06551601 0.050361894 0.09352041 -0.015342695 -0.11768922 -0.032087494 0.10722288 -0.019299295 -0.09385862 -0.08562779 0.029291822 -0.09865837 0.08783083 0.024558475 0.09531064 -0.00010675512 0.07253299 -0.041823167 0.034224484 0.09248687 -0.004500872 0.05648784 0.03360347 0.03785421 -0.051347475 0.086702876 -0.04919647 0.03385446 -0.06251157 -0.014805636 -0.07037213 -0.056136638 0.032978445 0.031217806 0.11241917 0.08276287 0.0027131222 0.02394266 0.08374105 0.027936123 0.048540164 0.11225349 0.005316564 -0.029870057 0.0085474895 -0.0902926 -0.07965753 -0.06431624 0.109664954 -0.06378294 -0.006096487 0.09784523 0.10927691 -0.07415705 0.04490523 0.09860874 0.0057042623 -0.07223798 -0.092779875 -0.07289656 -0.007904433 0.011509426 -0.100723855 0.09499857 -0.12460051 0.012691326 0.12087488 0.074904144 -0.05397317 0.10986049 -0.12537889 -0.11628713 -0.052889545 -0.058494624 0.12185407 0.11844209 -0.101130284 0.09250799 -0.08588513 0.03373115 -0.0697332 0.072535 -0.066683084 0.0016976825 -0.005438625 -0.032404024 0.056018766 -0.11277811 0.031886112 0.11026663 0.09706332 0.054026946 0.11355721 0.050350033 -0.101894215 -0.07892709 0.11023134 0.06445501 0.10578965 -0.05428533 -0.04268916 0.0057066474 -0.07195457 0.060519256 0.044966497 0.08279012 -0.11009776 0.016151514 -0.038598612 0.086744085 0.07366502 -0.06601009 0.004440846 -0.061756972 0.028923865
باشد 0.03181406 0.07839498 0.06320624 -0.08785989 -0.08701649 0.026630268 0.12119444 -0.07648652 -0.012012305 -0.048967075 0.032485146 0.06891014 -0.016643627 -0.0914255 0.1054457 -0.024457166 0.09100769 0.09508284 -0.0059644417 -0.11366318 0.12679024 0.014602696 -0.008240752 -0.06493831 0.10057414 0.068011716 -0.014398568 -0.06805861 -0.016692806 -0.0007991287 -0.07182656 0.117154226 0.055914044 0.10657004 0.03681662 0.07623723 -0.06793454 0.013705852 0.110732295 -0.122525856 -0.04275346 0.026116487 0.06775262 0.058712 -0.029722476 -0.10005671 -0.008326088 0.08781346 0.073214985 -0.121102616 0.124630906 -0.00931246 0.013902296 0.032867525 -0.11127148 0.041296676 0.11391678 0.12516002 -0.057579536 -0.07471034 0.024600461 -0.024752427 0.003985091 -0.051798474 0.054925766 -0.049476467 0.029489104 -0.06950214 0.041240916 0.11194956 -0.07399098 0.028349625 -0.10382686 0.11374853 0.060833894 0.124151334 -0.04021706 0.06649537 0.039454766 0.01811553 -0.07922837 0.08213725 0.09806704 -0.094665065 0.096338816 0.0012889659 0.101561055 -0.067492165 0.020585587 -0.07875625 -0.056034304 0.06184196 -0.109847456 -0.010927119 0.09359761 0.0860283 0.03500342 -0.051345106 0.053838413 -0.07492973 -0.015446247 -0.025444385 0.014714753 0.0653636 -0.030217277 -0.064537615 -0.098025195 0.06744501 -0.099213235 -6.1835366e-05 0.00472349 0.024566973 -0.06386776 -0.03578953 0.027667437 -0.040267978 0.012741492 -0.061584223 -0.11413568 -0.06893177 0.024352605 0.113775395 0.040204357 -0.048068147 0.031253036 -0.09299234 -0.10893174 -0.074581474 -0.0028227835 0.12008147 0.12911336 -0.091036685 0.108183905 -0.078777045 -0.0070146234 -0.07792452 0.05899105 0.018957786 -0.03456562 0.08953133 -0.1059822 -0.031685703 -0.088183194 -0.08070789 -0.0809216 -0.030365542 -0.061947767 -0.0070446297 -0.050351825 -0.12849541 0.07104017 -0.053005904 -0.06527657 0.08045927 0.0027709429 0.00028224793 -0.060794372 0.04472452 0.05052225 0.034641914 -0.04348892 0.10728714 -0.103333004 0.058642853 -0.06090392 0.0386475 0.016771175 0.11697151 -0.08561356 0.05520076 0.027866034 -0.02720363 -0.050569404 0.03436307 0.045075405 0.068853326 0.0035191027 -8.314403e-05 0.08318994 -0.100238256 -0.09106308 -0.119886324 -0.10509667 -0.06829073 0.0802256 0.05806393 -0.074004255 -0.12742014 0.09442485 0.11148387 0.026629807 -0.063166715 0.016944665 0.011090538 -0.003995886 -0.05575845 -0.04473722 -0.012088602 0.0818852 0.03438154
حاشیه 0.076614186 -0.11724964 0.05729805 0.08791362 0.07694922 -0.04005333 -0.022786377 -0.004252589 0.07161617 0.022449063 -0.11037287 0.025981264 0.03515298 -0.1008259 0.0484975 -0.0149297705 0.06829578 -0.1091812 -0.080299355 -0.08042401 -0.08689093 0.119010635 0.06859237 -0.07257742 -0.042461306 -0.016809545 0.08851031 0.10214361 0.015224029 0.041295886 0.096105576 0.049068503 0.104672804 0.054322712 0.09668944 -0.010273161 -0.05772507 -0.004971005 -0.09623298 0.002483925 -0.045442406 0.011326605 -0.08126073 0.05477148 0.041720197 0.094379365 0.03364301 0.073762685 -0.014337249 0.070960246 -0.045645192 0.057909958 0.046371154 -0.11117695 -0.09613111 0.036886908 -0.08735657 -0.08590408 0.012787894 0.020729642 0.06410628 0.024993131 0.06827522 -0.028346293 -0.06527831 -0.085692495 0.091050684 0.10614501 -0.09677032 0.0056769317 0.07594478 0.03239955 0.06071104 -0.09869291 0.009014958 0.11293444 -0.0892868 -0.052486207 -0.020106388 -0.0954875 -0.05596266 0.00890535 -0.06528348 -0.12171383 -0.07303036 0.09835602 0.101741806 0.016417818 0.07281669 -0.09304435 -0.0909165 -0.09747675 0.115013085 -0.0918729 -0.039898895 0.017650913 0.08108295 0.022060905 -0.07559474 0.079526916 -0.09785876 0.08840358 -0.113619946 0.00842431 -0.076814264 -0.040539484 -0.020158594 -0.0937958 0.0065668696 -0.092742525 0.00805674 -0.109868675 -0.032261025 -0.099153504 0.08241952 0.087993756 0.114275046 -0.020314174 -0.029238222 0.030915082 0.046843052 0.01725565 -0.0643097 -0.005886078 0.0025851198 0.004043396 -0.021959238 0.04084976 0.11526357 -0.0010885498 -0.036451563 -0.11402695 -0.04152558 0.10848429 -0.03240043 0.032583628 -0.07287144 0.059943974 -0.08893106 -0.078567795 -0.013630302 -0.059133273 0.09013744 -0.051644746 -0.038062837 0.094529755 -0.002319558 -0.04189382 0.006786097 0.019884275 -0.07826379 -0.020861937 0.1052014 0.0075307162 -0.027345536 -0.07953636 -0.07938609 -0.10774883 -0.091059946 -0.06825522 0.11147598 0.10081777 -0.027945144 0.018641679 0.07232102 0.006256994 -0.022512475 -0.06896475 -0.015093536 0.0045745787 0.023328504 0.08739931 0.04801324 0.059616555 0.06164065 -0.06588676 0.038072888 0.0032821295 -0.028717004 -0.052815717 -0.09731805 0.02578189 -0.1113032 0.09326548 -0.09689104 -0.042558886 -0.105537154 -0.06572796 0.09154302 0.10488103 0.10061789 -0.017322589 -0.10889483 -0.1211315 0.10925505 0.11164506 0.0932705 -0.08923342 -0.034172576 0.080017544
را -0.08990468 0.05856257 -0.08819289 -0.09804806 -0.011025693 -0.10416991 0.0813919 0.089773245 0.06623449 0.06788078 0.107781544 0.035565536 0.118717104 0.11390051 0.019815486 -0.079988606 -0.11906705 -0.060123168 -0.11602104 0.10820217 0.021477234 -0.08226611 -0.07884756 0.08792198 0.05482916 -0.034358975 -0.08196871 0.056929197 -0.0062096235 0.009323456 0.045079127 0.1080851 -0.103888586 0.11547466 0.025333434 -0.092144415 -0.10758092 -0.11898344 -0.096177764 0.086006306 0.015779799 -0.05570234 -0.034310322 -0.06469427 -0.03790775 0.013822991 0.11403477 -0.008184391 0.045172762 -0.0009671604 0.07899959 0.034479827 0.07668016 -0.052909914 -0.098461375 -0.0012329314 -0.00011003443 0.08970666 -0.08837001 -0.09058213 0.07886231 -0.078907624 -0.07957174 0.113394976 -0.010749676 0.05887781 0.006528688 0.1137331 -0.043702498 -0.026500085 -0.06410879 0.048914358 -0.020329656 0.08853823 -0.07751254 -0.07931627 0.055831473 0.061449166 -0.10607883 -0.038671892 -0.078877255 0.01653923 0.12048445 -0.109981164 0.085907996 0.07670804 0.08141897 0.0671649 0.026479345 -0.047449246 -0.11252368 -0.06843764 -0.052339703 -0.0789135 0.11277444 -0.02491449 0.03958696 -0.055869687 0.026036771 0.03130127 -0.06948224 0.07876882 0.080725126 0.039658014 -0.10731124 -0.049219746 -0.0946935 -0.094870634 0.034786943 -0.032614313 -0.018486315 -0.05795589 0.049421255 0.006705447 -0.050122384 0.053707242 -0.0610677 0.088114716 -0.0603324 -0.07363301 0.06547076 -0.018795848 0.07879517 -0.050918587 0.11598458 0.10471645 0.04267428 -0.06604407 -0.06532415 0.019751709 -0.09771634 0.09215052 0.07581334 -0.043798625 -0.017105386 0.078899965 0.028095385 -0.026755374 0.09788113 -0.1030567 0.08920522 0.041495066 -0.038517248 0.022952434 0.03938987 -0.056326907 0.01666506 0.042758875 -0.011819623 0.060947243 0.005477299 -0.060174037 -0.050829563 -0.11774833 0.10093081 0.05367332 -0.044619903 0.008404968 0.088069275 0.09228971 0.0654342 0.0060481653 0.11097788 0.044206027 0.118348524 0.05266369 -0.030433116 0.045568366 -0.008203662 -0.027218688 -0.08693804 -0.0421134 -0.025806278 -0.0121649 -0.05326642 -0.061868947 -0.022284769 -0.0724349 -0.1134853 0.01432219 -0.01643575 -0.101674855 -0.046608917 0.116237596 0.08596252 0.09274852 -0.08025906 0.0002793644 -0.082648315 0.006372683 0.01928773 0.09360397 0.06366166 -0.025902215 0.08290147 0.08426438 -0.043251727 0.017224398 0.09074043 -0.1098375
كرد 0.0051258937 -0.11873548 0.020046093 0.023794025 0.12108962 0.048924018 -0.096216 -0.048866317 -0.05868649 0.08730679 -0.0027027414 -0.054752007 -9.47172e-05 0.018018398 0.08097674 0.021155402 0.010734396 -0.069136575 0.100910045 -0.064975455 -0.041483354 0.01415916 -0.019722508 0.012978494 0.041011047 -0.08711534 0.08262133 0.016412735 -0.017755242 0.0849905 -0.048409976 -0.10317965 0.0051606866 0.102391794 0.06324932 0.10911909 -0.024933293 0.089208245 -0.034388453 -0.06591429 0.038551573 -0.017042479 -0.10694173 0.06808393 -0.11007867 -0.026200667 0.037642006 0.09024615 -0.024226274 -0.025838222 -0.013341369 0.01902217 -0.11314967 -0.061463118 -0.055917166 -0.06871079 0.035312407 -0.04819845 -0.027779339 -0.033749618 0.105951786 0.03430262 -0.11355272 -0.00930606 -0.05795947 -0.051869586 -0.09670316 -0.11621677 -0.04409243 -0.08112761 0.038013976 0.12592417 -0.10821544 -0.09895616 0.025530932 0.10279797 0.017407773 -0.046250135 -0.03370753 -0.06321032 0.007574066 -0.04546147 -0.0349699 -0.042815402 -0.095313475 -0.07942946 -0.055613324 0.07092024 0.012214803 -0.028262679 0.014188787 0.05998885 -0.06494998 0.04390623 0.01638126 0.030707588 -0.045370784 -0.0038876324 0.044722363 -0.05661615 0.025128352 0.112015754 -0.11969802 -0.11192691 -0.04101206 -0.09124936 -0.08210284 -0.11784272 -0.020429451 -0.024242938 0.03800805 -0.11984334 0.028613519 0.10128195 0.05867207 0.0832261 -0.08132704 0.030176854 0.10090585 0.07485172 0.124423444 0.04841408 0.08338885 0.081537575 -0.09746192 -0.07622507 0.035976626 -0.071948275 -0.017750917 -0.015645701 -0.12448558 -0.07562493 -0.018281644 -0.115311556 -0.030936515 0.084598914 0.008467307 -0.027995879 0.02242501 0.1254912 -0.015150995 0.07109514 0.02112603 -0.10278001 0.029259384 0.01897553 0.05380333 -0.119244434 0.1125626 0.04617037 0.05713864 -0.082253456 -0.06891547 -0.05755338 0.09076406 -0.06556611 -0.11868391 -0.016598077 -0.08411381 -0.024052044 0.10596215 -0.08060257 -0.101376794 -0.07632466 -0.11782321 -0.067486286 0.040433858 -0.01737169 0.093696184 -0.03773689 -0.08549334 0.050604075 -0.03080663 0.039685015 -0.040570773 0.07451242 -0.086411186 -0.028499 0.074613295 0.103080675 0.039238088 -0.120894 -0.10023946 -0.10927463 -0.03973089 0.047896072 -0.0061768414 0.050816666 -0.065353476 -0.092021815 -0.11968396 -0.08671514 0.054193005 -0.105777696 0.004085496 0.09362615 -0.0983395 -0.01991196 0.10941039 0.120070934
لندن 0.047469206 -0.095397666 0.051329304 -0.11665095 0.059861634 -0.019800752 -0.08641133 -0.122756526 -0.12571657 -0.05053518 0.10554738 0.013103984 -0.039464876 -0.09195649 -0.035211194 -0.096415184 -0.0677471 -0.08316994 -0.09731688 0.042862963 -0.02593113 0.009463483 -0.036310434 -0.08233838 0.11293546 -0.0003896254 -0.038435187 0.018654644 0.07731248 -0.0072962954 0.08049508 0.05909037 0.102971084 -0.028952291 0.086641975 -0.045815013 0.08562636 -0.1220918 -0.10424437 -0.098743215 -0.028407684 0.024713242 0.10915879 -0.027014755 0.062069125 -0.0037915495 -0.020015612 -0.09741541 0.1214126 0.122357585 -0.0041439743 -0.0678236 -0.03224334 0.060259677 0.10103194 -0.0294097 -0.021034777 0.032109424 -0.08452035 0.05455559 0.023293123 -0.076545365 0.069648616 0.03793456 0.063795164 -0.0790349 0.12004044 -0.06552734 0.006765469 -0.022192234 0.03069595 -0.103946246 -0.05694984 0.064759426 0.121724404 -0.026557889 -0.013985288 0.11875655 0.00043425802 0.035869107 -0.028309999 0.00390165 0.008201651 -0.067542806 -0.10584724 0.09780382 -0.038882215 0.072610356 0.024118423 -0.1153554 -0.034423288 -0.013819835 0.08239922 -0.07760139 0.121409245 -0.10131953 0.024873981 0.09257192 -0.07194007 0.10351004 0.02017607 0.076755054 -0.0779666 -0.09632071 -0.013350214 -0.09989711 0.08467081 0.06792212 0.10214249 0.054184757 0.057719253 -0.061001025 -0.00873924 0.07296567 0.007842127 0.03911567 0.10128999 0.01927342 0.09660606 0.09283559 -0.05780931 -0.11535763 0.048307475 -0.028487703 -0.03157649 -0.12670141 -0.05815994 -0.094347425 0.049680874 -0.091090016 0.0481499 -0.061494347 -0.005186324 0.07005078 0.08284446 0.11757905 0.10550849 -0.04478442 0.10962819 0.11286032 0.0830724 0.04815871 -0.026354324 0.11710926 0.035343386 -0.057260703 0.05078542 -0.095978566 -0.04465165 -0.011299648 0.02818148 -0.066717215 -0.014569001 0.03519982 0.11755526 -0.094330564 0.04320411 0.06959597 0.0019039914 0.06532776 0.057624713 0.061278444 -0.056410834 -0.0064007095 -0.05247235 -0.12123769 0.010264195 0.050712697 0.07425204 0.04803063 -0.025628045 0.105096124 0.0336055 0.040886424 -0.106255874 -0.019742634 0.0572381 0.011180175 -0.034589883 0.0374002 0.032283302 0.057333376 -0.031177688 0.09546005 0.030112388 0.009664469 0.04921337 0.051318303 0.097572595 -0.03176829 -0.0805718 -0.119870625 -0.015078891 -0.11116054 0.03527645 -0.03933755 0.09565894 0.06072421 -0.006847304 -0.11921018
ترین 0.087585874 0.09316875 -0.0015980442 -0.086136594 0.023550004 -0.096438505 -0.079004064 -0.0086951265 -0.07966085 0.047031317 -0.12593931 0.034145594 -0.06828052 0.11440288 -0.10279678 0.084492005 0.11263031 -0.09249941 -0.053991787 0.010527008 -0.0028345864 0.10580954 -0.04845257 0.080540136 -0.042174842 -0.07921407 -0.07234903 -0.010894134 -0.061231412 -0.12452069 -0.07980284 -0.06934708 -0.120859414 0.0789622 0.045276586 -0.08671575 0.096814506 -0.0836499 -0.031175042 0.09448171 0.007682618 0.053235214 -0.100528084 0.038701918 -0.06438309 -0.024742201 -0.020071706 -0.045041576 0.04427189 0.042611685 -0.107364744 0.07047431 -0.07971835 0.11744552 -0.00471849 0.019598756 0.0075074607 0.06196967 -0.11509895 0.0039273216 -0.013298396 0.09922617 0.021925878 -0.060106896 -0.0027461555 -0.07174383 -0.042675894 0.03665076 0.05723288 -0.03317896 0.07222986 0.04684401 -0.055189345 -0.10593997 0.09090588 -0.04511146 -0.045393262 -0.11776955 0.09118181 -0.074068315 -0.040032107 -0.111473955 -0.061771955 -0.08160331 0.056594197 -0.11881463 -0.095328875 -0.043998852 0.016348235 -0.10734239 0.036321983 -0.029680155 0.024875801 0.08847309 0.09539637 -0.09992082 -0.072909266 -0.034311622 0.06175039 -0.015837552 -0.016899193 0.06956202 -0.08558911 0.0038369256 -0.0678954 -0.06324037 -0.06176866 0.020346504 0.07802225 -0.06624606 0.051747903 0.06943703 -0.033925883 0.028284492 0.10501793 0.024991032 0.121757634 0.05445945 -0.04765306 0.07971368 -0.11818238 0.11395231 0.053620033 0.023210779 -0.06982163 -0.03680381 -0.08487822 0.00042207117 -0.109869465 -0.019444272 -0.074875295 -0.110357046 -0.012429525 -0.052867044 -0.031069508 -0.08308199 -0.062245354 -0.1212874 -0.016887972 0.07663548 -0.06496174 -0.10418469 0.09592317 0.0023477653 -0.083856165 0.08871412 -0.06728105 -0.09254287 0.11275676 0.04337994 0.021689752 -0.03148239 -0.044428945 -0.08591605 -0.1230668 0.08476169 -0.010446659 -0.06030855 0.037281718 -0.0046283724 -0.08028955 0.09962385 0.037562113 -0.10013872 0.06852557 -0.0641888 -0.028726041 0.057516214 0.011111094 -0.025611315 0.037862044 -0.02401434 0.007601876 -0.026735825 0.051858436 0.11917721 -0.08575937 0.049682826 -0.07195355 -0.03991866 0.041749757 0.11376385 -0.06755962 -0.05644265 -0.017640766 0.098080315 0.016748842 -0.04647188 -0.010313316 -0.11799329 0.0022724352 -0.008557824 0.085190766 -0.08567984 -0.04114033 -0.117801234 -0.006850808 -0.11113574 -0.058085307 -0.10169064
پیشرفت 0.07905228 0.008865836 0.078014515 -0.054653134 0.09104429 0.0062506907 0.12146205 -0.026487527 0.108463876 -0.0005413687 0.031764995 0.05413313 0.102472894 0.02445994 -0.11930755 -0.111687236 0.11520022 0.083624534 -0.10014823 -0.089253224 -0.040479135 -0.117438406 -0.0530477 0.024497213 0.06031513 0.058777817 0.083004504 -0.055891268 0.015247565 -0.021535452 0.06626017 -0.052217565 0.053736597 -0.049360838 -0.013242322 0.103525326 -0.048603415 0.0063187564 0.051283963 0.083985984 -0.0012402447 -0.10729208 0.00023846126 0.02261291 0.11097987 0.08923058 0.06741413 0.08622262 -0.10055009 -0.053169712 0.061827548 -0.035408758 -0.01747099 -0.037262585 0.08297174 -0.06019272 -0.09896948 0.05292229 -0.114021294 0.11156259 0.11936237 0.032270618 -0.062141556 -0.06654359 0.05434562 0.040463194 -0.1016862 -0.05584047 0.06880731 0.0036985432 0.084335476 -0.0027622716 0.0022762849 -0.006796516 -0.111518174 -0.03463415 0.06717256 0.09229389 0.1042491 -0.11365815 0.0070055 -0.034282938 -0.07437542 -0.019510042 0.038150497 -0.017278219 -0.055569325 0.071909025 0.08242475 -0.027002059 -0.075321324 -0.12685116 0.05992124 -0.089153625 0.080883026 0.04561494 -0.056700297 -0.028885894 0.08713866 0.08113512 -0.092062555 -0.015215512 0.09017443 0.046099935 -0.09469045 0.06937587 0.045593753 0.093357995 -0.051303767 0.015056694 -0.07597171 0.041756522 0.07537699 -0.05482763 0.11642965 0.027603129 -0.11593422 -0.000714278 0.11017592 -0.07663426 -0.08568007 -0.104850225 -0.043610904 0.002706815 -0.00962589 0.09273112 -0.105835415 -0.097698346 -0.10421717 -0.070984334 -0.025279958 0.00717634 0.11962567 -0.117883235 0.048265632 0.030570716 -0.047803137 -0.020632427 0.10413288 -0.010332167 -0.08800474 0.11529503 0.0087857675 -0.09052745 -0.005195488 -0.02182832 0.10673241 0.0013711046 -0.05883944 -0.03511784 -0.02655487 -0.08368152 0.056178354 0.084112555 -0.10234505 0.08249196 -0.072222486 -0.100351475 0.09286281 0.09416544 -0.01990548 -0.0808651 -0.06794909 -0.0788887 0.07080539 0.04533559 0.065390565 -0.05412426 -0.10544973 0.018843997 -0.051009893 0.114932045 -0.044508774 -0.035126492 0.0024144256 -0.06846681 0.08307538 0.00416883 0.035604384 0.011442392 -0.027312702 0.070421204 -0.08126482 -0.07366455 0.00881575 0.044170287 -0.06838338 0.112459995 -0.010315439 0.014337213 0.12279334 0.01759006 0.05341411 -0.030672584 -0.05248827 -0.10471592 -0.089003034 -0.040980827 -0.014360131 -0.079191774
برخوردار -0.100984454 0.0428229 -0.02232847 -0.12506121 0.06754093 0.09019531 0.09465191 0.013057412 0.116105616 -0.10314583 -0.12108596 0.05860153 0.11255946 0.10189197 -0.032417975 -0.036256578 0.055612046 -0.03378559 0.07846371 0.02391533 0.05551611 0.0027831155 0.09216876 0.06467116 0.042987004 -0.08416947 0.049947236 0.00066513196 -0.0040470613 0.10336637 -0.008747966 0.0873261 -0.045798674 -0.008174176 0.02678805 -0.04993685 0.006174501 0.0968972 0.1073356 0.06909331 0.111631796 0.10398884 0.1285827 0.031156976 0.054588765 -0.10322306 -0.10062528 0.09464673 -0.11759405 -0.12164378 -0.06259826 0.04195205 0.09024167 0.031053903 -0.046252925 -0.024435153 0.016938485 0.09498156 -0.013452449 -0.037556827 -0.058200587 -0.05673068 0.09038884 -0.073578805 -0.004532004 0.10811995 -0.09113664 0.014977052 0.05741948 0.047793765 -0.008233742 0.03513318 -0.06861946 0.024051247 0.094135486 0.053925317 -0.0993114 -0.03561717 -0.014329592 0.049852394 0.03573526 -0.11749156 0.022102002 0.08287964 -0.048987474 -0.048781417 0.097045235 0.020258782 -0.075945325 0.113109596 0.047595263 -0.02966127 -0.07625037 0.12184363 -0.040127356 0.087816745 0.08407953 -0.016389398 -0.08831854 0.02688595 0.024909412 0.11962113 0.009604117 0.07271277 -0.06958417 0.018432222 0.039992444 0.02328242 -0.03553851 0.08697848 -0.013600326 0.03689736 0.013781117 -0.04729054 0.09717844 0.09534315 -0.04727785 -0.022125045 0.10348078 -0.004486624 0.04975142 0.09629434 -0.027302587 -0.002321148 -0.04628612 -0.105882525 0.08419342 0.06448348 -0.031993102 0.0034096928 -0.0122995535 0.02192318 -0.0019168803 0.0058930703 -0.12663971 0.035360202 -0.039328758 -0.035904218 0.035611566 -0.006696668 -0.070675865 0.0962723 -0.108448744 0.05361216 -0.06985483 0.054706942 0.10535647 -0.083732724 0.06494218 -0.13008143 0.01001814 0.08025275 0.06164798 0.055780113 0.13260253 -0.12020875 0.042684034 0.10066454 -0.023434073 0.10176544 -0.101419404 -0.12106394 0.026241982 0.087714545 0.050459497 -0.020417076 0.019718567 -0.11822121 0.1070419 -0.119610466 -0.07817538 -0.10329136 -6.699883e-05 0.025692444 0.04037338 -0.05193154 0.09008454 -0.097199075 -0.0039340574 -0.043551896 -0.028555747 -0.014537971 0.035732087 -0.04179527 -0.07730984 -0.07502835 0.029067142 0.053599626 0.043560013 0.044803824 -0.11740163 -0.049681768 0.09444834 0.02455633 0.101388596 -0.11924629 -0.011590181 0.01156779 0.03143487 -0.108987264
گیران -0.067373075 0.04271639 0.08979135 -0.015817622 0.04217074 0.112530425 -0.025045056 -0.021182057 -0.081472844 0.016160576 -0.1133488 0.07737429 0.05708994 0.03301457 -0.081398785 -0.017126605 0.04942361 -0.10728537 0.11379594 0.016390549 -0.1150452 0.009831918 0.041670725 -0.0004005347 -0.016774846 0.0041853013 -0.05039816 0.057172466 0.11427767 -0.0045751208 -0.03630381 0.025422027 -0.07727907 0.011384184 0.054011967 0.013852727 0.09411025 -0.007938991 -0.052382946 0.028722256 -0.07439217 -0.0026241224 -0.03842416 0.0332843 0.112026945 -0.10954197 -0.06368783 -0.048388783 -0.05013774 -0.019572752 -0.05102652 0.045042783 0.10405468 0.04746454 0.037450835 -0.05253247 -0.033168975 -0.06823546 0.012269748 0.06497782 -0.03929777 0.031597223 -0.12468313 -0.043673493 0.13079429 0.04225884 0.021350568 -0.08963277 -0.117005125 0.12650798 0.04370384 0.031618815 -0.014197495 -0.06357542 -0.10667852 0.03898482 0.062487308 0.030751206 -0.054073654 0.020603525 -0.052143976 -0.0033078804 -0.086625986 -0.010633756 -0.05409146 -0.040554456 0.0007609598 -0.12411489 -0.050585397 0.024011346 0.073325284 -0.040161528 0.057772435 0.024999224 -0.1124819 0.06457022 -0.009218283 0.087691315 -0.061223436 -0.08259674 -0.057588823 -0.032469373 -0.030938223 -0.061645724 -0.042778116 0.12407699 0.10934883 -0.017456982 -0.009839984 0.026681889 -0.023937011 0.12908356 -0.09381693 -0.03905787 0.06685844 -0.116305366 0.03234023 0.045775585 0.029338948 0.038654227 0.017382136 -0.051065475 0.03251558 0.05596664 0.114921294 -0.12171232 0.10616138 -0.016918918 -0.02330155 -0.08148423 0.064799495 -0.09858538 0.11929669 0.09488879 -0.09993609 0.09081504 0.119845696 -0.062318064 0.0471353 0.018813714 -0.08722144 0.07024153 -0.0815563 -0.08738356 0.050171327 -0.0862937 0.04479912 0.094549224 -0.05145359 0.06500138 -0.09825438 -0.06670665 0.045238003 0.045710646 -0.049117472 -0.1303101 -0.054716077 0.10069978 0.05328948 0.0017294144 -0.055600684 0.013385633 -0.0934345 0.07777871 0.061930988 0.12648165 0.11368627 -0.04633446 0.12445097 0.021801302 -0.020594528 0.09355725 -0.050883707 0.006470018 -0.056787893 0.092596695 0.110262506 0.083045 -0.0752749 0.055863515 -0.056997508 0.10781035 0.11309813 -0.07006045 0.09290402 -0.11096058 0.094544314 -0.10378767 0.069815524 0.008687772 0.12740448 -0.008120416 -0.07709491 -0.029250607 0.010145259 0.11544545 0.063676305 0.03594291 0.09840127 0.09983697
تا 0.033500854 0.0760244 -0.059316717 -0.06384356 0.044084992 -0.10570501 -0.08174988 0.047958214 -0.07983771 -0.038434546 0.07884064 -0.025827158 0.035130486 -0.109317824 -0.06614823 -0.01810893 0.00058402587 -0.09257243 -0.01264283 -0.0003881658 -0.045475155 0.03936826 -0.10854314 -0.115194164 0.09247561 -0.060783856 -0.042776726 0.06451818 0.11510829 0.11786303 0.10097738 -0.05423006 -0.0969344 -0.0006412553 -0.08483454 0.039663415 -0.08602163 0.10406209 -0.04741226 -0.11565698 0.0901023 -0.08278468 0.040354606 0.108750276 -0.0008074278 -0.117400035 0.018558988 -0.019726856 0.051356755 0.081136845 0.04400434 0.07635907 -0.041414578 0.003952741 -0.0830138 -0.087776676 -0.043102793 0.0026856847 -0.06775397 0.04830694 0.07925086 -0.036639493 0.05665058 0.06769753 0.08182023 0.07156891 0.098340705 0.09255901 -0.11215171 -0.0792128 0.0774464 -0.11200092 -0.08599232 0.054788217 0.1085026 -0.0538711 0.049990367 -0.048387665 -0.014817611 0.046338305 -0.0667368 -0.01541747 0.068942666 -0.03320053 0.07749016 0.0764676 0.11239747 -0.11303444 0.0170655 -0.066950366 -0.028390385 -0.0033296815 0.07560191 0.098532684 0.11944274 0.008191784 0.10160468 0.11009219 0.066656634 -0.09143245 0.05466156 -0.07946069 -0.02833145 -0.10330096 0.0716913 -0.010014783 -0.118294165 -0.016118782 -0.06414147 -0.08340238 -0.022417182 -0.009341075 -0.103810236 -0.03693466 -0.06597587 -0.08690285 0.0053036707 0.04759386 -0.033718534 0.014937635 0.07108125 0.08487928 -0.08080941 0.05129927 -0.059943035 -0.075152 -0.00997203 -0.028356202 0.07019492 -0.041429657 -0.042880423 -0.098958574 -0.01428309 -0.049043216 -0.106715985 0.06811914 -0.0348752 -0.0026295963 0.097407006 -0.09387697 -0.05518441 0.10667275 -0.09518036 0.025790524 0.02825826 0.01220577 0.12449583 -0.105649434 0.0482123 -0.093647055 0.115289845 0.10168802 0.0037130504 0.10427209 0.08502735 -0.01680504 0.114902616 0.08700177 -0.011785332 -0.06955122 0.063149184 0.117847204 -0.02416284 -0.066011265 -0.11162148 0.06180889 -0.015641851 -0.092797145 0.003510262 0.00911873 -0.0119270915 -0.038956985 0.08416088 -0.04428656 0.036549475 -0.016461164 0.061514128 0.06951661 0.11057032 0.06719724 0.08639911 0.05705876 0.02843358 -0.054535374 0.06229668 0.08359884 -0.04500518 -0.04868663 -0.10647474 -0.09261817 0.04189562 -0.001254364 0.100155964 -0.08285735 0.07190733 0.047349136 0.05478113 -0.018329294 0.033954646 0.005782677
تخریب -0.0003688792 -0.064868286 -0.052976873 -0.044691898 0.0811326 -0.013604533 0.120525345 0.07905248 -0.033278346 0.027691968 0.105005264 -0.03983549 0.058296926 -0.023366036 -0.06436296 -0.057767417 -0.009051464 0.10004087 0.0668837 -0.09218438 0.034560498 -0.07156777 -0.10015391 0.06375198 -0.020480778 -0.08802316 0.060950827 0.10835377 0.11695036 -0.03288128 -0.11568922 0.038918484 -0.115280196 0.018703911 0.008908044 -0.019596543 0.062862225 0.11380324 0.01837785 -0.053685106 0.07295761 -0.100271836 0.06271165 -0.045046475 0.0076884315 0.026121251 0.057099372 -0.055446457 -0.025545783 0.028870309 0.0163714 0.026907757 -0.021744188 0.055181097 -0.08377577 -0.052532427 0.10858009 -0.037616223 0.08786089 0.015883798 0.009989642 -0.045116402 -0.0729517 0.0060507455 0.07797258 0.09057029 0.08414563 -0.10565302 -0.079648726 -0.08187496 0.08066916 0.040782686 -0.036666982 -0.09502107 -0.02862334 0.11773151 -0.020373803 -0.03663726 0.1194974 -0.06450657 0.003199608 0.044514164 0.023381764 0.033075053 -0.08460334 0.10187736 -0.06704496 -0.087968186 0.046545707 -0.030648429 -0.076685585 0.11025284 0.0657585 -0.049860332 0.045892004 0.09879211 -0.069393754 -0.06019664 -0.057919074 -0.07063319 -0.10815604 0.10380308 0.041565895 0.007246386 0.07607636 -0.04836545 -0.03888793 0.09044543 0.117898695 0.036264837 -0.083352625 0.066272244 0.089405686 -0.0824835 -0.09131221 -0.037475843 -0.06646059 0.027833214 0.03448287 0.04005265 -0.106268115 0.02687505 -0.11520652 0.10056928 -0.036896884 -0.056139853 -0.09578205 0.055921476 -0.004983387 0.030819189 0.018099215 0.05839001 0.103085585 0.019608976 -0.11241781 -0.027629582 0.11845862 0.10141824 0.09593302 -0.11746268 -0.05772114 0.06541712 0.031082734 0.11443172 -0.056491636 -0.009123339 -0.059845474 -0.117546245 0.043938804 -0.009824515 -0.014993651 0.093556434 -0.1132441 -0.060638476 -0.057652257 0.101582505 0.017856525 -0.04690265 0.031305306 0.007531333 -0.092894875 -0.081362024 -0.07750502 -0.09618561 0.11839584 0.113749154 0.09859819 -0.044566754 0.09738087 0.10799076 -0.059151456 -0.08519988 0.04786488 -0.00020692026 0.02649389 -0.06715127 0.07998792 -0.019192543 -0.103618585 -0.027966827 -0.06670373 0.06832759 0.09197682 -0.09327236 -0.09222802 0.03903917 0.08764602 -0.11086289 -0.067170456 -0.008318999 0.089861065 -0.05865734 0.038563184 -0.046480108 -0.034052722 -0.014483423 -0.04231229 0.09225269 -0.004724702 0.1151359
غلبه -0.099399045 -0.06076234 -0.01351713 -0.09266316 0.031807307 -0.02811184 -0.0830099 0.118782215 -0.111867905 0.033035286 0.05012545 0.03804154 0.033816557 0.08036095 -0.091973275 -0.012994008 0.07005368 -0.09259855 -0.08581887 -0.0005820287 0.11618407 -0.08311896 -0.097302966 0.048039 -0.11762881 0.109270655 0.058079585 -0.09687733 0.11121833 0.0797145 0.052020166 0.103402 -0.015356512 0.10843169 0.07264632 0.058325518 -0.005016525 -0.10853778 0.032843035 0.049778555 0.07773311 -0.014524541 -0.040388875 -0.101821445 -0.07475606 -0.01929424 -0.042600047 -0.05437642 -0.06606076 -0.037863586 -0.07820832 -0.08687554 0.109085806 0.07056633 -0.09956841 -0.015003997 0.07257811 0.01736079 0.11457546 0.071527906 0.11174937 -0.037612036 -0.117648385 -0.002646117 0.0288377 0.10797891 0.05673072 0.099356376 0.11698071 0.11097927 0.015362253 -0.09752534 -0.01442433 0.008489722 -0.06143297 -0.10320401 -0.076168895 0.048699677 -0.025364477 0.11766973 0.016818952 -0.07272379 0.010301393 0.055631835 0.017698556 0.061968625 0.058910422 -0.03170908 0.11453952 0.04695518 -0.0049607567 0.059817255 -0.060916867 -0.1000192 0.066409625 -0.02447377 0.10153933 0.044661332 0.116029836 0.10003495 -0.015786303 0.008399439 -0.11236491 0.068349496 0.070796594 0.031163432 0.00067129376 -0.003197037 0.09284437 0.08016988 0.009496447 -0.06639539 0.11376372 0.059200395 -0.016960423 0.017963791 -0.10320542 0.053647205 -0.091841176 -0.054507956 -0.0374189 -0.0080687255 0.014178032 0.010359425 -0.07053643 -0.094554335 0.05431182 -0.017385213 -0.011872949 0.09793519 0.07337033 -0.108929336 0.043082736 -0.04099752 -0.0855612 0.12167802 0.12167987 -0.111742906 0.11284722 0.032743234 0.061976653 0.07048359 -0.008319262 -0.041254647 0.07204337 0.09940661 -0.020804092 0.013514784 -0.10282674 0.047662143 -0.01729537 0.0018373211 -0.029362444 -0.049787425 -0.11279236 -0.054782744 0.026539711 0.013911712 0.100907125 -0.011043349 -0.094079 0.0710721 0.03448023 -0.108420126 0.00838844 -0.024472838 0.0711611 0.028537361 -0.025179699 0.00407311 0.040668864 0.06890427 -0.09728984 -0.08612201 -0.042373613 0.0022927683 0.10100751 -0.04040679 0.121936224 0.025922822 0.05452814 0.103831396 -0.0474003 0.12548772 0.019580038 -0.054776274 0.04602737 0.005769397 -0.030542297 0.01706702 -0.10724689 -0.023947494 -0.047494672 0.035043992 0.08883272 0.11485091 0.110841796 0.05542353 0.0043630274 -0.015513282
