226 200
و -0.097045794 -0.05589161 0.002296269 -0.11735348 -0.038681835 -0.07784248 -0.041284427 -0.094082594 -0.09429964 0.07530846 -0.074526235 0.019767819 0.090301104 0.029892666 -0.09035638 -0.055446632 -0.09192333 -0.0076327147 0.07308326 0.03257676 -0.10578708 0.03437083 -0.1385735 -0.033886917 0.09995044 -0.0633993 -0.029754808 -0.010401756 -0.02820198 0.061946157 0.06654388 0.009760918 0.053327195 0.027106127 -0.09481898 0.11467759 -0.012176143 0.0708032 0.027100815 -0.061024867 -0.0142795965 -0.1090052 0.0871847 -0.07017467 -0.052456565 0.04242062 -0.016304053 -0.05173058 -0.075878195 0.11492311 0.112850085 -0.07613292 -0.11712332 -0.07388454 -0.015172273 0.0020437052 0.0015628263 -0.08323409 0.08342302 -0.031366505 0.09141164 -0.103172235 -0.03609318 -0.018608434 0.08112595 0.02317379 -0.10954895 -0.08679769 0.121074684 0.0330643 0.043691844 0.061167806 -0.033529326 -0.06993448 0.059078146 0.09688803 0.11678556 0.07443175 0.09635465 0.10468031 0.008816818 -0.03841672 0.018154625 0.07654834 0.04214964 -0.101937786 0.005800879 0.005704589 -0.106503315 0.00476145 0.13585144 -0.102503 0.08108244 -0.016223188 0.028824339 0.07168975 0.03976283 0.1107019 0.04172398 0.03427257 0.11472182 -0.037952233 0.08549557 -0.06456546 -0.009816326 -0.09181 -0.050518457 -0.012844386 -0.0341842 0.0607313 -0.08584594 0.06527269 -0.019042397 0.011727466 -0.01042887 -0.043762676 0.08755591 0.11034995 -0.0022246952 0.028404672 0.098374896 -0.06397531 -0.07121851 -0.10473815 0.1009119 0.070423596 0.005552552 0.06636256 -0.09302551 0.05775625 0.07048647 0.044991873 0.08131633 -0.0244054 0.05105106 0.08729479 -0.053515125 0.10503196 -0.033042364 0.08957421 0.12161086 0.10205478 0.08013989 -0.066973545 -0.06946528 0.015045422 -0.0260276 0.08170265 -0.08687721 0.04292838 -0.0588635 0.06237918 -0.080348566 -0.0101239085 -0.07779101 -0.081030644 0.058458604 -0.03321725 -0.040031984 0.08781052 -0.09222392 0.120041564 0.117680065 -0.02856354 0.08426663 0.06419165 0.047894545 -0.032194994 -0.06986233 -0.004028108 0.081114344 0.0028359657 0.08991042 -0.082862794 -0.027878482 -0.047826625 0.06564703 -0.103827685 0.030557266 -0.07502825 0.078935765 -0.10558276 0.04739107 0.1176436 -0.052889157 -0.11941499 -0.08601479 -0.08081235 0.09398005 -0.082001776 0.092529304 -0.011757334 0.03687769 -0.00011825865 -0.03874349 0.009406848 0.004626488 0.002120219 -0.08846311 -0.0009371741
كه 0.09508243 0.022778466 0.048297662 -0.097751126 -0.07253676 0.06556971 0.034313817 -0.049216315 0.012937834 -0.05015584 -0.02694156 0.10923654 -0.02544784 -0.08745165 -0.04280294 0.05735482 0.12008844 0.02727594 0.021444706 0.097278744 -0.05862134 0.04016315 0.020780709 0.07818266 0.027165733 -0.06809421 -0.08772871 0.060361583 0.03950124 0.005604904 -0.091374 0.04193477 -0.018117014 -0.057591464 0.05245528 0.011058726 -0.033529263 0.036600757 0.08744576 0.026955692 -0.01537103 -0.0004059312 0.12059924 0.018581871 0.059471946 -0.063374795 -0.055634987 -0.030901114 -0.09560707 0.08406592 -0.079290584 0.09659666 -0.11502812 0.083674595 0.06734194 0.07603996 -0.055969678 0.03517499 0.04911913 -0.030664941 0.098614804 -0.0008704659 -0.08716687 0.14909494 0.039157275 0.07561932 -0.037578464 0.09473608 0.110466205 -0.008976711 0.019576773 0.073419206 -0.10162484 0.02419806 0.072383404 -0.039335225 0.0003512874 -0.122860394 0.112017676 0.06727061 -0.12910314 -0.053040396 -0.014678332 -0.0063712043 -0.020647323 0.02443767 -0.028142542 -0.10160808 -0.098142006 8.487888e-05 0.023972958 0.0062182886 0.07150639 0.0027567316 0.13510309 -0.009990179 0.08606212 -0.03380846 -0.09772793 0.024250062 0.051961996 0.13563032 0.105132475 -0.043832205 -0.112345 -0.11030072 0.030927619 -0.05489941 0.10185344 0.09117149 0.055634487 0.096669085 -0.024545288 -0.051122222 0.045591526 0.1352873 -0.0822738 0.09830879 -0.02833921 0.10323868 -0.07655049 0.046601173 -0.0870524 0.031364154 0.039775103 0.10636339 0.097895175 -0.038052324 0.112979025 -0.09241481 0.08840887 -0.041004002 -0.119720876 0.05574358 -0.019112099 0.024040895 0.0708503 -0.07680262 0.08297642 0.092994235 0.07943205 -0.040371913 -0.077187784 0.028178807 0.07047302 0.09836566 0.019496499 0.08236553 0.09419359 -0.0072392924 -0.010762823 -0.12015719 0.00953988 0.05498877 0.078938685 -0.03978967 -0.07206405 0.012874468 0.019007966 -0.08432896 0.13002594 0.019907843 0.013545775 -0.026056863 -0.06477063 -0.068011105 0.110237464 0.10058419 -0.055927638 0.008951734 -0.097823046 0.018107776 0.11700243 -0.12142686 -0.02976691 0.038150635 -0.028881392 -0.06493247 0.006005338 -0.007969564 0.09176383 0.08278348 0.04347536 0.057241373 -0.0044470597 -0.0057903905 -0.050185855 0.057175588 0.082050756 -0.06923091 -0.08260139 0.03229601 -0.093790814 -0.018989721 0.11793272 0.11575152 0.05441013 -0.05092175 -0.12889999 -0.0044899597
در 0.06985032 -0.014326129 0.07358312 -0.09237145 0.0029276263 -0.06723584 -0.0842162 -0.039157122 0.07736772 0.025768282 0.04349493 -0.06542416 0.12623984 0.10618242 0.008765412 0.029780263 0.051598955 0.06860754 -0.03848771 0.033194035 -0.059818335 -0.032438256 -0.07235733 -0.012121629 -0.0859528 -0.006486893 0.10459125 0.05957908 0.023277462 0.09868772 -0.04453321 -0.002789094 0.045174375 -0.02703721 -0.08754389 -0.015620396 -0.03758939 -0.027129412 0.11300958 -0.06570975 -0.01331251 -0.038198013 0.12750286 0.1292745 -0.0541463 0.038205054 0.05714161 0.096160956 -0.021537537 0.054356243 -0.035576746 0.00869303 -0.070105076 -0.07371075 -0.013701763 0.01187606 -0.030656256 0.0202461 0.001106008 -0.09048388 -0.061267268 0.051317535 0.0063119773 0.007487642 -0.09762118 0.044725206 -0.0870249 0.033742525 0.04426311 -0.10631374 -0.057929497 0.09444342 2.9684225e-05 -0.051147174 -0.10668226 0.036041252 0.10550913 -0.022918979 -0.09444832 -0.011588663 -0.06333222 0.09454876 0.027680967 -0.020171873 -0.09249988 0.004036116 -0.14527354 0.00936409 -0.12509283 0.014454437 -0.030873002 0.06034748 0.030253233 -0.03663137 0.13267155 0.015656477 0.017968472 -0.09951798 0.10855114 -0.10053861 0.062043454 0.10219396 0.11744234 0.026041672 -0.099013925 0.07818037 -0.0682605 0.028130239 -0.060262837 0.011357801 0.083837345 -0.0659984 0.06716812 0.018461594 0.060154226 0.05055567 0.09124684 -0.03998914 -0.07284829 -0.08856357 0.05687827 0.04579998 -0.1026876 -0.04804816 0.03331197 -0.10297768 -0.08865895 -0.046831913 0.10384713 0.04243552 0.053388037 -0.0053040413 0.08932628 -0.096758105 0.06388975 0.018605154 0.11077984 0.12538657 -0.06297433 -0.09928165 0.06984515 -0.10509048 0.06770403 -0.12404822 -0.067354426 0.04371559 0.055598576 0.12317118 0.08414211 0.122017756 -0.08616836 0.017551284 -0.0649307 -0.064913094 0.109891295 0.10268571 0.042287968 0.068634644 -0.0054954435 -0.031172952 0.0035443425 -0.04774096 -0.101049624 -0.066869296 -0.021735936 0.06469674 0.075943455 0.09916752 0.0056135776 -0.045883413 0.03928369 0.13068128 0.11099563 -0.12245543 -0.0711795 0.029870922 -0.049488448 -0.036327977 -0.12192117 0.06829676 0.11771668 -0.049030904 -0.1093044 0.05713293 0.031653058 -0.033046372 -0.044605672 0.032094315 -0.035489112 0.038542356 -0.010410351 0.08856887 -0.043646257 -0.10406131 0.108966075 0.023852268 0.04698275 -0.09260895 -0.11551772 -0.05509869
این 0.12682255 0.10365912 -0.054211352 0.020554192 0.09678915 -0.049457494 0.050857976 -0.0030830023 0.06107281 -0.047092058 0.078648224 -0.06857079 -0.036338493 -0.04765995 0.082342595 0.05605325 0.076604076 0.04962832 -0.09921863 0.11383522 0.082189284 -0.08866841 0.073403575 0.058973372 0.013524477 -0.04288755 -0.018707981 -0.079497635 0.089320704 -0.09295242 0.01538684 0.0946405 0.031029338 -0.07235894 -0.044763044 -0.043833446 -0.1068169 -0.027621657 -0.053329207 0.0001274021 0.07769827 -0.02830695 0.12226743 0.04830689 0.109295525 0.050400842 0.13378707 -0.10619996 0.046241835 -0.022579461 0.10471639 -0.02814981 0.0028746754 -0.003675884 -0.0987021 -0.110438496 0.030711154 0.06458209 0.0651748 -0.10238633 0.106617056 -0.0125822015 -0.08554445 0.0792486 0.0853773 -0.03536214 -0.07230128 -0.009782619 -0.06347906 0.016173292 -0.12102731 -0.08454854 0.020270241 0.0030758658 -0.118003875 0.09154838 -0.02467205 -0.11747782 0.11687173 0.11705599 0.025539475 -0.052043963 -0.09303756 -0.028498447 -0.10293701 0.009290076 -0.037620604 -0.07093924 -0.08895223 0.06063684 0.043277003 -0.08913791 0.10938228 0.09234632 -0.10312314 0.09783872 0.03915433 0.09677807 0.07398947 -0.060400877 -0.029661981 0.09186909 0.00283777 -0.0039060058 0.10794216 0.017342918 0.0935228 0.10493458 -0.049623914 -0.075954154 -0.07200277 0.08419422 0.032672174 -0.00018152308 0.06654158 0.022481864 -0.06946435 0.103119634 0.07556639 0.0052377335 0.05833127 0.012799512 -0.06379246 0.023946092 -0.08628214 -0.06887166 -0.069410734 0.08596259 -0.005994562 0.07818341 0.03426125 -0.033473883 -0.09769488 0.09787439 -0.008582371 -0.019053744 -0.013759818 -0.101961404 -0.0072515365 0.1146349 0.028698506 -0.04487015 -0.0044842362 0.073753454 0.11708262 -0.021060267 -0.06947235 0.03794603 0.0588668 0.11652443 -0.0887318 0.025975771 -0.026910959 0.034950398 0.098738775 0.041141544 0.025876312 0.095490605 0.08476623 0.10267378 0.018470818 0.045733657 -0.019755134 0.038296256 -0.101890944 -0.061383344 0.038720723 -0.062279504 -0.1215036 -0.05781708 -0.06587642 0.11011403 -0.011171367 0.0011691564 -0.10904273 0.021568237 -0.08178916 -0.011338564 0.08490723 0.033984583 0.06125965 0.11001998 0.08952747 -0.039354082 -0.07865336 -0.10072153 -0.040130746 -0.020311233 0.013730602 0.06900959 0.0077337776 -0.07597098 0.008619379 -0.12235505 -0.0061313096 0.033221897 0.037630398 0.0028566485 0.071325846 -0.11608269
به -0.011298315 0.079089314 0.03402687 -0.02040843 0.024745274 0.09903706 0.09335505 -0.03307354 0.017702373 -0.015973736 -0.12069058 0.067169495 -0.063358255 0.08777307 -0.06912652 -0.014715535 -0.117503956 -0.06971526 -0.08148059 -0.11743552 0.04141131 0.08760674 -0.0010007867 0.04445371 0.106318325 -0.040483575 0.09055023 -0.09921785 -0.050344046 0.03416555 -0.0049974932 0.09205454 0.07189481 0.08320627 -0.0020235241 0.04499666 -0.030245854 -0.029345084 0.052502442 0.078741856 0.06407491 -0.07526452 0.07312938 0.048423387 -0.0068674283 -0.034044407 0.072031744 -0.038881157 -0.03179831 0.07487186 0.026774233 -0.07583707 0.055335175 0.040886577 0.08113771 -0.041678656 -0.015214546 0.08030011 -0.009627699 -0.08874767 -0.09667794 0.06154269 0.08282487 0.1183437 0.117754266 -0.022899894 -0.117781624 0.066801235 -0.09294083 -0.0037316005 -0.010834902 0.046932038 0.01744282 -0.07435589 -0.09594837 -0.018395027 0.022005752 0.091804445 -0.04573078 0.07157408 0.06225164 0.03217393 0.10464072 -0.08063824 -0.033486206 0.0154658 -0.09217325 0.094128564 0.0060454803 0.013178813 0.11879215 -0.042446394 0.057436466 -0.09461143 -0.027294697 0.008269852 -0.04339897 -0.05202037 -0.060415637 -0.10970519 0.03129462 0.017238002 0.13103837 0.10056197 -0.06179121 -0.11871743 -0.10497418 0.08104203 0.058879428 0.052953362 -0.0059487973 -0.04316553 0.010388744 0.093194745 0.024244564 -0.06085514 -0.04975415 -0.0649583 -0.00391552 0.11188553 0.04671267 -0.006428166 -0.04537485 0.079790436 -0.042005524 0.10826383 0.10908 -0.07074332 -0.056451414 0.03446463 0.018547235 -0.08021 -0.10356777 0.009655024 0.094427474 0.0164982 -0.00841428 -0.10451503 0.067388974 -0.05984144 -0.05156314 0.10471202 -0.11699904 0.100136794 -0.06985301 -0.06716465 0.08466726 -0.079041444 -0.045026407 -0.11264952 0.10272511 0.018227356 -0.107525036 0.0715756 0.09542602 -0.070868984 0.11405524 -0.041086692 0.013035051 0.07012096 0.036558803 0.11719363 0.120724745 -0.012617494 0.11757841 -0.011246485 0.09057526 0.057161093 -0.0033005378 -0.08484053 -0.006202424 -0.055841137 0.01256419 -0.09427959 -0.10673415 -0.07321848 0.07318289 -0.07585469 -0.058557887 0.05084411 0.08523512 0.08478863 -0.0937849 -0.08940965 -0.11078859 0.06844132 -0.051579554 -0.0843095 0.080084056 0.069269575 -0.103500396 0.09169893 0.043878112 0.023004282 -0.0083306255 -0.08300909 0.027717387 0.018412672 0.054029126 0.09266831
را -0.07917408 0.06591772 -0.08574662 -0.10205108 -0.013418416 -0.10577644 0.08038565 0.084133655 0.063479304 0.07054342 0.10681406 0.04402001 0.124864 0.11583338 0.02028769 -0.0806987 -0.10753153 -0.051777422 -0.11794269 0.105484635 0.019807225 -0.08754666 -0.10133055 0.09429643 0.058741786 -0.043623872 -0.077386566 0.06260844 -0.0047960673 0.011239443 0.0481063 0.11417754 -0.11199604 0.11083777 0.021822764 -0.07916367 -0.10862665 -0.10618821 -0.0920064 0.0724592 0.016733207 -0.06671655 -0.017917467 -0.057709813 -0.03254142 0.019827804 0.13260567 -0.002446239 0.044894524 -0.0027640862 0.07357811 0.0367522 0.07357246 -0.053854153 -0.09288067 -0.005326505 -0.0045165615 0.07595847 -0.10028608 -0.09962158 0.07687624 -0.075122796 -0.08138498 0.13438496 -0.013449992 0.0720302 -0.0041620648 0.106989846 -0.035655152 -0.03107152 -0.06838945 0.044801805 -0.02569205 0.08276862 -0.0781906 -0.07843705 0.0544622 0.056263905 -0.104218245 -0.03298307 -0.08065419 0.019623514 0.12592238 -0.10100331 0.0894119 0.08967958 0.06485664 0.061047878 0.019121757 -0.051524263 -0.09773577 -0.07011581 -0.049415886 -0.06134732 0.1185665 -0.01597388 0.035886 -0.05616973 0.024292674 0.035498533 -0.066800445 0.08381057 0.09111318 0.0299859 -0.10703289 -0.054529134 -0.097284906 -0.0972539 0.029699847 -0.032234617 -0.011563391 -0.06341138 0.03989638 0.011121339 -0.05499306 0.07259519 -0.06363869 0.08818485 -0.0642742 -0.07419342 0.061769895 -0.025836471 0.07780064 -0.049136065 0.1101359 0.11143929 0.050603725 -0.07441155 -0.064319976 0.025795449 -0.0956272 0.08982129 0.0660085 -0.03957707 -0.010694145 0.07938589 0.0290887 -0.017919526 0.07702547 -0.09641718 0.093274675 0.040531043 -0.041080937 0.01981699 0.03737298 -0.05611876 0.013859964 0.045404553 -0.019262873 0.06900423 0.015059765 -0.0647026 -0.059095535 -0.11006724 0.10645874 0.05558999 -0.043858487 0.0049612774 0.08117244 0.08808764 0.07336359 0.014760811 0.10475498 0.04485381 0.11673834 0.045123648 -0.030702358 0.05456381 -0.01665029 -0.028226187 -0.084952086 -0.030315133 -0.020077819 -0.017409492 -0.045127597 -0.069975436 -0.014641585 -0.07865796 -0.120693475 0.021818882 -0.009833456 -0.10038424 -0.044484988 0.10972788 0.09520758 0.08261121 -0.08609757 0.0031131527 -0.07220987 0.009321228 0.01093329 0.100523874 0.05477673 -0.02689986 0.08782124 0.08502157 -0.047670677 0.024492893 0.0806039 -0.110557236
از -0.05156452 -0.022380603 0.03112225 -0.1273172 -0.023771483 -0.04312774 -0.024952902 0.025931112 -0.12846878 0.07362516 -0.09651494 -0.056476813 0.08334626 0.09173024 -0.085936 0.021736056 -0.049251884 0.0891141 0.060766526 0.05692438 0.025252387 0.10839248 -0.040622953 -0.050388146 -0.111008 -0.048650384 -0.05310181 -0.0981782 0.114126496 0.109333955 -0.12504314 0.11401353 -0.06432643 -0.08421987 -0.10379477 -0.07488196 0.051891055 -0.036373816 0.012692406 -0.06557867 -0.03854127 0.032290142 -0.04515318 0.008125694 0.10288744 0.053451378 0.04736596 0.11654127 0.120180584 0.004684173 -0.082243025 -0.10279445 -0.11650247 -0.084450416 -0.021231646 0.01194394 0.061581437 0.114677146 -0.062068187 0.10935932 -0.04179556 0.025633702 0.0051673474 -0.10044501 0.024684364 0.056154065 0.06612072 0.040470652 0.09453094 0.01963809 0.04505813 0.07931321 -0.13112867 -0.08941843 0.044082325 0.006620714 -0.010970938 0.07677107 0.10395532 0.017430924 -0.09720265 -0.12165799 0.06951758 -0.08083674 -0.064040706 -0.04681285 0.06632035 0.06553544 -0.051664025 0.025512325 -0.056839768 -0.12758954 -0.052742243 0.0027242994 -0.039002117 0.05351328 0.097621396 -0.027412407 -0.12604639 0.10967271 0.04116763 0.051532958 0.051005527 -0.023429636 -0.024272881 0.017845996 -0.09853993 0.03232228 0.041731816 -0.058570925 -0.090764195 0.051372156 0.1200792 0.10379721 0.00571809 -0.04840314 0.049522724 -0.029671455 0.10220542 0.07038806 0.015173145 -0.0018997522 0.02238488 0.049649376 -0.04555232 0.061265446 -0.08362075 0.11645581 0.08677747 0.10048474 0.018321645 0.104938015 0.058403708 0.07410107 -0.03273585 0.030526225 -0.050097648 -0.088179305 -0.12572084 0.099867985 -0.05086479 -0.120325886 -0.062514625 -0.09331667 -0.092786044 0.023558158 0.11466696 0.042327948 0.043004356 0.017965537 0.001368395 -0.08530983 0.06289014 -0.073507704 -0.08709485 -0.07824797 -0.067240216 -0.037853885 -0.0464157 0.0862727 0.10888593 -0.008256238 0.090868615 0.07194718 -0.11494714 -0.054691914 -0.04317201 0.05655589 -0.02507414 0.047902875 -0.10911082 0.11104947 -0.01411857 0.00518447 -0.0072908876 0.07016525 -0.028330056 -0.0698471 -0.021951498 -0.064603195 0.032493055 -0.057986822 0.05949795 0.08494984 0.058848668 -0.0037552323 0.0642495 0.04760521 0.032831747 -0.11216742 -0.021464193 0.029507222 -0.12895924 -0.018448843 -0.02029179 -0.02401292 0.025082244 0.038490716 0.03476404 0.07237378
آنها -0.111402385 0.010376782 -0.067429796 -0.07623506 0.039592955 -0.11572513 0.043950222 -0.0009567314 -0.109090336 -0.047647376 -0.06557038 0.10129207 -0.09960218 -0.026680933 -0.047136426 0.0065369783 0.1023176 0.062885575 0.08998541 0.022135708 0.11126514 0.06400873 -0.016155286 -0.05196803 0.03709269 -0.01204022 0.10121875 0.07625038 0.043107856 0.08369285 0.057093184 0.04113958 -0.06704846 -0.09547176 -0.10521254 -0.0147399455 0.00050737575 0.00909188 0.1167622 -0.05275304 0.06712253 -0.106221095 0.12263774 -0.015211868 0.11410912 0.0061316937 0.068592966 0.0650617 0.033955544 -0.03833979 -0.07991938 -0.018144028 0.060208555 -0.020365706 -0.058068555 0.045250945 0.0199758 -0.064550325 0.017734336 0.027387202 -0.09546527 -0.04351024 -0.049031157 0.11790699 -0.11877806 0.11040344 0.0065677534 -0.08007764 0.028381066 -0.12504755 -0.0076592816 -0.10897582 0.08609217 -0.12568569 -0.05399515 0.09389356 0.0073839407 0.06423379 -0.04120394 0.016671523 -0.069975354 -0.014004082 -0.07974361 -0.09065741 -0.08369103 0.12451024 -0.09527754 -0.115021296 -0.037527185 0.068095416 0.021004193 0.006227826 -0.009575539 0.110381104 -0.09479074 -0.027203958 -0.037992198 0.059579127 -0.11410918 0.10522982 0.005683192 -0.048710745 0.088030905 -0.09334697 -0.12100185 0.04292233 -0.070730776 -0.021798315 0.045111816 0.0101431245 -0.0049545416 0.11257854 0.1068164 0.08007006 0.0928778 0.11264841 0.100529775 0.014229431 0.077100195 -0.01222305 0.02985799 0.028897084 -0.122725435 -0.011794995 -0.07594208 -0.07278038 0.1277572 0.018967677 -0.019528158 -0.07647275 0.013652145 -0.051410556 -0.019471535 0.0584957 -0.018656105 0.002776823 -0.09345948 0.10957122 -0.11904201 0.12030625 -0.06844464 -0.028616399 -0.036137473 -0.11626544 0.0074705905 -0.026694601 -0.11382996 0.097433895 -0.12543623 -0.06949633 -0.02763219 -0.08961026 0.05907777 -0.054359596 0.032307815 -0.057078533 0.0404355 0.021129971 0.03616838 0.036911577 0.07572421 0.124902196 -0.07919356 -0.029378755 0.120206624 0.07423804 0.056184947 -0.059364077 -0.09717381 0.06389528 -0.008418107 0.07250142 0.010535049 0.03968182 0.07311619 -0.015267901 -0.015330895 0.09686065 0.0019806821 0.030146262 -0.095437974 -0.0022444616 -0.08856941 0.0097041745 0.079448834 0.053700052 -0.011354044 -0.024010342 0.13665158 0.01255574 -0.03193548 0.039396923 -0.08899859 -0.010405784 0.055134095 -0.011714327 0.01884383 0.07553734 -0.087173544 0.04874291
چشم -0.0777478 0.020361176 -0.09005129 0.0052639586 0.03281992 -0.07463406 -0.035668585 -0.11009896 0.0062532667 -0.0403573 -0.007638249 0.00119067 0.018854136 -0.053767573 0.08989659 -0.083294965 0.017451758 0.06714277 -0.08508559 -0.045934867 -0.047253706 -0.07393069 -0.003727691 0.07004715 0.09376979 -0.110990204 -0.09366555 -0.07076484 -0.055504654 0.065124765 0.066253826 0.060686167 -0.08298016 0.019779334 0.0136291515 -0.05184522 -0.09952712 0.027375922 -0.09783937 -0.094043106 -0.07170216 0.017622998 0.02819905 -0.014630309 -0.10184214 0.025628163 0.057420902 0.08395044 0.10979562 0.031092944 0.1113637 0.022328531 0.08120668 0.034132022 0.025777135 0.046472285 -0.11426299 0.097931236 0.05150468 -0.060994573 0.07383935 0.015489764 -0.09608146 -0.05277681 -0.04344044 0.11792888 -0.11383708 -0.06939321 0.08163545 -0.05279565 0.048858427 -0.11218652 0.058341987 0.0026631276 -0.05033121 6.439956e-05 -0.07547974 -0.121951774 -0.04829144 0.053239726 0.03034984 0.11106234 0.04079438 0.05127816 0.12049214 0.090920426 -0.0056631234 -0.021474602 0.03804809 0.06286643 0.096651606 -0.098993614 -0.06855593 -0.024965959 0.094713666 -0.08921131 -0.06641326 0.025791056 0.0024663985 0.10015566 -0.091261044 -0.044095688 0.08014137 -0.01192696 -0.01834335 0.057692528 -0.107564926 0.034569267 0.052898962 -0.049090113 0.064525016 0.10168765 0.08624083 -0.06294196 0.027841056 0.08838616 0.05154675 -0.111377805 0.06210951 0.110801876 0.07987454 -0.038668644 0.022674942 0.0900853 0.030249985 0.08524606 -0.089112185 0.024206975 0.11801237 0.05590675 -0.06185174 0.08816437 0.07548186 -0.06393054 0.11395301 -0.049200475 -0.11392457 -0.08455333 -0.110965654 -0.033190075 0.06890146 -0.09769217 -0.10370977 -0.07536082 0.02396568 -0.0027359019 -0.09321722 -0.0015567478 -0.06058807 0.06346906 -0.100071974 -0.122515276 -0.06850156 0.04031576 0.059675153 0.02857563 0.074426964 -0.11401211 -0.010898235 0.10849328 0.023296649 0.118624106 -0.10009338 0.0005488625 0.05733863 -0.023553992 0.09987267 0.034602787 0.1140654 -0.05677793 0.06120459 0.018252008 0.06808697 -0.013194192 -0.009697978 0.044237815 0.04065326 -0.113723345 -0.09660085 0.10953829 -0.013570744 0.0025676969 0.058905583 0.04230654 0.0884256 0.07582708 -0.050965182 -0.030375924 0.11065502 -0.095102645 -0.06497519 0.11296129 0.07640489 0.020456886 0.0686525 0.023659136 0.06266196 -0.016553909 -0.06413088 -0.06001086
می‌شد -0.06337336 0.0039001422 0.09992784 -0.071065746 0.116568394 0.0008477213 0.089898914 -0.09054235 -0.12291573 -0.08891677 0.099019155 -0.10599341 -0.08555002 0.035984963 -0.022146113 -0.12298652 0.07508767 0.055737633 0.014161152 0.11025806 0.068951026 -0.010754183 -0.11732224 0.063652426 -0.061476093 0.069696896 0.040593743 0.044400726 -0.073008575 0.121887594 0.00072234083 0.014255493 0.11093729 0.05584633 0.09403611 -0.0059490902 -0.011205852 0.12398126 -0.0036385506 -0.011066172 0.021036467 0.041315153 -0.041073084 -0.041482862 -0.07809 0.0010564105 -0.093539886 -0.01676853 -0.0061607077 0.013350617 -0.05200281 -0.037502684 -0.098899186 -0.006344399 -0.022866296 0.112644605 -0.11998228 -0.067278296 -0.12948832 0.033296254 0.049154263 -0.030203132 -0.006483067 0.09141194 0.11855828 0.105519496 0.02466624 0.099157326 0.019209305 -0.059824068 0.086129874 0.02536995 -0.09311904 -0.10750782 -0.07449733 0.11608413 -0.05598106 0.028364405 0.0976072 0.069678575 -0.0006144929 0.0037759135 0.04418488 0.06252834 -0.063928306 0.03698819 -0.04599614 -0.02953121 -0.112817965 -0.0059081414 -0.04389334 -0.096128024 0.06892715 -0.037424866 0.01704235 0.03559194 -0.094671875 0.010360762 -0.04330657 -0.059164677 -0.08842535 -0.102644935 0.087179095 -0.0783325 -0.120503455 0.03963325 -0.096400976 0.012455668 -0.051374104 0.04815517 -0.04079498 -0.11719332 -0.03393407 0.061476987 -0.058823593 -0.09605674 0.02842129 0.03773182 0.029742155 -0.038609065 0.02196688 0.11471526 0.008696074 -0.122382954 -0.09482449 0.052518036 0.098590225 0.015296997 0.08224083 -0.02171512 0.026594434 0.016368806 0.10779072 -0.095051266 -0.055450846 -0.10699232 -0.005268256 0.035191298 -0.0185313 -0.11532667 0.087683775 -0.04102167 -0.0025616835 -0.09632006 -0.029274788 -0.11818675 0.0667334 -0.06348588 0.06073194 0.094302215 -0.016545694 -0.10339818 -0.11600393 -0.1211409 -0.067688085 0.066567756 0.051359676 -0.11656071 -0.0234543 -0.048406534 0.04064759 0.02597477 -0.042181797 0.09176242 -0.057050135 0.10020944 -0.017463984 0.014332339 -0.02607126 -0.05031401 -0.10774482 0.05100114 -0.0955639 0.08030556 0.039104566 -0.036627688 0.12700473 0.09691885 -0.013018008 0.0012085163 -0.08642134 0.07316135 0.024792977 -0.014147144 0.04619125 0.09821186 0.07343414 -0.061334796 0.066576324 -0.004075675 -0.0034737913 0.01955856 -0.095868066 -0.08018071 -0.0861099 0.047370497 -0.090180494 0.08737296 -0.021430224 0.06867479
كامپیوتر 0.0030645132 0.041956656 0.059350878 -0.010313027 -0.099800125 -0.099711955 0.11495807 0.026785841 -0.05535673 0.052565772 -0.08380926 -0.064127155 0.084778264 -0.082333654 0.012831293 0.10364918 -0.071087144 0.027705392 0.10693322 -0.022452544 -0.005033683 0.0256517 -0.10639572 -0.107624695 0.016207365 -0.08791614 0.015833814 0.073230736 0.06550549 0.08549985 -0.022166261 -0.027835526 -0.03506985 -0.09172273 0.10562984 0.1146312 0.056511972 0.04181207 0.058174472 -0.016697796 0.008967914 0.07550516 0.041789636 -0.09712487 0.034844685 -0.072139464 -0.100728385 0.0627599 0.0374682 -0.016039679 -0.09799805 0.10387476 -0.034426194 -0.07336913 -0.103180625 -0.012879109 0.07681766 0.10821278 0.060611766 0.034779377 -0.042544555 0.008627313 0.10568975 0.122314736 0.11607687 -0.004573262 -0.018209517 0.06280486 0.08025653 0.10287104 -0.030412985 0.11483751 0.08089861 -0.05515953 -0.1185281 -0.059279 0.11318856 -0.1032685 0.06586491 0.033893596 0.011711786 -0.075710855 0.027153349 0.007434026 -0.04686191 0.05941699 0.075565726 0.07375264 0.064937145 -0.059723478 0.07463379 -0.04376962 -0.053100485 -0.10795599 -0.05223856 0.054743476 -0.017827498 0.03852691 -0.017143825 0.07393165 0.07837214 -0.0065015904 0.0119890915 0.048347674 0.022845682 -0.11844815 -0.032227527 0.063352354 0.003102996 -0.06257776 -0.03363086 -0.07394573 0.003833434 -0.019212218 -0.086956695 0.11282989 -0.09351907 -0.109042265 0.004244156 -0.108203 -0.088532 0.046778914 0.00339247 0.11561345 -0.03811176 -0.06723397 0.09582485 -0.09942511 -0.110091306 0.10962998 0.11703591 0.041270927 -0.032542594 -0.10275958 0.09542364 0.0036300835 0.11153634 -0.009104734 0.06124685 0.03276983 -0.015165325 0.011099447 0.093771264 0.06703462 -0.08309561 -0.002854928 0.10747761 0.10887999 -0.07139704 -0.023011932 0.027881585 -0.08376987 0.108524725 -0.023297155 -0.012199438 0.05235565 0.10193486 0.09373698 -0.106973864 -0.116133526 -0.018914606 0.0019905067 0.04334758 -0.11074948 0.111452825 0.08993283 0.029223997 0.03562714 0.08592698 -0.09563507 -0.034765773 0.040362153 -0.0970182 0.021550884 0.0348546 -0.0068950774 -0.099049196 -0.032892868 -0.091219395 0.1103225 0.03507153 0.082043365 0.074656926 -0.07348764 -0.021499744 -0.022488449 0.029446587 0.05809522 0.08900595 0.04132953 0.0996595 0.07540147 0.011825437 0.07870235 0.03128139 -0.028836988 -0.011628711 0.06524468 -0.11234937 0.03716437
افراد 0.058848623 0.016394632 -0.06197498 -0.083636515 -0.09519615 -0.08468499 -0.09430609 -0.011985094 0.097378895 0.03940027 0.038606834 0.03394241 -0.10128497 0.0025795659 -0.123076126 0.06652805 0.03495205 0.08238536 0.07690463 -0.0054474943 -0.023952002 0.11975781 -0.05062452 0.095589966 -0.020926543 0.06039667 -0.11181945 -0.03434426 -0.042318366 0.013769462 0.09145525 -0.10191462 -0.093427725 0.05706853 0.11026688 -0.024997406 -0.018717892 0.00035211002 -0.02977659 -0.10493218 -0.057237666 0.06477292 0.0019800684 0.05912641 0.005166804 0.061563067 0.042472553 0.12238283 0.024077274 -0.049429294 -0.11800375 -0.12341671 0.00811292 0.015456792 -0.068314545 0.011876643 0.04708168 0.026361087 0.07297614 -0.10038752 0.03641927 -0.026105115 -0.11525482 0.121432416 0.10707024 -0.050011877 -0.010790285 -0.05374917 0.06443386 0.041326873 -0.11649872 -0.013443403 0.0009549933 0.11792123 0.11513263 0.064066224 -0.09478993 0.09392309 -0.0011023323 0.03708618 -0.12136167 0.023666797 0.121027544 -0.025236133 -0.01495021 0.044016156 -0.08719351 0.0149764875 -0.111946836 -0.07873549 -0.10009838 0.114485934 -0.0841265 -0.006754843 0.00055876427 -0.007872289 0.12724742 0.043615162 -0.062250428 -0.01307015 -0.0073572095 -0.03573291 0.0702482 0.023820352 0.056353204 0.0046052113 -0.052998535 0.055336833 0.009458861 -0.060946077 0.12845498 0.050259784 -0.08749032 -0.074709035 -0.10621414 -0.03868357 0.022979291 0.016333392 0.0042895153 0.057227 0.10974682 0.110605136 -0.010271349 -0.08299504 0.102503054 0.03333273 0.05055083 0.09500599 0.061038554 -0.11131284 -0.057247348 -0.11887653 -0.021917887 0.0660115 -0.023757717 0.12049205 0.05462451 0.011228037 0.011181296 -0.046623483 0.038059056 0.12289882 0.07917596 -0.103821084 0.1045761 -0.078094624 -0.03555405 -0.09339065 0.10275611 0.00072735065 0.09409812 0.009568059 0.036550153 -0.04810053 0.0066682976 -0.008284485 -0.035788216 -0.08900266 -0.11704736 -0.08881679 -0.021550182 0.0078163 -0.08254006 0.094650075 0.08974271 0.03282205 -0.0670346 0.009685292 0.0041245474 0.053421773 -0.10367818 0.054265007 -0.030674288 -0.017058168 0.05735496 -0.0006697209 -0.078273356 -0.0009138179 0.07340376 -0.043907866 0.12599836 -0.09984902 0.118502535 -0.11565385 -0.017678173 -0.07149972 -0.026341101 0.047360756 0.05582158 -0.00494257 0.12208621 0.12531221 0.06964022 -0.006620569 -0.10903206 -0.008697535 -0.030177029 -0.08501315 -0.0184001 -0.04974197
با -0.10439939 0.05796283 -0.10124733 -0.102747746 -0.036080416 -0.049582038 0.005922358 0.021597762 0.034972418 -0.04090864 -0.11448217 0.035451457 -0.08797636 -0.0714567 0.09998715 0.02086428 -0.07526692 -0.03428218 -0.04315824 0.020680998 -0.11191549 -0.07236998 -0.08656115 -0.014002705 0.06719273 0.04504772 0.09925309 -0.096523196 -0.009167347 -0.084566414 -0.078278355 -0.10116799 0.08352402 -0.100684725 -0.105062164 -0.096137844 0.04450697 0.06843196 0.02086701 -0.059418898 0.09750452 -0.10696379 -0.03249086 0.0040919445 0.04574449 0.052769583 -0.03795534 0.025964748 0.06470024 -0.11105032 -0.038386457 -0.10632498 -0.062224586 -0.013431499 0.03215687 0.060642064 0.047848642 -0.096870854 0.066426165 0.109156184 0.029657414 0.07100421 -0.11293215 -0.003096531 -0.014846624 0.11384223 -0.05342139 0.104824625 0.08611439 0.024474565 0.07609609 0.030718518 -0.017750222 -0.08318026 0.052723933 -0.0047197575 0.04528932 -0.043487877 0.050302185 -0.048401184 -0.061691787 -0.015663397 0.045621928 0.08255309 0.08542666 -0.0062365583 -0.056970436 0.036445003 -0.03067263 0.117000304 0.008722608 0.009407979 0.10027432 -0.084419735 0.05014652 0.10879833 0.07897985 -0.11468235 0.06917777 0.11540151 0.04695772 0.08687067 -0.068179615 0.05695307 0.03193063 0.08818132 -0.07759191 0.06363696 -0.013301646 -0.060829654 0.025545152 0.00034734837 0.017104821 0.08765088 0.045955267 0.09913433 -0.023115322 -0.030601874 0.07047876 0.09701119 0.10857755 -0.032663975 0.090875566 -0.08920147 0.07160373 -0.04940333 0.10710618 -0.12253601 -0.07931281 -0.016649887 0.048100095 -0.0035753278 0.031754583 -0.06872257 0.07880864 0.11333452 0.07288862 -0.089972004 -0.09400145 -0.005460511 -0.045487378 -0.08328992 0.0365839 0.11039046 0.018297227 0.09831429 -0.0047515472 0.075161375 0.11324303 -0.103530005 0.03594706 0.06184667 -0.012755921 -0.074964985 0.112506956 -0.05644755 0.03673002 -0.041401036 0.05637081 0.09932186 0.10656079 0.04437913 -0.005648233 0.09818349 -0.07030283 0.02515577 -0.088439584 -0.11648263 0.08227573 0.018159034 0.118725926 -0.01637478 0.055735193 -0.06779055 0.010326683 0.10926837 0.057348695 -0.06368822 -0.11942919 0.024117246 0.11318144 -0.11347382 0.02517252 -0.10418393 0.050190356 0.05629703 -0.095413126 -0.0069177304 0.008553726 -0.047904745 0.044707038 -0.02660517 0.039922047 -0.053112093 -0.0075334753 -0.11466647 0.05759223 -0.0724956 0.08020932 0.040002584
دروغ -0.0025475258 0.07512429 -0.061126526 -0.013613999 -0.038408168 0.115258895 -0.062418126 0.07307798 0.025398172 0.08176786 -0.046854857 -0.008797149 0.0026343036 -0.0852529 0.04293699 -0.1187252 -0.008722779 -0.04018758 0.07643337 -0.0122234635 0.1166779 -9.027175e-06 -0.12792872 -0.07872407 0.007572982 0.08382772 0.12519613 -0.013005382 0.050809335 0.09677207 0.028752606 0.09996994 -0.08281892 -0.08285624 0.018750023 0.10394933 -0.10155096 0.0012882334 0.065815754 -0.062706396 0.065366745 0.070828825 0.12701525 0.020144783 0.06879081 0.038840193 0.13334772 0.015798932 -0.066477776 -0.07121757 -0.030812511 0.07208218 0.080447234 0.07543387 -0.09430969 -0.0031378288 0.08349441 -0.099408604 -0.073875055 0.07042658 0.06483912 0.0010009573 -0.013145127 0.12894148 -0.018492611 0.044848002 -0.100523956 -0.02924151 0.0345412 0.0060497527 0.045213558 -0.023298416 -0.09187742 -0.12745646 0.021368204 -0.016662894 0.031641018 -0.08235318 0.11789363 -0.1051219 -0.05181807 0.00033438558 0.11060905 0.059360426 -0.0625641 -0.062467854 -0.12273291 -0.05399137 -0.094570786 0.055285405 0.057634015 -0.084189855 0.058703873 -0.033873454 0.022206493 -0.08092729 -0.023478387 0.08284975 -0.04963688 0.10305427 0.108022556 0.08192984 -0.061766118 -0.10053973 -0.02292283 -0.115956575 0.10904505 -0.034879778 0.065933846 0.005978259 -0.032118164 -0.04687696 0.020185772 -0.036850512 -0.059363216 0.12038806 0.04020032 0.030344013 -0.09928666 0.028660359 0.045283034 0.055624515 0.03426478 0.090491556 -0.03613948 -0.035809655 -0.0023471003 -0.0032058428 0.106426425 -0.013683368 0.067319915 0.006308222 -0.032015543 0.005944416 -0.025531247 0.093924314 -0.064627744 0.082446404 0.075393915 -0.029949602 0.03694531 0.06094628 0.051116508 -0.026777355 -0.052095022 0.033723142 -0.09891354 0.12387536 -0.053671807 0.0022302207 0.0710808 -0.043341827 0.06412566 0.117693275 0.05303308 0.031112354 0.09229832 0.008709298 0.07535303 -0.0016071562 -0.10627211 0.118355006 -0.05538019 -0.062251348 -0.014224491 0.102412604 -0.08498578 0.07036949 -0.028279327 0.064734094 0.0736196 -0.047681462 0.12161286 0.012689844 0.0023718758 -0.10768045 -0.036948133 -0.11448291 0.026246479 0.060100336 0.11856938 0.10103226 -0.047667198 -0.05669897 0.009223092 -0.1080039 -0.04770618 0.060827047 0.052631304 0.10490236 -0.1131245 0.00396008 -0.054204114 0.099285096 0.0480711 0.03804212 0.108684674 -0.10325512 -0.0960716 -0.1072804
تحقیقات 0.12803157 -0.04328839 0.06888919 0.015769813 -0.017613916 -0.0053733177 -0.055084422 -0.01825653 -0.005512577 0.10165384 -0.046564214 0.0527758 0.11978465 -0.10622034 -0.010963182 0.11488715 -0.057164524 0.0037924403 -0.10327437 0.06757479 0.03452464 -0.055523492 -0.08660571 0.042338934 0.047180384 -0.019233812 0.02463513 0.11408476 -0.050952785 0.035143055 -0.11817284 0.11367405 -0.11513108 -0.12978157 -0.050471965 0.036199007 -0.050776616 -0.095318474 0.070379704 0.080815464 -0.04265352 -0.1234858 0.100645125 0.078670524 -0.012191089 0.025690109 0.0062591103 -0.012255934 -0.060136635 0.011575998 0.069732875 -0.11564821 0.10478328 -0.1147353 -0.07820196 -0.020812148 -0.019331688 -0.05451477 0.0014836167 0.10688476 0.04537318 -0.03590418 0.081822105 -0.080960564 0.12856732 -0.094197646 0.11663232 0.03469357 0.012415555 0.10040863 -0.027098713 0.07855509 0.02311863 0.01758412 0.12373785 -0.012859747 0.07901228 -0.06200626 0.039381005 -0.10254498 -0.013135771 0.010759586 -0.05431165 -0.03717058 -0.017315371 0.053035416 -0.061595913 -0.10537626 -0.0069010365 -0.051997054 0.11028594 -0.10268181 -0.03613024 -0.0019332416 0.009095815 -0.10578586 -0.050491665 0.048447393 -0.04914619 0.07830615 0.0152195245 -0.06679864 0.12446199 -0.12017632 -0.045002013 -0.043151416 0.031349577 0.011956672 -0.12463444 0.053764 -0.06454586 -0.009611599 -0.04502042 -0.01883479 0.08676525 -0.087790675 -0.08983991 -0.07412576 -0.05049449 0.017310102 0.06074426 0.08451721 0.011897422 -0.020889238 -0.08295362 0.13230516 0.0776011 -0.03825348 0.0037037227 0.11746379 0.11570024 -0.08489148 0.075806916 0.03720269 0.05712346 -0.021641592 -0.06381418 -0.068137266 0.087349765 -0.060694203 0.07874353 0.10911072 0.11605477 0.08805958 -0.024435509 0.04048217 0.0627289 -0.00026004744 -0.016187118 0.02481157 0.079856664 -0.13566147 0.046048325 0.106238164 -0.079376265 0.020730646 0.013690086 0.06438436 0.056801286 0.066460915 0.013070496 0.024386326 0.086669266 -0.09076475 0.06860369 0.08944199 -0.08627144 0.08322504 0.08627392 0.029411826 0.11980739 0.09316503 -0.03174831 -0.039426714 0.045938287 0.11746679 -0.0449001 -0.13544233 0.05565948 -0.031591162 -0.027801884 -0.1057082 0.012637446 0.11016178 0.002970113 -0.012337016 0.035421405 -0.0056462185 0.04263805 -0.08288033 -0.06460169 -0.04304521 0.049703456 -0.099052094 0.07957118 -0.03288953 0.038462233 0.06269244 0.051920928 -0.00019622737
شناسایی -0.08209351 -0.09936244 0.077466175 -0.010719342 -0.076154664 -0.00092663825 -0.012579555 0.03895723 -0.03787195 -0.04477728 0.008217568 -0.09093319 0.09797401 0.10694965 0.104801685 -0.023461564 0.0742547 0.06652443 -0.019555625 -0.08991994 -0.00974324 0.034188636 -0.017831074 0.112400904 -0.020372137 -0.010570405 0.021954685 -0.0043382347 -0.072494924 -0.103433765 -0.06326691 0.0351097 -0.07010175 0.02718668 -0.046706144 0.11429009 -0.105254725 -0.00016649495 0.003982629 -0.011000322 0.038196743 -0.11816064 0.11479609 0.011249615 0.10366375 -0.09947208 0.09196855 0.10972247 0.057952277 0.07414178 0.08681356 -0.07968177 0.005777977 0.03177392 0.062821224 -0.048247445 -0.10004602 -0.092310145 -0.10497378 -0.10782111 0.006229926 -0.057995263 -0.039006792 0.09679073 0.034443293 0.114689976 -0.051188845 0.041068234 -0.08546065 -0.027308846 0.057059675 -0.016205546 -0.117814146 0.08355926 0.07426644 -0.028397914 0.013168375 -0.095850475 0.051083468 -0.10636156 -0.04003085 -0.042864084 -0.04208295 0.032617424 0.10803336 -0.10839538 0.09018633 -0.014773847 0.055504628 -0.104986124 0.09458708 0.081024595 -0.07805959 0.05609178 -0.00818965 -0.075418256 0.10332832 0.10278838 0.06383605 0.11162543 0.031019157 -0.08865748 0.034024447 -0.07656743 0.090069965 -0.045127254 -0.10393534 -0.08433194 0.08599336 0.06551494 -0.09728995 0.039200492 -0.109479815 -0.05491639 -0.05491203 0.050989825 0.11106267 0.058782287 -0.08941932 0.013265768 -0.100805 0.09352561 -0.10321522 0.11165658 -0.0071745906 0.018458404 0.06761909 -0.08890247 -0.085537635 -0.048464622 0.0723335 -0.077658795 -0.093285315 0.0047326325 -0.09587236 -0.10227685 0.044921435 0.0013350417 0.023140972 0.1029947 -0.035253398 -0.10954972 -0.041077174 -0.01584044 -0.047558878 -0.049139876 -0.0051834914 -0.09188563 -0.07705188 0.009499025 0.08166929 0.11150435 0.024052067 0.0005799882 0.1014917 0.090388015 0.07412005 -0.05414032 -0.04434699 0.012653522 -0.09043192 0.05060521 0.102287434 -0.009887427 -0.02198669 -0.09958024 -0.082393266 -0.014765995 -0.09727965 0.024337819 -0.10925622 -0.020167014 0.013710753 -0.021022607 0.047445063 -0.0615532 -0.008460404 -0.074302696 -0.07888397 0.012703991 -0.027821956 -0.01058139 -0.08691844 0.04363633 0.02281848 0.09386144 -0.030107995 0.10010545 0.060683675 -0.08205325 -0.006959152 -0.08662705 -0.065223575 0.079855554 -0.10491114 -0.008615872 0.048556037 -0.02974803 -0.09188825 0.093116425
عنوان 0.07926623 0.028529838 0.107419506 -0.048254114 -0.007699668 -0.061775133 0.07026137 0.06304098 0.082341634 -0.036527783 -0.061464623 -0.06161437 -0.06522508 0.09710943 -0.10222797 -0.07943576 -0.02587128 -0.10248368 0.027143812 0.10362525 -0.04717836 0.07303241 -0.066716835 -0.001082532 0.012029246 -0.08706374 0.08634418 0.06892674 0.09780466 0.033842776 0.025271017 -0.07541804 -0.024307998 0.10922311 -0.09659278 0.037024435 0.07472026 -0.08138731 -0.09788637 -0.08619203 -0.07461555 0.009356219 0.048745554 0.09188659 -0.041975338 0.016264703 0.059624825 0.04141449 0.077728964 -0.066487454 -0.005975708 0.03643737 0.05611072 0.04630457 -0.0926975 0.030716924 0.06789718 -0.0594239 -0.010065359 0.06993456 0.052344464 -0.036842845 0.102773994 -0.05890723 0.03599056 -0.07530057 0.023785818 -0.069907345 -0.10474993 -0.006982857 -0.060669653 0.04592591 -0.040413193 -0.060593873 -0.09528101 0.06416846 -0.00795127 0.0304223 0.0747363 -0.063126095 0.027395133 -0.11249213 -0.09424782 0.113770306 0.038941555 -0.102891676 -0.091726854 0.09688306 -0.11420901 -0.110971294 -0.071016 -0.116069295 0.034869485 0.1128557 0.07913981 0.12234249 -0.01486496 -0.11415084 -0.007900589 0.09750043 -0.022263 0.0737385 0.10878458 0.08243063 0.014075581 -0.06558535 -0.0075055654 -0.022251947 0.08603371 0.1020233 -0.06034138 0.098498486 -0.080707766 0.10342409 -0.10723964 0.113814704 0.09442648 0.0041276477 -0.06496967 -0.018822871 0.10714112 0.07764879 -0.08182304 0.09418285 0.06360294 0.11531582 0.04697836 0.05988821 0.06680262 0.055532094 0.09263127 -0.103121646 0.094095185 -0.014806083 0.0692918 -0.11239553 -0.036302164 -0.03685895 -0.06615001 0.077816084 -0.031258855 -0.0278481 -0.046089437 -0.11083912 0.034382716 0.06878583 -0.059719764 -0.095567405 -0.032402404 0.04425377 -0.084286086 0.05845713 0.058805116 -0.10183168 -0.10622337 0.009614534 -0.1080447 -0.04918804 -0.06517724 0.026709115 -0.030281655 0.002263941 -0.06259181 -0.0145257935 0.09457513 -0.11335152 0.04900822 -0.023881422 0.0023971586 0.04216212 -0.05233243 -0.042583294 0.099268235 0.029896375 -0.02869761 0.07798121 0.06638367 -0.06284107 -0.056106444 0.021722168 0.08592689 -0.08565332 -0.064601675 0.06953505 -0.05255832 0.107224315 0.047761925 -0.029156676 0.023631716 0.011115639 0.047031306 0.047371194 -0.11008201 -0.048078537 -0.06412774 0.06641676 0.039452836 -0.08207641 -0.08648478 0.08489057
هر -0.005396082 0.11365707 -0.043038256 -0.057241272 0.040713288 -0.08434249 -0.10049163 0.028580662 -0.11924791 0.08254189 0.07746537 0.104726486 -0.111507505 0.057158668 0.038835905 0.037614264 -0.009175569 -0.019276481 -0.11011519 -0.04157368 -0.11073837 0.03467467 -0.10140215 -0.0992922 0.06728381 -0.047790032 -0.038056854 0.045138925 -0.00067920546 -0.03162457 0.10202354 0.024097657 -0.043071404 0.031769246 0.08677372 0.08886577 0.07127427 0.07584518 0.059255697 -0.06106818 -0.040962487 -0.04773048 0.10560284 -0.02083989 0.1107222 0.041831147 -0.07434622 -0.108199075 -0.10656007 0.06084467 -0.044781893 0.008283856 0.023534458 -0.012756653 0.062083255 0.024924722 0.075356156 -0.058134776 -0.05771824 -0.10222744 0.10317436 -0.04572112 0.06171944 0.090227075 0.039703872 0.10549529 -0.12020954 -0.0033981325 0.0009945785 0.028314862 0.08662757 0.061530538 -0.013695452 0.06869272 -0.06016797 -0.11107703 -0.09921256 -0.075559855 -0.039475217 0.08620414 0.024669595 0.055164434 0.088458635 0.093774475 0.10782336 -0.085871436 -0.056733064 0.023393044 0.07119869 0.051117234 0.066442 -0.013256854 0.019984262 -0.009642974 0.07095062 0.08273299 -0.013883053 -0.041897822 -0.106271625 0.069318965 0.09935609 -0.09131265 -0.019909082 -0.061475925 -0.06500576 -0.115995355 -0.11552677 0.11561546 -0.00451985 0.09896678 0.03637063 0.081038915 -0.0013796588 -0.0026358438 0.00834886 0.113436386 0.101381615 0.09316435 0.11101657 -0.050191905 0.1099402 -0.053560458 0.041496765 -0.033453148 -0.054894857 -0.025777528 -0.09869556 -0.106770426 -0.0039490964 -0.024158554 -0.019274374 -0.008180343 -0.027667852 0.0841671 -0.078240804 0.079257086 0.08690483 -0.035960056 -0.009360301 -0.046593897 -0.07238176 0.0047756117 -0.10437504 0.014094866 0.0019403438 0.08777116 -0.038280644 0.09731695 -0.016209813 -0.07507513 -0.020216955 0.03868653 -0.006490683 0.088541664 0.08827189 -0.06356515 -0.09119961 0.06983532 -0.07912453 -0.11041701 0.10045857 -0.08642941 0.09698211 0.10421693 -0.1084055 -0.040213116 0.045072403 0.11143997 -0.020632688 0.037227355 0.016745435 0.054113198 -0.08444679 -0.08855093 -0.07378147 0.09266416 -0.04994679 -0.031239778 0.0064263805 0.04034746 -0.088191494 0.11790718 -0.09607302 -0.032677375 0.12587613 -0.08803344 -0.0026331942 -0.074591875 0.0578158 -0.08300965 -0.03211385 0.07165534 -0.020965077 -0.11771749 -0.0018694429 -0.0047380044 -0.0014826632 0.10454814 0.062432386 0.010152186
بر -0.11378074 0.03152663 0.045043193 -0.032306 -0.0132664405 -0.0056969714 0.112242766 -0.0011026468 -0.0044075153 -0.083933346 -0.06337155 -0.0036806893 0.016592082 0.015704004 -0.07194153 0.039916217 -0.065596 0.061199166 0.036183786 -0.08019279 -0.009470615 0.07258182 0.088491246 -0.107278675 -0.08793344 0.11351693 0.017459277 -0.10812843 -0.064694636 -0.111720376 0.06569703 -0.015775673 0.021254024 -0.05360381 0.08672434 0.09173952 -0.06978152 0.0039001715 0.06718594 0.082664005 0.08504994 -0.021451816 0.08636867 -0.06346238 -0.0970698 -0.099852815 0.000690246 -0.029735306 -0.1115232 0.077463485 0.07151239 0.0020877752 -0.082706265 0.10148127 0.067166805 -0.05045569 0.082901984 -0.09970767 -0.11609378 0.046715975 0.028053943 0.01142042 -0.04200457 -0.04214055 0.000374095 0.116276085 0.08476151 -0.03194369 -0.02034693 -0.09557372 -0.07098033 0.051286615 0.050193623 -0.0027312664 -0.09792694 0.03648714 0.08264754 -0.049024373 -0.05219542 0.07239643 -0.028695267 -0.08155897 -0.087842874 -0.1083678 0.02109025 0.044547826 -0.0689624 0.05423778 -0.062602185 0.105128184 -0.03011822 -0.11532431 0.047861733 0.038692597 -0.08685627 0.11780461 -0.033291142 0.054021396 -0.07777511 -0.114819415 -0.057869785 -0.08060604 -0.09173329 0.10706485 0.0731963 0.044813048 -0.02638091 -0.10737665 0.11124483 0.1121318 0.059912268 0.1153721 0.10150819 -0.05343161 0.017518803 -0.094195865 0.013773979 -0.005419582 0.109184094 0.0857803 -0.07041606 -0.014445579 0.00982228 -0.011212269 -0.07872591 0.033539344 0.07874985 -0.011545369 0.076473825 -0.1089827 0.10142149 -0.05423574 0.039867636 0.011879245 -0.08625437 0.004039087 -0.11200859 0.06743629 0.08303585 -0.04218045 0.101498924 -0.08428965 -0.034030095 -0.013291361 -0.06114531 -0.0076224767 0.06680526 0.03648238 0.07226606 0.080887504 0.007913546 0.055470627 0.062294733 0.027561847 0.109760426 -0.028699517 -0.057769 0.10963363 0.086195275 0.017407708 0.039835654 0.07055326 -0.05575298 0.060419444 0.032887332 -0.09848376 0.030804016 0.033987973 0.026983766 -0.026537167 -0.07728265 -0.058157466 0.018856436 -0.09713378 0.05840323 0.11610144 0.07212213 -0.089205205 -0.09072661 -0.071566544 0.042278145 0.001988038 -0.052734777 0.11825886 -0.041338515 -0.08439785 0.01950229 0.07322763 -0.024883943 -0.105162345 0.111181274 0.043543506 -0.124579884 -0.09112691 -0.1143806 0.09025001 -0.08506981 -0.075119376 0.06581686 0.01457155
مطالعات 0.11851902 0.07238929 0.047791988 -0.021796875 0.04556594 0.021612262 -0.03699911 -0.041224778 0.068733566 0.09634961 0.11228277 0.083890766 0.013428749 -0.017732069 -0.1023176 -0.025646351 -0.024076713 0.0064312126 -0.045119323 -0.06341598 0.0780339 0.015952986 -0.107858546 -0.072672695 -0.06480046 0.070852205 0.05378868 -0.09802518 -0.09692028 -0.0315003 0.0298853 -0.10736954 0.00816961 0.10844654 0.04831664 -0.020317616 0.10507106 -0.009231681 -0.08200482 0.00877435 -0.1025482 -0.09859552 0.087121636 -0.02478404 0.015699841 0.10849741 -0.08465912 -0.06714027 -0.030170117 -0.027095329 -0.025671959 -0.09287226 0.095832296 -0.042649552 -0.013573969 0.09989091 -0.08666084 -0.11551387 0.004651576 -0.0946095 0.030145025 -0.0040955204 0.08464047 0.03277752 -0.08206486 0.032562606 0.046777893 -0.0708727 -0.06989212 -0.05696051 -0.032828163 -0.11164423 -0.10192696 0.084646694 -0.058432978 -0.08561875 0.101630606 -0.03780711 0.06287641 0.09235461 -0.11301603 0.045497064 -0.10669189 -0.09567967 -0.02327723 0.036562204 -0.04939397 -0.09160326 -0.05848124 0.011121949 -0.0018500428 -0.02900838 -0.026886504 0.007978459 -0.017211158 0.08263852 0.08344847 0.06325853 -0.08679937 -0.05119039 -0.009707644 0.07081081 0.010105314 -0.008745855 0.021023916 0.026725985 -0.009628911 0.049992893 -0.11726784 -0.07959728 -0.052766595 0.02679196 -0.014528568 0.036557022 -0.0065945038 -0.0027178247 0.06747317 0.09812112 -0.0853781 -0.10296443 0.004247771 0.06338117 0.018151533 -0.09897045 0.04568555 0.035336632 0.00694919 -0.047716334 -0.039531022 0.10996865 0.03346892 -0.04614355 -0.11660767 0.07233032 -0.10805812 -0.034009207 -0.072615705 -0.0035329256 -0.07519951 -0.10739546 0.1080861 0.108570695 0.08282581 0.031762205 -0.033265755 0.07765674 0.1016476 0.039882198 0.07968872 -0.10668124 0.044064976 0.043919045 0.05410157 0.0940695 -0.014034557 -0.11607081 0.07139481 0.09253195 0.071786284 0.10167014 -0.08685608 0.034198683 -0.08437259 0.02999883 -0.11551895 -0.07094213 0.02830324 0.09475249 -0.11260858 -0.062271003 -0.068100855 -0.032860637 -0.03671268 0.033536002 -0.028094243 0.09423782 0.07953371 0.098113626 0.11253997 -0.09570262 0.040912006 0.071891226 0.0019240215 0.032647785 0.07980325 0.07084296 -0.11145366 -0.095856525 0.10094781 -0.011757127 0.09582823 0.034386225 -0.11400522 0.08513642 -0.076831676 -0.111066274 -0.10270336 0.07044626 -0.09858087 0.0010907723
تشخیص -0.038073678 -0.09243436 0.055367824 -0.046922468 -0.09253994 -0.10000458 0.051708873 0.0977257 -0.008905057 -0.060747314 -0.07942472 0.09630069 0.019868786 0.09245815 -0.02086967 0.06776651 -0.002189676 -0.003162076 -0.08528187 -0.114373095 -0.021161908 -0.056127105 -0.12047058 -0.048671722 0.114657804 -0.009233958 -0.066200964 0.086875424 0.09397805 0.10309623 0.049938735 0.0011225379 0.009979285 0.014122346 -0.121629745 -0.06637292 0.11189199 -0.096068785 -0.115233585 0.11867688 0.04827728 -0.12418033 0.010949072 0.12314062 -0.068646826 0.0682682 0.08105979 0.11481463 0.09586504 0.06594391 0.06470008 0.021479882 -0.051098663 0.04040457 -0.11913071 -0.062855124 0.094858035 0.064806655 0.038351335 -0.046796966 -0.11863402 -0.09957612 0.061918814 -0.00020512576 -0.03844485 -0.071071684 0.09362857 -0.083180256 0.083612494 0.01571376 -0.026648572 0.10319003 -0.04442833 -0.037360847 -0.090243086 0.047063656 0.07184886 0.00590325 0.060501028 0.10159666 -0.08200263 0.050929885 0.032919757 0.04492447 0.0776634 -0.10180645 -0.05365281 -0.006214829 0.008957706 -0.024421215 -0.0060214708 -0.022464123 -0.096360736 0.0027426549 -0.11454684 -0.03502106 -0.093877226 -0.040690407 -0.041283097 -0.028195653 -0.010981674 -0.075663075 0.040251315 -0.0047404463 -0.076803364 -0.0076853842 0.07940242 0.013429499 -0.095813 0.12089569 0.115766175 -0.10922332 0.10697054 0.10722084 -0.109641954 0.0076154363 0.08877432 0.019647589 -0.011666847 -0.042022947 -0.028384402 -0.017343188 -0.12294152 -0.039559852 0.11021938 0.006166333 0.090138294 -0.008102649 -0.110929996 0.058626387 0.00395487 0.096925534 -0.08155373 -0.08900429 0.00802326 -0.0010059044 -0.03944773 0.045310453 0.09829701 -0.062901214 0.036570314 -0.02844287 0.013964487 0.03777111 0.059928592 0.039005663 -0.1164307 -0.009209584 0.09858653 -0.0017972902 0.037976872 0.10806478 -0.09330808 -0.03279352 0.012700831 -0.01574472 0.08185104 0.02611869 0.039440338 -0.0027256731 -0.10471172 -0.064744234 0.0042004017 -0.10510049 -0.064862765 0.091871105 0.01711033 -0.012718705 0.10614731 0.11889968 0.019748192 -0.06440736 0.12444065 -0.019484693 0.01647058 0.028846405 -0.02466933 0.10696769 -0.0038180344 0.06153912 -0.09263567 0.094241254 -0.07898612 -0.048065625 -0.0145721715 -0.0745092 0.054017004 -0.05847264 0.07955269 -0.049791582 0.071476296 0.06569751 -0.058048517 0.060160022 0.11443447 -0.060220122 -0.0015730999 0.061966732 -0.016703466 -0.11474195
تغییر -0.012594561 0.032442342 0.08827026 -0.026112268 0.03831679 -0.023855325 -0.038823016 -0.005075099 -0.12336571 -0.06781502 -0.1037611 0.038159892 0.06461703 0.0943529 0.08844804 0.1080351 0.11298104 0.08926714 0.10129011 0.052039552 -0.07691351 0.005661602 -0.0572379 -0.03959854 0.00936536 -0.023815604 0.0033404764 0.00944603 0.08758191 0.0054689217 -0.02598015 -0.0024702167 0.04654588 -0.018672574 -0.06104727 -0.09827967 0.059678406 0.06867112 0.080037214 -0.11219692 -0.11909122 0.049695358 0.10617174 0.007831466 -0.08879811 0.038130887 -0.021291155 0.10809627 -0.116625644 -0.094224826 0.012353721 -0.042603247 0.048216585 0.085672446 -0.07940132 0.101881616 -0.06294425 0.00044717273 -0.124928996 -0.07466497 0.074645825 0.10889511 -0.102118246 0.09444485 -0.024629377 0.103456296 -0.12384181 -0.025321184 0.013559933 0.059399635 0.046075057 -0.0474086 0.010303884 -0.09118321 0.016116561 -0.038844068 -0.0075994 0.0619395 0.047621086 0.11088249 -0.021509634 0.110813685 0.07813113 0.049503744 0.024494639 -0.016403876 -0.03050146 0.025921267 0.06679782 0.07753366 0.026901826 0.0882748 0.07672027 0.031285755 0.11571207 -0.019317772 -0.081790194 -0.10080218 -0.106301084 -0.025098741 -0.03196548 0.049990173 -0.055808324 0.009877732 -0.110576406 0.10905503 0.036753196 0.031450227 0.00796414 0.07964134 0.07827574 0.10033755 0.0029942547 -0.03022026 -0.05909906 0.027252896 -0.062003136 0.09556881 -0.030716958 0.028016279 -0.10131443 0.09394562 0.050499383 -0.03969968 0.0927163 -0.028445829 -0.014451937 0.089107856 -0.014868758 -0.035150774 0.05632862 0.09919488 -0.10077472 -0.07099168 -0.091700554 -0.045779493 0.12222623 -0.069440454 0.0954216 0.042478096 -0.052160397 -0.07098121 -0.0019186378 -0.09072788 -0.10273591 0.05081356 -0.058509156 -0.027179271 -0.061165664 -0.004072606 -0.06276669 -0.06753063 -0.08696971 0.07600649 -0.024498513 -0.07770969 -0.11423057 -0.11867002 0.006083546 -0.120295465 0.11580997 0.04935181 0.11589035 -0.08756052 0.07235695 -0.104871124 0.014555238 0.07971498 0.018691067 0.06623682 -0.062316496 0.0038966974 -0.083411805 0.09110874 0.09021795 0.06376217 0.03885074 -0.093466915 0.10160206 0.053710468 -0.08459764 -0.11519899 0.018121548 -0.040981352 0.08476412 0.019714326 0.06853019 0.06429114 0.10163335 -0.040768143 -0.054627724 0.073169 -0.11711294 0.071298115 -0.009193915 0.050954018 -0.037570924 -0.09834843 0.0015987196 -0.038670037
نرم‌افزار 0.105533175 -0.028716011 0.048875824 0.0030831206 0.11447257 0.020222332 0.06148467 0.03433994 0.07306483 0.039405562 -0.06186256 -0.095952705 0.101415664 0.0041847243 -0.051243797 -0.036561597 0.100300685 0.09335359 0.07146558 0.101824 -0.039022453 -0.048580736 -0.058719095 0.039704707 0.026809957 0.061711412 0.09725323 0.06794103 0.07438859 -0.10545091 -0.118196435 -0.032446593 -0.095075294 -0.09878562 -0.02856617 0.10423347 0.08123423 0.042476673 -0.08672127 -0.099330366 0.09385736 0.070007116 -0.11335048 0.026420252 0.07112734 0.050471306 0.12862669 -0.045919888 0.07260474 -0.016295746 0.095875084 -0.100857124 -0.06317833 -0.10074573 0.067895494 0.06285841 -0.05712717 0.07094237 -0.09530616 -0.07255979 -0.030158099 -0.011373358 0.04220663 -0.087022275 -0.026905617 0.0059883483 -0.05402308 -0.11486632 0.049282216 -0.086626105 0.10413314 0.076605394 -0.0781695 0.11799076 0.009676754 -0.064076945 -0.03981536 -0.11566288 -0.019167447 -0.017245352 0.037536338 -0.077223994 -0.101747066 -0.11473379 0.023277981 -0.112165384 -0.08808685 -0.102094576 -0.121677876 0.037224896 0.08230124 -0.03911399 0.017516635 0.09598377 -0.032447428 0.09097206 -0.037092127 0.0264272 -0.08664009 -0.10062968 0.09462371 -0.042987775 0.10921693 0.0056824074 0.089404896 0.118089564 0.1178307 -0.0048186053 0.06777499 0.12172894 0.02773661 -0.030941145 -0.09095283 -0.033838693 0.021129834 0.12465268 -0.08519486 -0.031871855 0.032065146 0.015094332 -0.11826911 -0.10771519 -0.10254058 0.01185658 -0.07038035 -0.007682442 0.061288156 -0.042360976 -0.008376723 0.0635427 -0.0134028355 -0.053914588 -0.0026110967 0.017354472 -0.094558656 0.11411831 -0.07315792 0.06101914 0.008436926 -0.0894412 -0.018493073 -0.027134774 -0.08680754 -0.023921004 -0.06553582 -0.029617345 0.02443996 -0.0034415845 0.0455191 -0.039374653 -0.060448643 0.019199438 0.02860896 -0.08920823 -0.023660786 0.0122491345 -0.10487972 0.06368325 -0.09352059 -0.05575651 -0.006813293 -0.064542376 0.032258984 -0.05778958 -0.0074108345 0.06386657 0.0896673 0.030919058 0.08400895 0.07332051 0.068867415 -0.020346474 0.08970714 0.0972026 -0.013230656 -0.10455646 0.045925338 0.019610018 -0.055985 -0.051332332 0.036028832 0.007997017 -0.00806983 0.014761369 -0.044352535 -0.06671115 0.021351311 -0.049885802 0.08867661 -0.022626333 -0.101898596 0.02100572 0.049725812 0.1191496 0.09929617 0.09306218 -0.11120298 -0.056577735 -0.09797115 0.08150924
كند -0.057117492 0.01625724 -0.10681646 -0.0045923227 0.0032401143 0.06698781 -0.048500285 -0.09229908 -0.08533619 -0.06408807 0.0035808082 0.042478204 -0.110455565 0.07501696 -0.0618542 0.12011016 -0.1120277 0.06156351 -0.08065639 -0.06673248 -0.029072564 -0.1145692 -0.11980678 0.028884087 0.11215705 -0.07762694 0.023876201 0.023224954 -0.007899276 -0.07340167 0.048697963 0.050392296 -0.027846858 0.08905686 -0.060375724 -0.014556131 -0.098662764 0.04216663 0.0303503 -0.11284328 -0.04610738 -0.016001383 -0.06393943 0.058315847 -0.085010305 0.09954061 -0.064241774 -0.009484123 0.042388372 0.002149292 -0.10754715 0.11300957 0.02359439 0.098627 0.046863325 -0.100487486 -0.10712014 -0.040906027 0.00888048 -0.07280922 -0.050727617 0.015336871 -0.02966577 0.04210232 0.11616761 0.0068207458 0.11243296 -0.018846253 0.09680577 -0.09929389 0.055080924 -0.04736036 0.06698433 -0.045985363 0.019944271 -0.008834658 0.009693221 -0.053209767 0.115885265 -0.035461403 -0.0057624085 0.053337723 -0.011342652 0.10007399 -0.001983735 -0.10449355 0.091195874 -0.11527986 -0.070952594 0.085947685 0.007070152 0.11164555 -0.07177032 0.10997038 0.034295008 0.04782625 0.09423674 -0.03955488 0.117454484 -0.08859224 -0.11067135 0.086075544 -0.06649967 -0.023156684 0.021868022 0.08836327 0.0680977 -0.10785078 0.118147515 -0.08189261 0.10815569 0.057345904 -0.042105503 0.013823607 -0.087382905 0.07819721 0.07768166 -0.048802994 -0.12230741 -0.014737984 -0.0821571 0.02481367 0.06473817 0.095850356 0.1104635 0.03839517 0.01270312 0.1137944 -0.053012833 0.0731318 0.050860304 -0.051010307 -0.054298922 -0.036400568 -0.10462695 -0.059218094 0.01688348 -0.024438906 -0.08060383 -0.07774017 0.06683955 -0.08640705 0.044115577 0.037388828 -0.087691195 -0.040804334 -0.009372464 0.111311205 -0.018649064 -0.10532039 0.10264927 -0.099731185 -0.07347198 0.03501196 -0.11509239 0.06167599 0.045812674 0.083161615 -0.04604855 -0.10572586 0.088613 -0.040635075 -0.047738098 -0.07148394 -0.023605084 0.09522362 0.033426844 -0.061521407 -0.02492126 0.08866315 -0.030758437 -0.1126014 0.0072883014 -0.05573002 0.11285608 0.048885703 -0.03929204 -0.06542895 0.029222053 -0.062947005 -0.05330184 -0.030074742 -0.06620544 -0.020250114 0.07274428 0.028200526 0.05720921 -0.06963965 0.09708126 0.10156527 -0.05680191 -0.08098207 -0.0052935258 0.08804083 -0.025999326 -0.011614109 0.023464564 -0.077014185 0.09788642 0.04019092
انسان -0.010253322 0.07675472 -0.008284 0.062964424 0.069813035 0.10176303 0.013605916 -0.115824096 -0.027995503 0.07009588 -0.046306085 -0.078048 0.052042183 0.10122225 0.006324571 0.051993214 -0.059912335 -0.087981045 -0.012459081 0.1039758 0.023824375 0.06638195 -0.12029485 0.038886048 0.118474655 -0.076991394 -0.07647785 0.019868473 -0.10665853 0.07175742 -0.023351228 0.09404983 -0.08521866 -0.018953802 -0.04453388 0.087982565 0.10921221 0.021389566 -0.01562914 0.04916365 -0.05849276 -0.049454894 0.06826702 -0.1079454 0.10912242 0.005283961 -0.030667203 -0.11357598 0.032262087 -0.03331158 -0.11212966 0.023587499 0.07593145 0.09356289 -0.0919227 0.11389541 0.080264874 0.06856897 -0.059139684 -0.06520371 0.055370376 -0.07414937 0.042786736 -0.038939964 0.090064496 0.067400195 0.018766684 -0.100712284 0.07060473 -0.067930356 -0.11361737 -0.043685015 -0.081689365 -0.07648382 0.06246365 0.11695357 0.009501842 -0.011870397 0.039312925 0.025173396 -0.11630711 -0.0776375 0.03914163 0.028315611 -0.06580114 0.01707648 -0.07221102 0.015328542 0.0038449266 0.054152373 0.10206016 -0.07325788 0.08743052 -0.056873474 0.069712 0.08711651 0.088010944 0.04668138 0.037957758 0.10187025 0.011979684 0.049703564 -0.026006734 -0.07348391 -0.08017708 -0.0997701 -0.04342786 0.03647518 0.106496066 0.06651617 -0.057992347 -0.0439372 0.008581267 0.11233423 -0.097130395 -0.03379894 -0.09278659 -0.10004603 -0.042475436 0.016506094 -0.11480401 -0.10968116 -0.08619354 -0.0070482153 -0.050513204 -0.109087974 0.1078595 -0.07269015 0.038811274 -0.04085895 -0.05614174 -0.016851822 0.10871993 -0.014481509 -0.08368527 0.09684722 0.0645241 -0.027534753 -0.01805925 -0.099318266 -0.03012294 -0.092034005 0.11123836 -0.073324606 0.063553505 0.0968251 0.10394587 -0.014624448 -0.071520515 0.009235695 0.058928642 -0.0010522875 0.035338078 -0.044535484 -0.020628054 0.09209703 0.03361109 0.11414866 0.07639072 0.084438585 0.045260325 -0.078802094 -0.02085276 -0.0826537 -0.107972726 -0.09002771 0.0030803112 -0.07183719 0.06830887 -0.06092076 -0.058409993 -0.02100466 0.005858067 0.01995383 0.09629405 0.042220216 0.121208474 0.096022666 -0.0059344056 -0.111621514 -0.09372968 0.04829363 0.07823682 0.106305845 0.06386918 0.018955227 -0.07273589 -0.024818538 0.0016900637 0.09197354 -0.009244153 -0.019740477 0.028793423 0.08811313 -0.11170958 0.074789606 -0.051480196 -0.09755532 -0.007169398 -0.060208585
یك -0.013724902 0.05517866 -0.06909941 -0.06958604 -0.07424758 0.05116522 -0.04024929 0.030892275 -0.10197645 0.055501893 -0.08451464 0.009294589 -0.021213662 0.033152074 0.008243201 -0.01635218 0.10153977 0.11117264 -0.07258914 -0.02349925 0.019922858 -0.11951798 -0.02888998 -0.07494888 -0.034553673 -0.10282052 -0.10406373 -0.10615718 0.03395889 -0.0753167 0.11914672 0.04130778 0.032288708 -0.122965015 -0.070081785 0.043804906 0.110841155 -0.002744486 0.056409713 0.019695463 0.08798238 0.037122436 0.037542 0.020394476 0.03881839 -0.05166024 0.108434126 0.07198651 0.0441628 -0.054183405 0.015910469 0.10773584 0.04823965 -0.05691935 -0.08248648 0.048851132 -0.07142848 0.03310926 -0.09273869 0.059582237 0.013051363 0.10876313 0.07974927 -0.09896816 -0.04931144 -0.01800057 -0.09410995 -0.1171534 0.016546933 -0.101445325 0.018332917 0.046811815 0.014401883 -0.08199392 0.043151457 0.093415596 0.0029767042 -0.05644943 -0.033155974 -0.10731703 0.08749637 -0.04347857 -0.09397777 0.010964792 0.11082151 -0.08864129 -0.06313024 0.029371364 -0.12328581 -0.042277336 -0.06938382 -0.071373686 -0.053368848 -0.055371083 -0.028964119 0.12187065 0.070911564 -0.015785858 0.08887545 0.059833203 0.10723243 -0.0026729307 0.07648199 0.007010335 -0.072473995 -0.097066075 0.08009438 -0.11661828 -0.084923506 -0.06897753 0.028471034 0.07529724 -0.10505942 0.091471195 0.078620866 -0.022851951 -0.09459754 -0.054251883 -0.105549574 0.0721673 -0.02683599 0.036179014 0.020463953 0.017089397 -0.026888916 -0.06201255 -0.04126198 -0.055431884 0.083094075 0.12087337 0.057431176 0.050638396 -0.02608402 0.09961284 0.12216127 0.103870645 -0.056890514 -0.008014943 -0.048926905 0.056386806 -0.09599199 -0.061649945 -0.025963368 -0.0833413 -0.10347041 -0.10286655 0.04130582 0.016844679 -0.04864065 0.08905028 0.096024044 0.07000762 -0.053463094 -0.02098764 0.011964674 -0.04964755 0.100779414 0.05238884 0.08633109 -0.09974198 0.047298495 -0.031557288 -0.09568525 0.06827442 -0.07602939 -0.11287949 -0.0121860225 0.055667955 -0.020355396 -0.088097155 -0.019556839 0.12812144 -0.060563527 -0.09931512 0.072104506 -0.06081801 -0.012824482 -0.03984194 -0.013185882 0.012244084 -0.048084084 -0.059455916 0.08226918 -0.111553065 -0.071077585 0.056461085 0.010451268 0.047707573 0.092096515 0.1017135 0.009143242 -0.07361912 0.06191671 0.03389525 -0.096136376 0.10861794 0.11200039 0.09045767 0.07908817 -0.05299547
یا 0.09164139 0.08695279 0.07930269 -0.059673805 -0.00018032883 -0.10633479 -0.04427866 0.08357403 -0.11734617 0.045045894 0.050127216 -0.07600968 0.07087988 0.077923544 -0.05882996 -0.07225948 0.11895804 -0.038098007 0.030622644 0.06168308 0.10890619 -0.11835424 -0.12447097 0.119760334 -0.0008294106 0.053231623 0.094975285 0.09505396 0.103824005 0.112712555 -0.016447732 -0.011503219 0.09470332 0.036577135 0.008538169 -0.007882467 -0.095925316 0.114035286 0.019905372 -0.11853076 0.11766814 -0.08498886 -0.111949235 0.06536949 0.05281236 -0.0212077 -0.061421633 0.10463448 0.005420617 -0.04680555 0.06788462 -0.032289807 0.09325608 -0.110368244 -0.084101304 0.07247139 -0.036638528 0.04856046 -0.013072067 0.035388663 0.008407105 -0.03330997 0.09419855 0.019324245 -0.10673854 0.056861773 0.012090711 0.11178654 -0.085214026 0.06181801 -0.0011713963 -0.071993396 0.029608257 -0.0903894 0.07802683 -0.014135319 -0.045312002 -0.017915865 0.018910848 -0.0180336 0.08182856 0.08516662 0.08763601 -0.1099631 -0.003098072 0.030497193 -0.049458403 0.10016694 -0.018504193 -0.009343734 -0.010655532 0.10009646 -0.04888883 -0.020033013 -0.047310863 0.063584305 -0.0144612035 0.041397717 0.077517755 -0.021710197 -0.088232964 -0.06501802 0.0687384 0.09247173 0.10585092 -0.059381146 -0.042356662 0.06937538 -0.011381838 0.02027147 0.058172 -0.07872925 0.10300984 0.10604087 -0.026331339 -0.10505937 0.051209856 -0.051260844 -0.116648965 -0.070731014 -0.1145655 0.0070001287 -0.11631211 -0.02302401 -0.031793334 -0.014001643 -0.019040449 0.01064193 0.102630116 -0.045404464 -0.0040460015 -0.0647107 0.020558264 0.08951547 0.04408369 -0.096176386 -0.10044269 0.100376815 0.11079372 -0.11498118 0.081175946 0.0010714587 -0.110617965 0.015444617 -0.034740362 -0.11597824 -0.042668052 0.0005634837 -0.056739487 -0.03394839 0.098492466 -0.07311321 -0.11447622 -0.09042043 -0.056536175 -0.006211439 -0.027929097 0.06692984 -0.0037981186 0.0279525 0.104378045 -0.066277675 -0.015281564 -0.05607949 -0.019530248 -0.074524716 0.06990684 -0.1015317 0.09480191 0.07175029 -0.10543665 0.020517655 0.024393098 0.08425432 -0.006979436 -0.115159154 0.11563618 -0.003005889 0.11105185 0.02963237 -0.028826652 0.07650762 -0.057180315 -0.048905347 -0.024314871 -0.030475581 -0.111269735 0.050292116 -0.022534411 0.028531587 0.06546357 0.09844548 -0.09408515 0.029605813 0.036079593 -0.037790734 -0.0046155388 -0.049969044 -0.0035549828 -0.09861532
مورد -0.031190334 0.025289524 0.0024667184 0.07595251 0.044661455 0.067205235 0.040892117 0.010437742 -0.10835297 -0.0018521247 0.060917906 0.013606523 0.015045472 -0.050163936 0.064898156 -0.08520177 0.09232172 0.093699865 0.101943545 0.015806206 -0.11475204 0.09184675 -0.10486137 -0.092178136 0.00584131 -0.11094731 0.044255547 -0.052112978 0.07125963 -0.05958135 0.04694354 0.068023756 -0.04702619 0.038375657 -0.09315367 0.07042582 0.099163435 0.096458435 -0.031760663 0.094698675 0.021263357 0.08347117 0.1269017 -0.064619854 -0.11400142 -0.052985422 -0.00412851 0.121587284 -0.085196786 0.031054083 -0.07561528 -0.1078178 -0.04919512 0.066420056 -0.089458905 0.01295739 0.116866894 0.09867702 0.02575568 0.030776927 -0.062043343 -0.06258154 -0.09150903 -0.03096054 0.092879206 -0.020609569 0.002428735 -0.07539472 -0.061577618 -0.10940996 -0.022024563 -0.05812583 -0.07635251 -0.10145691 0.08043152 0.064280406 0.047169223 -0.055287108 -0.040698282 -0.0032210494 0.025467984 -0.006382593 -0.03355024 -0.047720533 0.0165336 -0.111498125 0.102256544 0.09970228 0.019763932 -0.12390622 0.09836776 -0.003260908 -0.09244011 0.10549714 -0.110404894 0.06404322 -0.10462565 -0.11230418 -0.049597945 0.06601096 0.03933339 -0.012322527 0.007882766 -0.020855088 -0.095007904 -0.007698583 -0.0011116578 -0.120662265 0.11243134 0.11307446 0.0726824 0.04608116 -0.1105033 0.037332404 0.044033576 0.100209065 -0.03436936 -0.07303621 0.058850136 0.055668496 0.0556275 -0.028869564 -0.078139074 -0.04326586 0.100098334 0.07609519 0.09027374 -0.047930777 0.018988412 0.05297094 -0.020634945 0.0874127 0.0015455268 0.053905994 0.051157977 0.02869046 -0.017940655 0.03501259 0.057143442 -0.034834754 -0.051010113 -0.053759485 0.07822511 -0.0046725986 0.017508566 0.066253684 -0.063995995 0.081351265 -0.05647368 0.094696574 0.019073412 -0.09537598 0.0074404487 -0.09810301 -0.061877154 -0.033378825 0.010209281 -0.0721672 -0.06443011 -0.100113824 -0.0060381563 4.1750513e-06 0.025799086 0.031875096 -0.09251078 0.113927975 -0.11952036 0.069296025 0.10570371 -0.114007756 -0.02163812 0.12301238 -0.058442485 0.06543413 0.113712065 -0.0927176 -0.0047253855 0.025392046 -0.08355524 0.06468293 -0.1111268 -0.075194545 -0.09521913 -0.05180277 -0.08814825 -0.033999458 0.022690644 0.03721215 0.029692233 -0.08626759 0.07127469 0.090661995 -0.00565101 -0.014215689 0.039875623 0.09641113 -0.08054789 -0.1192086 -0.06401543 0.07323349
موارد -0.004602023 -0.06554244 0.0011582603 0.027954245 0.07412143 0.032833364 -0.05168352 0.071721114 0.1128272 0.051287994 -0.07041786 -0.10096573 -0.05888275 0.109165154 0.11503617 -0.06105263 -0.030705148 -0.05442141 -0.12032679 0.041078035 -0.024474094 -0.07160488 -0.07041898 0.099360764 0.100087784 0.031635016 -0.029139426 -0.02629985 0.05360471 0.03863153 -0.058830507 -0.03669404 -0.052112456 -0.0472763 -0.024397807 0.04516934 -0.0013632827 -0.04770962 0.08176746 -0.05865731 -0.022775512 -0.012785739 0.047835644 0.008715358 0.042933963 -0.10128878 0.110019445 0.115092196 -0.022438489 -0.023165638 0.08538781 -0.08001964 -0.042803384 -0.050147004 0.11805306 0.10359509 0.04403567 0.013679434 -0.024275254 -0.06353765 0.028712511 -0.11818694 -0.006089784 -0.01169516 0.022599678 0.01241982 0.016363569 -0.032622382 0.01738069 0.0060781008 -0.0632754 0.07763988 0.10356207 0.11281506 -0.05391935 0.032175347 0.043045633 -0.037322503 -0.09322315 -0.04783009 0.020199265 0.04938151 -0.028099013 -0.07251881 0.11934671 0.084195346 0.10905891 0.079009004 0.09105419 -0.077711165 -0.0072200233 0.09320148 -0.10881066 0.13104512 -0.08272387 -0.06913323 0.031045083 0.009336763 -0.021377407 0.085518226 -0.017293507 0.07651496 0.13248022 -0.05810151 -0.097590454 0.051582344 -0.11272518 0.069964774 0.03099552 -0.0027080893 0.08493459 0.09145032 -0.10339532 0.12060483 0.05983792 0.06333913 0.06757439 -0.047663644 0.050743036 0.09945392 -0.014709507 -0.034263942 -0.1222103 -0.004502546 0.08332215 0.03674088 -0.023598356 -0.084503785 -0.113455415 -0.095778406 -0.011520766 -0.062235232 0.04917076 -0.11469786 0.053098276 0.11391773 -0.07122796 -0.09189973 -0.033088043 0.0056996415 0.08768335 0.06384633 -0.04061981 -0.097775824 -0.077553235 -0.08266411 0.07097727 -0.032530624 0.029115703 -0.07976632 -0.1086203 -0.08540036 -0.09773518 0.0035076428 0.047432404 -0.080247 -0.09565519 -0.11652822 0.0028956307 0.084391765 0.06394943 -0.09506785 -0.05319732 0.08733945 -0.015944686 0.054013394 0.040804155 0.02497911 -0.11851593 0.02846221 0.07483272 0.00588532 -0.073817216 -0.11929762 -0.084499374 -0.09436502 0.05877268 -0.0066700755 0.03736422 -0.022002857 0.1019809 -0.101991884 0.042516522 0.09142309 -0.014570781 -0.075748324 0.09673916 -0.096621454 0.108584814 0.05840662 0.06909022 -0.06346005 0.05220314 0.011219154 0.08098064 -0.05343867 0.047511216 0.10325725 0.099653706 -0.052964747
شخص 0.0070755477 -0.07166396 0.116524786 0.039605245 0.032970846 -0.06547856 0.06050514 0.07555165 -0.10404926 0.046865128 0.027185952 0.12279668 0.009524746 0.0814188 0.055915195 -0.09354457 0.07785638 0.069765605 0.096197076 0.07223771 0.041463353 -0.032808896 0.008366031 -0.11438327 -0.00019152532 0.06684825 0.05039993 -0.019219263 -0.0033870903 0.012072194 -0.02362587 0.08654271 0.0010868836 0.059595842 -0.049887832 0.03737867 -0.06572394 0.042584743 -0.06416142 -0.10992516 0.0054093357 -0.062415462 0.053854987 -0.052558303 0.05029263 -0.096903056 0.010532563 -0.08326095 -0.021683717 -0.051769376 0.050711233 0.06858249 -0.08654653 0.12294201 0.06041839 0.08359082 -0.011117989 0.058614917 -0.11563172 -0.09980122 -0.054214332 -0.119822465 -0.067214355 -0.006465779 -0.010926643 -0.025260985 -0.06815323 -0.06324013 -0.057115663 0.072905704 -0.03713485 0.028559653 -0.078729786 0.07788828 -0.08381034 0.05833171 -0.019627724 -0.05153312 0.07495052 -0.07035507 0.10632196 0.11827485 0.0740717 -0.0079462845 0.10651123 0.11496934 -0.033993162 -0.10280769 -0.038458776 0.094246306 -0.103954345 0.08602929 -0.1150176 0.08678061 0.124021284 0.048731156 -0.009683519 0.04597035 0.083533235 0.12246591 -0.0651443 0.008973678 0.018099586 0.07245568 -0.05635483 0.06756147 -0.057912577 -0.08875752 -0.006765083 -0.096744835 -0.07159498 -0.1061687 -0.10277237 -0.025519317 -0.040807996 -0.10729868 0.09952713 -0.101288915 -0.08516933 0.08527881 -0.11359371 -0.074018076 0.049479585 0.03972243 -0.072619975 0.00092252163 0.0021419036 0.073894516 0.06980607 0.11820293 -0.03983771 -0.038895313 -0.01653404 -0.06888977 0.010235047 0.09711386 0.08716609 0.079570554 0.0016441301 -0.029132891 0.084337786 -0.056709472 0.05332482 0.09350748 0.11013706 0.09554569 0.090900384 -0.055114366 0.014093627 -0.09177873 0.0135065075 -0.05790448 -0.11627816 -0.12019222 -0.035212055 -0.004987957 0.057732854 0.058972865 0.05656608 0.079614624 -0.047396604 0.0068715774 -0.071864925 0.069498345 0.07303368 -0.09900948 0.04621872 -0.07194087 0.020401537 0.117651954 0.009374909 0.006876954 -0.08218675 -0.119388394 -0.09714847 0.1052015 -0.09202369 0.019742252 -0.014535137 -0.043028966 -0.0065536103 0.009270798 -0.022285024 0.06242392 -0.09631541 0.04115957 -0.030832898 0.06266776 -0.061360803 0.050631624 -0.10142569 0.017478436 -0.08725609 -0.026714783 -0.025824418 -0.025554737 0.11435909 0.09279423 -0.08779128 0.081495784
آن -0.02607572 -0.0017205501 -0.04254109 -0.07034428 0.079970606 -0.09266159 -0.1077841 -0.036639843 -0.08274413 0.09773165 -0.0073812683 -0.024791943 0.10006994 -0.09971682 -0.08164948 0.09430717 -0.08856408 0.064733125 0.0980284 -0.11038963 0.012425666 -0.049983896 0.07034504 -0.051061463 -0.059135403 0.036014773 0.10344893 0.10363482 -0.078785546 -0.056365643 -0.10326597 0.06938347 -0.09529906 -0.050343495 0.046858855 0.063058876 0.10802545 0.07699957 -0.037580613 0.038397152 0.027821114 -0.040778387 -0.04529606 -0.04731124 0.11127616 -0.094754435 0.052260384 0.079324946 -0.017792432 0.074933216 0.03270467 0.06372535 0.05649883 -0.07545407 0.04889262 0.05399591 -0.064265594 -0.08862577 -0.094810516 -0.07314432 0.01660182 0.104841575 -0.0963855 0.0027234282 -0.057059947 -0.013558754 0.03881443 -0.09732925 -0.07507424 -0.013908023 0.093869664 0.09130782 0.0052327565 -0.041399073 -0.03554692 -0.046675827 -0.07118307 0.05559461 0.01474786 -0.06298857 0.08106497 0.057852287 -0.045672067 0.11083854 0.07030659 0.060032386 -0.061563153 0.0868975 0.06285891 -0.11107621 -0.06589117 0.0084088575 -0.059131768 0.1118776 0.069742076 -0.10422187 0.094215564 -0.10009623 0.0127448095 -0.08388876 0.033899177 0.010684142 0.0543566 0.061989855 -0.07632509 -0.078422874 0.07963525 -0.11316991 -0.027733836 -0.016675083 -0.057829406 -0.09828482 -0.08161158 0.11335926 -0.0053631845 0.10425171 0.041416995 0.0145356 0.043178827 0.10713554 -0.085212745 -0.069725655 0.025725035 -0.054466132 -0.04689152 -0.0042964136 -0.079306275 -0.075402394 -0.1035552 0.050327107 0.07781494 0.0629478 -0.027201956 -0.058730345 -0.057994712 -0.11021755 0.020529544 -0.10075813 -0.013556721 -0.028765973 -0.04975897 -0.03552594 -0.08547809 0.078028284 0.107999675 -0.028824585 0.026722424 0.08886234 0.103791155 -0.024413185 0.052722212 0.0895627 -0.090835236 0.016675513 -0.032040436 0.09324722 -0.00078949437 -0.11385256 -0.083362944 0.06642993 0.11735825 -0.08375658 0.050438456 0.028426936 -0.07733582 -0.10240585 -0.09546197 -0.013933541 0.09095759 0.055512827 0.10592153 0.10314148 -0.1102575 0.047641233 0.113135956 0.004094738 0.118397295 -0.051872037 0.03015662 0.0041650175 0.06013674 -0.017191999 -0.053149406 0.055142798 -0.05852991 0.05699901 -0.048272118 -0.019668896 -0.07773728 0.021928024 0.083919056 -0.009422697 0.07036123 0.096748605 0.053794634 0.09500252 -0.012051271 -0.07191945 0.104940504 0.04404081
قرار 0.018219944 0.116737016 -0.108039774 0.072630875 0.064406715 0.04321582 -0.10543199 -0.0955007 0.07515092 -0.10503409 0.024646418 0.12721394 0.08623648 -0.07962023 -0.030318605 0.035898812 0.021398654 0.09902046 -0.038111374 0.08332514 0.10290459 -0.011114507 0.022087682 -0.024158424 -0.053492986 -0.064900324 0.09783979 -0.03293477 0.036615603 -0.07975327 0.012818168 0.0029924533 -0.008940715 -0.11547311 -0.089962065 0.033828307 0.019040339 0.04992494 -0.06273048 -0.029044032 -0.028472781 -0.067396805 0.10835166 0.022711495 -0.0214082 -0.09627619 -0.056888405 -0.10027608 -0.015973987 0.093988076 0.07067149 0.04377177 0.008810716 -0.11183467 -0.0894314 -0.116646126 -0.02943521 -0.05065797 -0.12893935 0.012884883 -0.0010663247 -0.051006146 0.030602807 0.09936082 0.0013394357 0.04051071 -0.0794132 -0.0331996 0.046541464 -0.11467267 -0.03437033 0.001970397 -0.0182791 0.061991975 0.018374927 0.018391864 0.057278305 0.11841256 -0.08892999 0.07638997 -0.10720013 0.035616618 0.056994975 0.029635817 0.11443303 -0.111927286 0.013207729 -0.052713063 0.023276836 0.081787474 -0.098217495 0.04969526 0.1140114 0.12965108 -0.022740256 -0.023702424 0.11287227 0.06503992 0.061163202 0.08447189 -0.034533016 0.10132066 0.07578315 0.0049755154 0.040602654 -0.071699776 0.059103094 0.08879428 -0.10243578 0.06575361 -0.007628535 -0.112377964 0.071596324 -0.11538669 -0.10248643 -0.041801214 -0.09618988 0.05567141 0.079393744 0.04887837 -0.045432482 0.10724685 -0.060375676 -0.10802538 -0.057691872 0.10206092 -0.026210712 0.068113066 0.11284425 -0.06582183 0.07642777 0.014272335 -0.051566746 0.08163519 0.077264294 0.103068866 0.10876542 0.0898531 -0.022634346 0.005168302 -0.0070137987 -0.049061302 0.012711242 0.06230873 0.049712997 -0.09708116 0.027721528 -0.08117686 0.032961253 -0.05105769 0.09558452 0.057731945 0.031110218 -0.05831669 0.012585655 -0.03235646 -0.0670985 -0.03865299 0.02253257 0.004973647 -0.0081507405 0.08983023 0.04476821 0.014551102 0.04719889 -0.12362065 0.01827887 0.099162765 -0.084346436 0.013578996 0.072425514 0.09820499 0.05710708 0.030971047 0.09064932 -0.05472859 -0.02563255 0.088495664 -0.1258897 -0.014748383 0.05447487 -0.031041604 0.103374265 0.094153896 0.114659704 -0.122728825 -0.122789316 -0.050817505 0.12915336 0.10806241 -0.0035143408 0.08177364 -0.056270648 -0.03148444 -0.024514949 -0.006343303 -0.008255018 0.02499458 0.033902604 -0.016614433
می‌كرد -0.1119477 -0.09483984 0.008305283 -0.06056973 -0.11084786 0.10580438 0.089651115 0.010067953 0.10162685 -0.109653436 -0.06567069 0.02819432 0.103483595 0.010166471 -0.10514907 -0.012180645 0.101868816 -0.006287838 0.09298773 0.114776656 -0.02698646 0.021592211 -0.057113137 -0.101103626 -0.06904342 -0.11966485 -0.111078046 0.00551152 0.009645796 -0.03842091 -0.100565515 -0.037061185 0.023423215 -0.0012446198 0.0068911295 -0.07577091 -0.050646182 -0.018216437 0.028577726 -0.0872145 -0.06972883 -0.11919164 0.097913496 -0.04792126 -0.06227647 0.07979474 0.10086141 -0.056486685 0.088595115 0.101546414 0.04780267 -0.03007657 -0.018408578 0.013180995 -0.10316028 0.09745991 0.005526871 -0.03305645 -0.009275033 -0.06282305 0.117506646 -0.10473696 0.10702507 0.114897594 0.11411989 0.105836965 -0.08007389 0.0892209 0.095289595 -0.08554148 0.06473377 -0.08864822 -0.083321154 -0.0472529 0.006236093 -0.06015774 -0.045690194 0.04447219 0.11278794 0.07801574 0.06961337 -0.09624928 0.07808593 -0.10215664 0.080333866 -0.062685676 -0.064833805 -0.017433915 -0.011491998 -0.038195323 -0.012619401 0.0023280228 0.080836006 0.05489612 -0.056750383 0.1155485 -0.006319288 0.043187052 -0.05229796 0.113446034 -0.09157457 -0.02519666 0.06197996 0.05640966 -0.06848331 0.106148794 0.1140797 -0.106568635 0.057678506 -0.03121313 -0.035582036 -0.027123606 -0.07821772 -0.017844675 -0.077571675 0.09718107 0.018619511 -0.05480851 -0.052587375 0.108008415 0.024038116 0.01421729 0.02890578 0.10763114 0.028811539 0.0672798 -0.059296336 0.054173153 -0.065398276 0.11879871 -0.06844462 -0.08365424 0.061278615 0.014331432 0.06997561 0.10943998 -0.033249747 0.0024014406 0.017664926 0.0008680473 -0.017601898 0.10076192 -0.064613044 0.089312494 0.07223289 0.03572547 0.05517688 -0.078257374 0.08492782 -0.04234851 -0.0014735372 -0.055880725 -0.04322793 0.022144962 0.016329227 0.09389591 -0.10806335 0.08572614 -0.08570781 0.11636846 -0.017966129 -0.10076495 -0.11125725 -0.09263878 -0.089053676 0.097149074 -0.02189156 -0.019115645 -0.021817792 -0.10775915 0.05210837 0.052071523 -0.06131158 0.052053433 0.0056880126 -0.06748902 0.097339116 0.0016835618 0.079568416 -0.001903819 -0.09991337 -0.020839611 0.03687598 0.08025866 0.019959828 0.07368309 0.052385155 -0.010186684 -0.08368202 -0.007760589 0.011482085 -0.04932392 0.040268645 -0.042695317 -0.075819865 0.0311289 -0.07484811 -0.016629834 0.107655555 -0.009275486
اگر 0.020591706 0.105722524 -0.059520848 -0.043716215 -0.05700225 -0.10119284 0.072443925 -0.09658689 -0.07429221 -0.0077575347 -0.051781982 0.10277545 0.032817014 -0.06967234 0.021798134 0.021942133 -0.035467576 0.0038006739 0.10796623 -0.010260842 0.0068225716 -0.109662265 0.0010867572 0.09200917 0.12160972 0.10484827 0.07965567 -0.001634986 0.049511172 0.03921128 -0.063434854 0.035099182 -0.111772105 0.09664889 -0.104543135 0.07897282 0.06236381 0.1029642 0.08478387 0.08351595 -0.07857936 -0.11821917 -0.036803678 -0.03283109 0.021651754 0.033395674 0.05938808 0.11075489 -0.067089535 -0.058160618 0.10629095 0.028245704 -0.10389785 0.11290298 -0.05363528 0.030735698 0.11533014 -0.073804066 0.025776846 -0.03655033 -0.045719776 -0.014970576 -0.009605606 0.13900554 0.09623952 0.07192922 -0.026227754 -0.12727627 0.009103851 0.11633802 -0.10333212 0.10844359 0.06650649 0.05297552 -0.12016772 0.025487855 -0.04205719 0.07324402 -0.03593407 0.05192556 -0.032270253 0.01129071 -0.015956426 0.061885964 -0.029527046 -0.022899903 -0.014522448 0.067498416 -0.078421004 0.036842175 0.06972519 0.028740771 0.08835173 0.10720225 -0.02411068 -0.030966895 -0.12146848 -0.10869895 0.09700428 -0.024022402 0.017031152 -0.012567106 0.01730247 -0.026847614 -0.09508596 -0.011416545 -0.044188067 0.022941401 0.040444277 0.11535871 0.0017582655 -0.093512185 0.062391873 -0.03492001 0.034097273 0.033690482 -0.08250289 0.05702128 -0.046498645 0.117621936 0.018627718 -0.094954796 0.046820994 -0.08772056 -0.07491696 0.08414356 -0.0016537223 0.02584185 0.08266142 0.1079351 -0.11137989 0.07994328 0.0811734 0.017363949 0.10761166 -0.10964458 0.06410516 -0.013427784 0.0819216 0.058024622 -0.057815265 0.08119707 -0.073918976 0.09905187 0.06254434 0.028990336 -0.11688686 0.045614947 0.024696397 -0.044936776 0.048132602 -0.026760768 0.06066212 -0.026971074 -0.04307478 -0.102846086 0.09918207 -0.05630612 0.019255416 -0.12310947 0.011758366 -0.07767479 -0.0050788424 -0.0010810598 0.03339969 0.08981377 -0.06709 0.00030291412 -0.07017216 0.09448666 -0.03068691 -0.0730796 -0.08778389 -0.058317922 0.09817349 0.0744015 0.106575154 -0.03280104 -0.07153811 0.10589424 0.0861783 -0.064217985 -0.082042344 -0.044580474 0.10829277 0.044480857 0.08393018 -0.005775197 -0.043697454 -0.06386639 0.00081465574 -0.07367199 -0.07682328 0.042797625 -0.041394487 0.123911306 0.08248338 0.04007376 0.06781646 0.08274599
مدل -0.0059239846 -0.000490647 0.026019186 0.053009354 -0.08287002 -0.09325308 0.096359625 -0.12540156 0.054518357 0.047843967 0.10358441 0.08175545 0.11783362 -0.043101918 -0.062208086 0.026064066 0.10955546 -0.072330736 0.08381492 -0.09157899 0.040814415 0.01973041 0.061191477 -0.0625383 -0.020596642 -0.08813783 0.10570196 0.03035811 0.12172068 0.056566615 -0.04156076 -0.00027680516 -0.124434665 -0.04922201 0.024528038 0.12171182 0.025346698 0.00867898 -0.026570352 -0.06890455 -0.08130467 -0.07537528 -0.018457647 -0.0026982212 0.12414596 0.035766974 0.12414055 0.062981606 -0.0059477836 -0.04251289 -0.09719414 0.094418354 0.0897724 0.024133023 0.044811234 -0.035104703 0.11641536 -0.055154257 -0.121547125 -0.121266514 0.0043741525 -0.0661061 -0.06369696 0.077546805 0.09140837 0.040562373 -0.045036495 -0.010217691 0.06381761 0.010396308 -0.0811789 -0.06865196 0.0023746826 -0.07195429 0.07828698 -0.040394112 0.07484223 -0.04081592 0.06465608 0.007792962 0.07940498 -0.032868452 0.020904845 0.08816818 -0.07944159 0.023059089 -0.09354536 -0.059380706 -0.008122806 -0.06594684 0.09559718 -0.07504782 0.008991311 0.06922062 0.07851257 0.08837507 0.0069082524 0.0016043109 0.019932415 0.11751864 -0.08548136 0.05124489 -0.021843202 0.08238971 -0.09451038 0.053212147 0.050134283 -0.09802167 -0.03889302 -0.10423564 0.11250672 0.005079703 -0.04793919 -0.11033343 -0.018579355 0.09506535 0.09028794 0.10273663 -0.06578485 0.10689466 0.11518209 -0.048760734 0.042712912 0.059363376 -0.12344773 -0.006519687 -0.061169658 0.025698522 0.11539209 0.00116175 -0.087108985 0.10485927 -0.08928867 0.07643877 0.07340853 0.026107326 -0.017972926 0.069891915 -0.11730647 -0.08222061 -0.0555557 0.07319091 -0.1052783 0.053219315 -0.022944491 -0.06345122 0.08671512 -0.05940075 0.020900987 -0.09289203 -0.046108432 0.01677768 0.041995667 0.08558448 0.0011255413 0.036487613 -0.00021260075 0.11392823 -0.080782294 -0.04910633 -0.07565368 0.051942725 -0.029838633 0.082966626 0.07739236 -0.0310916 0.09926406 -0.08213526 -0.06076374 0.10030285 -0.011383999 -0.0123545 0.050730422 -0.010822416 0.067986175 -0.107651636 -0.0036226048 0.09944279 0.04499444 -0.047759555 0.052913923 -0.027120806 -0.09500545 -0.0776959 -0.0073553533 0.02012659 -0.06527986 0.0064014224 0.05916547 0.078379445 -0.09781513 0.04824279 -0.12923065 0.04249513 0.09463255 -0.06654543 -0.014025981 0.08426842 0.09246944 -0.08183139
برخی -0.03724784 -0.007886905 -0.022495424 -0.08662227 0.05843777 0.11180162 0.016648011 -0.112598896 0.09372651 0.110749416 0.08108716 -0.06754767 0.09992986 0.0031326683 0.09174927 0.025570374 0.022967575 0.11240688 -0.069035634 -0.10631871 -0.004320869 -0.017644277 -0.0247773 -0.07135906 0.036013495 0.0822432 0.015514886 -0.07981367 0.08993734 0.08522561 -0.09376734 -0.10286377 -0.020505449 0.030097058 0.034657836 0.047419235 0.10334601 0.0045464574 0.102789566 -0.070423014 -0.08229356 0.06671656 -0.10061187 -0.0027149734 0.09355857 -0.020180337 -0.0852293 0.10222049 -0.044613156 -0.005839339 0.03744521 0.1014702 0.10851151 0.09782646 -0.058439974 0.059856065 -0.09853267 -0.108938746 0.062561475 -0.11351546 -0.10773642 -0.083262265 0.094097115 0.036121134 0.09425223 0.10467831 0.11008309 0.024724066 -0.057210974 0.04106738 -0.10016193 -0.10696943 -0.03702339 -0.024153234 -0.109638855 -0.085806675 -0.10119479 -0.07975809 -0.018168673 -0.014533682 0.02052881 -0.078414224 0.08688377 0.024674613 -0.08649908 0.11619831 -0.11149883 -0.05195873 0.025282303 0.018521754 0.11453849 -0.056366626 -0.052839488 -0.014159657 -0.106519796 0.081398286 0.07592654 -0.05341531 -0.07214873 0.011844392 0.010688564 0.116301544 -0.08935237 0.0883716 0.07532722 -0.09676858 0.08125554 0.061287582 0.01931276 0.024233844 -0.07228188 0.04886397 -0.06813823 0.03298127 -0.022804761 0.0373141 0.10681581 -0.057535738 -0.075389095 -0.11412299 -0.0516313 -0.016003545 0.05945455 0.010409577 0.08836567 -0.022129603 -0.013029778 -0.039172426 -0.1084503 0.07290414 -0.06496731 0.05496717 0.10459157 0.058799732 -0.007977205 -0.076611005 -0.111961015 0.022596637 0.008026799 0.10197258 0.024629313 0.02695469 0.10663309 -0.013534751 -0.041214667 0.019550327 -0.105469376 0.08530199 -0.025774065 0.068209045 -0.04345813 -0.051632505 0.05177292 0.037072614 -0.02478053 -0.032969814 0.023819732 -0.062705085 0.06607784 0.1063129 0.0061450335 -0.0447341 -0.06704246 -0.105974525 -0.032531884 -0.06756988 -0.010742003 0.015611559 -0.10306234 -0.061379332 -0.111562185 -0.003019799 -0.10938305 -0.103802204 -0.0043867705 -0.07424759 -0.025759686 -0.041527644 0.0909355 0.071367756 -0.09111441 -0.10268187 -0.065743595 -0.05453515 -0.07709561 -0.10659574 -0.040655106 -0.11441559 0.037082896 -0.074720845 0.0028750836 -0.08806305 -0.031894024 0.007850764 0.07477271 0.013727992 0.023824519 -0.036132716 -0.018006232 -0.043574862
راست -0.045751378 0.034579635 0.078467034 -0.10778179 0.01409168 -0.022556623 -0.008153351 -0.071800455 -0.014715334 0.012305774 0.010844503 0.09717203 0.0055741044 0.06813755 0.031924002 -0.030102571 -0.09795962 0.03899534 0.039654743 -0.048677962 0.030842539 0.07824253 0.020011762 0.055346724 0.12460307 -0.11964334 -0.09345764 -0.11738936 0.017140867 0.12652211 0.034821667 0.091004536 -0.02710031 0.006830788 -0.12520613 0.1268186 0.025331378 -0.07396873 0.02507611 -0.085358225 0.08698693 -0.030573038 -0.05993129 0.017247476 0.0582204 -0.05764014 0.13785012 -0.004456402 0.03204517 0.006673032 -0.06601252 0.07478759 -0.0060905674 0.10369967 -0.01273195 -0.12553088 0.1138606 -0.1043568 -0.09680411 0.0100348145 -0.038443994 0.10576731 -0.10127189 -0.035601 -0.020031273 0.05412646 0.002711669 -0.11005411 0.036684386 -0.024221461 0.08808428 -0.018235218 -0.04165016 0.11828093 0.014330877 0.055885315 -0.07152211 0.02003943 -0.08918498 -0.11284211 0.10198098 0.041887198 -0.0022683032 -0.06608749 0.044634175 0.019191267 -0.09193733 -0.093638584 -0.014828817 -0.05002236 0.043802485 -0.057431202 0.0046133753 0.09700255 -0.06662029 0.11097449 -0.08136114 0.05352413 0.032542728 -0.023589931 0.11739105 0.1164968 0.047608994 0.048291624 0.085702606 -0.051952004 -0.0893761 0.09687091 0.06524451 0.022363137 -0.080313444 0.07149032 0.012417206 0.10378409 -0.062873945 -0.02279813 -0.11927439 -0.119307764 0.030450588 0.10099478 -0.052416462 0.0047587864 -0.019919422 0.10921513 -0.027859109 -0.043906618 -0.1046728 0.084110595 0.0041584466 0.04598595 0.007729103 0.11427062 0.04001868 -0.022233203 0.02415024 -0.09237169 -0.097326465 0.06145943 -0.03213534 -0.06805501 0.05239208 0.062041506 -0.11358349 0.05772827 -0.07634422 0.023373744 0.10631281 -0.010477203 0.023612496 0.030508751 0.067126594 -0.0010299153 0.07654549 -3.8776026e-05 0.010719243 -0.0015164517 -0.108537145 -0.03813961 -0.053416576 0.07367835 -0.0962872 0.031766046 -0.025892766 -0.11089013 0.09293016 -0.08928967 -0.07370093 0.019922225 -0.097207874 0.11829529 0.084535666 -0.068828076 -0.043177005 -0.034293074 0.048692178 0.070315555 0.078095086 -0.040925704 -0.106838636 0.0057509607 -0.0066256714 0.12306809 -0.0923653 -0.08511549 -0.06384999 -0.004668135 0.042705208 -0.12375474 -0.05779882 0.103192635 0.013497087 0.074266694 0.026696032 -0.028260998 0.104444735 0.06951352 -0.05636037 0.043794945 -0.12458454 0.1200129
كرده‌اند 0.025354693 0.106213376 -0.0601155 0.03268216 -0.03173476 -0.021086635 -0.09966965 -0.07070122 -0.110486746 -0.00168455 0.113060094 -0.07319352 0.0032958263 0.10633878 -0.11308518 0.047818765 0.010995287 -0.09713627 -0.0378868 -0.048062395 0.11460585 -0.12869665 -0.14172961 0.05980409 0.009752266 -0.023044974 0.028670814 0.061832234 0.0071989475 -0.09764318 -0.031196652 -0.09853827 -0.051265966 -0.04788445 -0.09136828 -0.0029165326 0.04185957 -0.061997343 -0.013674521 0.062745646 0.095693775 -0.075836465 0.1254914 0.045787305 -0.07713764 0.036975935 -0.10323768 -0.028628698 0.12548572 -0.026028477 -0.020731954 0.050258126 0.10316531 0.054174013 0.06008713 -0.08073261 -0.06694103 0.00690842 -0.081245475 0.09085395 -0.12274299 0.04710377 -0.10266563 -0.0010412144 0.054297086 -0.0010183533 0.12167608 0.01512104 0.0003406414 -0.021895446 0.08983835 -0.008827269 -0.020496545 -0.09201449 0.044050656 0.1295694 -0.007544676 -0.117846794 0.049027476 -0.030261213 -0.09731109 0.11944322 0.097638234 0.043879386 -0.0075592487 0.0025434392 -0.02986329 -0.02536283 -0.071371995 0.013786938 0.1071719 -0.13060494 0.062337257 0.063659586 -0.086747825 0.0033097034 -0.012157575 0.053969245 -0.11254799 0.023925917 0.05679202 -0.11867019 -0.099301375 -0.031202465 -0.036316168 0.048011936 0.10752518 -0.122308955 -0.12453084 -0.09682375 -0.03676246 -0.13260096 -0.06220098 -0.016321184 0.08002599 0.061249495 -0.017881842 -0.010585912 0.038031723 0.051756624 -0.089262486 0.06734966 -0.0619504 -0.123345084 0.07734069 0.03440819 0.007105845 -0.06777226 0.1304563 -0.10563649 -0.09845694 0.041382357 -0.06407462 -0.114260845 -0.01862368 0.010924375 0.094532944 -0.007185432 0.097653344 -0.11987918 -0.0769585 -0.027555509 0.09952214 -0.08862938 0.026406964 -0.06003301 0.049266353 -0.025995133 0.02644142 0.023275424 -0.07435437 -0.046066843 -0.10279173 0.010728692 -0.016457181 0.108764894 -0.039854836 -0.023424469 -0.012452964 0.10191499 0.066304445 0.03460511 -0.05338434 0.07958581 -0.03225733 -0.06183458 0.058435805 -0.084962934 -0.036185253 0.006881166 -0.060233805 -0.118689634 -0.030603437 0.044639893 0.05803465 -0.06323445 0.028472254 -0.059655935 0.059043594 -0.02494471 -0.0095743155 0.052426916 0.12467337 -0.027678207 0.062416963 -0.016454447 0.026550522 0.060348175 -0.102741465 0.027426464 -0.10464615 0.05998415 -0.0014873681 -0.12790002 0.05151064 -0.003208364 -0.07299776 0.010150191 -0.033236604 -0.038856566
حتی 0.03542647 0.064012356 0.04767181 -0.123003736 -0.039539404 -0.12418442 0.09012038 0.120285995 0.009226053 -0.029085668 0.07445997 0.10529378 0.110334836 -0.1072294 -0.054750945 -0.03940075 0.047217563 0.038458984 -0.0031025482 -0.043974787 -0.028120106 0.09681432 -0.08038756 0.053943444 -0.01237075 -0.03835287 0.046336245 -0.015767764 -0.051581968 0.08658345 0.114151314 0.09115571 -0.104722254 0.03230206 -0.093660004 -0.06723213 -0.07277633 0.10859666 0.047192052 -0.05476892 -0.10307326 -0.090817794 -0.062840074 0.024914546 -0.006343785 0.116383046 -0.069947235 0.042539388 -0.014383529 0.09693901 0.11400694 0.031537946 0.024397936 0.109593414 -0.11148485 -0.079318374 -0.109294765 0.09660701 -0.10413994 -0.02217396 0.034412727 0.074504316 0.029577795 0.09136533 -0.054361105 -0.07848406 -0.0803398 -0.04693238 -0.11120211 -0.00526196 -0.100628816 -0.026483728 -0.08776823 -0.06134865 -0.062148415 -0.0042352895 0.08496738 -0.099285685 0.0004374977 -0.046562422 0.10026699 0.08017756 -0.077681914 -0.032860767 0.07357766 0.100869685 0.00066919485 -0.041088935 -0.100900166 0.075158626 -0.039625872 -0.037902895 -0.114418745 0.09141301 -0.0961443 0.027437948 0.10537426 0.10746481 0.09963535 -0.023687473 0.028867984 0.12552492 -0.01782874 -0.053178295 -0.009030683 0.0017063648 0.10296013 -0.038156174 0.09068854 0.07534086 -0.10060948 -0.040941432 0.008540158 -0.027649324 0.0648918 0.11731086 -0.087199636 0.05220447 0.11422175 -0.012913105 -0.010869676 -0.10925835 0.049157217 -0.041746207 -0.054952644 0.03458958 0.04501236 -0.1264732 -0.045878656 -0.06025644 0.04361282 0.11964894 -0.0004871023 0.022385769 -0.043291233 -0.018923044 0.065162465 0.06490221 0.04192787 -0.050270103 -0.08546831 -0.041561466 0.069751486 0.03361487 -0.06940327 -0.102775715 0.023531342 0.094083905 0.03989399 -0.00047205866 -0.024773896 0.02805996 0.077337675 -0.09147738 -0.055324063 -0.043921117 -0.10599982 -0.038591623 0.07154397 -7.1457325e-05 0.05900019 -0.044116687 0.031509016 0.11470108 0.09426828 -0.107832186 0.051175747 -0.06283212 0.023323484 0.014985931 -0.024273342 0.10445533 -0.07239239 -0.050301656 0.06408125 -0.09797566 0.019335963 0.0969485 -0.04546802 -0.0011049187 0.004869139 0.07873754 0.020865165 -0.09343269 -0.072433844 -0.01737126 -0.04244983 0.05044319 -0.03840922 -0.114951625 -0.04824806 -0.07622102 0.11056938 -0.1072463 0.11459359 -0.007512446 0.013159305 0.050696645 -0.0043760724 0.024983285
توانایی -0.0071926326 0.030159803 -0.005183418 -0.031095639 0.038855128 -0.0758212 -0.09815626 0.056569126 -0.06059481 0.10619112 0.059610922 -0.08715344 -0.073520906 -0.10023428 0.091334365 -0.060795385 0.09223474 -0.0067860936 -0.018001849 0.08919712 0.042432226 0.11607394 -0.06718745 0.05468776 -0.01899434 -0.09872387 0.04874042 0.07298917 0.023656448 0.036741406 0.040327124 -0.096159786 0.08906967 -0.06474834 -0.07028286 0.09393072 0.05862644 0.11906218 -0.11440705 0.09004851 -0.085918754 -0.025909064 0.035653904 0.028309694 -0.004757866 -0.06930622 0.071156256 0.04869035 0.053892635 0.017904278 0.11836436 0.092060514 -0.041299477 -0.042177822 0.0832231 0.024432233 -0.10623175 -0.05473708 0.07822374 -0.0057007167 -0.08658003 0.09772517 0.021049583 0.06473794 0.10604525 -0.05339734 0.08848541 -0.06824161 -0.1083816 -0.03017615 -0.00643396 0.119557105 -0.064933635 -0.09129937 0.093148254 -0.10250126 0.08337726 0.040791392 0.043345552 0.060645655 -0.037837517 -0.017610917 0.0394393 -0.07469848 -0.045195237 0.08681579 -0.049019095 -0.06443829 -0.042020354 0.006609811 0.04927766 0.0037648233 -0.092169054 0.10364234 0.02179928 0.1226576 -0.04396396 0.09052109 0.015561165 0.117082685 -0.08327333 -0.056821894 -0.07039657 -0.06643213 -0.015018772 -0.07243938 -0.09121921 0.050015587 -0.09931769 -0.06532707 -0.058638792 -0.0115021095 0.01913419 0.019093059 -0.11551561 -0.05920077 0.08670036 0.028140051 0.059249308 -0.011682249 -0.09969443 0.07207241 -0.11070305 0.06474603 -0.10031878 0.041077722 0.047001243 0.0011360315 0.098349445 0.054463133 0.11692666 0.001938858 -0.10964312 0.018167863 -0.10383637 -0.090538785 -0.10208759 -0.06251491 0.044758737 0.07471975 -0.10220135 0.03600605 0.05764078 0.010973513 -0.08361666 -0.1195383 0.038133938 -0.048577987 -0.072956905 0.073219985 -0.054616913 -0.0034398483 -0.019820428 0.060721736 0.07054888 -0.07888486 0.09033142 -0.00633731 0.067920074 -0.08003052 -0.10116215 -0.044456452 0.038788587 -0.03840454 0.044048104 -0.121724434 -0.06415987 0.041480787 -0.08272379 0.10957407 0.07132005 0.09266539 0.12580732 0.047867123 0.0722953 0.018746585 0.049282245 -0.015989333 -0.015448724 0.06424083 -0.09722816 0.02868433 -0.11421499 0.07829646 0.112624526 0.022853525 -0.071702115 0.07723554 0.010374929 -0.004167825 -0.10113404 0.008029714 0.06460984 -0.064642206 -0.11151267 0.12251045 -0.0037658354 0.007137058 -0.0010665358 -0.05419476
مكالمه 0.11107577 -0.09685991 -0.014491845 0.03239194 -0.073878035 -0.033942215 0.052647367 0.08632125 -0.117549695 0.023151558 0.08999063 0.052227933 0.050649814 0.015816255 -0.033608176 -0.016578553 0.06833956 -0.06259292 -0.063011244 0.11033875 0.01987566 0.046667088 -0.11929101 0.08654284 -0.050345477 0.10556528 -0.11413216 -0.03233659 0.05417665 0.0255712 -0.10665459 0.11001579 -0.05246349 -0.03408137 0.047660924 0.12086051 -0.08952428 -0.012545421 0.023173153 -0.11159982 -0.081055485 0.06670236 0.05635127 -0.05472099 0.005667566 -0.04380191 0.01095413 -0.00553202 -0.11777245 -0.017958052 0.032423824 -0.06690141 0.11052324 -0.085426874 0.06863273 -0.0074884775 -0.1120017 0.029564237 -0.057687867 -0.051890284 0.042211615 0.001306383 -0.100181125 -0.053687397 -0.10788448 -0.10158426 0.10010265 0.022423888 -0.058893282 0.0040812097 -0.100443974 -0.027551338 -0.07244615 -0.069382004 0.0027502717 -0.079742566 -0.039213195 0.11056008 0.03677534 0.07614932 -0.001518938 0.028588941 0.016060112 -0.09729727 -0.11336338 -0.06807678 -0.057913825 0.06089441 0.09037794 -0.09718746 0.035369094 0.071793795 0.041904062 -0.048252873 -0.024646524 0.12554084 -0.07600993 -0.08984755 -0.095608994 0.012631396 -0.08410242 0.11421708 0.09644091 -0.007043599 0.091940515 -0.014785875 0.086416334 -0.10173677 -0.06318094 0.089793496 0.10241509 0.0024993552 0.05940594 0.08511024 0.08400966 0.0042744423 -0.033265196 -0.0028045336 -0.032438338 -0.088375986 0.037959132 0.053856462 -0.08299218 -0.038268156 0.10355118 0.050732315 0.045742154 0.07090666 -0.11588148 0.019443555 0.0627508 0.11635198 -0.042728763 0.0127136195 0.01865713 -0.10954343 -0.032448757 0.08351498 0.021349821 0.007924491 -0.0008565846 0.036812276 -0.0952016 -0.017560668 -0.058133375 0.12117287 0.105142176 -0.041312095 -0.046721246 0.06501311 0.0360427 -0.105305746 -0.040910125 -0.008942086 -0.07617985 0.039962485 -0.10218938 0.0058943518 0.05769002 0.004343098 -0.034015626 0.058374114 0.046329148 0.021025797 -0.059178516 0.0996547 -0.05567896 0.11370004 0.095337085 0.051020253 0.09108131 0.07516824 0.12427046 0.04834627 0.036522217 -0.11473255 0.098327614 -0.06291246 -0.084555894 -0.100105844 -0.025090715 0.09670745 -0.11599026 0.05358834 0.12064491 -0.013754714 -0.056213487 -0.09963028 -0.0074489336 -0.0033409556 0.10734979 -0.046011824 0.06613401 0.01577622 0.002096963 0.11183071 -0.0032038447 0.06517221 0.08757175 -0.03895599
