176 200
از -0.05279852 -0.032393787 0.024678959 -0.11746228 -0.026881328 -0.05198846 -0.03200044 0.04054541 -0.1234676 0.07196884 -0.100851074 -0.062764026 0.078840464 0.10550388 -0.08763933 0.020551944 -0.061745126 0.079582244 0.07073714 0.06593961 0.021247704 0.10349792 -0.025217447 -0.052257847 -0.114458375 -0.047586307 -0.05780274 -0.10538609 0.11227008 0.10683734 -0.12660295 0.11165375 -0.057176914 -0.079119116 -0.09901187 -0.09223142 0.05376269 -0.04621549 0.008838287 -0.047075476 -0.035803605 0.045230933 -0.056595314 -0.0024215835 0.091193154 0.049824607 0.025690356 0.1030468 0.112538956 0.013985103 -0.08307115 -0.09515968 -0.10804052 -0.09231361 -0.027003743 0.004422081 0.067334495 0.13112313 -0.05239776 0.111210324 -0.046435133 0.016309291 0.010361058 -0.109634 0.028565595 0.0450789 0.07501568 0.049463116 0.07716739 0.014269772 0.057809424 0.08997904 -0.1264943 -0.07537951 0.05023596 -0.0038361035 -0.005720451 0.0812403 0.101445876 0.0068617263 -0.09639645 -0.11873712 0.06066989 -0.09713076 -0.062098984 -0.046358507 0.08881833 0.069716126 -0.050335843 0.021545365 -0.05836172 -0.11822055 -0.061578378 -0.007776351 -0.04912423 0.055672836 0.096352324 -0.02846837 -0.1170786 0.104731366 0.038778707 0.04037468 0.04835633 0.0010824562 -0.03177536 0.018464465 -0.101179354 0.030275658 0.045337245 -0.0686242 -0.100165695 0.06048161 0.13222407 0.09361158 0.006060334 -0.06509112 0.04170516 -0.033020504 0.10090182 0.077001296 0.027154034 0.0010550476 0.028023602 0.042838953 -0.04243248 0.06538797 -0.092774525 0.12089346 0.081158526 0.10121655 0.004601318 0.107372046 0.055817474 0.06417322 -0.035778202 0.04203037 -0.044663534 -0.09367294 -0.11486969 0.088532224 -0.050374296 -0.11535405 -0.0496104 -0.08156803 -0.10258793 0.021646615 0.116623946 0.048992764 0.055777863 0.007471303 -0.017031925 -0.08131137 0.06337087 -0.08188342 -0.08812674 -0.08065471 -0.078435734 -0.0356984 -0.04479791 0.0919982 0.10740445 -0.016547974 0.104130596 0.07281699 -0.11093582 -0.040590215 -0.04431594 0.054277804 -0.011089786 0.050551035 -0.10499757 0.10138288 -0.023761848 0.0032745067 -0.013019191 0.08110792 -0.03425165 -0.052589327 -0.023110464 -0.074871436 0.026067667 -0.062477224 0.060964596 0.076317474 0.052240968 -0.011145366 0.063208155 0.04178409 0.024633823 -0.112048 -0.020604042 0.030670252 -0.11586487 -0.0001156946 -0.027055226 -0.033019822 0.018319199 0.031048529 0.04642989 0.06956091
در 0.058244422 -0.032263566 0.06859264 -0.08335866 0.00475309 -0.073100284 -0.09547077 -0.027210651 0.08896897 0.018491987 0.04625189 -0.082272284 0.124046154 0.11653501 0.010014768 0.032360893 0.033851985 0.057558354 -0.026919916 0.0424939 -0.0655893 -0.031299725 -0.034451272 -0.027336346 -0.103849 0.0040782746 0.10229555 0.04753023 0.020064432 0.09530301 -0.05162579 -0.008346728 0.058887955 -0.024852142 -0.08239542 -0.042842537 -0.04325052 -0.046510648 0.11538414 -0.043110408 -0.012498145 -0.012050842 0.10175694 0.11791343 -0.07602477 0.03510038 0.017444765 0.08297374 -0.026740491 0.06452552 -0.03436301 0.012191973 -0.06437437 -0.08262834 -0.0222567 0.009815547 -0.02208519 0.047513153 0.024393545 -0.07990628 -0.07266937 0.04838338 0.01747445 -0.021703882 -0.09561756 0.021766407 -0.073986955 0.051394515 0.026532097 -0.11246869 -0.041745853 0.1081406 0.01177336 -0.036396027 -0.10148909 0.02258447 0.11677348 -0.016021527 -0.101361856 -0.028750625 -0.052959997 0.094486244 0.010968847 -0.037334718 -0.09898283 -0.004148843 -0.1094331 0.022321368 -0.121079996 0.016512815 -0.04324688 0.07742519 0.01745023 -0.055264782 0.11453792 0.010531146 0.017157752 -0.10366429 0.119967796 -0.112441726 0.059518695 0.085271224 0.10674784 0.061028495 -0.10578294 0.09107155 -0.07333397 0.029699234 -0.052526586 0.0011162488 0.06730068 -0.05095203 0.08517906 0.007966869 0.067002684 0.021365464 0.09176314 -0.04871196 -0.06901154 -0.08166174 0.06921025 0.05198266 -0.09600411 -0.05695865 0.040848248 -0.10794356 -0.10755856 -0.030856853 0.10231482 0.041383233 0.03947803 -0.00047198046 0.096669964 -0.10993579 0.061389677 0.026483031 0.114981934 0.120388076 -0.0396519 -0.11372219 0.065691315 -0.10738221 0.08405987 -0.11355642 -0.083145455 0.041935373 0.059728406 0.12706342 0.10699922 0.11258411 -0.112861626 0.025693357 -0.05908842 -0.07606921 0.10186762 0.10504453 0.030549835 0.07175794 -0.0016477535 -0.024709962 -0.005757082 -0.065066 -0.094060585 -0.064531215 -0.01704513 0.08606896 0.071285546 0.09999713 0.024603177 -0.047102775 0.04167699 0.11882993 0.09942029 -0.12582973 -0.082300715 0.048676547 -0.06707801 -0.018327044 -0.118447416 0.05042704 0.1119028 -0.05690163 -0.11148192 0.054491244 0.020356808 -0.03587362 -0.0375524 0.02709173 -0.057498317 0.034195773 -0.003976103 0.082853876 -0.028563708 -0.08760261 0.09794955 0.015349785 0.045336068 -0.11281967 -0.09824794 -0.056342673
و -0.114173524 -0.07087037 -0.0017229161 -0.10761515 -0.03928993 -0.08381169 -0.045350485 -0.083692 -0.08769326 0.071497016 -0.07256551 0.002384313 0.08021673 0.035174195 -0.09029781 -0.05311182 -0.11125185 -0.019009348 0.084048785 0.038700003 -0.10947191 0.039926045 -0.10186931 -0.047115263 0.09097844 -0.05439298 -0.03888934 -0.025404362 -0.03462221 0.05563415 0.06887312 0.00012573184 0.068028264 0.031671822 -0.0894556 0.09188718 -0.010052045 0.0548487 0.020827811 -0.035249516 -0.015350615 -0.08521949 0.058782075 -0.090003364 -0.06950602 0.04010313 -0.056049094 -0.07141164 -0.07923756 0.118305065 0.118824095 -0.07579863 -0.110045366 -0.081990965 -0.023291897 0.003453778 0.010829825 -0.059923124 0.10615184 -0.0138358055 0.08420957 -0.10993728 -0.027309956 -0.0528482 0.08187541 4.5473374e-05 -0.09147864 -0.074445665 0.10871794 0.035206728 0.06023475 0.06890096 -0.021933738 -0.054325674 0.0681921 0.08891519 0.12078052 0.08826609 0.09477298 0.09201506 0.023434531 -0.042432006 -0.0008782261 0.06535568 0.043658655 -0.1141824 0.043227497 0.020192286 -0.09817742 0.0093973195 0.12248011 -0.09024269 0.07159836 -0.036788654 0.006973092 0.0651668 0.03682072 0.11570205 0.048476093 0.027568005 0.1119046 -0.060690437 0.06832158 -0.039073933 -0.012015986 -0.08331128 -0.049981143 -0.012236855 -0.027016118 0.054938506 -0.10427422 0.075493604 -0.005696664 0.0040683323 -0.0064119045 -0.07249969 0.08884837 0.109073915 0.006539463 0.033196434 0.10807931 -0.05815761 -0.06551325 -0.109688826 0.111768186 0.06559121 -0.006366239 0.08441953 -0.1007498 0.052481465 0.058168333 0.05173963 0.09122602 -0.030325811 0.04850632 0.094957024 -0.060396593 0.09488584 -0.008206887 0.08184725 0.12125226 0.10657532 0.09484517 -0.056788076 -0.073468536 0.010085303 -0.026189314 0.082876004 -0.07531127 0.031083357 -0.08031493 0.07668133 -0.068718776 -0.020248475 -0.092550255 -0.084461674 0.056767426 -0.02986994 -0.032553542 0.09818733 -0.10752637 0.10442624 0.12575354 -0.02304556 0.089579955 0.07850294 0.044533424 -0.042206768 -0.05704521 -0.0073963287 0.08510482 -0.014449824 0.0787966 -0.07611932 -0.03408969 -0.033099998 0.04988268 -0.08638984 0.04086989 -0.09499516 0.06426976 -0.11313804 0.05362567 0.11973908 -0.07207668 -0.12268794 -0.079244636 -0.08783771 0.076407395 -0.08538616 0.10245035 -0.020302176 0.054505248 0.016843073 -0.05204995 0.0011410366 0.0032393178 -0.010607948 -0.070103906 -0.0016934995
به -0.016362537 0.07167732 0.027611848 -0.014208515 0.023127403 0.09416323 0.09050627 -0.024606187 0.02211439 -0.017773781 -0.12366615 0.060157415 -0.070536144 0.09540802 -0.072560616 -0.013875343 -0.1250747 -0.076848276 -0.072529055 -0.110648505 0.042551313 0.087187044 0.016902255 0.03932418 0.10146745 -0.037223335 0.08718925 -0.10690743 -0.053525254 0.029415417 -0.0073462683 0.09185061 0.07611116 0.08779659 0.004159443 0.030152105 -0.029377373 -0.036863048 0.049914837 0.09304923 0.06642291 -0.060926374 0.05838137 0.037737925 -0.018767167 -0.03372853 0.0508766 -0.048578314 -0.035687458 0.078751914 0.024094006 -0.07391406 0.0615047 0.03652629 0.07420431 -0.043536536 -0.011674382 0.09541992 0.003137331 -0.08398733 -0.10006343 0.056079376 0.08855812 0.104996674 0.120168544 -0.034252048 -0.1085576 0.07453386 -0.10412113 -0.0034635037 -0.00017509707 0.055477258 0.024316723 -0.06727831 -0.09137616 -0.025616309 0.029218268 0.0973036 -0.04719089 0.0646354 0.06448286 0.030563502 0.09495784 -0.091976896 -0.037480555 0.013905747 -0.07200214 0.100774236 0.008601478 0.012160457 0.11411564 -0.03688514 0.05060204 -0.10560693 -0.03664062 0.0048372513 -0.044888522 -0.05038979 -0.056293502 -0.11173344 0.027011136 0.0076452275 0.12794413 0.121383764 -0.06690098 -0.114948064 -0.11075472 0.08021489 0.06360511 0.046154138 -0.014624241 -0.035660643 0.020136863 0.086312555 0.028363653 -0.07357469 -0.052947763 -0.066635616 -0.0013156849 0.11607065 0.054060724 -0.0048855813 -0.04005608 0.07701266 -0.038578175 0.109398514 0.10141389 -0.064324595 -0.062070817 0.032732874 0.010610968 -0.07711149 -0.102609575 0.0027084097 0.093201056 0.02532491 -0.008338161 -0.110570855 0.07901807 -0.06585178 -0.053931873 0.10924023 -0.10619183 0.10642931 -0.075101145 -0.069094695 0.08489571 -0.07723393 -0.034712575 -0.11942599 0.087593794 0.017385839 -0.10516718 0.06715003 0.09290871 -0.074503876 0.10830399 -0.04227666 0.013981425 0.07461983 0.03433776 0.108523406 0.12756938 -0.012215373 0.12296185 -0.001571959 0.09020004 0.056096364 0.0038204282 -0.08351396 -0.0053751324 -0.064102076 0.0046834587 -0.094411135 -0.111302644 -0.0630849 0.06572819 -0.064634 -0.057697386 0.043098204 0.07781293 0.08011847 -0.09221431 -0.09279339 -0.11664185 0.06561122 -0.049718663 -0.08999549 0.07327856 0.067562506 -0.101152726 0.08991772 0.054394748 0.0371043 -0.012300941 -0.08836531 0.025254978 0.010635573 0.06661041 0.09070133
اين 0.08401891 -0.0033070443 -0.087350056 0.10014108 0.046892356 0.090466514 -0.00026945834 -0.09461561 0.08562372 0.10940126 -0.048541155 -0.0832603 0.0443471 0.10146791 -0.01955503 -0.09978731 0.028180847 0.077743314 0.01948907 -0.0977436 0.109889135 -0.11239902 0.04406498 0.10699861 0.013632998 -0.06197644 0.09554259 0.09064645 0.08682451 0.061813917 -0.08709577 0.092432454 -0.015120001 0.109571196 0.059819113 -0.003748941 -0.039646793 0.03543502 -0.009943195 0.085456096 0.0030087198 -0.030134091 0.032479174 -0.048460506 -0.107795246 0.090685725 0.03418073 0.035195712 0.09781944 0.0977563 -0.061765388 -0.05155608 -0.006978708 0.101894654 0.108536474 -0.04269876 -0.044477537 -0.077432245 -0.087502584 0.046638187 0.017656572 -0.10358567 0.012606179 -0.026453223 -0.022505533 0.04852811 -0.11554807 -0.0042355605 0.03317296 0.09907301 0.078434475 0.10221972 -0.11394752 -0.09147404 0.04274449 -0.11215523 0.043596096 -0.025865015 0.074838914 0.040454026 0.020996502 0.008140527 0.032024417 0.10245951 -0.0632051 0.11464592 -0.04917742 0.055359926 -0.076538615 -0.113967344 0.11328277 -0.01924484 -0.048073526 -0.06667869 -0.08159392 0.011112737 -0.027928747 -0.033569682 -0.07814058 0.049652185 -0.026317079 0.027840856 0.06442123 0.123300016 0.10800413 0.07188741 -0.06716782 -0.09857914 0.018332263 -0.07733494 -0.04683088 0.0297574 -0.04468899 -0.03640085 0.007821766 -0.052571066 0.098001525 -0.0061786645 -0.08406229 0.016135942 0.097462974 0.049680013 0.060535125 0.035312936 0.0068983454 0.10658234 0.06963699 -0.050673105 -0.06873472 0.03665423 -0.10742527 0.11029088 -0.03880221 -0.103574544 -0.059223264 0.098117754 -0.06657651 0.096599475 -0.0053585093 0.07571922 -0.00874485 -0.0066219317 0.10873953 -0.0024052898 -0.060095053 0.06890717 -0.0472586 -0.010777759 -0.05359952 -0.014934807 -0.114466324 -0.10221723 0.08891068 0.008251674 0.0027779285 0.009284765 -0.0683487 -0.09914606 -0.026197003 -0.07901753 -0.016708288 0.06290789 -0.035801284 -0.011123104 0.09969571 0.1116731 -0.09498642 0.08058686 0.0032313326 -0.0022331981 0.101644404 0.0027540517 -0.07912409 0.003919126 0.041048888 -0.08670944 0.019313945 0.08035162 -0.031245394 -0.07146764 0.11718069 -0.11221057 0.1104329 -0.11429298 0.10770589 0.07207371 -0.026268154 0.06919048 0.07169443 -0.11750141 0.017438106 0.08433849 0.09662227 0.037101865 -0.004745434 0.035609093 -0.0073059904 0.09501815 -0.09088632 0.05974307
ترکيه 0.009104881 -0.041489262 0.040233698 0.02494219 0.022461433 0.023887988 0.0029263312 -0.0037946599 -0.101130806 -0.081716426 -0.04968689 0.10453521 0.058969215 0.061301474 -0.051346388 -0.10063358 -0.08547299 0.10754156 0.05754554 0.095705785 0.04854141 -0.047132075 0.10068392 -0.08232247 0.058046814 -0.11075057 -0.009537543 -0.049944267 0.085029095 0.11048212 0.021565476 0.12185859 0.054866433 0.05157816 -0.07146493 0.10596968 0.02301396 0.009387911 0.07106818 -0.03274857 0.0572302 0.048596002 -0.106496386 0.0611338 0.06606455 -0.01927158 0.09607721 -0.032927852 -0.0101519 -0.012319185 0.028551053 0.07735718 0.110724755 0.04921892 0.079618976 -0.06755874 0.09647916 -0.10447112 0.098000884 -0.063926205 -0.028584924 -0.053937476 0.08882527 -0.077886865 0.01898239 -0.022750959 0.03380788 -0.109827295 -0.06391521 -0.084918 0.10682771 0.046377648 0.077577025 0.034702178 0.093776666 -0.06491124 0.118864655 0.0035503171 0.057144128 -0.10229417 -0.0045365067 -0.027365739 -0.009640188 -0.08522979 -0.07589122 0.08866583 -0.0415465 0.077261336 -0.11286459 -0.08988432 -0.04565627 -0.10439764 0.011906161 -0.0011704178 -0.0578548 0.0237721 0.065229364 -0.0035350486 0.010430605 -0.10749888 -0.09945476 0.019064773 -0.09284453 0.10002486 -0.024236199 0.07295873 -0.0674897 -0.0400962 0.046771914 -0.11758586 -0.06548111 0.095427014 0.124797404 0.083598174 -0.0066703786 -0.086595625 0.06370938 -0.014075269 0.044905134 0.044689137 0.07986534 -0.100021854 0.0757025 -0.09928939 -0.094444886 -0.026193202 -0.07274206 -0.06363353 0.114409395 0.015484706 0.04043661 -0.07146703 -0.046564676 0.002825954 0.07354516 -0.04812405 0.025453927 -0.0080008805 -0.008664094 -0.08903689 0.023207298 -0.029818924 -0.0070248125 -0.011993021 -0.01407881 0.115773186 -0.0915184 -0.07245394 0.06777097 -0.039325282 0.07207627 -0.100182176 -0.112929046 0.104076296 0.0853319 -0.06112352 -0.06324784 -0.06023098 -0.10136575 -0.05770734 0.045953084 0.021799287 0.06604076 -0.07575193 0.08373929 0.07046268 -0.10801915 0.062534735 0.12390478 0.030594772 -0.018959772 -0.07728702 -0.09502887 -0.10769566 -0.014203806 0.090872854 0.05504728 -0.110170044 -0.06081065 -0.086649746 -0.016198626 0.008879641 -0.08293293 -0.09857389 0.021126077 -0.10348465 0.041395824 0.04355462 -0.044442523 -0.11412743 0.08944614 0.08534911 -0.04806737 0.11028741 0.011482676 -0.118443325 -0.0013539485 0.023161605 0.024087138 -0.072534315
زلزله 0.031995285 0.0635437 0.11593789 -0.11428861 -0.055554744 -0.050054193 -0.11225997 0.0835881 -0.03734564 0.009911773 -0.117722124 0.05806894 0.074882425 0.041426834 0.002094997 0.058992468 -0.0007108766 -0.05818542 -0.023758775 -0.04108448 -0.048835453 0.0398547 -0.068788126 0.040781435 -0.028012514 0.09409735 -0.040101744 -0.03781729 0.077076495 -0.0020459269 0.02326783 0.058126412 0.10457714 0.0028338134 -0.0017366568 -0.11916932 -0.009258638 -0.064047866 -0.1172058 0.00076925894 0.06251452 0.0059862905 0.08454785 -0.080847606 0.065973036 -0.079883255 -0.09643783 -0.061211415 -0.08257085 0.02458009 0.015938872 0.119885385 0.11382474 -0.102670826 -0.031243267 -0.004747427 0.11574551 0.10707783 0.04911065 -0.038341485 -0.059693784 -0.109270304 0.0077018435 0.061103147 -0.1058511 0.07911206 -0.045992367 0.08182275 -0.11823861 0.041912176 0.0006067934 -0.050202806 0.06581558 -0.042029187 -0.06570809 -0.07305174 -0.04269115 0.0628164 -0.07342254 -0.06405244 -0.09627473 -0.09592987 -0.0146205425 -0.008544888 0.054222774 0.07320911 0.09638979 0.10202354 -0.088435784 -0.11533957 -0.066042565 0.0121544525 0.01145086 0.041454725 0.0520684 -0.058058668 -0.044807456 0.08557689 0.041557144 -0.005049784 -0.079241306 -0.1157101 -0.0056444574 0.11566427 -0.08190889 0.03803111 0.09990798 0.048598833 0.036966246 0.043413892 0.08518546 0.11377468 -0.06748451 -0.06794279 -0.106183745 0.08536212 -0.05435107 0.0056166886 0.056653466 0.048161574 -0.051935293 0.113387495 0.03153201 -0.1032157 -0.10124867 0.11730307 -0.037507147 0.024136841 -0.013456594 -0.05445328 -0.039294098 0.09844496 -0.009604879 0.06941244 -0.0663741 -0.015305275 0.038146645 -0.013930825 -0.08264562 -0.11119418 0.09860892 0.08102526 -0.0768503 -0.03089935 0.030803861 -0.063182324 0.018981379 -0.073544346 0.081355095 -0.0017367768 -0.07540756 -0.0013480858 0.08129737 -0.0133115165 -0.01876423 0.10354764 0.020060163 0.05784396 -0.043065824 0.118219115 -0.0989024 0.030366924 0.11982706 0.11543368 -0.11027607 0.08733869 -0.084585406 -0.093951136 0.052169066 -0.0050261156 0.08869478 -0.06235628 -0.012700569 0.05766961 0.09353128 0.018828038 -0.034320395 0.072504185 -0.043028995 -0.1067734 0.026429852 -0.0846882 0.098419964 -0.07485745 -0.07066136 -0.114588365 -0.0358159 -0.011949036 -0.034510884 0.07558148 -0.036740284 -0.111802116 -0.00060153665 0.04747052 -0.10856453 0.047126014 -0.10946426 -0.112899825 -0.06472967 0.068635546
هزار 0.114783354 0.09581422 0.018128064 -0.09393757 0.095003 0.019992923 -0.00868225 0.08831435 -0.079556264 -0.0064446605 -0.034389976 -0.09860461 -0.037116818 0.13171826 -0.085079715 -0.098151505 -0.02293329 -0.07212593 0.103635 0.060657505 0.07251944 -0.11472791 -0.07004699 -0.052036773 -0.069070145 -0.12081518 -0.031941816 0.003129801 0.10354269 -0.05181698 0.012711551 -0.05608247 0.09532727 0.11678046 0.101304635 -0.07704873 0.047931712 0.020096129 -0.021510178 -0.008837387 0.05206554 -0.016085133 -0.010789191 0.11665581 0.05328902 0.06884764 -0.045427356 -0.004984662 0.024438202 -0.004415849 -0.080432564 0.11926709 -0.11215134 -0.02406249 -0.026128385 -0.05329488 0.096777886 0.09494216 -0.03725289 -0.09344155 0.07000831 0.07509723 0.049793746 0.016675306 0.012434495 0.07399913 -0.11931553 0.091983266 -0.08474747 0.10158907 0.015707133 -0.065038286 -0.07431577 0.08523982 0.09849444 0.0042099594 0.013656969 0.0046250476 -0.02888743 0.00092027715 0.024512062 0.09966463 -0.03113716 0.084222116 0.07112885 0.08975534 -0.02355756 -0.08657729 -0.013115748 0.05097115 -0.034772012 -0.0046723466 -0.028917452 0.021336425 -0.02985449 0.06811378 -0.10730601 0.08212231 -0.059273597 0.11381443 0.059888102 -0.018135352 0.030110037 0.07672957 0.060572147 0.0060024345 0.109172605 0.05431211 0.02955984 -0.09237216 0.047392238 0.003254298 0.039282482 -0.082192264 -0.028044099 -0.033744127 -0.013773757 0.050745588 -0.11375456 0.11704123 0.12595597 0.019440757 -0.024798453 0.0025734731 -0.03814617 0.0172399 0.017017825 -0.08297565 -0.07016692 -0.10906289 -0.07426003 -0.07271039 -0.01675278 -0.096168555 -0.10646278 0.12920955 0.061100695 0.055924967 -0.0711662 0.10153097 0.08704675 0.07260406 0.10182312 0.10014021 -0.12611745 0.051990658 -0.085821584 0.051781714 0.020817474 0.10035758 -0.09364061 0.11542621 -0.04894859 -0.11214459 0.032098338 0.06277173 0.0536885 0.09087429 0.10284723 0.071927465 0.09645018 0.08369808 -0.042057045 -0.0716988 0.021062361 -0.015264212 0.06793414 -0.10205814 -0.07023933 0.034205135 0.026923385 0.079613656 -0.06891724 0.03869253 -0.0071118497 0.08461544 -0.07841816 -0.06285052 0.0049515795 -0.11324923 0.06593689 -0.003321306 -0.07167824 0.051149357 0.020162694 -0.098411135 -0.09198629 -0.0029747493 0.087414615 -0.029429173 0.099566504 -0.029420184 0.10050515 -0.028198969 0.065924205 -0.047444995 -0.086368 -0.025720803 -0.049916103 -0.07656675
نفر 0.07342444 -0.055556726 -0.118589126 0.07168637 -0.12502405 0.006452503 0.025050906 -0.08646694 0.046453945 0.05903853 0.11704086 -0.007549233 0.0076078465 0.03974586 0.06996918 0.031870283 0.09013025 0.027790748 -0.054877724 -0.059959993 -0.08631454 0.023133803 -0.005540604 0.013907202 0.0065902066 -0.04237231 -0.11249477 -0.015270558 -0.05588863 -0.044253275 -0.1262323 -0.08660772 -0.029192137 -0.0899388 0.10570435 -0.02498557 -0.11676679 -0.07990813 -0.10408697 0.008196113 0.068383455 -0.030323025 -0.012679651 0.114051364 -0.02051153 -0.02886631 0.056642883 0.07152764 -0.03484176 0.11022599 0.03053169 0.065391675 -0.055184748 0.07141567 -0.09410598 -0.061485186 -0.121902354 0.09611266 0.06124692 0.039436556 0.07246171 -0.06731291 0.057396866 0.08884617 -0.11251758 -0.023820365 0.10510687 -0.026700249 0.11984669 -0.06906505 -0.0426416 -0.021125447 -0.029665018 0.06896313 0.10316909 0.044173006 -0.049610466 -0.022649104 0.05571769 -0.012161547 0.0078350995 0.09972576 -0.030588536 0.049207643 -0.013347657 -0.10601633 0.041708622 0.027791282 0.045803912 -0.03274912 0.07370288 -0.028462337 0.019377993 0.07794656 0.036619965 -0.04251589 0.03847467 0.10008796 0.0024842934 0.061360903 0.008063492 -0.024765775 -0.005605744 0.049707934 0.019044485 -0.004793118 -0.10823478 -0.053181775 0.020556515 0.056522988 -0.10732533 -0.029961817 0.030207463 0.008423306 0.0035100607 -0.025853574 -0.06421709 -0.045753647 -0.09410597 -0.12396831 0.022041952 -0.085898146 -0.051282536 0.030267928 0.11162068 -0.032398526 0.03193847 0.024207538 -0.12545842 0.07916129 -0.04276541 -0.0725683 -0.12832974 0.1060296 -0.12619667 0.049919687 0.0021891412 0.05317965 -0.12847643 0.10769543 0.11856749 0.04639757 -0.10750439 -0.08447081 0.055086304 0.033257723 -0.11821346 -0.11239897 -0.011136928 0.11473122 0.08884553 0.043786533 0.041445423 0.018195748 0.07055551 0.10578693 0.11414511 0.04489517 -0.07698331 -0.015927274 0.023776887 -0.04075593 -0.082096495 -0.044275187 0.025695825 0.1135871 -0.094863124 0.12066919 0.016433887 0.11472894 0.1179944 -0.0007043343 0.020833341 -0.07074059 0.08204483 0.0014825122 -0.10778876 0.07881646 0.015232339 -0.04485395 0.061907776 -0.084697425 -0.090248115 -0.057120167 0.06989999 -0.08698909 -0.091985516 0.023152117 0.0956156 0.11074073 -0.018875562 -0.07038776 0.06299111 -0.0995613 0.077207275 -0.06932736 0.06258901 -0.04116517 0.05801817 -0.116182394
اعلام -0.10877242 -0.08141349 0.06517807 -0.06310769 -0.049192544 0.10975807 0.0779964 0.02514876 0.09555148 -0.060616605 0.030997977 0.024375787 0.00308757 0.11017172 0.0002990881 0.079397194 0.11282501 -0.113864124 -0.112936206 -0.054219812 -0.0529986 0.067141406 -0.10682696 0.110958904 -0.10157594 -0.055044655 -0.11339948 0.07921743 0.099505745 -0.05733656 -0.042655863 2.3461307e-05 -0.008661288 0.012818872 0.09334343 -0.06486847 0.01931124 0.037710685 -0.062188696 0.0655309 -0.095124975 0.07442667 0.00552863 0.0731807 -0.09051902 -0.07975348 -0.06508214 -0.048004072 0.033367034 0.10956694 -0.07556674 0.031220749 0.09797898 -0.08239671 0.09931371 0.112468556 0.11233188 0.09930266 0.100495026 0.10663597 0.0020734875 -0.01282115 -0.11374229 -0.033317503 -0.06947355 -0.018074753 -0.078311116 0.068804614 -0.029340452 -0.058360893 -0.06706555 0.01886327 -0.080538586 -0.07356517 0.020039141 -0.05305692 -0.07111154 0.11124381 0.011519451 -0.10986561 -0.014083564 0.07327045 -0.02099847 -0.079920486 0.05362875 0.07628009 0.0810074 0.1087061 -0.017755741 -0.07806288 0.11429602 -0.016749233 0.043358166 -0.031748306 -0.06998231 -0.063004434 0.0643975 0.09401133 0.10960789 0.057880435 -0.0022941562 0.10511074 -0.098284975 -0.031366322 -0.0076885866 0.11022608 -0.004530104 0.10891015 0.0028792524 -0.10929363 0.04067504 0.11130186 0.09730087 -0.025963426 0.088983625 -0.086162716 -0.09429725 0.020480666 0.09920627 -0.10778534 0.11456966 -0.11493108 0.027827842 0.047889974 0.0967865 0.010993919 0.06298883 -0.016310776 0.011702914 -0.042603273 0.086159 -0.054562345 0.1038324 -0.10935551 0.032043513 -0.06706229 0.048686665 -0.07901809 0.052634493 0.018227331 0.08791933 -0.041981235 -0.10308478 -0.04353933 -0.009283185 0.04693025 -0.10624059 -0.054250915 0.010448568 -0.027490504 -0.079878315 -0.06551033 -0.035132527 -0.057749674 0.06064172 -0.07792467 -0.067300096 0.033120465 0.024238296 0.03353624 0.08392071 0.11247214 0.02833966 0.050213512 -0.09896585 0.055887494 0.11340811 0.028644083 0.11087181 -0.096800044 -0.07696244 0.076540254 -0.030117305 -0.08734081 -0.024162771 0.046412904 0.04465398 0.020750867 0.029110795 -0.0071892715 -0.09647239 -0.032167178 -0.031690884 0.019431232 -0.0033097346 0.038926058 -0.008133769 0.030007368 0.048656296 0.014200819 -0.016446905 -0.009811096 -0.115217194 0.01459264 -0.011534884 0.09618266 0.08204043 -0.06855608 0.03285536 0.060867295
خبر 0.12125127 0.06681928 -0.021575376 -0.10847686 -0.11137078 -0.11662878 -0.06835439 -0.028181273 -0.042683195 0.044256598 -0.09870964 0.090446614 -0.101773925 -0.07516217 -0.061192784 -0.12343468 -0.089967765 0.11246325 0.04570695 0.0337222 -0.016064562 0.122334145 -0.012391158 -0.0070145 0.09231914 -0.09450176 0.043558095 0.06918395 0.045294825 0.04343156 -0.011973569 0.013084227 0.018161392 -0.075615875 -0.08388917 0.06572396 -0.04285144 0.03289515 0.054655813 -0.091963485 0.014736469 0.020884953 -0.0003951764 0.08171038 -0.05473386 -0.04752943 0.041278474 0.05532502 0.09594003 0.040761422 0.090251945 -0.043054104 -0.058989186 -0.0020193644 0.041386917 0.06572895 0.07469013 0.04510041 0.0824968 -0.08450481 -0.022355037 0.09831181 0.05484658 0.011863757 -0.06421387 -0.11137072 0.06953448 -0.015578702 0.07191377 -0.100158125 0.076982506 0.10854883 0.0012596581 -0.03729844 0.060540292 -0.06182948 0.018371863 -0.008517027 -0.091226906 -0.011840148 -0.017026993 0.018853923 0.0562752 -0.006992993 0.12416633 0.03089334 -0.03206837 0.10818402 0.071343124 0.06581414 0.016356053 0.06360995 -0.0565137 -0.015279207 0.10108994 0.016814243 -0.07377502 0.06737601 -0.09670858 -0.10803701 0.10641192 0.049099665 0.10079126 -0.10454391 -0.020252418 0.0655417 -0.036525458 -0.01804368 0.07730845 0.013409514 0.079816766 0.04655584 -0.100776635 -0.07388832 0.001279344 -0.016251136 -0.07897082 0.007875773 0.001623871 0.10580533 0.022697689 0.026217932 -0.115822814 -0.0040058997 -0.012559624 -0.0028312197 0.094869085 0.06981078 0.02493193 -0.053654592 -0.09345281 -0.08291338 -0.010954457 0.019724851 0.06390889 0.085837856 0.09108506 0.072333366 -0.0102322055 -0.0914871 -0.09891079 0.07772382 0.04492079 -0.065346554 -0.081688575 -0.010409209 -0.010537162 -0.008663433 -0.091464266 -0.059961863 0.08682458 0.00659132 0.045633763 0.029529195 -0.111807 0.0060420805 -0.0673711 0.032151677 0.04706664 0.12007718 -0.10876469 -0.08345637 0.12487758 0.015742378 0.12566927 0.10477866 -0.07777807 -0.047246814 -0.107860796 -0.02121996 -0.07048705 0.019491026 -0.07130485 -0.07115233 -0.11666295 0.007832069 0.065731145 -0.0019640021 0.004855095 -0.12548472 0.034997284 0.012089544 0.06852025 -0.111290954 0.061631396 -0.11183348 0.09652877 0.09324868 0.09373078 0.119078234 -0.120759435 0.0066031236 -0.02195468 0.0350972 -0.06703247 0.065972134 0.08929905 -0.11805297 0.102247775 0.11279692
مقامات 0.07807907 -0.101149395 -0.049716767 0.10864314 0.047345772 -0.09159529 -0.012143362 0.05349863 0.00048298493 -0.024843575 0.04759751 0.049506117 -0.032119557 -0.056590416 -0.102073826 -0.009646206 0.1086259 -0.034431197 0.08914608 0.09748934 0.012306871 0.015210624 0.1105775 0.06908419 0.06689016 -0.05681856 0.029927151 -0.061014656 0.06754901 -0.095614724 -0.013192305 -0.014914233 0.10739178 -0.030316714 0.08582922 -0.025360702 -0.09162822 0.11869528 -0.03964635 0.11214653 -0.016117547 -0.011495922 -0.0047571473 -0.09492922 -0.121597424 0.10989537 -0.0067861313 -0.108634666 -0.028576419 0.014546694 0.094863325 0.083392724 0.11749849 0.036247578 -0.053394426 0.10873443 0.10780452 0.07727245 -0.11916045 -0.083404265 -0.025701271 0.07828665 -0.061303604 0.11204567 0.1114802 0.05831326 0.097756796 0.03700079 -0.079814635 0.028677797 0.056467682 -0.008709886 -0.027807005 0.08878394 0.0854822 0.09541213 0.11778092 -0.09059886 0.04778749 0.08920756 0.055122152 -0.10632124 0.10039704 0.049137574 0.0021734836 -0.101866744 0.04400721 0.09040957 -0.07510266 -0.00043708392 -0.012031443 0.109512 -0.03138247 0.046482354 0.06369573 -0.054334577 -0.078069724 -0.05923899 -0.012263751 0.01304941 -0.02832905 0.11258182 -0.0025470878 0.06041101 -0.047296662 -0.11801796 -0.044897534 -0.112109974 0.107220456 0.01760665 -0.016948167 -0.10609679 -0.09749194 0.11017415 0.021738319 -0.00062984024 -0.021599444 0.11018494 -0.07114158 0.0584748 -0.06555403 0.010836054 0.005217037 -0.05113715 0.011537783 -0.034195434 -0.05581485 0.0788883 0.022923457 0.039614107 0.05035816 0.04958468 0.054417603 0.10858569 0.03783351 0.03733975 -0.005829741 0.056327693 -0.038288828 -0.123371236 -0.06960886 0.10969576 0.120702475 0.064457655 -0.049525406 0.031840414 0.0053608203 0.09355581 -0.10403122 -0.0025854786 -0.016872093 -0.03882715 -0.10599699 -0.10357897 -0.04685026 -0.09239078 -0.061238248 -0.045295667 0.09274341 0.006726226 -0.07773866 0.043124754 0.067126855 0.007004052 -0.0064098127 -0.08988305 0.051938158 -0.03715198 0.07373546 -0.029337963 -0.10739714 0.058134217 -0.031722307 -0.11944296 -0.07591087 0.04641118 0.06047067 -0.05200255 0.090507336 0.007446616 -0.055978283 -0.10844642 -0.10416156 -0.011502725 -0.07020822 -0.00885856 0.019042106 -0.06394383 -0.05886211 -0.06524395 0.10840268 0.04427887 -0.010912778 -0.026312467 -0.07654632 -0.12046692 -0.009695374 -0.091744184 -0.11549781 0.0037681093
زمين‌لرزه -0.08276434 -0.08829468 -0.07471775 -0.042929 -0.03465976 -0.0016406515 -0.076732 0.11321249 0.023560984 0.082075275 -0.11003095 -0.108928055 0.103913255 0.090185046 0.06833619 0.07545479 -0.099051096 -0.06263984 -0.07385352 0.07298336 -0.089807674 -0.04123204 -0.011212325 0.05484513 -0.08567153 0.05188934 0.007190044 -0.103372045 0.09328565 0.030940633 0.058937844 -0.052966043 -0.016119398 0.053503077 0.0095948 0.027957872 -0.08472386 -0.05420473 -0.11420857 0.10643681 0.0037518432 0.032609127 0.040539347 -0.08044216 -0.0011665314 0.114525326 -0.03426257 0.109036714 0.08631214 -0.092185535 0.05861392 0.075451836 0.09925849 -0.024636347 -0.10875697 -0.062849596 0.062038314 0.081930295 0.08186493 -0.02226599 0.054282676 -0.0873519 0.01700528 -0.1010218 0.107001044 0.0066582765 -0.07327595 0.109526716 -0.114058584 -0.0802573 -0.07478781 -0.08711021 0.10345762 -0.009791429 -0.030078087 -0.046023905 -0.079348825 -0.050966907 0.10939486 -0.069251046 -0.09573138 -0.0856084 0.047863215 -0.03726485 0.07172156 0.01358403 -0.014741886 -0.041445654 0.09027003 0.09825501 0.08968275 -0.036511023 -0.06398283 0.03022429 0.046679746 -0.0076238876 0.019556725 0.043756068 0.1152218 0.055667855 0.10318463 -0.009387278 -0.08837332 0.086038955 -0.0007644354 -0.102990426 0.062191725 -0.062283583 -0.07013707 -0.07882907 0.051601697 0.11838325 0.08023972 0.08985076 0.038404837 0.102089 -0.041644204 0.014243691 -0.0367686 0.07936526 -0.008936828 -0.051952444 0.022763813 0.0764977 -0.10863958 0.04580885 0.04787671 -0.06639277 -0.07733647 0.06428869 0.07620651 -0.051418487 -0.098407716 -0.076996125 0.07345221 0.076092966 0.0060044364 0.027877675 0.08248997 -0.08802453 -0.078451775 0.040331244 -0.07313738 0.052257657 -0.034469765 -0.048237413 0.08188067 0.0814266 -0.061088063 -0.008523301 -0.07700534 0.03364131 -0.013776371 -0.078458264 0.087404065 -0.019538667 -0.10535628 -0.0597549 0.10307165 0.09279269 -0.0026487373 0.11284429 0.016293349 -0.047072895 -0.09249174 -0.032166485 0.025556544 -0.08768221 -0.086880825 -0.034998953 -0.110959664 0.029431487 -0.098704405 -0.021612745 -0.08092165 -0.09544347 -0.10583978 0.08143656 -0.049101483 0.014349483 0.05632762 -0.033173364 0.10482518 -0.09422907 -0.04418387 -0.11235096 0.0236505 -0.06866933 0.04066027 -0.0744297 -0.08132505 0.07926651 -0.018568937 0.0118712075 0.025516309 -0.049127735 -0.04833612 -0.024308505 -0.06718266 0.10441959
وان 0.021666365 -0.120061256 -0.11796293 -0.08796877 -0.068759054 -0.053639647 0.012075398 -0.008217768 -0.05223327 0.041117713 0.07398901 0.03955588 0.08110291 -0.09360347 -0.11437482 -0.11776837 0.11056531 0.038869027 -0.00680171 0.06315009 0.024157507 -0.045836315 -0.041715734 0.109736264 0.013614629 0.094397515 -0.07646962 0.11621479 -0.03440603 0.029097604 -0.085237145 -0.033791754 -0.04645835 -0.060033206 -0.042561848 0.034817684 0.106144026 -0.11888901 -0.045860972 -0.012814654 0.07474207 0.11372653 0.0905759 0.033152588 -0.04702469 -0.07475508 -0.09121668 -0.06365889 0.10023519 -0.10992472 0.041383937 0.046440594 0.09314994 -0.0039284485 0.02783019 -0.097022764 0.010221631 0.07819531 -0.05744195 -0.016391272 -0.0134477215 3.472297e-05 -0.11161679 -0.089125454 -0.03580942 -0.06136453 -0.07906648 0.08571625 0.026085822 0.021158842 -0.03980305 -0.009216044 -0.056373615 -0.048949566 0.04839678 0.11779931 0.07203858 0.07124884 -0.010752449 -0.0806958 -0.019468592 0.06367155 0.0003271693 -0.03608154 -0.037086323 0.09730183 0.013948723 0.12043155 -0.09812107 -0.058941364 -0.009700083 0.047465708 -0.008694395 -0.09357936 0.053709842 -0.021081194 0.024957031 -0.11934645 -0.09271331 -0.038136818 -0.059897535 -0.008960981 -0.10175062 0.04539488 -0.084630325 -0.024540264 -0.06393433 0.024113534 -0.114925176 0.11360423 0.049217623 -0.021821484 -0.095888704 -0.07592123 -0.053114824 0.026533062 0.095982604 -0.010416739 -0.076422624 0.095609985 0.0038739773 0.083203174 -0.06517647 -0.09797034 0.063860334 -0.04433049 -0.024256356 -0.105962776 -0.10970106 0.041967373 0.07019501 0.0061837765 0.067357115 0.065714516 0.071288414 -0.07495462 -0.11559234 -0.096416935 -0.115884855 -0.099829555 0.06658199 -0.013306792 -0.11550782 0.09304363 -0.0007576631 -0.116104245 0.019076435 -0.098098464 -0.026989743 0.027775168 0.097228974 0.041261084 -0.07574829 0.055737853 0.09237862 0.06483889 -0.08504554 0.021010075 -0.11523557 -0.10648902 0.06863549 -0.06850696 -0.055357203 0.055280965 0.10474623 0.026165595 -0.05675718 0.0851415 0.077827804 0.11901947 -0.09674741 0.054857083 -0.05392537 0.07678404 -0.09851522 -0.077647485 -0.049161967 -0.08354017 -0.04077001 0.07129543 -0.03401591 -0.069642544 -0.06937053 0.087408364 0.034334213 0.0394048 0.005884319 0.0029905916 0.047326606 -0.052602116 0.06329669 -0.04282731 0.02810542 -0.015001357 0.08478943 0.09531975 0.020135187 -0.064762615 0.11637458 0.08223201
نجات 0.0841405 0.020486342 -0.04557611 0.069727995 -0.06781583 -0.063496634 0.05124183 -0.07276153 0.0026295406 0.04779704 -0.06857181 0.005064548 -0.0050802594 -0.014335969 0.066314496 -0.0050972574 -0.035729647 -0.115875736 0.0062747705 -0.11300145 0.0977932 -0.08308905 0.018354923 0.043151475 0.08232553 -0.062472336 0.110375166 0.0051270723 -0.03713335 -0.11227149 -0.04294606 0.0047852998 -0.10271327 -0.029652031 0.10422814 -0.085748844 0.007967775 -0.09904463 0.08054612 0.00219094 0.04016997 -0.050064087 0.07004449 -0.031406358 0.081679136 -0.08766883 -0.05201129 -0.048693698 -0.09264214 0.06606767 -0.011452134 -0.055803504 -0.040844467 -0.0061125974 -0.03385515 -0.06812212 -0.06492315 0.04303058 0.111231685 -0.045739274 -0.010413751 -0.109667435 -0.075707175 0.09489913 0.030998603 -0.06787652 0.10972531 -0.053799056 -0.016941411 -0.0881556 -0.10975075 0.072736055 -0.025945816 -0.10945497 -0.10411768 0.10357578 -0.03496048 0.09499228 0.11436147 -0.11842747 0.090722196 -0.07545405 0.02509618 -0.09877919 -0.05838963 -0.020317754 0.11490754 -0.04978388 -0.073040485 -0.08698144 0.06191441 0.0653736 0.082977034 0.081974074 0.05543293 0.08647614 -0.053273074 0.08835704 0.07652988 0.0047796136 -0.0016522522 0.06470065 0.018606255 0.09800101 0.015186409 0.016043779 -0.028880252 0.101862945 0.08698612 0.102647595 -0.02564118 0.00061463506 0.05477866 -0.10397263 -0.053939532 0.013138484 0.00030630882 0.03694074 -0.04854378 0.019470813 0.116930224 -0.001165411 0.094644964 0.06413814 0.065438524 0.049324848 -0.08869104 0.08138997 -0.05165102 -0.10344723 -0.11677177 -0.11358314 0.041259345 0.11628676 0.11705736 0.08522107 -0.00054928137 0.066636726 -0.08443718 -0.079825446 0.04692499 0.03870271 -0.07694371 0.028073378 -0.045290418 -0.10814796 -0.050810665 0.09844249 0.118737996 -0.046479434 -0.112584434 -0.024669057 0.009391589 -0.0860945 -0.08752289 -0.0058520916 -0.027719432 0.09694709 0.010592808 0.0010977355 -0.019330805 0.0058043185 0.11359683 -0.11427731 -0.09024599 0.06411591 0.05637923 -0.06685005 0.10489362 0.07703127 -5.6509325e-05 -0.082183674 -0.0758537 0.04462485 0.071594305 -0.06857106 -0.07455032 0.094165616 -0.0060837413 -0.053579614 0.06686452 -0.057067394 0.0628674 -0.11526919 -0.06481498 -0.08084877 0.095304884 -0.10974683 0.021050287 0.030606348 -0.11284841 -0.06299424 0.005551574 -0.06285907 -0.01742595 -0.010338189 -0.06866303 0.08990675 0.05686176 0.06052732
را -0.083613634 0.05760768 -0.08983836 -0.09591997 -0.013984551 -0.10621092 0.075343624 0.093046166 0.06629641 0.063748695 0.103195116 0.03570302 0.12086229 0.1223777 0.017276725 -0.080573045 -0.11808314 -0.05914299 -0.109513 0.11049065 0.019744294 -0.084585994 -0.08122509 0.08951357 0.050588094 -0.036471177 -0.080062255 0.054787118 -0.0050026756 0.009133929 0.041658476 0.11118637 -0.106236085 0.11081419 0.026570035 -0.09280781 -0.10706707 -0.11739765 -0.09524087 0.08892141 0.017922971 -0.052768108 -0.031348776 -0.06668815 -0.041668206 0.014598297 0.10968048 -0.013300411 0.04317473 0.00171589 0.0730252 0.038739406 0.07704734 -0.056325797 -0.09866961 -0.0044960906 0.0014608678 0.09433412 -0.0855037 -0.091535956 0.07280217 -0.081765234 -0.075198315 0.11861496 -0.01228581 0.059871066 0.0047977716 0.1166153 -0.047323067 -0.0322334 -0.057059463 0.051526293 -0.022535332 0.09194053 -0.07258824 -0.083202995 0.05604396 0.060770575 -0.106231675 -0.04131716 -0.079249375 0.01816694 0.11780912 -0.11164246 0.089485556 0.08426673 0.08484023 0.06674061 0.023707185 -0.05224182 -0.10444793 -0.06455348 -0.057634857 -0.07243865 0.108132035 -0.019419586 0.036081452 -0.054471366 0.026295079 0.031315252 -0.069556594 0.07403321 0.08733341 0.04846727 -0.11146172 -0.050400246 -0.09599371 -0.096752435 0.035526615 -0.037471022 -0.021248573 -0.055545922 0.049783032 0.0045924624 -0.052349225 0.05457005 -0.065007426 0.083321646 -0.05967806 -0.06975475 0.06663056 -0.020455249 0.07840928 -0.053143863 0.111117385 0.11444371 0.043003812 -0.06697498 -0.068519875 0.023462297 -0.10202557 0.09481868 0.06826357 -0.045635547 -0.014629318 0.083100304 0.030938968 -0.025230972 0.09200556 -0.10482613 0.08957024 0.0436291 -0.034263514 0.0255591 0.029268395 -0.057501443 0.0130154835 0.04915028 -0.009002568 0.0625049 0.0010589617 -0.06244769 -0.054708768 -0.11475804 0.10129585 0.054618135 -0.051843524 0.004956717 0.08409596 0.094126664 0.06698185 0.006913934 0.11092572 0.04539064 0.11850399 0.055326894 -0.03147554 0.048760176 -0.0034915144 -0.029720636 -0.0852255 -0.041542165 -0.026727373 -0.014788224 -0.052890323 -0.061008114 -0.020905402 -0.065799996 -0.1153375 0.012665575 -0.016873777 -0.10515426 -0.043865364 0.10753104 0.08664032 0.08073069 -0.08197087 -0.0004397385 -0.083530925 0.007255079 0.015861074 0.09728382 0.064802535 -0.013111601 0.08110718 0.07973481 -0.04752475 0.0127371345 0.08963599 -0.11051899
وقوع 0.0479682 -0.06485672 0.036437836 -0.0116420025 -0.08853714 0.06244389 -0.10311911 0.114032246 -0.1185031 0.010598639 -0.01806207 -0.035281107 0.07861098 0.06703751 0.07231329 0.030112147 -0.06775043 -0.06696194 -0.09377816 -0.09791651 0.023570415 -0.002249222 0.08859678 -0.0796792 0.0193523 -0.035572022 -0.05780745 0.09887612 0.00054690556 -0.083260156 0.010936382 0.015669677 -0.09793796 0.075137496 0.09196397 0.05265782 -0.0031227292 -0.04080171 -0.10184051 0.07275171 0.054725163 0.10958795 -0.023670325 -0.0806038 0.0962253 0.09326789 0.07488015 0.09304681 -0.06220663 0.111131884 -0.05122607 0.004707383 -0.011889666 0.06299233 0.08275813 0.048692033 0.09143115 -0.08926267 -0.07600007 -0.06715661 -0.06826878 0.07628705 0.020984463 -0.043264557 -0.09517969 -0.11587021 -0.07592759 -0.078889996 0.09675751 0.042582564 0.09501482 -0.021017026 0.067204066 -0.11203132 -0.01900258 -0.045285024 0.05243547 -0.06070754 0.10376356 -0.1164003 0.004513843 -0.09188585 0.037401933 0.07514613 0.05836309 0.03753265 0.02439414 -0.03852798 -0.090742275 -0.101118594 0.08402827 0.117289305 -0.017783294 0.044986136 0.056353353 0.09372373 0.045602627 -0.044520497 -0.025269376 0.07357942 0.055371623 0.030961385 -0.08095624 0.07145834 -0.10875359 -0.029896837 -0.12101668 -0.053442042 0.0023826463 0.053770296 0.10441585 0.07176061 -0.10802175 0.010064416 -0.02062261 0.05315578 -0.06701014 0.115532555 -0.105038784 0.025693307 0.11966934 -0.08861525 -0.012761062 0.11003218 0.035779733 -0.092125535 0.04186643 0.004175078 -0.027776454 0.044056915 -0.044399913 -0.065759934 -0.07913576 0.015860379 0.07426745 -0.018151764 -0.09316793 0.0808741 0.09906214 -0.112596974 -0.099147804 -0.101114504 0.019530943 0.080203414 0.014034222 0.049999673 -0.016177818 -0.06459944 0.08713122 -0.109844744 0.036601808 -0.035206717 0.066266865 -0.009184719 -0.06654138 0.017910175 0.015885783 -0.018760806 -0.10407126 -0.004376725 0.06325732 0.11291914 0.10204167 0.107822694 -0.035861056 0.07879474 0.010616852 0.10233625 0.07033736 -0.060023874 0.064172365 0.06645699 0.06898954 -0.01311731 0.043522544 -0.111823395 0.103252135 0.11520055 0.10581114 -0.11728133 0.012496181 0.10234312 -0.00245841 0.04335948 -0.077515304 -0.031458087 -0.01819092 0.070173986 -0.037430193 -0.026804995 -0.07980061 -0.04063824 -0.10735572 0.010816275 -0.04106565 0.023135766 -0.04866957 -0.08426639 -0.052697003 0.06433977
است -0.047646724 -0.049388733 0.044534493 -0.0711211 -0.018031111 -0.0835791 0.09939938 0.09319232 -0.08639008 0.100063145 -0.11986904 0.11403723 -0.042473797 -0.07341936 0.02759505 0.04018849 0.04853179 0.027799208 0.09099744 -0.037425976 0.05431141 -0.051099468 -0.06869403 0.08396187 -0.07488091 0.0699641 -0.10831747 0.07155501 -0.09011861 -0.015108315 -0.07596801 0.031663045 -0.0487067 0.008172204 -0.004413007 0.024642242 0.023024937 0.006392987 -0.052583124 0.08398742 0.005263008 0.022394681 0.06279123 -0.07495876 -0.05761901 0.024479268 0.012269957 0.10802487 -0.10790835 -0.031829502 -0.08538747 -0.026655676 -0.064687 0.09278113 -0.08790486 -0.013141306 -0.009345918 -0.062621094 -0.10406122 0.04669894 -0.081271574 0.020690924 -0.05332768 -0.10502229 0.08393408 -0.008812798 0.08414755 0.062185403 -0.07471949 -0.03067925 -0.04027685 -0.00025320376 0.055820383 -0.11165747 0.0024235693 0.0199992 -0.081675306 0.072034344 0.039248012 -0.049551055 -0.10044109 -0.043594982 -0.049620707 0.09555791 -0.059719812 -0.095637776 -0.047125418 0.08333937 -0.094042934 -0.068441726 -0.0864712 -0.020863838 -0.055215064 -0.07868023 -0.03474005 0.09619924 0.06397705 0.07061934 0.084227204 -0.028780576 -0.024158297 0.09602139 0.051036034 0.026282439 -0.10177803 0.038745377 0.0982069 0.10411941 0.09482516 0.02784932 -0.08300154 -0.046356346 0.02172667 0.104360506 0.08529534 -0.061314326 -0.08254061 0.11169512 -0.08623561 0.06907624 0.09249749 0.05966911 -0.002900735 0.108703084 -0.024671957 0.04282459 0.056760926 -0.08721685 -0.0010207104 -0.07047058 0.115953326 -0.011840758 0.018538078 -0.10016011 0.108208135 -0.07373103 0.10662303 -0.11730867 0.103104636 -0.013481049 -0.04386629 0.023286175 0.07716503 -0.09686991 -0.11840176 0.08077918 -0.025125088 0.046570502 -0.09228098 0.09712068 -0.10116022 0.046700362 -0.015003182 -0.0041451957 -0.04790597 -0.045343254 -0.010405329 0.0249352 0.08724048 -0.056390654 0.11773001 0.10795593 0.1005245 -0.04290578 -0.0007000725 -0.047601733 -0.011289422 -0.017983293 -0.048124705 0.024242295 -0.057890628 0.06830998 0.097452894 0.0315827 0.11665743 -0.02234511 0.03712336 -0.09375887 0.046177328 -0.01600544 0.0725494 0.110906914 -0.11155271 0.062918946 -0.058741316 0.07593933 -0.07384928 -0.08399705 -0.11163423 -0.06495393 0.08780743 -0.08372809 0.11073583 -0.06809561 0.0840113 0.116726644 0.07109388 -0.05890236 -0.05542634 0.07466997
بر -0.117405444 0.024981562 0.042597555 -0.02991202 -0.013853149 -0.007947688 0.10897061 0.005977925 -0.003947323 -0.08391101 -0.06499951 -0.0076145134 0.0156101035 0.019402057 -0.07218442 0.038557466 -0.07274518 0.05514661 0.040652484 -0.07573142 -0.012174342 0.07249663 0.097582094 -0.11038027 -0.09212098 0.11639258 0.015351934 -0.109802596 -0.06517366 -0.11165175 0.06388725 -0.015689516 0.024104128 -0.051151328 0.089582 0.08423348 -0.06949391 -0.0005955616 0.06632908 0.08937144 0.08581362 -0.014070708 0.07561375 -0.06938319 -0.10253186 -0.10171313 -0.012615184 -0.034469288 -0.114342734 0.08093224 0.071887754 0.00493983 -0.07995962 0.09701079 0.06471021 -0.05071896 0.08651596 -0.09147332 -0.108204424 0.05105305 0.025722349 0.009623947 -0.039500877 -0.048895102 0.002302525 0.10893368 0.08989204 -0.027034182 -0.028564798 -0.09620339 -0.06437161 0.05689981 0.051586796 0.0031015954 -0.095918365 0.030590437 0.08473798 -0.043687157 -0.052998915 0.06572983 -0.025882738 -0.08376986 -0.09273288 -0.114933506 0.020924158 0.040640257 -0.05733964 0.05854794 -0.059338912 0.103256725 -0.032178674 -0.11194921 0.042093217 0.03260008 -0.09129354 0.11812218 -0.031672247 0.052401856 -0.07583571 -0.11818034 -0.06011847 -0.087530315 -0.0939616 0.11797839 0.06801949 0.04672762 -0.028063377 -0.10494614 0.11296047 0.108110346 0.053839523 0.11962512 0.10546663 -0.05544211 0.018054435 -0.10270402 0.0124851735 -0.0063753626 0.108453535 0.0878364 -0.06683967 -0.01325808 0.0145603325 -0.016074076 -0.07681004 0.03544416 0.076033205 -0.0065235216 0.07393257 -0.108573124 0.09510198 -0.05134543 0.039394967 0.008212246 -0.08805521 0.007283143 -0.11065443 0.06320467 0.091311425 -0.04737066 0.09911135 -0.082378514 -0.02954087 -0.009711774 -0.064984426 -0.006859546 0.06905541 0.038155634 0.07898285 0.07611708 0.0016043697 0.05936412 0.06381168 0.022674056 0.10552923 -0.030783867 -0.06451124 0.10742361 0.087499455 0.021065155 0.0383841 0.06527078 -0.04784079 0.060739458 0.035385385 -0.09111878 0.028630663 0.032294847 0.031912733 -0.025198104 -0.075209886 -0.061008506 0.0134632075 -0.09689246 0.055752452 0.11934777 0.06768774 -0.08260637 -0.08825261 -0.07699812 0.038618088 -0.00049492385 -0.05222963 0.11668987 -0.045045648 -0.08523434 0.019510131 0.07012017 -0.032439306 -0.10667777 0.11387224 0.041763414 -0.11963385 -0.08374322 -0.11952384 0.08507536 -0.08602021 -0.079040535 0.070512034 0.017772717
با -0.10744214 0.054254826 -0.10245818 -0.09991347 -0.036874037 -0.048731197 0.0049755806 0.024632104 0.035870463 -0.043449372 -0.11390352 0.03194553 -0.092056915 -0.07161798 0.10125994 0.022723354 -0.07963054 -0.037246056 -0.042051747 0.021174848 -0.11244547 -0.0697942 -0.07420108 -0.019352365 0.06410013 0.049727023 0.09626881 -0.10089445 -0.0105042 -0.08629929 -0.08035525 -0.10491667 0.08860697 -0.100004725 -0.10343393 -0.10388852 0.045845978 0.06278395 0.020106344 -0.052784573 0.09686912 -0.09983642 -0.041915886 -0.00090404693 0.04218757 0.050206445 -0.050624587 0.022387674 0.06317248 -0.11036757 -0.037605226 -0.10707347 -0.061797127 -0.014195828 0.029322913 0.06219436 0.05005862 -0.09167874 0.073133744 0.113005266 0.026626484 0.06982255 -0.11032798 -0.013407841 -0.0143802855 0.10662972 -0.048720255 0.10888128 0.08258798 0.025951143 0.080944136 0.032350317 -0.0140404105 -0.07943244 0.05520773 -0.0065975394 0.04593756 -0.042018767 0.049666017 -0.050959725 -0.056527343 -0.01617983 0.040647265 0.08108191 0.08526766 -0.011364589 -0.046466794 0.041001793 -0.026826734 0.11681751 0.004073377 0.012544756 0.09697002 -0.089438476 0.04280269 0.10522533 0.077917024 -0.11397954 0.06808543 0.11344667 0.046858706 0.07972686 -0.074152134 0.063386805 0.03102674 0.09057109 -0.07776848 0.06550593 -0.011726316 -0.06209268 0.021305986 0.004528439 0.020115253 0.086777136 0.048339564 0.08948059 -0.02324349 -0.03161088 0.0719906 0.09921317 0.10968302 -0.02971847 0.09264883 -0.091664575 0.07551302 -0.05242017 0.10347169 -0.117304616 -0.08140485 -0.019574145 0.04510326 -0.0023684956 0.033655714 -0.070777416 0.07800502 0.11445667 0.07130033 -0.094810925 -0.0856815 -0.008603056 -0.048231468 -0.08255592 0.04139127 0.11297329 0.017441224 0.09813303 -0.0063513136 0.07317234 0.12016977 -0.10759758 0.03001849 0.066800654 -0.011281703 -0.0770884 0.107257955 -0.056759745 0.035018668 -0.041554987 0.058239687 0.10079573 0.10279305 0.039322373 -0.0033292242 0.10185823 -0.07220955 0.027781857 -0.08996888 -0.11904045 0.08594126 0.01791384 0.1190908 -0.020374665 0.05070059 -0.06604441 0.0078839995 0.115036406 0.052181043 -0.058210824 -0.11548456 0.020038152 0.10923079 -0.11486554 0.027445698 -0.104242854 0.046189982 0.05853908 -0.091025606 -0.009231062 0.0025227892 -0.04920715 0.04676352 -0.030425081 0.044624537 -0.049167957 -0.013911055 -0.11752566 0.05719198 -0.07666969 0.08547833 0.041562315
موقت -0.029235233 0.055119045 -0.008319869 -0.12495833 0.032477092 -0.08237138 0.10433012 0.096596114 0.08538649 0.12714058 0.006037649 0.1045754 0.08241955 -0.06965827 0.043313794 0.041378077 -0.0218042 0.038339198 -0.09415231 -0.00014622131 -0.08254162 -0.063357465 0.08290098 0.06928652 -0.004422958 -0.009175818 -0.03262498 0.050480235 0.09751336 0.03477543 0.04775406 -0.0075717415 0.03188311 -0.104099646 -0.0631023 -0.07845853 0.009333316 0.012015793 -0.0039978684 -0.08858606 -0.11403899 -0.10994263 -0.085813075 -0.016141312 0.044341136 -0.08616954 0.10015699 -0.073606774 0.024859589 0.10734212 0.031864967 0.035428826 -0.008195551 0.0149639305 0.042771265 0.011854896 -0.051192727 -0.032444127 -0.080551334 -0.044957634 -0.07664677 -0.09707008 -0.11028421 0.0996046 -0.044667955 -0.008046634 -0.11295596 -0.00062382384 0.10309742 0.010776264 -0.12579522 0.03463923 0.018265076 0.030945 -0.04473767 0.058151666 0.078286126 0.10366716 0.043129932 0.006076413 -0.07236642 0.056168236 -0.053452607 -0.08505911 -0.010911116 -0.11169865 -0.031276267 0.019615106 -0.10464736 -0.04220971 0.109460175 0.11090999 -0.04529415 -0.03440354 -0.09674769 -0.0077497615 -0.0862658 -0.08466721 -0.05306731 -0.01876968 -0.086854115 -0.111469895 -0.12265065 0.0343541 -0.09235368 -0.08492825 0.11889505 -0.03597145 -0.021234892 0.08205915 -0.11654126 0.12987775 0.040291958 -0.01992327 0.05663012 -0.016464034 -0.06524427 0.008602059 0.12057726 0.04839281 0.08357998 0.023030244 -0.063907936 0.043482304 -0.053555783 0.12036125 -0.010929179 0.049390987 -0.08755753 -0.09620273 -0.108098984 -0.10803276 0.036813445 -0.07734929 0.024275472 0.04049305 -0.109793924 -0.08205168 -0.030266616 -0.019040884 -0.062526 -0.09495022 -0.08396527 0.11210538 0.055171747 0.019953946 0.05695732 0.10645157 0.1186346 0.055262763 -0.070259914 -0.024615046 0.068356305 -0.077884205 -0.056622136 -0.102135345 -0.0479922 0.05629415 0.07955368 0.04347619 -0.015881037 0.079717584 0.031423442 -0.029634638 -0.12469703 0.0754573 -0.023174206 0.08028657 -0.07717169 0.0617894 -0.060879424 0.0809951 0.09379402 -0.0012366339 -0.014079971 0.07162627 0.009717369 -0.11987526 0.011229585 0.035407588 -0.013842972 0.018983157 -0.06387533 0.058439463 -0.046877265 -0.050238416 -0.048320793 -0.047104597 0.05541875 0.07941486 -0.12016495 -0.01293328 -0.013323698 0.08561488 -0.07466819 -0.11819137 0.049350135 -0.11187182 0.08116424 0.08879533
ترکيه، -0.090564914 0.023279835 0.03428738 0.061421156 0.032103796 -0.04364612 -0.04262246 0.11534798 -0.051833585 -0.048717007 -0.09422556 -0.0043093776 0.08425813 -0.057634473 -0.029877607 -0.06510941 -0.1115407 0.090872735 -0.10973495 -0.071167335 0.03271752 -0.073019475 0.033999562 0.034625612 -0.10445517 0.09792063 0.020101288 0.029502267 0.09528522 0.028028212 0.05756575 0.112055585 -0.07687714 0.02601935 0.04662355 0.024425989 -0.10474342 0.11808179 -0.01853045 -0.076032884 -0.010640616 0.060352985 -0.020069031 0.062414434 -0.106464304 0.04372657 -0.030454172 0.113349475 0.064364724 -0.08335482 -0.035933677 -0.10539394 -0.018057873 0.055871673 -0.038163893 -0.07823112 0.09657513 0.043043096 0.022899283 -0.020713063 0.09555559 -0.033662513 0.08724838 0.0031684693 0.08546491 -0.0930824 0.09544553 -0.039866537 -0.07547849 0.07967425 0.07230646 0.10289595 -0.030497327 0.03100079 0.08969087 0.05617588 0.021249989 0.006964232 0.09057323 0.051137626 -0.088748194 0.11147268 -0.06412082 -0.11981545 -0.007347624 -0.08149307 0.085125774 -0.06769962 0.07207835 0.10089856 -0.020888085 0.018973358 -0.07998058 0.05070635 -0.041989822 0.016290639 0.079573594 -0.038390502 0.025868757 -0.029347232 0.09240254 0.012201642 0.016768461 -0.06896939 0.026770992 -0.08773903 -0.110763825 -0.070833266 -0.06415443 0.012696444 -0.06805202 0.048789002 -0.085165024 0.01692042 0.06163863 -0.0702826 0.08323209 0.04250873 0.010290003 -0.051736694 0.039307017 0.11143735 -0.090540774 -0.00017973653 0.014683125 -0.107500546 0.068938866 -0.10417865 0.048589107 -0.118625104 -0.077021934 -0.106623895 -0.11840483 -0.11206242 -0.07133954 -0.063390434 -0.06781143 0.010361627 0.11231211 -0.043827362 0.07323806 0.011305806 0.09134494 -0.07402545 0.092782 -0.04709541 0.071661696 0.04560864 -0.058254845 -0.101730786 -0.10159755 0.08969801 -0.019366972 0.03317663 -0.028295543 -0.083377734 0.10347641 0.05905108 -0.10072824 -0.047893707 -0.101699054 0.0382669 0.01130462 0.025328744 0.09896007 -0.07771997 -0.035331532 0.09762778 -0.0019691829 -0.023745501 0.026679365 0.10022899 -0.03653789 -0.07097331 0.115433164 -0.053295963 0.033232253 -0.117437266 0.022366513 -0.0027262392 -0.013341013 0.03597499 0.09841213 0.060912576 0.048240814 0.05492731 -0.10038689 -0.07977808 -0.034963686 -0.11415551 0.023900317 0.11975144 -0.117529094 0.07671551 -0.015342039 0.08284724 0.01102989 0.090449795 -0.11473821 0.08570498
براي -0.078947484 -0.040689748 0.10210247 0.014396711 0.06941784 0.06717581 0.089776896 0.0052022184 -0.115172625 -0.06456773 0.10768528 -0.0269349 0.08230343 -0.1031714 -0.08092617 -0.003075422 0.10080903 0.1123376 -0.06232173 -0.09394067 -0.014109268 0.096861474 -0.042921644 0.056835257 -0.11416585 0.060171083 0.09211644 -0.040791426 0.017423559 0.0680894 0.013879627 -0.09592604 0.093485005 -0.070011556 0.040186893 -0.057163488 -0.0931161 -0.065081924 -0.09520899 0.022894008 0.07474104 0.031623367 0.009200434 -0.07683824 0.09631004 0.11884127 -0.06864473 -0.03729476 -0.056069743 0.09301915 0.057638284 0.065729044 -0.039873686 -0.117215425 -0.06941804 0.006373981 -0.056479305 0.050221633 -0.088288166 0.024196723 0.04531048 -0.066166714 -0.010996369 0.09394687 0.12262835 -0.08352542 -0.008075261 0.11404545 0.02574332 -0.0691999 -0.03970852 -0.115269795 0.06788225 -0.068160735 0.041242585 0.022085223 0.05949157 -0.006046307 0.013069107 0.032072388 0.10597431 0.04134288 -0.020728996 0.09873185 -0.04813644 0.0075299046 -0.049110927 0.032437082 0.051750917 -0.1293265 0.06025924 -0.0581605 0.057274394 0.0123493 0.11719131 -0.032500625 -0.019614067 0.068290845 0.08580877 0.054561824 0.105066314 0.061647538 0.04295882 -0.119424745 -0.12553573 -0.042171396 0.0032113073 -0.11477263 -0.04262414 -0.10041116 0.071353324 0.018062346 0.11226668 -0.049626585 -0.064084575 -0.038889512 0.032431573 0.042968594 -0.059671007 -0.12286998 0.104204245 -0.07330091 0.059129372 -0.07571232 -0.034598317 0.060076185 0.059288193 -0.004406385 -0.0130148465 -0.012318497 0.06705972 0.10105677 0.08159906 -0.12225105 0.052389596 -0.08012839 0.014249877 0.06002936 -0.08113041 0.008239256 0.09153752 0.08954713 -0.00280611 -0.116438404 -0.052795794 -0.012865843 -0.08891532 0.04774132 0.024670886 0.11397063 0.03201775 -0.058316685 -0.055949792 0.018545127 0.009448287 -0.032479968 0.012169228 -0.030657869 -0.10648966 0.045276064 -0.04557264 0.08822914 0.009516537 0.05938366 0.09345834 -0.07682607 0.118589126 -0.028448077 -0.03716168 0.11278174 -0.045421947 0.05352386 -0.047594137 0.10721543 -0.089873664 0.12792595 -0.053472284 -0.014762515 0.009971223 -0.013258235 0.0032813372 0.10958209 0.08314416 0.03006704 -0.10935337 0.025890864 0.012636096 -0.086863 0.07252398 -0.06123312 -0.10693806 -0.009545596 -0.12015558 0.12874645 0.06379017 -0.09374849 -0.045604724 -0.0070886794 -0.06632494 0.008205589
بيش -0.006259107 -0.042877182 0.05927951 0.02926387 -0.06820464 0.036476947 -0.017329775 -0.08271973 -0.03097415 -0.0035728018 0.09950177 0.083343275 0.054475717 -0.07002276 0.044727176 0.109376855 -0.03755427 -0.052151386 -0.044630535 0.11633243 -0.02391899 0.012034373 -0.004878605 -0.038075987 -0.04087653 0.04914122 0.111158855 -0.07090792 0.08687435 0.11354306 -0.12125446 0.0048059733 0.010146955 0.12285005 0.048366003 0.061994065 0.026029246 -0.082828246 -0.005505036 0.100946344 0.07696781 0.10626442 -0.05367106 -0.022099085 -5.886243e-05 0.11814653 0.022675935 0.11976953 -0.012953788 -0.03155256 0.059899066 0.010149068 -0.06513766 0.044254556 0.03934056 -0.0647789 -0.09110382 -0.02991068 0.009727492 0.052831884 0.018393863 -0.090468004 -0.091279745 -0.004564434 -0.06334177 -0.0407336 0.034500785 -0.07286121 -0.004146738 0.103317685 0.11236525 -0.07354312 -0.055162214 -0.023908682 0.004348618 0.10278004 -0.09938322 0.062218044 0.104146406 0.073696405 0.08811892 0.015528127 -0.11738723 0.109204166 0.03377952 -0.04188302 0.05634373 -0.011283744 -0.05626577 -0.06852674 0.022431144 -0.09660832 -0.121292464 -0.057174746 -0.114528194 0.066398814 0.0873802 0.06561635 -0.10463494 -0.042952098 -0.034389764 0.111532986 -0.06164665 -0.011610177 0.0736996 -0.042845182 -0.11002622 0.04662021 0.107880555 0.03416248 0.09409935 -0.07900257 0.008846361 0.10330507 -0.023514368 -0.057787742 0.002830133 -0.055707492 0.120185725 0.11944951 0.0019467947 0.036287133 0.019036027 -0.030843833 0.097178705 -0.06534437 -0.103362255 -0.1225572 -0.10231689 -0.112161085 -0.04926644 0.11832037 0.07413714 0.11816715 0.06592868 0.084981665 0.044189513 0.07857121 0.1171235 0.010936573 -0.07494296 0.022575252 -0.02733722 0.09082528 -0.03862669 0.10425404 -0.02125332 0.10461691 -0.041171234 0.104664914 -0.01522871 0.016578447 -0.10439946 -0.115015194 0.010833265 -0.04752529 0.05275231 -0.010229477 -0.068697646 0.0102625005 0.062336203 0.012783338 -0.0074344855 -0.02775078 -0.10732778 -0.027950484 -0.081918135 0.12290718 -0.08400938 -0.0046356446 0.044126708 -0.055602163 0.011124622 0.058820006 0.100360595 0.08204366 0.0020617673 -0.07848361 -0.037746117 -0.071227685 -0.065899596 0.04038211 0.087320864 0.033926673 -0.12145751 -0.0915955 -0.025201041 0.047577407 -0.09415709 -0.027039362 -0.073150866 0.00063240615 -0.10535927 0.05843612 -0.078887336 -0.10828074 0.077882916 -0.033741806 -0.08965466 -0.058183894
استان 0.015096159 0.10750823 0.094298065 -0.10272129 0.06637276 -0.01252882 -0.07892941 0.0044477843 0.06512858 -0.104693055 0.1209404 -0.01699608 0.04306061 -0.0015512388 0.115319125 -0.0136216255 -0.013080325 0.043106005 -0.032438133 0.08524429 0.039814334 0.04511887 0.014356999 0.018416518 -0.04777585 0.07215241 -0.10153022 0.08486314 0.08972462 -0.049764667 -0.0093100555 -0.067106895 -0.06255075 -0.058625802 0.11698582 0.11608904 0.054204736 -0.08230551 0.10195726 0.12314114 0.029645985 -0.054616656 0.012362759 0.024908701 -0.016018143 -0.09858976 0.05297506 -0.0679938 0.11147342 0.0879104 0.05012567 -0.086669035 0.07863474 -0.090926275 -0.051171847 0.0703584 0.047544613 0.0379385 0.01704617 -0.06287981 -0.062107213 -0.020677397 0.054636106 -0.110166 0.017689737 0.05138629 -0.075993344 0.034531314 0.03517218 0.0026491487 -0.027071476 -0.106678724 -0.072674625 -0.08186216 -0.080304 -0.025120169 -0.04318203 0.051641677 0.024349501 -0.045726027 0.02308576 0.11055399 0.010684413 0.057832453 0.05886389 -0.058091894 -0.09614455 0.055098534 -0.01310306 -0.050210603 -0.07326438 -0.054999005 0.08392769 0.00050777465 -0.033340976 0.0013094514 0.057282325 -0.110148504 0.005396118 -0.06587304 0.027912062 0.07607736 0.066844456 0.050553385 -0.021139413 0.10957478 -0.06402174 0.1160342 -0.05016966 -0.0549919 0.06624237 0.09437015 0.11358194 -0.019782387 0.123155236 -0.061915457 -0.053249042 0.11735428 0.04176991 -0.10003222 0.09321614 -0.08981663 -0.009339148 -0.11700079 -0.11912618 0.11537185 0.07468964 0.09082663 -0.03328884 -0.1145487 -0.07257005 -0.048121125 -0.009187616 -0.072700895 -0.084653266 0.019219631 0.056565106 0.02929171 0.017135993 -0.00685589 -0.010262051 0.06377158 -0.11570838 0.054341264 0.070590675 -0.05803031 0.016748667 -0.010647977 -0.058599778 -0.071147464 -0.024094956 -0.060574833 0.10423646 -0.04978276 0.012665444 0.10825415 -0.10996957 0.113465436 -0.0947727 0.06282228 0.034971014 -0.06854335 0.09978314 -0.11685385 0.07972613 0.090689816 -0.006680323 -0.069036655 0.07480772 -0.010708317 -0.10296763 -0.008181624 -0.057870172 0.09748449 -0.11206861 0.105923995 -0.09436025 0.099723 -0.05120811 -0.071912766 0.051379595 0.09848292 -0.09087693 0.06605367 -0.09325749 0.013781777 0.02428534 0.04307422 -0.11307179 0.014722167 0.033465765 -0.055807527 0.006358998 -0.011282253 0.011865064 0.09668337 -0.053306684 -0.11930305 0.060166296 0.10454476
زلزله‌نگاري -0.10097687 -0.05663854 -0.0892414 0.07405613 0.0399594 -0.08667427 0.10941105 -0.064468324 0.07044528 0.09261016 -0.031399056 0.10217045 0.09985947 0.08330696 -0.047543332 0.113508955 0.027385997 -0.057789043 -0.10766867 0.12053898 -0.006199858 -0.045132194 0.06767143 -0.10280241 -0.08681279 -0.07295235 0.016266532 -0.07607438 0.017447956 0.003859098 -0.044292737 -0.008709218 -0.10270269 -0.0026367018 0.022946056 0.10927282 -0.038914867 0.03835595 -0.10114468 -0.10190368 0.068888664 0.024336804 0.08304365 -0.05280577 0.04517504 0.020051787 -0.11350078 -0.100600354 0.1059922 -0.08912224 -0.00351383 -0.040115185 -0.111199394 -0.00091662555 -0.00911322 0.03917583 0.06749148 -0.07045097 -0.043049045 -0.11990528 -0.033564385 0.07171529 0.046768017 -0.10006969 0.043959208 -0.02448346 0.026567733 0.11354151 0.058194477 -0.026900643 0.008008196 -0.0077097653 -0.022151645 0.00327025 0.11948862 0.008954372 -0.058796085 0.09736152 -0.07963117 0.052845396 -0.0867328 -0.05518511 -0.0076459246 -0.04241944 0.1003639 0.10832424 -0.07243508 -0.047360446 0.040196333 -0.06979681 0.08380087 -0.10376357 -0.07649212 -0.071193784 -0.059449572 0.009783434 0.065235436 -0.054937825 -0.02949331 -0.10983398 -0.00891149 -0.061726663 0.040897198 -0.09311339 -0.07707929 0.06822675 0.08845977 0.04021098 -0.032009672 -0.08200189 -0.034879677 -0.06915521 0.04411206 -0.009941653 0.025211746 0.07444538 -0.038007267 -0.029443953 -0.06152258 0.047968335 0.058680072 -0.04178704 -0.056538828 0.021546425 -0.044224605 0.08547646 0.0719511 0.09099284 -0.1208096 0.026904626 -0.0005603758 -0.018622635 0.089821026 0.09332984 0.039028823 0.07567007 -0.0713292 0.021983383 -0.11430076 0.08118213 0.05985219 -0.10259305 0.080973476 -0.0156434 -0.100546576 0.014415604 -0.013058606 -0.046736266 -0.10122876 0.0911535 0.12002912 0.09339949 0.004988356 -0.08439478 -0.057129543 0.05240131 -0.054169543 -0.11091341 -0.018187437 -0.022931542 0.07306374 -0.01569633 -0.08480994 0.071350336 0.09400357 -0.047946226 0.09348882 -0.08102759 -0.10719242 0.082302496 -0.0071957004 0.07797689 0.089157395 -0.0046577896 -0.092263415 -0.02146564 0.09267396 0.108174905 -0.060277566 -0.005557563 -0.036100812 0.06961723 0.04721612 0.08890872 -0.0036114193 -0.116225116 -0.107654676 -0.06911813 -0.039186485 0.047923274 -0.059208594 0.08402502 0.062371537 0.10811475 -0.10506058 -0.041491024 0.08761082 -0.12071293 -0.026703155 -0.10454396
گذشته -0.049278572 -0.11238501 -0.047798343 0.07736656 -0.05849766 0.08072838 -0.10445851 -0.09308606 0.012038512 -0.083479814 -0.05315613 0.09745756 -0.0417254 0.1002451 -0.08645828 0.111867115 -0.06927729 -0.11484632 0.04735595 0.08411212 -0.046869185 0.013530306 0.018263014 -0.093502454 -0.10120791 -0.11734599 0.07534462 0.10056831 -0.079699844 0.06050345 -0.036094144 0.084762946 -0.11964197 -0.027873218 -0.03492593 0.01903279 0.07373173 0.064443 0.091367446 0.04877034 0.077656396 0.04489285 -0.07742367 0.11239695 0.041533798 0.07269093 0.06308107 -0.06231866 0.107956454 -0.026712868 0.11268021 0.031124573 -0.104669064 -0.08586868 0.060138203 -0.032000832 0.006166734 -0.07963076 0.10130836 0.10896563 0.024670944 -0.06446862 -0.00022905314 -0.054108713 0.10341485 0.07285187 -0.02221853 -0.0816835 -0.019306881 -0.093402535 0.095736355 -0.039661556 -0.07001843 0.10590927 0.045678455 -0.10633812 -0.055276945 -0.0025559578 0.008810356 -0.017228486 0.017790176 -0.11672616 0.11328197 -0.0063717263 0.061104484 0.037520207 0.10680786 -0.102581166 -0.11462351 -0.10385614 0.041932043 0.06562465 -0.04689042 0.10918414 -0.11136646 0.071401365 -0.058323365 -0.04598874 0.05017554 -0.036350746 -0.049754087 0.022236522 0.04127299 -0.0304043 -0.012533046 0.04557587 0.09636847 0.11190561 -0.039721683 0.097260736 0.099830896 0.07519659 -0.035550077 -0.04584013 -0.028236534 0.06766249 -0.06179718 -0.11131798 0.015856504 -0.057404056 -0.09571239 0.062207613 -0.04957504 0.0686328 0.021432435 -0.024726864 0.037037015 -0.081584714 -0.102130644 0.038135465 -0.03573279 0.049247354 -0.09891493 -0.0789953 0.09866991 0.09901779 -0.09306797 -0.07794227 -0.11110004 0.054562476 0.018993752 -0.036793645 -0.033640128 0.10954125 -0.04310626 0.00870627 0.004469307 -0.011488746 -0.034331556 0.1139624 -0.073639765 0.09552679 -0.048657253 0.012544156 -0.10662286 0.046531692 -0.0348902 -0.023483938 0.07514657 -0.011381575 0.04227192 0.024021624 -0.049315557 0.06169809 -0.07694996 0.107347704 -0.034209058 -0.029111432 0.058999486 -0.08355168 -0.051272985 0.040510815 0.052188426 0.07848532 -0.09829337 0.014793972 -0.09154471 -0.089206405 -0.022740176 0.048386317 0.029584486 0.028017538 -0.10525883 -0.007814746 -0.0048000216 0.11167613 -0.07568008 -0.060164288 0.051844582 0.025528558 0.03196048 -0.065675884 0.04200337 -0.06883562 0.0039498173 0.09772569 -0.07577481 0.07373826 0.082660556 -0.10775356
شده 0.09442795 -0.0156269 -0.010910395 -0.018897494 -0.04148764 0.058025986 -0.0156096555 -0.11673404 -0.09958385 -0.0605837 -0.014675804 0.1269566 -0.08539579 0.04925536 0.018429924 0.059297856 -0.07875866 0.06312728 -0.050871853 -0.08484441 0.08635131 0.0558028 -0.11710459 -0.052150875 -0.0066239797 -0.10900359 -0.06844873 -0.10571377 0.121871494 0.0028490275 -0.009142689 -0.056360524 -0.05819589 0.00048599052 -0.042548776 0.013532655 0.013386531 0.047869645 -0.03240008 -0.09307765 0.0103883 0.018041575 0.105790675 0.032526035 0.02906441 -0.0010932116 -0.10871483 0.12534447 0.05077572 0.06866661 -0.08452046 -0.092103265 -0.021129576 -0.09459372 -0.005716327 -0.028131299 0.012632609 -0.096101545 0.011216487 0.028108515 -0.04008088 -0.03731063 0.040347658 -0.073820695 0.11544265 0.10442152 0.022651687 -0.11180655 -0.062334593 -0.10420807 0.048080735 0.0022807478 -0.029355574 -0.036311653 -0.0121854395 0.08898081 -0.015753996 0.085333645 -0.11632411 0.097766295 -0.094534636 -0.024371702 0.08591167 -0.100819804 0.11046329 -0.030301021 0.10644701 -0.078896314 -0.041601915 -0.12473729 0.0062195533 -0.09320838 -0.10848398 0.06688014 0.07861089 -0.0008410976 -0.051181864 0.09188092 -0.03450296 -0.055481497 -0.0023973424 -0.055154365 0.022658031 0.11154075 0.07048471 0.05416617 0.018611914 -0.016393635 -0.07902946 -0.067000456 -0.012862333 0.10213079 -0.07787685 0.025351552 0.08198037 -0.03727011 0.03687635 0.0043250653 0.054757103 -0.08673838 0.04944839 -0.02376584 0.1105595 0.067818366 0.12564774 0.019231716 0.08430725 -0.0070738005 -0.042438917 -0.06248735 0.068177894 -0.0006188311 0.009841592 0.062194638 -0.06371212 -0.02063659 -0.041640945 0.12500913 -0.04375563 0.0914246 -0.07817708 -0.10135016 0.115746625 -0.049045857 0.016282512 0.079843864 0.035332803 0.07636202 0.08367497 0.04006079 0.111652695 -0.12762742 0.05699514 0.0045484444 0.017175028 0.10498833 -0.0024131816 0.07096295 0.08094591 0.12481704 0.08208764 -0.11384643 0.08163522 -0.052021246 0.08511217 0.022968573 0.08904181 0.077657044 0.08952663 0.0041693007 0.035950202 -0.064850435 -0.034192044 -0.043101564 0.054469265 -0.05808963 -0.09531237 -0.061156496 0.09685615 -0.12791565 0.09603214 0.09928685 0.06562484 -0.071530156 -0.0027033405 0.094954416 -0.113590315 -0.055541866 0.03791107 0.05204157 -0.031465963 0.062198095 -0.039648872 0.04982053 -0.0840886 0.12099699 0.004198902 -0.09412527 0.08995494 -0.038456053
يک 0.12070233 -0.09283105 0.06903492 0.004636273 0.063910976 -0.025640316 -0.0977577 0.11287022 -0.07745575 -0.027608093 0.015399502 0.1055944 0.041136645 0.05664668 -0.08802959 0.06388179 -0.11045367 -0.02669475 0.05272656 0.023500292 0.054967217 -0.06016907 0.02229476 -0.0634925 -0.07853661 -0.05170213 0.08286139 -0.095624566 0.0024131273 -0.09453071 0.04747238 -0.058630593 0.01369355 -0.074231595 0.0254251 -0.05926487 0.024170056 -0.05056278 -0.11822138 -0.055360924 -0.08153169 -0.024562243 -0.098567486 0.0753792 0.1169518 0.05825777 0.08851278 0.04191093 -0.0072182426 -0.04342779 0.013085998 0.081553996 -0.009360262 -0.10219307 0.03369715 -0.05619027 -0.017389374 -0.044668417 -0.015039846 0.046273652 0.06439958 0.06093063 -0.121926464 0.07445469 0.09019547 0.033686016 -0.049537316 -0.02530848 -0.09043644 0.03370913 -0.023483463 0.06725072 -0.024702525 0.011210929 -0.111493416 0.07838349 0.049366705 -0.0260791 -0.10518917 0.06112726 0.031506907 -0.11450267 -0.043697853 0.0030555963 -0.09662902 0.12200194 0.11466093 0.07366965 -0.0573341 0.04037845 0.09136262 -0.026364608 -0.019110583 0.007956058 0.10118438 0.10665124 -0.08186186 0.052949924 -0.020652601 0.053831838 0.09490263 0.013342594 0.09708408 0.08655887 -0.022569498 0.05191177 0.086999476 -0.123295896 0.07137029 -0.076425724 -0.042465992 -0.006674171 -0.10460049 -0.11067258 0.0034490032 -0.10960315 -0.09328451 0.07007433 0.015903214 -0.11682081 -0.003762014 0.016411504 0.11760894 0.049836963 0.11779883 0.017211944 -0.09061539 -0.11556687 -0.12119113 -0.059509393 0.11476655 -0.04038247 0.10954866 -0.023718273 0.06643609 -0.030706985 -0.050477237 -0.06014214 0.0717714 -0.06553254 0.016942017 -0.095382616 -0.007599238 0.08788245 0.09171616 0.015830766 -0.07700162 0.113952324 -0.014542807 0.032680567 -0.029294627 0.058115885 0.035316482 0.11355721 -0.09834021 -0.045307342 -0.0056519583 0.038574763 0.105443165 0.092142716 0.032254633 -0.007483646 0.12576175 -0.026234383 0.00564737 0.072337165 0.11106463 0.031445593 -0.04194916 -0.059850946 0.003931319 0.08329106 0.11561442 -0.011875516 -0.08591072 0.06650068 0.12716343 -0.05462983 -0.08267025 -0.05874572 -0.032973118 0.013309006 -0.06931777 0.008181657 -0.11917617 -0.10779549 -0.03445048 0.022283517 -0.08810342 0.06846679 0.020609612 0.06853465 0.0361001 0.08193884 -0.0035963973 -0.10698211 -0.10911505 0.0006987702 -0.07604279 -0.018848026
ساختمان -0.089950286 0.042857144 0.06494259 0.09795035 -1.0422133e-05 -0.050814558 -0.0427963 0.09449526 -0.104387306 -0.110311404 -0.07359424 0.09199913 -0.0018797984 0.015935868 -0.051029388 0.11308815 0.056601908 -0.08590293 0.08097818 -0.11216406 -0.009671619 -0.10791852 0.042921115 0.013243686 0.0420425 0.08220932 -0.10402665 0.07383354 -0.057882898 -0.03652404 -0.07197437 -0.10383156 -0.09838728 -0.072067834 -0.078347966 -0.045537505 0.021025095 -0.03860941 -0.009058531 0.10062098 0.025297241 -0.085543334 -0.06841538 -0.042666864 0.018402684 0.044465967 -0.011858566 -0.013034673 0.027111722 0.061283518 -0.10583799 -0.10996429 0.07260079 -0.0950244 -0.013644043 -0.013450493 0.0018876804 0.07959631 -0.063872054 0.055948112 -0.10641406 0.022875696 -0.03502277 0.11569745 -0.015120643 -0.07031497 0.098708905 -0.029699812 0.11373737 -0.084272444 -0.040855702 0.031318314 -0.07287059 -0.09784982 -0.054266017 -0.07468505 0.0175788 0.12209953 0.06402824 0.021802258 0.032194078 0.10927303 -0.047851022 -0.07755403 0.08757696 -0.080738425 0.071036 -0.10096286 -0.019902056 -0.12476931 -0.024575721 0.03404234 0.07698724 -0.053345386 -0.099369496 0.054657727 -0.043541837 0.027157342 -0.08920059 0.11434567 0.0967667 -0.056925382 0.029872838 0.0525844 -0.07570165 -0.020387178 0.110149264 -0.08365971 0.012385597 -0.115393326 -0.055021036 0.09363195 0.008862826 0.046234187 0.02722123 0.028940499 0.10203493 0.04149641 0.0762673 0.025476184 0.009724367 0.025901146 0.012240761 0.019505825 -0.101902165 0.07411915 -0.11530743 0.09383903 0.11100489 -0.049967036 -0.09277936 0.09183649 -0.110044025 0.043608844 0.045813575 0.08944822 -0.048199408 -0.009473371 -0.043247137 -0.04242194 0.09867281 -0.10684501 0.004453332 0.104828306 0.08797411 -0.06257586 -0.0494758 0.11612981 -0.070586726 -0.055774063 0.101710066 -0.013175155 0.038217515 0.09620509 0.06460376 -0.000674958 -0.064395115 -0.046264272 0.0030827934 -0.037130214 0.045717563 0.048414476 -0.0912343 0.11879388 0.07266609 -0.045697056 -0.045666378 0.06759581 0.0095739 0.080221295 0.057533644 0.019771872 0.049771786 0.051642723 -0.12135016 -0.11066582 0.117538646 0.09284617 -0.038378924 -0.11211947 0.02931165 0.07566618 0.095319435 -0.107003696 0.0072164736 0.08630378 -0.07826226 -0.06115704 0.027046002 -0.062959276 -0.012179427 0.02803887 -0.09731989 0.029468512 -0.038603727 0.041009802 0.04466142 -0.11440411 -0.035748567 0.0067698485
دادند -0.043970067 0.0076434854 0.047457915 0.044329356 0.11673902 0.033911265 -0.09338643 0.105963945 -0.05718502 0.01680595 -0.11732497 -0.034472097 0.11741451 -0.08790385 -0.028213808 -0.115315944 -0.033087235 -0.053591534 -0.052291963 -0.082202 0.0121358475 0.011301626 0.016907176 0.09526127 0.054754537 0.11679016 0.107831225 -0.06030821 0.036669903 0.0902385 0.03625915 0.0712156 -0.10955013 0.043861803 0.03777259 0.02197129 -0.10032526 0.0012613122 0.04658657 -0.01804932 -0.019893352 -0.03531252 0.07617128 0.068620905 0.04417875 -0.117071584 0.07334864 0.10000843 -0.014027712 -0.091940396 0.07146871 0.0054087997 -0.06650519 0.1069579 0.061852064 0.09138968 0.04927332 0.11606115 -0.05927602 0.0013916382 -0.09559673 0.047486603 0.11585841 0.09013495 0.10509139 -0.11790871 -0.08731414 -0.0724116 -0.0720722 -0.0909487 -0.05299486 -0.022130376 -0.0200474 0.098626785 0.09195366 0.025438001 -0.09857141 -0.03945756 -0.0296814 0.054134335 0.013234385 0.057333045 0.035676774 0.05834973 0.015576905 -0.008329213 -0.1157702 0.013470419 -0.07457946 0.0634327 -0.032780983 0.03276982 -0.087911524 0.11088215 -0.10652836 0.09468319 0.06325433 0.052840948 -0.04577351 0.04316561 -0.07606904 -0.101501256 -0.057269137 -0.025749551 -0.110635765 -0.08825944 -0.09822638 -0.11915894 -0.05344437 0.09230666 0.012751864 0.0024381664 0.015056514 -0.08754876 0.11660118 0.036339797 -0.0031745916 0.090787716 0.06557012 0.041882895 -0.07001121 0.066795014 0.07623314 0.08292548 0.077930585 0.0039684544 -0.109101124 -0.011697274 0.11786756 0.066080615 0.003140687 -0.06688405 -0.050577674 -0.08195874 -0.066982985 0.078868955 0.046131674 -0.034443974 0.06502148 0.047618754 0.012824424 -0.10789539 0.0008229233 -0.027400305 -0.08086232 0.070420735 -0.055504523 0.030941958 0.10071916 -0.04212161 -0.036971524 -0.04233524 -0.07294358 0.060223248 0.109954275 -0.0319671 -0.065008126 0.08760258 -0.0430711 0.10204448 0.102351874 0.03779575 0.065177694 0.11524041 0.074109145 -0.08917688 0.026349645 0.07676951 -0.036187053 -0.081609584 0.114384376 0.04218548 -0.034922607 0.0736155 -0.06577887 -0.047602363 -0.002230011 -0.06429589 -0.0493083 0.09967508 0.06468596 0.09525779 0.08215126 0.030043721 -0.03809735 -0.11288006 -0.062951036 0.07413022 -0.089520864 0.0449837 0.035339825 0.062364876 0.08633157 0.06842671 -0.072004355 -0.075969286 -0.027061526 -0.09547496 0.06982937 0.016845966
که 0.08240109 0.058426835 0.020988235 0.051125646 0.051414527 0.034805354 -0.06283181 -0.07570606 0.03342979 0.06363923 -0.12131206 -0.10905887 0.04305523 -0.014845845 -0.06519655 -0.06163177 -0.024127137 -0.021201564 0.024220403 -0.0028368544 -0.018038891 0.042704392 0.03330336 0.07982383 -0.04471133 -0.088592924 -0.030144917 0.11411674 0.0071189515 -0.06196442 0.06353116 0.021685742 -0.05738164 -0.095673494 0.12297702 0.083027706 0.0027253318 0.0054719476 0.100669146 -0.10448027 -0.05920922 -0.045565806 0.018643377 -0.05197376 0.10257057 0.007683197 0.031599216 0.03393295 0.012971906 0.06842553 -0.11184583 0.04305387 -0.04983728 0.04436602 0.043145154 -0.087557726 0.044396956 0.026608543 0.050179806 0.10186619 0.08440424 -0.09409432 -0.1150549 -0.056177676 -0.009634175 -0.061868194 0.11901432 0.049985535 -0.005828477 0.10965858 -0.052313317 0.091927156 -0.084805205 0.107342765 -0.09130537 0.013479237 0.06628395 0.1174136 -0.03668086 -0.12324274 0.034496035 0.08632544 0.0659872 0.041096073 0.0640329 -0.08947025 -0.10052576 -0.042835157 0.037072916 -0.07561672 -0.11942441 -0.012340105 0.021500887 0.07801266 -0.013360416 -0.0691503 0.11777032 0.088629894 0.10479413 0.04508212 -0.045071453 0.021324608 -0.08087232 0.008477715 0.058382187 0.048605744 -0.08800334 -0.07305416 -0.03628268 0.11000482 0.11003678 -0.010578358 -0.031473685 -0.04164446 0.11530054 -0.09106691 0.06391026 -0.048747595 -0.08383824 0.069703504 0.040885564 -0.003970672 0.038258266 -0.03556978 -0.023055833 0.022389779 0.00034836426 -0.104815975 0.025921848 -0.056685153 -0.0073143723 0.06929699 -0.092845626 -0.04879785 -0.11161692 -0.04405629 -0.08554001 -0.0034748525 -0.03596406 0.009556182 0.06489297 -0.088915676 -0.06360004 0.08238315 -0.104365796 -0.09701095 -0.0970021 0.0454762 -0.10802699 -0.05516044 -0.10432434 -0.03424021 -0.055454377 -0.049388394 -0.06838675 0.11503979 -0.112293005 0.10169841 -0.09342908 -0.019394854 0.063367 -0.060673054 0.027697802 -0.009602627 0.05620106 0.05916764 -0.05768467 0.02034374 -0.020356229 0.034929603 0.07852151 0.11625464 0.004387364 0.0755333 -0.03961124 -0.091286555 -0.10775111 0.10862927 -0.1253679 -0.07053826 -0.050922446 0.0073174774 -0.119615234 -0.05777141 0.10163973 -0.0053247693 -0.0574185 -0.10579793 -0.10942906 -0.06770845 0.07605271 -0.07710513 0.08980709 0.01571093 0.0072786985 0.09730733 -0.073466204 -0.109355494 -0.044045337 0.12033573
حدود -0.09028072 0.08159087 0.06257184 -0.010141571 0.014018227 -0.0762377 -0.09983576 -0.031965688 -0.009022205 -0.057848524 -0.023923762 0.105868466 0.025569487 0.112590656 0.026865719 0.031834472 -0.059213053 -0.008986562 0.01672862 0.082699955 0.028497072 -0.0064535937 -0.06332293 0.0156205855 -0.070160456 -0.08852406 -0.016636752 0.0014894501 0.0036851664 -0.07620867 -0.029351046 -0.08424584 -0.12030713 -0.014141619 0.0041365246 -0.029024724 0.010623189 0.010902707 0.045631062 -0.04726709 -0.050219715 0.04598191 -0.057380415 -0.0034813783 0.094769455 0.047685534 -0.01043975 -0.053783663 -0.09132318 -0.008329494 0.033943765 0.013892697 0.021235302 -0.06799415 -0.05689534 0.06477652 -0.11529254 -0.1099012 -0.04572322 -0.058187596 0.040668637 -0.064319186 -0.015876886 -0.0059443107 -0.029280448 -0.06326779 -0.06845235 -0.02192792 0.09180064 -0.12179545 -0.1098066 0.11982329 -0.012675848 0.11499828 -0.08465876 0.091021396 -0.06002865 -0.11023191 0.014839608 -0.028241547 -0.103112556 -0.10262439 0.02171751 0.030616842 -0.03274933 0.078096 -0.08792809 -0.05588499 -0.110901095 -0.038732927 -0.08564272 0.018676344 0.10061671 -0.084500834 0.10851846 0.108260244 0.03139662 -0.11815629 0.11046247 -0.013967737 0.021595838 0.07196222 0.123700224 -0.10173427 0.10804314 -0.06863113 0.0679472 0.068980835 -0.020559162 -0.04740785 -0.035526264 -0.10542468 -0.046028115 0.03429772 0.07761636 0.03747827 0.104737476 0.035550866 0.09432439 -0.036320794 -0.07703679 -0.1071214 0.041979384 0.027034583 -0.11070245 0.08082509 -0.055769954 -0.03654933 -0.058542263 -0.06687846 -0.018877497 0.10409431 0.11293522 -0.04278219 0.098973826 -0.002706919 0.058833938 -0.017646968 0.07575398 0.11470736 0.09707429 -0.07610697 -0.057552285 -0.02086453 -0.03533287 0.1186631 0.07899633 -0.0037476716 -0.07156646 0.06047106 0.029901007 -0.02590536 0.085696444 -0.029926943 -0.07831463 0.07120948 0.037823197 -0.010059062 0.114448406 -0.113171 -0.09223374 0.0549061 -0.041614678 -0.09509724 -0.048725747 0.096890934 -0.047763344 0.11433254 -0.07818585 0.05542212 0.07879343 0.06760476 -0.057532553 0.1051737 -0.08266453 0.065634534 0.012831141 -0.108505994 0.11755246 0.013685791 -0.08830159 0.007954265 0.085429914 0.103518635 -0.11536988 0.056410648 -0.0064112623 0.10335438 0.07604991 0.006508119 0.11730233 0.044096164 -0.08533339 -0.050171874 0.11364663 0.023294926 0.048602033 -0.10517853 -0.035713878 -0.09252554
اريکس -0.10013576 0.04012613 -0.00068270665 0.08478581 -0.07000714 -0.075248905 -0.101811595 -0.007576776 -0.06322036 0.11220612 -0.0458154 0.024457823 -0.08380813 -0.041515186 0.049247045 -0.017141514 0.043555234 0.015502186 -0.082346775 0.108899154 -0.10322521 0.10552282 -0.10617636 -0.09810777 -0.09340006 -0.07702155 -0.11201314 0.10174167 -0.10072298 0.117066026 -0.043276798 0.085241884 0.04300359 -0.08020163 -0.07613331 0.038595784 -0.11039596 -0.065735325 0.082084484 0.08440876 -0.04546967 -0.08258098 0.11611312 -0.056995884 -0.027814876 0.07663945 -0.11975688 -0.101167575 0.1192293 -0.010539231 -0.0284886 0.018678816 0.061364975 -0.0138111785 0.091515206 0.010651998 0.08154053 0.11980542 -0.012517309 0.004506398 -0.08166131 0.041444577 -0.024323668 0.039855234 -0.0753 -0.04315317 0.10357066 -0.072934754 0.10470534 -0.09525118 -0.07233911 -0.022747386 0.10756449 0.02636732 -0.016916731 -0.045826014 0.045921676 0.011226387 0.03207095 0.028893804 -0.07755696 -0.007915568 -0.046350855 -0.0714832 0.065627955 -0.10083884 -0.055912904 0.10617641 0.10349046 -0.016723646 -0.012860932 -0.032176983 0.040492624 0.04522439 0.0501652 0.049243715 0.05177079 0.0539441 0.0585878 -0.09750967 0.0645187 -0.006493262 0.0037042138 0.0771188 0.0003964666 0.10071647 -0.03426273 0.10902043 0.06858878 -0.09202472 0.07579096 -0.020769622 0.040039487 0.031384528 0.06274357 -0.025466017 -0.099591285 -0.10198673 0.046767857 -0.032339536 0.053789843 0.037302807 0.03583494 0.03749238 -0.012682526 -0.10103961 0.0904059 0.051135864 0.09233688 0.09143831 -0.08564962 0.05189216 0.11935172 0.010213571 0.037098758 -0.04391339 -0.030220091 -0.06931829 0.10765427 -0.024766652 0.08706534 -0.069941804 0.025933398 0.019159846 -0.014189767 -0.105013214 -0.052890543 0.103707105 -0.10522431 0.05857934 -0.110264 -0.06987854 0.0977839 -0.102815844 -0.060104996 0.03855259 0.021132806 0.094172165 0.0022911085 0.012699533 -0.028142469 0.05435965 -0.063908055 -0.06777976 0.007780573 -0.029157674 -0.03050444 -0.06470609 0.011264489 -0.09750343 0.09305676 -0.0034938443 -0.022148058 0.028068999 -0.046208575 -0.013882698 0.11292553 0.051702734 0.053610463 -0.120045625 -0.11389677 0.08636391 0.11317667 0.08196314 -0.10826255 -0.07203798 -0.07043398 0.09005869 -0.09675562 -0.058651038 0.047740415 0.0037864733 0.107450284 -0.10384022 0.1044267 0.0063752504 0.09547465 0.0553358 -0.023743242 0.023465104
گاز، 0.044778835 0.038077783 0.11231252 -0.056431886 0.039982673 0.09859891 0.046165187 -0.04599931 -0.0394877 -0.0137485955 -0.060782515 -0.04466623 0.011528596 -0.055010118 -0.08440488 0.017331952 0.108023785 -0.06714311 0.044789728 0.014872242 0.09973411 -0.023913255 0.04590498 -0.016728964 0.04880696 -0.072419554 0.06369459 0.042737763 -0.06409483 0.093298346 -0.10557628 0.11461338 -0.08039289 -0.102830514 0.11450569 0.10804031 0.090545714 0.08162357 -0.033959687 -0.110109895 0.086999275 -0.019280963 0.07833789 -0.09250535 0.07040173 -0.11210721 0.07652869 0.08760073 -0.07498876 -0.0021295983 -0.009121595 0.09751529 0.00564095 -0.06462339 -0.03114609 -0.05817834 0.11212369 -0.040979743 0.034566276 0.09456387 -0.08192335 -0.023321234 0.061236624 -0.0555839 -0.016843708 0.06647899 -0.10062785 0.019051526 -0.07806795 -0.067232125 0.049604118 -0.025150796 0.0018204437 -0.06717559 0.058438074 0.10811459 -0.07669215 0.096721284 -0.056773543 0.07201793 0.049693152 -0.03184262 -0.09286658 0.09974995 0.048049487 -0.060905688 0.03501114 0.008682187 -0.024475183 0.097114734 0.04586637 -0.0044190446 0.010793833 0.04943136 -0.04558707 -0.112932965 0.071461976 -0.0510275 0.09446357 0.027909104 -0.10064913 -0.03894724 -0.044676404 0.117548265 0.061535854 -0.108475626 0.08544663 0.086158775 -0.10158064 -0.076288 -0.11319367 0.11362079 -0.035210297 0.046194114 -0.027473852 0.008146964 -0.093571894 -0.08763031 -0.103080556 0.044693325 -0.03530976 -0.05337177 0.099227026 -0.031529073 -0.104250915 0.0487707 -0.021384329 0.089887954 0.034443375 -0.08019517 0.013530856 -0.061617326 -0.09153912 -0.092102155 0.10242428 0.039907277 0.08091694 -0.006026335 0.10961526 0.014436618 0.056517698 0.061657365 0.10030413 0.02203145 -0.066521436 -0.036667548 0.102600075 0.09054137 0.102290295 0.08793186 0.02375703 0.048182167 -0.04807991 0.06267655 0.105756275 -0.06220165 -0.027825268 -0.011236716 -0.037408356 -0.08577654 0.002520818 -0.03241585 -0.09560133 0.11047019 -0.07455164 -0.008491098 0.10010797 0.027902827 0.029533738 -0.005626372 -0.012213808 -0.050943717 -0.10368595 -0.024868192 -0.08410228 0.10366855 0.10832234 0.097704336 -0.06933583 -0.103655264 0.100209646 0.10409456 0.02312864 -0.018254643 -0.0016047654 0.05271934 -0.05331467 0.031649854 -0.104733385 -0.030124607 0.11291645 -0.09804131 -0.012103395 0.05443652 0.030163452 -0.069061995 0.06645754 0.09831547 -0.08059382 -0.08576135
لرزه 0.021261308 -0.10527159 -0.072407626 0.09845892 -0.036179498 -0.012537312 -0.08251188 -0.02140904 0.094813 0.0754248 0.065982506 0.0604637 -0.07174912 0.07904526 -0.034490354 -0.020661887 0.104859196 -0.11430575 0.09762315 0.042584285 -0.08841893 0.108391464 0.011854815 -0.025619054 0.007769669 -0.11262919 0.008843714 0.0073770415 0.011951388 -0.08739492 0.06597227 0.052901875 -0.061122123 0.05895751 -0.06414732 0.11283453 0.010105834 -0.0032640512 0.0570655 0.102958195 0.09946676 0.03862833 0.02255362 -0.09199455 0.020788504 -0.0615476 0.07288918 0.019273866 0.0066438513 0.10230614 0.04293191 -0.11627055 -0.014744544 -0.1051427 0.10026765 -0.098273784 -0.06400226 0.045987006 -0.037180018 0.05981402 0.044456065 0.09490274 -0.082602054 -0.053187575 0.043442238 -0.000849363 0.080696575 -0.064787745 -0.06279476 0.06969673 -0.032991454 0.07043712 -0.049852744 0.07202948 0.102230944 0.081020765 -0.06001858 0.07598612 0.026630068 0.05602838 -0.009989924 -0.012312924 -0.03390851 0.03961982 -0.10134596 -0.08787761 -0.10386348 -0.09490267 0.10804766 0.110845126 0.0071686064 0.016130079 0.1142653 0.070720784 -0.09983289 0.08644427 0.11436898 0.0038582936 -0.05307868 0.0022085123 0.106064916 -0.02337216 0.069749504 -0.029283643 -0.06959753 -0.073059574 -0.10182631 0.023513282 0.030700289 -0.10156602 -0.09497842 0.027767453 -0.088409856 -0.053303726 -0.06854796 -0.059932053 0.112993024 -0.08122256 -0.005541656 -0.0006912446 0.094542526 0.011021504 0.006126223 0.081659965 -0.09740159 -0.111396246 0.10585107 -0.029333482 -0.0667461 0.09913163 0.029671384 -0.10412622 -0.0460305 -0.07105607 -0.107688434 0.0552733 -0.1071658 -0.10214783 -0.0038299197 -0.02652211 -0.009906052 -0.08039788 -0.038068794 -0.019466462 -0.0064785248 0.09561958 -0.1142127 -0.03420128 -0.11405611 0.057621535 0.02154507 -0.09208941 -0.06168101 0.05745685 0.0678611 -0.11601036 -0.007969338 0.07561152 -0.092045605 -0.027010111 -0.108255215 -0.044621207 0.106352426 0.05711029 0.09458302 0.05974821 0.09025927 0.095712565 0.0065605347 -0.09512644 0.010979526 -0.08817333 -0.0424686 -0.09743643 -0.0065662786 -0.11220338 -0.102136225 0.098675415 -0.06918943 -0.063083865 0.04385527 -0.052193608 0.0571929 -0.02721314 -0.049947504 0.044724084 -0.09024959 0.029232673 -0.007266435 -0.04339253 0.003386634 0.058418598 -0.11352654 -0.010757298 0.024503194 -0.003802974 -0.10974744 -0.0835666 -0.017762257 0.05389183
آوارها 0.028613048 -0.02911706 0.0608329 -0.057986856 0.09729709 0.0931201 -0.06475502 -0.09475949 -0.08748538 0.07248073 0.08896199 -0.09898036 0.093479976 0.060732137 0.01554934 -0.0010387787 -0.0710461 0.0371518 -0.018455425 -0.08715644 0.092861965 0.06233997 -0.026940187 -0.05670924 0.07420925 -0.027662134 -0.024821378 -0.0438973 -0.045883603 0.041476402 -0.11100399 -0.056449655 0.019485306 0.013958999 -0.08359253 -0.018225098 -0.009449575 0.045171928 -0.033166293 0.06604867 -0.095912084 0.02114063 -0.0009557887 0.08523185 -0.03218225 0.018321762 0.057993855 0.027483638 -0.10878457 -0.021229876 0.118295945 0.0036267438 0.0027570273 -0.10948167 0.041538328 0.0031488645 0.091085844 0.090864494 0.075710654 -0.090533 -0.07335438 -0.04543936 -0.088146694 -0.08598951 -0.02892365 0.08987662 0.05581381 0.09490732 0.08392787 0.09901451 -0.002404918 0.1055282 0.023087237 0.11541822 0.05745109 -0.10370698 -0.08564541 -0.10582432 0.012344137 -0.109691545 0.010580196 0.084817104 0.038121782 0.031203523 -0.048622876 0.10366486 0.11390957 0.052266005 -0.0029068638 -0.056428608 0.03968569 0.1000355 -0.03983746 -0.051423006 -0.09701214 -0.11578287 0.1069227 -0.045392897 0.027537184 -0.029907407 0.03539117 -0.105787225 0.04943594 0.111533426 0.061339345 0.033385072 0.06459049 0.091419324 0.08599661 0.06958424 0.11511021 -0.033835474 0.03450365 -0.08624737 0.009348182 -0.09497449 0.05493451 -0.086176105 0.115188584 0.020487001 0.09381201 -0.04817922 0.05959086 -0.07964149 0.07955352 -0.02817181 -0.04360622 -0.06497375 -0.030647796 0.053104416 -0.1174843 -0.11396718 0.111493856 -0.035718124 0.051419895 0.09828523 0.09820533 0.021159677 0.046597768 -0.019362224 0.022350807 0.118739665 -0.014862461 -0.036324102 -0.0029770236 -0.071671106 0.04609781 0.11778917 0.118080035 0.055830482 -0.042943355 -0.07431668 0.098795764 -0.044710007 0.07413793 0.09387065 -0.106489256 -0.008408266 -0.01993225 0.070177466 -0.05842127 -0.07576555 -0.073541224 -0.087777935 0.11442908 -0.10991483 0.0458121 0.099226356 0.067233466 0.018650698 -0.047495205 -0.011680699 -0.02518565 0.070878364 0.028109519 -0.029843178 0.11902525 0.08216891 0.013413998 0.0707129 0.022751737 -0.0752335 0.03689751 0.08025567 0.099276 -0.02366784 -0.057667356 -0.07885696 0.07865904 -0.038250025 0.013737655 -0.10224721 -0.03826083 0.08899282 -0.10075637 -0.11448705 0.042308472 -0.0072472994 0.10098413 0.072957255
شبکه‌هاي -0.08776486 -0.008672408 -0.09849098 0.092928454 -0.08293932 -0.09569973 0.05942278 -0.058001015 -0.07617353 0.11789394 0.09295443 -0.020274512 -0.105867244 0.07416554 -0.102284074 -0.023662575 0.057323895 -0.08331519 0.08744669 0.104158364 -0.017368028 0.08620257 -0.0986807 -0.06662091 -0.019184902 0.10429366 0.073528446 0.05935358 -0.117770925 0.021026244 0.11126809 0.018679298 -0.08773465 0.019175744 0.104353175 -0.120601244 -0.041836794 -0.032920796 -0.020286402 -0.08940208 -0.09531798 0.043704152 -0.091737196 0.0101840915 -0.056550097 -0.035843536 -0.07005937 0.12077304 0.03704458 0.07899767 0.037913077 0.09873852 -0.032522105 0.03834846 0.089273624 -0.07475634 -0.10982558 0.019717347 0.03262009 0.10008926 -0.01035916 -0.104258314 -0.05162055 -0.06865318 -0.07291154 0.08164652 0.03470418 -0.021292124 0.018865265 0.103066444 0.066233106 0.068504505 0.07514363 0.0439718 0.08157769 -0.11803003 0.064957775 0.071862444 0.06553226 0.07069218 0.010091551 -0.1077175 0.03570037 0.024763642 -0.0028989804 0.120530054 0.041200366 0.09325701 0.040088594 -0.11366085 0.103972554 0.07534209 -0.038860563 -0.08544867 -0.08124471 0.037918635 0.113787904 0.058579594 0.0384933 -0.093044885 0.054725602 0.074379265 0.041510656 0.0673494 0.06528157 -0.026960187 -0.01169362 -0.0824782 -0.11017254 0.039019383 0.029493185 0.0742565 0.053998232 -0.08724082 0.059946608 -0.10527286 -0.055519823 0.11688646 0.06467098 0.07127939 -0.033860166 -0.031767037 0.03563828 -0.04001558 -0.05639332 -0.015016681 -0.11695732 -0.06941112 -0.020474806 0.081229344 -0.00070521614 0.035225425 0.06510656 0.029401276 -0.0689479 -0.062145732 0.010822913 -0.007220872 -0.01571558 -0.0069720387 -0.031480115 -0.08811973 0.0070433696 -0.011510326 -0.12228074 -0.05555572 -0.017709399 -0.0063386164 0.052235804 0.038290676 0.0345158 -0.068907015 -0.07735878 -0.054756086 -0.061127834 -0.09162108 -0.11005322 -0.110839866 0.03999589 -0.02306985 -0.058339942 -0.04567871 0.089249566 -0.042456377 -0.060920767 -0.0024804377 -0.03802362 0.09209938 -0.07659418 -0.08606378 0.04431388 0.06366571 0.10879141 0.11015356 -0.07629067 0.11562432 -0.062331636 0.0054035285 -0.065113686 0.024214046 0.102940634 0.004987658 -0.085569024 0.04067283 0.021814667 -0.09446371 0.06669025 -0.048838403 0.023218857 -0.045342423 -0.09348007 0.05253203 0.06843951 -0.044108786 0.044271715 0.09849314 -0.02108986 -0.1071521 -0.10372377 -0.12137796
پرس -0.054033507 -0.11119255 -0.10767246 0.055307113 0.029368283 0.027214987 0.063750386 0.013147983 0.001451026 0.04023084 -0.08211439 0.07276137 -0.021508805 -0.05133597 0.059826043 0.016871197 -0.006971694 -0.043299384 0.05313027 -0.11189716 -0.05801999 -0.048938967 -0.058823768 0.10376058 0.10281955 -0.034201555 -0.029097635 0.0610762 -0.050556965 0.0149351675 0.06798703 -0.013153394 0.061847754 0.07231816 -0.08186833 -0.08268886 -0.04774976 0.048415896 -5.404061e-05 0.07878311 -0.056016777 -0.04420924 0.0481248 -0.010031732 0.086789906 0.055514004 0.06449699 -0.025028767 -0.08462478 -0.08049357 0.04192558 0.033277422 -0.03130007 0.08790127 -0.061028805 -0.06492376 0.07718064 -0.085460655 0.05537926 0.016620444 -0.10505445 0.09795723 0.054365695 -0.07014939 -0.029713294 -0.04535297 0.0097418595 -0.067529775 -0.043806415 0.03571469 -0.11045617 -0.0990048 0.113115326 0.11251982 0.035583045 -0.0981374 -0.017059948 -0.07330811 0.094271444 -0.0039306344 -0.11133014 0.008502512 -0.000110164874 -0.07064454 -0.120835416 -0.097143985 -0.04145703 0.011531108 0.010096587 -0.07893878 0.10647815 0.09518191 -0.091726445 -0.09104313 -0.09589482 -0.037599944 -0.07704715 -0.11241628 0.10178928 0.12034797 0.04823159 0.025263948 0.061146095 0.03781041 0.07870376 -0.08093992 0.056694504 0.10896788 0.013904734 0.023539893 -0.09793951 -0.016846646 -0.08683205 0.10232582 -0.07557736 0.09425592 -0.101058364 0.03197095 -0.033512916 -0.10208788 -0.011735172 0.06310633 -0.04209141 0.039147925 -0.000765655 -0.1132328 0.011447153 -0.06599022 -0.075993896 -0.032340392 -0.02163789 0.114951216 -0.073587365 0.030223917 0.085151434 0.053495377 -0.020115247 0.049572885 0.10188065 -0.03438979 0.07927789 -0.09046963 -0.025829758 0.019026764 -0.10816154 0.006856256 -0.035851277 -0.06993012 0.03070937 -0.1205776 0.077935815 -0.0104795415 -0.11160034 0.08176447 -0.08264987 -0.007345725 -0.005938553 0.060402766 0.11148062 -0.07392262 -0.059406202 0.08317492 0.054529637 0.090977564 -0.004034709 -0.045321215 -0.10432387 0.08439269 -0.068775825 -0.11650396 0.11663829 -0.064955615 0.060071133 -0.03673634 0.050479226 -0.119597964 0.10750366 0.10114647 -0.11460265 0.1030921 -0.062664 0.048511855 0.06593842 -0.08882811 0.0457682 0.09511907 -0.12123881 0.0104077505 -0.09081715 0.014509473 -0.06824624 0.06452171 -0.05105382 -0.03135236 0.049662616 0.112012744 -0.05953872 0.045559514 0.0013095709 -0.10649078
داد -0.10127525 -0.026951075 -0.028603854 -0.01543104 0.019706257 -0.08567653 -0.09209471 -0.11146161 0.11940009 -0.080436654 -0.104678676 -0.038421318 0.10324283 -0.00390362 0.10168257 0.11956265 0.09121491 0.045254692 -0.05541234 0.10078008 0.048128735 -0.07124382 -0.09375784 -0.08206336 0.036030557 0.0010296181 0.09114315 0.04830776 -0.0220212 0.029047417 0.09944962 -0.058146868 -0.042204738 0.089565374 -0.115209326 -0.03366903 -0.07576396 0.11863213 0.03116126 0.09871764 -0.04902295 0.10482808 0.028494243 -0.046022322 -0.029925674 -0.02283216 0.00824559 -0.018664075 -0.06511281 0.023253301 -0.093095616 -0.10017146 0.061774913 0.034077358 0.06714444 -0.10350856 0.051553536 0.026481066 -0.016508035 0.04100938 0.1196416 -0.08612403 0.0664829 -0.0971062 -0.04063504 0.07581739 -0.042113163 -0.11130106 0.108268045 -0.018830229 -0.036963437 0.022064805 -0.11636663 -0.062737525 -0.02544188 0.044661887 0.027522825 -0.103960544 -0.119765006 0.017969925 -0.108192936 0.011933946 0.120028816 -0.109294794 -0.10730995 -0.09636843 0.07149209 -0.028217733 0.029439824 -0.060229566 -0.012619139 0.053707838 -0.070982456 0.11131244 -0.036486443 -0.09258822 0.09519713 0.07241039 -0.026674673 0.017805632 -0.013973469 0.043739498 0.10946049 -0.05003272 0.074746534 0.012817169 0.05500676 0.04690771 0.076753646 0.028340375 0.013688372 0.097656794 -0.09304334 0.026262404 -0.0016369894 0.06794201 0.097247474 0.00018165335 -0.091692366 -0.10435457 -0.012372737 -0.017231522 -0.110319614 0.11817634 -0.030167276 0.018154759 -0.026176779 -0.038759094 -0.068170205 0.04125976 0.050275862 0.05450107 -0.11286827 -0.07447403 -0.09490371 0.10318289 -0.07352537 0.107070744 0.032378756 0.07325177 0.06839572 0.069709465 0.10663867 -0.059047937 -0.052611 0.05780967 0.098694034 0.099386245 -0.116094306 -0.08839067 -0.011298903 -0.015865462 0.074926235 -0.051166404 0.030025642 0.049790446 -0.09564329 0.07397193 -0.09112205 0.02412793 -0.0015913026 0.07957538 -0.039185394 0.07125501 0.060925357 0.0818073 -0.004523079 0.08517667 -0.019782357 4.292524e-05 0.08981978 0.017480293 0.11546148 0.04454081 -0.02488277 0.09575061 0.094944194 0.082234696 -0.055357024 -0.02955679 0.03476003 -0.11502443 0.052122746 -0.088252 -0.036379825 -0.10128671 0.09168189 -0.042750284 0.09359201 -0.036836706 -0.018549379 -0.024109034 0.041830923 -0.075120814 -0.083855994 -0.067048766 -0.042601228 0.008703008 0.06008427 -0.01551327
غير -0.03647381 0.07577875 -0.08842179 -0.016379343 -0.09768473 0.09959363 -0.09139439 0.0916062 -0.10912471 -0.0340774 -0.019405771 0.062204823 -0.1093534 0.033584204 -0.104116626 -0.00065769674 -0.07763329 0.06602936 0.11356694 0.024701187 -0.079988495 0.08068572 -0.09413119 -0.009710355 -0.009157024 -0.09499116 0.10584396 0.09596018 -0.065487 -0.020033464 0.023627084 -0.04944034 0.082476854 0.1095373 -0.09885579 0.03280458 -0.013086564 0.008944807 0.06738576 0.092148535 -0.10611715 -0.004244518 0.11165943 -0.047932208 -0.08549651 -0.0241495 -0.093541466 -0.052680623 0.048597474 0.09867936 -0.09476174 -0.039188895 -0.078136526 -0.08227501 -0.08454369 -0.09868584 -0.105079845 -0.059118576 -0.060711887 0.1075947 0.045582827 -0.01822111 -0.096308306 0.053623497 -0.07629921 -0.052531373 0.03899211 0.0768399 0.091331944 -0.017331095 -0.06131497 0.053865828 0.093841635 0.03000653 0.10872598 -0.08209946 0.009284278 0.016460514 -0.083222866 0.0048878123 -0.02284578 0.059596147 0.09578555 -0.07273669 0.094064035 -0.079266004 -0.10771781 -0.098245874 -0.065274894 -0.08452894 0.05873068 -0.086849585 0.052171 0.11068571 -0.08160598 0.032094594 -0.09367129 -0.0616661 0.061809044 -0.00017709739 0.085897975 -0.053666703 -0.033432167 -0.10673979 0.050481346 0.055584222 0.10815909 0.06422775 -0.038903076 -0.0019467933 0.095378295 -0.008695928 -0.029886572 -0.007398496 -0.09854866 -0.08496914 0.08310764 -0.057692595 0.027732708 0.04621351 -0.024017043 0.10467571 0.108124584 -0.02722438 -0.011493765 -0.09831889 -0.092559576 -0.061240226 0.006377536 0.059039347 0.05733006 -0.0729596 -0.008617427 -0.07575026 0.009230244 0.08002648 -0.092813045 -0.047352634 -0.03154131 0.023693487 -0.055274293 -0.105743885 -0.05394895 -0.03354983 0.082184866 0.08488433 -0.1057167 0.110178776 0.015720062 0.008081085 0.07141077 -0.020398613 0.075559996 -0.10991128 -0.09839205 -0.0802958 0.019443577 0.0002693269 -0.07707662 0.08622879 0.11373001 0.01586809 0.08081505 -0.02148629 -0.09623336 -0.05758443 -0.047647417 -0.0246497 -0.016068263 -0.020043468 -0.012427049 0.09846202 0.0584518 -0.037896816 -0.06930404 0.041127745 0.099466495 -0.11124068 -0.08965754 0.05018383 -0.08826005 0.10148582 -0.09721456 0.024678642 0.04548591 0.081305884 -0.042220064 0.026344554 0.024125744 0.024181385 -0.09857838 0.049413044 0.08070268 0.08907789 -0.10654357 0.046708543 -0.0066072633 -0.037121102 0.0697543 -0.029789189
