185 200
از -0.06344181 -0.011178193 0.027129157 -0.12193948 -0.028502174 -0.04687342 -0.025491504 0.03181719 -0.12643905 0.07079747 -0.090673365 -0.05938208 0.08591098 0.10484616 -0.09317301 0.013962688 -0.05414471 0.07625777 0.060635053 0.056462105 0.010573792 0.10475848 -0.014315836 -0.048826933 -0.09818041 -0.040615074 -0.05544647 -0.1107008 0.11284269 0.0994843 -0.13307305 0.11411498 -0.05544544 -0.094936706 -0.10392362 -0.085339375 0.059845235 -0.04076268 0.031688094 -0.053469118 -0.035836022 0.025941432 -0.051896345 0.0011043509 0.088046975 0.05078337 0.01140258 0.11537221 0.11323172 0.019037288 -0.07922907 -0.09857845 -0.11979602 -0.097611435 -0.025903955 0.01392987 0.066681586 0.1252649 -0.053322017 0.117383115 -0.05747743 0.042144194 0.014103132 -0.10953971 0.023074428 0.05509055 0.060452145 0.060304817 0.092151724 0.01207078 0.05351865 0.0801206 -0.12480967 -0.087837726 0.034986593 0.0008408154 -0.0006931043 0.0748755 0.10424949 0.023174616 -0.09550106 -0.121374555 0.06367301 -0.08283351 -0.06465017 -0.052341074 0.07060236 0.07157753 -0.037763156 0.04614042 -0.069775656 -0.11862129 -0.051287748 -0.006175075 -0.048761934 0.042159893 0.091990076 -0.03160358 -0.11831169 0.08069612 0.05240341 0.044375055 0.049899805 -0.017578734 -0.033404566 0.030710256 -0.11522068 0.036830466 0.029895252 -0.052754674 -0.10648294 0.046589036 0.14424272 0.08551749 0.022009768 -0.065892525 0.06017068 -0.015112907 0.10281524 0.07370673 0.018907038 0.0071995696 0.012798679 0.041742206 -0.03519357 0.054821756 -0.093316965 0.13284163 0.08340053 0.101289846 0.022968035 0.096718945 0.054070182 0.059259538 -0.03347825 0.032202642 -0.042983238 -0.09643308 -0.10381525 0.08897505 -0.06251008 -0.12040086 -0.054159697 -0.085375875 -0.10051755 0.023846803 0.10731786 0.046804477 0.060865972 0.003692802 -0.0011414328 -0.076463565 0.07593192 -0.077810906 -0.08535499 -0.07774646 -0.06810755 -0.03638891 -0.049081113 0.09039893 0.11783596 -0.010184471 0.09506959 0.07038789 -0.101605326 -0.04705429 -0.032190092 0.05497687 -0.0075223376 0.048948452 -0.106823735 0.1135835 -0.014917714 -0.0054260427 -0.014145191 0.08290795 -0.039316908 -0.06594661 -0.015607423 -0.06942297 0.029201208 -0.06727991 0.054050885 0.07737694 0.047614843 0.004556743 0.06258617 0.05288753 0.02743212 -0.108944125 -0.030148415 0.030540977 -0.11683905 -0.014401301 -0.009647784 -0.023267446 0.027539406 0.029329883 0.05239702 0.07821761
در 0.045886204 -0.010300943 0.06694975 -0.08776597 0.001667962 -0.0679842 -0.08617327 -0.033460766 0.07783289 0.0151648065 0.05453987 -0.072907396 0.1232764 0.11187841 -0.0027768333 0.027267916 0.041251335 0.05408052 -0.033189517 0.033860233 -0.07728989 -0.02567955 -0.025443953 -0.019047674 -0.076953806 0.010016459 0.10272073 0.038237605 0.022037268 0.080208085 -0.05607182 -0.0025633934 0.058207482 -0.04164558 -0.08095454 -0.03696853 -0.033464253 -0.037349485 0.13533324 -0.048323765 -0.011745436 -0.033652045 0.10455452 0.11084116 -0.0769551 0.032739658 -0.006330791 0.088007815 -0.03178678 0.07301367 -0.031473264 0.012985541 -0.07651456 -0.0878767 -0.020951929 0.020344457 -0.022978242 0.042198114 0.022341182 -0.07008797 -0.08114743 0.06990019 0.018645894 -0.012557171 -0.09344583 0.034617428 -0.086972155 0.062771864 0.037405256 -0.110898264 -0.045143135 0.09463614 0.013218369 -0.045592662 -0.11307256 0.023579925 0.121864416 -0.020089688 -0.09386425 -0.008438777 -0.05693834 0.087428525 0.014560271 -0.026668597 -0.09798776 -0.008721277 -0.123153366 0.01939335 -0.10253562 0.039239746 -0.051534574 0.07080502 0.027065052 -0.04809552 0.11191991 0.0009091573 0.008985299 -0.101083875 0.11332618 -0.13520162 0.074136086 0.08981227 0.10466137 0.038013123 -0.110634804 0.09497144 -0.08526225 0.03637051 -0.0635097 0.020866495 0.05406155 -0.06274 0.09785054 -0.008170675 0.08145556 0.021574706 0.10655536 -0.025083264 -0.064215004 -0.07728998 0.061224423 0.057579298 -0.10938318 -0.054823007 0.04666008 -0.11168649 -0.10636285 -0.017321264 0.09898026 0.036236428 0.057849534 -0.015463068 0.089667626 -0.111033805 0.06377828 0.019046234 0.11358873 0.107513666 -0.024715295 -0.10929236 0.05182327 -0.10205757 0.07587635 -0.11238642 -0.07855883 0.04216598 0.049284365 0.12542129 0.11222665 0.10356368 -0.092669085 0.028785331 -0.04450136 -0.07010715 0.104794815 0.09915049 0.040209103 0.068038225 -0.007930694 -0.021913325 0.009597387 -0.052391183 -0.09682688 -0.062464327 -0.0067251045 0.07836667 0.086853005 0.09978267 0.028990878 -0.049025103 0.035595268 0.13009396 0.10733013 -0.13352185 -0.08124613 0.04706085 -0.06804698 -0.029431371 -0.104721345 0.05482656 0.112906545 -0.06270957 -0.115999185 0.051451117 0.013411812 -0.015975557 -0.038524635 0.03881191 -0.047695246 0.034289442 -0.017137105 0.082338795 -0.028387714 -0.094635725 0.116414614 0.026629401 0.051289663 -0.11240439 -0.08636842 -0.045888584
اين 0.079818934 0.010100066 -0.087648 0.09799725 0.045501065 0.092991605 0.0010232312 -0.09997234 0.08289918 0.11086538 -0.04464361 -0.078243725 0.048865147 0.1030077 -0.024399208 -0.10682315 0.033100635 0.076746285 0.013699626 -0.10356062 0.10247651 -0.11413215 0.048569873 0.11442366 0.026239613 -0.05780792 0.09873931 0.085537255 0.08616589 0.058139257 -0.08997114 0.09675655 -0.011729378 0.09970488 0.05894817 -0.0005898312 -0.03478336 0.041709535 0.008133426 0.08342835 0.0032506888 -0.043572143 0.036866315 -0.04663293 -0.11025682 0.09167947 0.025087163 0.039934605 0.09452719 0.103244476 -0.059102785 -0.05308199 -0.014105265 0.09929439 0.1092894 -0.037494466 -0.045685798 -0.08138339 -0.08997933 0.050898027 0.010585514 -0.0916206 0.016600369 -0.02597914 -0.024247482 0.055522542 -0.12919606 0.0029836656 0.041582536 0.09707847 0.074732885 0.09936729 -0.11584309 -0.09927855 0.03140576 -0.11024939 0.049321737 -0.03015887 0.08043898 0.0496798 0.017832583 0.009727141 0.03240968 0.11126849 -0.070243366 0.110551454 -0.063286275 0.056380007 -0.07166089 -0.10127622 0.10853707 -0.019492205 -0.043849844 -0.06827789 -0.0808849 0.003207349 -0.029194748 -0.035301678 -0.07990063 0.03147141 -0.015904898 0.03137124 0.06770477 0.11295064 0.10339709 0.08085458 -0.07647879 -0.097941205 0.011793075 -0.070299774 -0.05262932 0.020547848 -0.037412595 -0.044364855 0.019993879 -0.05183707 0.11078795 0.0032834064 -0.08485881 0.016818631 0.093711846 0.055234056 0.05191651 0.03269632 0.012788689 0.09817447 0.06811283 -0.043354485 -0.06836432 0.037749115 -0.09669015 0.103676856 -0.042850614 -0.10869482 -0.056528572 0.09486954 -0.061543107 0.094941445 0.0042656683 0.07210615 -0.013505388 -0.008615758 0.10626336 -0.0047981837 -0.062324867 0.07150449 -0.053242665 -0.007664201 -0.0493687 -0.019957392 -0.107641116 -0.099756755 0.093982756 0.009602811 0.008508213 0.010362142 -0.063085966 -0.10180575 -0.026787112 -0.08193347 -0.006947602 0.06854244 -0.040001832 -0.012395739 0.106368124 0.110335626 -0.08597568 0.08334181 0.0075955256 -0.0032026367 0.10140619 0.011315596 -0.0728747 -0.0040665595 0.040586278 -0.08340008 0.01750306 0.07191042 -0.026464097 -0.069184475 0.120975636 -0.11753857 0.10607571 -0.11560514 0.10366697 0.08143506 -0.026463635 0.07672597 0.072799414 -0.11719763 0.009744526 0.08899439 0.09831427 0.02907992 0.009420924 0.040963724 -0.0030677503 0.09364409 -0.08789776 0.06363507
كه 0.08228782 0.021394799 0.042278867 -0.094219975 -0.07818744 0.06779098 0.038095392 -0.039168347 0.017541898 -0.06333444 -0.01997304 0.09570055 -0.033004295 -0.08974784 -0.049799073 0.059898738 0.116078325 0.016116098 0.027295895 0.101975955 -0.06859565 0.045355573 0.07415855 0.0700436 0.026474295 -0.048287544 -0.09584403 0.04442572 0.037524827 -0.008882744 -0.097744696 0.03667091 -0.0024016947 -0.06588473 0.05892044 -0.011471381 -0.027833011 0.024548149 0.100683525 0.050123457 -0.017640349 0.017077457 0.0933343 5.4929424e-06 0.040485512 -0.07508863 -0.11348041 -0.04013821 -0.10592797 0.09625113 -0.08192372 0.104512855 -0.11740916 0.07801375 0.06197844 0.084167965 -0.046706777 0.06175605 0.073082335 -0.008353744 0.08547734 0.010390552 -0.07662708 0.12365506 0.037282046 0.058280952 -0.032974593 0.12233968 0.108508214 -0.01150893 0.034123518 0.077507265 -0.08590303 0.03683975 0.06765976 -0.05098292 0.011232464 -0.12166949 0.11206735 0.06406414 -0.11895839 -0.057738226 -0.03363399 -0.012078021 -0.024988221 0.009572053 -0.0013178918 -0.08879109 -0.08186466 0.02040648 7.270777e-05 0.020825362 0.066336945 -0.01488096 0.11375977 -0.027496096 0.0803235 -0.037058394 -0.098336495 -0.004363242 0.055409636 0.12387517 0.09374301 -0.02710294 -0.12248778 -0.09539831 0.025696244 -0.05214687 0.10413442 0.09784602 0.034825306 0.10512155 0.0004786095 -0.07735191 0.06314431 0.10700316 -0.07410297 0.10949139 -0.022968547 0.11087141 -0.07687451 0.06130413 -0.09044496 0.025512438 0.054400858 0.09881878 0.08667974 -0.012573353 0.11252194 -0.1021686 0.086352535 -0.04524736 -0.11813601 0.04849581 -0.017640391 0.024306856 0.07103027 -0.09975995 0.12451776 0.08567388 0.06842933 -0.039200105 -0.06880033 0.037269715 0.06920487 0.09668695 0.01474205 0.08175045 0.121485576 -0.025906608 -0.022179611 -0.10815664 0.029223327 0.052731317 0.07065373 -0.04419922 -0.07725028 0.017989006 0.023485746 -0.085478745 0.12770526 0.0015491924 0.014726815 -0.021131843 -0.06015754 -0.059104994 0.117255844 0.099553294 -0.038174056 0.008453709 -0.10227894 0.0110787125 0.109391674 -0.12600742 -0.038112417 0.060430918 -0.05656765 -0.05262771 0.017174304 -0.021105148 0.08310905 0.07902518 0.046981838 0.05429583 -0.02825862 0.0077018025 -0.04134122 0.061151862 0.064385206 -0.076221295 -0.086687535 0.026646107 -0.08393367 -0.009050298 0.1184292 0.12030798 0.0600362 -0.071957916 -0.10834453 0.0026912694
به -0.020034041 0.086355954 0.030016594 -0.020796096 0.023828203 0.0938826 0.09010375 -0.028737329 0.01819981 -0.01802621 -0.11570845 0.060083654 -0.06307691 0.09678025 -0.07768396 -0.018904338 -0.11788452 -0.07676664 -0.07795817 -0.112440065 0.03151387 0.08693285 0.02102526 0.046302084 0.11234575 -0.031873014 0.08546417 -0.11149322 -0.04982815 0.022031274 -0.010638155 0.093165636 0.07760876 0.074713446 0.00020162643 0.032289997 -0.02716071 -0.03186814 0.06805849 0.087892875 0.06585399 -0.07858033 0.0639654 0.038509212 -0.020181306 -0.03035895 0.037355755 -0.04035904 -0.036084376 0.08401474 0.025165347 -0.071993835 0.049146615 0.029957747 0.07402832 -0.035502084 -0.011145588 0.090445116 0.0007648569 -0.07774896 -0.1074153 0.073090985 0.08888523 0.1074995 0.11401859 -0.023988836 -0.12227135 0.083620995 -0.090875804 -0.005771439 -0.004007971 0.047827717 0.023989184 -0.072812654 -0.10186963 -0.025732914 0.036404565 0.09208064 -0.04205933 0.07438 0.058037765 0.0287952 0.09632102 -0.08315894 -0.039665952 0.01113256 -0.08461834 0.09996041 0.013993295 0.028545931 0.104506575 -0.037019547 0.05482908 -0.10340443 -0.034145243 -0.0023814854 -0.04694741 -0.05177719 -0.055459056 -0.13033147 0.038608845 0.013437117 0.12584476 0.10538473 -0.07215749 -0.104357086 -0.11896672 0.0836656 0.05297843 0.055665474 -0.018571699 -0.045134336 0.033149567 0.07527258 0.040121477 -0.07166578 -0.039195687 -0.052798886 -0.0030758341 0.11464914 0.04919175 0.0015015015 -0.050772823 0.07196073 -0.033436112 0.09873782 0.09750823 -0.05365256 -0.059147622 0.03155748 0.02185543 -0.08485834 -0.10345108 -0.004029495 0.09414196 0.019252516 -0.0025465428 -0.1124549 0.085450545 -0.06744042 -0.060713224 0.10380171 -0.10870198 0.1022791 -0.07610509 -0.06412449 0.07646533 -0.07372626 -0.026211005 -0.120068595 0.09605773 0.019574765 -0.09737111 0.06761296 0.097401425 -0.072976835 0.111074544 -0.04089384 0.012909516 0.07402887 0.04564099 0.1122431 0.118981175 -0.011836725 0.12685567 -0.0022204109 0.0992502 0.05727421 0.011046056 -0.08145925 -0.0066450727 -0.05013438 0.01332261 -0.101995684 -0.111188576 -0.058189653 0.0614232 -0.07386834 -0.05179994 0.044959072 0.08101164 0.07333939 -0.09762493 -0.09214688 -0.120776325 0.073574 -0.0499103 -0.07972666 0.07226982 0.06676175 -0.10722602 0.08975111 0.050962124 0.026668923 0.003931154 -0.076441064 0.027537886 0.0067086564 0.06997035 0.092971765
و -0.11858046 -0.05585838 -0.002769585 -0.11272935 -0.041737664 -0.08151972 -0.044260126 -0.08694965 -0.094226405 0.06504423 -0.067155324 0.008452753 0.085166 0.03734321 -0.100239284 -0.05980011 -0.10100175 -0.018333841 0.07893513 0.034174882 -0.11646083 0.039987694 -0.09266049 -0.03960301 0.10742759 -0.04804461 -0.03356613 -0.030137582 -0.03362169 0.048952125 0.06327821 0.004451248 0.06945621 0.017927943 -0.08950131 0.09582054 -0.0057531316 0.06415043 0.04063703 -0.03799346 -0.015555616 -0.10210938 0.067194566 -0.08920153 -0.06905225 0.037867814 -0.0738523 -0.0633164 -0.084570386 0.12928946 0.117820896 -0.070904486 -0.11602098 -0.08730256 -0.0191279 0.0116764335 0.013235129 -0.06369397 0.10312882 -0.009501978 0.07544982 -0.09143666 -0.023014877 -0.046684463 0.079932645 0.013231673 -0.10516669 -0.065113 0.11594354 0.030492438 0.057193242 0.064998835 -0.019466706 -0.06470764 0.05470112 0.08940236 0.13086273 0.08093775 0.096726455 0.104962856 0.017411347 -0.044096913 0.0039692475 0.071965404 0.03953303 -0.11196404 0.028902112 0.019209927 -0.089781135 0.028306257 0.116666935 -0.092310004 0.07668066 -0.030124282 0.00792723 0.06061427 0.03343064 0.11312774 0.0476779 0.0053300275 0.12461142 -0.05171303 0.07265975 -0.051398464 -0.02188192 -0.074766 -0.06274743 -0.010951214 -0.035654005 0.07020653 -0.111163415 0.06509597 0.010589733 -0.010298212 0.007201668 -0.07287522 0.10205023 0.124326624 0.007574265 0.033397954 0.10410555 -0.05460534 -0.08083006 -0.110942215 0.115226395 0.05857714 -0.006461414 0.09310382 -0.09668637 0.05035239 0.07128565 0.036492147 0.084102035 -0.038734097 0.049756143 0.09018548 -0.053180873 0.087690085 0.0036412727 0.0795135 0.10904181 0.10625664 0.08912033 -0.05945946 -0.07581169 0.013498956 -0.03245528 0.084364824 -0.06458635 0.027015246 -0.067702286 0.07715564 -0.058794007 -0.018572891 -0.081538394 -0.08577003 0.05910674 -0.02766913 -0.037120044 0.09741242 -0.09024511 0.11123806 0.11711263 -0.023011774 0.09309315 0.07431726 0.055548485 -0.037050042 -0.047863457 -0.009095258 0.08000342 0.0006256004 0.08550608 -0.08740361 -0.03552726 -0.029943846 0.051798444 -0.09347687 0.04414404 -0.08864135 0.07024354 -0.11908798 0.04324117 0.11657211 -0.074663326 -0.10854418 -0.08265791 -0.077904634 0.078742236 -0.0838784 0.09094771 -0.015759608 0.05463563 0.009499982 -0.03605506 0.0095712 0.005583477 -0.016011832 -0.064605705 0.0036228735
بنيادي 0.09165917 0.037183683 -0.061400726 -0.009216013 -0.10010679 0.02572077 0.091993906 0.057818823 -0.034314524 -0.09146113 0.098218635 0.09562685 -0.018566942 -0.015844638 -0.020615786 -0.092530355 0.10269568 -0.103708036 -0.006358879 -0.10973071 -0.11122296 -0.081050985 0.015938433 0.06901182 0.06049442 0.08507389 -0.07802968 0.076809175 -0.011196392 0.08680194 -0.053307094 0.122045085 0.054212213 -0.07360376 -0.11329885 0.059426907 0.0655317 0.0731484 0.094203666 -0.066332586 -0.04202154 -0.044150434 0.06551533 -0.086342596 0.04176702 0.057762723 -0.012089957 0.018414913 -0.046965517 0.11331765 0.051212188 -0.107107185 0.020395163 -0.076598674 -0.08856284 0.06705996 0.050262515 -0.04167285 0.0736578 -0.029310003 0.09818769 -0.0748488 0.11178038 0.09590295 -0.015958859 -0.0056584193 -0.105592124 0.030251501 -0.10386185 -0.10691307 -0.021133985 0.09988653 -0.1030594 -0.032080933 -0.0031374772 -0.018177949 -0.057664547 -0.014604841 -0.10440813 0.09038141 0.074796826 0.039753817 -0.087878376 0.10774661 0.07620449 0.088237576 0.0027698886 -0.0077344575 0.10122489 -0.008223643 -0.102358416 0.06119256 -0.09992407 0.024509016 0.06283243 -0.082606375 0.006404028 -0.086054586 -0.033766612 0.058833517 0.06717255 0.016713182 0.05132616 -0.11050646 0.097258 0.017993947 0.0012336483 0.09852672 -0.063947745 -0.026527056 -0.014723445 -0.011974975 0.008066322 -0.09237703 -0.011592864 0.021792142 0.024548618 0.10614851 -0.08193267 -0.01123057 0.09783903 -0.023003459 0.09741363 -0.026394144 -0.06754708 -0.04906075 0.053823777 0.10785154 -0.07701484 0.027139021 0.074485116 -0.0877659 -0.08683572 0.06740558 -0.052516557 -0.03155374 -0.05443167 0.09724476 -0.026247682 0.05740112 0.04946379 -0.07947937 -0.015966166 0.03048787 -0.10665617 0.059659947 0.08291188 -0.05892892 0.07533099 -0.08734409 0.08216333 -0.044044558 0.07114582 -0.07912934 -0.07539281 -0.025263652 0.005056834 0.10042601 -0.07019659 -0.031577602 0.12709568 -0.018690921 -0.028086243 0.043254036 -0.0717654 -0.09792838 0.12476567 0.10400162 -0.026037797 -0.09177089 0.06306036 -0.049625695 0.01518556 -0.093663245 -0.0631753 -0.09210191 0.07109896 -0.026090018 0.059158966 0.045556054 0.07350724 0.07097893 -0.017758591 0.016555479 0.10952133 0.0076997112 0.10343679 -0.0700068 0.04682827 -0.030129878 0.07552405 0.11538228 0.08867751 -0.09576277 0.124622546 -0.10005567 0.06596262 0.06309318 0.0010818689 0.036564603
براي -0.084484816 -0.02248313 0.100158006 0.009438904 0.0680454 0.06390405 0.089011766 0.00012437203 -0.12121506 -0.063753836 0.10936545 -0.022341713 0.088501245 -0.093002714 -0.09326933 -0.011049424 0.10445203 0.106277846 -0.06449671 -0.09461097 -0.021733506 0.096363716 -0.03785318 0.06521358 -0.09357753 0.06199474 0.09739969 -0.049506817 0.018623844 0.06131642 0.006356152 -0.08618283 0.09352231 -0.08505214 0.036496244 -0.05127195 -0.08247629 -0.057903424 -0.07283194 0.018149694 0.07515769 0.00985191 0.019453822 -0.07661447 0.09099737 0.11778329 -0.0850832 -0.031742316 -0.062309902 0.104606174 0.058885556 0.065280035 -0.048103034 -0.12746915 -0.070671566 0.011818185 -0.05342716 0.050072785 -0.08801224 0.027044227 0.03480809 -0.049528107 -0.0068076714 0.098970756 0.119284004 -0.07130003 -0.027092345 0.12307791 0.03332262 -0.07452646 -0.04021405 -0.11507915 0.067737326 -0.077239975 0.023818286 0.025170006 0.07107199 -0.00970609 0.018946126 0.046075292 0.0974888 0.03953507 -0.016052108 0.104881644 -0.054012064 0.0048321844 -0.06648911 0.033924457 0.057679303 -0.11134291 0.05533194 -0.05681821 0.06170361 0.0143778045 0.11602624 -0.037457775 -0.02296124 0.06655764 0.08544816 0.028749695 0.11748573 0.06701524 0.050157253 -0.12445934 -0.13406824 -0.034477707 -0.013241098 -0.11118418 -0.050810635 -0.087065004 0.061945055 0.0061452305 0.12954102 -0.062861875 -0.046906855 -0.039126717 0.04560183 0.057207644 -0.059971746 -0.11822452 0.102456994 -0.06933336 0.04554494 -0.0787022 -0.028267069 0.051619213 0.05509237 0.006774808 -0.013232528 -0.011122667 0.08065559 0.08921868 0.07627864 -0.13072279 0.055455796 -0.08204129 0.023840584 0.055120293 -0.06907847 0.003819285 0.082162306 0.08722321 -0.0021288658 -0.118744664 -0.058176395 -0.009770167 -0.09393577 0.05464599 0.03401666 0.10812024 0.040467475 -0.055606373 -0.048494797 0.015998261 0.018251147 -0.03220981 0.016048944 -0.032941494 -0.10930676 0.045268152 -0.030352294 0.094464615 0.0061779534 0.057069123 0.10058058 -0.07432602 0.13164678 -0.02432248 -0.02570393 0.11129763 -0.045109093 0.067425534 -0.039188813 0.09267253 -0.09340071 0.13157696 -0.051451977 -0.023224669 0.012942934 -0.0112239625 0.008981251 0.09862562 0.07378154 0.02835495 -0.11364158 0.036847547 0.0082197925 -0.079292506 0.0754371 -0.057934497 -0.115805626 -0.003068939 -0.11818081 0.12293418 0.07979702 -0.08532113 -0.041905265 -0.0108724935 -0.060106892 0.013007577
مو 0.077912666 -0.023797745 0.007898251 0.0790588 -0.10172938 0.032209657 -0.04219929 -0.1147387 -0.11346982 -0.06367514 0.083443865 -0.004411406 -0.060589258 0.042306546 -0.11685181 -0.10414199 0.12048376 -0.00749456 -0.071526706 -0.050236285 -0.00078233954 0.030657109 -0.097614884 0.11895346 -0.053801265 0.012601393 -0.07426068 -0.014401911 -0.1103782 -0.087044 -0.016085338 -0.07988673 0.10719087 -0.08725989 -0.1204822 0.036271464 -0.0008155532 -0.020695696 0.11755594 0.12062139 0.031085804 -0.03042893 -0.10279002 0.10234213 -0.0027321852 -0.09717423 0.022763265 -0.063324764 -0.030925507 0.011076921 0.041352283 0.011558968 -0.112027295 -0.06341854 0.06441214 -0.10887861 0.031069076 0.07608604 -0.012286869 -0.060924564 0.036227718 0.057473276 0.09978539 -0.014005532 -0.0017140475 0.12149376 -0.09175499 -0.0054243114 0.05236178 -0.06840248 0.1112102 -0.03632983 -0.07859862 -0.02500895 -0.08564425 0.017441038 -0.07046615 0.008763533 -0.06367822 -0.0836239 -0.013854509 -0.09590328 0.08391241 -0.00039648524 0.114138186 -0.040557817 0.09618048 0.11701991 0.12029812 0.019405924 -0.042570878 0.03501017 -0.043184686 -0.11052414 0.045386903 0.023637215 -0.07909713 0.047688253 -0.032477286 -0.11502547 -0.10007901 -0.026117492 -0.018957697 0.10822993 0.0070965383 0.111952536 -0.10312969 -0.098914765 0.1045359 0.049591888 0.072878666 -0.017633712 -0.050684664 -0.0035882243 -0.011815438 -0.044593465 -0.09551985 0.017249469 0.05105802 -0.043222923 0.10620029 -0.0432684 0.034410108 0.019449366 0.08314994 -0.11740168 -0.121030316 0.06353404 0.055232693 -0.115661874 0.111591384 0.102136105 -0.035589747 -0.050065566 0.085850514 -0.06921618 0.10742649 0.11910001 -0.11025636 -0.019013448 0.011642265 -0.0263256 0.087007806 0.07448304 -0.08635359 0.05090945 -0.046092805 -0.06589881 -0.031658053 0.11044212 -0.013472171 0.08396709 0.078668065 0.07080335 0.023554824 -0.03449762 0.004681954 -0.019151302 -0.026214942 -0.038500093 0.097667515 -0.043722242 -0.04052424 0.05466391 0.028461829 -0.08735653 -0.11328941 -0.010136618 0.12234488 0.07070674 -0.058761373 0.020246446 0.034973115 -0.111670546 0.0003645782 -0.049283367 -0.029824935 0.055140156 0.0019628773 0.020284658 0.07018865 -0.08351354 0.039815277 0.024639197 0.08982572 0.098986745 -0.07904867 -0.11271126 0.111396 0.0010008889 0.041361984 0.045560822 -0.1066494 -0.043409806 -0.038805775 -0.017930776 -0.049524385 0.039340355 -0.037170473 0.017252252
استفاده 0.05827035 -0.06950257 0.112324744 0.02061566 0.083484545 -0.04172704 -0.07378131 -0.059123386 -0.12326396 0.11807497 -0.10862413 -0.0979119 0.0745215 0.0951549 0.026888179 -0.022621619 0.103294484 0.0059618223 0.061503794 0.10951124 0.045652885 0.10791063 0.0640404 0.002038046 0.121495426 -0.11165634 -0.04078734 -0.045768682 0.028345328 -0.006148949 -0.049012363 -0.010896643 -0.12059153 -0.09452298 -0.065358974 -0.056235865 0.026712347 -0.11332052 0.05205931 -0.072719775 0.06709473 -0.075460285 0.05315141 -0.10232165 0.051037308 -0.05668764 -0.062694296 -0.06788306 0.024551367 0.041285086 -0.018262891 -0.01422959 -0.069735214 0.006142227 0.050684903 0.048019722 -0.0044228747 -0.091523334 -0.06822742 0.09329937 -0.065126374 -0.012974262 0.01632669 -0.06747184 -0.03451072 0.049063854 -0.056581207 0.027533816 -0.1096348 -0.08200262 -0.018281762 -0.061159167 0.09467992 0.059083678 0.014821951 0.08883129 0.11770865 -0.10096061 0.010504634 0.0379012 0.09549742 -0.05334594 -0.037596885 0.077151686 -0.078573294 -0.054574534 0.047079433 -0.10605369 0.02784877 -0.010378963 -0.007343559 0.07825933 0.072729714 0.082198694 0.093530685 -0.08211768 -0.07699791 0.079919256 -0.0067674913 -0.11903679 -0.0851279 0.07309688 0.10969372 -0.06179539 0.062241398 -0.10908076 -0.015602653 -0.040349465 -0.120405994 -0.023499398 0.06346692 0.036448766 0.071113534 0.06409653 0.07581671 0.06832889 -0.00069564756 0.013170766 -0.07244297 -0.023188256 -0.059709635 -0.008145847 0.08607347 0.07721916 -0.035328366 0.006379616 -0.11435366 0.08812165 -0.042953886 0.07267856 0.026162734 -0.052073397 0.07002902 -0.12335976 0.11262224 0.06568831 -0.027024694 -0.10627262 0.078328975 0.023224432 -0.091845006 0.011961579 -0.03226253 -0.038334493 -0.013759389 0.06147661 -0.07763312 -0.1132901 0.06817592 -0.040869955 -0.05381943 -0.050913732 0.027810333 0.012484397 -0.027046425 0.057399254 -0.004491319 0.019406544 0.08761615 -0.07219327 -0.083028026 -0.11180501 0.061521538 -0.097538434 -0.105106905 0.09090493 0.04748415 0.11045279 0.085922375 0.03793205 0.035361685 0.028772427 0.054583993 -0.10934432 0.071892604 0.10277702 0.095039174 0.018073088 0.01268547 0.061441146 0.114757426 -0.114654094 -0.041777715 -0.07036178 0.08580091 -0.10403775 -0.042816304 0.047565572 0.12189268 -0.029148137 0.014408397 -0.077241 0.10957564 0.03198144 -0.086659014 0.055279467 -0.022279896 -0.005568764 0.0785463 -0.11071798
سلولهاي -0.045825236 -0.056709953 0.036581155 0.009274435 -0.062495735 0.092021786 0.02918289 0.030509168 0.06932418 -0.04122152 -0.04545142 0.04747457 0.10819283 -0.07737746 -0.010796193 -0.010602467 -0.0010742063 -0.06002208 -0.07754676 -0.06652456 0.08109737 -0.121953934 -0.0068047284 -0.028985342 0.09118394 -0.11969081 0.06220715 -0.007534424 -0.07019497 0.10453542 0.110888 0.12336892 -0.07721252 -0.08100681 -0.061944965 0.02245208 0.03725362 -0.06518528 0.13042632 -0.11870135 0.008577708 0.054683935 -0.026146814 0.070154 0.117976025 -0.039446786 -0.07366311 -0.008331464 -0.07354753 0.08034578 -0.034562487 0.06688192 0.057079982 0.037466496 0.041846868 -0.106976815 0.1176095 0.064504914 0.04459923 -0.03610711 0.0183647 -0.10482395 -0.11471106 0.08889132 -0.106776945 0.09901855 -0.10222455 -0.050901126 -0.027107328 0.1092847 -0.019037465 0.10516039 0.07127118 -0.0030025553 -0.07232779 -0.08279031 0.12685275 -0.0021970763 0.047253307 0.055940166 -0.05010975 -0.018042024 0.11673558 -0.103108376 0.09126585 0.07871916 -0.10639169 -0.08615754 -0.05346178 -0.05057865 0.028171297 -0.012868723 -0.07627771 0.08200644 -0.049312945 0.09847213 -0.025047006 0.10386162 -0.068818495 0.056849085 0.12569001 0.10719782 0.00038626476 -0.04606944 -0.007812882 -0.018514946 0.07529063 -0.016584303 -0.096426785 0.048463304 0.093000986 -0.037345614 0.10380542 -0.10639167 -0.0778017 0.0038607882 0.11150331 0.00931985 -0.08843624 0.009312802 0.007555346 0.041204385 0.111670844 -0.07250843 -0.08875787 -0.021988606 -0.0036635306 0.05026639 0.11577738 -0.11585504 0.08117194 -0.044218805 -0.030791797 -0.089552194 0.09201747 -0.031327136 -0.009612782 0.0021036514 0.078697115 0.026725566 -0.10215432 -0.0402658 -0.038088642 -0.05891562 -0.084170364 0.04824609 -0.015589102 -0.014989274 0.0966546 0.0055128527 -0.06004976 0.10211868 -0.018239494 -0.05867362 0.004309596 -0.0911745 0.047876306 0.028951209 0.091539115 0.040300537 0.046001352 0.07851698 0.0807076 0.02853793 -0.088064596 -0.04998543 0.005301786 -0.10724514 0.09389066 0.053952534 -0.044285912 0.06136038 -0.0142849805 0.03661995 -0.07032698 -0.07436364 -0.040260825 -0.11168464 -0.049232 0.039035242 -0.065179355 -0.06887448 0.06982537 -0.0817333 -0.053561527 -0.035333287 0.08833768 -0.0054915105 -0.0985595 0.11583136 0.013769552 0.11862614 0.052157313 0.113633074 0.050790645 0.06967179 -0.04258381 -0.014680901 0.03662361 -0.10003067
مي‌توان -0.05800472 0.0116222305 -0.03210101 0.06656582 -0.12250816 -0.043335706 -0.044172868 0.03179897 0.10955318 0.0638202 -0.07526216 -0.018282715 0.12440303 -0.065356895 -0.121693484 -0.048009638 -0.07151568 -0.0057669505 0.07161454 0.029448451 0.059866387 -0.12579316 0.0011421269 -0.032087505 0.04634592 -0.08419958 0.04134154 -0.079674125 -0.06734723 -0.113493145 -0.049426414 0.10433092 0.016326668 0.054751717 -0.08588858 -0.012598673 0.122005336 -0.04052142 -0.017081838 0.059472047 -0.10052158 0.033619426 -0.09147359 -0.06212145 -0.042788446 -0.09816986 0.012872633 -0.00045487843 0.020231623 0.11945499 0.07565956 -0.02595517 -0.0024490242 -0.04983283 0.056804277 -0.055782296 0.05559301 0.068132564 -0.0201412 -0.079619735 -0.035213362 0.117931835 0.11094252 0.09477901 0.07513798 -0.09278871 -0.049780656 -0.06551738 0.061725408 0.0053512976 0.0970063 -0.05430018 0.105631016 0.04889034 -0.08843307 0.046822786 -0.08618266 0.0634638 -0.0067240316 -0.116160735 -0.12585315 0.09769128 0.056891795 0.046997473 -0.036965325 -0.077108435 -0.11097756 -0.06620659 0.053165298 -0.07361224 0.077241614 -0.08380558 -0.0008867357 -0.05229697 -0.06371538 -0.08655643 -0.013281754 -0.02290751 -0.08482327 -0.0083729355 0.019275801 0.030336047 -0.04246172 0.084279895 0.06922366 -0.024038153 -0.0103690345 -0.0521406 0.07224875 -0.0048608556 0.04593852 -0.02736077 -0.08211395 -0.12802212 0.122789025 0.10402243 0.090262726 -0.005671444 0.06421544 -0.061975528 0.019968525 -0.106354125 0.014819043 0.081966765 0.09565558 0.029528828 -0.07521311 -0.08398896 0.021993453 -0.006173635 0.131105 -0.010713529 -0.09532712 0.029680248 0.0717218 0.04273908 -0.0007334757 -0.010640926 -0.08805859 0.0565898 0.048120774 -0.10727217 0.039544392 -0.029509539 0.038215913 -0.0850061 -0.10720077 0.10949279 -0.107626915 -0.09973299 -0.06715524 -0.021430813 -0.01956993 -0.0012982097 0.01595916 0.0073768506 -0.096392095 -0.12430596 0.08899805 -0.038744178 -0.06961984 0.02135655 -0.120796904 -0.046325605 -0.10293007 -0.018762227 0.0998495 -0.102226675 -0.08889778 0.073128685 0.11897756 0.031991396 -0.037764926 0.019550353 -0.13030203 -0.05904529 0.0483701 -0.035091322 0.034958776 0.0718362 0.022874014 0.031749815 -0.07578027 -0.06897252 0.038915098 -0.019888045 0.11848939 -0.08918309 -0.08468487 0.06337799 -0.1099064 -0.023204243 0.06264034 0.10507105 -0.0735581 0.021125918 0.07324252 0.0764469 -0.004790373 -0.083234586
را -0.08874676 0.067184985 -0.08890729 -0.102964364 -0.012844553 -0.10481513 0.08092679 0.08864069 0.063945875 0.06524947 0.109298155 0.037833493 0.12439476 0.12051197 0.013347288 -0.08452141 -0.116176195 -0.05981799 -0.11644644 0.10841656 0.014372742 -0.08321748 -0.07655327 0.09301731 0.062424377 -0.033073016 -0.08081259 0.053825162 -0.005291964 0.0038416171 0.043013554 0.114590146 -0.10377844 0.106403716 0.025927894 -0.09213576 -0.10556833 -0.11381904 -0.08199975 0.086930715 0.017987486 -0.06329254 -0.03192839 -0.067546375 -0.04103512 0.015153991 0.10460928 -0.007890168 0.041424885 0.005599887 0.07553364 0.0378493 0.070198484 -0.058481466 -0.09843028 0.00017099627 0.0013461015 0.08959537 -0.08740287 -0.09114568 0.06924158 -0.068967074 -0.07492333 0.12178055 -0.013803306 0.06517864 -0.004080679 0.12283584 -0.03882475 -0.033819444 -0.060530078 0.04685387 -0.018151633 0.086917564 -0.08197063 -0.08221615 0.062350128 0.057336923 -0.10386027 -0.03302754 -0.07918139 0.018229498 0.120297216 -0.103873365 0.085328534 0.081106566 0.074869916 0.06697806 0.028699424 -0.03963282 -0.11186676 -0.06473611 -0.052122187 -0.07227739 0.11058105 -0.02567884 0.032596245 -0.056242872 0.025368663 0.017417857 -0.06286865 0.0789631 0.08748518 0.03728682 -0.11351194 -0.04730309 -0.10329631 -0.09478722 0.02864464 -0.029431494 -0.023981327 -0.06280245 0.058076877 -0.0006240918 -0.046369035 0.056624748 -0.05594166 0.09558273 -0.059919298 -0.072629265 0.06454284 -0.01689525 0.07202201 -0.05498841 0.11853328 0.10732567 0.04160976 -0.06122847 -0.06791283 0.02259801 -0.09260587 0.08610674 0.07014759 -0.049531724 -0.011546337 0.076711796 0.030756725 -0.028643116 0.10011013 -0.10455808 0.08401052 0.04248725 -0.03871721 0.023775145 0.033286985 -0.056330282 0.009016801 0.048295125 -0.004691151 0.06129689 0.007629133 -0.058477905 -0.048941936 -0.114066824 0.10509609 0.056009304 -0.042702165 0.005468798 0.08263993 0.09172584 0.073925175 0.009937129 0.107633926 0.045052044 0.12388995 0.05330259 -0.025729489 0.04848366 -0.0027036956 -0.029451186 -0.087105684 -0.03381329 -0.023581944 -0.018870544 -0.0536549 -0.059905544 -0.024437329 -0.07486819 -0.112628765 0.01570151 -0.014124214 -0.10917642 -0.047544964 0.11041758 0.0833544 0.09243083 -0.08280093 0.005909958 -0.08267489 0.007459226 0.010345213 0.098655805 0.06294217 -0.023668567 0.09304427 0.08691282 -0.045066547 0.013943951 0.09306167 -0.10911482
درمان -0.08982062 0.10256808 0.021912288 0.0926052 0.012910471 -0.0084502455 -0.059091512 -0.058441773 -0.0031643005 0.037553973 0.111951716 0.121983394 0.08149737 -0.024495278 0.05183251 -0.10576878 0.09144519 -0.10320162 0.050695963 -0.072903015 -0.1285409 8.348983e-05 -0.10766648 0.009785047 -0.025482118 -0.10749834 0.03559364 -0.07518724 0.016708542 -0.008186654 0.025520366 -0.02527158 -0.09858769 -0.023366977 -0.006721746 0.054544345 -0.028071277 0.05987213 -0.01053345 -0.049121063 -0.017059645 0.069234125 0.11522385 -0.094309054 -0.12029782 0.05759931 -0.06028239 0.038690776 0.03133383 0.0655347 0.11670555 0.10890295 -0.10714835 -0.09798165 -0.03298967 -0.06292227 -0.104281195 -0.018061412 -0.035451807 0.00044688588 -0.11609175 0.12503764 0.031470396 -0.013726462 0.060941163 0.06601142 0.08320627 0.049270146 -0.10047207 0.033647884 -0.073391125 0.043875895 -0.021914305 -0.06056213 -0.098421216 0.049559817 -0.0505325 0.069456205 -0.019223232 0.0928307 0.06616046 -0.008246903 -0.047632325 -0.07548195 0.065583415 -0.008535532 -0.04003087 0.02241221 0.11590552 -0.023852259 -0.119139664 -0.068756126 -0.02812705 -0.066704296 -0.08023011 -0.11474416 0.055581793 -0.01989469 -0.030662544 -0.032323204 0.083692305 -0.10271245 -0.0009078673 0.007835561 -0.063822925 0.12076809 -0.008458091 -0.10505655 -0.10753686 0.05194013 -0.042680092 -0.052985393 0.08297275 0.077464275 0.12581472 -0.039601583 0.10156316 -0.07438569 -0.097652994 0.031725995 0.038513277 -0.08386648 -0.10317249 -0.054246567 0.054158248 0.08203898 -0.1057356 0.12565969 0.079979226 -0.021859404 0.048549794 0.061887372 -0.12080132 -0.030484773 -0.073741086 0.008894285 0.12671211 0.065980025 0.012043295 0.09353425 -0.0022482509 0.0402677 0.019348336 -0.008666894 -0.07736796 -0.013195419 -0.055402916 0.085795894 -0.07701239 -0.091431096 0.013408749 -0.06804129 0.061075557 0.061476856 0.07573902 0.08544847 -0.09459948 -0.11318127 0.06363625 -0.08413905 0.10326445 0.07401328 -0.014039207 0.011029907 -0.004651481 -0.064011164 -0.0027899088 0.09381383 0.09787585 -0.03544078 -0.006099097 -0.06626634 0.08222292 -0.096756525 -0.08460616 0.085519955 0.013157869 -0.043225855 0.105476186 -0.025755567 0.08851225 0.084938586 -0.08007314 -0.052203774 0.075036675 -0.0726966 0.08053972 0.06963309 0.09151442 0.09430281 -0.04784183 -0.040696364 0.02868928 0.107423045 0.039529756 0.062260613 0.06639613 0.012489268 0.037159227 0.043486927
بر -0.118665084 0.03311903 0.04300525 -0.03343804 -0.01430887 -0.006986776 0.10946065 0.0027938683 -0.007238814 -0.0837005 -0.06079796 -0.006156654 0.018425938 0.019703513 -0.07788399 0.03648788 -0.066707745 0.053911354 0.03652399 -0.07729744 -0.018306024 0.07337847 0.101723395 -0.10597205 -0.08084292 0.118042536 0.018128166 -0.11100567 -0.06401541 -0.11375887 0.060283203 -0.013267553 0.025411444 -0.05670647 0.08890597 0.08614027 -0.06461279 0.0061155134 0.078104585 0.08743304 0.08474254 -0.022821682 0.079032145 -0.06842691 -0.103303134 -0.09968479 -0.021363368 -0.030673726 -0.11666304 0.08467373 0.07177245 0.005708589 -0.08519798 0.09303034 0.06493933 -0.044758894 0.085468814 -0.09342465 -0.10849225 0.05346934 0.020698128 0.019525878 -0.03626134 -0.046995252 0.0017313933 0.11496802 0.07974435 -0.020909406 -0.02114756 -0.09576899 -0.0650504 0.053284626 0.052453235 -0.0023836903 -0.10134664 0.03238246 0.08964827 -0.046351343 -0.049289685 0.07367458 -0.027096871 -0.083503164 -0.09036586 -0.10933844 0.017693667 0.039109334 -0.06541392 0.057632282 -0.054954182 0.114782944 -0.036084693 -0.110659204 0.04550358 0.03408137 -0.090463065 0.11278539 -0.033382 0.05025062 -0.07460581 -0.1295686 -0.049871106 -0.08303311 -0.0896381 0.10819644 0.063260235 0.051455215 -0.034633126 -0.10227295 0.106914595 0.11519825 0.048370924 0.1111493 0.113426976 -0.06317129 0.02464311 -0.10236667 0.020101044 0.0020286252 0.10701052 0.08742316 -0.06773404 -0.010101226 0.0056840405 -0.016390365 -0.07370196 0.031065596 0.073811 -0.0012666924 0.074016556 -0.109431684 0.10353546 -0.05789922 0.037434176 0.0032914786 -0.08539679 0.0055544097 -0.1064331 0.060443826 0.09575963 -0.04665512 0.09363981 -0.08161619 -0.02970455 -0.013087711 -0.06662581 -0.004763313 0.06603019 0.039796434 0.08290463 0.07444565 0.0077747386 0.059493393 0.06867371 0.023862809 0.10769313 -0.031315204 -0.059890136 0.107812025 0.084387526 0.019307857 0.044717904 0.06823165 -0.051680196 0.05917726 0.03869032 -0.092411965 0.035362385 0.03399898 0.035082687 -0.026750522 -0.07613971 -0.05263303 0.016935503 -0.10094541 0.054982472 0.122937016 0.066282205 -0.086706705 -0.084493056 -0.07434527 0.04029293 -0.0036712103 -0.056882314 0.11456432 -0.046854194 -0.07678135 0.019903932 0.076084375 -0.027231304 -0.10580307 0.10673637 0.04262988 -0.11763495 -0.087902896 -0.10893634 0.08905215 -0.08258836 -0.0803307 0.07330331 0.01853326
با -0.10903417 0.06513629 -0.10269395 -0.10052864 -0.038724963 -0.05141222 0.004060147 0.022566726 0.030954393 -0.043470204 -0.10830973 0.034486298 -0.08122287 -0.0606948 0.087447 0.016763723 -0.076811865 -0.03937051 -0.04166788 0.019474562 -0.11975955 -0.070364974 -0.06977371 -0.011377828 0.07603787 0.050075147 0.09697839 -0.105862625 -0.008929642 -0.08827981 -0.08288115 -0.096504405 0.086317554 -0.109764636 -0.10501752 -0.10219269 0.050548866 0.067083284 0.03663444 -0.05401566 0.09694409 -0.112479135 -0.035142995 -0.0016277715 0.038382936 0.04963956 -0.06573299 0.025742352 0.05701413 -0.09697466 -0.03361767 -0.10112066 -0.066435896 -0.022277223 0.02601375 0.063090675 0.04940368 -0.08839805 0.07012819 0.114179604 0.016753284 0.078898594 -0.104485184 -0.0050001997 -0.014477245 0.11297027 -0.059351962 0.11821091 0.08508286 0.018368986 0.080591895 0.031880375 -0.014090118 -0.08379455 0.043439675 -0.0069069965 0.054599047 -0.046713434 0.05293305 -0.039696112 -0.063428454 -0.015740843 0.043187924 0.07955394 0.08117324 -0.009775198 -0.056698505 0.039409675 -0.020469578 0.126859 -0.0014410145 0.010289899 0.09936311 -0.08395479 0.044254288 0.10089999 0.074563675 -0.11280803 0.070458986 0.09190997 0.053524517 0.08480299 -0.06499079 0.058666065 0.021672241 0.094352186 -0.09172368 0.06470875 -0.020039208 -0.05486913 0.015735853 -0.0011168865 0.036094375 0.072905965 0.057998143 0.08751874 -0.013161335 -0.018865343 0.07180974 0.098994 0.10818726 -0.024347067 0.082873 -0.09395003 0.07651248 -0.05453557 0.09580965 -0.107429475 -0.07635517 -0.018156193 0.05246351 -0.0097718965 0.03028129 -0.079065815 0.07788088 0.11410791 0.07947886 -0.09583246 -0.07603812 -0.012696061 -0.052202363 -0.0814331 0.03912267 0.111632794 0.010481113 0.098457806 -0.011592795 0.07895359 0.12941499 -0.11033701 0.034501795 0.06369678 -0.006521878 -0.07717307 0.112886176 -0.056559976 0.035758693 -0.043073196 0.053458866 0.10298984 0.1147946 0.046876263 -0.004237505 0.09782854 -0.060771767 0.02754015 -0.07751839 -0.11296467 0.09291884 0.01849014 0.11481637 -0.008255144 0.055161204 -0.07866763 0.00214374 0.11599891 0.049626354 -0.061151303 -0.110426396 0.019943703 0.112823255 -0.11993869 0.021882245 -0.10333888 0.044856984 0.06289548 -0.09627148 -0.0007160299 0.0035003743 -0.048320904 0.038490128 -0.02256116 0.04288006 -0.049200017 0.0017887788 -0.110419594 0.058030985 -0.07988688 0.08850622 0.041704446
پرورش -0.04130884 0.026172712 -0.11531574 0.10666469 -0.047876418 0.1105358 0.042276017 -0.028977243 0.057043977 0.041267604 -0.03724914 0.035382606 0.084401354 -0.1088475 0.015696034 -0.036366068 0.0474393 -0.10042133 0.004075552 -0.09356982 0.07099588 0.04491087 0.11559436 -0.06308687 0.06013133 -0.100071795 -0.101360045 0.11509307 -5.7528487e-05 -0.0111079225 -0.06263383 -0.08053216 0.120498024 0.027695026 0.049506444 0.10555036 0.038555313 -0.0572185 0.011167196 0.08632892 -0.102185495 -0.00051104015 0.0491461 0.11092925 -0.09196287 0.037399314 -0.11890599 0.031344563 -0.01927507 0.003914102 0.055500954 0.07215171 -0.05682397 -0.030498091 -0.11389308 0.027665377 0.042270888 0.08820315 -0.021702757 -0.057219412 0.011882049 0.03939405 0.09595107 -0.059888903 0.06411039 0.044401273 -0.06639322 0.017455727 0.058850504 0.10398592 0.10492963 0.07338298 0.08910328 0.08722584 0.06632345 -0.06484955 -0.09149522 0.09302599 -0.024265038 0.03358428 -0.074389696 -0.113313235 -0.078955226 -0.08202366 0.016483761 -0.10233806 0.035586253 0.040636778 0.01970629 -0.0027207034 0.033805728 -0.027558293 0.10206432 -0.038770482 -0.11923178 -0.1163706 0.043963388 -0.03664269 -0.08666686 0.047478016 0.104026794 -0.107605144 -0.09283204 -0.09953765 0.07048508 0.032362152 0.040241156 0.0049036685 0.11739974 0.07000473 0.007896978 -0.08689284 -0.054171715 0.02835724 0.023141578 0.00853406 0.007325375 -0.0715364 0.07991292 -0.07000189 -0.091881774 0.07327275 0.10012936 0.045774154 -0.1165934 -0.06962161 0.05560532 -0.053979643 0.042162098 0.07326679 0.12165915 -0.066629425 0.0033410047 0.009773846 -0.09486027 0.08290154 -0.05918206 0.040326737 -0.0030234335 0.04963082 0.0024681229 -0.10346966 -0.05505915 0.061345574 -0.016328694 0.087827 0.103693284 0.07220848 -0.04432406 -0.011803914 -0.0107356245 0.007118223 -0.047246963 0.10738265 0.10503019 0.114358515 0.021831477 0.03416097 0.10264894 -0.08634778 0.11101175 0.0434547 0.041742194 0.023527246 -0.052883618 0.023878815 -0.060483277 0.05495973 -0.019443579 0.0008482966 -0.08966495 -0.05871594 -0.09745556 -0.099550284 0.08083259 0.071140535 0.0936636 -0.040676955 -0.066705756 -0.06198929 0.09342996 0.11365428 -0.024236053 0.06426528 0.012886053 0.020728268 0.04824085 0.07636603 0.021806158 0.0694716 -0.10797887 0.08675852 -0.10381077 -0.019171711 -0.09398536 -0.011674187 -0.09863148 -0.12242294 -0.038280703 -0.114308774
يك 0.019659339 0.0016846255 0.021971058 0.10810424 -0.008166933 -0.09266483 -0.05023353 -0.027415771 -0.044053305 -0.03121739 0.040463503 0.10632954 0.021830514 0.05629489 -0.09555347 -0.018251345 -0.049417425 -0.008130711 0.05858533 -0.09063891 -0.06566319 -0.020009072 0.026642809 -0.004176801 0.113658115 -0.06417581 -0.06069791 -0.07703725 -0.08168852 0.008928432 0.07130394 -0.059959237 0.08362286 -0.028637739 -0.004755318 0.004379695 -0.0369895 -0.02058624 0.1336099 0.09548985 -0.08452983 -0.11009834 0.047262594 0.025650563 0.0682435 -0.103093445 0.02230204 -0.023764284 0.040835068 0.05727889 0.118715905 -0.062123768 -0.032072254 0.063067116 -0.014438872 0.11246459 -0.03339432 -0.11760858 -0.039873403 0.018965287 -0.115681134 -0.006208703 -0.065746024 -0.091878034 -0.014557942 -0.04525711 0.1062248 -0.04557896 0.08534616 0.0920656 0.026055029 0.031249097 0.03545648 -0.061938744 0.023090065 -0.1050752 -0.017774427 -0.012009753 0.09014703 0.024043513 0.017227765 -0.009251781 -0.08609344 -0.08782194 -0.0728636 -0.05816727 -0.12291257 0.010919069 -0.03373591 0.13716552 -0.121460065 0.06534744 0.012626899 -0.06720548 -0.08312201 -0.11600704 0.049983516 0.11167461 0.04692941 -0.106218435 0.032602735 -0.10844035 -0.025838047 -0.0110571785 -0.058100365 0.061942313 -0.02183477 0.05964179 -0.11674536 -0.0048272763 -0.02629173 0.008304133 0.028269634 -0.025031257 0.07645041 0.010303217 0.022639345 0.0043677744 -0.094053335 0.09486744 -0.09975342 0.05305803 -0.12889954 -0.12659918 0.06725518 -0.040715728 0.021366369 -0.038829226 0.070644125 0.06193873 0.058681004 -0.06489017 -0.020757694 -0.12061412 0.05606593 0.06404919 0.10209423 0.06684745 0.054350603 -0.08322229 0.017999098 0.036913406 -0.104827 0.101949535 -0.10735554 -0.107824296 0.018630454 0.048688006 0.08021697 -0.060796876 -0.07183446 -0.078942865 0.04509842 -0.11329686 -0.08054938 0.020727636 0.119900376 -0.119689845 -0.036270037 0.041629847 0.13283268 0.029083814 0.107337415 0.03360842 0.094561554 0.0017352476 0.041702982 -0.09377612 -0.043156445 -0.063282356 0.008476143 -0.08807795 -0.036869552 -0.027217224 -0.09352828 -0.023685616 0.088687 0.117052205 -0.09106391 0.07001241 -0.016801938 -0.08333611 0.09895845 0.104083054 -0.11134102 0.052584033 0.0961845 -0.061634608 0.07798796 0.10910401 -0.060987182 -0.004184963 0.042605422 -0.047076873 0.079367384 0.05284303 0.059124522 0.083277486 0.07470822 -0.1079879
كرد 0.0045904857 -0.11391733 0.018046618 0.019598568 0.119451985 0.047767416 -0.095953204 -0.04980006 -0.061449457 0.08552579 -0.0017618814 -0.053474903 0.002657194 0.02363739 0.07589774 0.017659096 0.0124753965 -0.06952088 0.101233296 -0.06324538 -0.04527794 0.013414874 -0.018211633 0.016136631 0.046269946 -0.08628567 0.082812995 0.014672072 -0.017412037 0.08286313 -0.050531745 -0.0977055 0.0040658205 0.097273044 0.06252433 0.11049674 -0.022838231 0.09082631 -0.027096227 -0.06505506 0.039522585 -0.023152018 -0.105054975 0.06768708 -0.11182448 -0.026776701 0.03187766 0.09193233 -0.025231222 -0.02189168 -0.015140926 0.021547234 -0.11438644 -0.066126466 -0.056090366 -0.06769184 0.036159743 -0.04598271 -0.027931858 -0.03215214 0.10032761 0.04037788 -0.11060734 -0.0046329224 -0.06080954 -0.046952035 -0.10332744 -0.111969694 -0.040169254 -0.08460609 0.040140763 0.124892 -0.10853059 -0.10033873 0.02070712 0.10041978 0.021272793 -0.04733426 -0.03413144 -0.059715707 0.0056165787 -0.045494795 -0.032530945 -0.04054912 -0.09581906 -0.07635606 -0.058238044 0.07219281 0.0142784985 -0.022290124 0.014706871 0.060704287 -0.06497244 0.046289995 0.014436444 0.029544376 -0.04808385 -0.0049485466 0.044149622 -0.06367077 0.029670263 0.1128671 -0.11537341 -0.113539375 -0.04534479 -0.08950884 -0.08844458 -0.11939233 -0.023062047 -0.021365706 0.03401124 -0.12122514 0.03313613 0.09597576 0.06276408 0.08273568 -0.07570147 0.035451557 0.10077201 0.07603082 0.12378088 0.049455043 0.07919788 0.079369515 -0.0957255 -0.07444301 0.035844427 -0.06856931 -0.018886093 -0.012791361 -0.121226735 -0.07827193 -0.02009621 -0.11721449 -0.0286953 0.08492901 0.008746622 -0.028912876 0.024606323 0.123729214 -0.01879094 0.071230434 0.020172363 -0.10335009 0.025900308 0.019211462 0.050112408 -0.11667185 0.11578662 0.045622036 0.058487654 -0.08230322 -0.068383776 -0.057429913 0.09383428 -0.06486937 -0.11881699 -0.016554393 -0.086907595 -0.024075266 0.11209652 -0.07731999 -0.10180444 -0.07470896 -0.11543132 -0.066024296 0.043160338 -0.015378053 0.09633104 -0.039251022 -0.0859538 0.054355726 -0.029374275 0.034176394 -0.04106411 0.075090624 -0.08677501 -0.029995332 0.073395625 0.10448013 0.0414947 -0.12516002 -0.10110139 -0.11175079 -0.039834924 0.048418988 -0.007926038 0.052255627 -0.064639 -0.092742845 -0.12420171 -0.082553826 0.05503018 -0.105792515 0.010673778 0.096735105 -0.10006507 -0.021522371 0.110973254 0.12223107
آينده 0.08952734 0.11672414 0.06651725 0.06647381 0.09175708 -0.095962375 -0.100101076 0.06851129 0.07002736 0.048296854 -0.03777818 -0.06722318 0.06679497 0.10565722 -0.067981236 0.04669744 0.018001698 -0.020506242 -0.06552929 -0.060760204 0.104835 0.046792176 -0.0064852587 -0.07847337 -0.09545433 -0.07659764 -0.042541754 0.095156014 -0.017698104 0.013553384 -0.026438836 -0.00090941816 0.09170296 0.056817498 -0.07931139 0.06529197 0.09376279 -0.09934211 0.11497294 -0.08644391 -0.09919111 -0.12358976 -0.02715911 0.017127216 -0.026516365 0.024345513 -0.061902486 0.10076801 0.11364304 -0.054961223 -0.069197476 -0.022116171 -0.010495366 -0.041890804 -0.10837003 -0.058911774 0.031848393 0.09080764 0.015693435 0.04800652 0.09287669 0.119696744 -0.019573161 -0.10225662 0.039666966 -0.056829114 -0.027892234 0.061572593 0.09792006 0.051484954 -0.07980761 -0.0745372 -0.022488065 -0.10226403 -0.02106547 -0.10735156 -0.036267757 -0.078620784 0.09612909 -0.09186506 0.07553391 0.097197264 -0.10005108 -0.055077866 -0.11169962 -0.09104985 0.084536694 0.032606483 0.058638263 -0.07387546 0.06315573 -0.0697593 -0.057485074 0.103564724 0.0628234 -0.022608 -0.007982388 0.00077214447 0.025507947 0.0033633579 0.012001951 -0.08260992 -0.08576965 0.020622456 -0.099925935 0.013094052 -0.017135046 -0.036761187 -0.08371512 0.11191492 -0.085824 -0.014306937 0.031603012 -0.11458886 0.043658044 -0.10899574 -0.07098784 0.12322308 -0.07861643 -0.07557983 0.10015472 -0.08840193 -0.0005315165 0.0042963447 -0.111998275 -0.08987279 0.024515565 0.10312171 0.1125968 0.06754599 -0.07555735 -0.00388867 0.030381996 -0.059963375 0.06731907 0.095025435 0.08526653 0.11578858 0.0011769704 0.05769702 -0.117024325 -0.052698296 0.07913451 0.0627692 0.08444443 -0.000923962 0.075817704 -0.08540907 0.0032810862 -0.02689598 -0.10475578 -0.059918385 0.021376716 0.048581157 -0.0038032157 -0.021877788 0.085928805 -0.037246544 0.10498916 -0.080045916 -0.09069805 0.08491381 0.10102326 0.027317323 0.08637275 -0.019416818 0.014122077 0.049661852 -0.096362665 0.07337711 0.0021674968 0.05974286 -0.04673226 0.09334064 -0.086669944 -0.021496886 -0.051665977 -0.039186332 0.00717703 0.029706134 0.027643159 0.07109446 0.0027627542 -0.06512059 0.014281617 0.072735734 -0.10764582 -0.08911611 -0.046452824 -0.06443679 -0.00016562095 0.007726814 0.07989329 0.035686385 0.11851175 0.111896366 0.035357032 0.044601742 0.02747621 0.06947405
است -0.05473419 -0.040147107 0.044400506 -0.07538249 -0.018447854 -0.084259175 0.097924724 0.0895955 -0.091231085 0.0968095 -0.11673779 0.11678278 -0.036305856 -0.06772622 0.018673653 0.03349722 0.05058652 0.02676235 0.090253696 -0.037573922 0.048876613 -0.050324745 -0.06525936 0.08900485 -0.06430379 0.07213929 -0.10433006 0.06623768 -0.086545326 -0.017976463 -0.07986238 0.035536163 -0.048199616 -0.0024969936 -0.0059246495 0.025717234 0.02708079 0.011304902 -0.038361963 0.079773635 0.0069389124 0.008477528 0.06878878 -0.07590086 -0.05940813 0.025263336 -0.0006010204 0.11202127 -0.110733315 -0.022870945 -0.084274195 -0.025548525 -0.06997881 0.083550245 -0.08826695 -0.008011466 -0.0059673483 -0.062183395 -0.103973135 0.048972204 -0.087472215 0.029991237 -0.049418483 -0.09781576 0.08456152 0.0010486001 0.07349921 0.06839973 -0.06899645 -0.034657434 -0.03931834 -0.00026849136 0.054326333 -0.11760043 -0.00725433 0.020916412 -0.07153647 0.06932551 0.04305811 -0.039137866 -0.106534824 -0.0457915 -0.04616183 0.098789334 -0.06246485 -0.095957115 -0.056135636 0.08169398 -0.08945691 -0.05838266 -0.08904978 -0.023707055 -0.053248666 -0.07750945 -0.032406192 0.09328266 0.060597654 0.07067618 0.0843603 -0.04029878 -0.013534193 0.10033657 0.0574491 0.021237206 -0.10895131 0.0429759 0.08690692 0.101832904 0.08940034 0.03681486 -0.087052435 -0.05023298 0.03422862 0.09636814 0.09446612 -0.06112857 -0.07176815 0.12087986 -0.08501389 0.06926396 0.09266015 0.06136131 -0.013180955 0.10647894 -0.021362875 0.040639907 0.055027008 -0.07813535 -0.0009969537 -0.06980366 0.12396632 -0.016420176 0.015633816 -0.10482635 0.109730646 -0.073707126 0.110192046 -0.11829857 0.10935273 -0.015096052 -0.047167767 0.022635495 0.07698647 -0.09899423 -0.12329636 0.08211054 -0.028903447 0.05191321 -0.083934955 0.094282076 -0.0927901 0.04634916 -0.011020277 -0.0043335706 -0.040915728 -0.04669965 -0.009844655 0.023506526 0.081887335 -0.05384277 0.12650245 0.11252968 0.09705807 -0.042792827 0.0028644155 -0.047351878 -0.0031375764 -0.016205722 -0.041496832 0.02423124 -0.05972967 0.07703464 0.10161077 0.022640629 0.112534806 -0.020131074 0.035981424 -0.10063992 0.04908444 -0.015357719 0.07749334 0.10363652 -0.11550949 0.060890257 -0.06019492 0.081755966 -0.078796774 -0.07903729 -0.108332716 -0.0646831 0.080791086 -0.0801205 0.11037445 -0.07102753 0.094585255 0.12133722 0.07008544 -0.062351596 -0.052513227 0.07888532
روي -0.045370292 -0.09769179 -0.11016336 0.097266406 -0.10294914 0.028213639 0.09358298 0.08212532 -0.0009708469 -0.075597584 0.040985055 -0.022203468 0.09735904 0.03791462 -0.1063914 -0.0008402501 0.022316957 0.08976918 0.03170377 0.0004899017 -0.12171773 -0.10211672 0.11011539 -0.07032132 0.08479043 0.090872414 0.0893284 0.09873232 0.027861414 -0.049195535 -0.04399984 -0.102416985 0.09005734 -0.059265185 -0.046563298 0.05115758 0.055559795 0.04051391 0.0048840092 0.04687443 0.0898928 0.059684478 -0.084344186 -0.12026113 -0.013326805 0.10597548 -0.075069204 0.02897039 -0.097823165 0.124590434 0.10263296 0.10238435 0.07209289 0.010945554 0.0027708898 0.022621758 0.08007897 -0.10086874 0.052073088 0.120148115 0.037667736 0.018136434 0.10871986 0.060150135 0.081328906 0.04749242 -0.12003579 -0.00074066053 0.051790733 0.057606433 0.037837826 0.020283163 0.116287656 -0.035027806 -0.036589287 -0.02186871 0.113357484 -0.107314296 -0.02480353 0.048708957 -0.014887709 -0.055317093 0.07564856 -0.11378105 0.06686497 0.03480541 0.042612687 -0.05595118 0.047387324 0.0647394 0.067945145 0.015376604 -0.06697249 0.11126356 0.08391735 -0.021586593 -0.10807349 -0.011753695 0.0127717955 -0.107293606 0.009735186 0.05138867 0.09868919 0.0031481707 -0.08148269 0.08797104 -0.09799561 -0.0042630546 0.03323875 0.10244187 0.020912914 -0.058452472 0.092960946 -0.06924543 0.078746095 -0.06353146 0.041707728 0.13277903 -0.011527488 -0.06872022 0.014116021 -0.03255985 -0.052516315 0.023066964 0.0121838655 0.030192235 0.05984855 -0.017831653 0.039621428 -0.07778729 0.120079845 -0.080484785 -0.030879322 0.033208612 -0.02443194 0.037950385 -0.09969115 0.040974624 -0.004901345 -0.0076566827 -0.11552328 0.012688915 0.094226964 0.0017030992 0.0458216 0.048119795 0.016078366 -0.036964566 0.012290753 -0.0373633 -0.022657126 -0.0062561007 0.0025863394 0.060859017 -0.06472878 -0.086919405 -0.039966043 0.09684424 -0.126408 0.05888123 -0.099929124 -0.062878154 -0.11401798 0.043994974 0.115910925 -0.07814059 -0.10960886 -0.062409684 0.0013929487 0.0061929827 -0.05913604 -0.004896252 -0.073958315 0.011404555 -0.11350831 -0.10554777 -0.08267398 0.0519486 -0.0068362025 0.07140457 -0.089144 -0.022808982 -0.067464896 -0.113357484 0.08566708 0.10284949 0.018521959 0.11004939 0.12541041 0.048289567 0.076090865 0.002535545 0.07011794 0.046064142 -0.07295441 -0.09955148 0.009725364 -0.105070725 -0.051103268 0.08147811
موي 0.00035708814 0.10968938 0.08558721 -0.11557528 -0.0038421454 -0.011774688 0.11382045 0.03337958 -0.03376781 -0.07831815 0.06836469 0.07181575 -0.0024008735 -0.0073191226 0.03192232 0.001914105 0.0950393 -0.073287606 0.09638744 0.061817892 0.075029805 -0.09981536 -0.028156037 0.11545321 0.016661305 -0.09740219 -0.118815385 0.023241099 -0.013141659 -0.10600866 0.08963731 -0.0188085 0.053894453 -0.039793737 -0.0010572837 -0.018668301 0.075584136 -0.006292739 0.06217424 -0.09342778 -0.040178515 -0.11984273 -0.09769887 0.0006823907 0.07408558 0.06006021 -0.035386078 0.03362268 -0.014627428 -0.075927116 -0.04178936 0.017221434 0.0074916594 -0.004018331 -0.08363398 0.013393709 -0.11108111 -0.05039614 -0.11767743 -0.012881774 0.022180589 0.10483965 0.09153195 -0.068893194 -0.09728788 0.049565386 -0.068666495 -0.021360988 0.0658967 0.07140636 -0.0875334 -0.00052874506 -0.105936 -0.06635483 0.06925018 -0.101244785 0.0716634 0.020492025 0.10136022 0.054735303 -0.06981647 0.0385105 -0.08435436 0.024828112 0.09034415 0.10132519 0.0847664 0.021035194 0.10967593 -0.076361164 0.054889333 -0.100196525 -0.0045214277 -0.005794446 0.03598071 -0.09874139 -0.024982996 0.045595374 0.06585589 -0.01690753 0.0065280837 -0.10634099 0.1241121 -0.07261228 -0.0709062 0.02985772 0.06378432 -0.04149369 -0.054166943 -0.09935593 -0.06901776 -0.093829595 -0.089892805 -0.070900805 0.0973122 -0.060918495 0.041683827 0.01844175 -0.11293545 0.083543904 -0.085974425 0.07174358 -0.07233322 -0.014447594 -0.105777 -0.120021276 -0.12791066 0.06919864 -0.036635518 0.027071815 -0.09877599 -0.02144396 0.070957504 0.056887493 0.08473633 0.03670248 -0.02226718 -0.0072885673 -0.10484866 -0.06720774 -0.0911856 0.00077263225 -0.116586894 -0.0042216824 -0.048643887 -0.0104118455 0.096400425 -0.038388647 -0.015834449 0.009007791 0.0150895445 -0.11454878 0.00907399 -0.057962902 0.12548558 -0.046298943 -0.11478441 -0.09990663 0.0062833824 -0.024054606 0.10779403 -0.024241287 -0.08070861 -0.12173197 0.11870951 0.009385115 -0.07794486 0.09448611 -0.03593095 0.092234686 0.07256944 0.015072071 0.07964024 -0.062553585 -0.024301833 0.055052314 0.10080662 0.01757753 -0.025572674 -0.089984864 -0.01417639 -0.061728586 0.115854286 -0.07382109 -0.09275444 0.006377083 -0.061947968 0.018778823 -0.051519126 -0.056355324 -0.02470982 -0.035916273 0.12361733 -0.015097766 0.079351865 0.10302177 -0.09257066 0.104592726 -0.051052198 0.012652864
آنها -0.12930259 0.011653044 -0.07059881 -0.07415878 0.03955139 -0.12146248 0.042326905 0.0051039914 -0.11026207 -0.05648364 -0.060555898 0.09420529 -0.10476767 -0.021434227 -0.056925174 0.0015100108 0.09953338 0.054273188 0.09278806 0.023097325 0.10277863 0.06962238 0.01920107 -0.05686465 0.04688594 0.0014279765 0.098885216 0.06412164 0.043138593 0.07590207 0.052550644 0.039554268 -0.053129446 -0.10567733 -0.10537494 -0.031323705 0.0048538544 -0.00050579495 0.13459225 -0.03899657 0.07092849 -0.10504484 0.11014506 -0.027880445 0.09980982 0.0016815496 0.02871339 0.061966278 0.028620047 -0.02767759 -0.079146355 -0.016337754 0.05796244 -0.02786296 -0.06224782 0.054507 0.028726256 -0.048269574 0.033755314 0.041937973 -0.11156306 -0.03411133 -0.040883016 0.10109518 -0.12028704 0.102962606 0.0099846935 -0.062181655 0.024016706 -0.12864754 0.0045681987 -0.105925694 0.09840913 -0.12464634 -0.058713574 0.08752066 0.021501835 0.067491494 -0.040505618 0.019514807 -0.06765787 -0.017748442 -0.087881334 -0.092822045 -0.089821726 0.116313174 -0.081664376 -0.110654466 -0.024298431 0.0890555 0.0022508309 0.012082227 -0.01332939 0.09961677 -0.10986685 -0.039205674 -0.043837897 0.060327858 -0.11466634 0.07991775 0.012596226 -0.060530767 0.08268436 -0.084264636 -0.13198626 0.056830276 -0.08430048 -0.017381258 0.040677126 0.017237892 -0.021751013 0.1162868 0.13557132 0.06384512 0.11148545 0.08920285 0.115275815 0.025025522 0.08225607 -0.0031013947 0.033143654 0.04181309 -0.13272035 -0.020185964 -0.06421357 -0.08262563 0.1184044 0.040581957 -0.021518221 -0.0826514 0.015181268 -0.057377394 -0.021767851 0.04796508 -0.021898493 0.0022670017 -0.092202485 0.09894599 -0.09022176 0.112514965 -0.080747925 -0.028283821 -0.028453087 -0.11097999 0.0011404746 -0.02778206 -0.122443676 0.10059265 -0.10307401 -0.08441963 -0.03523687 -0.08146576 0.0757651 -0.056400705 0.03155038 -0.060962453 0.038985085 0.022665815 0.036380306 0.042625923 0.079674244 0.12344141 -0.08018763 -0.025445884 0.1313762 0.0832239 0.0670568 -0.0656683 -0.07925495 0.066074185 -0.008706624 0.07158086 0.008103699 0.03295724 0.063365035 -0.0022743111 -0.029072847 0.10616182 0.011434118 0.022318194 -0.1009146 -0.010776643 -0.0934413 0.006716576 0.06644311 0.06668238 -0.008879306 -0.020232754 0.128974 0.012391219 -0.036860336 0.03961704 -0.08138313 -0.0048836884 0.061016664 -0.011742122 0.021282764 0.061691962 -0.06935139 0.05540169
هستند -0.11710465 -0.03558072 -0.027992947 0.10338988 -0.015049859 -0.03235087 0.03925883 -0.06642259 -0.07491849 0.06942018 0.11454017 0.11750557 -0.080763884 -0.051211275 -0.06317327 0.009455861 -0.09872916 0.09122331 0.08943702 0.04028738 0.11118159 0.09568492 -0.060082097 -0.059571568 0.071442045 -0.037770636 0.11931317 0.07171021 0.006410234 0.019937174 -0.005438594 0.10579409 0.11138203 0.067159526 0.0052811084 0.11011063 0.02544258 -0.026693264 0.05348108 0.079004355 -0.0720216 0.108047605 -0.10813179 0.0836222 0.029011937 0.09804909 0.06605446 0.07403042 0.08379847 0.013797156 -0.051240336 0.030882228 -0.07919103 -0.09542534 0.10837011 -0.03605746 0.11387747 -0.08230602 0.017122937 -0.008369007 -0.07338076 0.021903036 0.07092184 0.04761585 0.04512594 0.028107189 -0.101771675 -0.04531555 0.049056515 -0.044717554 -0.040771037 0.047782335 -0.09481 -0.0144745335 -0.10867988 0.07815136 0.11403616 -0.024247779 0.10955254 0.11684257 0.07018428 -0.08984905 0.033445284 0.112692796 -0.05462497 -0.052900955 0.06798851 -0.0021612074 0.016723856 0.02133416 0.076197006 0.0038313214 -0.013213149 0.11954904 0.07646102 -0.06043711 0.001618703 0.06648396 -0.04325634 -0.012635306 -0.019591473 -0.065825224 0.1141865 0.00023509846 -0.065041505 -0.052723307 0.0024017394 -0.06577595 0.11340009 -0.032437347 -0.032676388 -0.05637048 0.08795815 -0.04570967 -0.08797273 0.107331194 -0.08198519 0.07751057 -0.08424811 -0.09939184 0.03767857 -0.06725701 -0.097561345 0.071382046 0.060621712 -0.058532972 0.06196739 0.023909125 -0.08236499 -0.04635844 -0.013104424 -0.115989275 -0.11038883 0.081045695 0.054234076 -0.056042567 -0.0064585716 0.010797395 0.036967732 -0.101915866 0.02224938 -0.016485471 0.04206339 -0.10878795 -0.025852751 -0.001911965 0.09736366 -0.05400667 -0.0045731133 0.06792029 -0.08538193 -0.11607415 0.06180764 -0.04870568 -0.06731546 0.081658125 -0.06548395 0.080522835 0.015725913 0.02079872 -0.03404623 0.09407269 0.063558705 -0.11586271 -0.10189948 0.0468021 0.029060574 0.04981698 0.1151873 0.03724509 -0.064038806 0.09532717 0.07513146 0.08567339 -0.052341424 0.00045619224 0.08972871 -0.07742863 0.083360024 0.0080737695 -0.008056682 -0.062807016 -0.098931886 0.100949645 0.048245843 0.0900872 -0.08606834 0.05790614 0.027817117 0.09567107 -0.0048871236 -0.06610182 0.056832675 0.07077358 -0.03955391 -0.09859574 -0.08955988 0.078028 0.089560054 -0.038985077
سر 0.055236235 -0.072489366 0.029535284 0.10795502 -0.11608722 0.06492677 -0.08500079 -0.012128261 0.104311265 0.0069476534 0.10980387 -0.022827912 -0.048969116 -0.05831494 -0.124581605 -0.11758324 0.111140504 0.0554239 -0.10613288 0.11802363 -0.08417507 0.034389324 -0.0019013367 -0.03833206 -0.014340965 0.11646384 0.030660227 0.030728998 0.12505883 -0.06736961 -0.04321191 0.12852857 -0.078931145 -0.0045541204 0.09651038 -0.10578913 0.031286255 0.07222193 0.121193185 0.039142672 -0.041908145 -0.0873228 0.023561161 -0.10411126 -0.0792494 -0.09488266 0.04246273 0.102658786 -0.120926544 -0.009681526 -0.018829808 -0.09695934 0.081071004 -0.12950791 0.04499693 -0.062601015 0.0022400978 -0.08840836 0.013795229 -0.029524397 -0.022855662 -0.06559396 -0.10743989 -0.100042626 -0.011644337 0.04495014 -0.04834486 0.023523133 0.028209161 0.01951243 0.0979706 -0.102269314 0.008533917 0.005718638 0.048341952 0.07169068 0.022358121 0.114173375 0.09626258 0.020287512 0.043653212 -0.029344268 0.033800807 0.017813427 0.008061991 -0.070245214 -0.11977617 0.009631604 -0.036756754 0.1146693 0.040895037 0.10758947 0.033001777 0.06489023 0.057007365 0.06832475 -0.04348141 0.034561075 -0.063735925 -0.031953014 0.072976686 0.027630845 -0.09927534 -0.059807308 -0.09694699 -0.025248833 -0.016176427 0.09715357 -0.030230774 -0.08654381 -0.1250676 -0.031655356 -0.00999055 0.09307643 0.05558765 -0.06761405 -0.067632146 -0.048395213 0.020178875 -0.09386624 0.09368567 -0.11179953 -0.1261515 0.04164063 0.10751582 0.030589232 -0.04225803 -0.09820649 -0.08340901 0.05094001 0.041144557 0.103900716 0.04345473 -0.08109736 0.0030954126 0.04013263 -0.03372697 -0.12063435 0.066061586 0.041935902 0.10072135 -0.10681773 -0.06993418 -0.046489634 -0.016824974 0.025984444 -0.03471749 0.07188718 0.12111482 -0.024696892 0.06331561 -0.07805786 -0.028504422 0.018633265 -0.068513095 -0.05118673 -0.067036055 -0.07721004 -0.080130525 0.055438392 0.08453128 0.011994161 0.085746594 0.08371863 -0.025428858 0.0066435495 -0.024206229 0.0956387 -0.0894506 -0.045000505 -0.01061341 -0.06619655 5.794534e-05 0.05151431 -0.060550403 -0.06585793 0.08570973 -0.070901 -0.004513272 -0.05205309 -0.045519214 -0.08055297 0.11825977 -0.12231869 0.100257896 0.086509086 0.02362792 0.0023284089 -0.008247786 0.028782628 0.08700604 0.05110303 0.050560035 0.046207745 0.07271783 -0.021191495 -0.06057018 -0.12385842 -0.03490264 -0.03623302
دانشمندان 0.0058636656 -0.055439677 -0.0021061134 0.02431403 0.033994205 -0.05104123 -0.03296311 -0.11004155 -0.09001676 0.0650034 0.079641216 -0.08764751 -0.08414231 -0.0043961504 -0.12385543 0.106126666 -0.09235041 0.07530249 0.11134227 -0.11010312 0.039152484 0.03096166 0.0003823691 0.047861394 0.12372246 -0.034590002 0.06382776 -0.11237641 -0.108200215 -0.066424586 -0.094022945 0.06954651 -0.057877857 0.040977534 -0.041162334 0.0457775 0.03533778 -0.016141238 0.059504014 -0.025294822 0.010860251 -0.085865654 0.04766214 -0.025495034 0.11291813 0.03142375 0.010380619 0.08554502 0.057512444 -0.0506273 -0.07753129 -0.003262898 -0.07461303 -0.013177972 0.068769686 0.0055278763 0.066515364 -0.00033342253 -0.0085140895 -0.014080704 -0.066384025 0.05541482 -0.09080487 0.011323604 -0.06072277 0.12536564 -0.12520364 -0.037375174 0.04611855 0.047422368 0.0681664 -0.12018208 0.11307279 0.07728665 -0.029854015 -0.00085773366 -0.06475604 -0.019442728 -0.026042681 0.10712997 -0.0010916583 -0.058812395 -0.054026283 0.021304216 -0.07240189 0.022895053 -0.11873055 0.085052446 -0.12528117 -0.11938585 -0.0839308 0.06127226 0.08098607 0.11614204 -0.10615535 -0.11226771 -0.092149705 0.006372106 0.09807056 -0.05906955 -0.11485331 -0.12280818 -0.0630527 -0.082688585 0.04550286 -0.083782166 -0.054267474 0.009590362 -0.07427631 0.098558724 0.020693885 0.052683465 0.007164749 -0.03156324 -0.092281796 0.030291904 -0.09551307 -0.0021750545 0.07699775 -0.020340916 -0.10482293 0.016433937 -0.04377954 0.09560047 0.0916428 -0.10651105 -0.09435041 -0.040910397 -0.09659511 0.11075376 -0.0037192043 -0.03236427 0.0633886 -0.077291295 -0.08786979 0.041096188 0.047633294 -0.06539626 -0.03032839 -0.108395144 0.018280253 0.07711326 -0.078417756 0.029667756 0.09599167 0.0069386344 0.048289638 0.07392334 -0.0058244276 0.023442542 0.08621417 -0.10832273 0.012140108 -0.091519274 0.10899338 -0.10123142 0.0073861345 0.10236002 -0.06332366 -0.0067042126 0.09917578 0.029340096 0.082803145 -0.111962594 -0.07301583 -0.08545563 0.038364958 0.023320375 0.056007456 -0.018006064 0.012854672 0.12598018 0.04354604 0.045146458 -0.11982255 -0.0482853 -0.02263539 0.07069951 -0.02012017 -0.05351051 0.05242974 0.10254657 0.035514865 -0.044043377 -0.07416219 -0.095745996 0.036850967 -0.083175436 -0.07387418 -0.122207 0.087744944 -0.06715615 -0.035022486 0.02060938 0.0761449 0.0073171644 -0.04440687 0.07208177 0.020707877 -0.039844703
همچنين 0.09437752 -0.10636555 0.033872016 -0.12166686 0.018593796 -0.0073328675 -0.00093240273 -0.00026033854 0.055650935 0.09627353 0.05048661 0.060729094 -0.093947195 -0.026433287 -0.058229685 -0.105867244 0.038934268 0.07528053 0.094202004 0.016324505 -0.017636389 -0.07950293 0.061175372 0.070516124 0.020499837 0.042819962 -0.018084258 0.1084819 -0.12241208 0.1056578 -0.044331256 0.018611237 -0.013365892 0.07846375 0.12854916 -0.07236452 0.019726709 0.023341551 -0.05445323 0.007629769 0.037410446 0.010123493 -0.023521379 -0.026509456 0.05826104 0.048730638 0.07063182 -0.012314212 -0.081513196 0.020494007 0.11494826 0.05657314 -0.008130261 0.038942285 0.020511616 -0.12331745 -0.018208362 0.020633794 0.046486024 0.047114093 -0.023072336 -0.010919533 -0.048982654 -0.014894364 -0.053514883 0.08948222 -0.019369042 0.024297852 0.12054312 -0.107348815 0.0032130075 -0.020080086 -0.061756562 0.0039974106 0.049967736 -0.010425497 -0.02992128 0.027374554 -0.06488931 0.0030792465 0.013512338 -0.014191273 -0.09585604 0.03573417 -0.054009657 0.08668015 -0.1321705 -0.087924175 0.0830596 0.07890583 0.07142007 0.048859518 0.03424252 0.015797004 0.09964039 0.015885595 0.06604137 -0.013584334 -0.047778733 -0.0771496 -0.11879811 -0.044940248 0.08207819 -0.13325416 -0.110761635 0.09666647 0.12178359 -0.10954066 -0.11862615 0.08959435 -0.028449986 0.098003544 -0.0535883 -0.042540886 -0.0342847 -0.0958387 0.043415938 -0.12718381 -0.020044517 0.12673011 0.114309765 0.10688572 0.12810192 -0.106983185 -0.0099861575 0.08743294 -0.025948785 -0.11027835 0.033992082 0.087606 0.03714624 0.07681616 0.12435532 0.11567834 -0.036177296 -0.09561596 0.110656485 -0.016569668 -0.10316166 0.096151635 0.08266874 0.09930515 -0.0103358105 -0.032013573 -0.04843825 0.11410186 0.0738437 0.041913573 -0.07543277 0.028712954 -0.05676389 0.007168213 -0.05476635 -0.06781079 -0.09069112 0.04458483 0.06267604 -0.040709678 0.062779926 0.07453456 -0.0134357065 -0.08538007 -0.10497118 0.06377666 -0.07985513 0.08099175 0.09170789 -0.09791226 -0.04231465 0.012657909 -0.018312845 -0.09713231 -0.04910631 0.12486438 -0.12604561 -0.11157334 0.0065943426 0.09200481 0.07088011 -0.05754692 -0.020991376 0.022183808 -0.024043158 0.008962808 -0.1261346 -0.020724224 0.05711021 0.07036143 -0.037027564 -0.07201507 0.10721608 -0.030553695 0.020528706 -0.03766867 0.029115703 -0.022602683 0.0120760575 -0.11691631 0.06098056 -0.009777574
آزمايش 0.057534378 -0.08980516 0.12082898 -0.023470758 -0.0825039 -0.09443461 0.088821754 -0.075287 -0.11167034 -0.118290134 0.004527275 -0.106473 -0.05817009 -0.041273944 -0.002120579 0.06188225 0.037919253 0.09489438 0.025380583 -0.012451904 -0.006636739 0.0356618 0.12302743 0.04370742 0.0020096402 0.11125408 0.11021996 0.0343752 -0.11016296 0.09243571 0.058637325 0.030261848 -0.003282123 -0.051098343 0.009937163 0.110392235 0.095197186 0.025758596 0.00766831 0.10060773 0.0040707923 -0.08713663 -0.1084006 -0.014078387 -0.12355759 0.07938001 -0.08866665 0.053519588 0.041553978 0.1103851 0.09482774 0.029208781 0.07996791 -0.11864664 0.071964204 0.12189124 0.119358145 0.118005775 -0.050029255 -0.019354424 -0.03385792 -0.015811998 -0.07092 -0.015182762 0.012770877 0.014035155 -0.12180596 0.017102785 -0.006325515 -0.10188728 0.044539396 0.033646755 0.11209867 -0.11548326 -0.10469551 0.06958923 0.03287179 0.03712889 0.058295604 0.02012971 0.024982702 0.009042958 -0.06413865 0.027477076 -0.0043046647 0.03768686 -0.040610626 -0.08151043 0.09391702 0.11387754 0.12008013 0.046356495 0.117516026 -0.0044994466 -0.08169004 -0.0021949674 0.0067314403 -0.04913696 0.039038423 -0.090158455 0.0064281486 0.104329534 0.023515895 -0.04909126 0.0039951988 -0.07955744 -0.09448948 0.015004402 0.08610352 -0.10505065 0.029057471 -0.051622853 0.11966309 -0.058657434 0.032224867 -0.113260135 0.11523466 0.07969319 -0.08048937 0.08706721 0.021515481 -0.012034732 -0.0034333277 -0.07381709 0.043765984 0.06992483 -0.027049838 0.040191364 -0.010351703 0.019098861 -0.009015772 -0.08594301 -0.019938018 -0.11208469 0.08422097 -0.11122838 0.042563096 -0.05565799 0.10076926 0.07628129 0.031196376 0.10558976 0.023209019 -0.050737567 0.077269584 -0.100036316 -0.09558204 -0.014240925 0.12259275 -0.014243997 0.022712227 -0.08082232 0.022700181 -0.09335866 0.07236845 0.08524488 -0.08786845 0.001155069 0.05160103 -0.11147595 -0.044942584 0.07284231 -0.06463082 0.056870252 0.043060817 -0.05205578 -0.037699044 0.059205525 0.04764471 -0.062059555 -0.018622974 0.08054451 -0.049083676 -0.07766093 0.10123109 0.046497047 -0.055010837 0.11495014 -0.06803705 -0.11934422 -0.103078656 0.0050884 0.0033483428 -0.03839186 -0.088179395 0.084131755 -0.04729891 -0.0030604184 0.003586067 -0.08334239 0.018901162 0.052728917 -0.071027376 0.045105513 -0.040434584 0.0647714 0.07774689 0.0818236 -0.009965177 0.080309406
دو 0.09555768 -0.090416625 -0.09046111 0.048401233 0.07693539 0.047961093 -0.10709696 -0.0009701129 -0.015240065 0.020399222 0.04725336 0.09672909 -0.11103122 -0.03995845 -0.02410822 0.055096585 0.09689681 -0.011387524 0.0656996 0.010252154 0.0010866073 0.115792036 -0.04345945 0.122535355 0.051249336 -0.06883094 0.000634194 0.098867625 0.09632776 -0.09449313 -0.10654165 0.061058607 0.008613377 -0.09801895 -0.11936434 0.11278543 -0.053177737 0.104221895 0.08482042 -0.08671249 0.09512565 -0.048669524 -0.007779718 -0.050805923 -0.073753685 -0.03721608 -0.08729694 -0.038793743 -0.06740794 0.08629986 -0.030988606 -0.030337667 0.009155266 -0.07218153 0.057726197 -0.0050301645 0.007863992 0.09135796 0.061721314 -0.012138164 0.05107073 -0.11175615 -0.08145559 0.08772571 -0.019501576 0.121068895 -0.119816154 0.07764673 -0.09124904 0.024111385 -0.07920608 -0.026533958 0.11960906 0.11648941 -0.014782558 -0.08915912 0.013177373 0.041496187 -0.03235713 -0.048877142 0.003333137 0.11477727 0.09404554 -0.06854696 -0.0414263 -0.034051567 0.09542085 -0.10301222 -0.09186464 -0.0140347015 0.11437039 -0.021376332 0.056613237 -0.020506743 0.06748418 0.05498558 -0.07457587 -0.08664267 -0.112945154 0.01939447 -0.0032653264 0.046469796 0.12641396 0.013669036 -0.0992927 -0.028605923 0.07677968 0.10271024 0.105310194 0.106295496 -0.044200223 0.09244455 -0.05939879 -0.055849403 -0.07817721 -0.04513601 0.001777187 -0.00075181935 0.015561842 0.1150874 0.06274444 -0.066844724 -0.11766214 0.06726594 -0.08382158 0.106204204 -0.05958541 0.03595386 -0.018407183 0.08902126 0.006672291 -0.058861732 -0.052329388 0.113233976 0.098410465 -0.108129114 -5.8263162e-05 0.07718367 0.051617716 0.013435529 -0.060298428 -0.085514314 0.096614406 0.0041270386 0.025056802 -0.09363256 0.070511825 0.050294176 0.106086195 0.082048155 0.029069463 0.056117486 -0.011660477 -0.005230266 0.01418402 -0.09570411 -1.7956652e-05 -0.09882551 0.062721625 -0.09629496 -0.011266563 -0.085009925 -0.01093678 -0.048320305 0.096376106 -0.011294051 -0.063105196 0.080797546 -0.09155191 0.020469973 -0.055857033 -0.005783983 -0.012712271 -0.059661765 0.030245187 -0.058434978 0.011814226 0.06179932 -0.06493345 0.046192724 0.10382309 -0.06785117 -0.093118645 0.110592276 0.06267076 -0.006251095 0.07208511 -0.07194466 -0.042904355 -0.05593361 0.08865984 0.034679938 0.09815521 -0.10158354 0.042328566 -0.032936882 -0.016845085 0.030587276 0.0019651686 0.11204627
سلول -0.04760316 0.103325024 -0.068439655 0.09313059 0.10364645 0.05369965 -0.10633898 -0.030020276 0.04690763 -0.0063347695 0.052546363 0.020588875 0.123019025 0.06862801 -0.11018412 -0.07391948 -0.033590123 0.00063865975 -0.098599285 0.049347285 0.076972306 -0.1009041 -0.082600206 0.0014883876 0.08722532 0.046723302 0.04937011 -0.04360515 -0.109256364 0.0013308832 -0.06409355 0.038595676 0.115562215 -0.035844896 0.08759443 0.101643294 0.117716216 -0.023599412 0.0734794 -0.09103629 0.03863257 -0.002833221 0.048666455 0.07006472 -0.052515198 -0.10541394 0.036523376 0.030521577 0.04603739 -0.08476497 0.057869297 0.028000992 -0.022446545 0.0672078 0.03235981 -0.10848653 -0.005729213 0.10718265 -0.113917254 0.05510165 -0.036749855 0.07434617 -0.04048045 -0.038275827 -0.05349259 0.09402705 -0.082954995 -0.046664093 -0.02328271 0.020660771 -0.013824879 -0.11170975 -0.0743565 0.08463401 -0.0631692 -0.06616416 -0.099202365 -0.059979547 -0.06646697 0.03084232 -0.06522131 0.08191075 -0.09223791 -0.086876154 -0.0967464 -0.060734894 -0.11324357 -0.057466496 -0.011583275 0.027214376 0.028987417 0.06490488 0.08463694 -0.041914556 -0.10607916 -0.049474426 0.09071081 -0.059995707 0.0591018 0.033836264 0.09935054 -0.06897413 0.112883195 -0.0055030747 -0.06883133 0.09561162 0.021243447 0.053482644 -0.012186585 -0.034297604 -0.056434516 0.05024439 0.042316247 0.0035690737 0.018763058 -0.03301081 0.020253452 0.08196491 0.024768634 -0.020948986 -0.07085897 0.069677964 -0.11035378 0.11241985 -0.06547517 -0.09396769 0.06945388 0.026011206 0.023163842 0.121541925 -0.09370173 -0.07886151 0.077129945 0.00464085 0.108287275 -0.103737876 0.12272884 0.096388616 0.12285921 -0.029065454 -0.023846827 -0.07811379 0.059825268 0.03066043 -0.038803443 -0.015780214 0.012273532 0.06085262 0.07739663 -0.026797734 0.061118953 0.06732151 -0.05018649 -0.057228077 0.03340354 -0.08115337 -0.06715303 0.116007276 0.049467765 -0.03305584 0.003765987 0.036744185 -0.087834544 0.044397447 -0.04665428 0.11125817 0.078342006 -0.10539541 -0.038985603 0.09345484 0.092874676 -0.099154525 -0.09029614 -0.06884622 0.044675972 -0.01045956 -0.08606145 -0.058766738 0.030951707 0.004724854 0.00032594852 -0.033701815 -0.109133154 0.080979936 -0.009063055 0.008118363 -0.09933403 0.07533891 0.1071434 -0.040017698 -0.11394549 0.09703961 -0.049527425 -0.10480548 0.11959549 0.09863025 -0.105132595 0.07381799 -0.015612232 0.039942663
آن -0.033660915 0.0029997418 -0.044344056 -0.06888411 0.0771484 -0.09434061 -0.110105775 -0.034655612 -0.08549284 0.09511591 -0.004357768 -0.026434641 0.102130115 -0.0926398 -0.08819013 0.08936207 -0.09054154 0.060038958 0.09835917 -0.110194616 0.0061343308 -0.051116638 0.08283946 -0.050456915 -0.051661294 0.043267164 0.10269168 0.09424926 -0.07811517 -0.061821908 -0.109011464 0.07216658 -0.08958482 -0.058022127 0.048529144 0.056105994 0.11134045 0.07470349 -0.026708955 0.04421461 0.028823921 -0.04501764 -0.051764566 -0.052478712 0.10378134 -0.09536886 0.028631538 0.079109095 -0.022107227 0.0830643 0.033806313 0.062937446 0.05395159 -0.08320229 0.047391463 0.05807788 -0.061853945 -0.08072149 -0.09040306 -0.06866581 0.008635121 0.11166163 -0.08906402 -0.0028997648 -0.05714084 -0.013654643 0.032485425 -0.08573664 -0.07423443 -0.016876565 0.09798839 0.092884086 0.0073392754 -0.042217206 -0.04196891 -0.04981284 -0.06046653 0.05593022 0.016102659 -0.05967208 0.08096301 0.05506159 -0.048191305 0.10985344 0.065051705 0.057852913 -0.059659056 0.09360924 0.071754314 -0.10028378 -0.073454626 0.012132684 -0.063192725 0.107647374 0.06486443 -0.11182459 0.09094824 -0.09918591 0.015686141 -0.09885299 0.04107991 0.008660129 0.054770533 0.066839084 -0.084572494 -0.070067465 0.068176486 -0.11212991 -0.02941117 -0.015519778 -0.0674277 -0.09998093 -0.064910464 0.10200102 0.006242444 0.094976716 0.049171623 0.02241165 0.045865506 0.10902242 -0.08102958 -0.06686763 0.021906523 -0.05653255 -0.041921247 -0.0106661795 -0.08519593 -0.0636375 -0.10573327 0.050155777 0.08062207 0.058258682 -0.027488861 -0.06737888 -0.056638543 -0.1092411 0.02551181 -0.107133925 0.0010777094 -0.035221133 -0.05545171 -0.035688777 -0.08358885 0.08004031 0.09967781 -0.027789112 0.021878527 0.09074242 0.11480269 -0.032206036 0.049854532 0.09004979 -0.083892986 0.014556348 -0.032261018 0.091879904 -0.003385026 -0.11448475 -0.08474232 0.07155143 0.12572606 -0.08490839 0.051881928 0.02961198 -0.0708089 -0.09452723 -0.08756564 -0.014129955 0.10179674 0.055614475 0.104527846 0.10497334 -0.110906124 0.0390131 0.106026374 0.012905694 0.11210358 -0.051737346 0.037022527 0.00016718081 0.057643965 -0.025733477 -0.0549819 0.05268643 -0.06687543 0.06337653 -0.04611632 -0.017509883 -0.08141559 0.020610338 0.07831242 -0.0075026043 0.07536345 0.09847841 0.061620172 0.095294476 -0.013049288 -0.079187386 0.11315014 0.04639624
شد -0.11740908 0.0051213736 -0.011051826 -0.07427303 0.103543475 0.05600352 -0.042228255 -0.053510305 0.045486767 0.03456104 -0.021885354 0.117010035 0.0452137 -0.005939872 -0.0491131 -0.04477699 -0.07840764 0.04746329 0.09901705 0.06950305 -0.075874105 -0.023163611 0.011449118 -0.092953235 0.103437655 0.12184916 -0.03982763 0.119180895 -0.048109137 -0.11857726 -0.036061276 0.090336315 0.039591894 0.03885333 0.024195995 -0.02108755 -0.0031355484 -0.024078982 0.044127434 0.048565343 -0.030416435 -0.09684436 0.094123214 0.04439471 -0.10455705 0.04890367 -0.013304449 0.11320445 -0.10837352 0.04416197 0.094430186 -0.119780555 -0.032997485 0.058294594 0.035602324 0.07581413 -0.038650535 -0.105892755 0.06404745 0.12553036 -0.11121478 -0.0060580336 0.08348206 -0.042257283 -0.07245678 -0.0135046765 -0.10237149 0.013030068 -0.034082025 -0.095503815 0.08397578 -0.12010836 -0.0965533 0.041013747 -0.013484688 -0.05607142 -0.057096977 0.07465241 -0.116678424 0.0033589609 -0.04215181 0.124376826 -0.042605862 -0.022914795 0.0642168 -0.011379553 0.05833 -0.002002698 0.0652681 -0.048615396 -0.05644578 -0.037660155 -0.08937401 -0.049959123 -0.010016856 0.05885272 -0.07351938 -0.03685373 0.09653158 0.092828095 0.059544582 -0.042593397 0.050756924 -0.08810424 0.018412396 -0.027036455 -0.039844863 -0.10468736 0.037871066 0.04843836 0.075668596 0.1116711 0.12587273 0.048417926 0.034269355 -0.008918013 -0.105567716 -0.041990913 -0.07923631 -0.07907906 -0.0048314575 0.036955792 0.05386251 0.021600015 0.09223927 0.021075292 0.081078276 0.07447365 -0.0022002424 0.032250855 0.04260104 -0.010948205 -0.014611296 -0.061537005 0.07615653 -0.10067121 -0.062988766 -0.05153638 0.11048076 0.06820031 -0.008088074 -0.012526816 0.06674256 0.108200885 -0.12534533 -0.02700666 0.015750494 -0.050826363 -0.01914547 0.0054382402 -0.003614566 -0.114955954 -0.026181288 0.08710661 -0.044808492 0.12256233 0.06526357 -0.11205033 0.004551361 0.005928309 0.039148193 -0.02038032 0.03687132 0.0038177534 -0.068482116 -0.091825195 -0.053632367 -0.008436325 0.13139191 -0.0631646 0.0119274575 0.10184848 -0.11584247 -0.12199875 -0.009506574 0.090003945 0.042679314 -0.009836585 0.106749475 0.094398566 0.12667193 -0.11877416 0.048373986 -0.12322737 0.12247735 -0.11486529 -0.025575016 0.0510295 0.026054168 -0.05342298 -0.021848366 -0.084878765 -0.07435723 -0.11329659 -0.045970768 -0.04341042 -0.087364614 -0.0007765283 -0.09728629 0.11318554
برخوردار -0.105837315 0.058504533 -0.027255509 -0.124332376 0.06403983 0.08467672 0.08496127 0.011322857 0.11053906 -0.105416164 -0.11710265 0.065275006 0.12359195 0.11662019 -0.042587716 -0.046766154 0.05748139 -0.03472755 0.07664075 0.024743257 0.04415591 -0.0015549129 0.0918098 0.07351819 0.05370481 -0.082706265 0.052669447 -0.0069607385 -0.00043947046 0.09354737 -0.014071549 0.09366132 -0.044471458 -0.02285493 0.026949009 -0.052174717 0.008370919 0.102018975 0.12964526 0.06530893 0.112030454 0.08497251 0.13758329 0.028953366 0.0494881 -0.100481816 -0.114957094 0.09800454 -0.120686345 -0.10936939 -0.06314988 0.046446256 0.08221389 0.016866688 -0.04787265 -0.019435853 0.014659692 0.093212195 -0.015348697 -0.034059532 -0.07566538 -0.03853382 0.09543817 -0.06340778 -0.008594188 0.12003981 -0.10536106 0.028898634 0.059111428 0.039354857 -0.004528057 0.03362589 -0.07328537 0.016118959 0.07928175 0.04826234 -0.08586152 -0.040246934 -0.009930995 0.062166635 0.027980382 -0.11207399 0.0231611 0.08864791 -0.049971987 -0.042777095 0.082066424 0.023805922 -0.073099755 0.121740535 0.042206015 -0.02719235 -0.07381191 0.12163378 -0.040864233 0.08252361 0.0777304 -0.01793246 -0.08484534 0.00568061 0.041189447 0.12019452 0.019844566 0.06647129 -0.08429322 0.0259353 0.023700455 0.019620862 -0.044746667 0.09246105 -0.023120124 0.025177618 0.031549763 -0.058312275 0.109192654 0.09431053 -0.034233704 -0.014453269 0.099373184 0.00088608783 0.047928885 0.09851701 -0.044453964 -0.0076166093 -0.039237197 -0.101737745 0.079250254 0.0742499 -0.032644983 0.011220172 -0.00482432 0.018044187 -0.010629809 -0.0053262403 -0.11917047 0.037010893 -0.02697516 -0.03546822 0.039274387 -0.016681166 -0.0762807 0.09404808 -0.10405538 0.05293738 -0.083518825 0.054082923 0.093579955 -0.06929591 0.07673074 -0.12953271 0.01761642 0.07469524 0.060292963 0.0537216 0.13994391 -0.112507895 0.042137455 0.09251676 -0.027370116 0.103774734 -0.07932603 -0.106759705 0.022828288 0.08678524 0.06348725 -0.019518975 0.029258564 -0.108681686 0.11689677 -0.11791962 -0.07778933 -0.08722829 0.009080621 0.012554009 0.03664795 -0.04658747 0.08678785 -0.10185523 -0.0016419612 -0.04113411 -0.02060869 -0.027755264 0.027815832 -0.046680823 -0.07610277 -0.07173055 0.019332793 0.063022256 0.042793684 0.05056969 -0.12613918 -0.04017511 0.09809975 0.02475637 0.11945763 -0.11326954 -0.0114324335 0.002327417 0.0378923 -0.10235515
رشد -0.0985678 -0.03676896 0.10441773 -0.100858554 0.111591086 -0.091299646 -0.092555456 -0.007992584 -0.024590198 -0.05019247 -0.020921169 -0.10531008 -0.021496119 0.06116884 -0.09347551 -0.09394 0.039820787 -0.10981697 -0.11236479 -0.09979165 0.019122552 -0.040496163 0.05095675 -0.07387003 -0.064460814 0.09157665 -0.09221376 -0.096205175 0.081557326 0.09217346 0.077564314 -0.053734887 -0.08784502 -0.07456642 -0.040637642 0.00356198 0.12319792 0.004581356 -0.027205482 0.042790934 0.0724745 0.0054834257 0.090303026 0.060688175 -0.10731511 -0.0815272 0.106388904 -0.045429576 -0.10588877 -0.015294044 -0.06763335 0.08532827 -0.021680806 -0.07574457 -0.09262659 0.029149884 0.0529897 -0.10362752 0.117176004 -0.099812895 -0.02992275 0.011872686 -0.09178353 -0.06189356 -0.093306236 0.017681198 0.025321249 0.0018454399 0.099849895 0.017231407 -0.012462135 0.036875542 -0.008955869 -0.113463886 0.04087311 -0.03295127 -0.042281043 0.08188379 -0.05429375 0.04308864 0.08695829 -0.09022185 0.028275887 -0.028714653 0.047223445 -0.0064122104 -0.025649436 -0.033506285 0.009201755 0.10717949 -0.08525873 -0.03232022 -0.06552756 -0.049720697 -0.10484312 0.095843524 -0.0881631 -0.07529265 -0.08965871 -0.021323182 0.010871848 0.06995104 0.12738176 -0.090992555 0.069693975 0.11020041 -0.043887813 -0.11190983 0.09179359 0.12480909 0.069561355 -0.048247553 0.054828297 -0.109905094 0.024816196 -0.0043953788 0.09762061 0.013948936 0.075826004 0.028197642 0.053910304 0.11780947 -0.0270887 -0.034056287 -0.10804269 0.10678852 -0.097925805 0.11202106 0.10426483 -0.03867193 -0.05972063 0.018722685 -0.01153954 -0.078295276 -0.039191507 0.07011352 0.0006122747 -0.06861478 -0.057404082 0.028726837 -0.05201855 0.0061296644 -0.017108228 0.0050056935 -0.12347206 -0.05272828 0.05653383 0.00080506783 0.030708972 -0.100644805 0.05674443 0.04815921 -0.029643584 -0.110467084 0.02434273 0.028643308 0.0600443 0.0014643142 -0.013745761 0.03410584 -0.036503404 -0.005243346 0.10823324 -0.111455634 -0.03650768 0.06405516 0.08224881 0.084964015 -0.015692497 -0.07827888 -0.083932795 0.07340936 -0.065126665 -0.11785703 0.038172774 0.017764516 -0.087910615 0.018402314 0.08592761 -0.08785405 -0.017377505 -0.08606843 -0.019709324 0.013164551 0.10272215 0.015876208 -0.008440407 0.015934793 0.086262606 0.07985959 -0.082179084 -0.009975593 -0.100879535 -0.09062503 0.046040446 -0.09878938 -0.06617058 -0.10365348 0.10319228 0.028810458
پوست 0.0050696027 -0.0062616314 -0.113609456 0.12151108 -0.0103242835 -0.03622242 0.042200502 0.030769138 0.10566791 -0.061262794 -0.07799642 -0.06112303 -0.038262926 -0.09849425 -0.075844854 -0.092489496 -0.09976432 0.08448262 -0.0028973508 0.0715638 -0.03651645 -0.060381614 -0.087272555 -0.044813894 0.034484386 -0.03822562 -0.02365774 0.022759624 0.11788973 -0.0107935015 -0.062100045 0.009745585 0.033896293 0.10459794 -0.021950172 0.10743896 -0.12331435 0.09928066 -0.0063774907 -0.105949424 0.11647844 -0.08502202 -0.06700894 -0.019319763 -0.1247167 -0.009030607 0.08195332 0.05641661 0.053259246 0.036408976 -0.06752079 0.052065857 0.022769 -0.032620855 0.10048967 -0.034008957 0.10882923 -0.07868834 -0.0869992 0.021992475 0.0038457995 -0.08827207 -0.111567564 0.026053881 0.05079468 0.10132957 -0.060660165 0.08389659 0.07936114 0.06841316 0.09447087 0.00855321 0.038384557 -0.003911332 0.021724155 0.10971653 0.011028313 0.07152915 -0.11423532 -0.033216335 -0.09018119 -0.0009929276 -0.011287776 0.07992657 0.03195417 0.080319166 0.0928981 0.069729745 -0.026229843 0.10194141 0.023784578 -0.017884718 0.107332624 0.064412326 -0.07716389 -0.06760596 -0.00893723 -0.0913514 -0.110706575 0.043752495 0.075107 -0.083271496 -0.11137398 -0.11829318 0.0200199 -0.027046448 0.04395412 -0.0062621124 0.0033061197 -0.09532724 0.111108005 0.0006774794 0.1227303 -0.09097072 -0.07459884 -0.054258134 -0.07240993 -0.07401334 0.09974948 -0.11262768 0.002443236 0.08585309 0.007946678 -0.09014666 0.04986742 0.06774039 -0.00810261 0.031800315 0.001439022 0.056683704 0.085502386 -0.101619944 -0.013777691 -0.04280082 -0.039964113 -0.106889024 -0.03671869 0.02501234 0.041512158 -0.0894544 -0.10730564 0.041770056 -0.022952588 -0.030231746 0.0067636115 -0.051364817 -0.0125493705 -0.09519616 0.046082374 -0.030485593 0.09125157 -0.008776642 0.113936506 0.060955904 0.005620647 -0.11494039 0.06554375 0.098974474 0.07873619 -0.07953752 0.12852865 0.067507215 0.087066025 0.0679302 0.08607381 0.108024254 -0.0037645095 0.11863548 0.09695437 -0.06139631 0.021017088 -0.046146613 -0.054621726 0.01455177 0.013835045 0.104063176 0.122780435 -0.07160376 0.08751153 0.029254477 -0.019850587 -0.0046126605 0.071451396 0.10486299 -0.0357257 0.066539004 0.076632395 -0.011316261 -0.117548384 -0.046547417 0.034860726 -0.036588304 0.049136516 -0.08591286 -0.042855296 -0.11804689 -0.041641627 -0.008428321 0.045307606 -0.084897116
كرده -0.013189769 -0.010949076 -0.08078756 -0.119035915 -0.060403056 -0.027340086 -0.017136903 -0.07083163 0.045930345 0.10141908 0.09040683 0.08219777 0.077251464 0.07108471 0.027890144 -0.098252416 0.010461748 0.044865914 0.03770973 0.012869066 -0.05254156 0.12176239 -0.0305479 0.030586552 0.010692851 -0.09477736 -0.0740877 0.115177296 0.102411434 -0.10260171 -0.080815814 -0.007336184 0.089980945 0.04860245 -0.07894699 0.08881649 0.09548417 -0.024891103 0.006659454 0.052521992 -0.020304212 0.061836805 -0.05760141 -0.03488374 -0.079907574 -0.09914525 0.035560284 0.11135283 -0.041900445 0.066939384 -0.0030726343 0.05190177 0.028257847 -0.070141464 -0.016168999 0.0825762 0.05552465 0.06802836 0.052022863 -0.045547847 -0.12782958 0.09682308 0.11994618 0.10784725 0.03122922 -0.09905372 -0.0910445 0.067688726 0.015245481 -0.05757086 0.124159865 0.10815233 -0.08665449 -0.113414325 -0.048884314 0.070856445 0.034144465 -0.056129597 0.028841207 -0.08470486 -0.0029539713 -0.07711042 0.11835487 0.10124476 0.079563275 0.09134799 -0.09514948 0.04367142 0.08400803 0.10578767 0.032543022 -0.08910314 0.011801611 -0.08684254 -0.033351123 0.054460183 0.009974299 0.05469599 0.05583263 -0.027329989 -0.01803936 0.06256831 -0.045919705 -0.008239754 0.01345222 -0.048187774 -0.051228795 -0.10655705 -0.032118823 0.0101952255 0.075618066 0.036445636 -0.035544444 0.017080545 0.04122014 -0.0722246 -0.059499275 0.1296295 0.047558155 -0.027113425 -0.013143676 -0.02561278 -0.08810632 0.07145362 -0.09332591 0.102559865 -0.11533936 -0.11651085 -0.034481008 -0.05706715 0.01660303 0.04353406 0.045792717 -0.08258319 -0.07060664 -0.033758663 -0.07960278 -0.10918793 0.054968696 0.03768503 -0.08808814 0.020355575 0.040562097 0.04076115 -0.0013440622 -0.043823265 -0.09845339 -0.10270343 0.10991861 0.101686396 0.086386316 -0.095246576 0.061163675 -0.071681045 0.09012254 -0.07502896 0.0062979334 -0.0390762 -0.045888495 0.1159733 -0.10973068 -0.052536372 -0.09673642 -0.024702 -0.008349058 -0.07416662 -0.056640383 -0.048043493 -0.040586885 0.054126486 0.059593283 -0.062198255 0.07653067 0.024521967 -0.061423264 -0.10625207 0.123689234 -0.00042985706 0.09109026 0.08958796 0.11435246 -0.032995753 0.024739144 0.0045855045 0.07885269 -0.008272283 -0.09333066 0.04145758 -0.11703297 0.06418593 0.06959703 0.12162058 -0.011908813 0.016086541 0.092245474 0.092786804 0.059813805 0.04399613 -0.05754394 -0.09072116
شيوه 0.04566178 -0.004049033 0.09116915 0.10529157 -0.02882979 0.029295508 0.105037205 0.03658578 0.03967016 0.0073560085 -0.03873521 0.06823789 -0.112757064 0.08284146 0.07054192 -0.10235723 -0.04318435 0.07755898 -0.03503243 0.097133264 -0.019852132 0.024491297 0.06715682 -0.053261556 -0.05447305 0.049140457 0.017774979 -0.11541315 0.05732765 -0.06320313 -0.006326914 -0.09103234 -0.09074872 -0.116080225 -0.0017340473 0.06902556 -0.059745315 -0.05455664 0.10716616 0.08260584 -0.04803772 -0.036201965 -0.002869677 -0.039997302 -0.113105185 -0.049288303 -0.06550823 -0.102896646 -0.1012891 -0.054627724 -0.110793225 0.0947299 -0.054661073 0.08862029 -0.12120304 -0.09839871 0.06775832 -0.088786766 -0.075093016 0.009517715 -0.020170964 0.06957716 0.0061665564 0.050628025 -0.103546046 -0.09814863 -0.017755201 -0.11180284 -0.027072253 -0.046704188 0.06220221 0.028889654 0.034428015 -0.082463436 0.085937746 0.10279541 0.025867378 0.018749855 0.010634858 0.07217374 0.005281263 -0.031769477 -0.08095482 -0.09713232 -0.087983295 0.016491538 -0.04986341 -0.08527264 0.0006654515 -0.06566271 -0.056948297 -0.089767694 0.060250424 -0.07353799 0.022724764 0.105007514 0.045151424 -0.064437576 0.11666848 -0.08651978 -0.059967242 0.10702792 -0.010807888 0.06269507 0.0391401 0.019832874 -0.03306786 0.084690414 0.05186759 -0.009515705 0.09207321 0.08465166 -0.0834121 0.0866198 -0.07634537 0.09447948 -0.06635127 -0.03508759 -0.0033967323 0.06045399 0.09961983 -0.004300056 0.07081114 0.10429038 0.07174262 0.07115741 -0.060236387 0.12242899 0.06435862 -0.03876082 -0.08996544 -0.030408913 -0.07088882 -0.05064016 -0.08696092 -0.04982994 -0.09647215 -0.10553352 -0.09270904 0.08427851 -0.09792444 -0.10595881 -0.03505554 -0.046136685 0.095486775 -0.0890943 -0.0440015 0.0737941 -0.10462502 0.061357044 0.055285845 0.09694704 -0.035743315 0.09324107 0.0882129 0.0990334 0.1002661 -0.026926182 -0.058510706 0.028353509 0.105905406 -0.001075746 0.029679738 0.033354975 -0.0673455 0.010428397 0.0015498099 -0.011887235 -0.04431637 -0.09869405 0.09055189 -0.03062672 0.111310594 -0.08534152 0.09343327 -0.116945505 0.005272783 0.020089034 0.09096161 -0.06704215 0.043243878 0.06494069 -0.10615037 0.015864994 -0.036305737 0.11288031 -0.051732253 0.008155884 0.085300416 0.051572267 0.020374943 -0.04816274 -0.008717569 0.05897289 0.102614306 -0.009024029 -0.03223022 -0.027459526 0.1222986 0.080999576
مشاهده 0.062447548 0.0026237753 0.05621153 -0.0984158 -0.067337915 0.04504595 -0.118027456 0.09126321 0.083030045 0.091166995 0.0025520416 -0.04439099 -0.018246215 0.013918036 0.10409064 -0.0915868 -0.0924103 0.10710357 -0.062361814 0.008336081 0.02881366 -0.053573273 -0.017095627 0.060154878 0.051000807 0.011950218 0.07187965 -0.026804315 -0.08395804 -0.12170598 0.047868308 0.00797717 -0.06123949 0.032405928 0.046620548 0.015010018 0.111690626 -0.008142488 0.040312473 -0.07009286 -0.015583641 -0.025486987 0.008143115 0.103379354 -0.056299176 -0.095184885 0.038553122 -0.026691388 0.05550295 -0.08732894 -0.10615664 0.06450494 0.11134273 0.10215175 -0.026618237 -0.08888347 0.08530683 0.081622265 0.0939629 0.0035609715 -0.021968259 0.03707569 0.1172491 -0.009270193 -0.072289005 0.121927455 -0.015832156 0.10913665 -0.082492754 -0.07759 0.047369365 0.0070553403 0.12138449 -0.025117235 -0.0135595165 0.09479481 0.12291104 0.015181639 0.048808433 -0.11915015 -0.025459908 0.0691028 0.05724252 0.098492585 0.06708402 -0.08437744 0.072549224 -0.09030501 0.1214699 0.105000034 -0.11361716 -0.09026703 0.08493702 0.12220025 -0.10127242 0.041618835 -0.09392114 -0.1191102 -0.092220016 -0.062274218 0.08362272 0.016380964 -0.09405388 -0.06598349 0.09089316 -0.08378327 0.0011275273 -0.08697307 0.005830057 -0.012160061 0.026277468 0.01615603 -0.09741897 -0.034139037 0.10408363 -0.057129122 -0.021249678 -0.028276758 0.02395564 -0.017959343 0.0033151007 0.009659103 0.071813926 0.04990567 -0.09968023 -0.021161595 -0.109648556 -0.094873115 -0.010693112 -0.102580816 0.055473085 -0.0351513 0.11610255 -0.037401937 -0.07021582 -0.05893393 0.04041795 0.043507382 0.107946485 0.031595606 -0.012575926 0.07503111 0.0017809569 -0.03641665 0.0670522 0.07516476 -0.018365018 -0.06138272 -0.026385035 0.018362865 -0.05019906 0.07084584 -0.08443717 -0.08152534 0.078813 -0.06909202 -0.093944535 0.018193515 -0.119185925 0.06384938 0.11260891 -0.02038625 0.03639046 0.07356021 0.0051898374 0.06024458 0.027074747 0.04551103 0.07841226 -0.05622785 0.12126582 -0.04988433 0.008312183 0.055242434 0.09380905 0.0597824 0.029422784 0.08421906 0.03601823 0.06612012 -0.046113137 -0.050394032 0.104451165 -0.11149653 0.09360664 -0.112000726 -0.05102446 -0.037082758 0.04524963 0.027254349 -0.11384872 -0.08352923 7.989142e-05 0.060748816 -0.044152502 0.07834126 0.06763775 -0.027729677 0.09721822 0.09733294
كچل -0.015858535 -0.030614771 0.023103701 0.06404296 -0.070468806 -0.018955493 -0.041342754 -0.013610282 0.03685573 0.036281604 -0.0666487 0.10255521 0.11827141 -0.046461754 0.09350487 0.100957975 0.050272353 -0.078074664 0.103598945 -0.01878175 0.07942141 -0.06977292 0.087451346 0.038630776 0.10516252 0.0047032028 -0.040462863 -0.07224143 0.013752192 -0.07702516 -0.08113675 -0.042508025 0.05825546 0.05434515 0.11194207 0.11232219 0.011754291 -0.108856566 -0.023914073 0.06375736 -0.043307085 -0.124157235 0.10521715 0.085543245 0.01980983 -0.10206897 -0.12262921 0.051714487 0.017346535 0.016529674 -0.073960796 0.03755282 0.101312034 -0.11724191 -0.078469306 0.04997506 -0.07293094 -0.10105349 -0.009098801 -0.0070864684 -0.04214022 0.10211557 -0.021503517 0.032587722 0.10619441 -0.05931363 -0.12060436 -0.07737118 0.10816938 -0.051874056 -0.0064835357 0.016960567 -0.097541235 0.014403874 -0.088403024 0.07040307 0.04406582 -0.08133626 0.10034936 0.0045657665 -0.07346745 0.11220883 -0.10304723 0.11934294 -0.11886987 0.02431643 0.024052693 -0.068115406 -0.08668976 0.00082635833 0.010516134 -0.045405976 -0.08314659 -0.036888085 -0.058046773 -0.08397716 0.0030485506 -0.03367015 -0.05251508 -0.123809345 -0.0793825 0.09469107 -0.068594866 -0.11129145 0.028318774 -0.058585696 0.02150195 0.06425998 0.10558351 -0.01266206 0.08269075 -0.0159978 -0.031038828 -0.09245131 0.08220595 -0.013860468 0.06586231 0.04115561 -0.104095995 -0.0450981 0.089840904 -0.0195557 -0.06402543 0.04500153 -0.024998922 -0.046857018 -0.0027126546 0.0125456685 -0.034608144 0.082397655 0.107204005 -0.076818705 -0.016249688 0.107841484 0.015335534 0.0714247 -0.10196036 -0.11003177 0.12012078 -0.08559767 -0.008626281 0.015729185 -0.021449512 0.05454511 0.036048885 -0.10739499 -0.060091726 0.09397743 -0.010563325 0.09095526 -0.048714504 0.106107734 0.098576955 -0.045338456 -0.055080898 0.09363455 0.04768667 -0.056982517 0.10346984 0.019299332 -0.087459125 -0.016445922 0.1154087 0.036588192 0.0421271 -0.046016525 -0.049362317 0.022826293 0.068137154 0.06668407 -0.07864718 -0.0414247 0.021741407 0.10746218 -0.09925208 -0.11433592 0.100060046 -0.09166227 0.0526583 0.11083049 -0.080404446 -0.01013256 0.046804253 -0.044270594 -0.10506071 -0.013416083 0.020580266 -0.01819931 0.054169122 0.08908622 -0.020725967 0.10337969 0.03968701 0.05838234 0.10096631 -0.0022296237 -0.041750535 -0.0027169618 -0.0998918 0.03623239
خود 0.074379966 0.004491024 0.1175766 0.08615544 -0.022844374 -0.08632032 -0.09841947 -0.011029927 0.069251314 -0.11772695 -0.05658964 -0.011575845 0.02337519 -0.034352053 -0.06735511 -0.058158737 -0.12108398 0.0071861716 0.038646273 -0.08784092 0.07395159 -0.087142035 -0.07444252 -0.045239184 -0.058309 -0.0654091 -0.048464287 0.024642589 0.017024519 -0.04681877 0.063507214 -0.020840058 -0.07022036 -0.117812686 -0.11494897 -0.0083346125 -0.08171121 0.014602882 0.09558465 0.11369835 -0.037948687 0.075320736 0.03385298 0.10566081 0.09269995 -0.037527684 0.06850588 0.10797068 0.025207898 -0.006950854 -0.049037244 -0.056511853 0.076568216 0.105366945 -0.042327918 -0.012766441 -0.09323023 0.067454584 0.04479189 0.059971776 -0.08491804 -0.051350027 0.10423472 0.07354475 -0.0097861895 0.0761372 0.041341484 0.09506559 -0.027182171 0.11758131 -0.12266341 -0.09641348 -0.05137007 -0.0045218836 -0.096897185 -0.099174015 0.050491784 -0.0638625 -0.009095117 0.111291476 0.051683705 0.014987149 0.028882511 -0.109145366 -0.0063251336 0.06639514 -0.0030864116 0.07912662 0.08903109 0.06496233 0.03374756 -0.07234379 0.048781537 -0.023400966 0.07903253 -0.12195672 -0.11095578 -0.044102225 -0.035508484 -0.011898013 0.11614812 -0.089746475 0.06581802 0.014092184 0.03496583 -0.07370984 0.118615344 -0.009284927 -0.06933546 0.09508236 0.0933749 0.114797875 0.07878873 -0.06905163 0.057484657 0.09324509 0.06303574 0.028217377 0.06706903 -0.016288074 -0.11014575 -0.105092466 -0.11231545 -0.02548567 0.028425116 -0.11507586 -0.03448471 -0.042406682 -0.05060042 0.110525124 0.05700949 0.056001853 -0.02069988 0.0967856 0.09231304 -0.029034432 -0.028234001 0.061385877 -0.048445337 0.0075438693 0.11119394 -0.10958802 0.050365474 0.033083767 0.025761655 0.05145684 -0.058281086 -0.095800415 -0.09475966 0.07735531 0.010447954 0.050222203 -0.09748039 0.10573958 0.079588085 0.08914239 -0.08311743 0.07728636 -0.021038106 0.02692293 0.019240469 0.0931118 0.09680397 -0.063158646 0.097061194 -0.020060347 0.04682198 0.03180489 0.043835234 0.061906524 -0.004340927 -0.04502457 0.075179935 -0.060694996 0.10088073 -0.118964836 -0.107302204 0.008781514 -0.05625272 -0.018109063 -0.039001957 0.01458246 0.0727108 0.08868085 0.011180839 -0.06523428 -0.04102296 -0.053313717 0.036520623 0.049804337 -0.05051099 0.029102419 0.07182217 -0.0043898514 0.02740264 -0.059697986 -0.12000479 -0.11476275 -0.05852309 0.116806135
