153 200
و -0.113572076 -0.069018446 -0.0038993955 -0.11120676 -0.03590565 -0.08936864 -0.046970308 -0.08381057 -0.0775453 0.072946854 -0.07496223 0.0065341666 0.06800274 0.026051331 -0.08524258 -0.051667437 -0.097423755 -0.012876449 0.07316837 0.037629437 -0.11226478 0.045120932 -0.108044825 -0.041048013 0.08399651 -0.057326365 -0.035494678 -0.016693335 -0.026715511 0.054049835 0.07951371 0.0012955229 0.07488817 0.0286581 -0.10498161 0.096841305 -0.014216129 0.062529 0.029019807 -0.034555748 -0.0048210258 -0.08866617 0.056732483 -0.075441554 -0.067221284 0.03702655 -0.048016958 -0.06507493 -0.078101054 0.11654515 0.12245632 -0.07335424 -0.11010408 -0.07715762 -0.02344046 0.017813502 0.00021291818 -0.07216526 0.100874275 -0.018424898 0.09207377 -0.1067526 -0.031820185 -0.059994344 0.087729014 -0.010748856 -0.10040295 -0.075782396 0.104921944 0.047839995 0.05450229 0.064840354 -0.014615702 -0.057231136 0.06666983 0.09195934 0.12339429 0.08954989 0.09923277 0.08565555 0.031778418 -0.048156638 -0.0069787838 0.076481335 0.052407745 -0.121809885 0.030848052 0.029188506 -0.09635719 0.012888613 0.10466892 -0.08494593 0.078287706 -0.042108465 0.009255467 0.06933576 0.03766443 0.1139174 0.050308064 0.027138226 0.11927686 -0.046419512 0.064120695 -0.045018177 -0.019824477 -0.06933271 -0.05266046 -0.011368552 -0.03024418 0.0539894 -0.09529224 0.07327568 -0.0077647762 0.012995089 0.0072184014 -0.0716407 0.08619261 0.11386415 0.00082646206 0.03788918 0.115542255 -0.062174603 -0.08734998 -0.1076459 0.11056574 0.06654824 0.008181997 0.08229758 -0.09923983 0.053863123 0.062977426 0.048271783 0.09192707 -0.030372502 0.043509193 0.08305736 -0.06290934 0.087754115 -0.0072853332 0.077710934 0.10889576 0.10626246 0.0883835 -0.058781765 -0.061936766 0.005676298 -0.038473763 0.0813215 -0.08784795 0.025506373 -0.079429746 0.076885365 -0.059156388 -0.030335898 -0.099034116 -0.08301991 0.062545516 -0.03040979 -0.02284983 0.10021584 -0.11251114 0.104143746 0.1234383 -0.025915358 0.08702322 0.07513614 0.041799683 -0.03789825 -0.06913114 0.0022687474 0.09393165 -0.0101542035 0.07740966 -0.07960616 -0.03469802 -0.03425111 0.04169314 -0.09816547 0.04442321 -0.08233127 0.061968632 -0.11272346 0.058917824 0.12056167 -0.07759225 -0.10823139 -0.083004795 -0.09087932 0.07220502 -0.09370431 0.106279545 -0.019849662 0.051970694 0.016578764 -0.05303895 -0.0023052641 0.022712793 -0.012696074 -0.07240962 -0.01409037
این 0.11887805 0.0988481 -0.06081626 0.023309255 0.09867093 -0.054253254 0.047937363 0.0028126482 0.07161036 -0.048710078 0.07908356 -0.07337361 -0.050073918 -0.05419634 0.088502094 0.05909806 0.07399888 0.045482613 -0.098283805 0.117806755 0.078453116 -0.081359334 0.09012705 0.054811172 0.0037297008 -0.039955944 -0.020084703 -0.08271004 0.09134734 -0.095347956 0.021203157 0.09190445 0.04287208 -0.06954679 -0.047659647 -0.051878065 -0.109626845 -0.030608818 -0.048896693 0.014677387 0.08239277 -0.018320706 0.105372354 0.045404635 0.10175437 0.045377523 0.11705091 -0.1097018 0.046703428 -0.02105838 0.10601926 -0.026068049 0.0058982293 -0.003680816 -0.103280246 -0.10056994 0.028308997 0.07141835 0.07479948 -0.096161425 0.1076776 -0.014884932 -0.083617456 0.061308205 0.09199786 -0.052449755 -0.067218035 -0.00425371 -0.07320499 0.022154188 -0.116295494 -0.08134088 0.028778734 0.008152415 -0.112364575 0.09083239 -0.02101813 -0.10857382 0.11719666 0.107890666 0.034630407 -0.060513448 -0.10866057 -0.027736349 -0.099298954 0.0004673232 -0.023596188 -0.058344435 -0.08289569 0.06710005 0.026097042 -0.07842085 0.10667075 0.077804714 -0.11206013 0.09741513 0.0397688 0.09852379 0.07887081 -0.063662335 -0.02599733 0.09194875 -0.006087839 0.0059058764 0.1008473 0.029700821 0.091814235 0.10658572 -0.04673792 -0.081711866 -0.07563141 0.08981571 0.03795906 0.00068645045 0.07856481 0.010013822 -0.07398774 0.10603027 0.073951565 0.009082842 0.069910415 0.012203338 -0.07235197 0.024070533 -0.083598025 -0.06771375 -0.06726363 0.09275624 -0.007384714 0.07909234 0.030606307 -0.03118883 -0.09455207 0.09254813 -0.010048623 -0.022508185 -0.015336523 -0.11372588 0.0060201217 0.109174296 0.018868959 -0.043392163 0.0016297796 0.07931706 0.11934742 -0.025538204 -0.07524499 0.03359841 0.060186952 0.10792773 -0.09735017 0.031310488 -0.015014247 0.024913313 0.08811379 0.04049844 0.025415175 0.09477565 0.09338355 0.107891 0.0121311275 0.034573276 -0.01467758 0.041191958 -0.100996055 -0.057010204 0.03379834 -0.06349804 -0.12233847 -0.051970817 -0.060915582 0.106137045 -0.019407392 0.0005016193 -0.10996139 0.030213686 -0.095137365 -0.00705306 0.09169316 0.031766407 0.05309639 0.10655002 0.09356596 -0.04057382 -0.08975849 -0.09316661 -0.03915231 -0.026753137 0.0012304484 0.06329803 0.016063968 -0.08268317 0.015738878 -0.114718474 -0.0131611 0.031379282 0.04747399 -0.0048706867 0.0797459 -0.1212013
جشنواره 0.064127155 -0.015892416 -0.024268229 0.038448263 -0.075292364 0.10913988 0.028888024 -0.08944626 0.042359646 -0.058427352 0.07608587 0.124320544 0.092429064 0.08560636 0.045159932 -0.060220607 0.018791465 0.08567037 0.11569299 -0.07381633 0.051554047 -0.04546149 -0.07945632 -0.042438205 0.070304014 -0.071812466 0.074981004 -0.03277705 0.033151053 -0.0118722 0.039957844 0.037544344 0.03248336 0.09511631 -0.083122045 -0.0061206073 -0.0034899795 0.042337153 0.052064143 -0.09621178 -0.071826085 -0.12271623 -0.121900775 0.003214756 -0.05121106 -0.019122744 -0.108192265 0.060215503 -0.006552218 -0.035827167 -0.08204963 0.10600945 0.06353775 0.023307307 -0.06883743 0.11489847 -0.1084946 -0.050242405 0.014848436 0.07866932 -0.05273385 -0.018326972 -0.10915777 -0.0098244315 -0.057171296 -0.10384898 -0.07908847 -0.040685467 0.0849319 -0.10229963 0.113193564 -0.028912187 -0.07811919 0.013163212 0.006424497 0.11796755 0.10615106 0.013523197 -0.10167946 0.032071896 0.0969641 -0.1165751 -0.019547563 -0.027496167 -0.08717611 -0.042883992 0.095129445 0.019904185 0.08662009 0.10623015 0.04905683 0.096647225 0.11156493 0.09378462 0.06421062 -0.08468408 0.04923125 -0.06269714 -0.02253248 -0.021440426 -0.02466892 0.07046547 0.100340776 -0.0630278 0.11497683 0.10923006 0.10014427 -0.08635196 0.099641584 0.009895009 -0.027269457 0.034892254 0.061455045 0.060073 0.048890732 0.09031877 -0.031475756 0.119725674 -0.09532829 0.12658486 0.033632785 -0.021879928 -0.10138638 0.04352094 -0.015185595 0.07620522 -0.07275646 0.04164245 -0.07481722 0.09503407 -0.058517244 0.089501135 -0.021533797 -0.037227318 -0.1163793 -0.05774373 -0.032975037 -0.10956405 0.036148597 0.094833374 -0.024533572 -0.094591975 -0.0099469 0.054760214 -0.12211518 -0.12065357 0.02587859 0.08494918 0.08847656 0.026280694 -0.025004877 -0.07155874 0.07697926 -0.025324719 -0.09696036 -0.00143334 0.07283829 0.112378635 -0.09016105 -0.031549 0.011977635 -0.08122831 -0.08940657 -0.06012217 0.06048277 -0.0015733748 0.008086589 -0.0488327 0.008528643 -0.078170486 0.018334292 -0.040582214 0.06854873 -0.0029438233 -0.033912174 -0.055416144 -0.0047744573 0.011569286 -0.11805752 0.02496882 0.056227498 -0.03950902 -0.070784196 -0.029903812 -0.037796862 0.09475092 -0.041008323 0.031095196 -0.030501278 0.114183076 -0.096989214 0.08114002 0.059776027 -0.073341735 0.06294304 -0.08333232 0.112688504 0.030506205 0.03212378 -0.08805606
مسابقه -0.07469075 -0.10827544 -0.073522225 -0.07963789 -0.029542135 -0.07512745 -0.009643569 0.085603826 0.080182634 0.013977211 -0.10611606 0.11337823 -0.092563756 -0.068029284 -0.09517721 0.09549003 0.059051078 0.06625106 -0.007004705 0.1140415 -0.028983772 -0.053251274 0.059039872 0.06031604 0.10229607 0.051447764 0.024188817 0.09169772 0.0378879 0.047997523 0.081730224 -0.0012017553 -0.10209392 0.09889794 -0.117783494 0.0304586 0.080609605 0.05463851 0.09934192 -0.006807622 -0.092148885 -0.04161921 -0.03639573 0.106090695 0.050550826 -0.06381304 0.043314524 -0.009795201 0.056432996 -0.044394366 -0.021754164 0.0663594 -0.08740903 0.07199054 -0.0603789 0.11656117 -0.044550188 0.07320347 -0.058873303 0.09389742 -0.05485921 0.041702967 -0.068750784 0.08719144 -0.10716835 -0.113859 0.068192504 0.08417264 0.0074492972 0.050113745 0.09664573 0.10613041 0.08440714 -0.10884415 -0.040840846 0.11075791 -0.09117035 0.0748007 -0.021942718 0.032885827 -0.07260592 -0.09448576 -0.054317623 0.03705122 -0.04315244 -0.0045704064 0.08120967 -0.086359374 -0.0319874 0.052994683 -0.08376173 0.068426445 0.10685317 -0.068621494 0.101571314 0.019559786 -0.038990308 -0.07116644 -0.06244924 0.061623596 -0.06444083 0.056946333 -0.0049417946 0.11341069 -0.03660656 0.08721805 -0.034536544 0.08560649 0.07416883 -0.057733312 0.019340105 0.0297077 0.110884435 0.012244474 0.055960156 -0.09865373 -0.021597428 0.0153039405 -0.11021414 0.07441404 0.042948965 -0.038552023 -0.10628223 0.07284853 -0.08776961 0.09328186 0.06670781 -0.08475804 0.06456433 0.00965451 -0.101471566 0.080679975 0.087164514 -0.008087264 -0.008543936 -0.104757786 -0.013177016 0.047798786 -0.09356992 0.08774747 -0.05918076 -0.099346824 -0.07978749 0.075705245 0.065599956 -0.08864713 -0.038398337 -0.025539123 -0.031381298 -0.09441426 -0.07943614 -0.03217611 0.016953073 0.03806821 0.07755365 -0.06565684 0.059555743 -0.04315773 0.11386857 0.04821779 -0.08488146 0.049650997 0.026021922 -0.08589483 -0.007551696 0.08233989 0.047998186 0.09287348 -0.07877032 0.095331945 0.09455604 0.04665392 0.044704575 -0.052480433 0.009378143 -0.008724842 -0.112701274 0.058704678 -0.06855932 0.08378813 0.017434776 -0.03303516 -0.008087454 0.085428715 -0.10529251 0.086358175 0.089452334 -0.05895853 0.044428114 -0.10253523 -0.036674496 -0.008866943 0.079540595 -0.10285992 -0.015964514 0.039113358 0.08223122 0.0694755 -0.058685686 0.01225918
به -0.018067645 0.075650156 0.029277788 -0.019202666 0.028681913 0.091835774 0.0916246 -0.026054168 0.03062147 -0.01633261 -0.12400024 0.063671745 -0.079819046 0.0844802 -0.06483813 -0.012135494 -0.11544548 -0.07126443 -0.08315377 -0.11403028 0.03890115 0.09348217 0.012899963 0.04288711 0.09490534 -0.0390413 0.087721884 -0.10132408 -0.04625236 0.02785598 0.0014730676 0.0930268 0.0836726 0.08478362 -0.0077728885 0.03430536 -0.034447905 -0.033302013 0.055729296 0.0942909 0.07266 -0.06563148 0.057052042 0.048543517 -0.014733805 -0.036212083 0.057885934 -0.042180806 -0.03347476 0.07514233 0.027726052 -0.07412966 0.059036866 0.04096616 0.07581356 -0.029814562 -0.019590061 0.08600096 -0.0013812875 -0.08382969 -0.094806656 0.058285777 0.083023936 0.099081606 0.12342295 -0.042691275 -0.115931965 0.07432791 -0.10311286 0.0049941028 -0.0054680062 0.04809815 0.02984226 -0.0704318 -0.09225573 -0.021022681 0.027936867 0.10188301 -0.043255687 0.062155657 0.071498 0.023774272 0.09031759 -0.07985429 -0.029414939 0.005517274 -0.08262698 0.10780313 0.011397672 0.016689824 0.09988508 -0.03502162 0.055219173 -0.10903652 -0.034980703 0.0064035333 -0.044527028 -0.049624246 -0.057619378 -0.11256106 0.035148513 0.018291501 0.12229142 0.1137354 -0.07153021 -0.10432511 -0.10844853 0.084419884 0.061853543 0.04587296 -0.0069027045 -0.03853593 0.01917713 0.09561272 0.039254893 -0.071355425 -0.052867938 -0.06022286 -0.0057232995 0.11906098 0.059375003 -0.0076615927 -0.056023553 0.07889445 -0.040712297 0.10831877 0.11389943 -0.0657151 -0.060246166 0.034402326 0.015516644 -0.08164592 -0.10095064 0.0018894996 0.09102549 0.012988774 -0.012914627 -0.118606105 0.08061146 -0.06481011 -0.06220255 0.10834179 -0.11405776 0.10522147 -0.06490416 -0.0729888 0.07572758 -0.080056034 -0.046108555 -0.12170625 0.091206744 0.022232985 -0.09608403 0.06054941 0.087258376 -0.07189487 0.114615396 -0.04258605 0.021733666 0.07685192 0.029194448 0.10766777 0.12576193 -0.012574056 0.12145858 -0.004094251 0.08857237 0.056935824 -0.007439552 -0.07733414 0.0016358015 -0.059269696 0.004012493 -0.09630973 -0.11035733 -0.06612036 0.056968253 -0.07661271 -0.051784422 0.050773513 0.07642119 0.081964605 -0.08751424 -0.08972636 -0.122550994 0.07813875 -0.053382155 -0.09110883 0.06924262 0.06115927 -0.09597738 0.08817471 0.05170855 0.03330817 -0.012279544 -0.08864446 0.04119926 0.009619938 0.06400281 0.083570465
در 0.056222063 -0.026860883 0.07132753 -0.086468585 0.006960275 -0.06892171 -0.09257357 -0.03249438 0.09407544 0.018442288 0.05069139 -0.08516299 0.11763465 0.10286887 0.017101804 0.035597064 0.042713318 0.06262671 -0.038375307 0.035572387 -0.06634744 -0.025481153 -0.031975802 -0.028795708 -0.10603521 0.0071447315 0.10369093 0.052342996 0.019130573 0.09388196 -0.045856327 -0.01115873 0.06455582 -0.025264077 -0.08744037 -0.039041914 -0.04526918 -0.044936985 0.11941711 -0.04680299 -0.013864852 -0.011689557 0.10030097 0.124637 -0.074198864 0.032260485 0.021971684 0.08711623 -0.022727817 0.056761708 -0.033029173 0.009531565 -0.06758548 -0.07715489 -0.019338278 0.020024674 -0.028919157 0.03927301 0.02317116 -0.07828263 -0.06976054 0.055005684 0.013858626 -0.028731976 -0.098492585 0.017604945 -0.07763554 0.047799915 0.031607118 -0.10421483 -0.050070748 0.09968899 0.014062774 -0.04031681 -0.1038947 0.028971162 0.11097006 -0.013983627 -0.1027516 -0.028032375 -0.043653946 0.09388366 0.007917122 -0.023285046 -0.10033555 -0.012429138 -0.117953785 0.025844498 -0.116198875 0.023674663 -0.053748302 0.08061753 0.024336284 -0.056341052 0.11824031 0.004667998 0.015072975 -0.10388669 0.11731477 -0.1172851 0.06352408 0.08945601 0.09804501 0.04566527 -0.10219117 0.095994174 -0.06882743 0.03250687 -0.056648128 0.0070195016 0.071900256 -0.05787742 0.07766766 0.013109606 0.07246434 0.025223993 0.09601886 -0.045745816 -0.07058398 -0.086443864 0.063721836 0.054705787 -0.105034046 -0.051803622 0.043149184 -0.11694293 -0.10360591 -0.030677104 0.1029849 0.03782377 0.046682708 -0.003179683 0.10067593 -0.10627543 0.060866643 0.015658338 0.11211287 0.11543088 -0.037302107 -0.110023305 0.060821425 -0.11099232 0.07883089 -0.11691056 -0.0690673 0.039928928 0.055379547 0.11993427 0.097744636 0.11468097 -0.10726522 0.030658698 -0.051975586 -0.07586425 0.097199455 0.10915816 0.04203834 0.07366553 0.004189505 -0.027837288 -0.012735712 -0.06899315 -0.10114022 -0.06519612 -0.020965913 0.07918893 0.07144665 0.09842058 0.014605014 -0.04809574 0.044207186 0.12095478 0.10345041 -0.12249703 -0.079239 0.045811538 -0.07646352 -0.025473777 -0.11505932 0.05604099 0.10942954 -0.055692136 -0.11045161 0.0577336 0.014289999 -0.024411403 -0.034681775 0.03229624 -0.059761073 0.033694264 -0.003084366 0.076823294 -0.029842021 -0.09806473 0.09985386 0.020894993 0.056708477 -0.11042419 -0.101053454 -0.057152666
ویدیویی 0.11449822 0.013620931 0.038955327 -0.096289426 0.09533453 -0.032895144 -0.042842094 -0.017685702 -0.015618369 0.01660758 0.11620694 0.045981694 -0.09484366 -0.0064162845 0.08195929 -0.055243816 0.12527008 0.114695884 -0.12542596 0.08051192 -0.09104027 -0.02901662 -0.088163905 -0.008303351 0.030825322 -0.12764469 -0.08161362 0.0378658 0.10908064 -0.11950047 0.048092913 -0.049922314 -0.08589484 -0.03895389 -0.13299002 -0.037773706 -0.052562077 -0.048360027 -0.026132757 0.026602367 0.013744439 0.073129974 -0.10255783 0.0024002858 0.06872753 -0.052297264 -0.09712854 0.03912485 0.103577115 -0.08922937 0.1234798 -0.032092094 0.023692656 0.0746895 -0.06082576 0.053993095 0.0072455658 -0.121231385 -0.025374273 0.08999757 0.021552127 -0.053812977 -0.06869741 -0.06638254 0.01022725 -0.06826934 -0.09782451 -0.027992843 0.11256322 -0.002961311 0.024767863 -0.017686162 -0.030443994 0.09920581 0.10551153 0.082827225 0.06169351 0.116223015 0.060299803 -0.019098407 0.10093803 -0.05628943 -0.06430547 0.11711249 0.03323096 -0.054792847 0.05171379 0.03623825 0.11630031 0.0648773 -0.109847456 -0.01470912 -0.11415096 -0.03477917 0.020304473 -0.10384296 -0.027866976 -0.014862547 -0.04899805 0.059911992 0.108947724 -0.025369668 0.0063184975 0.07726321 0.06604365 -0.04438262 0.030190812 0.074830376 -0.08528838 0.058107074 0.062082827 -0.00621858 0.10050344 0.11028998 0.0865638 0.026104387 0.011286036 -0.057830196 -0.1280784 0.10822099 0.092856355 -0.093561605 -0.028868403 0.053362332 -0.037708934 -0.061607298 -0.05731778 0.012032807 0.100720786 0.100341156 -0.031205289 -0.064714134 0.076196216 -0.046829235 0.044524875 0.042975962 0.07700997 -0.0018118153 0.05727393 -0.026470736 0.099175915 -0.025504941 -0.037467696 -0.1018638 -0.0069566234 -0.045666702 0.007318105 0.035198227 -0.044941083 -0.10823539 0.07052412 0.005984464 -0.03507227 -0.07745786 -0.03684753 -0.09696439 0.02274383 -0.079092145 0.024749117 0.09680318 0.0011652118 -0.08622951 0.08336593 0.034816716 0.03686204 -0.1046423 0.01949148 -0.041786324 -0.1184889 -0.09052304 -0.0071353936 0.09985704 0.035607126 -0.11606384 0.11969783 0.036531687 -0.033278365 -0.087282665 0.028472794 -0.003807548 -0.030601995 -0.027120307 -0.11495638 0.09109026 0.035296794 -0.048814025 -0.09492344 0.022798236 -0.061289653 0.03211576 0.017788164 -0.006962918 0.09712547 -0.030146932 -0.12228393 -0.109360725 0.10519122 -0.10324859 0.0656619 0.009839694
سازمان -0.061389353 0.022998689 -0.0874044 0.030056018 -0.04161428 -0.12067583 -0.113718785 0.021972489 0.11534079 0.031098364 0.06697704 0.054405674 0.009628155 0.10153885 -0.050304864 -0.07085846 -0.059855085 -0.089142576 -0.084281206 -0.0005364342 -0.024497008 -0.08131914 -0.069831125 -0.11675986 -0.098163076 0.09971287 -0.07207765 0.11625444 0.10351496 -0.026450165 0.032504596 0.09507823 -0.11418993 -0.023992794 -0.03398291 0.00391076 0.048124038 -0.014685461 -0.11914429 0.11057142 0.0062268497 0.061991356 0.10935837 0.061230615 -0.028930407 -0.08574697 -0.11186427 0.11284695 -0.018092494 -0.017924177 0.106039114 -0.084987216 0.022246234 -0.055921186 -0.08907871 -0.08379115 -0.12153677 0.112242974 -0.095251724 0.005683347 0.0063340478 -0.045501128 0.012341512 0.011968025 -0.03711784 0.11731161 -0.08016911 0.008891009 0.008339184 0.12683538 -0.01633679 -0.1229506 0.07127438 0.0064747497 0.032968517 0.076880425 -0.00991287 0.03929676 -0.109883144 -0.004112853 0.031373285 0.0038660716 -0.085093625 0.053011674 0.03431862 -0.08607738 -0.10041315 -0.003504266 0.07637023 0.086808145 -0.109573804 0.0466326 0.09984548 -0.06317995 0.034747336 -0.076267324 -0.09317518 0.071700074 0.05087789 -0.08997729 0.004489917 0.05446201 0.039033055 -0.09305772 -0.028376749 -0.004469958 -0.071834445 0.034210734 -0.049099766 -0.100958414 -0.07374791 -0.012416534 -0.0058985236 0.09471373 0.05032551 0.089174934 -0.038396623 0.12020774 -0.08944938 0.10297738 -0.027177459 -0.06948285 -0.09714523 -0.0060425345 -0.113093 -0.05037836 0.0145811895 -0.12276483 0.053988334 0.00040436245 0.055849314 -0.06864239 -0.08152594 0.0039233556 -0.085223384 -0.04281859 0.020987425 -0.0978078 0.10510881 0.021934187 0.07069517 0.04496729 -0.09569733 0.097387984 0.012821885 -0.050211474 -0.006661986 0.056785494 -0.1234307 0.014261622 -0.05667706 0.09494644 0.0182926 -0.018716732 -0.016611973 -0.049806785 -0.10703666 0.00844685 0.02106607 -0.0961188 -0.07069926 -0.005630788 -0.10791047 -0.010365005 -0.025174819 -0.05356718 0.11879579 0.097385906 0.019815352 -0.036163595 -0.018761653 -0.11196032 -0.038031656 0.014193251 -0.08842339 0.12348033 -0.030842705 -0.043583475 0.1025069 0.052810993 0.016528463 -0.03692592 -0.099010006 -0.010343483 0.085896045 0.04662104 -0.09425157 0.026198167 0.0591097 -0.09020614 0.04084044 0.09364646 0.05168688 0.105981894 0.016081318 0.0654589 0.00838204 0.116158545 -0.025744783 -0.059678856
با -0.10851115 0.053790603 -0.10489577 -0.099839166 -0.03159922 -0.052729793 0.0043986156 0.024955526 0.04228717 -0.04136391 -0.114719115 0.036493924 -0.09752186 -0.073676005 0.10068019 0.023268746 -0.07373409 -0.03614172 -0.043584097 0.02335969 -0.11347454 -0.06679569 -0.078833364 -0.015096802 0.060007695 0.047192402 0.09883479 -0.0961278 -0.005725712 -0.08314128 -0.07497329 -0.1023391 0.08954976 -0.099659674 -0.11141041 -0.10116544 0.04471013 0.065385245 0.022673883 -0.051519062 0.098742045 -0.10298282 -0.044610545 0.0042532855 0.04176601 0.047301814 -0.049325597 0.026785232 0.06323417 -0.110000566 -0.0365205 -0.1049825 -0.061961833 -0.0137640955 0.026798537 0.06867852 0.043548144 -0.09419765 0.06911669 0.11095897 0.030886944 0.067906044 -0.11055069 -0.0149449855 -0.0134563865 0.10023005 -0.053019933 0.10780296 0.080525845 0.031827115 0.08118551 0.033273216 -0.012755111 -0.07839013 0.056849223 -0.0032211968 0.04753476 -0.038472455 0.050136805 -0.052428406 -0.054499257 -0.02017096 0.03681997 0.08382596 0.08789588 -0.013196211 -0.050651867 0.046231214 -0.025308013 0.11804396 -0.0037543047 0.015547079 0.09959091 -0.09224752 0.04633321 0.1063323 0.07944502 -0.11294124 0.068581544 0.11499625 0.049662236 0.08701719 -0.073378675 0.064320706 0.026889002 0.09870581 -0.07812843 0.06648862 -0.012965745 -0.06314534 0.02644852 0.0065475167 0.020415632 0.08942819 0.054709285 0.08957546 -0.024296083 -0.025651282 0.06659371 0.10116725 0.11468071 -0.031944215 0.08330128 -0.08904293 0.07250375 -0.04845254 0.107257605 -0.1190685 -0.0803825 -0.017656194 0.044748604 -0.0014389125 0.035532456 -0.072132684 0.07440104 0.10891532 0.068613164 -0.096468695 -0.08649176 -0.010818105 -0.05121829 -0.084198065 0.03799744 0.110690236 0.019674812 0.09480014 -0.012977561 0.0743094 0.114687994 -0.1086027 0.028594153 0.06558437 -0.004820284 -0.08100929 0.10459882 -0.05635985 0.035673887 -0.043627854 0.06100261 0.101710886 0.1000017 0.037764985 -0.0030846724 0.099236324 -0.069200076 0.025588807 -0.09138844 -0.114292584 0.07863656 0.02217202 0.12166048 -0.020301439 0.04869892 -0.06867397 0.0064802677 0.113122344 0.047123097 -0.062176593 -0.113982536 0.023615956 0.103517845 -0.11592974 0.02732376 -0.100951925 0.043194316 0.06346547 -0.093759485 -0.009743852 0.00013186381 -0.05174122 0.050453465 -0.027685082 0.042496283 -0.04629744 -0.012837963 -0.1189731 0.06576381 -0.07601123 0.08301489 0.03327777
سینمایی -0.00010257399 -0.07473517 0.08973641 0.10149769 0.069303036 0.036466736 -0.11927403 -0.0010420161 -0.010893628 -0.096059866 0.07256957 0.05548781 -0.04824497 0.042925198 0.09109918 -0.100520395 -0.046070013 0.093378454 -0.0046215896 0.061211787 0.0575955 -0.099987835 -0.03749198 0.014200109 -0.031279635 -0.03775516 0.015062147 -0.06304066 -0.07619499 0.0815412 0.10737286 0.08675091 0.11368073 -0.038777106 -0.111481294 0.0011235093 -0.076502934 -0.010963672 0.10707656 -0.007000976 0.052762825 -0.039259367 0.060462892 -0.0012086403 0.0012146704 -0.09496824 -0.022974184 0.07231459 -0.03088344 -0.108481154 0.090135984 0.017536314 -0.031813957 0.09019217 -0.035691366 0.074165195 0.02771824 0.026672656 -0.029979765 -0.076828584 0.09469489 -0.092874184 0.08032922 0.018602515 0.09043242 0.10183166 -0.056468386 -0.015532561 -0.080203824 0.08138716 0.07756488 0.108881876 0.10051423 0.055420544 0.056881186 0.012244361 0.080882974 0.014851203 0.021091355 0.07884298 -0.032695003 -0.09309728 0.09287651 -0.0049311914 -0.098206796 -0.044838764 0.04367846 -0.057888508 0.06438586 0.08621143 -0.11358025 0.08818137 0.046560314 0.07055721 0.079086244 0.014708314 -0.10000844 -0.09603844 -0.07215557 0.08005858 -0.049709696 -0.008635334 -0.008838397 -0.107586734 -0.12066756 -0.10531043 -0.039314996 -0.09269754 -0.096368566 -0.04566855 0.10148561 -0.039461896 0.06611981 0.024124684 0.025471836 0.11542257 -0.06059681 0.04886441 0.014077995 0.05489068 0.060678516 0.0850543 -0.12775648 0.045237713 -0.11984742 -0.09021609 0.016809504 -0.011309803 -0.05665299 0.0723156 -0.058469374 0.104207724 -0.09346538 -0.0623129 -0.042331345 -0.029126914 0.051491823 -0.07134394 -0.074348494 0.022878576 -0.012181716 0.005199825 -0.06857159 0.027841436 0.035825565 0.10036096 -0.06319115 0.06311489 -0.066319756 -0.08421665 -0.075896055 0.05622061 0.09735262 -0.029708525 0.009150602 0.070008025 0.052127156 -0.111439206 0.06621333 0.11582154 0.0876286 0.10402036 0.10198706 0.009215145 0.11222931 -0.06419987 0.0857528 -0.04715735 0.0663403 0.11804491 0.098162 -0.02131328 -0.036173765 0.076039255 0.016078379 0.08095781 -0.07092577 0.089804016 0.049478676 0.014013687 0.062904514 -0.008123514 -0.01936365 0.035545487 -0.072819605 -0.07444418 0.03485173 -0.117853366 -0.010285524 -0.118504934 0.0134689845 -0.035632007 0.10041094 0.009070695 0.10933072 0.07564051 0.107656635 0.09879764 0.013574719 -0.083944745
فیلم 0.022119049 0.11547145 -0.078465156 -0.08114125 -0.10460933 0.11615363 -0.06831617 -0.11126806 -0.0075915726 -0.03478269 -0.0014159981 0.06828446 0.035606403 0.115295485 -0.0557706 -0.10347502 0.045258023 -0.07854209 -0.062736556 0.0020043072 0.098670624 0.1271702 0.0050721425 0.08106137 0.053460132 -0.03516509 0.034257144 0.02833332 -0.057860006 0.0056135426 -0.035661466 0.005490063 0.0795586 -0.06429955 -0.07360313 0.10559105 -0.10388699 0.10771643 -0.0056733154 -0.108209945 0.01730349 -0.11447264 -0.0942753 -0.06310919 -0.049228154 0.12467931 0.06738802 -0.029912198 -0.024605751 0.052756846 -0.053289548 0.03175557 -0.07241024 0.0367071 0.090576135 -0.019318257 -0.036456805 -0.009949869 0.0024204599 0.004649994 0.07152953 -0.040956758 -0.12089844 -0.12717997 0.052913032 -0.11495959 -0.024104495 0.09000372 -0.021664966 0.049832825 -0.10189455 -0.087961584 -0.022063144 0.057920784 -0.036140706 -0.03916991 0.04863172 -0.027220208 0.01721942 -0.09106544 0.017077275 -0.095961176 0.053290907 0.0077616465 0.009143518 0.0031104714 -0.09191743 -0.04065511 0.009779536 -0.107458435 -0.041157335 -0.098035105 -0.022062413 -0.09914536 0.114611216 -0.086918175 0.04527261 -0.0024830427 -0.023961186 -0.07025337 0.106927484 -0.018688329 -0.036023587 -0.04772279 0.005544101 0.011933719 -0.07385375 0.06751444 -0.0072194794 0.07283455 -0.04078127 0.116476335 0.009932474 0.03729678 -0.09201663 -0.005005572 0.03192424 0.06172085 -0.026720861 -0.073962525 0.086821556 0.09932571 0.047740508 -0.076991215 -0.08678515 -0.015360785 0.05322648 0.11891777 0.07884207 0.04516906 0.023945319 -0.066604584 0.0017770877 0.097896166 -0.021110207 -0.11628681 0.040732417 -0.0038373966 -0.07467602 -0.013210433 -0.010528489 -0.008239387 0.013521441 -0.03244323 -0.05308271 -0.0027868897 0.12638128 0.08194612 0.011734742 0.0760162 0.077736594 -0.03232927 0.021162016 -0.12926553 0.043724537 -0.0042392085 -0.007097122 -0.028387072 -0.12551649 0.10628138 0.058200862 0.04962138 -0.10568861 0.051269043 0.07038019 0.08718256 0.08822055 -0.10860066 -0.07788692 0.09818219 -0.11063145 0.098958895 -0.046970796 -0.09841632 -0.036444467 0.12311037 0.08576824 0.09884435 -0.11077707 -0.041281488 -0.03414206 -0.051951956 -0.07586348 -0.03798843 -0.07232988 0.1234136 -0.0675081 0.020974342 -0.08945484 -0.113921694 0.011298728 0.117909275 0.0760265 0.052109327 -0.11849154 -0.11823985 0.030442452 -0.02692427 -0.11494847 0.033405982
معاون 0.11420292 0.004994138 -0.07868178 -0.0017569226 0.066607654 -0.05458733 0.086008854 -0.07391409 -0.09415384 0.035104223 -0.045042112 0.03204684 0.018883478 -0.08632436 0.068164006 -0.05892634 0.013843728 0.008819284 -0.042883974 0.068473496 -0.061118115 -0.03258428 -0.08936009 0.08064247 -0.08788666 0.05793505 -0.032351617 0.08461968 0.05685001 0.11225168 0.053089082 0.021992244 0.012615157 0.09958315 0.09681486 0.06016878 0.12033717 -0.08462351 -0.073360905 0.03479663 0.030254755 0.09186167 -0.0971542 0.122379325 0.080559894 0.056890137 0.097249955 0.040542092 -0.03708284 -0.041911934 -0.07617763 -0.1056549 0.0907638 -0.0076405737 0.06751205 0.09530489 -0.044733435 0.023236517 0.052818827 0.048446648 0.01884574 -0.092614435 0.03163264 0.10551101 -0.08957351 -0.11513337 0.007294929 0.014965992 -0.043397915 0.08167155 -0.021200242 -0.04011053 0.10719912 0.018210534 -0.08755405 0.027389608 -0.043465212 0.120695 0.12263247 -0.00045810576 -0.073547 -0.116848156 0.036991227 0.042976886 -0.0943616 0.0940853 0.06407018 0.086576425 0.029205462 -0.0929141 0.008723704 -0.10275608 0.12280788 -0.0721426 -0.01140289 0.025435936 0.09684484 0.020406893 -0.019777654 -0.0789977 0.038334236 -0.117301375 0.11519338 -0.11424494 -0.023729198 -0.039966445 -0.06761241 -0.064969555 -0.06599615 -0.056669086 -0.018919764 -0.056201555 0.05673165 0.04996362 -0.083796196 -0.032651763 0.034489032 -0.019452082 0.03369631 -0.0004844274 0.006480066 -0.076890185 -0.0018201348 0.10974075 -0.0060029905 -0.012412341 -0.07218393 0.03039312 0.11237228 0.08773892 -0.021825857 0.11127468 0.020583706 -0.059007887 0.11997125 -0.049104385 -0.032093454 -0.122632 -0.03888928 0.064960144 -0.031508297 0.11779282 -0.04274603 -0.007544471 -0.051188506 0.105253056 -0.0060394565 -0.07530298 -0.020362401 0.10911838 0.075472794 -0.07747079 -0.057136063 -0.069702625 -0.10627276 -0.11319331 0.060923878 -0.09779038 0.045489233 -0.056441654 -0.036645886 0.0045671808 0.056718346 -0.124556355 0.017350491 -0.08323412 0.01709479 -0.08516099 0.07262603 -0.10774857 -0.02376217 -0.10925521 0.03431207 0.06995017 -0.068505034 -0.009681077 0.02065622 -0.08321008 0.039651275 -0.068184055 0.11959677 0.0032681064 -0.044702776 -0.07698587 0.088163175 -0.109871015 0.059695337 0.026834222 0.10563711 0.086929195 0.08710673 -0.051173694 0.0016745107 0.091336675 0.12057951 0.09926303 0.05235306 -0.029891027 0.074525155 0.010010402
می‌گردد 0.11016148 0.013590578 -0.12217022 0.03354519 0.019994732 0.044929337 -0.0851262 0.041424382 -0.03525574 0.11544579 -0.024072692 -0.09271778 -0.01455292 0.109539665 -0.09586352 0.0149681335 -0.016058672 -0.11592831 -0.02811381 -0.10954986 -0.06099391 -0.018103551 -0.07763195 0.047866616 0.042730182 -0.058410257 -0.0002839723 0.086992346 0.08774604 0.006715422 0.048422825 0.06658022 0.044781465 -0.028613787 -0.08190435 -0.014069824 0.09598351 0.10189611 -0.011263418 0.10080386 0.023122268 -0.06933968 0.03248828 0.058314223 -0.08718429 -0.04111146 0.047405787 0.038514636 0.056602366 0.06484145 -0.057968292 -0.051789742 0.11614008 -0.062195998 0.08910734 0.06880207 -0.051569015 0.017057996 0.05708274 -0.055625144 0.11528522 -0.040553696 0.066916846 -0.07298746 -0.079340465 0.03674876 -0.08778416 -0.070286 0.022415083 -0.053026758 0.07401817 0.09633267 -0.062444717 -0.123289056 0.0967521 -0.07714064 -0.043378934 -0.084571145 0.077790044 -0.10571812 -0.1147521 -0.021894176 -0.019722292 -0.030076154 0.040452596 -0.0023552398 -0.065185435 -0.08184346 0.06450746 0.08640957 -0.043087684 0.010928986 0.06319806 -0.03348639 -0.11671324 0.09424531 0.123421654 -0.09178541 0.013631252 0.030121736 0.037061375 -0.08878797 0.0013823691 0.042285226 0.05992693 -0.039047856 0.03068503 0.066049635 0.0781958 0.11008755 0.0017635216 0.004142825 -0.10309411 -0.07543445 0.009108485 -0.067855254 -0.033840988 0.10341888 -0.0051478557 -0.022118455 0.012950694 0.019920276 -0.0070950803 -0.042608056 0.072241336 0.07053209 -0.030432722 -0.011023238 0.028563343 0.104209155 -0.08462769 0.0032527477 -0.06527202 -0.033678684 -0.054701284 -0.11826396 -0.0884053 0.05414087 -0.121767744 -0.095034346 0.029442202 -0.036441326 0.108850464 -0.120790474 0.10533358 0.06940017 -0.03635514 0.09144157 -0.00035826713 -0.081712484 0.068958215 -0.11358152 0.035433527 0.03260859 0.0021647892 -0.08453393 0.0960158 -0.06890378 -0.08671629 -0.080896445 0.069992796 -0.01257694 -0.05005122 0.08483587 -0.08819535 -0.07710431 -0.095710926 0.10044954 0.063730724 -0.10421634 -0.09272991 0.06793152 0.008829426 0.09956901 0.049565498 -0.069755726 -0.11352261 0.11123127 0.11179351 0.016379535 0.111566916 -0.06490746 -0.09939208 -0.07228845 -0.037068572 -0.067546874 -0.11400207 0.08193264 -0.02707806 -0.088030174 0.029353358 -0.066067465 0.032846134 0.08138885 -0.0045820093 -0.014779362 0.059605636 0.10870842 0.108058445 -0.015176973
عباسیان 0.07630794 0.1143345 0.013834728 -0.10042798 0.013099906 -0.026465103 0.08591305 -0.112043485 -0.09109044 0.01610174 -0.10321189 0.0074130585 -0.07923651 0.09425046 0.09586262 -0.0035901994 0.082766905 0.09028282 -0.08709591 0.103175975 -0.007730061 0.11533868 -0.05483124 -0.061475158 -0.08907066 0.07138578 -0.030758413 -0.07038073 -0.025253816 -0.07401775 -0.024623029 0.10603317 0.111148216 -0.09235113 0.051098283 -0.025936898 -0.10148115 0.098897025 -0.017291427 0.116940774 0.10266054 -0.11631365 -0.09260405 -0.010507205 0.0752695 0.05042805 0.07296406 0.07378884 -0.10469094 -0.03325745 0.06198223 0.10835652 0.043382764 0.07526577 -0.039460458 0.070540674 0.0053220345 -0.038842294 0.10019315 -0.050122567 -0.06321437 0.0350516 -0.09578893 -0.04937697 -0.08384323 -0.04303883 0.036923837 0.06408382 0.090208165 -0.072378784 -0.078269936 0.0224436 -0.010553099 -0.057628263 -0.08565967 0.0098877335 0.06081119 0.1153176 0.098902084 -0.10364957 0.05147176 -0.099268176 -0.10306613 0.100547306 0.0035653363 0.018660225 -0.048038427 -0.095201865 0.08422079 0.067009054 0.08511542 0.0013860685 0.08622086 0.057594042 -0.013672926 0.039833885 -0.05694129 -0.02984267 -0.04968061 -0.027696133 0.026994297 0.014459805 0.03739364 -0.055920817 -0.06533055 -0.063637175 -0.10277578 0.06056641 -0.10365599 0.041740004 -0.0826997 0.0684285 0.078305215 0.06321275 0.08754919 -0.09713777 0.08772649 -0.09189672 -0.026820295 0.016485108 0.085208066 -0.061720904 -0.05072417 0.0075615393 -0.047360923 -0.10976381 0.016330002 0.0020252755 0.09943363 0.07611697 0.10634683 -0.0208934 -0.035556264 0.033799324 -0.004450005 0.10681979 -0.03749551 0.1058022 -0.10931198 -0.011292574 0.0068427245 -0.052577395 0.0018042892 0.07784593 0.089928485 0.10501671 -0.035138946 0.037827644 0.05353732 -0.018569786 -0.08295121 -0.026451059 0.06385414 -0.05129038 0.062327046 -0.03975887 -0.088079385 -0.07604551 0.08014188 0.008370207 0.096636176 0.07212421 -0.09392649 0.10587494 0.06707989 0.09378011 0.06413001 -0.10538875 -0.06837481 -0.035879362 0.0633874 -0.11024373 0.09924643 0.06881153 0.0068690055 0.04897442 -0.065253206 0.062408764 0.044898022 0.051773224 0.028099375 -0.005686097 -0.0011937161 -0.071465075 0.017062891 -0.101532154 -0.07640086 -0.07028018 0.005397963 0.08370561 0.11228407 -0.009631681 -0.013308024 0.09060872 -0.08038629 -0.08593479 0.059971876 -0.08665874 -0.060448766 -0.060810212
تهران -0.0013144312 -0.070805795 -0.012039205 -0.043770514 -0.050644428 -0.026094595 0.08452858 0.05939987 -0.106709845 -0.03660838 -0.053506806 0.06412903 -0.09960885 -0.0067119673 0.10510764 -0.0745706 -0.0791606 -0.040839434 -0.022512184 0.040413633 -0.083889894 -0.060726877 0.05664099 0.012023872 -0.069656156 -0.0151046505 0.093926825 -0.03557318 -0.048491497 -0.015566769 -0.06367275 0.0638287 -0.07375607 0.044132385 -0.110733315 0.09990739 -0.07897414 0.049902994 -0.082226224 -0.09688654 0.053218678 0.10936439 0.047295332 -0.10479359 -0.04279585 -0.0071331067 0.01717675 0.07348936 0.10876512 0.025264302 0.09160222 -0.10491934 0.10651982 -0.059411418 -0.013772111 -0.11038777 0.06168745 0.08412374 0.028983364 0.1114814 -0.013332111 -0.04646698 0.07046663 -0.01697016 -0.05233365 0.09221052 -0.10082588 0.088062555 -0.008389592 0.044992495 0.080790386 0.038578495 -0.069831535 -0.010124582 0.008671744 0.02823576 -0.053199537 0.081250414 0.0010943247 0.10828665 0.06154729 0.096761845 -0.016532542 -0.1045096 0.04817302 -0.0151762795 -0.06335582 0.09489977 -0.03853815 -0.0132718505 0.10841553 0.08420646 0.01320979 -0.10369721 0.056319747 0.10927183 0.043192923 0.05089168 -0.103019774 0.092881545 0.111444555 0.09307399 -0.10168708 0.039858025 0.006945608 -0.020893328 0.062008183 -0.10263124 0.0661002 -0.089765206 -0.006941631 -0.010400806 -0.0171241 -0.050803002 -0.032995142 0.095087565 0.08571654 -0.060932092 0.08543983 -0.09946741 0.103317745 -0.07527706 0.04388559 0.105541535 -0.057736274 -0.02277956 -0.055043627 0.079686396 0.100007705 -0.052971102 -0.07819918 -0.07308559 -0.08110776 0.07766261 -0.06109122 0.10934797 0.09513581 -0.10993482 -0.07660481 0.08149947 0.016576147 -0.03968787 0.0054006437 -0.019876054 0.11088873 -0.109052055 -0.08431899 0.010582094 0.10291149 -0.10148525 -0.0071772756 -0.028116379 0.029001446 0.009225079 -0.08544501 0.06506886 0.010183181 0.071364895 0.063024454 -0.0031543942 0.033811036 -0.06469454 0.052207466 0.10725801 0.04801484 -0.026591707 -0.10930608 -0.1020314 -0.046236113 0.029648164 0.082002655 0.10561562 0.10268947 -0.10905036 0.021823041 -0.029401988 -0.109973334 0.029358491 0.11064777 0.10883552 0.07537638 -0.08926806 0.105365075 -0.11093497 -0.09609644 -0.06622148 0.04053681 -0.03212137 0.094789125 0.025946846 -0.0152040245 0.018976647 0.036095515 -0.03458164 0.013392464 -0.082175165 -0.014311199 -0.0038899705 0.084240645 -0.10329205
اعضای -0.06279044 0.0420604 0.08426601 0.08834163 0.0753738 0.0573623 0.09368576 -0.008920286 0.11729854 0.05458984 -0.031195385 0.11238185 0.017286638 -0.090732194 -0.0009743308 0.002451147 -0.09530827 -0.0891088 0.10862642 -0.09594724 0.1032739 -0.086333364 0.023811987 -0.10950257 0.034661934 0.05633987 0.068934776 -0.068051994 0.11334433 0.0075440104 0.0477572 0.04442961 0.09883835 -0.008967949 -0.061516337 0.03540482 -0.04172415 -0.071225286 -0.04319988 0.036766592 -0.024855105 -0.047884226 -0.019116333 -0.061859388 0.03246393 0.015194493 -0.09038582 0.09307855 -0.09475035 -0.06863071 -0.07276743 0.10459224 -0.020516636 -0.10638678 0.08166677 0.006400962 -0.0659008 -0.029872334 -0.08884922 -0.0031143653 -0.0267948 0.021493174 -0.043547664 -0.10026076 0.11232996 0.062079843 -5.558412e-05 -0.025707057 -0.07159207 -0.06984412 -0.067317955 -0.05477548 0.015525023 0.09112918 -0.08859079 -0.11284587 -0.07499284 -0.09308539 -0.0815497 -0.011493784 0.05934904 1.7370899e-06 0.08640925 0.0035729988 -0.0477025 0.02877379 0.011746004 0.11765294 0.06645715 -0.0545918 -0.069436505 0.0353491 -0.0135165285 -0.071908936 -0.016764592 -0.0911667 -0.09084112 -0.112079896 0.053005457 0.09103956 0.11826526 -0.103647664 -0.0993458 0.07369178 -0.016644917 0.06246548 -0.094822295 0.11554819 -0.048338026 -0.02647383 0.073888555 -0.04693038 -0.085249 0.057738166 0.058676973 0.093742445 0.08704352 0.082275085 -0.043337867 -0.061549645 -0.07098533 0.058258757 0.06297707 0.0007656833 -0.070039466 -0.056647677 0.02924422 -0.032277297 -0.09815344 0.08563995 0.06329444 -0.09918871 0.08562827 0.08261856 -0.11877921 0.055154376 -0.09644487 -0.02765186 -0.09132126 -0.07882085 0.031970292 -0.04434923 0.103235394 0.043266345 0.08214788 -0.053194016 -0.022210851 0.06633351 0.06495997 -0.082654595 -0.09765974 -0.066158414 0.11038128 -0.089786164 0.05538529 -0.10008906 0.09599031 -0.07715992 0.029371068 -0.06937182 0.05221883 -0.11537309 -0.10613375 -0.011357615 0.022235626 -0.10781788 -0.024195831 0.11564591 -0.071664505 0.05700157 -0.10966028 -0.06401774 0.074673906 -0.052453596 0.052166972 -0.11087761 -0.04548334 -0.057410285 -0.070344366 0.09591574 -0.03998108 -0.106851 0.07040788 -0.03059186 0.053481717 0.08674449 -0.08683224 -0.02644186 0.034498855 -0.044005558 -0.0022325013 -0.06731891 -0.013064157 -0.009487495 -0.00083903794 0.0424124 0.09881585 -0.09220319 0.025382651 -0.024027139
بخش 0.10016474 -0.011860855 -0.020370249 0.0776002 0.006305899 0.015470042 -0.106708094 0.033449057 -0.025188176 -0.016656736 0.062775314 0.12433654 -0.047802567 0.052267198 0.040199123 -0.034862086 -0.0011419915 -0.024497956 0.0087947 -0.05825985 0.0110044265 -0.12043562 0.08040984 0.022703607 0.077120684 0.02871405 -0.09943902 -0.053107534 -0.03667568 0.123536594 -0.06772369 -0.008816373 -0.040793188 -0.017515676 0.0075011393 -0.09081594 -0.031210694 0.03216667 0.009264709 -0.002210125 0.08735253 0.08543321 0.0043827663 -0.026622755 0.00951526 0.008331733 -0.010451429 -0.07763645 -0.06560861 0.023313299 -0.009954668 0.054320402 0.060493033 -0.08391011 -0.09090428 -0.0928177 -0.05282703 0.119872615 -0.08769258 0.04811806 0.11616228 -0.005570972 0.044037424 -0.09223137 0.025311684 -0.12506637 -0.12076053 -0.01832124 -0.024205886 0.080381155 -0.07517864 -0.08036054 -0.09398746 -0.045323513 -0.04911233 0.09494722 -0.0037106045 -0.0495233 0.020254495 0.06921964 -0.025231477 0.024771703 0.045393605 0.110863544 -0.09445097 0.09061855 0.0654655 0.03059764 -0.006242234 0.006331612 0.03760893 -0.071224526 -0.05459921 0.12172445 -0.086020045 0.10353216 0.08042872 0.019659534 -0.122149535 0.039006606 -0.09283477 -0.037874904 -0.046199407 -0.08426038 -0.008732425 -0.05250857 -0.06397672 -0.11745362 -0.049886417 -0.071771346 -0.06645224 -0.1125693 -0.016559541 -0.015082204 -0.03605521 -0.0049210163 0.11807999 -0.01584754 -0.037779067 0.0058467863 -0.100772075 -0.042186484 0.10841001 0.088105805 -0.042468447 -0.12524267 0.121258974 0.07644028 0.09858896 0.030887194 0.072030954 0.09922591 -0.087804236 -0.09194907 0.033661097 0.042441253 -0.0877192 -0.08654032 -0.11737538 -0.023364536 0.056757577 -0.01273903 0.055102102 0.097546846 -0.05160232 0.123605534 -0.11370163 0.08347505 -0.013981015 -0.10793348 0.058197744 -0.06850032 -0.034183778 -0.0017649613 0.08752558 0.10846793 -0.08798716 0.004617929 -0.029494088 0.075021245 -0.016227482 -0.12580329 0.020228352 0.041780796 -0.10057931 0.08588339 0.0029001574 0.033635594 0.12539364 -0.07812251 -0.03367176 0.10671845 0.10026788 -0.0980386 0.0792549 -0.021784808 -0.044370994 0.076048546 -0.021275766 -0.057704266 0.078781076 0.029962255 0.033301026 0.1251114 0.059931993 -0.038919132 0.009227434 0.11921233 0.046332285 0.11169455 0.11983546 0.043615792 -0.061622895 -0.12094256 -0.009758159 -0.12050506 0.039238416 0.038068473 0.10981159 0.07069489
شورای -0.002724927 -0.12568186 -0.073928 0.08805941 -0.005884022 -0.115791835 -0.09351614 -0.028352568 0.06585882 -0.10317781 -0.08454682 0.014641169 -0.109260015 0.055204116 -0.12466325 -0.07937309 0.06701 -0.027439894 -0.122562565 -0.06118419 0.10605582 -0.052183434 -0.09824855 -0.0068160705 -0.060841944 -0.08026977 -0.09596059 -0.11053402 -0.07729097 -0.09774798 -0.052096743 0.056055076 0.06532633 -0.094276235 -0.029057471 -0.049468126 0.014424186 0.042160258 -0.12241684 0.0012627882 -0.035236344 0.0758074 -0.06866031 0.1130903 0.01372707 -0.06889849 0.042205773 0.06101297 -0.06577678 -0.043009665 0.045244273 -0.12154299 0.034744877 0.07726689 0.09537129 0.109526515 0.028064288 -0.06559243 -0.098910995 -0.014288585 -0.0023190423 0.015419758 0.06810802 0.09195347 0.052090395 -0.06671657 0.058713496 -0.008531275 -0.05565548 -0.04718878 -0.004952204 -0.0821805 -0.0601953 -0.0074048755 0.0028652893 -0.0620716 -0.020967446 -0.091007315 -0.007300384 -0.019561984 -0.023786787 0.01932899 0.10720236 -0.09408999 0.021835038 -0.04490542 0.09034631 -0.031392895 -0.12377076 -0.118982464 -0.01077202 0.101181656 0.12575786 0.10164963 -0.09985526 0.112706795 0.015857425 0.123462185 0.030973531 0.024337007 0.012140244 -0.034188297 -0.08822855 -0.055064894 0.05648593 0.050566606 0.07313037 0.069356956 0.0033226772 0.007380496 0.07808854 -0.051267657 0.02218165 0.051820233 0.03185957 -0.07340796 0.059546698 -0.06293787 -0.08640078 -0.090275705 0.0362881 0.0829121 -0.046390835 -0.12096563 -0.0131315105 0.0034675747 0.07591257 -0.085061796 0.059404917 -0.01866635 0.08824426 -0.11376832 -0.10588294 -0.056822453 -0.029654568 0.12493625 -0.10356481 0.11477898 0.07280349 0.06396307 -0.10690461 -0.06024073 0.00022854233 -0.02688 -0.05232927 0.10386933 -0.08163528 -0.06388446 -0.006780574 0.05230385 0.021122878 -0.0958889 0.020016449 0.08780162 0.12138109 -0.0075515183 0.0072813644 -0.07041756 0.0375205 0.11446898 -0.053558458 -0.050122432 0.1106566 -0.022598414 0.014830322 0.039407972 0.06851114 0.0434819 0.09142763 -0.008120554 -0.014987398 0.058768142 0.09820565 -0.019906597 0.11693312 -0.009481595 0.03169717 -0.024941953 -0.051996067 0.028410524 -0.09254918 0.043714795 0.078331575 -0.07208059 -0.07032814 -0.024000688 0.0009407014 -0.060290508 -0.020278266 0.080533594 -0.020512559 -0.10606198 -0.11805232 0.09246322 -0.012148984 0.10027283 -0.07838769 0.039457154 0.10447241 -0.04740392
یاس‌ها)، -0.0058406433 -0.010444215 -0.029789463 0.11419463 0.072761096 0.114207424 -0.08598346 0.047283243 0.12025201 0.007186511 -0.03415771 0.102703735 -0.0428191 -0.06036366 -0.019071328 0.02255518 -0.08689552 -0.033089142 0.042098593 0.045095798 0.032979418 0.056491517 -0.05084954 -0.007105321 -0.018171305 0.0063083884 0.015490805 0.07450565 0.101912566 -0.0320267 -0.061022274 -0.0013433839 0.04178782 -0.11823131 -0.008473345 -0.122414716 -0.060289994 0.052075766 -0.10527883 -0.056930605 -0.030981433 -0.011466141 -0.117902435 0.063253745 -0.031150384 -0.015992608 0.014299594 -0.06394679 -0.0096742865 -0.10064062 0.052643616 0.046246357 -0.093702324 -0.07761091 -0.07338549 0.06848967 -0.09369863 -0.12153086 0.066032976 -0.017960979 -0.09691483 0.053569064 -0.031415932 -0.05831566 -0.01822432 -0.07499793 -0.0055024405 0.09279063 0.07303372 0.11414782 -0.007246655 -0.0044994126 0.013237237 0.102111325 -0.09737064 -0.053211626 -0.050790228 -0.09001605 0.012444093 -0.058212087 2.5354644e-05 0.07324608 0.087537676 -0.008631721 -0.048611447 -0.009684362 -0.042682298 0.024065144 0.038594745 0.022774635 -0.013119543 -0.013527363 -0.008430926 -0.038379192 -0.073736764 -0.08400803 -0.024269763 -0.060234964 -0.101080574 -0.107649334 -0.007493146 -0.01802074 0.09395006 -0.08507511 -0.058042046 0.08880466 0.041127432 0.059430093 0.034231745 -0.11038381 0.0635446 -0.08018075 0.08381986 -0.060532875 0.08381412 -0.020196615 0.081952855 0.04460045 -0.12236723 0.041245382 -0.099447936 -0.05630425 -0.08201321 -0.10720314 -0.11327537 -0.08469241 0.09370667 0.020941742 0.030788686 -0.010543213 -0.0017509654 0.081460625 0.080390416 -0.118910365 -0.027101912 -0.05066795 -0.068783894 0.024579886 0.036708884 -0.06734705 0.009524814 0.07563712 0.01481783 -0.08808599 -0.056792174 -0.11205649 -0.056152508 -0.018623387 -0.07262996 -0.09654516 -0.11967769 0.012610734 0.0564169 0.03272617 -0.068620026 0.028261848 0.04219144 -0.10889757 0.042255256 -0.07822141 -0.09017273 0.060818404 0.00545688 0.0708026 0.04857268 -0.029839164 0.085177235 -0.09549897 -0.096178934 0.055449273 0.122307524 -0.063026614 0.11931782 -0.11542121 -0.057288427 -0.051007017 0.10925464 -0.058369774 -0.0013077703 0.0029624046 0.02993164 -0.100257605 0.08242883 0.09111537 -0.096021555 -0.029109612 -0.086262316 -0.08430567 -0.100638464 -0.09359001 0.090613395 0.010417467 -0.116165444 -0.110658884 0.12672691 -0.05948256 0.13837178 -0.065922424 -0.120669365 -0.13588524
رسانه‌های -0.050196473 -0.0102012465 0.10669722 -0.0036518734 0.030283725 0.074342325 -0.09852621 -0.03239254 0.088736564 0.068982996 -0.07509636 -0.015736453 -0.10526136 -0.08488772 -0.042245187 -0.06712038 0.08958881 0.04473427 0.05465148 -0.029641027 -0.10364008 0.010350448 -0.06662557 0.03140656 -0.03896391 0.10326986 -0.038270872 0.05355353 0.08276949 -0.03294543 0.06969804 0.054891773 -0.03687611 0.0641289 -0.01822032 0.099264294 -0.10807972 -0.034986667 0.09820201 0.024117334 -0.05128893 -0.060469806 0.04620589 -0.09722998 0.09148646 -0.04639061 0.068474375 0.021527397 0.093203746 -0.059256837 -0.020821854 0.008514003 0.0884751 0.048879173 4.9442802e-05 0.0964001 -0.09059286 0.095298804 0.11327992 -0.10655001 -0.020444214 -0.05494305 0.065533385 0.08678328 -0.053150002 -0.11987207 0.006108102 -0.09847281 0.09532622 0.040319223 -0.11264106 0.0050642737 -0.022723481 0.010691055 -0.0966956 0.07737226 0.016886272 0.049403757 -0.078223884 -0.023956465 -0.06911752 0.06089808 -0.08842427 -0.04498398 0.011477623 -0.08989822 0.04702348 0.03502587 0.098386645 0.06800718 -0.018904252 -0.07080683 0.11101374 -0.100134455 -0.07161116 0.104166746 0.0849307 0.0729765 -0.07384861 -0.08792794 -0.003389792 -0.018331122 0.07112962 -0.1074504 -0.008193372 -0.0765359 0.04456149 -0.017664917 -0.018655952 -0.031632762 -0.060474783 0.060888536 0.0860904 -0.07971569 -0.07249286 -0.029502058 -0.101930164 -0.017358039 -0.05860467 0.09616308 -0.0603974 -0.110794865 -0.085941546 -0.07578988 0.04127483 -0.11160774 0.04598524 0.013132518 -0.11723591 0.044948783 -0.026007844 -0.113457024 0.097763866 0.08981625 0.09996303 0.06947696 0.09691122 -0.06524196 -0.0775552 -0.10002009 -0.082810186 -0.06769713 0.044518985 0.039937757 0.08228374 -0.09436463 -0.07638984 0.027095204 0.07805696 -0.019520687 0.025004242 -0.11344729 0.06077662 0.11088815 0.029044071 -0.0670306 -0.035264485 0.044918705 0.0146010155 -0.09378456 0.009377275 -0.094448425 0.03693375 0.10878761 0.108233824 0.055198256 0.021263683 -0.05295045 0.10570491 0.08298571 -0.06662371 0.04527024 -0.023594584 -0.074757546 -0.031521827 0.006801373 -0.0810397 -0.08042526 0.08674039 -0.011804264 0.060941286 -0.106856585 -0.051176075 0.04935369 -0.11282274 -0.047885336 -0.06508806 0.07650545 0.06372876 -0.012653428 -0.10723054 -0.087031536 0.051933806 0.07142276 0.10135596 -0.096709125 0.06291852 0.10433031 -0.023443013 -0.058993995
ایران -0.023613466 0.017221173 -0.03941575 -0.124408595 -0.10639455 -0.05405782 -0.057059586 0.08336787 0.063551605 0.111435965 -0.08569446 -0.09986992 -0.022555394 -0.0144673055 -0.022422388 0.056633525 -0.05223713 0.035178084 -0.05843807 -0.0458806 0.115028106 0.07751356 0.044262934 0.09478487 0.07531257 -0.0065670316 -0.10980139 -0.11153821 0.024691587 0.11138684 -0.03118121 0.08253759 -0.011083421 -0.11518528 -0.026460579 0.04096298 0.017881656 -0.086394995 0.103416465 -0.033735365 -0.066543385 0.013640306 0.048003793 0.123301886 0.03145785 0.050278857 -0.020081589 0.01650768 -0.06526526 -0.086371325 0.00506539 -0.09932231 0.012071391 -0.09656147 0.08930129 0.03139802 0.03689906 0.0061107534 0.052946705 0.0023766344 0.0041123778 -0.12591624 -0.04659717 -0.0686809 0.10151967 0.012136193 0.105041675 0.020706227 -0.10090213 0.037547633 0.050437137 0.038880818 0.041014295 0.09179097 0.11761954 -0.014363967 -0.0562465 -0.006696079 0.05216803 -0.019594284 0.07568958 0.018139074 0.05872469 0.026867647 0.034504335 -0.036781266 -0.1308106 0.012935829 -0.04932918 0.03244646 0.021681976 0.08523795 0.107264034 -0.07868839 0.017992793 0.08913549 -0.11604098 -0.059604682 -0.09336659 -0.027609928 -0.076335154 -0.027688745 0.11579242 0.08132008 -0.007092614 -0.06462851 -0.0011129867 -0.0026211443 -0.08084624 -0.12734929 -0.070108354 0.0985824 -0.078083426 0.06652671 -0.051060338 -0.039757945 -0.01725454 -0.0885293 0.04173339 0.018254729 -0.043343365 0.103734754 0.07172054 0.07120827 0.050346475 -0.05423971 -0.064856455 0.041738275 0.07532586 -0.06619752 0.09072827 0.023982149 -0.116935335 0.07941425 -0.10576815 -0.118131 0.09508322 -0.06597652 -0.022569302 0.072516315 0.028229486 -0.05087935 0.058616903 -0.0280736 -0.063957974 0.005187142 -0.055179052 0.07996276 0.10333727 -0.016914273 -0.11865366 0.09959184 -0.115442924 -0.013437477 -0.040499136 0.036878977 0.10192676 0.07647999 -0.04167069 -0.02196127 -0.09046314 0.0031007864 -0.09977529 -0.058842402 -0.115977086 0.08149788 -0.10277055 -0.021254988 0.055061493 0.01605228 0.04934349 -0.07666903 -0.09553778 -0.078842595 0.005552526 0.029151252 -0.124184236 0.110907935 -0.029100714 -0.03991923 0.072828814 -0.041665457 0.110631466 -0.07549851 0.0152619565 0.09945433 0.034051113 0.11339938 -0.106766894 0.055472888 -0.09383706 -0.111990854 -0.05495571 -0.03109766 0.07838343 0.10837253 0.119410396 0.058011603 0.004714853 -0.038193196
بین -0.034446668 0.03447986 0.10446407 -0.0046588094 0.12468893 0.073198095 -0.0585099 -0.0575293 -0.0806799 0.078319035 0.07581478 0.06470994 -0.13155566 0.028444877 -0.10536061 -0.0027658865 0.061900184 0.10749338 -0.009392627 0.06362411 0.013847913 -0.080034174 0.1187605 0.10398103 0.057473224 -0.043166008 0.09886744 0.08166576 0.07488978 0.08890829 0.046153583 -0.103772186 -0.046348985 -0.08363004 -0.008502208 0.11655574 -0.029857192 -0.08474999 -0.10279172 0.027355855 -0.11877292 0.061900463 -0.078822725 -0.008297366 0.052592594 -0.034032542 0.091974124 0.08920581 0.0205014 0.0076775937 -0.046881344 0.0061193947 -0.09210811 0.08548225 0.08151089 -0.04361383 -0.106619895 -0.06999581 -0.09745386 0.01729858 0.07907661 -0.028164634 -0.017934471 -0.012301713 -0.08925454 -0.064093426 -0.03295941 -0.016543005 -0.043107234 -0.09709072 0.08928295 0.0009831459 0.0015567202 0.06642015 -0.020241814 0.07890395 -0.12430509 -0.039443124 0.11033474 0.015615244 0.09626832 0.025985977 0.07253597 0.117395744 -0.09109087 -0.029994141 0.016925272 0.065326 -0.03910748 0.0697464 -0.0032598902 -0.023981685 0.01950893 -0.042614166 0.03370513 0.059007566 0.03192895 0.10255384 -0.06286659 -0.01561087 0.017785056 0.12820467 0.033371747 0.09918458 -0.068585165 0.07825679 0.050880652 -0.04984126 0.09068029 0.089095056 0.09894145 0.101371564 0.017321223 0.08852072 0.00015801581 0.018185217 -0.06921909 0.06344434 -0.01684769 -0.041101635 0.09743836 -0.025357543 0.061605714 -0.09623449 0.005971198 -0.05437139 0.083482996 -0.038891442 0.06784675 -0.07236604 0.058567826 -0.006013543 -0.11052604 -0.0913927 -0.08466532 0.008316886 -0.026162483 0.02903541 -0.081183225 -0.074860334 0.05582081 -0.10866685 -0.03205695 -0.07445444 -0.010024469 -0.08958104 -0.028393019 -0.047484126 0.005590484 0.094787724 -0.06747852 0.10663224 0.09814458 -0.049942497 0.10612695 0.07007286 0.010055645 -0.07076692 -0.020206315 0.039101046 -0.09347363 -0.049905248 -0.0020038714 -0.079344966 -0.059994698 -0.0103634335 -0.09387829 -0.04600594 0.068408705 0.09594603 0.047361802 -0.117629305 -0.118483424 -0.058191158 -0.07810575 -0.11831804 -0.01924881 -0.12090782 0.090106115 0.12330063 0.04854383 0.06700022 -0.029591553 0.11501807 0.048455376 0.022034759 0.08409666 0.09895693 -0.07744237 -0.055300083 -0.046996575 0.050781857 -0.03911877 0.040262554 0.05297546 -0.11628198 -0.03876634 0.022553405 -0.102449305 -0.096825406
شده 0.093354285 -0.01278629 -0.01089786 -0.019983733 -0.04028758 0.058500394 -0.015815914 -0.1185601 -0.09742572 -0.05997189 -0.014708433 0.12865154 -0.09064103 0.042406023 0.021395985 0.060929116 -0.07333433 0.06556815 -0.055768438 -0.08855434 0.08611683 0.05880532 -0.1178899 -0.05131429 -0.008407489 -0.10832386 -0.067362554 -0.103008546 0.12402282 0.0029080815 -0.0058292914 -0.056912053 -0.055211794 0.0014831537 -0.047767807 0.015498513 0.013149811 0.049877923 -0.030064512 -0.09414686 0.011706776 0.017114619 0.103963606 0.03652437 0.031193584 -0.002083387 -0.107006654 0.1287862 0.05214072 0.06385633 -0.0842103 -0.094808094 -0.021643097 -0.09112331 -0.0056328354 -0.023000108 0.009083609 -0.101120815 0.009154372 0.027499473 -0.038660277 -0.037200596 0.038477622 -0.07713335 0.11646597 0.101399705 0.020170476 -0.11503814 -0.060599048 -0.099740386 0.04539133 -0.0019634785 -0.026659602 -0.038866054 -0.013079731 0.09201897 -0.016735623 0.08618241 -0.11504279 0.09710275 -0.09057847 -0.025407273 0.083376855 -0.09462957 0.11199229 -0.033884425 0.10280962 -0.07777778 -0.040043447 -0.12308502 -0.0004351208 -0.093108445 -0.10606174 0.0653247 0.07951485 -0.0023029551 -0.05270957 0.091459446 -0.03671944 -0.056828327 0.00090285495 -0.053679995 0.019248465 0.10685289 0.07029457 0.058346458 0.018959673 -0.015782246 -0.081175774 -0.06542569 -0.010162529 0.100800544 -0.07965458 0.028002517 0.08559527 -0.036032435 0.03868158 0.005565493 0.05333598 -0.08633068 0.04964054 -0.0241054 0.10446941 0.06979437 0.12586296 0.017160812 0.087884605 -0.006138652 -0.04221201 -0.0632463 0.07154918 -0.0014407764 0.012044735 0.06411464 -0.06429056 -0.025467824 -0.04386635 0.12366458 -0.043822013 0.091714434 -0.08262961 -0.102489844 0.11388765 -0.05169997 0.02418777 0.07705522 0.032237332 0.075023085 0.0792885 0.037771698 0.11388008 -0.12595733 0.060838096 0.0034716076 0.013362073 0.106777556 0.0021259116 0.07016154 0.083148874 0.12405861 0.078781806 -0.11563731 0.07957189 -0.052608747 0.08366617 0.01882843 0.088636525 0.07698223 0.08419475 0.0062610274 0.03866677 -0.06578335 -0.033772226 -0.04252084 0.056876384 -0.05904532 -0.09943189 -0.065746985 0.09969612 -0.12516662 0.09411374 0.10044948 0.069262564 -0.070852086 -0.0062044207 0.10154211 -0.112968616 -0.055420592 0.037032075 0.05024578 -0.030358862 0.060239773 -0.041173365 0.04788303 -0.08371469 0.12161096 0.010344381 -0.09377281 0.089726865 -0.04095576
رئیس -0.08234313 0.12429254 0.06431426 -0.11551274 0.101181805 -0.12774174 -0.03944323 0.118392095 0.015616136 -0.029760385 -0.1171878 -0.02596431 -0.074782155 -0.108242184 0.10863223 -0.0654277 -0.0062510185 0.0826812 0.003371268 -0.05823598 -0.01942186 0.052903246 0.042582422 -0.09335987 -0.12611417 0.00060474465 -0.07859991 -0.0417394 0.027424851 -0.115396924 -0.10507036 0.025011849 -0.033109773 -0.09781169 -0.042815316 0.11097647 -0.11488533 -0.02491468 0.0038465834 0.08919793 0.11105103 -0.043704767 0.1076134 0.07223507 0.112949796 -0.08937136 0.0636132 -0.03903081 -0.014217673 -0.054617397 -0.023970557 0.114163764 0.020002047 -0.12310682 0.03458776 -0.04094571 0.023229778 -0.11817519 -0.029788254 -0.013462653 0.025591297 0.008548116 -0.1048367 0.07752952 -0.06023158 0.062362563 0.07811909 0.09119084 0.094830744 0.09866526 -0.023400996 -0.040889382 -0.004362523 0.08315748 -0.08817445 -0.0454769 -0.11302148 -0.017977748 0.08551006 -0.07208624 0.11579995 -0.006643786 -0.010961162 -0.06112125 -0.042869914 0.03165574 0.051835965 0.06808236 0.097035535 0.08034564 0.094281726 0.08278898 -0.040234234 -0.020989927 -0.012613548 0.029077599 0.08384261 0.050655723 0.0941293 -0.05985816 0.05079391 0.0102298325 -0.02007796 0.1205263 -0.096428476 -0.11234318 0.040560108 0.029435 0.00763707 -0.00064355595 0.019686148 -0.040864747 -0.052660946 0.062554225 -0.07247084 -0.051219564 -0.050815776 0.07642585 0.0036230187 0.1038365 -0.027049195 -0.08244877 -0.0046227234 0.058474816 -0.07769216 -0.06468857 0.06888117 0.09064348 0.03363805 -0.097971365 -0.011167478 0.07833686 -0.088620745 0.105184235 -0.08898305 -0.057692405 -0.010762626 0.085966565 -0.062872745 0.023557063 0.048615605 -0.039933667 -0.05028682 0.09743239 -0.05384082 0.09315342 0.07984624 -0.08886884 -0.065447494 0.10943048 -0.022070974 -0.019020483 -0.10727686 -0.053718127 0.034866493 0.02694414 0.06388762 0.0530892 -0.012853791 0.107393414 -0.05245996 -0.04345783 0.023118984 -0.07791461 0.004308138 -0.07101325 -0.019552602 -0.06279078 0.09199667 -0.02130159 0.056127504 0.02317873 -0.0019648287 -0.05026812 0.02580316 0.0906273 -0.07894151 -0.12725231 0.092461325 -0.09445144 0.030844664 -0.072179034 0.04476764 0.12033757 0.07847578 0.07756273 -0.016600119 -0.059276924 0.115197815 -0.094251804 0.097563006 0.0037977758 0.036327977 0.019208776 0.06389177 -0.056194793 -0.08449908 -0.019727297 0.068870254 -0.112173244
است -0.047853023 -0.046274006 0.044287805 -0.071920514 -0.014483706 -0.08701724 0.09870136 0.09133447 -0.08139899 0.09994534 -0.11812142 0.114789054 -0.04919106 -0.077254444 0.029747406 0.041274894 0.052551452 0.029735733 0.085779086 -0.037933666 0.05247006 -0.046425834 -0.07114455 0.087996 -0.077441484 0.067238174 -0.1054312 0.07310347 -0.087055415 -0.015821123 -0.071489654 0.032569256 -0.04407971 0.006293241 -0.010491848 0.025476819 0.020906582 0.009553593 -0.048887275 0.083459504 0.010614245 0.019033043 0.061126854 -0.06989249 -0.055925325 0.024586672 0.015469595 0.110636085 -0.10707727 -0.031349353 -0.082764566 -0.026833927 -0.06489343 0.09427855 -0.087920345 -0.0059423503 -0.011832445 -0.0661178 -0.10491556 0.043816686 -0.07850414 0.021148536 -0.055843953 -0.10578032 0.08600666 -0.011761277 0.07994779 0.059854828 -0.07568339 -0.025677733 -0.042010337 -0.0010441516 0.058152437 -0.11125464 0.0011728485 0.021446079 -0.08007147 0.07288242 0.040790413 -0.05075832 -0.09808965 -0.047589548 -0.05067759 0.0991935 -0.054383367 -0.098295376 -0.050640557 0.0864619 -0.09273485 -0.0663727 -0.094021074 -0.01941161 -0.05358813 -0.08157587 -0.03310545 0.09732987 0.06316735 0.0700494 0.08462254 -0.027268924 -0.02006246 0.1019979 0.049254604 0.024081431 -0.10626341 0.045242526 0.0960633 0.103151925 0.09266947 0.027384048 -0.07732008 -0.0464588 0.022725267 0.10790449 0.08976113 -0.060059667 -0.08302761 0.11329801 -0.08629704 0.07037995 0.096043095 0.05688646 -0.011400493 0.10810657 -0.025129093 0.04238677 0.06283215 -0.086698115 -0.0016887041 -0.06856539 0.11740569 -0.013406779 0.018769428 -0.1004945 0.106532164 -0.07804304 0.10523213 -0.1183865 0.10069872 -0.014687872 -0.047381267 0.022872055 0.0755694 -0.09685194 -0.11292654 0.07926899 -0.031017525 0.046826087 -0.09578231 0.094140336 -0.098161295 0.0454434 -0.009784178 -0.008514174 -0.050050054 -0.044049136 -0.008482644 0.022394897 0.08933521 -0.054012924 0.11423612 0.106289424 0.09966787 -0.04352305 -0.0007878427 -0.047257703 -0.012919387 -0.017161835 -0.052247137 0.028698014 -0.053622235 0.0698753 0.09516217 0.029830286 0.11640953 -0.02335464 0.03356772 -0.09867557 0.04881209 -0.012613364 0.07059306 0.10927726 -0.10770783 0.064821504 -0.06014737 0.08084624 -0.076593705 -0.08507225 -0.11054304 -0.06865673 0.08965803 -0.082594864 0.10782878 -0.06760054 0.0826691 0.11420807 0.07705008 -0.059840724 -0.05645993 0.07026024
نمایش 0.11098119 0.04052066 0.004885807 0.10333847 0.07002232 0.049912844 0.10157397 -0.017774954 0.016807538 0.08795262 -0.078208044 -0.087515615 0.10425238 0.007971545 0.11347538 -0.04784843 0.12242198 0.03257877 0.090911016 0.009633875 -0.02303849 0.013787762 -0.0755586 0.102334954 -0.04083553 -0.023721011 -0.021241952 0.029141765 0.12809692 -0.035719093 0.096967354 0.06304659 -0.05160106 0.014437962 0.10497102 -0.021835877 -0.11997411 0.0053721997 0.09485464 -0.07034053 0.07439044 -0.041232336 0.03359852 -0.026359329 0.04921679 0.10189 0.10967114 -0.05298822 0.07351956 0.047505252 0.07348363 0.02474072 0.09796601 0.034437716 0.015606436 -0.10281842 -0.0047638 -0.01863148 0.068378024 -0.071174845 -0.09153015 0.060042467 -0.057651386 0.09842694 -0.026278626 0.07683024 -0.12807783 -0.052981913 -0.045225237 0.0037163524 -0.041428037 -0.10874094 0.12712906 -0.021540204 -0.0755143 -0.08505195 0.022733238 -0.049485408 0.02615634 0.11162017 0.012675715 0.048873678 -0.07433241 0.006840158 0.11213084 -0.021021882 -0.05788119 0.10104523 -0.027648693 0.11654676 -0.10604822 0.08075919 -0.05468573 -0.08100418 0.0013759533 0.0045415065 0.015845256 -0.103605226 -0.048911497 0.03251177 0.040845364 -0.033624522 -0.023423377 -0.09594558 -0.07677322 -0.051610697 -0.01615269 0.025101736 -0.08996282 -0.049570326 0.07246177 -0.03407575 0.022777343 -0.121756434 0.11398758 0.10909229 -0.027429555 0.033905003 0.09417758 0.10297085 -0.03581989 0.10224707 -0.07862253 0.05995018 0.044227578 -0.030045953 0.00942598 0.055588197 0.0114112515 0.016176365 0.09476621 0.12568173 -0.0016592316 0.057782255 0.058534216 0.018074095 0.024985202 -0.12268434 -0.07299922 0.023653662 -0.05005073 -0.06940878 0.06577235 0.0320085 -0.11916663 0.0065007983 0.029159551 -0.11049775 -0.022229983 -0.020053478 -0.08432571 -0.112634115 -0.07784785 -0.006671903 -0.08809009 0.009696935 -0.058628008 -0.12565331 -0.06888412 0.0035837516 0.0019806672 -0.11550533 -0.013713197 -0.08323262 0.041559927 0.055504523 -0.06317472 0.046726316 -0.10976023 0.07014332 0.10342229 -0.040397584 0.09822461 -0.078358814 0.010235719 0.117656045 0.108214185 -0.030410629 0.11448828 0.10337541 0.028784832 0.05617449 0.054360233 0.054058153 0.0518003 0.05207355 0.0902255 -0.070552915 0.09118387 -0.112215295 0.12772793 0.08926271 0.0042390153 -0.0417508 -0.10812423 0.04547861 -0.08725961 0.013133561 0.01447665 -0.03548908
ویژه 0.041758392 -0.10537226 -0.0018392827 -0.04149392 -0.0013914816 -0.0863716 -0.09734676 0.016794281 -0.045059834 -0.0013509482 0.08614336 0.063771285 -0.10748077 0.091850296 0.09878161 0.10797244 -0.06244611 0.050749995 0.066594325 0.06807302 0.00021138278 0.111149 -0.09764441 0.007967441 -0.09877462 -0.10792389 -0.035849974 0.09461962 -0.015700089 0.0128276795 0.08767714 0.05529753 0.10782691 -0.08883289 0.076545216 -0.030376645 0.049633022 0.060610894 -0.05335925 -0.04107678 -0.04316266 0.10805824 -0.06265331 0.09863705 -0.037054308 0.100847736 0.08081472 0.09578235 0.010361702 -0.041038428 0.028721238 -0.03397969 0.09634105 -0.033101376 0.097814865 0.016556924 0.08007567 -0.06350176 -0.07768685 0.028470311 0.07271305 0.028177924 0.05661797 -0.08622927 0.11280807 -0.04746342 -0.06413586 0.036156837 0.017322034 -0.05160663 -0.06654028 0.07666723 -0.014614128 -0.08666659 0.05604432 -0.02464555 0.078368604 -0.07069883 -0.06271959 0.064326875 -0.07721086 -0.09727472 -0.049483918 0.11174001 -0.09418696 -0.04034067 0.099162236 0.10803219 -0.08526806 0.06826128 0.08177885 0.08803861 0.08693933 -0.079761215 -0.004984962 0.06651674 0.10658584 0.04874355 0.08175536 0.09820153 0.07720038 -0.019308638 0.030318523 -0.047548346 -0.049786948 -0.080309585 -0.0912934 -0.027881093 -0.1143304 0.043490186 0.11508972 -0.03132428 -0.004479415 0.08405616 0.036020737 -0.08860162 0.0647099 0.054017015 -0.09961454 -0.09049492 0.0765639 -0.04618093 0.02431411 0.11379339 0.083680205 -0.10436001 -0.03935928 -0.003233187 -0.09200477 0.11485919 0.089288846 0.093415245 -0.10637353 -0.10078625 -0.053409707 0.05136911 -0.032209817 0.031146556 0.036909174 -0.046872463 0.059930943 0.003403901 0.09235865 0.10717415 0.09886195 0.043125924 -0.07399876 0.014221655 0.05799679 -0.11093638 -0.038862716 -0.08620935 0.046676494 -0.04362036 -0.011006907 -0.015912998 0.042982582 0.08703516 0.0737529 0.016566444 0.049578615 -0.03346434 0.031139305 -0.09312951 0.0050457628 -0.10930338 -0.09393169 0.021790579 -0.050608303 -0.10980702 -0.07639212 -0.1000971 0.043658175 0.06776877 -0.0050336365 0.06875018 0.090872884 0.053041466 0.02047531 0.08716157 -0.086085945 -0.10208815 -0.11232071 -0.0073829545 -0.09398194 0.02326306 0.07517516 0.096542865 0.0050096363 -0.042583458 0.03457348 -0.010882084 0.009877977 -0.08345526 -0.0067587174 -0.09045341 -0.10824329 -0.006672179 -0.010621291 0.07988589
تصویری 0.04591692 -0.09278606 0.07740517 0.11161388 0.072576836 -0.06312954 0.010304578 0.0072524957 -0.03099264 0.011822777 -0.06038884 -0.052638177 0.02497198 0.10648369 0.0014887319 0.09987647 0.09711892 -0.055422284 -0.081357405 -0.029757524 0.12264488 0.032995492 -0.088574626 0.04073284 -0.09645054 -0.11818879 -0.0039804406 0.09035833 0.07459017 -0.118700616 -0.04566706 0.022116382 0.061601255 0.105087504 -0.08368396 0.060266204 0.08370868 0.09028175 0.064975776 0.037260476 -0.1091628 -0.0599944 0.09897209 0.07055121 0.03623592 0.10716083 -0.034309275 0.061954588 -0.07872246 -0.019338079 0.05611361 -0.121171 -0.03224837 0.102098376 0.034667324 -0.07612016 -0.03905051 0.048304543 0.11082882 -0.120400436 0.01612126 -0.008706097 -0.0838674 0.09422556 -0.08819957 0.028840106 -0.10306418 -0.11618554 0.026991572 0.122874126 -0.08662835 0.035256207 -0.07129364 -0.0906613 -0.045738935 0.12074325 -0.108505756 0.010445052 0.00987186 -0.0732167 0.022764517 -0.10567865 0.115482405 0.05374522 0.089334145 -0.068349935 0.044361383 0.06798918 -0.07200551 0.01910439 -0.0857843 -0.06378483 -0.09336063 0.08276374 -0.071492285 -0.028902201 0.09712238 -0.032194134 -0.08102145 -0.027887756 0.11338404 -0.09652944 0.027864791 -0.061724696 -0.02593949 -0.026588095 -0.041877557 -0.11598247 -0.071226254 0.0038863195 0.0685114 -0.08429955 -0.043867514 -0.122128956 0.015641706 0.023830011 0.04582564 -0.07473435 0.085440725 0.036460545 -0.015456176 0.058689337 -0.05999879 -0.018790552 -0.020312067 -0.032407917 0.08508944 -0.08784303 -0.057206664 -0.11399844 -0.04503806 -0.03604239 -0.06828573 -0.08493814 -0.0699604 0.043043736 0.07280046 0.016785001 -0.08620988 0.12190356 0.10809513 0.035792667 -0.052761685 -0.020058168 0.08748666 0.018142387 -0.08105945 -0.021195607 -0.122338645 0.0051595215 0.07341325 -0.053430665 0.08744196 -0.024743136 -0.0033477193 0.0006798507 -0.01845299 0.077923894 -0.07746846 -0.010998852 -0.082752995 -0.011188578 0.028765311 -0.070650935 0.10025984 0.1195491 -0.037717864 0.042598993 -0.031514175 0.022785721 0.054653227 -0.092016585 0.08530236 -0.09310953 -0.05166967 0.049885906 -0.03786605 -0.08605946 -0.04623095 0.05778731 0.026972227 -0.055985734 0.12748016 0.06363322 0.009575787 0.04559765 0.031268314 -0.12654778 -0.050225697 0.059197325 0.07398804 -0.037138183 0.042996168 0.1154114 -0.06116347 -0.06551249 0.064272806 0.070097506 -0.053709235 -0.02879579
مرکز 0.076042846 -0.104220346 0.010478038 -0.10867789 0.08028526 0.04288444 0.08154662 0.1082592 0.09991718 0.09226054 0.0850167 -0.10595584 0.010233164 0.008141852 0.06378455 0.03509498 0.05712896 -0.005880463 0.106780306 0.12071853 -0.11315708 0.011767808 -0.066046715 -0.068897255 -0.11303118 -0.0035589947 -0.049548667 -0.0973866 -0.0035144975 -0.11205718 0.046792038 -0.061906707 0.086152375 -0.071942724 -0.0950247 0.098115556 0.04558765 -0.03330347 0.0015462304 -0.07116891 0.083626434 0.013403469 -0.054744363 0.07869969 0.013283411 -0.093593046 -0.05611718 0.005283656 -0.06009054 0.06929122 -0.047389407 0.035288014 -0.092888236 -0.053679053 0.021626499 0.075896084 -0.0035390267 -0.0641383 -0.019606257 -0.06996647 0.1206558 -0.10135611 -0.017563874 -0.027702475 0.02555011 -0.03745451 0.10958356 0.046348423 0.067436576 0.031831205 -0.06298189 0.12036465 0.024657002 0.014538903 -0.087424874 0.10263774 -0.02977969 0.101568274 -0.015578315 -0.08250926 0.08810825 0.10765647 0.09495512 -0.11265078 0.03272338 -0.055160988 -0.025524704 0.09472918 0.06100509 -0.017780341 -0.12458392 0.039587796 -0.09841697 -0.01715571 0.087872244 0.1023072 0.05045373 0.0769946 0.014816157 0.043226495 -0.06081062 0.07067053 0.025121978 0.058471274 -0.006930989 0.08941421 -0.0316806 0.025491368 0.031945292 0.10584878 0.10406425 -0.06365348 -0.08334076 0.09956519 0.10098823 0.050913 -0.007868334 0.038666554 0.10467437 -0.00039783082 0.043252468 -0.11707789 -0.005245183 -0.013886119 0.005394451 -0.053521123 0.121574 0.07252903 -0.072100125 0.023877602 -0.0813904 0.11620408 -0.0014386241 -0.08488939 -0.10212415 -0.04767902 0.093851894 -0.11251765 -0.042325117 -0.004433479 -0.0061426847 0.035590604 0.06164466 -0.00096077914 -0.11289159 -0.098645896 -0.063708454 -0.025738113 -0.10774117 -0.09077062 0.010689171 0.004670296 0.08485779 -0.08522625 0.053546604 0.0762551 -0.029093804 0.105900526 -0.06761725 0.032283556 -0.057205103 -0.031319402 -0.08268767 0.0059176087 0.032047015 0.09692565 -0.029343927 0.068333514 0.034090053 0.06285121 -0.044459045 0.037138343 0.030615255 0.015060712 -0.069434516 -0.10053965 -0.009445038 -0.016533785 0.042073417 0.011770369 0.06898108 0.018154252 0.022722173 -0.03315625 0.00784301 -0.114882804 -0.093868166 0.08184384 0.09965756 -0.12109246 0.04934735 0.04778869 0.093372636 0.09160666 -0.03673437 0.11616196 0.12688148 0.001025448 -0.1107398 -0.10485066
مدیرعامل -0.015264168 -0.036950924 -0.110662945 -0.073047325 0.08783396 -0.084395505 -0.11090186 -0.07721869 0.069201514 0.028927281 0.09528473 0.02668139 -0.083365425 -0.07410443 -0.05134766 0.02967962 -0.044640437 -0.020378059 0.0035806461 -0.056892507 -0.011174239 0.094288066 0.10287811 -0.031025382 0.107637204 0.036772802 -0.026328119 -0.11327219 0.0775527 0.05014567 0.103536576 0.116075955 0.090996996 -0.11457712 -0.08689244 -0.07978726 -0.012788001 -0.07444227 0.0070129116 0.09667632 0.040259622 -0.053815965 0.0806989 0.08994656 0.010096426 0.06467257 0.107522324 -0.02291917 -0.1016874 0.1073558 -0.07454608 -0.099594705 -0.008977851 -0.0018124096 -0.02799277 0.03600262 0.0881498 0.089512765 -0.033075273 0.07814526 0.04230093 -0.10098956 0.110883445 0.002945117 0.048633996 -0.08017557 0.111094855 -0.05391034 0.03690878 0.019965729 0.062061284 0.0728921 0.010338412 0.07546552 -0.020330068 0.10193066 0.0077279033 -0.048643738 -0.11050103 -0.03452544 -0.11166524 -0.0664196 0.0029103728 0.020940244 0.05745454 0.09471152 0.09616562 0.09855841 -0.10342232 -0.012685631 -0.074333146 -0.052142892 0.10151986 0.025392706 -0.11569333 -0.046363004 0.10945511 -0.013779032 0.11327444 0.07578087 -0.107020885 0.11839373 0.06657778 -0.04053808 0.013126796 -0.02011503 0.01945889 0.06609313 0.03804083 0.007981436 0.033088364 -0.027588136 0.023818497 0.00885994 -0.099229604 0.09091509 -0.059083153 -0.07667869 -0.048940346 0.022335714 0.10996142 0.03534582 -0.029019507 0.039177243 -0.07189714 0.044731643 -0.047897864 -0.011346157 0.07173724 0.06972558 0.056166273 0.087497085 -0.07856145 -0.042084035 0.09879952 -0.053065352 -0.016691387 -0.06591276 0.079072416 0.045965254 -0.0015394968 0.08167954 0.044492252 0.09158072 0.098562725 0.052511048 -0.0943835 -0.10382045 0.0894123 0.036718007 0.1164795 0.050070953 -0.04004939 -0.028305126 0.016913604 0.046592053 0.008088459 -0.034040242 -0.10392681 0.079825096 0.112802744 -0.04503295 0.05181955 0.09556911 -0.09954265 0.027890146 0.007571587 0.033923376 -0.09922282 0.045306217 0.01739279 0.10466067 -0.098295964 0.0699738 0.00031523206 0.005081306 0.088528976 -0.02716289 -0.08476066 -0.030305877 0.074127026 0.07038524 -0.06540678 -0.104618885 0.01738707 0.013589716 -0.11335884 -0.11133281 -0.0037313246 -0.0055983663 0.09943468 -0.07654907 0.07828722 -0.091700196 0.09322019 -0.089216426 -0.06030447 -0.106641725 -0.10161709 0.024021579
که 0.082030475 0.058671124 0.019429455 0.04928184 0.053241283 0.033339508 -0.062942885 -0.07513794 0.037617534 0.064459145 -0.122500755 -0.107031755 0.038390853 -0.016736692 -0.06298442 -0.06029345 -0.019267553 -0.019046772 0.019147107 -0.003715776 -0.018214526 0.044143107 0.029925346 0.08321771 -0.04649889 -0.090835206 -0.029592514 0.11778199 0.010291331 -0.06229187 0.06631974 0.023081228 -0.05584277 -0.09619351 0.11720568 0.083763726 0.001202476 0.0082592275 0.10315989 -0.10299969 -0.055811282 -0.04768616 0.018982286 -0.04646091 0.10310157 0.006565075 0.034300916 0.035677485 0.013594388 0.067617185 -0.10993873 0.042148218 -0.050576545 0.046614327 0.042703893 -0.08172754 0.040091142 0.023534615 0.047690544 0.10096308 0.08650862 -0.09396086 -0.11576935 -0.05858369 -0.0074028764 -0.06705449 0.11556788 0.049492646 -0.006369578 0.113743715 -0.054481305 0.09144403 -0.083914176 0.106564105 -0.09093218 0.013708559 0.06584986 0.116891205 -0.034987014 -0.12474302 0.036685564 0.08504627 0.06413431 0.04499956 0.06694526 -0.09135418 -0.10296824 -0.03988029 0.036489464 -0.0746658 -0.12567244 -0.010546272 0.02346862 0.07563785 -0.0133005 -0.06770117 0.118436575 0.087854885 0.104805686 0.04493769 -0.042539403 0.027046178 -0.08211355 0.0060269474 0.056345925 0.053495713 -0.08845819 -0.07157512 -0.036818095 0.108737946 0.11378999 -0.010356987 -0.031047298 -0.039086048 0.1196304 -0.0902072 0.062572576 -0.0457531 -0.08486318 0.070510715 0.045607712 -0.004229528 0.032088064 -0.03476778 -0.023673566 0.024063343 0.00647756 -0.10437638 0.026716514 -0.054962788 -0.005156209 0.06805116 -0.09202311 -0.04897738 -0.11372452 -0.04665445 -0.08671603 -0.005451022 -0.03463003 0.009129475 0.060739473 -0.08929875 -0.06515799 0.08030811 -0.09984599 -0.098752566 -0.10098814 0.044677403 -0.1117374 -0.057157066 -0.10440511 -0.03367068 -0.051512472 -0.05313132 -0.07104778 0.11527526 -0.10987763 0.10039684 -0.09058354 -0.018191278 0.061826967 -0.06008816 0.027868526 -0.010312699 0.056370493 0.05764006 -0.059247278 0.022833264 -0.025376813 0.038204525 0.08054195 0.11728576 0.003461483 0.07404865 -0.040382918 -0.09132521 -0.110667594 0.104726866 -0.12457713 -0.06646028 -0.051241428 0.007398085 -0.11523945 -0.056206204 0.10070584 0.00022756707 -0.05888726 -0.10631676 -0.109800234 -0.07108996 0.07841826 -0.077646114 0.08888528 0.0149730975 0.0070812115 0.09797857 -0.066298954 -0.11091815 -0.04391944 0.116936594
عمومی -0.03607394 -0.09094914 -0.028111761 -0.09155514 0.076486126 0.1147301 0.07980965 0.08615835 -0.06374895 -0.1056582 -0.083591476 0.014560062 -0.0938909 -0.020802058 -0.0854407 0.11519195 0.09679506 0.020578826 0.051385272 0.049278736 0.0804327 -0.038786337 0.09817074 -0.093399145 -0.09340758 0.03828138 -0.01171074 -0.011409494 0.022157773 0.08124457 0.09336697 -0.057431623 0.056349214 0.07545291 -0.1056355 0.036631696 -0.012196961 0.10623758 -0.09160202 0.008533699 0.10167021 -0.08269221 0.10396028 0.07948911 0.03453005 0.067464665 -0.0012792841 -0.09270624 0.043678693 0.07524113 -0.044396255 0.08200278 0.10503526 -0.024836931 -0.08101105 0.11583327 -0.07003298 0.051156037 -0.07099953 -0.07621156 -0.076874174 -0.07998067 0.09444718 0.014628112 0.06453807 -0.038685907 0.08373684 0.0493589 -0.06840594 0.1202271 -0.07878411 0.096062675 0.11225453 -0.06969387 0.026062073 -0.012110387 0.03261968 -0.10691149 -0.01872387 -0.07483917 -0.06672544 -0.10560308 0.032640476 0.058224592 -0.080484636 -0.033579983 0.014147283 0.03532283 -0.09438837 0.104368456 0.059645083 0.024527645 0.045858838 -0.028873181 0.105986886 0.07446735 -0.068828635 -0.09248851 0.117125414 -0.013540797 -0.048917875 0.033391785 0.073228784 0.07940858 -0.12207552 0.015384605 0.007972402 0.034338925 0.08063631 0.079373546 -0.013640684 0.0143644465 -0.027590238 0.023053788 -0.006903984 0.061682835 -0.054610398 0.031789474 0.08767136 -0.107693136 -0.07149907 0.03664623 0.036930826 0.069150805 0.058169477 0.12170692 0.106598295 0.081833355 0.029924624 0.07742644 0.02096864 -0.104220025 0.006069636 -8.1034734e-05 -0.0967878 0.0033788157 -0.094461136 -0.027447911 -0.07215748 -0.101360396 -0.11200475 -0.11070038 -0.04310353 -0.09277617 0.10968787 -0.10873286 -0.074146315 0.057913836 0.013835082 0.06945782 -0.115486525 0.053933945 0.09242854 -0.08964962 -0.011578753 0.054366227 -0.084788434 -0.011467269 -0.087304994 0.11929994 -0.055519212 -0.038067438 0.081413165 -0.11010932 0.017430648 -0.07810041 0.011914746 0.017392755 -0.09381239 0.080180235 -0.070697784 0.031076672 0.064612634 0.06797425 0.08221508 0.043576404 0.10229803 0.014391295 0.036204815 -0.014986323 -0.024813985 0.063744366 0.010615567 0.0096472185 -0.06735813 0.0702066 0.0031804675 0.009597221 0.06863966 -0.12009631 0.09858039 0.07585564 0.040481195 0.046987474 -0.061472695 0.02315655 0.01111696 0.094817564 0.032761477 0.012928011
ارزش‌های -0.11354609 -0.020749487 0.031198159 -0.012591269 -0.050638884 0.010316739 -0.007918911 0.028918462 -0.073755264 -0.015418978 -0.009837123 -0.03765861 0.010091359 -0.07061769 -0.0153305 -0.058014877 -0.102158576 0.022705575 -0.103512965 -0.03063108 -0.101593226 0.06846413 -0.11071153 -0.047683757 -0.100627676 -0.050625727 0.04934982 0.0061855824 -0.06540548 -0.02369507 -0.0850776 0.057001606 -0.07185009 -0.107785985 0.098977275 -0.08795235 0.12023955 0.11690121 -0.113454945 0.070965014 0.102377854 -0.08300916 0.09437399 0.08809309 -0.034383144 0.03090021 0.05765896 0.050151702 -0.093313456 0.013003052 0.021230815 0.029050352 0.00043062153 0.017641148 -0.033945028 0.033649355 0.115701176 -0.11574348 -0.120162845 -0.061034806 -0.11851677 -0.12078886 -0.088772446 -0.028302522 0.07037781 0.019619467 -0.0983984 0.0023207446 -0.0154112205 0.020342853 0.0064398446 -0.000741721 0.022367317 -0.012684816 -0.021896178 0.011709158 -0.088064134 0.08509858 -0.09856593 0.103446424 0.055885233 -0.06498261 -0.10865878 -0.058703583 0.118641704 0.0824202 0.10580214 0.0628181 -0.04827866 -0.03657646 -0.113053516 0.12299628 -0.03374158 0.010428393 -0.09078446 0.044290375 -0.096571945 0.11521996 -0.12112948 -0.10709152 -0.08086548 -0.034342326 -0.03328218 -0.10130314 -0.03267417 0.039972436 0.011926521 0.029461276 -0.042824216 -0.03929383 0.030322192 0.02095708 0.04125944 -0.06386613 -0.075476676 -0.09477863 0.07383003 -0.04259442 -0.0032039175 0.121523894 -0.026759323 0.043768443 0.04986483 0.11833394 -0.062962584 -0.116835035 -0.113784075 0.09983188 0.047919646 -0.0683928 -0.021748861 -0.03517419 -0.058985792 -0.06492952 -0.07820247 -0.06550532 -0.0052011157 -0.101010256 0.120811954 -0.005386032 -0.092286855 0.013819 0.003353358 -0.022620525 0.06310007 0.077182904 0.0023930096 -0.09357764 -0.07999579 0.041380636 -0.023457173 0.03191679 0.061497416 -0.074884914 0.1094447 -0.03265611 0.040094763 0.0389202 0.047503214 0.056426007 0.04076256 -0.055523116 -0.055054512 0.020990308 -0.10860164 0.041609336 0.049744986 -0.10287951 0.11595116 0.07528046 0.011394532 0.0034388192 0.115689844 0.106186226 0.11286699 0.095154375 0.010419174 -0.015515659 -0.017719721 0.121049 0.06360882 -0.023950383 0.06598702 -0.10650337 -0.10034581 0.10151876 0.013083863 -0.045423523 -0.035888962 -0.053669445 -0.025291072 -0.06867517 -0.07718684 -0.08295357 0.07819385 0.0020174317 0.002330938 0.10969501 -0.08114487 -0.08671413
پیام 0.048830025 0.084393345 -0.029154005 0.08664922 0.119643606 -0.009433358 0.06362692 -0.02963309 -0.0343672 -0.047404066 -0.065297596 -0.0052595725 0.07557368 0.1032626 0.07118587 -0.11856394 -0.10976418 -0.030741727 0.049124707 0.09938244 0.010813437 -0.06991753 -0.08332067 -0.104182996 0.0659107 0.010905771 0.06689751 -0.069700494 -0.070913635 0.062480334 0.103771724 -0.03713437 -0.023914013 -0.03318883 0.100713134 0.024728097 -0.04119323 -0.03322548 -0.11104574 -0.03936197 -0.06798693 0.046481363 -0.1236441 -0.05477032 0.0140015995 0.06910427 -0.02064526 0.06610559 -0.013757022 -0.014169357 0.018243494 0.110816054 -0.029151106 -0.0664847 -0.05975273 -0.052302193 -0.030965682 -0.09986583 -0.029769296 0.11940146 0.026990063 -0.10726225 -0.07536944 -0.061722767 -0.081596576 0.0006887056 -0.037369356 0.07552493 -0.009307949 -0.014277698 0.088659085 -0.06386753 -0.063295096 0.012507232 0.05171911 -0.03564664 0.01126985 0.032423887 -0.058489513 0.038900927 -0.10189901 -0.0067725955 0.09470019 0.02377732 -0.044073362 0.055526786 -0.015613062 0.071736805 0.06336941 0.086688794 -0.035080265 -0.10530005 0.03247985 0.07642372 -0.02296449 0.042628016 -0.023107467 0.025836166 0.057605427 -0.024811996 -0.07744881 -0.11571227 -0.052529193 0.11697625 0.07666897 0.00016831174 -0.049753413 -0.062077545 -0.0993631 -0.013965677 0.0733253 0.098204605 -0.09120244 -0.046975464 0.123748966 -0.01231788 0.10182688 0.04441803 0.03570403 -0.051731866 -0.06185673 -0.11096743 0.07446505 0.10418819 0.008990433 -0.08945325 -0.033593033 0.07590122 -0.009794798 0.06468925 -0.09114048 0.0500742 -0.047286373 0.11901665 0.007022135 0.075163245 -0.118288495 -0.039882913 0.116586424 -0.021023905 -0.09081614 0.030126266 0.07674068 -0.008770855 0.07316426 -0.03276843 -0.12536302 -0.07805308 -0.08943222 0.04787403 -0.041297726 -0.0927906 0.10542177 -0.05557405 -0.019485742 -0.0024703122 0.024792165 -0.07576491 0.05331043 0.08225629 -0.058068868 0.07234158 0.006327341 -0.07594975 0.08587553 -0.02208664 0.040928636 -0.11898681 -0.11870886 -0.041419037 -0.085565805 -0.03996619 -0.101102926 -0.0008400695 0.009755613 0.083359346 -0.045361515 0.04829359 0.0988727 0.049035452 0.11752398 0.09334535 -0.09237808 0.089079164 0.08113723 -0.109140575 -0.0972634 -0.046599478 -0.12165868 0.07801695 -0.11122396 -0.11245757 0.05386672 -0.11255105 -0.07463606 -0.12579979 -0.040928118 -0.051123522 -0.11472212 -0.033570867
اعلام -0.11086775 -0.08011008 0.064482585 -0.065429874 -0.047353692 0.10939353 0.078333855 0.024758901 0.098676585 -0.060549308 0.031082502 0.027230417 -0.0031111208 0.105141975 0.0024299265 0.080261916 0.117213495 -0.11252007 -0.11805009 -0.055165086 -0.05313697 0.0696339 -0.1079388 0.112331875 -0.10252158 -0.05550894 -0.1123066 0.081469804 0.10109154 -0.05643496 -0.0386849 -0.00016356625 -0.005872912 0.012421492 0.08667736 -0.064413965 0.017910225 0.039018657 -0.060816538 0.06598078 -0.09346854 0.0727892 0.0038221248 0.077580534 -0.089656144 -0.08078423 -0.062687345 -0.04576965 0.035068113 0.10740047 -0.07459712 0.03037283 0.097498834 -0.08041252 0.09908859 0.118526004 0.10835737 0.09546998 0.09870153 0.105931334 0.004042669 -0.011891106 -0.11534478 -0.037319638 -0.06919041 -0.022545286 -0.082104065 0.0687802 -0.029474158 -0.054043863 -0.06892447 0.016605487 -0.07894994 -0.07311198 0.02132693 -0.05164456 -0.07060339 0.11169113 0.012357742 -0.11145002 -0.0115717305 0.07083439 -0.02204137 -0.074057266 0.05424269 0.073462434 0.078133374 0.1127877 -0.015717626 -0.07494238 0.10778531 -0.015220999 0.047149237 -0.03481577 -0.068362206 -0.06345206 0.06353548 0.09243199 0.10962168 0.05811781 0.0017968675 0.1101315 -0.1012066 -0.034813724 -0.00947294 0.114997715 -0.0031399378 0.11031992 0.002375221 -0.11031946 0.044045098 0.10986181 0.09581625 -0.02212761 0.092822775 -0.084487826 -0.09548031 0.023924204 0.09689824 -0.10633881 0.115405865 -0.11504565 0.021931197 0.049914166 0.09597449 0.011514751 0.067252524 -0.01807919 0.01274328 -0.04230143 0.08889971 -0.05446252 0.10534406 -0.1082461 0.032051865 -0.07165445 0.046599805 -0.0821972 0.0533083 0.018813686 0.08397266 -0.04330966 -0.10523817 -0.04520389 -0.004248785 0.045636926 -0.109594785 -0.055077348 0.006559104 -0.028281977 -0.07781228 -0.06280878 -0.0315433 -0.059940677 0.058812838 -0.07720418 -0.06280753 0.032090813 0.028652897 0.03332609 0.08143273 0.11068983 0.026984485 0.049953602 -0.09919819 0.05227566 0.11277594 0.028963277 0.10521296 -0.09497255 -0.074677855 0.076799326 -0.032147743 -0.08693086 -0.02221627 0.04724491 0.040626124 0.016528292 0.031300098 -0.0031671487 -0.09762545 -0.031849343 -0.032066688 0.021502798 -0.0045543658 0.04412122 -0.009429988 0.029746892 0.047022868 0.013031487 -0.015841067 -0.010106984 -0.11643712 0.012750608 -0.009471148 0.09614555 0.08955415 -0.06911573 0.03173416 0.057841867
دفتر -0.0880585 -0.108661935 0.009658365 -0.10197484 -0.013299716 -0.10335361 0.055904426 0.09774526 -0.030930541 -0.06603905 0.083707236 0.0056051672 -0.075591184 0.0054684933 0.11076496 0.0077643413 0.10256622 0.03722486 -0.085466556 -0.05992174 -0.019910028 0.016145566 0.009755149 -0.08118368 -0.033388432 0.104768075 -0.022542097 -0.032628223 0.10669925 0.0620414 0.072356775 0.026175965 0.09742847 0.07548983 -0.08265457 -0.07434087 0.0228824 0.10969505 0.112968005 0.020818874 0.020012056 -0.036598917 0.012927689 0.08280091 -8.3417624e-05 -0.078190334 0.027749706 -0.06528448 0.11711729 0.04627254 -0.0050194506 0.020500101 0.09509551 0.03209024 -0.068648525 -0.010551926 -0.009929577 -0.12040048 0.020932632 0.060560685 -0.004285256 0.111639015 -0.11204348 -0.07523707 -0.099854164 0.064659216 0.09114201 0.11760009 -0.045529764 -0.06859296 0.021395769 0.0036015115 0.076857455 -0.062539004 0.10987938 -0.03295677 0.008799977 0.09404186 -0.037551016 -0.118503496 -0.11115198 -0.02868553 0.029906606 -0.070670374 0.025031669 -0.089337744 0.06294485 -0.024114577 0.0769967 0.06716049 0.095960476 0.07765323 -0.08251616 -0.11692534 0.026804136 0.10724199 -0.019717954 0.0068139383 0.11067353 0.0795888 0.018484332 0.071353056 -0.11626523 0.10334967 -0.01422827 0.015318497 0.060741756 0.046817522 0.023628494 -0.10446604 0.0166879 -0.08989422 0.11686693 -0.0014888109 -0.05182732 0.070993386 -0.0878177 0.023914794 0.10113891 -0.057450958 -0.027593708 -0.110919654 -0.10023437 0.10414423 -0.09449377 -0.025955098 -0.054842472 0.013437098 -0.046034772 0.003477681 0.11641317 -0.10150483 -0.07970294 0.092624456 0.09926413 -0.099388 -0.112830184 0.09697265 -0.012884176 0.010754304 -0.019503908 0.092840075 -0.053711064 -0.05285055 -0.07296076 0.057616822 -0.010720962 0.074889585 0.034545414 0.10428737 -0.032005522 -0.08123591 0.07847972 -0.020693278 0.00085648184 -0.06992826 0.028510297 -0.013891305 0.11939758 0.05302304 -0.0427278 0.07287101 0.0016915699 0.10119905 -0.09775581 -0.11883088 -0.0046557835 0.10349605 -0.078979984 0.034925517 -0.103929035 0.036021054 0.09106477 -0.051389445 0.05093148 0.040290367 -0.11258189 0.09045219 0.026832256 0.06720982 -0.014441678 -0.04794797 -0.057259016 -0.052527055 -0.039307427 0.0070317206 -0.05704348 -0.056413032 0.07642844 -0.07403836 -0.06876736 0.101950884 -0.030990178 0.0180338 0.08032585 -0.058593985 -0.015181407 -0.070162185 -0.074848995 -0.10992944
نبی 0.11711089 0.07150342 0.00495744 0.11519229 -0.0025401672 0.026407875 0.062459078 -0.10807454 -0.096197076 -0.02893859 0.074494965 0.06178527 -0.008408213 0.011206401 -0.012112597 0.02229535 -0.067512475 0.03784051 -0.052567627 0.01332859 -0.08260379 0.06625422 0.08232233 0.11730981 0.018485194 -0.03509664 0.054608975 0.12381204 0.037990917 -0.09182348 0.0899459 -0.016833799 0.0970988 -0.09122139 0.011295002 0.01529556 0.030548127 -0.080852136 0.11117375 0.06469305 -0.041444708 0.045936234 0.07344394 0.10889105 0.031794768 -0.02407267 -0.021356657 -0.084262125 -0.10865222 0.07014965 -0.04656746 0.080803625 0.0712145 -0.052254833 -0.050561197 -0.1074735 -0.0050929873 -0.029204022 -0.06043442 -0.08345776 0.07088257 -0.112290695 0.09618958 -0.00012939383 -0.062191613 -0.09013227 -0.048078448 0.021958994 0.009174014 -0.103310406 0.0842637 0.04183878 -0.09090282 0.09307734 -0.051634237 -0.089404926 -0.08390634 0.089016624 0.015967242 -0.08865369 -0.12016928 -0.06530835 0.0010179486 0.10947773 -0.038596954 -0.08795697 -0.007780596 -0.11539548 0.061953127 -0.120477304 0.06472812 0.04963944 -0.058269568 -0.110539086 -0.05272811 0.10337765 0.03446708 -0.08754787 -0.11417365 -0.051116746 -0.021640876 0.106739566 0.07199352 0.04185017 -0.12477776 -0.09990829 -0.025870858 -0.08716409 -0.0104565155 -0.05228662 0.03857007 -0.017438825 0.06948684 0.11866626 -0.074997924 0.08997365 0.041476715 -0.023958476 0.10793546 0.09449851 0.040236395 0.03316852 0.106034376 0.046083916 0.0070679067 -0.07030157 0.031168988 -0.023027264 0.030297555 0.002210122 0.07369604 0.054884024 -0.09499036 -0.069735795 0.05796589 -0.09873367 -0.053193927 0.059595108 0.09697263 0.04862604 0.05472321 -0.023226593 -0.050453156 0.037055742 0.06844206 -0.023009552 -0.006440253 -0.0137306275 0.044755097 -0.03343635 0.11329724 -0.0061180275 0.114600316 0.014821624 -0.012556246 0.0060383566 0.10787914 0.112890266 -0.030336998 -0.056669515 0.00538191 0.067724064 0.008428328 0.03214331 -0.049042918 0.09807817 0.024908833 0.118500195 0.06017569 0.003607725 0.018367585 -0.04189101 -0.114151 0.061410792 0.08599834 -0.10480484 -0.08428941 -0.07673021 0.050983615 -0.009400781 0.06141233 -0.06731295 0.055315778 0.030039243 0.11972937 0.12512209 -0.06227871 -0.0062944074 0.03464421 -0.118111335 -0.09965008 0.049754232 -0.04963581 -0.097350396 -0.09794838 0.10101923 -0.068167344 -0.07076886 0.07553832 0.082752936
محتوایی 0.056411292 0.11861403 0.109171376 -0.117295444 0.06489933 0.074117 0.0634498 -0.046415977 -0.052262403 0.07185507 -0.03546066 -0.00042234577 -0.046308834 0.010520708 0.049726486 0.07501753 -0.0925384 -0.050163556 -0.03278589 0.091260664 -0.03269605 0.054274328 0.024979843 -0.048302446 0.061879676 0.05112963 0.105155274 0.09699605 -0.09141063 -0.09827296 0.045659546 -0.024425281 -0.1008737 0.0973457 0.046220873 -0.01694681 -0.104043044 0.026781589 0.042255983 -0.048035648 0.06420269 0.07112434 -0.10663185 0.06269426 0.117851675 -0.09364304 0.00061609235 0.10463447 -0.04514912 0.021466378 -0.052551895 0.044874042 0.044415615 -0.097855695 0.024379233 -0.08181511 0.03530941 0.035768352 0.117761314 0.097052395 0.09137097 -0.10677644 0.04889028 0.10280938 -0.077624395 -0.12171374 -0.11364848 0.08716608 -0.10835264 0.12077276 0.052954454 -0.008684485 0.07303147 -0.008115902 0.118320145 0.027547332 0.066589825 -0.09957699 -0.024357662 0.106023505 -0.0032674444 -0.11786991 0.083911724 -0.027505377 -0.10306175 0.10204927 -0.023051618 0.116741404 -0.08786721 0.034360196 0.029394638 0.013443906 0.051508877 -0.058826406 -0.02187093 0.029098596 -0.006522202 -0.09111838 -0.03256139 0.024322635 0.09353985 -0.021771109 0.0359141 0.012853976 -0.015643356 0.036487408 0.10405809 -0.01581806 0.047769397 -0.05386754 0.08940491 -0.10522905 0.06287819 0.017907485 0.0014760846 0.026791792 0.004197406 -0.09694201 -0.014964868 -0.047874223 -0.008053623 -0.09154075 0.07074046 -0.009898514 -0.039537974 0.10432303 0.041318793 0.041202728 0.0121352095 -0.114677176 -0.051563993 -0.057948466 -0.09066605 -0.012878189 -0.08619198 -0.027307428 0.011863818 -0.09998032 0.029540895 -0.03920565 -0.055101138 -0.09057149 0.035284836 0.10320895 -0.0114976065 0.06626617 0.090376794 -0.092716604 -0.033779643 0.10675526 0.10680678 0.03523373 0.044136398 -0.11365753 0.04843377 0.084294885 -0.06190744 0.06620824 -0.07123782 0.080585085 0.026922127 0.007686878 0.07448412 0.113965265 0.113004215 0.04721538 -0.08550473 0.052609224 0.030896148 0.052364577 0.037182942 -0.093451165 0.09802193 -0.029876469 0.114553675 0.022813875 -0.012540309 -0.11005705 0.028871093 -0.078214504 0.02200727 -0.08028109 -0.10224956 -0.11538441 -0.034446124 -0.024548693 -0.07584999 0.11307703 -0.06978726 -0.021769408 0.08776227 -0.036931682 0.10929932 0.08615253 0.03767758 -0.046663933 0.011306053 0.036790602 0.06059881 -0.117608145
تجربیسعید -0.07408795 -0.08000085 0.09025401 0.09719469 0.093057044 -0.08531409 0.032307032 0.1117063 0.010928574 0.09488473 -0.0319274 -0.08969382 0.073731154 0.06985716 -0.11676613 0.017820738 -0.021139614 0.054526895 -0.063193426 0.018689865 -0.04350283 -0.1151601 -0.031598993 -0.008342475 -0.058813088 -0.09257042 -0.026706154 0.07169007 -0.058119163 0.10527104 -0.0471396 0.10614372 -0.03330444 -0.008872886 -0.07477565 -0.08406387 -0.062113654 0.10272318 -0.02683258 -0.07012611 -0.093764775 -0.0057479534 -0.11331456 0.091771044 -0.10862638 -0.110953234 0.104729265 -0.07957261 -0.0809778 0.021621417 -0.0742839 -0.1007142 0.07771022 -0.08415919 -0.09744961 -0.10124667 0.06099747 -0.05163404 0.116813354 0.07984423 -0.0573477 0.037293743 -0.081133276 -0.04033779 0.04249435 -0.05451395 -0.010682977 0.097482696 -0.108077966 0.0796855 -0.004071742 -0.06462269 -0.05760003 -0.009791049 -0.0598484 0.015536912 -0.07647369 -0.050929032 -0.09850303 0.09304707 -0.06034718 -0.0962718 0.04272522 -0.033375714 0.006788167 0.05585923 0.0356883 -0.042686928 -0.06410785 0.0140187135 0.02050649 0.017900545 -0.044958025 -0.08839772 0.065544106 -0.01971671 0.012926607 0.11145249 -0.068587214 -0.028012391 -0.05729558 -0.0116103655 0.09325166 0.06873035 0.021626227 0.057483543 -0.070665345 -0.05130779 -0.11580363 0.07413485 -0.10524566 0.018490236 0.09465694 0.060590465 0.017013965 -0.011508851 0.11677288 0.09986865 -0.08141581 0.048685562 -0.07199255 0.11337066 0.024480151 -0.10070904 -0.04864858 0.067924365 0.012402203 0.018286483 -0.09931156 -0.037523836 -0.002774983 0.012173501 -0.0022690333 -0.0070153307 -0.027373161 0.014437646 -0.093287 -0.0048513534 0.045617495 -0.046901055 -0.10156063 0.031915106 -0.05108421 -0.009746069 0.09759546 0.10384847 -0.0990316 0.06342594 -0.018876998 0.055392466 0.09158764 0.0902114 -0.0038294608 0.012540592 0.08097894 -0.040095374 0.048421245 0.039949965 -0.09725738 0.018352369 0.04519035 0.11648929 0.023288814 -0.020907028 -0.08969855 -0.11187334 -0.07178004 0.10314213 0.05008269 -0.051205393 0.0062601957 -0.03129913 0.09801516 0.099485904 -0.08941119 0.052498512 -0.01566748 -0.015710214 -0.11632395 0.11794173 0.027511436 0.010921214 -0.07556958 -0.118229635 0.028492372 -0.048930574 0.015370986 0.099301055 -0.065553464 -0.10499313 -0.08733113 -0.008025926 0.019929897 -0.11649996 0.116417885 0.08697824 -0.09285994 -0.054338418 -0.114221714 0.090247385
﻿به -0.058711614 -0.04862349 0.05872446 0.0028771944 -0.11730606 0.054686412 -0.045871448 0.11606759 0.036119144 -0.093525365 0.024735494 -0.07448112 0.005188694 -0.0626766 0.0034926191 -0.109245226 0.06289097 -0.033690978 -0.06064747 -0.024871206 0.07686121 -0.020737873 0.10512161 0.10411067 -0.07667843 -0.08579954 -0.050338104 -0.05516505 -0.06863565 0.037110098 -0.079789594 -0.11229722 -0.047412205 -0.10765361 -0.09226503 -0.11180624 -0.0009085444 -0.117598236 -0.11785608 0.08089461 0.10572885 0.0061316392 -0.10314235 -0.012399484 0.06356593 0.06718641 -0.06475961 -0.10638064 0.10602895 -0.016567577 -0.042685986 -0.042828582 -0.0102057345 -0.048318353 0.0049715224 -0.053341687 0.00017837255 0.088068716 0.019390557 -0.09557388 0.012130607 -0.07362637 0.09418152 0.020240203 0.0041216547 -0.10088932 -0.09152836 -0.02673687 0.040184285 -0.055600654 -0.017962819 0.047570083 0.0716114 0.05173597 -0.076774776 0.024933344 0.023073887 0.047743235 -0.07375638 -0.03392153 -0.09325816 -0.09947841 -0.112175055 -0.11536771 -0.011430031 0.0068357144 0.0449478 0.021834547 -0.0042980523 -0.068850525 0.110268965 -0.10590572 0.08528331 -0.09814885 0.0346815 -0.064301625 0.08662381 0.034441877 0.0056667514 0.030070914 -0.069210574 0.11060597 -0.011318368 0.05112105 -0.019783314 0.057435524 0.049544547 -0.04177629 -0.11609158 0.11226625 0.061517842 0.023914944 -0.0063809734 0.07610252 0.0055258665 0.059050962 0.05457411 0.0398104 0.09612755 -0.11411981 0.11644129 -0.0578327 0.07766068 0.042679977 -0.05335767 -0.06484497 -0.11340581 0.037552938 0.012932075 -0.094331205 -0.07410853 -0.07936515 0.022377888 -0.009447833 0.103568636 0.048530664 -0.10067775 -0.07140355 0.024112431 -0.027264658 0.10893754 -0.04186035 -0.058254056 -0.11826575 0.11726609 0.115537316 -0.037895713 0.0766099 -0.09891759 -0.09427825 0.06772091 -0.018288735 0.08821697 -0.02557717 -0.10014505 -0.02737882 0.09522566 -0.0261466 0.119063124 -0.117851615 -0.016042294 -0.09044628 0.06965537 -0.08252639 -0.08149533 -0.056800656 -0.039313618 -0.025075275 0.10908911 0.1183022 -0.018802445 -0.08850211 0.000552997 0.08805833 -0.013495271 0.060451087 -0.057148762 0.044427264 0.04187595 -0.0393577 -0.106167965 -0.101216584 0.040724337 0.00826743 -0.033507466 0.039219197 0.042107135 0.045521215 0.100838035 -0.07604175 -0.10870538 0.08243447 -0.031533506 -0.06345718 -0.08709589 0.09681719 0.045970898 0.030224133 -0.059762374 0.05315958
طراحی -0.05164471 -0.0022983064 0.0361987 -0.110378705 0.04474826 -0.055621292 -0.10058987 0.08117368 -0.016469378 0.101084515 0.005318192 0.10024981 -0.03144561 0.07343525 0.08446438 0.012590311 0.066231005 -0.0394306 -0.047246873 0.071445584 0.062036794 -0.044090282 -0.022420773 -0.082276426 0.025436934 -0.059431046 0.10617872 0.070332855 0.08580324 -0.102742516 0.10261906 -0.08716142 0.09461442 -0.026968248 -0.03749587 -0.027985714 0.07239002 0.06829445 -0.10005255 -0.06845801 -0.0008610596 -0.108356014 0.052424755 -0.09158839 -0.023311026 0.04567862 0.10729847 -0.032321423 -0.025483016 0.011374828 0.11202288 0.03079002 0.050991517 -0.10976081 -0.0030461284 0.07899124 -0.013012244 -0.11988052 -0.0038163846 -0.036100283 0.034270946 0.06210641 0.071061 0.091817066 0.09061071 -0.0020147709 -0.08819836 0.026358718 -0.0129798595 0.024426272 -0.06617646 0.006039828 0.03301638 0.0663746 -0.08607887 0.083828814 0.095361464 0.0869373 0.11193522 0.07376842 0.10969625 -0.11373805 0.014792445 -0.09434912 -0.09535331 0.034265082 0.035354562 -0.018615693 -0.044351146 0.07837513 -0.012854046 -0.028021578 0.014174746 -0.05988052 0.11918383 0.07926065 0.05355821 0.026597643 -0.095308915 -0.044388045 -0.027044691 0.067018315 0.08530447 -0.07927027 0.079804376 0.07910756 -0.033300303 0.095884174 0.112192206 0.046002783 -0.055388708 0.013584018 0.10062608 -0.01492241 -0.08218173 0.10141981 -0.031437587 0.11303821 0.016159132 -0.11296814 -0.008456341 -0.10098091 -0.091535605 0.044287663 -0.058535412 0.029461885 0.02300662 0.06064638 -0.090475656 -0.062496755 -0.026510274 -0.038479704 -0.043297052 -0.012420982 0.035132267 0.06501698 0.027317708 0.11287897 -0.10219902 0.0992653 -0.01366491 0.025025267 0.07691605 0.038450632 0.0022617332 -0.07138117 -0.06803736 0.11562066 -0.06347285 -0.07430481 0.020250436 -0.013878009 0.011371432 0.093458824 0.04052419 -0.08117271 0.07530798 -0.044455115 0.024845127 0.06858239 -0.10581862 0.081558965 -0.05226161 -0.0686652 -0.103467576 -0.08816463 0.08388546 -0.11174952 -0.07950144 0.11399746 0.08652754 0.10083577 -0.07114674 0.081476554 0.009328705 -0.097532004 -0.060333066 0.0023930783 0.018045653 -0.014043276 0.04236235 0.051967215 0.11292996 0.08433297 0.04114801 -0.076710194 -0.11973072 0.10307832 0.07883245 -0.08129196 -0.023504598 -0.049543012 0.106347784 0.0068657226 0.0701679 -0.08411612 -0.10246436 0.08505216 -0.10661405 0.09812538
