181 200
در 0.059013586 -0.021195175 0.07343245 -0.092240565 0.013125758 -0.07049197 -0.091556996 -0.035156667 0.087188706 0.018730914 0.055492096 -0.08331276 0.120331675 0.1040897 0.019837597 0.03464641 0.041905854 0.061817374 -0.03272225 0.038809486 -0.0628458 -0.025419833 -0.0358856 -0.034054082 -0.10121624 0.005245775 0.103464216 0.053394962 0.01724855 0.09542134 -0.04823169 -0.009565085 0.06530614 -0.029294305 -0.08153877 -0.029463354 -0.04853279 -0.051032368 0.12320709 -0.04131985 -0.010579417 -0.017395023 0.10989355 0.12141382 -0.07911035 0.03969891 0.021812445 0.08338761 -0.015367923 0.057651896 -0.027347427 0.0071762674 -0.0750233 -0.07568633 -0.022294927 0.011672855 -0.029769048 0.037718095 0.022743255 -0.07465872 -0.06748663 0.05303362 0.016573697 -0.023039227 -0.09783653 0.02383953 -0.07991329 0.046617404 0.03652369 -0.10616435 -0.058698203 0.10279484 0.005375653 -0.040093593 -0.10357507 0.028268106 0.11288008 -0.0078094807 -0.09792567 -0.021607086 -0.044503473 0.089483805 0.0018213349 -0.023225078 -0.103331015 -0.009706703 -0.11915744 0.027201282 -0.110533714 0.021832213 -0.047111347 0.07649182 0.021356098 -0.059174046 0.121312544 -0.0008945608 0.020289868 -0.09638327 0.11544021 -0.11928327 0.060725044 0.09128851 0.10654191 0.044713926 -0.08875816 0.08817113 -0.06509705 0.039989017 -0.054858055 0.007097724 0.06419194 -0.061498053 0.07750877 0.021663573 0.06753769 0.02472071 0.09521888 -0.048956387 -0.06938596 -0.086007595 0.06849278 0.06227467 -0.105884805 -0.050435606 0.047158737 -0.11527594 -0.107695214 -0.030527676 0.10718875 0.03184578 0.051634364 -0.0047216164 0.102050446 -0.10901225 0.05596925 0.019932577 0.10883254 0.11234282 -0.04221467 -0.11165312 0.060429666 -0.115084805 0.08687317 -0.112664536 -0.07477135 0.04200772 0.055818256 0.11843381 0.10181428 0.11061717 -0.109505124 0.036117993 -0.050856583 -0.06737221 0.09776185 0.11117585 0.043680076 0.07285985 0.004249238 -0.03109945 -0.003499293 -0.07173335 -0.09720888 -0.06832553 -0.021973852 0.06932332 0.08061116 0.08900438 0.018157333 -0.05502939 0.035098605 0.1247361 0.10602693 -0.12133978 -0.075393975 0.046330996 -0.07089748 -0.01891859 -0.11830746 0.057347838 0.11550713 -0.04967705 -0.105790466 0.05993453 0.019126715 -0.029025162 -0.04018037 0.031647842 -0.05811305 0.041904543 -0.0022916675 0.07398411 -0.03186663 -0.10130334 0.09870612 0.027907254 0.05440287 -0.11021055 -0.09621416 -0.0517834
از -0.055504065 -0.01932884 0.030058851 -0.13019623 -0.017363759 -0.04940009 -0.02866644 0.03117416 -0.12684862 0.07338126 -0.090284854 -0.063470475 0.07683899 0.093373165 -0.07683621 0.022933874 -0.053635724 0.084867075 0.06432974 0.06519279 0.027272176 0.111015424 -0.026024614 -0.06255052 -0.111383274 -0.0467491 -0.059394386 -0.10048765 0.10953649 0.10970679 -0.124634 0.11350096 -0.04981492 -0.08755824 -0.09839844 -0.0757961 0.045764998 -0.054632436 0.020954361 -0.044179346 -0.030557433 0.036640808 -0.047092702 0.0033071644 0.0892215 0.057747655 0.028185451 0.103838645 0.12676977 0.008255959 -0.07171825 -0.10489393 -0.12100453 -0.08760172 -0.028746858 0.006433085 0.061914846 0.118277244 -0.052437052 0.11793535 -0.04020327 0.02129683 0.009659192 -0.112642124 0.027490083 0.05041229 0.067142054 0.043777317 0.09052644 0.020825848 0.036968354 0.08540028 -0.1333134 -0.08182954 0.049054224 0.003920834 -0.006510722 0.09234153 0.10787434 0.016621245 -0.08473015 -0.124926694 0.050415438 -0.08175206 -0.06892191 -0.053071056 0.076864876 0.07705139 -0.041691914 0.028547497 -0.06395088 -0.12338057 -0.05622367 -0.011112359 -0.04285139 0.043644834 0.10238007 -0.016144978 -0.122813 0.10195715 0.038908772 0.046939295 0.04885864 -0.017272323 -0.01057449 0.014854457 -0.09219944 0.042515952 0.040078267 -0.062265895 -0.104435794 0.05028624 0.12775657 0.112477556 0.007341812 -0.06087561 0.048403576 -0.033765554 0.10407027 0.07433778 0.027103184 0.009805571 0.01453345 0.05014815 -0.034968473 0.057597138 -0.093620375 0.12633613 0.08657243 0.09407481 0.022261964 0.10423412 0.061957933 0.066112354 -0.040331256 0.03520132 -0.05375169 -0.10352563 -0.11806618 0.09173759 -0.054135706 -0.12708254 -0.04728256 -0.08187294 -0.093482114 0.022560926 0.11106718 0.037678465 0.047405474 0.007561089 -0.0123735815 -0.06796131 0.07276937 -0.07285153 -0.09360658 -0.07461033 -0.063087426 -0.03500019 -0.039628856 0.08266628 0.11302907 -0.022023814 0.10140239 0.06859504 -0.112678714 -0.060119957 -0.034223437 0.039129492 -0.018137788 0.042245418 -0.11596068 0.11000599 -0.017716104 0.008385183 -0.00598676 0.07712143 -0.03703981 -0.05592846 -0.022009254 -0.06955694 0.031809576 -0.052733485 0.07092571 0.08711754 0.05246939 -0.006379848 0.05986849 0.04486065 0.025348248 -0.10191703 -0.016195094 0.018345796 -0.12165173 -0.015224351 -0.025837345 -0.021470316 0.030629868 0.030688206 0.04911679 0.07599902
این 0.121459335 0.102260925 -0.05700505 0.016131451 0.102215774 -0.05095771 0.047222853 -0.0007597098 0.06529559 -0.047568258 0.08379873 -0.07649649 -0.03859036 -0.045936607 0.08883149 0.056043077 0.07062527 0.043867595 -0.09127969 0.11928134 0.08370957 -0.08261794 0.087159954 0.04556332 0.008165937 -0.03844192 -0.022832647 -0.08182255 0.08675627 -0.09022437 0.0173896 0.09303474 0.041171048 -0.07043965 -0.0362307 -0.04411659 -0.11152266 -0.040627297 -0.046338126 0.01970417 0.08368349 -0.019459488 0.11510197 0.040728115 0.094882764 0.0521027 0.114516325 -0.11730541 0.052089166 -0.01931863 0.1088056 -0.026392767 0.00037038114 -0.0051413877 -0.10647338 -0.11217431 0.026356125 0.0703808 0.0747755 -0.0921572 0.10471017 -0.018948998 -0.08134563 0.07036101 0.088270776 -0.043022905 -0.07160291 -0.0072373766 -0.066181034 0.01830723 -0.12651843 -0.079336286 0.016817696 0.0065298113 -0.11141323 0.08862432 -0.01817094 -0.10097812 0.119247146 0.1148622 0.03547442 -0.05919114 -0.11169974 -0.029005123 -0.10861914 0.0033012077 -0.02577889 -0.05929818 -0.07894883 0.06418749 0.037691325 -0.08322001 0.0998203 0.0779754 -0.106832676 0.086072475 0.045207676 0.10392055 0.074243635 -0.06747601 -0.03303758 0.08690641 0.004432303 0.0041547194 0.11400783 0.01703784 0.09583435 0.10959417 -0.046208255 -0.0800466 -0.08433267 0.08356147 0.036759526 0.004937379 0.06741714 0.009779555 -0.07071675 0.09938699 0.07693196 0.006988517 0.06754878 0.022620348 -0.07127403 0.025046967 -0.078214385 -0.07357392 -0.076777875 0.093910664 -0.0057298485 0.070686445 0.03584798 -0.029263763 -0.08924219 0.08942139 -0.015929244 -0.014094486 -0.015846001 -0.11296246 0.0020495572 0.106025204 0.024487639 -0.044933513 0.008196989 0.080535285 0.11285247 -0.021809448 -0.06881715 0.030750062 0.064897664 0.10545568 -0.097887695 0.03508949 -0.01795985 0.03710662 0.08749654 0.043877076 0.029578645 0.09610176 0.08790075 0.10280381 0.020083893 0.030862981 -0.01112029 0.035445604 -0.10216021 -0.06342961 0.046578262 -0.07207449 -0.11308364 -0.062369 -0.07345627 0.10851154 -0.014265559 0.001312202 -0.10935689 0.024807308 -0.08756218 0.0022986664 0.08804374 0.027072698 0.060627256 0.110897 0.09664046 -0.034888 -0.08523583 -0.10027675 -0.042039182 -0.025913171 0.0065508527 0.075357355 0.015825426 -0.08317555 0.012692312 -0.11614383 -0.013028118 0.038727276 0.040726688 -0.006320655 0.081790134 -0.115859404
که 0.08596446 0.06695761 0.024040833 0.03844649 0.060459122 0.030065984 -0.06632237 -0.07799474 0.027140006 0.06500764 -0.11596255 -0.10622491 0.042188168 -0.009548605 -0.05934934 -0.060745332 -0.020769896 -0.019296555 0.024286164 0.0022111114 -0.013590373 0.044643518 0.02443914 0.0736114 -0.042177424 -0.09262666 -0.03226805 0.11777795 0.0067091514 -0.05947569 0.062380634 0.027685896 -0.05148498 -0.10031535 0.12443248 0.09409424 -0.005461773 -0.0016229003 0.11004118 -0.09478117 -0.051092718 -0.055018336 0.032837987 -0.048215825 0.09575718 0.015846657 0.03320111 0.032362644 0.021983733 0.07113575 -0.10266246 0.038455624 -0.06135936 0.045443077 0.0378738 -0.092159614 0.041940242 0.022453016 0.04965616 0.10496818 0.08868908 -0.096724555 -0.11198692 -0.05252651 -0.006366154 -0.05611345 0.11232118 0.047121003 -3.2880384e-05 0.11031426 -0.06850683 0.09631516 -0.095882066 0.10607681 -0.090430684 0.014612548 0.06796701 0.12819721 -0.02808936 -0.11449192 0.036824457 0.079344936 0.05687548 0.04168953 0.057051327 -0.08863712 -0.10896788 -0.038276494 0.04309302 -0.075158514 -0.11492134 -0.015948778 0.021317149 0.071683146 -0.0071039964 -0.07382323 0.12704085 0.097646415 0.1020611 0.041391347 -0.04554871 0.028487248 -0.070021674 0.006382986 0.073873654 0.04339056 -0.08370234 -0.062218186 -0.03553356 0.10851617 0.104584165 -0.016145503 -0.029966779 -0.02633003 0.1144939 -0.08791526 0.063600935 -0.050441295 -0.082624696 0.07214004 0.050800342 0.0037437181 0.026794532 -0.030660087 -0.017082373 0.023115365 -0.002835519 -0.10324058 0.03134619 -0.061712548 0.0016632305 0.066833355 -0.088551864 -0.055319514 -0.11901541 -0.04116307 -0.088661276 -0.009148108 -0.042093817 0.009481567 0.06472332 -0.09678396 -0.056310844 0.085695826 -0.10953848 -0.09561102 -0.100675754 0.042791884 -0.11064007 -0.05992261 -0.10983292 -0.025100986 -0.050613403 -0.044466555 -0.06825904 0.12024351 -0.106250785 0.09914969 -0.08864739 -0.024310842 0.07686394 -0.063348085 0.033670366 -0.0150136445 0.056333434 0.04780375 -0.04597175 0.00859529 -0.02080989 0.0278135 0.06752485 0.12533179 0.0077044005 0.07114355 -0.03795434 -0.090261124 -0.10617641 0.11083011 -0.12684311 -0.067119904 -0.04060869 0.015219441 -0.11223616 -0.05015826 0.10482474 -0.008209377 -0.06605887 -0.10598073 -0.10629013 -0.05970523 0.07815843 -0.07996952 0.08532898 0.008971883 0.008238154 0.10520097 -0.06856295 -0.110913016 -0.04129756 0.12070526
افسردگی -0.034554627 -0.110894665 -0.0024905296 -0.04216428 -0.1011393 -0.053175814 0.105049685 0.10172612 0.07354931 -0.110480756 -0.0068597123 0.06862557 -0.008091115 0.107962325 0.10072251 0.02554656 -0.024767103 -0.09831668 -0.0018610643 -0.06996906 0.06251739 -0.059749745 -0.035605006 0.023604847 0.038773913 -0.08461046 -0.10255432 0.08298327 -0.024286442 -0.03974925 0.06778343 0.09867658 0.0418648 -0.044247583 0.12188091 0.085521 0.06949461 -0.07120858 0.07421768 -0.084664255 0.044523805 0.094092265 -0.0968896 -0.058053315 -0.02878292 0.06896356 0.08039484 -0.05008306 -0.03339892 0.10927884 0.10096362 0.022837592 0.093951285 -0.04677314 0.025511833 -0.045909274 -0.033329517 -0.007992614 -0.089202434 0.036085825 -0.013959851 -0.011559374 -0.03107593 -0.029328624 0.086327225 -0.04412844 0.10070377 -0.092659 0.113347895 0.029853204 -0.1344608 0.06616379 -0.07188002 0.09218794 0.0026130313 -0.09078573 -0.02406458 0.105488494 0.04288759 0.06806154 0.08031906 -0.08470808 -0.070828065 -0.09037997 -0.07506501 0.029862499 -0.008700623 -0.024247115 0.06783655 -0.021799633 -0.03536379 -0.034921266 0.018313188 0.047253184 -0.018955579 -0.0668433 0.017926132 -0.022366893 -0.092741795 0.1060379 -0.10144254 -0.07931583 0.072427444 0.08772499 0.12389981 -0.078173034 0.11339091 -0.08284787 0.10985036 -0.030982153 -0.11136187 0.028458927 0.07767962 0.017142812 -0.02934118 -0.05288787 -0.009583909 0.08973409 -0.108088166 -0.011723894 0.11754237 0.08756679 -0.08565077 -0.00082153204 0.059658885 -0.083921656 0.11104611 -0.003220766 -0.031643 -0.08259361 -0.04949231 -0.036123067 0.10293175 0.023943277 -0.12468519 0.03575358 -0.0648823 0.078326486 -0.06964119 -0.058833003 -0.07339558 -0.05675256 -0.09893656 0.029990394 0.043956745 -0.04628991 0.015629347 -0.023539478 -0.0694798 -0.08033488 0.104209885 0.029277373 0.10331805 0.060162976 0.05128766 0.042829994 0.05706155 0.023690699 0.029030234 -0.08058314 0.06752828 -0.10212262 -0.03338782 0.059233688 0.027375046 -0.013442309 0.08111768 -0.06148986 0.06795894 -0.018685812 -0.080558114 -0.04553908 0.08603458 0.08138343 -0.05179623 -0.043098614 0.03380883 0.086541556 -0.12463687 -0.02394971 0.11396372 0.10575631 -0.041256655 -0.09341939 0.07213031 -0.049085256 -0.0462929 0.10212996 0.11704004 0.023101842 0.11206161 -0.010687 0.09120369 0.058609366 0.060333926 -0.11393447 0.025309598 -0.05009516 0.05335923 -0.09903266
به -0.013738359 0.08139174 0.032713212 -0.0257557 0.032131925 0.095291615 0.0917323 -0.029307881 0.02129473 -0.018317189 -0.11664248 0.059097104 -0.07129784 0.088964276 -0.06314386 -0.012939342 -0.119767 -0.0726446 -0.07728793 -0.110856414 0.043162696 0.08871076 0.0116322525 0.033583175 0.10173734 -0.03827423 0.084805734 -0.10072624 -0.0514205 0.030908346 -0.003792305 0.093603 0.08467052 0.08273858 0.0043965927 0.040652253 -0.036634147 -0.04368588 0.057897676 0.09935704 0.0704981 -0.06843409 0.068285994 0.04123482 -0.02318995 -0.027540568 0.054057952 -0.04856085 -0.025143743 0.07748839 0.03143864 -0.07718701 0.049719166 0.039563272 0.0723822 -0.044162236 -0.015906515 0.08717142 0.0010127908 -0.079337694 -0.09557277 0.05624593 0.08947321 0.10737848 0.119310915 -0.030481685 -0.11617365 0.07245018 -0.09772988 0.0001642086 -0.017026942 0.0519137 0.016959272 -0.07035035 -0.09278818 -0.024155978 0.030506046 0.10636202 -0.041279994 0.070795774 0.069807 0.025806375 0.08552322 -0.08187164 -0.04022959 0.011770499 -0.084303185 0.1051831 0.014420014 0.015794624 0.114624366 -0.03927719 0.053396802 -0.10931867 -0.030031603 -0.002110602 -0.039897665 -0.040208027 -0.060518827 -0.1149956 0.02822735 0.0152759375 0.12921949 0.110131495 -0.05283654 -0.11796107 -0.102401525 0.09011324 0.063637264 0.04935435 -0.019325493 -0.04060842 0.017661918 0.09981079 0.027182357 -0.06997508 -0.050231904 -0.06592951 -0.002405928 0.11424529 0.057065044 0.0030355987 -0.05078027 0.08229691 -0.033374853 0.103618786 0.100466914 -0.063211605 -0.05876254 0.026187234 0.019749666 -0.08070273 -0.09872477 0.00029633075 0.086175025 0.021387244 -0.013119688 -0.11702195 0.077225514 -0.06638792 -0.05575877 0.10135972 -0.10275588 0.11036988 -0.07290851 -0.067265935 0.07915472 -0.08127156 -0.040774673 -0.12181182 0.088721275 0.027780417 -0.09805906 0.07632777 0.08994506 -0.06789153 0.11692068 -0.040767357 0.020114504 0.069904245 0.03976988 0.10396029 0.12792297 -0.01632279 0.12128597 -0.014649201 0.10038129 0.044842515 -0.00052548136 -0.089094765 -0.011713385 -0.05708031 0.0090248 -0.093800195 -0.10829423 -0.0648442 0.06533099 -0.06569082 -0.056864165 0.048707392 0.08724474 0.08677124 -0.08533885 -0.08572411 -0.11696173 0.06754072 -0.05423437 -0.08828616 0.073700294 0.075060494 -0.09921044 0.08471287 0.04857211 0.028199451 -0.012738501 -0.0790072 0.031591028 0.009505277 0.06776107 0.09299626
است -0.04739156 -0.046905097 0.04662758 -0.075016744 -0.01391436 -0.08432197 0.09928573 0.089925 -0.08837998 0.101172514 -0.11714207 0.11386849 -0.042591125 -0.07609927 0.029570037 0.03876736 0.050425507 0.02822254 0.09155993 -0.035724815 0.055149555 -0.050721943 -0.06853388 0.08087062 -0.07434493 0.06903961 -0.10674534 0.07155209 -0.09067276 -0.014574565 -0.075713806 0.032334507 -0.045186322 0.00463567 -0.0052395226 0.030171273 0.019743405 0.006166027 -0.04995815 0.084832005 0.0077394713 0.019622773 0.06568835 -0.074328795 -0.0590322 0.028304476 0.013316451 0.106516965 -0.1043942 -0.031000795 -0.08216634 -0.029699504 -0.06981407 0.09298323 -0.08899418 -0.012123455 -0.010056349 -0.0663518 -0.102185465 0.04751747 -0.0774089 0.021154296 -0.05356473 -0.10405804 0.08497115 -0.008554023 0.07971211 0.058827374 -0.07027222 -0.02767757 -0.046380974 0.0012357384 0.052180663 -0.111922696 0.0021602134 0.022358926 -0.080888815 0.07510299 0.042390402 -0.046570327 -0.09882691 -0.046585057 -0.053964324 0.09938296 -0.061408725 -0.09769294 -0.049116846 0.084261484 -0.092760555 -0.06627815 -0.08557267 -0.02256427 -0.054264117 -0.08141521 -0.03317935 0.0943734 0.065072805 0.07455636 0.08487314 -0.028896501 -0.022704445 0.09711773 0.052152008 0.0224379 -0.09647872 0.03747689 0.10029067 0.10666262 0.0928764 0.029270936 -0.08319557 -0.04710888 0.021414556 0.10888897 0.08421716 -0.06061056 -0.07915666 0.11178657 -0.0848363 0.06981313 0.09353496 0.06004392 -0.006711886 0.11015113 -0.022402737 0.040844195 0.053794596 -0.08504161 0.00054601306 -0.07265584 0.11954225 -0.012556278 0.020624628 -0.09907305 0.10621266 -0.0728933 0.104512826 -0.11717051 0.09894204 -0.012624175 -0.044165216 0.019281756 0.0804296 -0.095483944 -0.11651304 0.08085183 -0.027064942 0.04688291 -0.0926961 0.09594564 -0.10182753 0.050708067 -0.013178369 -0.0020754377 -0.0497658 -0.043324366 -0.006178329 0.025216471 0.08784466 -0.058518663 0.11752692 0.105538204 0.10012741 -0.043310456 -0.002525406 -0.05234282 -0.0068250555 -0.02335417 -0.04768411 0.02195462 -0.05913553 0.070132144 0.09897974 0.032096766 0.11815947 -0.024901377 0.03628836 -0.093266085 0.047849845 -0.014915604 0.07509946 0.11161604 -0.1072948 0.06702007 -0.057862323 0.075326614 -0.07555749 -0.08516261 -0.10912136 -0.062488485 0.089749135 -0.086019196 0.10717702 -0.07063798 0.08207382 0.11954732 0.073574714 -0.0586714 -0.054732937 0.07569059
رژیم -0.016844023 -0.0080326805 0.042683605 -0.10201435 0.1190062 -0.036873702 0.0027575186 0.08925306 -0.10549519 0.10970578 -0.0260869 0.03054409 -0.07067808 0.0831463 0.04444296 -0.065473355 0.042980112 0.05522256 0.018455299 0.010831372 0.11499161 -0.05392566 0.037707314 0.030716043 0.011264746 0.07277964 -0.030030312 -0.09977684 0.10085735 -0.013219923 0.024378171 -0.092214674 -0.082214795 0.095619164 0.06843244 -0.061507978 -0.105446614 -0.013960955 0.09669489 -0.028531663 -0.10868439 -0.0072889794 0.08211076 0.014524956 -0.102060854 0.028068079 0.10048284 0.1154234 -0.08301622 -0.086727634 0.06315776 -0.01760029 0.055926863 0.019287579 -0.11105631 -0.11307639 0.008252895 0.024367724 0.027092937 0.0807134 -0.018749567 -0.030628653 -0.028343888 0.03565272 -0.07697647 0.05928004 0.033549216 0.09939162 0.080009885 0.008001289 0.03359155 -0.0019737813 0.011346291 0.043648355 0.12071279 -0.002155924 -0.055287935 0.037405267 -0.016034238 -0.09599871 -0.021136494 -0.089058734 0.09095339 -0.08256915 0.08314621 -0.012157219 -0.0850912 -0.09325068 0.07687872 0.017062036 -0.0069515347 -0.09321677 -0.021764768 0.100231834 -0.030070301 -0.124155335 0.050325587 -0.044986285 0.028657725 -0.05430948 -0.023649266 -0.112188816 -0.020792758 0.1221401 0.0303871 -0.08696403 -0.105079204 0.00842315 -0.10713082 -0.028850973 0.09484725 -0.064217046 -0.10149101 -0.018027818 0.023858793 -0.070177786 0.07171384 0.103395656 0.090984255 0.023910103 0.10950316 -0.061455827 0.06521438 0.08908945 -0.0907512 -0.117980465 -0.11087556 0.10380508 0.11643694 -0.06985974 0.031232325 0.116159625 0.0856208 0.037840027 -0.050825987 -0.11342997 0.014842484 0.09720949 -0.08732176 -0.07052428 0.09331802 -0.052307848 0.006335035 0.039464295 -0.030547962 -0.11655147 0.049400084 0.010537125 0.07169617 0.060155343 0.0066038617 0.059414227 0.02036305 0.0026138325 -0.048642155 0.11140048 0.04315319 0.11520057 0.0046295756 0.10635086 -0.0017099734 0.029177094 -0.06960809 0.044143118 0.023607437 -0.10060004 -0.014222919 -0.11323712 -0.10483332 0.09373916 -0.09550692 0.06800758 0.09116159 0.04634562 -0.06920919 -0.07989838 -0.04331878 -0.0799952 -0.0058704987 -0.061484247 0.087537624 0.05013242 0.052786 -0.10495019 0.063510105 -0.11266841 -0.081320494 -0.019802494 -0.029733857 0.090495996 -0.08765115 -0.056192946 0.010905372 -0.0009273338 -0.07616273 0.07333235 -0.045513596 0.11242137 -0.059493117 0.039797418
و -0.11349775 -0.065151185 0.0014005125 -0.11182479 -0.034787178 -0.08053351 -0.044917412 -0.08714062 -0.088978246 0.06985945 -0.06828403 0.0025932975 0.079644956 0.029764844 -0.08458786 -0.052221768 -0.10685177 -0.016850794 0.07969343 0.036918245 -0.10780849 0.04211004 -0.10233797 -0.05168683 0.091742806 -0.053563975 -0.039071247 -0.023006096 -0.036488626 0.056267746 0.07247968 -7.8652265e-05 0.07351937 0.02885414 -0.08880352 0.10093263 -0.014808385 0.052927278 0.02605826 -0.032416914 -0.012919771 -0.0881987 0.06296262 -0.08817701 -0.07135515 0.0431597 -0.054166432 -0.070839375 -0.07576968 0.11570523 0.12165443 -0.07981981 -0.115641855 -0.07687578 -0.022762975 0.003171854 0.008320632 -0.067855746 0.107544415 -0.010950563 0.08787754 -0.107496366 -0.026387366 -0.056185365 0.08164333 0.0018191314 -0.09543847 -0.07971527 0.11569922 0.038856108 0.050010506 0.06686632 -0.023505261 -0.057705443 0.06655507 0.09196919 0.120132625 0.091567956 0.096986786 0.096883066 0.028108465 -0.045040675 -0.0052069235 0.07410806 0.04007927 -0.11728261 0.035386633 0.021856405 -0.09369558 0.012028405 0.12222972 -0.09191256 0.075055964 -0.037887055 0.011518579 0.058306485 0.03863608 0.1192978 0.045201782 0.023498528 0.113446385 -0.057142988 0.06803361 -0.04646119 -0.0026134106 -0.084210426 -0.045541044 -0.007471329 -0.02947052 0.059425335 -0.105621144 0.069535 -0.009425283 0.010656283 -0.0074507305 -0.06924011 0.0911512 0.10780415 0.0068888175 0.032732453 0.10512723 -0.055370532 -0.07322517 -0.10614738 0.11597983 0.06082181 -0.0075252173 0.085966825 -0.09743569 0.047199443 0.06516956 0.0488176 0.094088785 -0.03009421 0.04469693 0.09137061 -0.063889705 0.09170383 -0.009968673 0.08181434 0.119264595 0.101012796 0.09588099 -0.057120845 -0.06906637 0.0097337365 -0.030125914 0.07767729 -0.07998832 0.030426478 -0.079012886 0.084038205 -0.06617079 -0.013786172 -0.09544948 -0.08057606 0.06395092 -0.028642425 -0.029723952 0.0931851 -0.104331955 0.10139884 0.1233219 -0.024632 0.08728819 0.06963942 0.04908914 -0.048006102 -0.05956023 -0.010743708 0.08028272 -0.011680369 0.083234444 -0.07431833 -0.031046592 -0.03663378 0.05061114 -0.08642681 0.0399684 -0.0917961 0.06748331 -0.108815916 0.056296695 0.12413085 -0.073852696 -0.118562564 -0.07949694 -0.08627737 0.075627655 -0.08143654 0.10336352 -0.023055993 0.05135926 0.010146855 -0.05320322 0.005595757 0.008217005 -0.010731428 -0.067955814 0.0008852343
غذایی 0.07270469 -0.016023489 0.107457526 -0.028854344 0.07206839 0.116092965 0.0591163 -0.039320327 0.05105274 -0.08624494 -0.083278924 -0.058245275 -0.0009028291 0.00586256 0.040420707 -0.03594191 -0.022662278 0.12170478 0.079444736 -0.037415836 0.012231753 0.037040815 -0.024116814 0.07518409 -0.12358184 0.039234243 -0.022644209 0.059229616 0.12571073 0.059305165 0.014779915 -0.08966038 0.059514094 0.092763916 0.0811785 -0.057287868 0.10164474 -0.030581916 -0.000738986 -0.06550805 0.071789265 0.060189944 0.0074717076 -0.04778576 -0.06646301 0.12100429 0.0039964244 0.09044641 0.13014725 -0.055590313 0.047237527 -0.09192904 -0.10709591 0.10820115 0.054979436 -0.0922801 -0.023901807 -0.04190142 -0.08101466 0.0023465282 0.049147617 -0.08312004 -0.071356155 0.033698224 0.07217382 0.007083536 -0.051659204 -0.0065644314 0.016457533 0.08531961 -0.06612627 0.039163552 0.0217874 0.12430746 -0.01861964 0.117119074 -0.07024487 0.012422222 0.08963395 -0.08184802 -0.10230142 -0.098556586 -0.065142125 0.10606239 0.039173182 -0.04403366 -0.08020766 -0.049625993 -0.039438646 -0.013236307 0.07468471 0.07783857 0.07197555 -0.110856116 0.12182444 -0.084517546 -0.054722898 -0.015994323 0.049135704 -0.07888231 -0.054100323 0.019328365 -0.04617661 0.11787803 0.036449693 0.028541444 0.05031625 -0.07458098 0.03508674 -0.016708456 0.013019083 0.059127457 -0.033034302 -0.011886582 -0.11187298 -0.008883681 -0.066493265 -0.0031750984 -0.0027873113 -0.036765296 0.012908164 -0.025694106 0.02165577 0.11611864 -0.04520552 -0.014432927 -0.0386286 0.08836568 0.12705016 -0.078227185 0.02465244 -0.08679546 0.0007875323 -0.094819784 -0.11570005 0.028094068 0.063791506 -0.079752475 -0.13047896 0.0591467 0.03183277 -0.112284414 -0.018581513 -0.008473927 -0.10525584 0.09849263 0.04145742 0.09464419 0.08550864 -0.060437527 -0.07770661 -0.09396197 0.12033689 -0.033160694 -0.031919748 -0.11343786 -0.031544182 0.065179564 -0.05931793 0.01096822 0.042302378 -0.110808425 0.00096612883 -0.059255604 -0.06777737 -0.075079635 0.08946628 0.04967279 0.08858201 0.076401934 0.05051966 0.04235439 0.09440832 -0.10507478 0.08969321 0.011283882 -0.013680893 0.083364874 -0.10208045 0.09616728 0.07849226 0.03978742 0.01995443 -0.025200902 -0.113413475 -0.049489092 -0.0113355275 0.025233217 -0.08620076 -0.12066753 -0.032807797 0.061602592 -0.101465404 -0.008674626 -0.1115257 0.12028491 0.07253744 -0.104145326 0.10583731 0.05982873
چربی‌های 0.12525518 0.020159747 0.015499664 -0.09285458 0.048070047 0.0034882645 -0.02058449 0.118587606 -0.02738809 -0.030451313 -0.04869108 -0.04113117 -0.06221114 -0.06194704 0.08959775 -0.08829405 -0.028494637 0.06234889 0.07452726 -0.058784198 -0.0042938213 -0.11586329 -0.006057512 -0.09285221 -0.016223054 -0.06919 0.0334237 -0.07432391 -0.033523977 -0.04909161 -0.009631838 -0.07886902 0.06933301 0.017575633 0.008044219 0.0523589 -0.10940923 0.044984013 -0.044986665 0.05964615 -0.023113633 -0.05455625 0.109277174 0.08937786 -0.033909988 0.043003388 0.00195504 0.02467388 0.10461685 -0.08391527 -0.03888788 0.010296226 0.021502238 0.07433608 -0.110447936 0.019352729 -0.04303552 -0.09797074 0.07143922 -0.06419681 0.098880015 -0.027561143 -0.11178704 0.07739281 -0.020982584 -0.05323764 -0.0993361 0.098049566 -0.0114554055 0.08912345 -0.10161438 0.12532446 -0.08688093 -0.011412109 0.03463933 -0.08147073 -0.026093401 -0.02747248 0.108661 -0.063775025 0.04441058 -0.021171968 -0.1130168 -0.039265852 0.08110837 0.06563982 0.09909676 0.052690595 -0.023115875 -0.003018321 0.030038293 -0.030743295 -0.08759754 -0.11161684 -0.08946548 -0.0016541962 -0.055679526 0.031508368 0.069240965 0.09401212 -0.052880988 0.12661287 0.12730917 -0.08257199 0.009635796 0.08178612 0.11587654 -0.040885206 0.035514567 0.059841 0.066329665 0.045321785 0.042484812 -0.082054235 -0.042981096 -0.04702664 0.108276784 0.043840952 -0.09870924 0.084778085 -0.05173306 -0.0383309 0.01795794 0.052041553 0.052435007 0.039591245 -0.070748806 -0.082230985 0.07040016 0.010090238 0.08937828 0.01085077 -0.07135717 0.023625363 -0.10730807 -0.009927 0.06346886 -0.016608842 -0.021864517 -0.124088734 -0.059026316 -0.03227188 0.12626374 0.056563325 0.07451879 0.06387639 0.087088935 0.093120694 0.046726163 -0.119139105 0.032637067 0.015194626 0.02966592 -0.10759476 -0.00017807445 0.12091809 0.101814106 0.116063915 0.08912423 -0.095991254 -0.089709 -0.022797322 0.09163825 -0.029414652 -0.03462826 0.027394144 -0.08834052 0.04364535 0.10469947 -0.023168446 0.061861448 -0.10934502 -0.061830558 0.048606724 0.12405367 -0.097556695 -0.083223924 0.09065655 0.103249215 0.10628199 0.036160138 -0.0703897 0.018371567 -0.017145876 0.121486604 -0.08500234 -0.100690074 -0.062129162 0.07100209 0.004434284 -0.026266312 0.07963723 -0.07107666 0.052916467 -0.07560562 0.07477093 0.09644866 -0.008017832 -0.04454531 -0.11497627
را -0.08606692 0.06320468 -0.08882941 -0.10147704 -0.011268949 -0.10360461 0.07898653 0.08902341 0.06860627 0.06566055 0.109960064 0.036009565 0.12039153 0.115638204 0.0234596 -0.08100768 -0.117188826 -0.05905566 -0.1156186 0.108570874 0.021738458 -0.08255457 -0.08147316 0.08628548 0.05373812 -0.034683965 -0.083113596 0.060595002 -0.0075751184 0.009307833 0.045731023 0.11197031 -0.10271445 0.112556644 0.027167052 -0.08871307 -0.1112945 -0.12085298 -0.08998615 0.09104069 0.019231431 -0.054189365 -0.032590717 -0.06535463 -0.041389626 0.016636416 0.11559549 -0.012804982 0.046807893 -0.0034061468 0.07776694 0.03690102 0.0741179 -0.05367573 -0.099564426 -0.0030082958 -0.0032952798 0.08777294 -0.08807467 -0.09091861 0.07585369 -0.07814461 -0.07605803 0.11922069 -0.014383693 0.063078746 0.0024454142 0.113299206 -0.04136345 -0.028487753 -0.06862346 0.04884124 -0.023768285 0.089885235 -0.07607269 -0.08145672 0.054756917 0.06445657 -0.105963446 -0.03809951 -0.07352269 0.017941317 0.115763314 -0.10389683 0.087611236 0.08156932 0.08072328 0.06967764 0.027261805 -0.049166463 -0.10858476 -0.065533035 -0.056942157 -0.07505725 0.1122212 -0.025807321 0.035958044 -0.053474583 0.022958638 0.028543487 -0.069413975 0.07649816 0.08527297 0.037684266 -0.105655506 -0.052839182 -0.09262792 -0.09434198 0.034190755 -0.032361794 -0.023435457 -0.06082566 0.047695175 0.011267334 -0.053583037 0.058170926 -0.06370433 0.08531733 -0.060230076 -0.07370751 0.06310211 -0.016376538 0.07414158 -0.05095985 0.11717897 0.10827669 0.044412967 -0.06718552 -0.06796003 0.019631233 -0.09681932 0.0926636 0.07270796 -0.045141574 -0.01638913 0.07894551 0.025735224 -0.02812014 0.09396871 -0.1044858 0.08813881 0.04067871 -0.034644414 0.025007514 0.03707691 -0.059019532 0.012451258 0.042813566 -0.012750592 0.063391924 0.0048889555 -0.058402453 -0.051356487 -0.11167917 0.09910978 0.05888917 -0.044779766 0.0064361454 0.08798379 0.0903635 0.06883018 0.0026917711 0.10977026 0.042747602 0.11765362 0.047566682 -0.029876899 0.04401067 -0.007838707 -0.03219025 -0.09013157 -0.04101465 -0.023737153 -0.010550619 -0.05098894 -0.06569723 -0.02250658 -0.069537506 -0.11730936 0.013942899 -0.015161799 -0.102906525 -0.041501977 0.113605924 0.0873393 0.087534316 -0.082373716 0.0028319699 -0.084930554 0.010886378 0.016918655 0.094022796 0.06344898 -0.022822315 0.08268603 0.08677487 -0.042733226 0.016024258 0.09261649 -0.11103388
مصرف -0.055559363 0.08724844 0.0920342 0.060355075 -0.05810311 -0.061953273 -0.041326623 -0.07561942 0.109420195 -0.085695595 0.058858648 0.10884195 -0.031431984 0.085038185 -0.048865438 -0.04014331 -0.017954003 -0.06376169 -0.07794688 -0.030432627 0.105281666 -0.0053121755 0.02162143 -0.07743276 0.06273385 -0.10615102 -0.09541269 -0.017217668 -0.065905035 0.014794893 0.07643266 0.09004681 -0.013669689 0.022846818 -0.06820295 0.061407093 0.010140464 -0.08098899 -0.10786871 -0.018764703 0.02975776 0.07224355 -0.09379793 -0.0006333196 -0.053842556 0.022936244 0.11731048 -0.062494818 -0.02052787 -0.08009327 -0.054932196 0.057546925 0.04668546 0.004912508 0.039530944 0.066187404 0.025912518 0.08108395 0.04050346 -0.07626291 0.0039296253 -0.01691017 0.08798706 -0.021015162 0.10226736 -0.02922699 0.052919798 -0.030842494 0.09490131 0.089838594 0.098391235 -0.017715797 -0.10561611 0.07231663 -0.0466753 0.101551466 -0.015200277 0.055611867 -0.04973705 0.11364028 -0.03895165 -0.025173048 -0.10842803 -0.10641011 -0.00538404 -0.04354064 0.07318701 0.031019617 0.10813906 0.057088416 0.11605224 0.11202182 -0.0017050473 -0.06475179 -0.07253642 -0.11956184 -0.048906513 -0.08553415 0.028660182 -0.049668223 0.064232305 -0.02873964 0.11405539 -0.040270705 0.11457526 0.03400133 -0.06317699 0.114127666 0.047882523 -0.049708616 0.06942609 -0.09477972 0.011478875 0.116977535 0.011558655 -0.060680766 -0.0014626771 0.032705713 0.0741747 0.116227984 -0.004194421 0.055185996 -0.07932838 -0.06372952 -0.075415835 0.098718956 0.07390943 0.04471607 0.1185156 0.102029726 0.02303122 0.077960424 0.096141174 -0.108607486 -0.015544647 0.06149493 -0.061073966 0.03990412 -0.00864876 -0.007543536 -0.09578649 0.10999639 0.06864159 -0.030764773 -0.076330125 -0.105178304 0.0495211 -0.11068673 0.06527859 -0.032558706 -0.02741378 0.09965306 0.034228384 -0.056159444 -0.11464297 -0.044550814 0.046010472 -0.08363641 0.0004818956 0.033339106 0.005553614 -0.0790004 -0.1112516 0.016277205 -0.10913597 0.08773946 -0.091498114 0.041806903 0.097760364 -0.04398519 -0.015801735 -0.075903274 -0.107725754 -0.031908922 0.07917257 0.08557627 0.09397474 -0.08560726 -0.012660644 -0.11200975 -0.06375017 0.078386515 0.010969124 -0.11276127 0.1203301 0.054267827 -0.074154474 -0.011015112 -0.0050840946 0.026537223 -0.07073495 -0.07934047 0.059162885 -0.0748984 -0.08754149 0.008475562 -0.07786579 -0.031826135 0.11671893 -0.09097776
افرادی 0.055939674 0.085316494 -0.09012082 0.01880742 -0.009220135 0.044837426 -0.036146373 -0.043745678 0.0038471026 0.114343956 0.02028041 0.039675947 -0.04401801 0.062032677 0.0570437 0.07660123 -0.00556337 -0.09380601 -0.027094383 -0.052113067 -0.06906084 -0.1152098 0.02661099 0.005698152 0.11404038 0.04454604 0.09347673 -0.07214842 -0.053960986 0.08365386 0.02766298 -0.020190153 0.12727842 0.0042721997 0.008578688 0.09401919 -0.06732336 0.028896673 0.053686533 0.09285603 0.07545204 0.054257657 0.061922885 0.08310407 -0.04484699 -0.029676862 -0.04930031 -0.04262944 0.059639618 -0.07011579 0.012560013 -0.118465014 -0.044189285 -0.08151945 -0.085769914 0.050148707 0.11028674 0.116447024 -0.04923641 -0.010531504 0.09168043 -0.03307534 -0.062293924 -0.10750324 0.010458386 0.018607434 -0.017819518 0.06505656 0.013426409 -0.044779126 0.06376496 0.0022014072 -0.056343604 -0.10913468 -0.051944066 0.12420042 -0.009954218 0.06969716 -0.046105415 -0.05643923 -0.018141668 0.030029237 -0.12548833 -0.047530517 -0.10492119 -0.029794117 0.021473149 0.034632176 0.027722253 -0.05881712 -0.030800357 -0.04835314 0.064825445 0.0658857 0.08872381 0.0252272 -0.06668311 -0.08501825 0.070251964 0.030565003 0.057290383 -0.08276079 0.018460717 0.026536087 0.05203824 0.08966139 0.08391355 0.123494744 -0.12339588 -0.12654221 -0.10529587 -0.08060695 -0.12014135 0.046702005 0.08435873 -0.03498276 -0.05100494 0.067465216 -0.10999604 0.01844508 0.050691113 0.0450619 0.04000643 -0.109700866 -0.025149683 -0.09660581 -0.00018128658 -0.08192809 -0.11157565 -0.06958778 -0.08135308 -0.088654056 0.063583896 -0.09210332 -0.091826074 -0.049596913 -0.051479653 -0.10785933 -0.022116262 -0.126458 0.023524076 -0.067107245 -0.023782419 0.029639496 -0.014110487 -0.077125914 -0.12314779 -0.1230132 0.10116155 0.036174588 0.033373795 0.108659886 -0.039787546 -0.031837396 0.11649147 0.083451875 -0.023220787 0.048435688 0.093178146 -0.12100573 -0.11400683 -0.042865388 0.02849254 0.013885295 0.115474224 -0.13185579 -0.06855219 -0.078393206 -0.10728474 0.010226823 -0.031196447 -0.04040995 0.081719816 0.1132825 -0.03777362 0.076560386 0.060352974 -0.060092747 0.06735446 0.12390277 -0.035262424 -0.09271019 0.04416636 0.1039 -0.05371435 -0.074928895 -0.0037750185 -0.020871911 -0.008920135 -0.035027277 0.06756045 0.061483644 -0.08328783 0.03086636 0.09828411 -0.094976254 0.032491058 0.01949028 0.10786496 0.025533305
خطر -0.0013459806 0.10387556 0.08711074 0.084050246 0.113814525 6.2921295e-05 0.0075717927 -0.051551815 0.111345865 -0.023357239 0.106934465 -0.023429701 0.07880854 -0.05489571 -0.06975677 0.09980433 0.03511086 -0.06505988 -0.017631352 -0.06953647 0.02325198 -0.08504735 0.021799417 -0.089652814 0.050925095 0.058473125 -0.10082167 -0.027098417 -0.09002102 0.045071393 -0.019146347 0.0027038965 0.113981105 -0.09708368 -0.0011613806 -0.04026291 -0.019058468 -0.07945821 -0.02948158 0.12677325 0.024060365 -0.04321457 0.059438333 -0.04712277 -0.03095256 -0.08238654 -0.09635883 -0.021997709 0.08597955 0.024583546 -0.059181787 -0.026325481 -0.06670822 -0.124947734 -0.006599117 -0.097432256 -0.026373815 -0.08240707 -0.08971113 -0.015629258 -0.07023274 0.0733902 -0.069747604 0.11218585 -0.107415505 0.062182583 0.09096291 -0.041897677 -0.10383345 0.05471627 -0.108422786 0.09001458 -0.10978786 0.096944585 0.11807126 -0.09990922 0.118155226 0.060005534 -0.07892968 0.12508829 0.09873977 -0.039260045 0.04322023 -0.027515499 -0.013747046 0.03403513 -0.09268985 0.048706535 -0.053888183 0.07628244 0.02712212 -0.010968873 0.10822839 -0.01205758 0.027355598 0.0029599834 0.07405163 0.05468158 -0.0077210553 -0.06963027 -0.0022876486 -0.057949398 -0.04339313 -0.051385954 0.10798124 -0.051082786 0.05581377 -0.039237007 -0.12699237 0.050776962 -0.0828831 0.10313624 0.06928199 0.11538059 0.114063956 -0.029320236 0.088681474 -0.059279267 -0.09664886 0.05462004 -0.048416987 0.07668417 -0.13535808 -0.011250125 0.048470505 0.040802352 0.046959985 -0.029607376 -0.062362783 0.004669939 0.074491255 0.00022236146 -0.0045061135 -0.013959803 -0.01835168 -0.05787398 0.116571926 -0.08993186 -0.095867634 0.05832142 -0.012173024 0.05694586 -0.012593804 0.027123446 -0.0732353 -0.057893872 0.04553647 -0.05404859 -0.08236849 0.09906435 0.078386135 0.03871203 0.11661731 -0.074212156 -0.012371985 0.012343826 0.085552014 -0.08608342 0.103903495 0.07989996 0.10151369 0.039725065 0.034517653 -0.069568366 0.06029915 -0.008273439 0.09978461 -0.016585357 -0.067200854 0.10284526 -0.07134931 -0.06799633 0.012363415 0.04717636 -0.047918484 0.12545808 0.010903968 -0.036886696 -0.1068042 0.09609931 0.10251095 0.08905593 0.13132767 0.06578919 0.021965483 0.055553008 -0.13517334 -0.04323489 -0.038535524 -0.12128912 -0.010351678 -0.00094831956 -0.02033558 -0.0072271423 -0.033527575 0.1111584 0.027085979 -0.015368678 0.058215607 0.00085337093
یک -0.088287175 0.09339853 -0.027986873 -0.070418894 0.002284741 0.008032778 -0.05529853 0.11841066 0.054330613 0.05946495 0.0031895933 -0.013727867 0.058525313 -0.102257565 -0.089272924 -0.07646072 0.121624246 0.04879435 0.03494978 -0.10357382 -0.04345461 -0.10406797 -0.112645224 -0.053554 -0.10503231 0.031716898 -0.106087014 -0.027111093 -0.01673393 -0.018785067 -0.101080984 0.09641898 -0.00953495 0.003250189 -0.083201714 -0.076021306 -0.08176922 -0.118478574 -0.02013957 0.122560926 -0.07819159 -0.023271428 0.07088275 0.08454666 -0.061224565 -0.07351566 0.015830673 0.083792016 0.04581252 0.06345021 -0.033005733 0.09638614 0.026271455 0.11203052 -0.06336962 -0.004416203 -0.05455878 0.11356253 -0.072834164 0.0931075 -0.073886506 -0.11044196 0.04815833 0.11628578 -0.033787206 -0.11311006 -0.070843056 -0.10625765 -0.073222585 0.09187227 -0.10822306 -0.061389495 -0.063608296 0.042768154 -0.024511078 -0.06767391 0.07047177 0.09841293 0.09040324 -0.102858506 -0.07502343 -0.07794246 -0.0017951771 0.013354955 -0.013035687 0.098919 -0.060822047 -0.09463355 -0.07297041 0.030683637 -0.02462089 0.036325235 -0.052335847 -0.06317887 -0.06761365 -0.0038630466 0.046716165 0.12509345 -0.053705137 0.011713323 -0.11120232 -0.06962343 -0.0812054 -0.0118179945 0.05241748 -0.031839628 0.045823395 0.09117275 0.06371463 -0.07990341 -0.0024094249 0.037367646 0.036816362 -0.07418054 -0.090644255 -0.011143513 -0.0381001 0.08950677 0.06401688 0.09360302 0.040650226 0.032468423 -0.10318426 0.05948626 0.055496883 0.08204436 -0.07102468 -0.03232507 0.07843781 0.09771134 0.091091 0.036580704 0.109980166 0.018406607 -0.10687573 -0.0010575049 -0.016318234 0.04204782 0.037017815 -0.110767536 -0.013079882 0.06348759 -0.10268079 0.076528765 0.017175002 -0.0753783 -0.066275 -0.11899325 -0.115518525 0.060601342 -0.121118 0.10912401 0.021140171 -0.06898982 -0.04828634 -0.036192246 0.009482113 -0.03339824 -0.105184875 -0.002381883 0.12131759 -0.06978625 -0.022249324 -0.01241081 -0.070066944 0.021191575 -0.038085982 0.09500084 -0.05680179 0.09967487 -0.011716433 0.052957986 -0.037750006 -0.07118332 -0.000616355 0.013516851 0.011076441 0.016296772 0.0032850876 0.044545148 0.05285559 0.061413664 0.10860742 0.12358652 0.07848557 -0.028913787 -0.033256225 0.024127884 0.049194515 -0.01254946 -0.10197214 0.015102547 -0.08564427 0.017638912 -0.09368221 0.032345947 0.09505505 -0.10271365 -0.061792318 -0.10878381
می‌کند 0.10710329 0.011761622 -0.03998771 0.040671963 0.10642379 -0.0032856346 -0.031093404 0.04829933 -0.0709061 -0.06197046 0.06530205 -0.044202097 0.008014655 0.006807086 0.030493554 0.009203448 -0.04217168 0.09387436 0.11330582 -0.025672508 -0.064778656 -0.04510255 -0.000353409 -0.023916306 0.043160018 -0.09646715 0.07970151 0.08770134 0.006380947 -0.06250576 -0.06585818 -0.09984527 -0.107744135 -0.023438888 -0.077080995 0.015554706 -0.061479997 0.079234995 0.028402142 -0.06810885 -0.10918873 -0.105804764 -0.054629605 0.042871047 -0.09983785 -0.028759155 -0.11105455 0.00950177 -0.087367214 -0.0007920993 0.121955365 -0.06986692 0.06667431 -0.03154013 -0.10806506 -0.06480443 -0.033740703 0.075075395 -0.08653763 -0.020123659 0.0031769245 0.08458826 0.037001275 -0.105541416 0.040507384 0.12112496 0.01982784 -0.04733568 0.046966854 -0.1176011 -0.035228085 0.042249147 -0.03571131 -0.049145125 -0.013591564 -0.0329964 -0.07664724 -0.030112015 0.02020594 -0.02143557 0.06713919 0.012696168 0.008464433 0.054523528 0.11813252 -0.02374041 -0.111250825 0.095568076 -0.05075803 -0.016100546 0.10501418 0.078766 -0.115841806 0.11118431 0.01732376 0.034325574 -0.11185563 -0.013240978 -0.047332916 -0.09782317 0.07075529 -0.029969988 0.11925577 -0.10715661 -0.048610624 -0.11940395 0.034699634 -0.06573956 0.018092597 0.06266558 -0.011738965 -0.084381714 0.04433358 -0.0481808 -0.09727172 0.10753889 0.015606473 -0.026710298 0.072446205 -0.025058122 -0.06277904 -0.056091998 0.09652418 0.06581748 0.054154303 -0.0676059 0.09505791 -0.020543145 0.08196381 -0.090057455 0.10754853 0.005689788 -0.07097292 -0.12187219 0.08449539 0.06567254 -0.0066883387 -0.004602504 -0.0779198 0.081289195 -0.04875578 0.009807688 0.04641973 0.009343186 0.037873138 0.077490546 -0.0465534 -0.098826945 0.08219437 0.10874956 -0.070329785 0.083042204 -0.043385398 -0.04341993 0.056287337 0.09112356 0.01508624 -0.09411285 -0.110579185 0.074318655 0.08904967 -0.106474385 0.007981298 -0.039082743 0.09323459 -0.0071907924 -0.10518533 -0.059480075 0.09816404 -0.058053628 -0.09440166 0.08710503 0.006562113 0.09833737 -0.06050535 0.0833479 0.062231563 0.020221153 -0.10726177 0.12127112 -0.020388866 -0.10822773 -0.044131108 -0.10491738 0.038219254 -0.10060435 -0.037668124 0.07825802 -0.11611613 0.016087921 -0.112896524 -0.030119624 -0.008005473 -0.008446187 -0.108439356 0.118915506 0.058947086 0.073550515 -0.08849004 0.06783147
فرد -0.07200392 0.12390442 0.03736974 0.06719296 0.028150354 0.0401539 -0.009935846 -0.0961909 -0.038440466 -0.078667395 -0.08318853 0.122626714 0.08564102 0.034969125 -0.014857006 -0.050776627 -0.01103959 0.047798168 0.04366606 0.038343944 -0.09324784 0.05153538 -0.09108473 0.04622642 -0.07930612 0.104252785 0.01815052 -0.029587451 0.020343527 -0.09980733 0.06674965 -0.004575137 -0.0773915 -0.10278771 -0.022456741 0.1191624 0.05017674 -0.05060187 -0.0966138 -0.03625745 0.105956495 0.10087036 -0.001245688 0.04996857 0.09395344 -0.0037314645 0.014726223 -0.11043513 0.09486466 0.08773556 -0.04526694 0.018494183 0.0895486 0.08661777 -0.11296517 0.0346258 -0.064479075 0.025788242 -0.061536085 0.09536203 0.0040103123 -0.061093394 0.009501408 0.091400474 0.023896744 -0.07984341 -0.06499065 -0.11802706 0.075371385 0.050128818 0.06483276 0.11241615 -0.023216043 0.090924285 -0.047847506 0.0311324 -0.050076846 0.04828177 -0.054668028 0.048413385 -0.063058704 -0.053038735 0.11229718 0.0094735 -0.015828522 0.044138134 0.0927039 -0.08294031 0.0934484 -0.10681665 -0.05820876 0.038242243 -0.10347052 -0.0016480283 0.049249414 0.06207328 0.09699091 -0.117651716 -0.01636329 -0.087376334 -0.050745677 -0.0011923354 -0.09896108 0.09516867 -0.007410521 -0.008273569 0.009055248 0.0755366 -0.10103995 -0.09315233 0.07518452 0.015281312 0.05108892 -0.04696161 -0.033487625 -0.0759643 0.01738342 0.038332663 0.11491414 -0.08644026 0.029926738 -0.06834584 0.05444041 0.11659086 -0.016043486 -0.12022106 0.051656872 -0.044642672 0.11974006 0.087259516 -0.03893644 0.04363906 0.07229531 0.00997301 -0.059094984 -8.59085e-05 0.1082153 0.026118344 -0.07953298 0.10046001 -0.08738831 0.014474498 -0.014756871 0.0040025627 -0.08154758 0.025907585 -0.0019087741 0.06580799 -0.07348727 0.07409454 -0.0036164757 -0.06747059 0.06906478 -0.10826331 -0.02258385 0.010682466 0.12434997 0.06876935 0.041643675 0.10036766 0.1269251 0.083146 0.0017214485 -0.02770739 -0.06975042 0.09887343 0.0060002385 0.05106341 0.061929647 0.027574841 -0.008237777 0.019365229 0.03210306 0.07787969 -0.1185315 0.0911936 0.051030144 0.050698698 0.116950765 -0.036313057 -0.10242477 0.061233215 -0.107983 0.083330594 -0.08413165 -0.1046093 -0.059115585 0.07643077 0.070519425 -0.0060327095 0.08726348 -0.01004402 -0.10714228 0.0076994877 0.109102756 0.078373134 0.060843572 0.024406163 -0.11963526 -0.12174243
ترانس 0.044724092 -0.07515092 0.022752097 -0.12991339 0.09308663 -0.043372486 0.041425526 -0.0503092 -0.017108709 0.046644855 0.022028768 -0.006282384 -0.1036148 0.037310276 0.12725356 -0.018328736 0.07599439 -0.11762354 0.114777125 0.023983415 -0.056860946 0.08115537 0.024727054 -0.02402065 0.014499393 -0.046477325 0.081232995 0.09354779 -0.09510884 0.122772396 -0.091687106 0.06767562 0.11385179 -0.05958968 -0.0068182764 0.07658468 -0.0014954524 0.09471796 -0.0040011923 -0.0069323485 -0.01496274 0.09639616 0.08937047 -0.083630614 0.0077419863 -0.020558653 0.060961727 0.07421544 0.07702927 0.12327346 0.024707535 0.121076144 -0.10437874 0.04352584 -0.012361304 -0.10413711 -0.120020986 0.06192901 0.05932292 0.07369576 -0.031104878 0.09647955 0.04539291 0.123784766 0.047883432 0.06390499 -0.0817458 -0.03831619 0.024554994 -0.026850872 -0.10106639 0.0014583459 -0.057015065 -0.05395198 -0.016036673 -0.08278249 0.015947187 0.107308514 0.04865876 0.02203282 -0.037540607 -0.124206364 0.031511743 -0.09635613 -0.061044734 0.065583214 -0.014440668 0.083773136 0.07693017 -0.10179304 0.009279553 -0.013512036 -0.107439876 -0.12384112 0.02173552 -0.05431212 0.07320179 0.0057490496 0.0133258365 -0.046193726 0.01844087 -0.018835375 0.07323858 -0.015202468 0.06946718 0.013791095 0.12110108 0.008777296 -0.035515916 -0.08789017 0.07626186 0.03401537 -0.11273044 0.09617538 0.07421534 -0.0064761946 0.10995716 -0.034634613 0.105489984 -0.066725485 0.11027393 0.02301546 -0.06609492 -0.11280996 0.03538027 -0.061566923 0.10136846 -0.054186095 0.07239649 -0.023500007 -0.05447394 -0.11942412 -0.10496465 -0.03565037 -0.055694558 0.0962109 -0.029268261 -0.06474114 -0.07726602 0.11642773 -0.022433065 -0.09388465 0.045757942 0.050378982 -0.1186003 -0.05896137 -0.008297168 -0.09074724 -0.035360154 -0.12110952 -0.11728816 -0.0020484973 0.1073804 0.12153379 0.0075910785 0.12745003 -0.12111829 0.09463634 0.01397978 -0.0371192 0.022114003 0.051773075 -0.117780104 0.018344829 0.05684699 -0.11674002 0.09825753 -0.05855297 0.012086833 0.0157581 -0.03838102 -0.010215703 0.025121579 -0.03152008 0.08978893 -0.03495891 -0.07833317 -0.030345775 0.004905392 -0.07446685 -0.035662748 -0.0907461 -0.07812517 0.0059162136 0.031467177 0.014974581 0.029187748 0.021785602 0.049949255 0.113775864 0.08642267 -0.010461631 -0.09811966 -0.046806257 0.028564908 0.08296931 -0.05367839 0.024911767 0.043832473 0.05307042
ابتلا 0.082480036 0.09588777 -0.010305198 -0.0002316405 0.11506661 -0.05439904 -0.022939637 -0.027187642 0.068576746 0.08672287 -0.06696311 0.0007082243 -0.044686384 0.06157723 0.07924617 -0.11096165 0.087263115 0.009136042 -0.09785226 0.008001152 0.10567458 -0.074898906 0.047609244 -0.078846924 0.07709129 -0.020034315 -0.058064967 -0.054921668 0.056456096 -0.028257366 0.10496192 0.053333975 0.015799 -0.08623226 0.11056241 -0.07949517 -0.103571214 -0.09286831 0.083268635 0.07314921 0.008536446 -0.1108894 -0.03330623 0.07164378 0.052339762 0.02054523 -0.07807062 -0.067295164 -0.09697501 0.021249115 -0.07546743 -0.104571454 0.049942855 -0.08849978 -0.08198608 0.0908424 0.07417663 0.05890885 -0.05131265 0.03916761 -0.06792088 -0.08951227 0.0224018 0.07914712 0.053812034 0.06908975 -0.07934174 0.047756113 0.0759852 -0.04796437 -0.117218055 -0.109446764 -0.075699314 0.024261726 0.031450808 0.088720284 -0.08649575 -0.078984946 -0.1099401 0.100565895 -0.023295417 -0.103548795 -0.059013512 0.103655115 -0.11059383 -0.064718865 -0.12488419 0.03718199 0.02851208 0.04999411 0.08208972 0.0982804 -0.037539493 -0.06767941 -0.10695832 0.05639392 0.08655202 -0.017300991 -0.10841362 -0.031474326 0.02190332 -0.024831865 0.022662455 -0.071442366 0.013836908 0.025573125 -0.016266365 -0.035945408 0.041097354 0.03780946 -0.008219795 0.041677516 -0.032477878 0.03247774 0.08821272 0.07640282 -0.00055175513 -0.09402672 -0.100412056 0.11814103 -0.061554093 -0.028662847 -0.11938596 0.0877677 0.07655022 -0.1112415 -0.08932002 -0.0013489834 -0.08719548 0.081091285 0.11443332 -0.03234341 -0.0036936211 0.009442259 -0.06600889 0.04440105 0.020777684 -0.09388021 0.096739694 -0.06785927 0.051980678 -0.12273196 -0.029727781 -0.101635 -0.08417078 0.08029547 -0.07035862 -0.022963943 -0.038437027 0.08371808 -0.025073314 0.057337414 -0.07278918 0.016241936 -0.055070445 -0.015772762 0.033806913 -0.094921894 -0.09283789 -0.08597581 -0.09270786 -0.020311935 0.06701717 -0.100728184 -0.00023319047 -0.11181222 -0.06965734 -0.11385668 -0.013035617 0.06633114 -0.06474296 0.0018322817 -0.08456464 -0.07930142 0.040652763 -0.03245255 0.06823765 -0.04980343 0.0799192 -0.10438498 0.11550787 -0.005200241 0.047744486 0.109782524 0.05580983 -0.087836 0.035901446 0.025472203 0.042461626 -0.014665659 0.06793739 -0.05205337 -0.10615663 0.046809744 0.06535912 -0.10904354 0.0031781788 -0.027676754 0.0439151 -0.049819037
شده 0.09420595 -0.009903136 -0.0076867896 -0.025203131 -0.035835244 0.058212306 -0.015211907 -0.11955688 -0.10100781 -0.059717182 -0.0103292 0.12593824 -0.08782829 0.0462704 0.025257295 0.06036509 -0.07544188 0.06528128 -0.053267043 -0.08472503 0.087042026 0.057350077 -0.11703543 -0.05565786 -0.004887969 -0.108930014 -0.06830098 -0.103231914 0.121732645 0.0034290757 -0.0076857205 -0.05563892 -0.054077026 -0.0005888046 -0.04172746 0.018576967 0.008428883 0.044903964 -0.026462687 -0.09005329 0.013051532 0.014308957 0.10982072 0.034183804 0.026329892 0.003208724 -0.10718917 0.12528914 0.055080097 0.066033326 -0.08092365 -0.09612893 -0.025990084 -0.09166124 -0.0076981047 -0.029371463 0.011603761 -0.10046447 0.010438095 0.029772727 -0.03693882 -0.037712406 0.040888675 -0.07428708 0.115918554 0.10712425 0.020190038 -0.11420916 -0.057705253 -0.1013789 0.038134217 0.00060556835 -0.032612395 -0.038881313 -0.012307117 0.09215529 -0.014720935 0.08876541 -0.11253113 0.102516696 -0.09088891 -0.027070064 0.0797925 -0.096024126 0.10455943 -0.03209741 0.0998879 -0.07853704 -0.036814727 -0.122996405 0.0069541535 -0.09646693 -0.10740565 0.063214704 0.08313286 -0.0069301883 -0.04848068 0.09745393 -0.036419097 -0.058274068 -0.001540615 -0.052449163 0.024054283 0.10557066 0.07877595 0.053165413 0.02265922 -0.013127931 -0.07901319 -0.06406225 -0.014376095 0.097577 -0.07912081 0.03320312 0.08140879 -0.033874933 0.038184 0.0035614045 0.05384548 -0.08618761 0.049575336 -0.019043185 0.104159534 0.07159583 0.12847117 0.014464913 0.08061797 -0.006823361 -0.039472736 -0.06702718 0.07369818 -0.003116551 0.013634612 0.061591007 -0.06673229 -0.021952394 -0.042941857 0.12206559 -0.046096977 0.09216022 -0.07953462 -0.105577745 0.11881104 -0.048691474 0.02018617 0.07967691 0.032944083 0.07515492 0.08129537 0.03890416 0.11110235 -0.12378899 0.06137114 0.009229203 0.0155001925 0.10906243 0.0023202517 0.07082743 0.08350513 0.1207324 0.08592394 -0.11737863 0.08141222 -0.055608757 0.08256385 0.01314896 0.09495596 0.0704153 0.087211624 0.00091957196 0.030910334 -0.062101018 -0.03173717 -0.04234275 0.057512946 -0.06012606 -0.09670642 -0.0616024 0.097477764 -0.12539454 0.09908548 0.10276924 0.07034899 -0.069606885 -0.0033542113 0.09646149 -0.114922166 -0.054298658 0.037822045 0.05682387 -0.031733803 0.059053 -0.042137045 0.044000868 -0.08273609 0.12633438 0.0075362627 -0.093476586 0.09125775 -0.039013643
سایرین 0.018766703 0.0023693244 -0.012727561 -0.10507988 -0.07261621 -0.07938195 -0.12117771 -0.020704348 0.089780405 0.107831 0.024841089 -0.0033740283 0.060023222 -0.07475942 0.008412511 -0.078451514 -0.0011514461 -0.013029209 -0.08090058 0.094511904 0.02989155 0.05969307 -0.057463426 0.00575329 0.04213324 -0.021382436 0.09638142 -0.08715933 -0.05338223 0.019339304 -0.03631966 0.07504553 0.053531364 0.093266405 0.05017797 0.051404208 -0.030971408 -0.11001073 0.010687573 -0.11215149 -0.01901461 -0.022162156 -0.060532667 -0.059292547 0.115428165 -0.103063926 0.06469059 -0.09289144 -0.031241674 -0.09972095 0.019052433 0.03285659 0.06381887 0.091947675 0.068241924 0.030719735 0.06912858 -0.08842399 0.062081512 -0.010756389 0.07076892 -0.11593293 0.061697952 0.040332235 -0.123228535 -0.02061243 0.0018772075 -0.06655976 -0.0887575 -0.004789214 -0.073999785 0.0998144 -0.055232257 -0.10554879 0.06559422 -0.07760097 -0.09109886 0.10217928 0.010797771 0.1035491 0.066874266 0.06405247 -0.04358898 0.086732864 0.0008377223 0.07690537 -0.07651821 0.06576492 -0.06707369 -0.016177436 -0.11172817 -0.09429223 -0.037059512 0.074409254 0.042025886 0.073048756 -0.10534446 -0.043868866 -0.052395463 0.10714698 -0.101601005 0.09409886 0.101752356 -0.018142233 -0.12023267 0.023773028 -0.07793487 -0.027537521 -0.12632474 0.0931218 -0.015589179 0.05883299 0.040081732 0.07487622 -0.061098915 0.06111861 0.016116235 -0.093170725 -0.103665546 0.099108875 0.12826598 0.12352237 -0.09122717 -0.07695741 -0.08642857 -0.029191457 0.08082454 -0.018480213 0.009438085 -0.025723116 -0.06005308 0.117597595 0.0604766 0.02199838 -0.0709861 -0.10412654 -0.022543848 0.111392386 0.12210518 -0.09277784 -0.030322166 -0.07080409 0.07647643 -0.11384387 -0.0050215824 -0.013338151 0.0031820356 0.06842099 -0.00041940197 -0.003932404 0.0017666201 0.0005443281 0.032129407 0.07498165 0.021861264 -0.024163704 0.083449796 0.0837122 -0.1107366 -0.039993394 -0.027929958 0.11635183 0.055787712 -0.025644325 0.03789205 -0.0068073682 -0.01763374 -0.07599637 0.015822295 0.07946323 -0.08207349 -0.06751203 -0.117800996 0.11501166 -0.09720621 -0.11348977 0.10850614 0.014292045 -0.00021293038 -0.055132993 -0.07372954 0.01774584 0.07038883 0.07524235 -0.09947643 -0.10131268 0.043264326 0.10031443 0.04442132 -0.10593128 0.050079755 0.035776895 -0.093158096 -0.02346204 0.03639508 -0.012806429 0.046128925 -0.06282331 -0.022422768 0.012836726
هر -0.008363233 0.114545695 -0.043510076 -0.05544256 0.043672323 -0.08626708 -0.104075715 0.034949634 -0.11974153 0.07809325 0.082404524 0.09957041 -0.11959441 0.057813633 0.04511809 0.03953347 -0.015514454 -0.02519099 -0.108736895 -0.038211804 -0.11199479 0.037172943 -0.08472521 -0.109969094 0.0644066 -0.045726523 -0.04290896 0.04037383 -0.0023027232 -0.035033207 0.10215788 0.022016615 -0.03113656 0.03374243 0.09078502 0.08734619 0.066228166 0.0672059 0.061305337 -0.04733602 -0.041702863 -0.038609345 0.0962573 -0.027776645 0.10372415 0.04371299 -0.09380748 -0.12114165 -0.10866259 0.060459863 -0.043794837 0.006024361 0.024853922 -0.009812189 0.059896346 0.028507596 0.075827 -0.053175814 -0.047915578 -0.0942037 0.10720918 -0.04874766 0.06429935 0.07583321 0.042721864 0.09609176 -0.117519975 0.002928177 3.4298842e-05 0.034669064 0.089145765 0.06498145 -0.013753441 0.07656023 -0.05760197 -0.115880445 -0.09728095 -0.06735776 -0.037826106 0.08479271 0.037203014 0.053238653 0.07580493 0.0940707 0.10602006 -0.09626076 -0.046974003 0.03218421 0.08221048 0.056010492 0.06459373 -0.010390513 0.015857065 -0.022491511 0.06717711 0.0730795 -0.012685984 -0.03801596 -0.1053202 0.0643185 0.097780876 -0.099527225 -0.024631783 -0.05405668 -0.05962286 -0.115880914 -0.112958305 0.12312477 -0.0050325864 0.09804171 0.02662565 0.08481486 0.005185121 -0.003498806 0.0107383 0.10277796 0.10178533 0.090571105 0.1154074 -0.046239898 0.11526925 -0.04680656 0.040129762 -0.032225907 -0.05188381 -0.031248463 -0.10778178 -0.09888045 -0.002298003 -0.030780038 -0.017465832 -0.005998739 -0.022339394 0.08345122 -0.084489666 0.08060917 0.08591834 -0.04443185 0.0005710174 -0.054010235 -0.077089556 0.0022467517 -0.09375475 0.020347675 -0.0009476044 0.087030396 -0.038739197 0.094078764 -0.013144211 -0.08332847 -0.034300093 0.049223427 0.00091244903 0.092487216 0.07965034 -0.061433032 -0.09279022 0.0735262 -0.0740557 -0.111555986 0.09804149 -0.099138945 0.10427248 0.10686389 -0.10801185 -0.04268425 0.04927633 0.10232186 -0.016273236 0.035392467 0.012537069 0.05318976 -0.09167436 -0.08600711 -0.076000914 0.10333076 -0.058324806 -0.019880699 0.0124827 0.034066744 -0.09532721 0.1240247 -0.09202654 -0.03262663 0.12021773 -0.08572514 -0.00088964007 -0.07690673 0.04857842 -0.08055183 -0.025582146 0.06338484 -0.017129455 -0.11536503 -0.012499909 -0.0052092043 0.0008770423 0.097738646 0.0742968 0.010925647
انجام 0.090534605 0.06939684 -0.041594733 0.06980668 -0.019849623 0.0791979 0.07300361 0.043664042 0.113747135 0.019656798 0.010709644 0.0907145 -0.08138549 -0.08389011 -0.10106195 0.08161176 0.008167145 0.048158225 -0.118642755 0.015426108 -0.093885414 -0.0030637477 -0.119444914 -0.11532118 0.112221204 0.061421722 -0.034236714 0.11415872 -0.026961505 0.020707404 0.04592301 0.0025293576 0.0029894796 -0.07279172 0.017018853 -0.105853476 -0.026640812 -0.119264446 -0.020079676 6.956407e-05 0.10185339 -0.046694428 0.043626282 -0.103203945 0.107325114 -0.1075062 0.015102378 -0.023955625 -0.056100044 0.0857338 -0.0416354 -0.052025948 -0.036210913 0.076506935 0.102602504 -0.040471353 0.092139214 0.03447298 0.021846395 0.06607414 0.02230774 -0.006205507 -0.05219837 0.0907308 0.063944906 0.04982177 0.013015456 -0.051105894 0.024563368 -0.11582679 0.10848419 0.0008982683 0.02020617 -0.05867314 0.030924413 -0.03264201 -0.115832634 0.015647149 0.11519868 -0.04672235 -0.08451705 -0.032052208 -0.04879639 -0.06823188 0.1116904 0.10859054 0.097366236 -0.047722228 -0.07448976 0.035322905 0.07086412 0.022131192 0.092203125 0.051069736 -0.034075048 -0.103566796 0.07835582 0.09506358 0.060966153 -0.07055769 -0.08214503 0.10460068 -0.107570164 -0.07372102 0.012153577 0.05932117 -0.04343451 -0.095333554 -0.040256243 -0.0918998 -0.11309514 -0.062371764 -0.072394006 -0.061177712 0.032723434 -0.033658676 -0.07973167 0.110159375 0.06844675 0.02581567 -0.11209375 0.063382074 0.019755641 -0.013426576 -0.058743205 0.028081387 0.008763009 -0.09265551 -0.014736518 0.07873123 -0.09395407 0.12003943 -0.051564354 -0.0010057533 -0.11471229 0.061199795 0.025470352 -0.04732053 -0.08964754 -0.08042857 0.013972588 -0.028738985 0.017301826 0.014261301 -0.009078047 0.09676619 0.09079139 0.0657355 -0.0116315745 -0.02864821 0.035876594 0.08276317 0.0023358064 -0.07341909 -0.1110885 -0.013014056 0.10032741 0.09938878 0.07122298 -0.038758572 -0.00566946 0.105981775 0.076169 -0.075163424 -0.10398996 0.052163832 -0.08779751 0.095042326 0.06527142 -0.10598108 -0.12032934 0.09590471 0.0061354046 0.07853709 -0.03922875 -0.05685083 -0.070470184 -0.030435791 -0.09937913 -0.013075547 0.013590362 -0.07726117 0.060358103 -0.11279299 0.06625481 -0.07352638 -0.028211253 0.02689822 0.070508875 -0.09886206 0.11457409 -0.04169997 -0.024244165 0.06593955 0.023713734 -0.061777752 0.09203679 0.055239484 0.11705898 -0.059227686
می‌برند -0.014507628 -0.022347093 0.0078034624 0.11455022 -0.055073828 -0.11437041 0.017034164 -0.09503104 0.061909065 -0.08486407 0.046874177 0.05462645 -0.11285442 -0.022175843 -0.11429382 -0.061693642 0.057973064 -0.010072112 -0.06869934 0.015883382 0.027924137 0.04309221 0.10019536 -0.06312291 0.10282065 0.024676707 -0.011445026 -0.117042646 0.07521466 -0.09262819 0.108100764 0.021005834 0.038519017 0.08551664 0.09342508 -0.09983022 -0.01886168 0.05434565 -0.040931284 0.042140625 0.004882291 0.07602094 0.09371766 -0.095843546 0.067008786 0.10063101 0.105429284 -0.01836256 -0.073180236 -0.122646935 -0.12218466 0.04098922 0.10546248 -0.013615005 -0.117668435 0.052568518 0.10671131 0.048728555 0.008773197 0.05168351 -0.043051086 0.05164104 -0.06455693 -0.039267365 -0.111476295 0.06586141 -0.09938104 -0.09491245 0.09754691 0.0897615 0.031760026 -0.019698238 -0.018307302 0.039751202 0.0053641275 0.042378508 0.024693878 0.12163528 -0.023254365 0.042881288 -0.093266346 0.086479224 -0.11013056 -0.0071861898 -0.026771205 -0.07085765 0.06322623 -0.057945624 0.105493225 -0.12241787 -0.009133867 0.06911551 -0.08928008 0.040545534 -0.047718834 -0.016094783 -0.013727778 -0.038325276 0.089785114 0.05641665 -0.043471716 0.06300156 -0.044399098 -0.020504557 -0.027612083 0.044740994 -0.057821866 0.03995952 -0.012777644 -0.03641898 -0.09427523 -0.05871763 -0.11257566 -0.09113079 0.08114639 0.026745247 0.020373521 -0.094667405 -0.009247113 0.020783378 0.011105343 0.107049346 0.052630372 -0.0058591114 -0.09819404 0.00022886638 -0.04507785 0.0753294 -0.05484657 -0.10671348 0.07551443 -0.07928841 0.07620413 -0.11995568 -0.067477755 0.0208754 -0.022186484 -0.05639845 0.0922985 -0.060374875 -0.050209932 0.028776523 0.0999447 8.702521e-05 -0.11426319 -0.072221294 0.1256261 0.07643793 0.106007785 0.042373803 -0.020300684 0.10209058 0.0971364 -0.045160618 0.03344185 -0.1039789 0.09565585 0.026913783 0.048431333 -0.06784647 0.06573363 0.121736005 -0.0815763 -0.05051451 0.057719044 0.10077664 0.08123355 -0.053753715 0.060767043 -0.0036386587 0.107928716 0.024577472 -0.0035108847 0.028452056 -0.07073412 0.01959859 -0.059121463 0.10070993 -0.12099688 0.003959964 -0.08552677 -0.0023221492 -0.03020009 -0.0571013 0.112014554 0.035703924 0.028622285 -0.05338278 0.122917935 0.12074475 -0.027340727 -0.07880188 0.09474431 0.042139713 -0.0015843827 -0.031358693 0.06433083 -0.085530505 -0.032692548 -0.11140417
با -0.10473348 0.05827543 -0.101411894 -0.10610136 -0.03192275 -0.051473554 0.0049282364 0.02246485 0.034011047 -0.043277584 -0.11101774 0.033016227 -0.09249092 -0.070063494 0.10473756 0.021886561 -0.0783487 -0.03636036 -0.040930346 0.023991324 -0.11099432 -0.068707645 -0.07865137 -0.021171445 0.06593006 0.047326226 0.0954344 -0.098229155 -0.009039427 -0.08441231 -0.07947041 -0.100416474 0.09193906 -0.10282504 -0.103149526 -0.09794354 0.041161504 0.059195556 0.024125077 -0.047887124 0.10235515 -0.101901405 -0.034654796 -0.0009156057 0.03775176 0.054787625 -0.048812177 0.02054156 0.06885457 -0.10990414 -0.033689953 -0.10751437 -0.06588959 -0.013816674 0.025772294 0.058651816 0.04654237 -0.09452909 0.072378606 0.114473 0.02995522 0.06655115 -0.10818594 -0.009262012 -0.01156266 0.10956529 -0.054484863 0.105491 0.084548354 0.02724677 0.073167965 0.033920385 -0.01964532 -0.080166176 0.055751298 -0.005895347 0.04801946 -0.034870274 0.052117664 -0.04780822 -0.055084035 -0.018737555 0.036075313 0.08293398 0.08131015 -0.010785586 -0.051772848 0.044663996 -0.022589808 0.11535118 0.0066678645 0.009671493 0.09550178 -0.09195358 0.046939705 0.10229056 0.08290554 -0.108889095 0.06801073 0.11241228 0.04615532 0.082267 -0.07004463 0.06197321 0.038298886 0.08695175 -0.075906396 0.07097224 -0.012972534 -0.063552134 0.019521907 0.0009422235 0.020322077 0.09497953 0.04785516 0.0921181 -0.023951963 -0.030842774 0.07324954 0.100148566 0.1154747 -0.025663823 0.087563775 -0.0893389 0.077874936 -0.053520873 0.10214829 -0.11692764 -0.08058088 -0.022484621 0.049885508 -0.0046088067 0.034632172 -0.074498534 0.07474529 0.115850404 0.069081515 -0.09808308 -0.088666104 -0.0074872393 -0.048291806 -0.0859798 0.044819344 0.11534424 0.014610271 0.09879562 -0.009611617 0.07182435 0.11873309 -0.11008495 0.028395088 0.069674246 -0.008530445 -0.073306344 0.10758387 -0.054769523 0.039915226 -0.043088555 0.059019804 0.09901395 0.10923824 0.03792987 -0.0013820335 0.09794731 -0.07107003 0.021087877 -0.08188476 -0.12441047 0.08542781 0.014070862 0.11416172 -0.016049927 0.05247952 -0.067737766 0.008041543 0.11428828 0.053983487 -0.05648857 -0.11716171 0.021881133 0.11430368 -0.11069733 0.03175488 -0.10122437 0.04734143 0.055927858 -0.096032776 -0.009662306 0.0040457644 -0.04211364 0.048596095 -0.032311875 0.04221061 -0.051077746 -0.013671259 -0.111010715 0.059768703 -0.077818885 0.08620471 0.04037636
بروز -0.023990095 0.08661796 0.029286766 -0.064796664 -0.033875547 -0.04761577 0.050420776 0.00025727708 -0.07807166 -0.12293442 0.10446888 -0.10976596 0.060765676 0.057534687 -0.057239678 0.09653306 0.0758234 -0.066746235 -0.020084474 0.12626603 0.10212393 0.072883144 0.04024604 0.09671249 0.06577543 -0.030594468 0.010809861 0.06231665 -0.011561134 0.05316661 0.021000471 -0.03825174 0.03941011 0.10301976 0.10202698 -0.026016165 -0.063418426 -0.05370472 0.081964396 0.039299928 0.12093283 -0.042624287 0.12080682 -0.110285915 -0.06679618 0.043830924 -0.020746514 0.07844333 -0.08494244 -0.098626904 0.08891537 0.11668752 -0.05506179 -0.10731382 0.024311537 0.055191413 0.06600396 -0.03796143 0.08407495 -0.099576056 0.11184519 0.061558608 -0.062155318 -0.06463798 0.06552245 0.0916345 0.011645856 0.0095934095 -0.046801697 -0.08912053 0.049072653 0.08006131 -0.057586316 -0.056537997 0.001136026 -0.037124645 0.0934236 0.008418803 -0.0051359837 -0.05522563 -0.04030229 0.029651547 -0.12192364 0.00051303714 -0.09465434 -0.048957355 -0.047662158 -0.01619611 0.010282506 0.08956834 0.06773921 -0.075580806 0.059622597 -0.06426869 0.13030607 0.023438357 -0.05128985 -0.07069476 -0.09145557 0.0051883734 -0.08591633 -0.03379777 0.00045255732 -0.106633104 -0.092245184 -0.071373604 -0.099838056 0.05130029 -0.040730335 -0.06598598 -0.06394592 -0.00070351694 -0.06632598 -0.042395804 0.064216845 0.023407668 -0.12251067 0.08244454 0.082380265 -0.11168797 -0.06859653 0.12607491 -0.11760589 0.05095315 0.06662671 -0.11319405 0.0023749974 -0.11468307 0.060351145 -0.0073526497 -0.09052716 -0.097033784 -0.01577031 -0.04791088 0.074361876 0.07992959 -0.06386343 0.03764131 -0.090966634 0.0976367 -0.10467475 -0.049948435 -0.040353164 0.024244655 -0.027685737 -0.0151563035 0.046347573 -0.11843958 -0.10181298 -0.110840626 -0.019240823 -0.03762621 -0.042840574 -0.04992379 0.023318142 -0.0012237374 0.07794852 -0.0058952286 0.059178963 -0.08297688 0.13109642 0.0016893157 0.0045014867 -0.113296404 0.02066885 0.06432838 0.011140829 -0.044314135 -0.03844683 -0.103115894 -0.112342544 0.1297966 0.07156317 -0.071241215 -0.045447193 -0.06122787 0.04802365 -0.11458425 -0.11594449 0.034211237 -0.10544071 -0.023199838 0.017235745 -0.11240443 0.060818873 0.038747024 -0.031370863 0.04027906 0.051431946 0.09152954 0.09143924 -0.063114695 -0.054149963 -0.08838225 0.024899427 0.010300418 0.04999998 -0.034050368 0.017535124 0.00091534
سلامت -0.019882504 -0.019475918 0.07108608 0.015927346 0.06220742 -0.105580464 0.039339688 -0.00787249 -0.0356395 -0.03716486 -0.0062215645 -0.013444352 0.049187258 0.030803233 0.018440682 -0.04092618 0.097799644 -0.08820693 0.04765533 0.04710845 -0.04230899 0.09835474 0.029580511 0.06747739 -0.089633115 0.01666421 -0.09569709 -0.08137629 -0.09216061 0.007727601 -0.027757145 0.0022577445 -0.03459451 -0.11814695 -0.018865282 0.057588372 -0.10790327 -0.11027429 0.043208413 -0.047802564 0.11293806 0.09642543 0.09811781 -0.10578015 0.10320093 0.12329815 0.053594906 -0.047872312 -0.1149465 0.11682515 -0.0673703 -0.0706733 0.06783276 -0.10248125 0.012140841 0.07459217 0.08487985 0.02346469 0.05583576 0.099335894 -0.076620564 0.085059434 0.05163897 -0.060176652 -0.05303741 -0.049715847 -0.10607737 -0.057588942 0.10089093 0.059120677 0.07180122 -0.015487045 0.09520687 0.11317396 -0.014716263 0.11082567 0.09087589 0.08582915 -0.09212294 0.01866702 -0.06785057 0.0050461907 0.046604734 0.11180705 0.09681501 -0.009186582 0.08704284 -0.050573964 -0.06204798 0.11393476 -0.109133326 -0.11244395 0.07213894 -0.04417128 0.012143765 -0.00021361106 0.020490123 -0.011657386 -0.0076486818 0.048507206 0.07017607 0.10371068 0.0849588 -0.057760607 -0.07540523 0.11712434 0.010233565 0.08883722 -0.012211809 -0.11415429 0.09493781 -0.058988705 0.0033047027 0.02955469 -0.042533565 -0.046858706 -0.07599515 0.07317475 0.0036450252 0.028872358 -0.006517044 -0.10048366 -0.07651446 0.027763458 0.049231857 -0.109565 -0.0020714237 -0.10209767 0.076649204 -0.049446493 0.007868606 0.07119254 0.032079034 0.118243724 0.089882046 -0.04859951 -0.10297434 0.018522013 0.0682733 0.061553802 0.050584204 0.048693515 -0.009217525 -0.04546155 0.113053285 -0.046572737 -0.034677196 0.087411076 0.00064011983 0.0031534375 0.00010475208 0.012617813 0.02430682 -0.015362843 -0.06436584 -0.020757101 0.041722912 4.0582498e-05 -0.11893081 -0.036665726 -0.00997793 0.04513662 0.10852312 0.113175385 -0.11318635 0.09478422 0.08020605 -0.08218399 0.010959368 -0.092504255 -0.08328916 0.05773765 -0.09669321 0.06736985 0.103336945 0.11813165 0.036210623 0.11159722 -0.10963463 -0.0010399346 -0.06471646 -0.05956798 -0.018952813 0.09667567 -0.020187026 0.048400592 -0.1205426 -0.06943659 0.08533886 0.031603582 -0.025938578 0.053178024 0.05602716 0.07995671 -0.11815065 0.037062474 0.005164449 0.091730215 0.10352229 0.022214113
روی 0.060041033 -0.02028483 -0.080650635 0.054197706 0.03680931 -0.05492115 -0.028479284 -0.09000168 -0.08255652 0.0636287 0.053627122 -0.005109457 0.08090589 -0.05938663 -0.041534994 -0.061042454 0.061064553 0.018638441 0.032479588 0.08124894 -0.061722193 0.04698033 -0.0050679664 0.04132197 -0.008438864 0.004271756 0.0066792998 -0.022364123 0.034858633 -0.063530646 -0.03868449 -0.054121353 0.007211359 0.075738765 0.06711621 -0.08316452 -0.087958075 -0.10138572 -0.019109946 -0.050770067 -0.09633601 -0.12972881 -0.11616462 -0.028752167 -0.0875145 0.10681501 -0.0402641 0.11784747 0.09981829 -0.01049532 0.04684658 -0.06025444 -0.10143532 -0.007315677 0.057227194 0.064608976 0.060095098 0.041531395 -0.104343 -0.10840649 0.022292094 -0.06919557 0.07371467 -0.08687449 0.033632576 -0.07873888 0.035008814 0.011827759 0.030084608 -0.0373272 -0.114369355 0.022726689 0.10537301 0.0022954135 0.02113393 0.014907856 0.060457926 -0.029606597 0.038382467 0.0013883675 0.052259732 0.03705025 -0.03521972 -0.005131083 0.10837892 0.08860597 0.047494367 -0.047495525 0.11061301 -0.05844441 0.006639031 0.09257553 -0.010436813 0.012880216 -0.028314792 0.0602577 0.083374515 -0.011343467 -0.052632127 0.025583008 -0.114309385 0.127599 -0.11890657 0.067901745 0.11843237 -0.06366753 0.04590494 -0.059434086 0.06584374 0.03728528 -0.06486114 -0.10486606 -0.054862596 0.12654583 0.12477346 -0.083866276 0.0055624354 0.039355487 0.013346771 0.025665162 0.12618378 0.060906433 0.059497315 0.0590464 0.030297492 0.1160437 -0.08656416 -0.03104457 0.021697965 0.050554533 -0.014622765 0.018220242 0.08249062 0.004053071 0.088012755 0.08933615 -0.098456204 -0.038529407 -0.10268833 0.006987649 0.0033042312 0.0068047605 -0.0021785235 0.11276034 -0.051194187 0.0009486322 -0.11021088 -0.016430676 -0.064261295 -0.07430211 0.008149434 -0.098376825 0.11962121 -0.0034319358 0.022355597 -0.011990657 0.03079751 -0.12272015 -0.044664577 -0.07831879 -0.11033898 0.100144036 0.0798201 -0.09842248 0.11200734 -0.13025127 0.07281222 -0.0063133943 -0.06897055 -0.0770504 0.09781491 -0.107225895 -0.0036266905 0.050347783 0.11399201 0.0028214965 0.11610217 -0.0958007 0.009162845 0.11645254 0.0026690178 -0.06272785 -0.05871354 0.045867585 0.06887174 0.11338558 -0.07950607 0.097331785 -0.11697726 0.11303713 -0.09857515 -0.0023162444 -0.051087774 0.08974242 -0.07426818 0.08465826 -0.111604355 -0.054146174 -0.07486025 0.0954274
داشتن -0.0017101191 -0.107711814 -0.025598818 -0.01515459 -0.024504807 0.12764886 0.05472453 -0.0023623772 -0.05299933 -0.051892012 -0.063482925 0.060770698 0.11963967 -0.032048583 0.025068982 0.112809494 0.07860578 -0.0067360695 -0.013393107 0.006930434 0.07701182 0.0378845 -0.028374959 -0.014542366 0.09237891 -0.033316847 -0.093868315 -0.073591016 -0.04163257 0.064336374 0.037385006 -0.02605556 0.06839309 -0.013698927 -0.069959395 -0.046914313 0.0804188 0.08474064 0.047662906 0.012002867 0.050179586 0.039025586 0.12431035 -0.12848334 0.10448535 0.056556143 -0.055653274 -0.078338414 0.05009222 0.01803897 -0.027854415 -0.05389757 -0.02300718 0.06537715 0.07416407 0.015147223 0.03509453 0.10729095 0.10981496 0.09449402 0.0090510985 0.071336135 0.08460826 0.06761281 -0.07604888 -0.033515383 -0.11732996 -0.07443375 -0.09029377 0.07374832 0.042770136 0.02111304 -0.00073459465 -0.04539555 -0.105750404 0.03712751 -0.048217025 0.035656042 -0.09971917 -0.11460272 0.009385492 -0.002856674 -0.05698911 -0.07718618 -0.10418029 -0.023354124 -0.023321023 0.0827636 -0.08445923 -0.11640498 0.023916338 -0.053230863 0.019159371 0.116608836 -0.04182744 0.09912417 0.03279366 0.075932264 -0.12647139 0.016763696 -0.01571092 0.0576288 -0.026471166 -0.10570252 -0.06654811 0.012576789 -0.10981078 0.116646275 -0.013519439 0.009360799 0.033125274 -0.096514896 -0.0054981974 -0.1281607 -0.045065816 0.12560903 -0.122154236 0.026986359 -0.057106074 0.01386886 0.054989573 0.075233795 -0.03237535 0.05926448 0.09427061 0.100315 0.06189641 -0.032709416 0.07271501 0.124514155 -0.048492573 -0.12651348 -0.00817429 0.06842033 -0.064684786 0.045411836 -0.042798355 0.08918563 -0.13059604 0.12200677 0.06049844 -0.087545656 0.11483401 -0.07670289 -0.0880224 0.070323154 0.0072098626 0.018796388 0.055271998 -0.11148043 -0.10322616 0.123841584 0.10322098 0.08895422 -0.12582849 -0.02150421 -0.017117066 0.006949219 -0.08346928 -0.11039275 0.0040609445 -0.06111897 0.019601509 0.055170767 0.03401118 -0.04110083 -0.044590276 -0.11717603 -0.112626694 -0.11240735 0.024145862 -0.03338459 0.028099999 0.033392265 0.031322055 0.06644953 0.006531545 0.00954189 0.043463714 0.04685918 0.030677631 -0.035707004 0.011054368 0.12593253 -0.030989878 0.05794798 0.0029461805 0.06511986 -0.039868046 -0.015263035 0.113413095 -0.08902967 0.03514074 0.07747059 0.005966692 0.050004877 0.076357074 -0.11681889 0.11107785 -0.08053088
میزان 0.101250336 -0.045291357 0.04613403 0.016132671 0.012845216 -0.037123006 -0.10054668 0.052839138 -0.103385575 -0.08196399 -0.022226421 -0.053232986 -0.11295775 0.0062550753 0.008880797 -0.074901775 0.106338695 0.0041465787 -0.032289892 -0.0037847133 -0.078447595 -0.013141996 -0.065366484 0.040366355 0.036737762 0.10955627 -0.09540929 0.021947086 -0.09143243 -0.10453042 0.06176148 -0.0334188 0.06287992 -0.028988536 0.1009478 0.0629734 -0.09916265 0.02194861 0.10126499 0.011618566 0.031853683 -0.10687815 0.11889888 -0.04625546 -0.05827057 -0.08840248 -0.027201807 -0.05961862 0.12085412 -0.09689266 -0.065329745 0.009222261 -0.038380936 0.07847285 -0.05421728 -0.08517233 -0.026157307 0.037352767 -0.077184744 -0.06988706 0.04840466 0.10656192 0.11326494 0.112956084 0.074351326 0.002276558 0.08417091 -0.0836731 -0.08421803 -0.10184729 -0.006435184 -0.00404479 -0.03536589 -0.016749702 0.019486565 -0.08681335 0.06425331 -0.015461188 0.09371679 -0.03011401 0.052848462 -0.1034789 0.08829546 0.081552394 -0.10404762 -0.011111483 0.10842398 0.10507407 0.117846295 0.090110846 -0.10627732 0.09891826 0.08011208 -0.036846038 -0.09373624 0.013052753 -0.03211523 -0.004504766 -0.09992378 -0.073471874 -0.10527488 -0.07151998 0.022677612 0.018479599 0.1158265 0.07303275 -0.107510574 0.089668386 -0.0022185156 0.058037106 0.08948494 -0.068781406 -0.018317193 0.12021567 0.10862109 0.091185085 0.0633318 0.009616941 -0.06015596 -0.053351924 0.10126897 -0.0872184 -0.09408532 0.072236076 -0.0259564 0.08405417 0.01819685 0.0074478528 -0.08877478 0.060327724 0.11194431 -0.048963036 0.011349882 -0.0014921047 0.10450423 -0.07950589 -0.09316468 -0.052770026 0.08609376 -0.03579184 0.019376582 -0.07281727 0.09769598 -0.056674905 0.009431382 0.115961455 0.024453206 0.07642661 -0.07739779 -0.11821778 -0.035233703 0.11340198 0.009438739 0.09510119 -0.051809188 -0.10966782 -0.00018964037 -0.050188534 0.04424507 -0.10153888 -0.06566691 0.079982035 -0.06728989 0.107976414 -0.035191655 0.009516822 -0.065559074 -0.091882974 -0.01202451 -0.056590922 -0.0012822157 0.06370671 -0.0078981975 0.048889585 0.04708692 0.09130312 0.09628632 -0.0059267404 0.06780095 -0.06692497 -0.022369742 0.06622393 -0.036007706 0.012567566 -0.057235375 -0.066660784 0.07617718 -0.045605525 -0.06569625 0.09415861 0.097816035 -0.0072593843 -0.046796683 -0.07042884 -0.018761454 0.012227007 -0.10880509 -0.0034035286 -0.052752294 0.010361957
حال 0.10694256 -0.10586506 -0.11293219 -0.085668504 -0.06300069 0.0778566 -0.06880024 0.007838996 0.067932285 -0.07876201 -0.08741785 0.013208913 0.07022811 -0.09665718 -0.0045632026 0.022525525 0.013732361 -0.09704436 -0.11369787 -0.05494245 0.034117166 0.090637006 0.060137477 -0.10834243 -0.085332446 0.08575292 0.090198435 0.016082162 0.053202774 0.0025707043 -0.11303591 0.09962861 0.08159393 0.040153835 -0.08175402 0.10172052 0.09924086 0.07056987 0.11531408 -0.08175394 -0.026997723 -0.043970797 0.09350305 -0.01588156 0.10793252 0.08163805 -0.079723954 0.0036659292 -0.069337144 -0.041557975 -0.11097443 0.00791546 -0.057340756 0.020852007 0.0031286231 0.078109756 -0.003432355 -0.0026842516 0.040564768 0.0340379 -0.02155328 0.013953559 0.1083069 -0.077085085 0.05148093 -0.11819105 0.04711679 -0.06700672 -0.02954761 -0.028774476 -0.08728121 0.014793504 -0.07761797 0.043369893 0.063741446 0.051021878 0.008415484 0.04990469 -0.11347817 -0.027800111 0.04851136 -0.10937617 0.033946093 0.011552899 -0.09202099 -0.10610467 0.060171984 -0.03216002 0.08425834 0.07534022 -0.11828076 0.05170943 -0.10360538 0.09682997 0.09024558 -0.11695699 0.013807306 0.11576131 0.10005285 -0.07797365 0.105360135 0.08685762 0.015676072 0.0809306 0.0902811 0.11704358 -0.06561045 -0.115943395 0.03969288 -0.0057281824 0.07046458 -0.121000454 -0.058810614 -0.02084106 -0.106583625 0.045677703 0.024226347 0.021256682 0.08128909 -0.11305806 -0.058658756 -0.053357683 0.06478758 0.041804004 -0.109271765 0.070152625 -0.09879939 -0.07492399 -0.04907774 0.08765935 0.06588711 0.08274554 -0.0698463 0.11673973 -0.03864329 0.022110717 0.039055828 -0.059502065 0.07982379 -0.11018899 -0.11239874 -0.019143132 -0.023115745 -0.035276495 0.05442918 -0.042288814 0.010505453 -0.03515787 0.014729703 0.058158748 0.009412155 -0.031983837 0.030773317 -0.060472514 0.03962154 -0.08861744 0.008124994 -0.027276203 0.01673701 -0.024430294 0.028267045 -0.008555423 -0.004995599 0.05439524 0.091669135 0.032439943 -0.07868926 0.06766156 0.111180626 -0.11098015 0.06736951 0.016627645 0.090341784 -0.10594749 -0.080241375 -0.0019122675 -0.038065422 -0.06458359 0.031937767 0.031026984 0.10165473 0.063913845 -0.07025253 -0.009988218 -0.117394246 -0.07158299 -0.0656726 0.0014742534 -0.09959162 0.077520475 -0.05671772 -0.068226226 0.0629712 -0.016804848 -0.017173031 -0.026098216 0.062059678 0.10302824 0.073738694 0.07318117
روحی 0.068505846 -0.03306717 0.0335118 0.055802643 -0.09902232 -0.039752748 0.0015775932 -0.102941215 0.07146548 0.089610144 -0.08173658 -0.09003135 -0.037890773 0.117512815 0.07778873 -0.08126699 0.023684258 -0.014225968 -0.0020193288 0.10345142 -0.041982748 0.020614736 -0.05666704 -0.022354618 0.07890325 -0.003683556 -0.015935859 -0.03846928 0.025122419 -0.039113853 -0.06002209 0.039185047 0.07900269 -0.015195104 0.06039522 -0.051372882 -0.03511951 -0.076212406 0.1055176 0.017102199 -0.073781006 0.099771366 0.054058075 -0.09294844 -0.08305082 -0.10667377 0.06895009 0.11751832 -0.02174318 -0.012470126 0.11026929 0.0861166 0.028100431 -0.062334333 0.039328396 0.07728514 0.09811941 -0.049711317 0.056559596 0.06530404 0.094251245 0.04933475 0.043414228 -0.10275278 -0.070861965 0.088722505 0.07438142 0.017997378 0.0024717445 0.06827246 -0.0170754 0.074636705 0.0888081 -0.04160107 -0.046013247 0.10161018 0.0057280487 0.0026733223 0.08163683 0.05687902 -0.10217688 0.0061724363 -0.06565827 0.04209741 -0.045511723 -0.08384909 0.106534205 0.024531344 0.041714467 0.08194895 0.057347644 0.017300362 0.0048202625 -0.063750684 0.050537556 -0.097666174 0.07133142 0.083426535 -0.11883434 -0.107012026 0.12011564 0.119562455 -0.08892993 -0.047424156 -0.005472604 0.057270266 -0.034584273 0.112608224 0.071877554 -0.04360397 -0.116456784 -0.10798654 0.069844306 -0.04469542 -0.0571492 0.022730991 0.061772306 -0.091635786 0.0698109 -0.106399536 0.08634201 0.032298088 0.026745515 -0.055263378 0.11038723 -0.10719363 0.06701591 -0.075051636 0.1037296 -0.08485488 0.0666851 0.06628533 0.08593338 0.010538712 0.07150762 -0.06288593 -0.110714525 0.103118904 -0.04203213 0.038016368 0.017574364 -0.102464646 -0.023673676 0.07436552 -0.000517923 -0.104449555 -0.06392362 0.09097946 -0.08884211 -0.054820597 -0.08100227 -0.038732532 -0.033789344 0.048236866 -0.09437473 0.07381012 -0.07632646 -0.053460915 -0.0651584 -0.07465909 0.059948135 -0.079756916 -0.02871019 -0.116366215 0.099588715 -0.09487108 0.077323295 -0.054866426 -0.025142752 -0.10416692 -0.00579657 0.005062741 -0.06998932 -0.053701963 0.03388925 0.03583847 0.053695504 -0.07483038 0.0776313 -0.03367323 0.037216596 0.11675799 -0.052545283 -0.024638562 -0.054606374 -0.094222106 -0.017416155 0.07057639 -0.09071061 0.11557373 0.09563936 0.08122045 0.10670513 -0.057379704 0.018248446 0.099106826 0.119292885 0.032162048 0.038233783 0.039678268
علائم -0.109700166 0.08704815 0.06269088 0.07255514 -0.117413975 0.107805185 0.0025584593 0.013083104 0.052450027 0.0025140285 0.07264891 0.015062835 -0.012403939 -0.07152047 -0.04016478 0.07663613 0.04532086 0.051323887 -0.051703516 0.0073926174 -0.06321296 0.06481491 0.007911572 -0.105073474 -0.09901507 -0.09442047 0.06763857 0.04810546 -0.12187088 0.11973825 0.087517455 0.11535777 -0.06765516 0.010972161 0.112914905 0.03320367 0.103625536 -0.03826201 -0.058336284 0.0942495 -0.008628928 0.10684702 0.12578106 0.008485573 -0.021094106 0.036050748 0.09575772 -0.094773255 0.08480305 -0.025633633 0.10833759 -0.03691224 -0.11031854 -0.05996075 -0.01809787 0.033635262 0.045940008 -0.027179467 -0.050247822 0.061138514 -0.011148281 0.047086444 -0.019334583 0.02232346 -0.09435882 -0.09057155 0.034576297 -0.052703768 0.0038909486 0.045946583 -0.096151665 0.072652854 0.09902792 0.005648508 0.061245352 -0.10119359 0.12569417 -0.0824698 -0.010367757 0.007869174 0.066520564 0.076701894 0.061887883 -0.060373582 0.11870583 -0.118941635 0.10195729 0.0739809 0.048957556 -0.03942411 -0.036124423 0.09073613 -0.01719151 0.11701511 0.10120342 -0.037829965 0.11967298 0.017388882 0.03722066 0.053706497 -0.04678945 0.008068533 -0.0568149 0.05814037 -0.10341653 0.010267705 -0.026397126 -0.09762339 -0.07011288 -0.01201949 0.009443552 0.08522403 0.07454278 0.11703189 0.04064564 0.06973059 0.05540067 -0.03539216 -0.09807025 -0.022405017 -0.019038778 -0.008159437 0.065525346 -0.08797164 0.00077906554 -0.051437613 0.0030988539 0.028508872 0.022087162 0.12002706 0.04478741 -0.11088015 0.09314708 0.012659331 -0.048981898 0.08809152 0.09396977 -0.12717311 -0.120231315 -0.044972427 -0.047365118 0.079197794 0.04477144 -0.068800464 -0.018801192 0.086621344 -0.04158236 -0.041772265 0.036214918 -0.110218376 -0.054578036 0.02003196 0.004904476 0.012070474 0.025757033 0.109606534 -0.10700531 -0.055190917 -0.03982282 0.040184747 -0.07774182 -0.04864627 0.1009493 -0.028651673 0.017764147 0.04846289 -0.0021355124 0.041113295 0.093908995 0.021227842 -0.118251294 -0.047990255 -0.013737981 0.11630685 -0.0066145174 -0.08791651 -0.06771123 -0.096949086 -0.08693373 -0.11650063 0.07741143 0.05898866 -0.10179314 -0.10550106 0.0341506 0.08348698 0.02672792 -0.062164593 0.09423941 -0.07146462 -0.08215016 0.034763973 -0.050841782 0.0050870674 0.11014709 0.1071353 -0.12081416 -0.032114152 -0.039138865 0.0019428033
آن -0.027877348 -0.0018139719 -0.04194077 -0.07310172 0.083084136 -0.09351092 -0.11011848 -0.034606393 -0.081492245 0.093950495 -0.0044237105 -0.029374877 0.09776318 -0.09820326 -0.07595613 0.09608648 -0.09197654 0.062142357 0.09967031 -0.10728968 0.012655384 -0.046686795 0.079123266 -0.057817023 -0.06302765 0.03890629 0.101183854 0.10250215 -0.079982184 -0.05646847 -0.10368414 0.06866735 -0.087363295 -0.050570063 0.05265129 0.06208529 0.10298315 0.06791972 -0.03415437 0.049428653 0.031836618 -0.035766408 -0.05106341 -0.051354095 0.10309898 -0.09284287 0.04290593 0.07498784 -0.016067032 0.07549628 0.037118107 0.06494125 0.052418772 -0.073136024 0.044955418 0.05323335 -0.067309774 -0.08508916 -0.08769698 -0.0677922 0.01663417 0.10207654 -0.09257429 -0.0037532423 -0.05645833 -0.019518334 0.038541477 -0.0947511 -0.074600235 -0.010821808 0.08939475 0.09636214 0.005133207 -0.03848763 -0.03196889 -0.050385363 -0.067026995 0.06439227 0.016817585 -0.065000266 0.08841312 0.05313145 -0.05496367 0.1098109 0.06892776 0.05747913 -0.054846525 0.09457252 0.0704243 -0.11136578 -0.06827419 0.011084144 -0.06548361 0.104338035 0.068936706 -0.111129135 0.09674582 -0.09531665 0.01297344 -0.088000394 0.031482104 0.0071581537 0.05506126 0.06975509 -0.0729332 -0.07849881 0.08068568 -0.107999384 -0.024854237 -0.019905666 -0.06616725 -0.098566875 -0.078825355 0.11726457 -0.0050448887 0.096244 0.039654195 0.010694918 0.04544395 0.10977914 -0.08068077 -0.06423216 0.023370195 -0.052592985 -0.043050848 -0.008279989 -0.08410752 -0.07145773 -0.10349086 0.0428547 0.077288486 0.063907176 -0.023540374 -0.06383308 -0.061263137 -0.1073525 0.018090049 -0.107668 -0.0099677155 -0.031509638 -0.05284181 -0.037791234 -0.079419315 0.08438011 0.10461544 -0.030493986 0.025232 0.085861705 0.1064311 -0.03401644 0.044035304 0.09501182 -0.08593161 0.020951435 -0.037625723 0.09713128 1.5564645e-05 -0.1142879 -0.08155409 0.067157134 0.11951456 -0.092726514 0.05666935 0.027066888 -0.076431654 -0.102514915 -0.08909028 -0.02230836 0.09677742 0.051802333 0.10211315 0.10100538 -0.11121394 0.046899837 0.11142168 0.005743772 0.11479403 -0.042464934 0.030180201 0.00016750024 0.05887588 -0.018401798 -0.04785283 0.056757003 -0.06472432 0.057710785 -0.04772588 -0.021036336 -0.08267709 0.024789596 0.08837714 -0.012993194 0.07319485 0.09838492 0.048711635 0.097458914 -0.010881511 -0.07620537 0.11377702 0.04446446
احتمال 0.078312516 -0.11464402 -0.10618556 0.06390191 -0.016353473 0.003242558 0.11683073 -0.10022579 0.08396239 -0.08115176 -0.03278085 -0.11263306 -0.073120005 0.060125258 -0.086755365 0.0552889 0.10285407 0.07972683 0.034591384 -0.08461055 -0.01390785 0.0778481 -0.007919838 -0.036729448 -0.009014103 0.099357635 -0.039065715 0.09050552 -0.007909166 -0.062430818 -0.0019530839 0.038600214 0.116431154 0.054935023 0.06205897 0.082392864 0.035333283 -0.017293803 -0.092367105 -0.029181518 -0.0016198346 0.06049294 0.071487516 -0.024748638 0.07899402 0.023896107 -0.06704767 -0.087042816 -0.076495305 -0.08237551 -0.09699451 0.099296376 0.06230846 -0.09187159 -0.012133297 -0.043305427 -0.12166761 0.055037964 0.07576447 0.11352635 -0.10096694 -0.044445038 -0.05558364 0.096790984 -0.08417596 0.07601724 -0.10558921 -0.024511123 0.08807943 0.0026620098 -0.060447853 0.09819296 -0.06745354 -0.07823361 0.06961137 -0.119908 -0.10971618 -0.01005342 0.0028553577 -0.112642564 -0.04712205 -0.05654097 0.004798087 0.101788685 0.10606961 0.030866725 -0.012919323 0.058142807 0.10484533 0.055939347 0.08097015 -0.09064136 -0.022898078 0.07960586 -0.03757777 -0.01445532 0.03232996 -0.07184413 -0.015050593 0.02713112 0.07640311 0.07437111 -0.034358654 0.1012578 -0.05619646 -0.030307464 -0.10251344 -0.008108813 0.037469633 0.06778848 -0.0023362308 0.03202035 -0.03334774 -0.08438203 -0.044949964 -0.0052901153 -0.091596656 -0.07230758 0.06638606 0.036457658 -0.11022698 0.039135788 -0.042211436 0.04387598 -0.11461436 -0.07882392 0.08124436 -0.09697096 -0.07710543 -0.040607344 -0.013444045 0.038038705 0.08643625 0.007181094 0.02098451 0.097021304 0.050164662 0.039927077 0.011041366 0.08072604 0.06393859 -0.0057738223 0.07963224 -0.060086165 0.004472535 -0.1161248 0.0846671 0.06091727 0.030820472 -0.1129833 -0.035662465 -0.0567357 0.010243964 0.057982642 -0.068984516 0.04851801 -0.06931775 -0.103403196 -0.11565162 0.018750897 -0.0805864 -0.07543818 0.081383094 -0.08740608 -0.013305193 0.036690302 -0.050653864 -0.07819398 0.07587594 0.066979766 -0.04061842 0.04217426 0.06596754 -0.11445145 -0.10281738 -0.104674555 0.07391867 0.104704365 0.06556885 -0.0707988 0.050019387 -0.101319656 0.118244626 0.102570094 -0.07018071 0.07947817 0.03932547 0.08120165 -0.025522027 0.059168167 0.031071467 0.114342116 -0.03432328 -0.03824571 -0.07064088 0.08997697 0.004499553 0.096524395 -0.06380585 -0.08012837
می‌شوند -0.0175588 0.009942091 0.06438421 0.03237426 -0.011900341 0.0986402 0.10906974 0.10958884 0.083319455 -0.06966949 0.080020025 0.019325702 0.006262214 0.10524737 -0.05731815 0.09311132 0.081107154 0.03378176 -0.048992913 0.020367442 -0.08378209 0.10979813 -0.020627089 0.10205972 0.099090144 -0.060762543 -0.11230154 0.039659053 -0.042603616 0.11020972 -0.03940675 0.08413575 -0.1005185 -0.057915207 0.1063526 -0.021562988 0.06569789 -0.07735871 0.1010417 0.039135095 -0.09742839 0.03175179 -0.08901846 -0.017382143 0.018167252 -0.08846717 -0.011116063 0.098355904 -0.053770453 -0.007046964 0.018892303 0.010450494 0.06441271 0.07508698 -0.034107994 -0.02976438 0.099898055 0.07618239 0.08275106 -0.0274336 -0.044528857 -0.07584504 -0.11209206 -0.015506906 -0.031192387 -0.011969429 -0.11237185 0.109083734 -0.08547047 -0.07028373 -0.06849605 0.09632383 0.08373414 0.014493353 0.10541908 0.083590016 0.07863812 -0.006004963 -0.019115256 0.04807009 0.04483056 -0.011553278 -0.0967734 -0.06931467 -0.06407833 -0.047950506 0.038519222 -0.08405801 0.027024636 -0.05024269 0.081914224 0.030462772 -0.082664676 0.063934155 0.024743514 0.05309797 0.023136526 0.0680284 0.03692386 0.022471998 -0.08531295 -0.05058863 0.06780284 0.06507561 0.082285814 -0.08859644 0.05836483 -0.084584065 -0.004057916 -0.070604235 -0.0018777478 0.0804884 0.065502934 0.0969033 -0.025763249 0.06827737 -0.10139201 -0.080381356 0.02463629 0.10807728 -0.03538615 0.11726771 -0.009343305 -0.072619244 -0.070922315 -0.108973645 0.09593879 0.07867959 0.07592394 -0.115979925 -0.027875753 0.06623509 0.060350813 -0.067522995 0.11098369 -0.11365255 -0.07467249 0.028326238 -0.06974549 0.05260787 -0.01862894 0.091444746 0.0831686 -0.052156664 -0.042820103 0.051542122 0.030029258 0.020531772 0.094180815 0.00388347 0.03237648 -0.10354177 0.039255884 0.08301907 0.11226318 0.06761758 0.05969473 -0.08216427 0.11567327 -0.10876975 0.038323957 -0.0776352 0.112723686 -0.03060064 0.003729432 -0.10884824 0.087791264 0.03653423 0.038595688 -0.011425725 0.09552416 -0.0779353 0.06836178 -0.011646799 0.10584022 0.08488326 -0.09890181 0.06744809 0.02648649 0.067710824 -0.023702912 -0.08974474 -0.07365946 -0.041613758 0.0718911 0.10571939 0.021454483 -0.0001859506 -0.087338455 0.10732689 0.02043547 0.0860977 0.09081196 -0.032879937 0.031954363 0.105337955 -0.06891581 0.069124974 0.007493918 -0.096979365
قرار 0.016157968 0.116512425 -0.10898719 0.07239039 0.06809133 0.043115057 -0.10543959 -0.09456748 0.07952923 -0.10793507 0.027795624 0.11979991 0.08408987 -0.077465095 -0.023878733 0.038161572 0.019082295 0.09700173 -0.031968046 0.087324984 0.10381228 -0.009128341 0.035521016 -0.029975282 -0.06045771 -0.061991293 0.09546212 -0.037784636 0.03444305 -0.07972852 0.013514691 0.00021478646 -0.00042445032 -0.11697913 -0.0845292 0.030498356 0.016651995 0.040925693 -0.058690667 -0.017400598 -0.026924701 -0.059462246 0.10075022 0.015765103 -0.02854375 -0.09550324 -0.06737133 -0.10641573 -0.013058763 0.09710668 0.07341396 0.04545757 0.0057805367 -0.11339989 -0.09445535 -0.11670939 -0.030702958 -0.04095349 -0.12324529 0.019947356 -0.002116224 -0.0531888 0.037119936 0.09096314 0.0028740733 0.03408939 -0.07931385 -0.028683046 0.044473164 -0.113288544 -0.03641691 0.0029741009 -0.014629326 0.06664821 0.020243404 0.015953954 0.060624637 0.12809055 -0.08963697 0.07298675 -0.09844122 0.03129842 0.0470384 0.026557693 0.11187888 -0.11707754 0.020686418 -0.045349274 0.0315156 0.08210381 -0.10401708 0.055510975 0.11137428 0.12022892 -0.026844319 -0.031953685 0.11565553 0.07024427 0.061738946 0.08009007 -0.03831042 0.09640777 0.07427702 0.013382324 0.043229546 -0.06827051 0.06072597 0.09559241 -0.09957982 0.06476745 -0.015519952 -0.11209927 0.07726819 -0.1137488 -0.09970612 -0.05137389 -0.09811812 0.053852096 0.08424633 0.05031066 -0.039858587 0.1143694 -0.061314546 -0.10828645 -0.05323877 0.09857966 -0.03111906 0.07576194 0.11552521 -0.072641365 0.07719867 0.014606709 -0.049245264 0.07936455 0.073069796 0.10604894 0.106158905 0.080825955 -0.01658745 0.0019237831 -0.012018268 -0.05366125 0.019581877 0.06756026 0.047615804 -0.100045614 0.027290897 -0.08555254 0.038177583 -0.058149952 0.08787277 0.066531636 0.037324753 -0.058774 0.008380114 -0.029020531 -0.06805986 -0.035003718 0.026780589 0.005802305 -0.006271147 0.080678426 0.047350544 0.0134147 0.047414597 -0.12777911 0.025043838 0.09513333 -0.07853322 0.009564363 0.06866798 0.098347135 0.05323875 0.032653388 0.09006573 -0.049438633 -0.03314444 0.097893134 -0.12640077 -0.016367525 0.05295699 -0.031081723 0.1100375 0.09685768 0.10867737 -0.12074003 -0.12320339 -0.054942045 0.122646436 0.112847835 -0.0010433698 0.07738636 -0.053193476 -0.028615166 -0.030712826 -0.0021533421 -0.0066209296 0.019055199 0.043924693 -0.016489103
نشان -0.020525182 0.103731565 -0.0903324 0.052173957 -0.03929958 -0.08160116 -0.047702935 0.004815904 0.008360327 0.11495526 0.053561404 -0.03404173 -0.034587353 0.11224723 -0.0526213 0.038596686 -0.074018195 -0.044850294 0.041377846 -0.007987744 -0.055176128 0.07060736 0.013300545 0.10916118 0.011471427 -0.066964164 0.117901616 -0.035915274 0.0049858526 0.098438166 -0.10664864 -0.040025648 -0.08703942 -0.056894507 0.10950225 0.098076895 0.10968025 0.10343258 -0.054305106 0.05718874 -0.0838564 -0.06997624 0.01692531 0.06510256 -0.098202206 -0.0891974 0.019355187 -0.050649196 0.05061333 0.06860256 0.092388965 -0.07747759 0.04888512 -0.06714885 0.03501138 0.01749238 -0.11758248 0.06758101 0.11315695 0.004644121 0.023627084 -0.07079725 0.021202996 0.03707255 -0.05318709 0.00811749 -0.11946005 0.061300986 -0.052213337 0.11050258 -0.07702897 0.045462538 -0.057961367 0.102042384 -0.08557827 0.02371161 -0.04349558 0.08966306 -0.0003143892 -0.0069350703 -0.1179014 0.05363967 -0.11864916 0.068454206 -0.090582006 -0.0045054154 0.006280467 -0.04173036 0.07259446 0.04908027 0.043288093 -0.06496429 0.11200256 -0.0471416 -0.07324161 -0.031817503 0.05853278 0.0074106054 0.023677545 -0.10634511 0.032293063 -0.07095164 0.061518937 -0.065919794 0.11033863 0.058864538 -0.09426641 -0.09187258 -0.06502069 -0.10245631 -0.09723223 0.07307358 -0.024373384 0.04697017 -0.0781007 0.112794496 0.11226158 -0.037919927 0.077778704 -0.105701454 0.09568985 -0.079509676 0.11373393 -0.11302198 -0.0005210428 0.012803367 0.015589311 -0.0054386905 0.014842224 -0.047872968 -0.008223473 0.074484184 -0.06706097 -0.11012646 -0.032505333 0.08635215 0.025438119 -0.097538695 -0.112374395 0.02793349 0.06663234 -0.04228577 -0.031027652 -0.117177345 -0.0876023 -0.10123269 0.047611874 -0.0961602 -0.06707182 0.064346306 0.089874424 0.10282935 -0.10669818 -0.01596156 -0.09143095 0.036124144 0.0016428593 -0.092434205 0.104476 -0.06262088 -0.052164145 -0.083478756 0.06883101 -0.024161713 0.049111087 -0.12010371 0.12014757 -0.099951014 0.0412649 -0.09017848 -0.10573375 0.04270265 -0.00600079 0.024014512 0.017557772 0.0160803 -0.037812833 0.07898963 -0.1002919 0.09466982 0.04521969 -0.046257075 -0.075120285 0.061577506 0.05701886 0.10386969 -0.008629422 -0.10125822 -0.04771419 -0.031071637 -0.09989608 -0.03744725 -0.012492148 0.048975017 0.030057527 -0.021297581 0.03309222 -0.07234863 0.03785574 0.00395366
بیش‌تر -0.01652682 0.046805926 0.07847058 -0.024507672 -0.018574152 0.043999705 -0.052264493 0.06579056 -0.079364195 0.09867451 -0.014553361 0.092766784 0.035576258 -0.08325955 0.11321823 -0.0033120657 0.024955738 0.08444226 -0.0914792 0.09509225 0.11400478 0.12052585 -0.115271755 0.03800783 0.09667517 0.058696155 -0.04988633 -0.026391296 -0.09006877 0.05147057 -0.044310257 -0.019476132 0.09385302 0.027760256 -0.052555565 0.05228221 -0.106336065 0.10309894 -0.09165225 0.029027442 -0.02940237 -0.062304657 -0.09669995 -0.00941084 0.043453675 0.09706822 0.0674513 0.10057791 0.0811406 0.08656567 -0.05301159 -0.093162104 -0.03621721 0.002860754 0.0908728 0.08347328 0.10457517 -0.088846475 0.08621243 0.1072748 0.10308009 -0.11134234 0.015164963 0.10897282 0.04027954 -0.015887821 -0.099347845 0.09180753 -0.0881286 0.049114298 0.04505885 0.07489023 0.08828914 -0.10943447 0.0737014 0.007996397 0.018609913 -0.05838624 -0.016148675 0.032224167 0.033266496 -0.059728775 0.055232357 0.057399508 -0.055828713 0.11433241 -0.076717354 0.10490033 0.0039861267 0.0039588013 0.029234998 -0.07109578 -0.0610923 -0.023129964 -0.07956058 -0.050308727 0.0480008 0.023112595 -0.056656532 0.013710306 0.06666882 -0.053970497 -0.0034930655 0.09166874 0.07149677 -0.121461235 -0.113820024 -0.08754735 0.037945967 -0.069548875 0.087200515 -0.03961589 -0.0029553606 0.09039468 -0.0066118883 0.091632664 0.03179065 -0.10767869 -0.040468846 0.11229098 -0.009094477 -0.008811067 -0.10434107 -0.092616625 -0.09704983 0.03008305 -0.10941948 0.10892113 0.10868266 0.099369 0.102914445 -0.09415656 0.1066224 0.04568192 0.06699792 -0.060026426 -0.060343258 0.024365442 -0.0014748562 0.074508406 0.09351817 0.0732077 0.0066942396 -0.056735333 0.07375639 -0.031512715 -0.1012323 0.08159177 0.10325435 0.09497637 -0.11508079 -0.03906483 0.11125241 0.048187986 0.026430547 -0.05958279 -0.07353226 -0.03277919 -0.08711862 -0.05471288 -0.050180744 0.081762396 -0.03658192 0.026780276 0.079062626 0.07221798 -0.040482096 0.03806209 -0.09099198 -0.03489582 0.036519032 -0.05549589 0.06925577 -0.043016 -0.09498142 0.01617685 0.04311362 0.003999086 0.0020269654 -0.01026187 -0.011439754 0.095804214 0.0933113 0.051866814 0.06486503 -0.0778887 0.11192053 -0.011938324 -0.039287437 -0.015195499 0.064794526 0.009741697 0.030177116 0.08147579 -0.083111234 -0.107048295 0.10214052 0.030653449 -0.019989774 0.047516305
تا 0.042940795 0.08557256 -0.06272168 -0.07126368 0.048146106 -0.10856085 -0.08533899 0.04677195 -0.07518305 -0.040835623 0.08384975 -0.026398877 0.039895587 -0.10599638 -0.060121436 -0.017818011 0.006472602 -0.090511635 -0.012907047 0.0058452906 -0.044841085 0.038919397 -0.11427748 -0.117258236 0.092356786 -0.066111155 -0.044987094 0.070009865 0.11205777 0.117252275 0.10393249 -0.04460638 -0.09411765 -0.0042473404 -0.079446934 0.04676553 -0.0939229 0.0978914 -0.037620727 -0.10598985 0.0949545 -0.084014766 0.04624096 0.11060437 -0.006672545 -0.11059181 0.024567898 -0.026420033 0.05561733 0.07864064 0.04663096 0.080119215 -0.04546001 -0.00018443434 -0.0880742 -0.093596555 -0.049157668 -0.0005567488 -0.0645795 0.04852808 0.07486688 -0.034879126 0.059694245 0.080072746 0.07459175 0.07602659 0.09040073 0.092272945 -0.108779795 -0.08123052 0.0683653 -0.110644005 -0.093771875 0.052949872 0.10817778 -0.057989627 0.051879313 -0.041789126 -0.015038545 0.050049882 -0.056898627 -0.015666205 0.06102578 -0.024600217 0.078455865 0.084543824 0.10746157 -0.10626715 0.01999719 -0.06784974 -0.022583071 0.00031281498 0.07009674 0.10393235 0.11901601 0.0037825042 0.097775884 0.11625007 0.061067555 -0.096773595 0.05566361 -0.076911986 -0.017622592 -0.104779616 0.077796265 -0.015508367 -0.11465448 -0.0134454025 -0.06556651 -0.08510841 -0.030553745 -0.01638551 -0.1084109 -0.027659016 -0.06880173 -0.07738245 0.0041266372 0.04423748 -0.036929205 0.015453749 0.07066164 0.089718826 -0.092638865 0.051187553 -0.055455428 -0.068177216 -0.007641475 -0.029467572 0.06935048 -0.04085539 -0.03824193 -0.09743315 -0.016709873 -0.05413389 -0.10897818 0.06942145 -0.038925793 -0.0065790783 0.08826174 -0.100406416 -0.057884578 0.104874976 -0.08694132 0.029182935 0.02492041 0.0096598035 0.11199779 -0.102774724 0.04772256 -0.092322454 0.11103502 0.104466245 0.002551249 0.11291497 0.08267968 -0.0036417332 0.116929375 0.082646616 -0.00890809 -0.075630866 0.073244676 0.11401923 -0.022531765 -0.06476923 -0.11141566 0.0534055 -0.012175118 -0.096817814 0.0059360666 0.00094014587 -0.018693065 -0.033480637 0.087971166 -0.043036893 0.0414542 -0.021616258 0.06076668 0.07589388 0.1036433 0.071881495 0.08977632 0.054293662 0.035910442 -0.057212733 0.06552599 0.073970735 -0.052438658 -0.047628026 -0.109564014 -0.08191222 0.040761627 0.0004702576 0.098767206 -0.07732063 0.07101872 0.054062534 0.053784657 -0.021343691 0.037151787 0.004978278
