672 200
به 0.10701636 0.032952573 0.050729014 -0.073575184 0.021945778 0.0031966208 -0.034462236 -0.036283944 -0.049264684 0.04726679 -0.074845135 -0.044706076 0.06426755 0.0818874 -0.076322414 0.029741867 -0.119058914 -0.08114666 0.0046245274 -0.018534979 0.026660992 0.024156457 -0.023714785 -0.019800935 0.0818341 -0.14992234 -0.12516096 -0.15481986 0.020505253 0.047212508 0.0461182 0.14819624 -0.019437352 0.05021706 -0.0031496629 0.04434484 -0.059207022 -0.10139694 0.04621108 0.059581384 0.06353355 -0.14374958 0.04744701 0.006985114 -0.051511593 0.008089133 0.08931963 -0.0053944495 0.030630624 0.12746665 0.030267285 -0.059488464 -0.0551721 -0.01672247 0.006724478 -0.03452485 -0.030827377 0.05328324 -0.027248481 -0.0006089996 -0.012478788 -0.02970958 0.0037265676 0.003999439 0.14460038 0.024363725 -0.10200472 0.038918406 -0.0803738 0.01766052 -0.047439218 0.05782373 -0.088815846 -0.013096316 -0.1734063 0.059059497 0.05220852 0.11133803 0.0489011 0.0651931 -0.066411175 -0.02373683 0.10634927 -0.13534304 -0.018604457 0.003728575 -0.08189858 0.054601233 -0.021714346 -0.020458302 0.015302367 -0.0537216 0.10867719 -0.021331487 0.14642301 0.04736334 0.10952532 0.05434031 -0.024955172 -0.029165082 0.028622368 -0.007070875 0.06528866 0.10321162 -0.07758698 -0.10172915 -0.18131423 0.09794601 0.011371005 0.06614788 -0.027165197 0.040215917 0.076836534 0.10977459 0.025086114 -0.10892434 -0.0760901 0.1155158 0.06667639 0.12967034 0.13110846 -0.08135453 -0.04447778 0.029647747 -0.11621307 0.13565418 0.05250666 -0.019355815 0.032642994 0.015394997 0.020955045 -0.078295134 -0.06432471 0.015223368 -0.046937946 -0.0006655428 -0.081465416 -0.110355385 0.008674003 0.0055114646 0.032250915 0.023620566 -0.046277918 0.038652018 0.0022620058 -0.03189642 -0.013835554 -0.02187051 -0.10602372 -0.11034429 -0.034164585 0.026926786 -0.016439795 -0.018763198 0.12107004 -0.05022766 0.022972355 -0.026474763 0.057134427 0.084470205 0.06541987 0.09953728 0.19510727 0.00824817 0.1722667 -0.0021187186 0.06208133 0.060768973 0.036601506 -0.012708419 -0.03797402 -0.05311325 0.010381305 -0.115466036 -0.002408695 -0.035369415 -0.025244663 -0.05796948 -0.014407315 -0.00016196103 0.07546858 -0.06662641 -0.14319515 -0.05083611 -0.10397208 0.049051795 -0.11815478 -0.025048753 0.056641627 0.022905208 -0.07271944 -0.002148102 0.062093366 0.02495661 -0.025632823 0.06880592 -0.09456574 0.015922518 0.042785943 0.09720257
از 0.09944483 0.0011800771 0.051689275 -0.108344205 0.0056951926 -0.04819671 -0.07619797 -0.017114338 -0.097259834 0.0809132 -0.06676664 -0.08961577 0.11473812 0.08388564 -0.0831239 0.044336226 -0.10046643 -0.032625947 0.051081054 0.0365075 0.020649418 0.030101752 -0.03897446 -0.054189246 0.012874571 -0.15486185 -0.17715123 -0.15434065 0.07370824 0.07551546 0.009391615 0.1592457 -0.06506773 -0.0064405366 -0.037250124 0.006761523 -0.03476107 -0.105663635 0.036826037 0.012374431 0.03140444 -0.11377564 0.010323276 -0.0013036254 -0.014065207 0.036404148 0.08387222 0.048894126 0.083694816 0.109072015 -0.0069926297 -0.06968578 -0.113283366 -0.058209617 -0.024291385 -0.017989155 -0.0072898986 0.06400727 -0.044709537 0.060680334 0.0077629504 -0.039374802 -0.019674787 -0.06734345 0.11588118 0.049908727 -0.038663585 0.028369749 -0.022579255 0.025812509 -0.029968558 0.07017006 -0.1434963 -0.01728679 -0.12894419 0.06724446 0.03745983 0.10674744 0.099013455 0.049919043 -0.12141822 -0.07124806 0.09285894 -0.140038 -0.027070967 -0.017465835 -0.032665074 0.044278663 -0.043731485 -0.018176133 -0.046126056 -0.07916036 0.075210415 0.0098383855 0.1516549 0.06344617 0.15803233 0.061979517 -0.04429726 0.039775982 0.034753688 0.0006009246 0.038677316 0.06523979 -0.067765824 -0.059237726 -0.18193018 0.08555447 0.0037160139 0.029694375 -0.053791165 0.07227362 0.11489748 0.11698369 0.022919457 -0.10803162 -0.046298508 0.12820286 0.09939223 0.117722474 0.124305055 -0.07946478 -0.022646613 0.016606994 -0.121162616 0.12047522 -0.0107706245 0.04044974 0.080504306 0.037777886 0.020782765 -0.017154248 -0.012411885 0.03331883 -0.09378351 0.002996152 -0.09620477 -0.10564055 -0.055977255 0.05658184 0.03430298 -0.055548735 -0.028456904 -0.027797723 -0.0042991 -0.002058595 -0.0066174157 0.020348502 -0.08111187 -0.06778089 -0.069851875 -0.0051258365 0.039788626 -0.06781759 0.06649259 -0.05270766 -0.039264537 -0.02295518 0.039574575 0.09163374 0.09348832 0.05699516 0.18820933 0.034718838 0.09729125 -0.020281954 0.0202525 0.06541634 0.032238778 0.030057432 -0.07141152 0.00076088536 0.0039652684 -0.08329384 0.034614597 0.012254409 -0.061293572 -0.05417229 -0.004215116 -0.04061065 0.054751232 -0.113960184 -0.09675921 0.0061155963 -0.049717214 0.028456917 -0.084499635 0.01878534 0.042391863 -0.037170406 -0.04555447 -0.022505948 0.0071014217 0.015173199 -0.030189889 0.09147953 -0.09805831 0.02239613 0.038107507 0.090130314
و 0.056832694 -0.021236135 0.035071887 -0.10763293 -0.004032088 -0.0626087 -0.07766856 -0.060576804 -0.08952064 0.08325636 -0.062615804 -0.058853358 0.11563418 0.061766185 -0.08649768 0.010248687 -0.11976734 -0.062290378 0.06288416 0.032332614 -0.03506971 0.01039585 -0.069310464 -0.052340195 0.08410071 -0.15335815 -0.1581613 -0.12030675 0.019612528 0.060508575 0.07409694 0.110715084 -0.010060152 0.03263539 -0.043566678 0.072550595 -0.054137155 -0.058557115 0.034095764 0.012122209 0.03324408 -0.15051559 0.051825184 -0.043187894 -0.06988016 0.033125266 0.045643426 -0.016623994 0.007857976 0.14423972 0.06940512 -0.066476464 -0.114304006 -0.061962828 -0.024078885 -0.017453147 -0.020148195 -0.005989122 0.019587876 0.016599339 0.055907596 -0.09125298 -0.032368872 -0.05154643 0.13116142 0.03462967 -0.0974608 -0.020239262 0.0068741716 0.034391023 -0.016839812 0.06718542 -0.10029868 -0.01781697 -0.104825236 0.10061072 0.09134072 0.11175983 0.10013649 0.07864107 -0.07121002 -0.04795598 0.06860022 -0.07175671 0.009706458 -0.04670722 -0.03591447 0.02636178 -0.06466132 -0.01679266 0.029488027 -0.077883266 0.11427408 -0.003231035 0.15115346 0.07078702 0.13243522 0.1143853 0.015195027 0.020970605 0.066053845 -0.035349812 0.049435843 0.042927645 -0.0596579 -0.09319428 -0.1571142 0.0639053 -0.02010243 0.06858564 -0.06528722 0.080222905 0.064618014 0.077496044 0.015407145 -0.11186374 -0.016132023 0.17648253 0.06921302 0.09681933 0.14846376 -0.10244938 -0.05634627 -0.04349515 -0.05084704 0.11710106 0.013649937 0.03928009 0.0059096445 0.026088858 0.043677405 -0.028542995 0.013709585 3.8776747e-05 -0.04968034 0.031074073 -0.10026127 -0.027388552 -0.017752398 0.057932064 0.09588835 0.032145463 0.027570894 -0.025221407 -0.0050747143 -0.0021606924 -0.04911915 0.037754778 -0.12095267 -0.05170406 -0.09254534 0.054944094 -0.010703083 -0.047271516 0.04807031 -0.062272027 0.013564465 -0.023139343 0.033468656 0.09735725 0.0057484237 0.10425025 0.19382414 0.0019996348 0.15923284 0.030135535 0.053159792 0.026607845 0.009660763 0.008252313 0.0012998823 -0.037892 0.044370547 -0.11216439 0.018026808 -0.026962496 -0.02231576 -0.07080512 0.020139745 -0.057095338 0.071505554 -0.13504337 -0.081925094 0.035553236 -0.095747545 -0.02606491 -0.12996808 -0.03292066 0.065777116 -0.03645279 0.004093988 -0.03637523 0.06106571 0.022952866 -0.04069231 0.09002307 -0.09319398 0.0079982495 -0.010063091 0.061061665
در 0.14619148 -0.00079770223 0.06864539 -0.10080072 0.01725334 -0.059456 -0.10065715 -0.03964077 -0.03137143 0.068589404 -0.021469919 -0.103044614 0.14018868 0.09452305 -0.055092573 0.053116675 -0.07100492 -0.04222938 0.020579115 0.03255499 -0.007163166 -0.015134673 -0.043752562 -0.044409256 0.01789627 -0.15088505 -0.13337678 -0.111291684 0.048435498 0.07222251 0.03567432 0.12819408 -0.027454307 0.014337126 -0.033474434 0.024366273 -0.070013285 -0.11368116 0.074944235 0.015947536 0.043013766 -0.13666797 0.06618499 0.036452465 -0.07592149 0.03176825 0.08656032 0.04418368 0.0415269 0.13384067 0.0112406835 -0.034263667 -0.10445997 -0.06142756 -0.02206412 -0.020039981 -0.04090645 0.03883243 -0.022760775 -0.0011704144 0.00036534542 -0.031964928 -0.022065321 -0.040752336 0.08164888 0.047027245 -0.094703674 0.03163872 -0.04284187 -0.01776173 -0.06562336 0.08257205 -0.10725519 -0.0049500293 -0.19411771 0.08401825 0.08238819 0.079713225 0.03364737 0.041285586 -0.114693694 -0.0018758891 0.08443046 -0.12787285 -0.042438105 -0.0034545832 -0.099485524 0.02988406 -0.0710351 -0.020780966 -0.043339953 -0.015978446 0.10569253 -0.004336144 0.21634328 0.05080926 0.14092176 0.04014912 0.033900194 -0.031386584 0.042074364 0.019580703 0.06254647 0.09094326 -0.097927645 -0.03622663 -0.1823082 0.08915823 -0.029213734 0.058152307 0.0022593134 0.03798636 0.108341 0.09361357 0.043010343 -0.085761175 -0.032579627 0.13242969 0.047947213 0.06688556 0.14833103 -0.06793678 -0.06349158 -0.014772803 -0.101115465 0.06788039 -0.016213078 -0.0074945977 0.09584009 0.019379633 0.03575668 -0.05428423 0.000365005 -0.022526274 -0.067429155 -0.0012156119 -0.049054254 -0.037399076 -0.032954648 -0.009430697 0.07959536 -0.053371396 0.017705388 -0.03872534 -0.001346817 0.0012950385 -0.026211763 0.050599545 -0.065712966 -0.036026575 -0.10851399 0.033369936 -0.0009896604 -0.07352503 0.13629408 0.006980221 -0.0027521525 0.011149642 0.05955623 0.056487907 0.060311865 0.044157717 0.131824 -0.010979268 0.13739985 0.027097242 0.060524255 0.0851086 0.0459811 -0.003617785 -0.025342343 0.008739201 0.04619855 -0.13506018 0.013247009 -0.00093802426 -0.07695086 -0.04844446 -0.037369274 0.0005113351 0.09035863 -0.12290489 -0.16477127 -0.00069967075 -0.069965854 0.020339875 -0.12635349 0.015395267 0.018815877 0.01134897 -0.04420607 -0.0059092087 0.034915928 -0.016037313 0.012505274 0.113742225 -0.09448346 -0.022878703 -0.012501133 0.049610328
این 0.16902027 0.054080855 0.014762354 -0.055318255 0.05651485 -0.05107306 -0.043141063 -0.027987096 -0.027145294 0.032129243 0.002435631 -0.10362426 0.069652125 0.03254054 -0.012990125 0.059771143 -0.04454893 -0.03662879 -0.013038497 0.07009826 0.049917154 -0.042005546 0.015842393 -0.010618691 0.05433998 -0.1552337 -0.16455923 -0.15587002 0.075398594 -0.0025263967 0.053492904 0.156827 -0.027490987 -0.010724718 -0.022896355 0.012386635 -0.09582437 -0.102887236 0.0034055074 0.038383722 0.07644521 -0.12525427 0.07707155 0.011123511 0.0027516256 0.038939763 0.12165994 -0.038044255 0.0644856 0.092250854 0.06783789 -0.04547877 -0.07151551 -0.033564728 -0.060576797 -0.070670694 -0.011599873 0.057077974 0.0077679097 -0.018331958 0.06542042 -0.055594962 -0.060550526 -0.0010718211 0.14570254 0.01304186 -0.09354744 0.011461521 -0.08112339 0.0267596 -0.09542622 0.0042730044 -0.08423135 0.014020206 -0.19179733 0.10370967 0.030504933 0.028741883 0.11975815 0.0899736 -0.07247084 -0.05556724 0.031065295 -0.12382054 -0.05525179 0.00018929399 -0.0683809 -0.008341041 -0.061233897 0.0038745932 -0.0050188606 -0.07476151 0.13383448 0.04934868 0.105482236 0.087969266 0.14250676 0.115245685 0.027182683 -0.024076125 0.008052484 0.03032513 0.023406444 0.071360976 -0.009531907 -0.051739722 -0.104711525 0.118028015 -0.031693455 0.01486218 -0.060825646 0.09441993 0.08448687 0.08230752 0.049024787 -0.086487584 -0.09004689 0.17877367 0.101115115 0.089331806 0.1413546 -0.073954955 -0.055439033 0.010645454 -0.14118864 0.07023249 -0.016501429 0.04324547 0.04628111 0.037022337 0.028504686 -0.06330295 -0.072881244 0.053562608 -0.08218825 -0.016747227 -0.08511511 -0.12320685 -0.012954945 0.076037 0.06159077 -0.031168688 -0.010665994 0.03709317 0.07457666 -0.022365285 -0.07080307 0.0197936 -0.06590052 -0.020328866 -0.1055105 0.033015806 0.009109713 -0.026204998 0.13030231 -0.0059548407 -0.0042193895 0.03076763 0.08847126 0.104104444 0.062180918 0.07971296 0.14469352 0.028322583 0.08570898 -0.02579925 0.048959427 0.014849667 -0.016956218 -0.01325993 -0.06508985 0.013281674 0.0007324168 -0.08325207 -0.014101439 0.00027863967 -0.090768114 -0.035594188 0.04573421 -0.0047791535 0.07094912 -0.04471018 -0.072696134 -0.03823055 -0.10532468 -0.019358678 -0.11779421 -0.0068598916 0.034386177 0.029766843 -0.035097055 -0.065697424 0.049678266 -0.035507847 -0.027876185 0.1151956 -0.083734475 0.00722837 0.055694215 0.01695709
که 0.14955436 0.033421427 0.045619477 -0.03883268 0.034111686 -0.015938539 -0.090725735 -0.05771527 -0.03637101 0.07976072 -0.08771194 -0.11029505 0.1031458 0.045922127 -0.0799471 0.006881414 -0.08467235 -0.06444766 0.0380091 0.015843628 0.0071107014 0.017422982 -0.013217815 0.0049756635 0.028339757 -0.17284325 -0.15861453 -0.060495544 0.04093256 0.008549257 0.07402861 0.12217796 -0.06942319 -0.021700973 0.051222127 0.07227999 -0.04561038 -0.08029926 0.073913336 -0.017858382 0.013321067 -0.13412382 0.03433814 -0.03028314 0.0042925333 0.019282006 0.081514105 0.024812054 0.04965632 0.1253725 -0.033660576 -0.014459082 -0.09481982 -0.0101800505 0.0046729203 -0.057919253 -0.006996122 0.029267985 -0.0014872036 0.069235325 0.056551173 -0.08866025 -0.07390222 -0.04876007 0.09522824 0.0078364415 -0.0043622935 0.03642101 -0.045586694 0.06282915 -0.06528337 0.08032384 -0.1343295 0.05628518 -0.17619121 0.07181784 0.07028863 0.12514786 0.046264045 -0.016299509 -0.071198195 0.011389627 0.098074354 -0.086575575 0.024007717 -0.041594233 -0.101982154 -0.002888929 -0.005787798 -0.05867834 -0.080026165 -0.044278406 0.09660738 0.0493463 0.14652438 0.013671172 0.17030022 0.10694214 0.045772057 0.032626197 0.00075196696 0.003864479 -0.010767425 0.06573807 -0.028553627 -0.03783704 -0.1765095 0.034027256 -0.02839696 0.09888179 0.032802336 0.04571449 0.049798947 0.05825384 0.07177497 -0.12220877 -0.027307646 0.10665596 0.02530411 0.115306646 0.12465399 -0.07909472 -0.008303099 -0.009810167 -0.110286884 0.10827463 0.017075973 -0.044586495 0.062641725 -0.026497763 0.007715031 -0.018671872 -0.07008454 -0.011944766 -0.12751032 -0.026065027 -0.11428705 -0.07036683 -0.033783283 0.031824145 0.079296984 -0.04945061 -0.03468799 0.0384119 -0.024744852 -0.053466 -0.08393545 0.02903762 -0.13599332 -0.09160804 -0.10724985 0.0033644107 -0.006019487 -0.06356833 0.05330401 0.029746948 -0.068236016 0.034985494 0.0066234744 0.044050146 0.081203416 0.034927685 0.15557331 0.0032226765 0.15065269 0.028401524 0.0051109153 0.05294025 0.024326991 0.030306494 -0.0008876529 0.023202525 0.008726455 -0.045340374 0.018222611 -0.053558923 -0.09565776 0.016675163 -0.051728953 -0.04734201 0.019783823 -0.088577 -0.16255695 -0.043390427 -0.016581045 0.023145713 -0.12121824 -0.04613316 -0.018004224 -0.031927947 -0.004383214 -0.06623911 0.0766419 0.022962017 -0.02009787 0.1387686 -0.12927026 -0.037240896 -0.00070591667 0.11572192
هابل 0.1744879 -0.01778911 0.09100885 -0.07312693 0.085400626 -0.038159523 -0.06442342 0.006279659 -0.013556667 0.022636717 0.022745324 -0.01811291 0.13149978 0.04730757 -0.117758825 -0.0039192257 -0.11178668 -0.026262755 0.07400827 -0.035642717 -0.052300155 -0.05773133 -0.049806792 -0.010100457 -0.019634046 -0.0909073 -0.08210343 -0.16654128 0.046549786 -0.0046898136 0.006981859 0.11797337 -0.078988835 0.060003195 0.054890703 -0.017705165 -0.06705595 -0.06997717 0.08351405 -0.03051512 -0.009970655 -0.18385407 0.04396144 0.03712455 -0.08941276 -0.02429162 0.04532855 0.07900946 0.065777436 0.0861567 0.050284747 -0.09357523 -0.13592581 -0.06947933 -0.057779893 -0.017950589 -0.07803023 0.007960646 -0.009871927 -0.03533145 0.010704734 -0.04767879 -0.0020365801 -0.09490686 0.09598753 0.05260422 -0.011451429 -0.017699953 -0.008779213 0.031979218 -0.05514093 0.0673718 -0.12148322 0.05316636 -0.15043661 0.08372928 0.081587 0.00738641 0.04663309 0.0540783 -0.066593856 -0.027891994 0.0036978307 -0.04663757 -0.02419009 -0.020459106 -0.028876098 0.08877842 0.0023357777 -0.0861113 -0.029234264 -0.04957661 0.14063036 0.055294957 0.18865982 0.008460989 0.06919376 -0.008946798 -0.033218943 0.029134424 0.04452605 -0.05291545 0.046310358 0.029787319 -0.053468216 -0.106235966 -0.18927793 0.08072419 -0.05466808 0.093276136 -0.0430949 0.091766946 0.065460764 0.05947616 0.04701706 -0.14404356 -0.0080458615 0.1865451 0.06484673 0.08475187 0.14024276 -0.032086924 0.0104538975 -0.032431584 -0.033256467 0.021831004 -0.0019930908 -0.015890244 0.044551887 0.014999534 -0.018122634 -0.010201364 -0.011007255 0.024143292 -0.07241937 -0.004429963 -0.014192548 -0.0030201222 -0.05094476 0.010104175 0.075636774 0.016619435 0.0044848304 0.038369678 0.049960565 -0.057568718 0.03090179 0.02448836 -0.01602275 -0.061624523 -0.017953625 0.0012797804 0.085173264 -0.06498311 0.09518748 -0.027115515 -0.08752701 -0.0548447 -0.013972194 0.058266837 0.021562789 0.119656384 0.21314932 0.016286422 0.17130587 0.041855756 0.0009919814 0.096555874 0.09661944 -0.02314939 -0.102961734 -0.040594988 -0.0379815 -0.07085836 0.03020763 0.050154034 -0.03479317 -0.0360929 -0.007827071 -0.04863646 0.09952313 -0.04336644 -0.17604528 0.032342866 -0.03559851 0.080434784 -0.12086429 0.04013613 0.0475652 -0.056559507 0.010665706 -0.077142775 0.09913629 0.017653689 -0.017452385 0.07925744 -0.027877416 -0.042772558 -0.04241909 0.03876583
تلسکوپ 0.080033235 0.0067086956 0.005131462 -0.09572969 0.0015883368 -0.036986932 -0.07734195 -0.033511844 -0.004163034 0.06870322 -0.07850867 -0.04580596 0.141076 0.023125568 -0.09297278 0.071947776 -0.120456725 -0.05593119 0.08593575 -0.016936423 0.06795117 -0.059293818 -0.044364408 -0.06816396 0.070265524 -0.15666027 -0.13989016 -0.08334998 0.044307183 -0.0059450134 0.05944332 0.07702536 -0.042269513 0.0060286946 0.039145324 0.024400638 -0.033221994 -0.14955921 -0.013794922 0.05965719 0.09925823 -0.14801416 -0.012261695 0.023046184 -0.08794762 0.0026578105 0.029732872 0.046338387 0.04137825 0.15712169 -0.023561796 -0.0784518 -0.11418534 -0.07628817 0.027647689 -0.01427777 -0.07605658 0.018602826 -0.0502327 0.036288302 0.061065424 0.00952912 -0.04127593 0.0098129 0.07495814 0.008347614 -0.0061433823 -0.023837985 -0.0048767226 0.033895355 -0.02987473 0.07116025 -0.13500988 -0.035988964 -0.12191326 0.1013443 0.034837738 0.054840542 0.123432815 0.105627604 -0.15260465 -0.017198285 0.028158832 -0.15182865 -0.011914168 -0.027238911 0.001661135 0.00096563617 -0.08222839 -0.078791484 -0.071506746 -0.10105223 0.076863825 0.02761139 0.20742469 0.058802288 0.07781488 0.030216902 0.052316405 0.056194838 -0.004636671 0.0032187363 -0.020031106 0.113982424 -0.026992084 -0.09291926 -0.124327876 0.045759372 -0.039036278 -0.009530586 0.027580442 0.0044284225 0.12464315 0.03190031 0.03658918 -0.055095267 -0.09737925 0.13066962 0.03722212 0.07911645 0.1489933 -0.03541409 0.026529161 0.014179736 -0.1409549 0.11532208 0.009207981 0.04379146 0.06493469 0.019571641 0.07359914 -0.10389565 -0.0023615551 0.031563986 -0.09676116 -0.055391103 -0.12046096 -0.05710188 0.023568034 0.070642084 0.027394652 0.004271765 -0.051481493 -0.0087698 0.0294695 0.04876019 -0.01661674 0.04306664 -0.11663847 -0.10740943 -0.014835332 0.0651388 0.036793515 -0.032282397 0.07444653 -0.069323406 -0.06756754 -0.03201672 0.040467553 0.028584912 0.021526583 0.06320254 0.18313278 -0.036213774 0.14284705 -0.031350244 0.057061218 0.05705512 -0.015479863 -0.03560149 -0.08462946 -0.006098034 0.0121986605 -0.121796824 0.090284996 -0.025805427 0.0033439668 -0.09031581 0.06186927 0.018619027 0.0022379467 -0.07405547 -0.08186942 -0.057405695 -0.024524024 0.06598048 -0.08573148 -0.030952774 0.004247238 -0.0034392762 -0.09073344 -0.07973756 0.020959293 -0.040276524 0.010732109 0.07978679 -0.051717173 0.06304593 0.0046554175 0.044891417
است 0.08078016 -0.01951667 0.060545873 -0.09719756 0.0044450695 -0.0752908 -0.0043900595 0.020933758 -0.098623425 0.106557 -0.09313459 0.0034340285 0.059009187 0.004253384 -0.03410214 0.0564371 -0.043573335 -0.03580217 0.07718317 -0.0013046649 0.03941177 -0.03334178 -0.06447209 0.014935393 0.0010778432 -0.09027184 -0.20255509 -0.067757204 -0.015542058 0.02562823 0.0033380163 0.12607639 -0.06756025 0.023670802 -0.0028121646 0.045542527 -0.036333375 -0.07752362 0.0025630747 0.07026251 0.040885054 -0.101252034 0.058300488 -0.04561859 -0.0728586 0.030498333 0.0722045 0.07252189 -0.015683431 0.07846496 -0.026604788 -0.044161607 -0.100752115 0.022231879 -0.06123468 -0.028680073 -0.031636693 -0.011127556 -0.08246248 0.04647208 -0.022354022 -0.034531906 -0.050422754 -0.08538055 0.13964182 0.029615836 -0.0099171195 0.044982396 -0.08025416 0.0019781739 -0.06263318 0.04248773 -0.061558917 -0.051279217 -0.13280085 0.073706865 -0.0053030676 0.10937103 0.078567326 0.0143076945 -0.13471563 -0.05326307 0.04000539 -0.046502415 -0.039246716 -0.051402573 -0.07971668 0.06281018 -0.0766615 -0.059076406 -0.06634524 -0.0485156 0.053466693 -0.02942992 0.13225554 0.09304755 0.14653052 0.10271168 0.04063961 -0.005948388 0.004930667 0.044133034 0.050182324 0.07466861 -0.10751361 -0.034307484 -0.08175828 0.11976461 0.042242635 0.06391341 -0.060866307 0.024294859 0.07794752 0.13105822 0.062053468 -0.11611781 -0.09870197 0.18933731 0.0173263 0.11856267 0.15252191 -0.04335328 -0.029017618 0.061572585 -0.10874596 0.11291563 0.045177326 -0.041436233 0.047215078 -0.031377394 0.07922962 -0.050361272 -0.014070007 -0.04049703 -0.0142639475 -0.044763245 -0.015257245 -0.1287342 0.037444554 0.014451421 0.024709614 -0.0038892773 0.033480987 -0.05396323 -0.039992407 0.032523215 -0.055237506 0.03386474 -0.1333464 -0.010991113 -0.113434955 0.043932658 0.009118436 -0.043063827 0.059094593 -0.047432434 -0.01960638 0.0031485073 0.09503041 0.027556743 0.11596304 0.11616107 0.19346718 -0.011237617 0.12280459 -0.02621476 0.025755776 0.033147506 0.0075249663 0.029406872 -0.066376984 0.009078772 0.060840968 -0.060586978 0.100186884 -0.027767511 -0.025790172 -0.08522217 0.028384093 -0.021646898 0.082753256 -0.028027365 -0.16756621 0.019839518 -0.091194645 0.06800679 -0.13564941 -0.039844487 -0.027918605 -0.035074715 0.014129835 -0.07339203 0.09836247 -0.021820996 0.026238928 0.15292557 -0.057366498 -0.020728912 -0.010695501 0.0989988
را 0.073779434 0.03392533 -0.0006462425 -0.10569862 0.007099205 -0.075260475 -0.02976296 0.01053311 -0.025947282 0.08156008 0.0102478545 -0.050175138 0.13280238 0.09822147 -0.043655787 -0.0010629967 -0.12315193 -0.07878863 -0.019289197 0.063668974 0.018953027 -0.03726065 -0.061101906 0.003119675 0.06851141 -0.14667729 -0.1802968 -0.086399056 0.032550834 0.039484993 0.06416161 0.15788332 -0.087150596 0.0646021 0.0045875185 -0.0031741352 -0.09426339 -0.13281621 -0.007259439 0.06402929 0.047775403 -0.13949463 0.014935868 -0.032675993 -0.05641088 0.02291471 0.11642312 0.0075133536 0.061065406 0.09788197 0.04751099 -0.016601382 -0.041538488 -0.05309819 -0.0536066 -0.022210756 -0.02322248 0.06082505 -0.062299386 -0.013636551 0.049077112 -0.07573257 -0.054231945 0.021052293 0.09346369 0.05931173 -0.05798915 0.059528355 -0.06565247 0.0014504917 -0.06958774 0.06062227 -0.10253723 0.044177126 -0.16722083 0.028068209 0.06340661 0.101169094 0.016468849 0.022898812 -0.11594544 -0.020388512 0.119355075 -0.14712036 0.029413164 0.034219943 -0.02150797 0.048328705 -0.014307426 -0.04271924 -0.06897672 -0.06611527 0.06492305 -0.01583623 0.1963877 0.03499967 0.1313469 0.04425179 0.0045597437 0.021133967 -0.007743842 0.020847697 0.060837384 0.07782463 -0.09922227 -0.081003964 -0.1762816 0.026557546 0.003508525 0.03273108 -0.028249709 0.028478969 0.085480794 0.08000603 -0.0048373197 -0.059849747 -0.081817135 0.16450422 0.035501298 0.059265994 0.13369113 -0.08373497 0.0040944684 -0.019339994 -0.05347279 0.14082192 0.03331454 -0.027646743 0.023172302 0.012268198 -0.023675961 -0.011319892 -0.0012010522 -0.00648279 -0.08334009 0.025746608 -0.0631897 -0.07902609 0.018149043 -0.017881203 0.08436027 0.004351228 -0.024116617 0.009642873 0.03612814 -0.033456773 -0.03678775 0.025710585 -0.09372808 -0.036244422 -0.0613791 -0.0068620867 -0.004522922 -0.09258362 0.13023715 -0.0012170442 -0.036394324 -0.003589254 0.08388079 0.09350408 0.08332079 0.06213271 0.18760058 0.0277924 0.17341255 0.021866722 0.017986175 0.06255787 0.03312274 0.0023437387 -0.06980318 -0.0432653 -0.0033949267 -0.08646234 0.013390827 -0.040429007 -0.05565269 -0.06302553 -0.044523682 -0.013112471 0.03877006 -0.13367999 -0.1289137 0.028324306 -0.02546627 0.063242875 -0.13133019 0.004024175 -0.00347442 0.0033945707 -0.032510836 0.0114095835 0.064764164 0.0070800716 0.014051226 0.13095057 -0.11891561 0.017691357 0.05714867 0.013370493
برای 0.13590367 -0.012270654 0.06619352 -0.08591795 0.01608979 -0.005363261 -0.01928896 0.0028572096 -0.0013441122 0.07586207 -0.00308291 -0.0122755375 0.027183147 0.11223491 -0.018921757 0.07496612 -0.0858781 -0.009318148 0.058426004 -0.050127868 0.07029583 -0.02983344 0.045920935 -0.030456843 0.10995062 -0.16440332 -0.20724665 -0.16611381 -0.025005419 0.0609904 0.019885777 0.064544186 0.008811425 0.012906834 0.06370285 -0.0025684831 -0.09748032 -0.02620217 -0.036568657 0.072839014 0.04084069 -0.06558091 0.035185542 0.04026759 -0.08342184 0.08654757 0.045718417 0.0038700968 0.09750498 0.04776566 -0.019209314 0.004813636 -0.14188868 0.030578515 -0.013228142 0.011403143 -0.030558024 -0.034279287 0.0379909 0.0560226 -0.0002631219 -0.093118995 -0.05440668 -0.07586361 0.03483102 0.09264814 -0.013482536 -0.035579674 -0.0014120147 -0.0042312485 -0.022020886 0.08843402 -0.117318265 -0.052397575 -0.13449053 0.0028095008 -0.022238057 0.010620708 0.08631584 0.07162278 -0.1075496 -0.08727837 0.1331733 -0.11400667 0.060183495 -0.036634017 -0.028480753 -0.014025856 0.010669595 -0.032834418 -0.029415786 -0.03318064 0.030678432 0.019038387 0.20876803 0.015878977 0.10054454 0.11830155 0.01955645 0.060152553 0.030244593 0.04762828 -0.0005670328 0.08021801 -0.04321045 -0.0993619 -0.17533809 0.018113228 0.005299178 0.016341666 0.043875627 0.023333834 0.069542386 0.1232726 0.015782012 -0.09685749 -0.121433064 0.17051093 0.06704608 0.027438566 0.14143892 -0.070692785 0.016067255 -0.046371773 -0.16207376 0.035994325 0.036447417 0.04950334 -0.022587761 0.06970897 0.016042836 -0.04323431 0.013132397 -0.047977846 -0.024379576 0.05283801 -0.07098185 -0.1245091 -0.016116519 0.087200314 0.08332946 -0.051242027 -0.052031472 -0.042676147 0.0857104 -0.050372265 -0.0678968 -0.038287744 -0.10026388 -0.13210621 -0.08661163 -0.050653715 0.047658887 -0.09950635 0.02090442 0.02754398 0.031245284 -0.07689575 -0.001913752 0.026673533 -0.010969583 0.072631076 0.088351905 -0.037811086 0.12161146 0.01136611 0.050326783 0.044276047 0.030012634 -0.04772339 -0.08032347 -0.09653 0.064325415 -0.10093124 0.07558292 -0.06698521 0.014756598 0.0071140993 0.0040037762 -0.041856032 -0.003926911 -0.085455395 -0.11784506 0.039355308 -0.048441913 0.01953184 -0.095111564 0.010089167 0.06009749 -0.041406058 -0.09570237 0.04251218 0.034842998 0.053938743 -0.0044000912 0.13037045 -0.0857403 0.006238913 -0.010957343 0.13006094
جهان 0.10940279 0.025360579 0.025765821 -0.023926022 0.05560373 -0.034287546 -0.092319004 -0.009175834 -0.09248708 0.012419335 -0.058698416 -0.032426808 0.13516828 0.09579033 0.021971483 -0.022062931 -0.0040655294 -0.031624425 0.06028314 -0.043185625 -0.058954217 -0.019378653 -0.07595395 0.01601198 -0.022541614 -0.072372325 -0.15928747 -0.14608553 0.04419008 -0.018204289 -0.0027136626 0.14279248 0.0196949 -0.0060247774 0.06070871 0.06368651 -0.07983749 -0.12447466 0.09038632 -0.0019831378 0.022365125 -0.16693833 0.050239004 0.049956467 -0.06331025 0.026736867 0.002243444 -0.022413498 0.010286423 0.11752515 0.081927046 -0.03169719 -0.11609972 -0.0418865 0.043043405 -0.0017897933 -0.0016979625 -0.0004522292 -0.019074468 -0.017269395 -0.023539392 0.008844627 0.021037769 -0.05712137 0.1499945 0.090209045 -0.003932066 0.08251605 -0.11017266 0.07234908 -0.100539334 -0.021402072 -0.12077403 0.030638061 -0.18330383 0.10814328 0.016773986 0.04773235 0.11903984 0.043923303 -0.014287894 0.0085734865 0.08970919 -0.13990124 -0.07273692 -0.064772375 -0.1063401 0.017858768 -0.035846677 -0.071183264 0.00093923794 -0.009963464 0.08684522 -0.012298426 0.18666708 0.094403245 0.17546327 0.023397287 0.019880462 0.04718094 0.032095224 -0.043130208 0.01891765 0.07765176 -0.08232367 -0.041757114 -0.17029707 0.123137325 0.04533279 0.10312569 0.039118227 0.0140504 0.05379343 0.04734472 0.061713934 -0.011531281 -0.040536 0.06693837 0.030280812 0.0922688 0.13079067 -0.121815495 0.012799312 0.059125826 -0.07875773 0.07332121 -0.028839266 0.03531746 0.10037899 -0.027898462 -0.03386639 -0.040330816 0.00086826517 0.03588624 -0.042092048 -0.06580173 -0.11910121 -0.024549374 0.038760357 -0.0023412986 0.043647245 -0.072607614 0.05488967 0.016357217 -0.03306818 -0.0780437 -0.031334545 0.011786271 -0.08729113 -0.109605655 -0.11425221 0.017365023 0.027046064 -0.09887206 0.019362219 -0.014519726 -0.0732778 0.04126851 0.113937505 0.0485436 0.07614571 0.04359795 0.15147239 -0.004484316 0.12674876 -0.019451376 0.06932177 0.046704344 -0.0025328768 0.030370036 -0.01855116 -0.09128795 0.037025303 -0.10966229 0.043699317 -0.067260765 -0.07801463 0.021553054 -0.012958422 -0.016625205 0.079048865 -0.051216178 -0.037770286 0.0528943 -0.10237605 0.08207786 -0.09762969 0.03457228 0.045198195 -0.065266736 -0.06711418 0.029326562 0.0046653682 0.006065446 -0.04772019 0.029346053 -0.11837049 0.013270077 -0.014752129 0.012030441
می 0.13287722 -0.015616743 0.052553598 -0.07743653 0.017411867 -0.07365335 -0.008640985 -0.045630813 -0.03834567 0.061695207 -0.0053417636 -0.021514552 0.13727759 0.04114692 0.003982664 0.025150606 -0.07658049 0.0052500153 0.0198461 0.017919855 0.04026398 0.0021758573 -0.00955919 0.018266927 -0.013763633 -0.16410984 -0.17647386 -0.17213479 0.016920477 0.00075925543 0.11098221 0.12206949 -0.009026029 0.07219771 0.029393574 0.047565505 0.0029747556 -0.08599365 0.087263174 0.04733764 -0.010612271 -0.1755934 0.0150880935 0.0028516853 -0.021431493 0.076427 0.11897168 0.0055895746 0.04382127 0.047950365 0.05148592 -0.09549127 -0.02993665 -0.04445531 -0.044103425 0.026712433 -0.0355755 -0.028867776 0.010245872 0.021797488 0.022431342 -0.020660251 0.018402927 -0.025016509 0.10219212 0.020103524 -0.100434184 0.027445909 -0.07581413 -0.0075211017 -0.06442085 0.018715203 -0.13439377 -0.03502888 -0.17173913 0.07502058 0.077734135 0.027090572 0.0011205401 0.09134642 -0.081460334 -0.086243995 0.10663557 -0.14238329 -0.054881547 -0.015815154 -0.07360862 0.07840334 0.0037520826 -0.04901692 -0.03647034 -0.011435625 0.050281815 0.0061145327 0.157398 0.020527685 0.10700254 0.113750234 0.05188291 -0.053755194 0.06567904 0.048462827 -0.01651631 0.03792352 -0.04598433 -0.047133435 -0.16661169 0.07225446 0.044489194 0.0071906457 0.035082176 0.07146815 0.09389992 0.050389796 -0.0034194095 -0.10220241 -0.03822407 0.115619466 0.09154482 0.13967377 0.14964892 -0.096627325 -0.0658225 -0.0044503836 -0.038733024 0.13306268 0.0071043572 0.025190016 0.10870877 -0.017312257 0.0068128635 -0.0021890907 0.013766401 0.0022220702 -0.06373858 -0.031407695 -0.13341789 -0.12236664 -0.06744461 0.051658373 0.0024502072 0.016990956 0.027950915 0.008695237 -0.02576118 -0.024073021 -0.018934267 -0.020685218 -0.06332912 -0.050187763 -0.08609899 0.021337397 -0.044638168 -0.10443282 0.15842932 -0.04612815 -0.06516602 0.028406506 0.071154155 0.02088283 0.042639457 0.076878294 0.20899151 0.0015469538 0.1227866 0.051378615 0.041718725 0.05435478 -0.024715044 0.07621415 0.024545984 0.025903875 -0.037644144 -0.091857724 0.062368434 -0.06462209 -0.02389363 -0.009225711 -0.024655318 0.03256929 -0.008068449 -0.047725838 -0.17917024 0.014917359 -0.069356516 0.017894095 -0.07568906 0.014628264 0.099858545 0.0120450435 -0.056413785 -0.065702155 0.020230206 0.010464274 -0.0029006442 0.049762126 -0.095445275 0.025142094 0.03678864 0.088788524
سال 0.14493854 -0.0022002482 0.07690531 -0.06589012 0.039888084 -0.026827933 -0.065489836 0.01025596 -0.093340494 0.084893085 -0.042565014 -0.0678861 0.10055309 0.09068055 -0.0071306573 0.023091689 -0.060713574 -0.032876886 -0.010039511 -0.020846324 0.00625379 -0.052051224 -0.029966095 0.00033177718 0.064856924 -0.14127187 -0.20129268 -0.12706716 -0.0108689675 0.01413659 0.062216118 0.16291837 -0.069066375 -0.020643465 -0.0030384248 0.062351104 -0.08053188 -0.09819692 0.019138185 0.07239696 0.011952937 -0.12967859 0.021727078 0.0039941994 -0.024956303 0.031347614 0.04706063 0.051232625 0.031323273 0.15477456 0.03146731 -0.027003666 -0.09966945 -0.052404057 -0.03189822 -0.060045473 -0.026995022 0.043736648 -0.05774861 0.0569596 0.055482894 -0.025333125 -0.04105792 -0.0716963 0.13101354 0.013232558 -0.06872113 0.058899105 -0.089831606 0.050890487 -0.0125922365 0.028770782 -0.12833567 0.05631252 -0.16281772 0.021252993 0.028003698 0.05507181 0.08989044 0.05292993 -0.13941622 -0.076394334 0.116600804 -0.093976125 -0.029951392 -0.04086075 -0.0059780395 0.0384069 -0.024265897 -0.052453443 0.00856668 0.007640134 0.04070777 0.028503906 0.19283977 0.003800826 0.0930607 0.020498833 -0.035080113 -0.023160497 0.032708522 -0.057890967 0.04151372 0.08430599 -0.09094578 -0.02655572 -0.19742434 0.10769273 0.004766981 0.008468443 -0.03992514 0.051467028 0.10382341 0.11784149 0.061127875 -0.072852485 -0.05974427 0.090017155 0.018384628 0.08427851 0.14345627 -0.03238844 -0.041314933 -0.041138213 -0.11675874 0.13477246 0.0011329076 -0.02715697 0.053496495 0.034944184 0.020322787 -0.0453979 -0.024114039 0.050590165 -0.124765515 0.04134481 -0.11869804 -0.08944278 0.00058035325 -0.016639434 0.08160238 -0.049103156 0.038494 -0.027366892 0.06994127 -0.03681818 -0.08468643 0.0014965767 -0.07994672 -0.07077655 -0.04826548 0.06689111 -0.0071666697 -0.012548567 0.11907395 -0.049359232 -0.02446113 -0.06270391 0.08583443 0.036168292 0.010652952 0.013112332 0.16795701 0.049416736 0.10616142 -0.0074873893 0.012210737 -0.003350721 0.0660736 0.039119437 -0.012813683 -0.061138134 0.05298349 -0.098779604 0.06833714 0.019354738 -0.08302776 -0.06823165 0.038858987 -0.034153316 0.03205923 -0.1280039 -0.08490532 -0.05864668 -0.069783784 -0.0018447745 -0.12497575 0.019026043 0.017089076 -0.037549987 -0.054772608 0.0062087444 -0.005334488 -0.0048972717 -0.047713704 0.06869614 -0.11773426 -0.0173362 -0.019231513 0.09192906
شده 0.15317865 0.0028110116 0.03034039 -0.06988345 -0.0067095803 0.003946602 -0.06775331 -0.08697933 -0.10380884 0.018902954 -0.038520403 0.009695357 0.033504657 0.06963739 -0.0350781 0.066630386 -0.1124129 -0.023718877 -0.0037628545 -0.026056323 0.059963085 0.02913121 -0.087207295 -0.055377997 0.043102942 -0.18400759 -0.1734229 -0.1611901 0.093726955 0.038787853 0.03850113 0.0761086 -0.072025634 0.021233773 -0.025570337 0.038748022 -0.035065528 -0.051745586 0.008363132 -0.022804571 0.0461923 -0.10081127 0.07609059 0.010873743 -0.022458762 0.012691809 0.007738721 0.07459425 0.06902448 0.12931566 -0.030274872 -0.07975479 -0.07931069 -0.07675769 -0.016841538 -0.036810894 -0.01947631 -0.030111225 -0.019429581 0.038408812 0.0007066759 -0.06317042 0.0027434342 -0.067446455 0.15527809 0.08863369 -0.045913815 -0.048281506 -0.0771495 -0.04203915 -0.017001405 0.039615948 -0.10321634 -0.009365136 -0.13696986 0.108789384 0.029364726 0.11367955 -0.0023355365 0.089461565 -0.13056284 -0.03836186 0.111414045 -0.15229854 0.055215206 -0.02061608 0.006921248 -0.025178412 -0.04363239 -0.08601726 -0.021571951 -0.084875226 0.021843096 0.04704819 0.18391144 0.040149316 0.08308697 0.11176852 -0.022269387 -0.021593016 0.015691388 -0.038107328 0.03674672 0.11728322 -0.010409137 -0.02665542 -0.12092753 0.051391315 -0.048891492 0.00782359 -0.023369286 0.10414471 0.016594334 0.085429296 0.060828898 -0.099844575 -0.033109836 0.12662701 0.089878924 0.03450361 0.12781028 -0.084049225 0.030990878 0.043800667 -0.02797875 0.103147365 0.06274236 -0.0040515102 0.02329265 -0.035951946 0.054835882 -0.049506955 -0.021489777 0.044082645 -0.10751598 -0.01725264 -0.094568975 0.0023618287 -0.037696637 0.07061444 0.009242341 -0.065643884 0.053767174 -0.023701014 0.03203184 0.03139338 -0.021835243 0.048809767 -0.03705727 -0.043978363 0.0042376556 -0.046712685 0.04456648 -0.038171332 0.089249276 0.034423567 -0.0120931165 0.029795434 0.09079149 0.11840574 0.09293236 -0.005733684 0.17996128 -0.020447826 0.16376068 0.010325192 0.07547331 0.081203684 0.08030107 0.01478591 -0.014908063 -0.061498243 -0.010192259 -0.09230533 0.06403333 -0.0416987 -0.10265241 -0.06666439 0.05504391 -0.086824834 0.09033216 -0.03246388 -0.06837258 -0.057435244 -0.062575564 0.07734373 -0.150445 -0.0293917 0.04876929 0.026722461 -0.051560108 0.0023275486 0.016291821 0.04215289 -0.06367149 0.15398248 -0.088526465 -0.03853315 0.069188155 0.034866665
آن 0.08992886 0.005492002 0.010750818 -0.104856245 0.062187903 -0.08780931 -0.12771308 -0.047489356 -0.100492865 0.10895799 -0.03587916 -0.07843141 0.14461286 -0.011638111 -0.09946846 0.09275941 -0.13183972 -0.018183224 0.088759236 -0.049333718 0.018404627 -0.031036569 0.025779173 -0.06688854 0.007134419 -0.10883236 -0.08220896 -0.049762525 -0.015608429 -0.0010799905 -0.017372763 0.1524853 -0.100217246 -0.008989051 0.025059696 0.06558057 0.018247018 -0.04053861 0.0049256617 0.057222504 0.05813407 -0.13755277 -0.010991491 -0.03647373 0.024985328 -0.041883294 0.08988336 0.056784336 0.031962015 0.14533797 0.037630994 0.0047676987 -0.03499348 -0.07264115 0.014640442 0.010651932 -0.06798796 -0.032510586 -0.07971083 -0.019625127 0.028443834 0.019180182 -0.07797569 -0.029455304 0.06765549 0.02039877 -0.033222415 -0.04574428 -0.095221065 0.008075262 0.019376623 0.096494645 -0.08768684 -0.014259612 -0.15682736 0.03457998 -0.0011871387 0.10865092 0.06754428 0.0005392269 -0.03217468 0.00488771 0.039607283 -0.037205026 0.03884053 0.03359765 -0.08237809 0.07818505 0.019562198 -0.09059167 -0.06649008 -0.03151284 0.040952407 0.07889516 0.19130021 -0.023565741 0.16931939 0.005908687 0.0062579005 -0.04583656 0.035515197 -0.0073036645 0.05386597 0.10839267 -0.1027339 -0.10399344 -0.09184123 -0.003702451 -0.024597598 0.032933943 -0.05507157 -0.009627405 0.022970727 0.14673868 0.01655502 -0.0248977 -0.03250973 0.1399852 0.09070001 0.1540596 0.05857516 -0.11891191 -0.008489456 -0.0304845 -0.12712742 0.09026713 -0.03338018 -0.042256348 -0.015611485 0.032521676 0.063201435 -0.009701248 -0.043022223 -0.024777867 -0.112452276 -0.07041141 -0.060221344 -0.13424957 -0.022215934 0.00786357 0.015898217 -0.03322237 -0.061636798 0.05289055 0.085872866 -0.02635684 -0.023389189 0.060897082 -0.02013305 -0.08448251 -0.032662675 0.074735224 -0.037031777 -0.032778926 0.06688317 0.03137162 -0.01817 -0.081674725 -0.0006702046 0.09914796 0.12335664 0.0037938866 0.17583151 0.0286107 0.07915741 -0.06127702 -0.026240041 0.034122903 0.09518341 0.045377847 0.030792966 0.030618867 -0.06392868 -0.052448932 0.10296928 -0.005244216 0.02280656 -0.065379284 0.02161738 -0.016145194 0.07872517 -0.100216255 -0.14230329 0.014884625 -0.101971306 0.058616627 -0.12614065 -0.010653974 -0.020801358 0.013538946 0.014314271 -0.038368862 0.08492635 0.075218774 0.012172593 0.1512835 -0.10954148 -0.033092268 0.08801299 0.088256404
تا 0.12921406 0.05105219 0.008395968 -0.09464389 0.03402313 -0.08471544 -0.10605891 -0.0017820837 -0.09059488 0.032500055 0.010344671 -0.07322255 0.101561025 -0.012104804 -0.084797986 0.026197618 -0.072834335 -0.09632732 0.021107858 0.01965628 -0.012251744 0.013045507 -0.08909986 -0.0889712 0.09054491 -0.1639755 -0.16783239 -0.07367109 0.09371033 0.09295014 0.098834455 0.084727995 -0.09418136 0.021624535 -0.049854264 0.05084571 -0.099007964 -0.02743824 0.0067610648 -0.030763512 0.083749406 -0.15717207 0.047461476 0.054543603 -0.0413901 -0.042035036 0.08311442 0.0009594513 0.07177479 0.13634962 0.039262064 0.012044046 -0.09167084 -0.026555678 -0.06007466 -0.068172045 -0.051156655 0.023516294 -0.062307466 0.043538142 0.054920703 -0.062292244 0.011881065 0.009156408 0.13808158 0.07068992 -0.0044484823 0.06584083 -0.103476584 -0.025715208 0.0014130656 -0.018721376 -0.13649854 0.035724483 -0.07643647 0.030597521 0.061125193 0.046134457 0.04907641 0.0644471 -0.116229475 -0.03426896 0.102881484 -0.11658236 0.036143016 0.044284362 0.005935903 -0.037277665 -0.018163 -0.061821844 -0.037098646 -0.03792799 0.11971475 0.07031412 0.2121638 0.0457071 0.16394684 0.120518655 0.02822275 -0.03756103 0.049252216 -0.05144539 0.008306189 0.0014129953 -0.016104821 -0.06755897 -0.19730362 0.055941317 -0.04354845 0.0027908636 -0.033178277 0.045393713 0.0107355425 0.05491363 -0.01831997 -0.12218015 -0.05443799 0.1531655 0.04161925 0.08832011 0.13957451 -0.033854365 -0.06793286 0.02985782 -0.13033205 0.05498353 0.015495192 -0.014848598 0.0845238 -0.012598273 -0.011151669 -0.09963777 -0.03513757 -0.014509012 -0.12719885 0.031469792 -0.08882551 -0.06741503 0.030647827 -0.024471328 0.01795707 0.04081861 -0.059172604 0.010323663 0.03818806 -0.00081832765 0.020501731 -0.04783305 -0.059680592 -0.11052551 -0.0027392963 0.06756227 0.016742084 0.013695639 0.13110346 -0.02889694 0.043834634 0.034953814 0.03912702 0.016580403 0.09073141 0.119983375 0.12942229 -0.021790586 0.06025263 0.029039886 0.017674658 -0.004379025 0.036784884 0.01579614 -0.039467223 -0.05051428 0.05424144 -0.10035756 0.057587847 -0.02361965 -0.012496785 0.0033551706 0.057571933 0.019442132 0.09060239 -0.05430222 -0.09019493 -0.05090027 -0.02708624 0.06945007 -0.120639905 -0.019513167 -0.025776189 -0.047723275 -0.016031066 -0.025566928 0.09560558 -0.021582268 0.020679923 0.115111046 -0.06761613 0.0022274305 0.037999727 0.065309875
بر 0.024923407 0.021721216 0.05882767 -0.07191555 0.0050168894 -0.027099045 0.013895654 -0.017209724 -0.047861308 -0.006070411 -0.06277747 -0.05899832 0.08037699 0.05178535 -0.08980974 0.054832675 -0.10890621 -0.009450215 0.0467367 -0.030173194 0.0006893042 0.04107352 0.037750866 -0.10037446 -0.016605986 -0.04555256 -0.118934736 -0.16432914 -0.008157915 -0.03590959 0.08013687 0.0880231 -0.021782072 -0.012000066 0.049818702 0.08216935 -0.08845754 -0.072602525 0.061746534 0.080253296 0.08910298 -0.1130248 0.06852545 -0.046224166 -0.09660983 -0.048659205 0.049499333 -0.008208603 -0.031372283 0.1348836 0.0585639 -0.02747837 -0.11269212 0.037007377 0.025515893 -0.04987171 0.029996965 -0.038875137 -0.09020854 0.053173684 0.034571342 -0.033710875 -0.044270083 -0.05694701 0.08759413 0.097678564 0.0046545053 -0.0049851243 -0.054272696 -0.041222468 -0.07845937 0.07232083 -0.050948028 0.0060720067 -0.17493238 0.07660351 0.08482293 0.038169943 0.018424047 0.080204114 -0.08989504 -0.07859687 0.0059477086 -0.16088803 0.007011522 0.026437704 -0.084781975 0.056986958 -0.057082184 0.045232445 -0.04008554 -0.106433466 0.10175228 0.0321367 0.075266086 0.112298444 0.080698125 0.08854044 -0.05147101 -0.06665818 -0.018248934 -0.06255025 -0.03892697 0.12514786 -0.0022710182 -0.022416051 -0.13620867 -0.005248179 0.06156066 0.10996404 0.015493703 0.11916505 0.12511334 0.029902784 0.026299957 -0.13470131 -0.042030834 0.11286182 0.122272566 0.13321641 0.05027918 -0.07371634 -0.01672091 -0.007641867 -0.13656221 0.10143847 0.06315783 -0.00067265704 0.08781066 -0.062285926 0.07539583 -0.07369303 0.00036633614 0.019115834 -0.11820698 0.0032344589 -0.13190937 -0.020320008 0.039656345 -0.004800683 0.101323575 -0.06347515 -0.027310379 -0.0063941106 -0.019605488 -0.010893198 0.010596023 0.026043717 -0.028336987 -0.00880253 -0.051968593 0.05605242 0.055813864 -0.021369018 0.13836706 -0.03862266 -0.050107144 0.05978984 0.09553164 0.061116263 0.06858911 0.09176851 0.09565712 0.047450583 0.12826748 -0.06487755 0.043243513 0.05853469 0.050495733 -0.007020382 -0.07900935 -0.06276899 0.018114274 -0.1284481 0.0654155 0.0646316 0.0011323409 -0.08067616 -0.050673164 -0.06277204 0.061107323 -0.07340353 -0.12805685 0.05855597 -0.08334049 -0.026040873 -0.07127589 0.046721637 0.009651002 -0.068696655 0.038397238 0.0023814742 -0.039592028 -0.038667485 -0.0893277 0.13662377 -0.13400736 -0.04067814 0.06278478 0.06712418
مبشر 0.03433203 0.04074714 -0.021450961 -0.13603199 -0.07233683 -0.06301335 -0.010608342 -0.016563224 -0.1084515 0.028225549 0.017140474 -0.044615686 0.0022616405 0.05610042 -0.10441714 0.08707747 -0.05390381 -0.017209461 0.047569256 -0.010953893 -0.06494148 -0.07922234 -0.055471707 -0.112863645 0.0073535694 -0.08426313 -0.064258315 -0.061650563 0.05794702 0.04568335 0.045330554 0.1074284 -0.06948254 -0.038877662 -0.0757396 -0.031856913 -0.036953475 -0.15187563 0.0700832 -0.048921306 0.08940353 -0.18431543 -0.04642789 0.054753628 -0.12761462 0.040301953 -0.00594726 -0.037145406 0.038213026 0.07480667 -0.017327879 -0.04094322 -0.03729828 0.027440514 -0.080141716 -0.0723065 -0.064326495 -0.007347547 -0.040996566 0.020330956 0.09723196 -0.06384563 -0.046403557 -0.031666104 0.16136354 0.088390715 -0.020921076 0.014757141 -0.043275062 0.06861689 0.019893868 0.11550362 -0.017470047 0.07733567 -0.1368492 0.11820073 0.009231236 0.0736856 0.020677263 0.022582155 -0.037346095 0.04315826 0.07227943 -0.019428078 0.025829006 0.010836871 -0.006006483 -0.046644375 -0.088891625 -0.0041911756 -0.02056058 -0.06021402 0.037985835 -0.046461057 0.09457931 0.098478466 0.046674367 0.1144493 0.07217455 0.026001953 0.10683527 0.05039154 0.081283994 0.06643007 -0.042498898 0.0137346685 -0.10397293 0.14078145 -0.022053141 -0.037031025 -0.061196268 0.07251704 0.072853886 0.012687721 0.012604345 -0.024747109 -0.1026136 0.040016625 0.12697072 0.14908242 0.0772378 -0.14372128 -0.06503812 -0.019770633 -0.1075967 0.10938245 -0.06450372 0.01789028 0.105655566 0.035522595 -0.030797502 0.012954433 0.023490606 0.079941526 -0.058493085 -0.0655281 0.0033750825 -0.0009019212 -0.024615902 0.08034038 -0.0379081 -0.0060188896 -0.09085699 0.012063647 0.062347107 0.0014764273 -0.059707347 -0.0010287081 -0.11006333 -0.11935124 -0.030394966 -0.057900123 -0.020978725 -0.08511449 0.091726884 -0.10192541 0.032170728 -0.0017683969 0.046140563 0.13388486 0.060135435 0.061883114 0.08616127 -0.019477656 0.06554732 -0.04612911 0.06792476 0.080512635 0.09400397 0.025881065 0.043413557 -0.103115596 0.090758264 -0.14486492 0.112094186 -0.042944614 -0.06645478 -0.011999569 -0.045461144 0.022643052 0.06893094 -0.052916992 -0.138936 -0.0027551088 -0.061377898 0.07369611 -0.011541745 0.056634404 0.0643421 0.07965442 -0.0065001626 0.017005704 0.038248945 0.091090396 -0.067415416 0.13368769 -0.16750829 0.012387468 0.09276365 0.03883698
زمین 0.17162505 -0.0046267062 0.09906019 0.007989698 0.061607867 -0.028447343 -0.12223394 -0.07395966 -0.08888131 -0.024568316 -0.037892643 -0.13685831 0.0566605 0.031043066 -0.04179925 0.09807868 -0.007779038 0.01004665 0.07231303 0.04812835 0.045580406 0.046986707 -0.030391693 -0.029284839 0.07422773 -0.18516919 -0.14423656 -0.007978014 0.007080006 -0.0072113215 0.044145375 0.024659684 0.015524296 0.0071464037 -0.028740406 0.03362822 -0.038307387 -0.14327414 -0.011679799 0.0036630558 -0.015562474 -0.036566272 0.0783533 -0.06284003 -0.02481873 -0.020564869 0.091552064 0.015614069 0.06050069 0.011331387 0.08241237 -0.06013622 -0.011816418 0.02442456 -0.065591365 -0.097429745 -0.08835805 0.08847887 -0.061817676 0.043420795 -0.06643159 -0.01805498 -0.030521672 0.050860617 0.13396168 0.043292027 -0.11582772 0.040783774 -0.009394763 0.07736089 0.03222948 0.00863076 -0.14420825 0.0076838355 -0.08898313 0.10087393 0.021233479 0.13236576 0.07088991 0.053025484 -0.080587946 0.012831189 0.11574687 -0.1412339 -0.018609168 -0.035129018 -0.0069011846 0.076354876 -0.026798561 0.03896522 -0.058123503 -0.059558317 0.064836234 0.06396852 0.18673669 0.0056005265 0.11152209 -0.009454468 0.03661668 -0.02954645 0.075828195 -0.08939673 -0.018184938 0.12076991 -0.020165851 -0.12151099 -0.14210363 0.026597317 -0.05868198 0.10409492 0.047675267 0.11903308 0.10065221 0.091981396 0.036458466 -0.014038856 0.013695281 0.1560603 0.09225362 0.029748123 -0.0029746317 -0.049172927 0.0049336357 0.087132744 -0.13104376 0.12060241 0.011156469 0.009356438 -0.015152419 0.05076374 -0.057699353 0.014181196 0.005384903 0.04138266 -0.082538396 -0.031855144 0.01448237 -0.039714616 -0.033485632 0.027356943 0.084894404 0.06664108 0.009382535 0.08390038 0.03614809 0.04393037 0.05238706 0.034095623 -0.03835073 -0.017552536 -0.017177971 0.0023448775 -0.0019114349 -0.026369032 0.0035343338 -0.020074118 0.057489473 -0.046198018 0.0725108 0.04530642 0.07109206 0.11442508 0.1077769 0.044758786 0.1165158 0.05231932 -0.0346091 0.018705213 0.06564374 -0.072528474 -0.09311953 -0.049045876 -0.04127066 -0.13259794 0.08443593 -0.05118545 0.02849272 -0.06351153 -0.054068495 0.07179867 0.10638985 -0.11625597 -0.16446073 -0.024127847 0.007154465 -0.062363118 -0.06675243 0.019894434 0.08650635 0.028404372 -0.07954812 -0.032030445 -0.0073976056 -0.0063321805 -0.08241737 0.06135857 -0.14551245 0.09194917 0.06371702 0.049874414
بود 0.17455444 0.059777673 -0.021668436 -0.09328791 0.016138818 -0.031383127 0.030231703 -0.081678614 -0.053496096 -0.03162544 -0.08891958 -0.103309445 0.13067363 0.018949453 -0.049289968 0.10012254 -0.06375698 0.0063960757 -0.021313943 -0.06429508 0.068449356 0.010289595 -0.07277458 -0.049711227 0.096106336 -0.13810702 -0.15123327 -0.10330677 0.09743173 -0.042232998 0.07622742 0.071676694 0.029815424 0.024063816 0.07420542 -0.0044128275 0.0083989855 -0.10989316 0.03509751 0.032750685 0.056801934 -0.14899509 0.04449229 -0.06968087 -0.018613825 -0.03905996 0.120743476 -0.008085774 0.06384454 0.059918277 -0.02401019 0.046650916 -0.1308489 -0.032192938 -0.0070128106 -0.04716077 -0.056553062 0.086893655 -0.0011688174 0.09395937 0.029109765 -0.0029832989 -0.088293105 0.013173854 0.0024425434 -0.026594488 0.023032758 0.062193815 -0.104950994 -0.05820318 -0.098748475 0.088278815 -0.011137994 0.048417658 -0.17936686 0.029772602 0.010602904 -0.020230995 0.0993223 -0.024708131 0.007342471 0.028623547 0.10543985 -0.098596856 -0.042549204 0.005730977 0.02270905 0.07934415 0.029853225 -0.029211333 0.026185498 -0.017178642 0.11387399 -0.019533737 0.20992424 0.060339328 0.08700201 0.105632596 -0.034676082 0.0063078003 0.0015398695 0.06566766 -0.01573283 -0.017209282 -0.11839437 -0.017839402 -0.1172483 0.07666415 0.026432972 0.07207265 -0.050829355 0.12200301 0.021533556 0.114581145 0.05325576 -0.116871595 -0.080914475 0.057677418 0.010281049 -0.004930159 0.11113847 0.0037021497 0.016354898 0.021684857 -0.1615345 0.093332395 -0.06494136 0.052107513 0.08050227 -0.067836896 -0.04038017 0.027144225 -0.050007086 -0.061445404 -0.13374586 -0.033424456 -0.0760321 -0.12076091 0.04738092 0.06946702 0.016029218 0.0059018284 0.069435745 0.043866277 -0.009689822 -0.07620404 -0.038041737 -0.057925887 -0.10249229 0.011201137 -0.05986903 -0.032273315 0.07018407 0.019453669 0.08949746 0.02579883 -0.019022606 0.012727071 0.004063466 0.06520412 0.0074956166 0.10877886 0.07656642 0.013856339 0.14034924 0.06708012 0.043867096 0.03650871 0.109841265 -0.0066833613 -0.07699807 0.01413287 -0.04773996 -0.029281043 0.10672212 0.02911761 0.0062365094 0.029360434 0.046533175 0.015719643 0.07353384 -0.1232126 -0.10130933 -0.03487135 -0.06843034 -0.034747962 -0.048833672 0.064037606 0.05698004 -0.06561367 -0.0036013217 -0.05364277 -0.044566646 -0.056163616 -0.09658795 0.14274643 -0.10727925 0.030449389 -0.037601866 0.046492767
شد 0.02304291 0.0037788237 0.029550698 -0.10647558 0.08610295 0.014407704 -0.08478424 -0.05634186 -0.016501501 0.07508272 -0.05320777 0.017406859 0.10526768 0.036200937 -0.077653274 0.0051733297 -0.12522753 -0.010881832 0.093106374 0.0671231 -0.037336595 -0.019041259 -0.018891795 -0.09817134 0.101514086 -0.045033522 -0.16564992 -0.018909102 -0.005798789 -0.0447219 0.02206617 0.16398343 -0.014413793 0.055950314 0.015233349 0.01815812 -0.050286707 -0.1004013 0.047118977 0.061328247 0.01325318 -0.16355163 0.08704197 0.027330784 -0.112260744 0.048295636 0.067974225 0.08893518 -0.03233733 0.11612924 0.081229165 -0.11188404 -0.0820999 0.018682184 0.011230115 0.027634436 -0.05318444 -0.05435563 0.017315831 0.10578366 -0.05530361 -0.054784007 0.032156285 -0.06655748 0.04133791 0.014624005 -0.11720306 0.013054425 -0.0706612 -0.04904691 0.013716727 -0.04383926 -0.15101944 0.040889096 -0.1330141 0.01723539 -0.011022843 0.126305 -0.028954264 0.03384126 -0.1010712 0.055802237 0.03131727 -0.110987924 0.038810346 -0.0051218383 -0.0047338754 0.016864333 0.018017352 -0.06543364 -0.057325453 -0.062430117 0.01897404 -0.02022951 0.13391018 0.08283235 0.061935823 0.03939273 0.057455372 0.088368125 0.049801376 -0.04256676 0.052017145 -0.003209977 -0.03172579 -0.07555888 -0.14822704 -0.00937596 0.022409957 0.07058956 0.037750825 0.12919116 0.14439066 0.11427261 0.032124434 -0.079830006 -0.13362779 0.08771176 0.0034186055 0.024341302 0.09720554 -0.04625224 0.017255077 0.019938098 -0.03108415 0.10337474 0.073032804 0.047025517 0.047223393 0.028636595 0.04005968 -0.04677256 -0.033515204 -0.028237714 -0.019481733 -0.07715948 -0.116203204 -0.10342043 0.053199966 0.0735547 0.04342009 -0.024684481 0.035409756 0.078660555 -0.061905902 -0.028646892 -0.023874654 -0.03159186 -0.10282083 -0.054562096 -0.06233691 -0.06346027 -0.005141485 0.02088649 0.044571273 0.0601101 0.033610113 -0.08848037 0.051535305 0.055763554 0.066594705 0.033365488 0.16182677 0.015324995 0.06527381 -0.065513186 -0.019532707 0.0335929 0.11902988 -0.030074207 -0.028895937 0.035474624 -0.073430195 -0.15506777 0.028995883 0.044465493 -0.01168938 -0.037499074 0.076061495 0.04882456 0.13022637 -0.16014972 -0.06647863 -0.10063881 0.032321792 -0.06176679 -0.10135465 0.038595777 0.04965972 -0.034847315 -0.040681068 -0.08774424 -0.0155109605 -0.06068502 -0.062191684 0.057372246 -0.15504839 0.011840648 -0.051867213 0.13223809
دو 0.16060491 -0.06295586 -0.035739914 -0.01730402 0.06853846 0.0156158535 -0.12894356 -0.020753495 -0.050374914 0.057936095 0.009469417 0.014809183 -0.0082427235 0.0077285864 -0.05059364 0.06703328 0.00736219 -0.052348148 0.06988289 0.021257635 0.019488739 0.082357325 -0.05247494 0.060310803 0.06856841 -0.1615394 -0.12549326 -0.019536981 0.09616525 -0.030084537 -0.036458913 0.13509868 -0.025141109 -0.047576092 -0.09109503 0.10503161 -0.07878852 0.0024444323 0.073165916 -0.034512088 0.10237017 -0.119622424 0.013882677 -0.038795542 -0.08345915 -0.012159222 0.002913766 -0.019727053 -0.007853243 0.1332222 -0.005501455 -0.051003147 -0.048704024 -0.07174441 0.029968468 -0.020885998 -0.01417607 0.08114677 0.024897909 0.010569002 0.05698182 -0.12217646 -0.08287604 0.03345617 0.07612024 0.10727485 -0.12425481 0.06491357 -0.106438056 0.031318758 -0.094309755 0.011923484 0.0058942693 0.09260309 -0.11440685 -0.011691485 0.038033538 0.09303465 0.028880864 -0.006854858 -0.06347486 0.05600226 0.12425316 -0.13625783 -0.034594916 -0.025747037 0.022801887 -0.056479093 -0.0849594 -0.036309898 0.062196724 -0.047247484 0.11082524 -0.0044753863 0.16865215 0.07866187 0.045584537 -0.0042898906 -0.08562653 0.029479597 0.010293309 0.024676928 0.104839936 0.06518717 -0.108299814 -0.07500042 -0.054010253 0.12600821 0.07008136 0.11116257 -0.04433967 0.11280088 0.00074634637 0.02725149 -0.046986777 -0.102449626 -0.047678225 0.103076264 0.06431706 0.15500304 0.1296177 -0.114570834 -0.0973157 0.051248178 -0.14201656 0.15811883 -0.023585754 0.023526428 0.024699053 0.062433213 0.010985544 -0.07722255 -0.05829187 0.09380566 0.005305468 -0.08601821 -0.0662948 -0.0011628474 0.02207442 0.03227712 0.0036997832 -0.06943739 0.059819136 0.00796786 0.035967276 -0.07771829 0.020570204 0.034848265 -0.0042232242 0.0026691663 -0.03301332 0.057286475 0.0059951684 -0.036299802 0.075721145 -0.082639344 -0.01126328 -0.07744021 0.08600305 -0.024821913 0.027983116 -0.012491648 0.112713516 -0.0270359 0.16470453 -0.011737326 -0.025165273 0.092536844 -0.044260155 0.024248492 -0.06440235 -0.034013774 -0.004093895 -0.10108166 0.050017297 -0.052849468 -0.034715634 0.019235058 -0.044521037 0.018626582 0.10744805 -0.112939574 -0.15290082 0.06627004 -0.009356925 0.013290445 -0.0305945 -0.05324655 -0.0057730675 -0.03952969 0.035977975 -0.0008372894 0.10117906 -0.059551675 0.008896685 0.054778047 -0.086359546 0.028032772 0.017435467 0.13345702
با 0.029827664 0.042997092 -0.030095667 -0.12763786 -0.01063867 -0.0606776 -0.054729685 -0.008941845 -0.024525965 0.021976864 -0.10769264 -0.03577983 0.020935506 -0.003072339 0.015710222 0.046067663 -0.12458358 -0.0717416 0.0009973455 0.03198921 -0.06334072 -0.051718816 -0.07629657 -0.03964704 0.08384935 -0.095057875 -0.07397659 -0.17038284 0.02491991 -0.021018099 -0.012630186 0.038857546 0.016697733 -0.046907924 -0.075537406 -0.038247984 -0.013038654 -0.040411077 0.040843844 -0.0066660573 0.10098214 -0.1796878 -0.0018933137 -0.00591627 -0.012799246 0.05205345 0.03168384 0.023087773 0.08287313 0.022349507 -0.0058869137 -0.10524051 -0.10827671 -0.03127419 0.004653183 0.016383471 0.0057564867 -0.041767206 0.019567331 0.098777615 0.035908993 0.006287164 -0.09351444 -0.03746916 0.084925115 0.09945742 -0.085458934 0.08529225 0.013896738 0.02811355 0.011583605 0.059373803 -0.09888703 -0.04655974 -0.090543374 0.055445433 0.06662693 0.041340273 0.08701626 0.005912091 -0.118738525 -0.037183005 0.09117924 -0.04550502 0.049113907 -0.005211881 -0.07836637 0.047862582 -0.038443733 0.052906867 -0.024022544 -0.029129336 0.14006242 -0.048580274 0.17270929 0.10866694 0.16110425 -0.017114162 0.04171208 0.08148384 0.049179804 0.04295095 -0.029575435 0.09906019 -0.03161266 0.0039847447 -0.18210287 0.105124 -0.015552466 0.0019850372 -0.0051029385 0.052493803 0.07954956 0.13061619 0.048573285 -0.018866993 -0.0667466 0.10120481 0.10777797 0.14702116 0.17492798 -0.094312966 0.03762762 -0.05627973 -0.045845736 0.05343866 0.08658315 -0.07727249 -0.0052986355 -0.0100881355 0.046448223 -0.045497928 -0.001455835 -0.03703966 -0.018676821 0.0672801 -0.019649072 -0.12707512 -0.07177499 0.018380819 0.011923377 -0.06710085 0.017170267 0.072482646 0.03195559 0.0581313 -0.03813349 0.054042622 -0.0050476524 -0.13713442 -0.037414823 0.06060787 0.011660708 -0.08669318 0.15290044 -0.061270073 0.011356831 -0.040467832 0.08536326 0.116124496 0.118562795 0.08471393 0.1353629 0.079047486 0.065789044 0.0141891185 -0.03129632 -0.03892024 0.09329568 0.022469215 0.045400523 -0.044710323 0.04476595 -0.12155032 0.03697671 0.06508276 -0.007830281 -0.069871254 -0.07567088 -0.0033153857 0.118304886 -0.1558838 -0.08344282 -0.081618346 -0.031052625 0.06061049 -0.15303193 -0.0034909507 0.030497206 -0.0340373 -0.007462774 -0.048004594 0.06602017 -0.021663915 -0.02696638 0.00874167 -0.05308367 -0.03680004 0.07186397 0.08522864
روی 0.13244802 -0.0065603517 -0.01387355 -0.019903583 0.02765433 -0.0589856 -0.07210712 -0.07929429 -0.09684314 0.086353056 0.00046350944 -0.058765672 0.12557192 0.006061796 -0.07182172 -0.0004705334 -0.03203251 -0.03441793 0.04272281 0.0646768 -0.032533806 0.019178515 -0.026052859 -0.0059274943 0.035975635 -0.11736575 -0.12894958 -0.1148148 0.048701227 -0.011644452 0.02044279 0.069193676 -0.039038904 0.068495765 0.03602816 -0.023818154 -0.0942735 -0.1346031 0.013210186 -0.01007965 -0.025034899 -0.18324947 -0.050525118 -0.024281606 -0.0890155 0.07502501 0.03966896 0.08457175 0.09716635 0.08149684 0.045855504 -0.060349237 -0.121506654 -0.032127943 0.02322402 0.024158608 0.015584177 0.04654802 -0.08513833 -0.04529986 0.026534615 -0.0796134 0.023322739 -0.079486206 0.10965852 -0.018595802 -0.02983666 0.020379847 -0.02531046 -0.007849649 -0.10120717 0.05161083 -0.020747142 0.011152387 -0.113950446 0.06409635 0.06763694 0.04539564 0.07153658 0.037439045 -0.046389293 -0.0025152487 0.047280546 -0.09649986 0.059855722 0.05364052 -0.018496858 -0.0065179523 0.04279503 -0.05453594 -0.021043558 0.021385761 0.06756632 0.023106486 0.11604786 0.08011267 0.15369341 0.04951229 -0.036347736 0.021417374 -0.052240916 0.064316176 -0.052088246 0.09601554 0.015668072 -0.08779179 -0.102541775 0.02008153 0.034249112 0.06487438 -0.05814236 -0.013578289 0.030250495 0.14095375 0.09491335 -0.12595268 -0.047123473 0.13917634 0.065392695 0.091970965 0.16679998 -0.034988075 0.009786859 0.030239709 -0.074141204 0.15358421 -0.035631657 -0.019644525 0.056171298 0.04052268 0.0012404375 -0.031182013 0.024498427 0.01492198 -0.0153325675 0.047461152 -0.1231839 -0.08465555 -0.07722121 0.027639408 0.048309173 -0.009485456 -0.012871503 0.062617205 -0.008987091 -0.0080479365 -0.101641856 -0.0010236915 -0.11714697 -0.102195695 -0.048915457 -0.041816402 0.08260956 -0.03987897 0.09389259 -0.031440977 -0.0019632538 -0.08177473 0.011526674 0.008665443 -0.018762799 0.115875535 0.17688458 -0.044944 0.17813985 -0.07256895 0.06398523 0.038299322 -0.008273295 -0.030894943 0.02812972 -0.09209406 0.0029473836 -0.043320794 0.09717781 -0.009621295 0.026666962 -0.09298597 0.008045371 0.052389972 0.037356846 -0.119134255 -0.13823451 0.010483167 -0.0140016405 0.09441753 -0.13006154 0.06414201 -0.04402982 0.06451087 -0.095044255 -0.023706246 0.007229887 0.068737626 -0.062071245 0.13341585 -0.15777707 -0.022117633 -0.023015931 0.11349331
خواهد 0.12667203 0.06295946 -0.031995676 0.0078834705 -0.05798882 -0.052606937 0.019275296 0.0556608 -0.0047018295 0.10989836 -0.00418106 -0.04411411 0.13985077 -0.012774679 0.027740521 0.078690715 -0.01576271 -0.09807804 -0.051393222 -0.059231125 -0.03420505 0.06875367 -0.04421567 -0.055697285 0.022008076 -0.14532387 -0.05075115 -0.1645952 0.040155083 0.02865269 0.033164896 0.09289209 0.022840206 0.07912386 -0.058572643 0.030010564 -0.070908576 -0.12228319 -0.029488318 0.08681641 0.080595724 -0.04479163 0.062368143 0.010650129 -0.11363461 -0.03628923 -0.018565685 0.077441126 0.10968999 0.09630976 0.04090501 -0.066996 -0.01478088 -0.086247526 0.053375605 -0.070672624 0.022756292 -0.0560894 -0.07168668 -0.016247839 0.019667508 0.024425568 -0.07569193 -0.071089104 0.1492168 0.057928115 -0.068008155 -0.025490709 0.002695739 -0.052198607 -0.10539397 0.096545696 -0.08973494 0.047164656 -0.03888104 0.120043926 0.042262323 0.055645857 0.11616917 -0.024026427 0.0030573215 0.027536243 0.014916658 -0.018527353 0.066957675 0.067490034 -0.07850506 0.07328299 0.008010897 -0.01959157 -0.046017997 -0.039872713 0.07329405 0.047593046 0.13131808 0.102872856 0.08729966 0.11361028 -0.008720587 0.07131987 -0.01980894 -0.023547698 -0.027631357 0.020161893 -0.0643246 -0.05044166 -0.03874679 -0.007706935 0.047345273 -0.03438247 0.03750041 0.09143791 0.12794992 0.08802795 0.08411259 -0.13594091 -0.11823012 0.048159294 0.0602455 0.122638926 0.14992268 -0.0049014096 -0.059192847 -0.02702029 -0.06281178 0.12816504 0.05310167 0.069723405 0.0958258 0.057259526 -0.00014751943 -0.0674273 -0.07659517 0.022306407 -0.12790932 0.042510603 -0.046478648 -0.06639518 -0.07324608 -0.015442094 0.11603356 0.011591859 -0.034464713 0.029015025 -0.03398487 -0.05260769 -0.074274816 0.0053720293 -0.12741002 -8.188985e-05 -0.08744492 -0.021177243 -0.047561314 -0.06597265 0.12717094 -0.02922361 -0.052691717 -0.05558179 0.10494107 -0.0278216 0.07907853 -0.010536154 0.078831375 -0.046835575 0.12782331 -0.061534423 -0.027282644 0.019066757 0.10252774 -0.052938353 -0.09733679 -0.02981683 -0.021588665 -0.12915242 0.055315316 -0.06846718 -0.044148464 -0.06386651 -0.03412531 0.06554244 0.11012403 -0.104460284 -0.074218914 -0.034225572 -0.07186727 0.016668338 -0.042475246 0.07021219 0.08192744 0.002509844 0.006852654 -0.082015604 0.054046452 0.06716589 0.013772464 0.15000337 -0.13375777 -0.0029607567 0.07380733 0.05487105
خود 0.1400136 0.009981294 0.11268362 0.014851756 -0.0052726846 -0.08017748 -0.11985789 -0.030855872 0.007981847 -0.041883647 -0.0681688 -0.061619252 0.076419316 0.010621635 -0.08639515 -0.010972745 -0.1497062 -0.035650384 0.050534178 -0.05121504 0.06738344 -0.06603938 -0.08018691 -0.06166224 -0.014116019 -0.1528241 -0.14833513 -0.06413707 0.037276916 -0.006840105 0.08255276 0.072107494 -0.08496838 -0.06669746 -0.08405791 0.020360187 -0.096124336 -0.057467397 0.086196885 0.106127515 0.003859173 -0.030635735 0.044582777 0.076485485 0.03760077 -0.015604285 0.107366405 0.08600997 0.05235857 0.069317035 -0.021565782 -0.06819846 0.0014151747 0.056068942 -0.041338228 -0.027860442 -0.087268315 0.06567867 0.0078745 0.058577664 -0.037143208 -0.07674972 0.057793517 0.025452064 0.072406195 0.07686258 -0.009935258 0.07563256 -0.053691976 0.10236016 -0.12031219 -0.035260756 -0.11181757 0.009148521 -0.16953917 -0.025630396 0.06508513 0.01619703 0.0392714 0.112269126 -0.026835844 -0.016399283 0.071756884 -0.15782419 -0.008900908 0.043549936 -0.03809952 0.06963712 0.04237572 0.023768935 0.0048961416 -0.08310124 0.09799252 -0.006033116 0.17724276 -0.05527377 0.015469658 0.02131545 -0.029745813 0.004470443 0.09334695 -0.07828931 0.062630065 0.06173365 -0.010620175 -0.09718105 -0.021111326 0.047053184 -0.049677454 0.09838751 0.05642118 0.12899491 0.103313096 0.015725184 0.05120615 0.0062865834 -0.0014346108 0.118363075 0.09539684 0.052178703 0.0023364995 -0.13603182 -0.09739378 -0.017645247 -0.06007355 -0.008305991 -0.010954757 -0.03057432 -0.00039267316 0.086942084 0.053247932 0.0032718536 -0.03278337 0.07815643 0.0048797787 -0.026390642 -0.07894905 -0.010114701 -0.0536373 0.02353028 0.11956609 -0.08850301 0.026826449 0.024511954 0.039233517 0.030192422 -0.06638352 -0.06470611 -0.13561852 0.006504519 -0.0404077 0.050160434 -0.05734534 0.048261773 0.12216327 0.044723205 -0.07060467 0.04401298 0.028851107 0.06404667 0.05032083 0.105842225 0.18242048 -0.03701382 0.16253343 -0.015446705 0.05388411 0.053958632 0.057837926 0.05794402 -0.029676907 -0.060157444 0.058078464 -0.10232093 0.102699585 -0.09627526 -0.11449169 -0.02203925 -0.03912804 -0.029812517 0.0041981316 -0.05266715 -0.026931597 0.05014124 -0.035265874 -0.031287596 -0.10404406 -0.03607754 0.051023673 0.03892111 -0.062201943 0.0019298628 0.08285934 0.009521123 -0.0015735206 0.025764327 -0.16254069 -0.0692833 -0.026361909 0.12864016
ثبت 0.14144823 0.0021746834 0.09317946 -0.0500748 -0.007229456 0.043758865 -0.07500276 0.050940495 -0.08542292 0.099767886 0.008926814 -0.045246158 0.028377451 0.010594228 0.019742822 0.009133045 -0.122393 -0.0901122 0.011747904 0.044514608 -0.021488272 -0.078135885 0.037702467 -0.03196237 0.060529813 -0.06534307 -0.10176668 -0.16252175 0.010179744 0.025194352 0.08232504 0.096751176 -0.08229218 -0.05719508 -0.027205253 0.043377202 -0.10229558 -0.059396736 0.014278668 -0.03659371 0.009847144 -0.13573915 0.018491685 0.028792994 -0.06685781 0.093990654 0.086724766 -0.0217165 0.100925736 0.16746539 0.06390367 -0.0048691235 -0.03438487 -0.023337347 0.018675212 -0.009484595 -0.10585783 -0.016336108 -0.03149638 0.010350945 0.020628268 -0.016443884 -0.052307054 0.04804284 0.1246731 0.011780258 -0.036822427 0.08220099 -0.059201684 -0.06189553 0.03259762 -0.015246079 -0.09061367 -0.021497477 -0.1191949 0.1309371 -0.011439374 0.05947944 0.07509311 0.08471358 -0.055815946 0.0023216428 -0.00093934056 -0.068822555 0.041985363 -0.034901585 -0.08397297 0.00863807 -0.043121085 -0.0046714013 0.055635195 0.0024606036 0.09031289 0.028777491 0.1672476 0.087378554 0.13353541 0.037223972 -0.021050215 0.03353986 0.057628114 -0.036367856 0.03987024 0.014516415 -0.058954608 0.008735787 -0.17614192 0.036001936 0.020597214 0.05788676 -0.009475329 0.070496045 0.1162831 0.0018453373 -0.038744934 -0.0482712 -0.10764259 0.07018933 0.11367593 0.060277876 0.18917723 7.173967e-05 -0.05308784 0.023786182 -0.14207949 0.14786197 0.06611604 0.06910478 0.02699528 -0.016174711 -0.007937521 0.0059170807 -0.08348416 0.028402945 -0.13069451 -0.06554405 -0.0009614236 -0.036473177 0.01938664 0.044986185 0.039084945 -0.041308932 -0.06464071 -0.023756936 0.091773376 0.0052815718 -0.0529833 0.029488944 -0.12973104 -0.09319713 -0.07402074 -0.056107473 0.012694668 0.030369148 0.024901757 0.03906267 -0.080196775 -0.045565892 -0.023594342 0.004702317 -0.021341749 0.07894425 0.15955162 0.023503948 0.13949825 0.022960791 -0.008254803 0.0015114804 0.09336112 -0.044227965 -0.023382261 -0.0819794 -0.016129361 -0.12002821 0.02587127 -0.08533226 -0.12396387 0.001700387 0.04036394 -0.030879706 0.07097026 -0.111619875 -0.030315647 0.052145246 -0.13300234 0.02332969 -0.12647372 -0.013696979 0.07968672 -0.06965654 -0.103641905 0.008505679 0.059043083 0.08953549 0.036369335 0.15324637 -0.11885793 0.024100313 -0.02053367 0.0036213002
برابر 0.012413368 0.028808238 -0.03944342 -0.07041963 0.09136695 0.024323437 -0.11003632 0.009664118 -0.10034109 0.017964255 -0.096019104 -0.10923677 0.09315036 0.120543204 -0.017299356 0.03631494 -0.05529695 -0.068743 0.062756754 0.06879126 0.06000891 -0.057215072 0.03308539 -0.055316303 0.024790792 -0.13958797 -0.077970915 -0.11835052 -0.022580495 0.07371817 0.11763829 0.038615156 0.032985903 0.036592964 0.031282596 0.07558482 -0.033308007 -0.098313406 0.10435913 0.05925479 0.027723227 -0.12800206 -0.020188836 0.015473326 -0.06094718 0.035522398 0.036051657 0.04224217 0.06483407 0.055982966 -0.04964216 0.026525956 -0.029458167 -0.08708054 -0.028993431 -0.07109107 0.015433083 0.03679214 -0.09264746 -0.058222003 0.039356496 -0.038890895 -0.038151156 -0.08591769 0.034354333 0.04666099 -0.104813196 -0.0291711 -0.06910119 -0.0032244916 -0.029195784 0.09672047 -0.03744768 -0.0094734365 -0.12643637 0.06378673 -0.013866413 0.07938115 0.070641235 0.016197424 0.013066294 0.0045604594 0.055857155 -0.078158684 -0.052371632 0.0017397822 -0.008952636 0.01435868 -0.012186658 -0.04560467 -0.046813983 -0.10023189 0.08469094 0.0546259 0.11320195 0.10075435 0.09860307 -0.012581087 -0.08780083 0.09398091 -0.031766582 -0.045864627 0.041002274 0.07959306 -0.09966935 -0.0047521517 -0.16363254 0.057186734 -0.059132412 -0.04462019 -0.061535448 0.11744338 0.12098219 0.02834478 -0.0044143377 -0.024841094 -0.06426215 0.17244084 0.13373491 0.0031402379 0.08912201 -0.115220636 0.04089721 0.055776753 -0.06730368 0.1525212 -0.05092851 -0.006249931 0.084212326 -0.0546207 0.080522925 -0.115346044 -0.08341085 0.03671423 -0.1318102 -0.05663401 -0.082869515 -0.08165995 0.034813076 -0.013506681 0.0065028374 0.065833144 -0.033782918 0.07585168 -0.0378093 0.045761373 -0.0053631444 -0.02368043 -0.076828614 -0.034767628 -0.06942065 -0.054492664 0.0813975 -0.080257975 0.14109224 -0.022544554 -0.025648061 -0.07781481 0.0834144 -0.036863193 0.02969339 0.0057928036 0.17179784 -0.012908779 0.1592633 0.07859756 -0.062209297 0.020822566 -0.036662295 -0.052506603 -0.104813494 0.010254244 -0.0572476 -0.09703254 4.8648315e-05 -0.044099886 -0.075898506 0.03085163 -0.012915089 0.01005561 0.10625476 -0.09562224 -0.13162111 -0.0069252625 -0.12466783 0.07075997 -0.0027490682 -0.010925575 -0.05431439 -0.043252956 -0.084935516 0.023748348 0.07834369 0.03416112 0.006207599 0.102088384 -0.13364449 0.058238763 0.035028197 -0.010766468
فضایی 0.12502967 -0.005416328 0.025487307 -0.073313504 -0.0039716195 -0.07150968 -0.02106831 0.004946036 -0.0882285 -0.010718857 -0.047676288 -0.037948538 0.03440348 0.11964932 -0.10219363 0.08060272 -0.01784038 0.01576156 0.05672312 0.006586531 0.053707328 0.009989456 0.0246189 -0.01354826 0.00075134385 -0.10963332 -0.1777815 -0.09945029 0.06315076 0.063162036 0.05406166 0.15006119 -0.091858916 -0.0057316623 0.009648917 0.010396901 -0.015585871 -0.065912835 0.06896578 0.076529376 0.07194266 -0.08981916 0.073481 -0.054132555 -0.084463894 0.07616335 0.11880462 0.026330672 -0.0039822315 0.121661305 0.020398296 -0.059364304 -0.0050280606 -0.044393092 -0.08384184 0.04229593 -0.07710517 -0.0079231225 -0.02672188 -0.039587293 0.04537573 0.024658376 0.04875076 -0.019501332 0.15949365 0.08202507 -0.08644759 -0.051885035 -0.07045316 -0.015385459 -0.02014781 0.08354807 -0.12891772 -0.013457513 -0.19525157 0.09978142 0.017684864 0.060965788 0.09856955 0.07957876 -0.06894235 -0.04698307 0.07744384 -0.12252282 0.016280673 -0.014432493 -0.039669428 -0.032596197 -0.019053292 -0.06259349 -0.018809717 0.01705134 0.122893445 0.0664277 0.1773132 0.067794465 0.1516136 0.056160085 -0.047851104 -0.027824616 0.029983992 0.06323548 -0.046912745 0.0929315 -0.062742546 -0.05856439 -0.1286958 0.12133702 -0.055949528 0.015065259 -0.027287556 -0.004513605 0.08765678 0.03538273 -0.036227625 -0.08237685 -0.06409127 0.069101974 0.040688854 0.13475876 0.111517794 -0.069085166 -0.0039601694 -0.04862636 -0.057003096 0.023061104 0.025737368 -0.031614985 -0.0010527596 0.057768792 -0.052127212 0.016793786 -0.03216537 0.034258723 -0.12985073 -0.049285267 -0.094097875 -0.054604165 -0.031552378 0.093023375 0.1019914 -0.04332566 0.04380198 0.070288785 -0.036668196 -0.048231322 -0.084201284 0.021343838 -0.13353871 -0.06546046 -0.06728594 -0.030700678 0.014047996 0.030202992 0.14242427 0.04365294 -0.033925593 -0.046311878 0.1082634 0.09436119 0.066431604 0.065462425 0.108618796 -0.038857408 0.0995569 -0.037836034 0.0003779424 0.08782186 0.03684305 -0.024264315 -0.013084015 -0.047209825 0.005953863 -0.05420089 0.095608965 0.04818872 -0.030491274 -0.033486493 -0.012370031 -0.07218893 -0.022225093 -0.13134241 -0.1466479 0.0028666938 -0.04438652 0.007026299 -0.16164143 0.024595905 -0.013672976 -0.025007214 0.012258383 -0.09283286 0.013292022 0.06450711 0.050753493 0.061459113 -0.0933344 -0.017718187 0.011528654 0.09250723
مدار 0.04333765 -0.025991919 0.107943185 0.0063747116 0.055181943 -0.07161694 0.00065791706 0.049801204 -0.063408725 0.058400247 -0.10017405 -0.036196012 0.11413061 0.11298463 0.008482739 0.046723958 -0.1135317 -0.05852567 -0.009167269 0.02165531 0.0833189 -0.0004019014 -0.04635054 -0.036417082 0.03174603 -0.05368593 -0.09899869 -0.14814731 0.07873473 -0.04282872 0.08517785 0.154651 -0.057769634 0.03857753 -0.06918424 -0.019232854 -0.027161403 -0.13196807 0.09352952 0.014648462 0.073899165 -0.17000313 0.029519953 -0.059548195 -0.10452626 0.025592515 0.12970927 -0.046586074 0.034772106 0.10615022 -0.026836133 0.002175422 -0.10881459 -0.022287121 -0.091674104 0.0014209134 0.043946534 0.08602971 -0.009788803 0.053899664 -0.024118895 -0.047530487 -0.030592443 -0.028875414 0.019572208 -0.041944228 0.011810605 0.073470734 -0.052980933 -0.052078135 -0.04305479 0.10787236 -0.14762239 0.022278931 -0.04479836 0.10609924 0.04920429 0.14125071 0.08713689 0.07560511 -0.14478938 -0.082755856 0.010959714 -0.05045048 -0.04243128 0.025349112 -0.1003012 0.021041097 -0.101535425 0.053006183 0.053197403 -0.09586594 0.13843842 0.083533846 0.07597058 -0.00908182 0.13304682 0.013261072 -0.046919215 0.017277354 0.050124247 -0.0026149868 0.02838527 0.04355844 0.03452352 -0.10880399 -0.03524675 0.00915672 0.007482727 0.06695106 0.0097628655 -0.013043614 0.03445331 0.12770475 0.044836506 -0.022886733 -0.09720002 0.050024655 0.020006403 0.13758385 0.16089506 -0.042570136 -0.05625169 0.07667254 -0.15461363 0.05407222 0.037582472 0.04691811 0.006127631 -0.017112928 0.005854714 -0.071595035 -0.034941748 -0.06437714 -0.14089681 -0.025969632 0.015435273 0.0175759 -0.06302133 -0.03888843 0.059998058 -0.050067674 -0.06980582 0.05498399 0.07338039 0.046131093 -0.09548063 0.034705926 -0.096125096 -0.11745904 -0.066719994 0.010794398 0.022072611 -0.057745513 0.027998757 -0.03708603 -0.08415483 -0.07448631 0.09625388 0.048992876 -0.010459415 0.07352937 0.109659985 -0.06883555 0.107633986 -0.003791073 0.076836415 0.028904501 0.013438764 0.034028254 -0.028705798 -0.05108214 0.075530946 -0.08692491 0.1005869 0.07109808 -0.04010223 0.0008351407 0.031930964 0.0038899528 -0.020726992 -0.13755299 -0.043583825 0.061211485 -0.017118089 0.08181386 -0.123011045 0.058789123 0.060932774 -0.067707665 -0.012558604 -0.029929006 0.10996626 -0.0067166286 -0.08049844 0.082951955 -0.12329 -0.0009277376 -0.04767496 -0.023968639
هستی 0.16998419 -0.03342496 0.09097924 0.014596576 0.09511639 -0.043779686 0.027421892 -0.058379844 -0.0626648 -0.04037057 -0.060447548 -0.003402445 0.011388412 0.10823904 -0.04434548 -0.029711021 -0.06844808 -0.090181336 -0.020432057 0.011356422 -0.07196578 -0.022737414 0.016727904 -0.029669937 0.01002179 -0.031297605 -0.15277834 -0.10658979 0.081319705 0.057278328 0.058987908 0.13480066 -0.037872322 0.08609587 0.05706982 0.08926188 -0.051395185 -0.08622435 0.021843005 -0.0044112587 0.02221228 -0.17323884 -0.046508234 -0.053292274 -0.062389646 0.03279687 0.09427028 -0.03246137 0.077566944 0.02056423 -0.031745687 -0.115390025 -0.046955355 -0.10389252 -0.037510604 -0.0010361482 -0.003959359 -0.060245406 0.044590455 -0.013184659 -0.018572662 -0.07008819 -0.06273242 0.008845528 0.076736934 0.059384335 0.0008028474 -0.061110754 -0.09297276 0.04068257 -0.01231318 -0.018773708 -0.107311524 0.07891898 -0.07254541 0.13225488 0.11699148 -0.018923314 0.1295559 0.043731805 -0.13802937 -0.06038506 0.11579318 -0.149005 -0.00041076756 0.033084035 -0.12462392 0.00088420825 -0.037196912 -0.06701132 -0.054019306 0.007046806 0.10973199 0.06328543 0.07285468 0.11236984 0.03778054 0.05629518 0.04428618 -0.0021999513 0.006941276 0.066540346 0.03644115 0.14051649 -0.1272092 0.017566916 -0.2109001 -0.001814235 -0.09212359 0.12868913 0.004587757 0.10139561 -0.012195769 0.007639333 0.10235118 -0.0426948 -0.08313541 0.042487476 -0.015702095 0.05926827 0.057066906 -0.0863199 0.0023879942 0.06095534 -0.05490961 0.06264401 0.09504094 -0.06352269 0.10967765 -0.02164297 0.010375428 -0.013174943 -0.0617507 -0.010458859 -0.052921623 0.08263848 0.014056112 -0.023586726 0.0025452767 0.04926737 0.114460774 -0.007833941 0.03722548 0.017393515 -0.017832244 0.037748154 0.030608205 -0.023316342 -0.13301024 -0.061132163 -0.04099294 -0.044714965 0.10216778 -0.08990086 0.051892757 0.041373856 0.049163643 0.03210917 -0.009177684 0.05862623 -0.017887408 0.019179616 0.065855 -0.05725792 0.050663684 -0.08137301 0.111224174 0.116466306 0.021666488 0.04846865 -0.1055692 0.031563584 0.025826681 -0.14374489 0.09987137 0.06165329 0.009915136 0.056721345 -0.007412817 0.017179789 -0.00567819 -0.03575267 -0.13378318 0.02415963 -0.05782029 0.045581643 -0.17460968 0.041605014 -0.024702968 0.07888811 -0.060848318 -0.07582749 0.03997988 0.104637936 0.030141909 0.116944335 -0.0075683026 0.0009938994 0.007983012 -0.008465398
زمان 0.14504196 -0.046568688 -0.020839153 -0.08889973 0.005665315 0.04634526 -0.122733116 -0.072428875 -0.009254275 0.069060184 0.05627124 -0.10173689 -0.023930421 -0.061496362 -0.019371098 0.012107456 -0.03456351 -0.045736983 0.05313973 0.043457184 0.0017669653 -0.030038314 -0.025954595 -0.011133643 0.061577424 -0.012072262 -0.2069434 -0.009736907 -0.027067486 -0.021436365 0.045100078 0.07084269 -0.086839475 -0.01599062 -0.07465854 0.09958855 -0.12884861 -0.14015497 0.014786657 0.09301806 0.11704649 -0.15548511 0.016872136 0.08443874 -0.05156492 -0.08096852 0.0155102825 0.07583404 0.122316495 0.07574322 0.043310408 0.06731545 -0.13465649 -0.110970706 0.0670913 0.043377638 0.040833052 0.05691519 0.06802577 -0.0025811603 -0.04637144 0.042677276 0.006007929 0.076195195 0.072723515 0.07155147 -0.09064622 0.019221896 0.009442153 -0.022691717 -0.10119765 0.045939006 -0.074157126 0.091862075 -0.0120061 0.098818935 0.1045915 0.050351344 -0.040342115 -0.02454722 0.019042261 -0.033393167 0.046549004 -0.007907561 -0.03062388 -0.046786796 0.037813917 0.106714204 -0.051122867 0.04312063 0.00901871 0.018042406 0.0044494765 -0.0774742 0.20760287 0.078091115 0.069868274 0.011349988 0.05092144 -0.018695751 0.10124256 -0.046848662 -0.0021412063 0.08440378 -0.027712986 -0.022948219 -0.09430956 -0.031857498 -0.10395577 -0.002603393 0.0057548303 0.1312045 0.01612679 0.022353532 -0.074001126 -0.013183854 -0.0453306 0.05206974 -0.004132669 0.017147575 -0.0011391854 0.027241826 -0.10985242 -0.060754176 -0.114198335 0.0021440056 0.013278212 -0.079729155 -0.060907733 -0.012682034 -0.041182674 -0.033820465 0.07036558 -0.057866313 -0.13088603 0.051368184 -0.08904054 -0.024111202 0.040189017 0.055761497 5.143635e-05 -0.060581494 -0.091565244 -0.05460151 0.03654955 -0.011774266 -0.042165786 -0.05963943 -0.1357775 -0.047676988 -0.07405069 -0.038397487 -0.051911987 -0.007001731 0.14767435 -0.08461166 0.08194775 0.073990785 0.07830379 0.08965592 0.0353753 0.0461065 0.17729469 0.046936966 0.11422993 -0.024504056 -0.06743657 0.0287108 0.047674302 -0.023052007 0.046281938 -0.08019011 0.10331484 -0.09653064 0.07262295 -0.011332808 -0.09539463 -0.0335391 -0.032172337 0.056934852 0.06477177 -0.015196827 -0.17047742 -0.068972066 -0.057217743 0.0940161 -0.0763546 0.007838321 0.05309446 -0.05163746 -0.11772269 0.007301303 0.059825193 0.0018021588 0.07321251 0.14216442 -0.0430846 0.0012626403 0.10149895 -0.015727531
ستاره 0.110452235 0.025408797 0.09588336 -0.06197345 -0.026897991 -0.102954604 -0.12832119 -0.08268935 -0.035009637 -0.022223487 0.04293969 -0.05361664 0.075971864 0.12607491 -0.11137216 -0.0051552784 -0.08695855 -0.12293575 0.028041298 0.060975935 0.078188576 -0.050215226 -0.022302842 -0.07839883 0.016055368 -0.062044907 -0.14670572 -0.07472998 0.07825485 0.04878784 0.0154749965 0.017781697 -0.07992789 0.06648427 0.0468973 0.014866188 -0.08402728 -0.013190615 0.03014555 0.06218444 -0.0398222 -0.025174344 0.017133525 -0.021424659 -0.05456506 0.071081996 0.0929389 -0.044264514 0.056325056 0.09457233 0.07088287 -0.090039425 -0.08449463 -0.033358797 0.032984402 -0.032240417 0.06451868 0.095359735 -0.04944797 0.07432609 0.07641452 -0.041622754 -0.0735498 -0.033614922 0.066904165 0.0040189945 -0.06345362 0.06334033 -0.029754903 0.06598683 -0.008961994 0.057444114 -0.104899645 0.047297418 -0.16062729 0.06596449 0.07499144 0.12391432 0.09604653 -0.009051555 -0.1297688 -0.04746099 0.048180327 -0.1135523 0.010375184 -0.009256965 -0.0944963 -0.036838867 0.06642075 0.00416489 -0.002811081 -0.09016695 0.07114265 -0.06996974 0.03254229 0.04419695 0.12491616 0.08083118 0.07366176 -0.071281485 0.0039659133 -0.017748164 0.09487743 0.12523945 -0.08083785 0.02971581 -0.15207106 -0.03134856 -0.0788533 0.11791437 -0.09915032 0.11494699 0.048546474 0.12623434 -0.053881314 -0.10281875 -0.013609049 0.01766944 0.11378076 0.09017833 0.08065406 -0.11028596 0.033575397 -0.0018730862 -0.10782445 0.108594954 -0.02722472 -0.0016731257 0.020841647 -0.039796744 -0.008760464 -0.065848425 0.04554612 0.017079353 -0.13778602 0.01308876 -0.0050574234 -0.075835794 -0.009489368 -0.03351363 0.050661772 0.013177984 0.054633576 -0.07111839 0.08343389 0.009876741 -0.04546473 0.032394975 -0.12601592 -0.09897649 -0.08696807 0.072769925 0.08682583 -0.0530293 0.11201142 -0.048965916 -0.071232565 -0.030054841 -0.012762089 0.080970965 0.040004555 0.092292525 0.08526898 -0.011225899 0.13567975 -0.014062637 0.10039227 -0.04071685 0.07496061 0.044135377 -0.018760074 -0.015387297 -0.049339734 -0.14142336 0.10275531 -0.088127896 -0.039267857 -0.097417414 -0.01222657 -0.025241567 -0.0007403869 -0.097481765 -0.06951319 -0.025019418 0.0034189618 0.04158723 -0.037506625 -0.063484244 -0.052915942 0.040339675 -0.10711862 -0.052352652 -0.04894734 -0.0150122 0.0024395492 0.054278973 -0.039722294 -0.05511522 -0.059777394 0.08970142
رصد 0.04328236 0.0019561881 -0.033261593 -0.12543365 -0.007917539 0.029948583 -0.08836621 0.038214374 -0.11919249 0.061038718 -0.09362492 -0.01119036 0.08369304 0.072369985 -0.040359568 0.07307842 -0.13358742 -0.11945381 -0.033865876 0.036238253 -0.05017807 -0.008449393 0.0386625 -0.019364059 0.047253642 -0.19650495 -0.11191902 -0.14458056 0.028187122 0.020022238 0.05984916 0.13998358 0.007980003 0.052588247 -0.050571095 -0.0045464705 -0.09282891 -0.11011716 0.07326968 0.079472564 0.037827075 -0.09951956 0.00726725 -0.046539534 0.015255117 -0.017478878 0.107294954 -0.004685649 0.0773343 0.037152555 -0.03864523 -0.0769526 -0.021638615 -0.004161275 -0.06631988 -0.05838283 -0.068080656 -0.05011405 -0.07002835 0.023907002 -0.05006921 -0.047337383 -0.08577296 0.021237247 0.13711175 0.08708562 -0.10950975 -0.017114103 0.013972889 -0.01991255 -0.029927753 0.067402534 -0.14082347 0.0052154455 -0.19727625 0.118483275 0.02792399 0.051469572 0.0055999295 0.08224851 -0.08888706 -0.05199064 0.040982876 -0.11744992 0.054680135 -0.039426725 -0.03740941 0.008647234 0.032973357 -0.016182318 -0.0021428831 0.028661989 0.10627016 -0.020225719 0.121834934 0.036186386 0.17858176 0.11429607 0.010964206 -0.013431868 0.00088254997 0.013035994 0.036099404 0.0058020134 -0.037431043 -0.016198292 -0.10341983 0.09924558 -0.064742066 0.05695582 -0.0030129645 0.0047951182 0.055162977 0.040982608 -0.020606373 -0.077973224 -0.021983849 0.10156464 0.13650326 0.034254882 0.123788014 -0.09816256 -0.00408788 0.043262057 -0.03789695 0.15731551 0.043310486 0.057684124 0.07878539 -0.045789044 -0.008218174 0.0015123353 0.011121429 0.03037759 -0.0054807705 -0.03485683 -0.074486256 -0.09922995 0.021240937 -0.019973107 0.063571066 0.004062056 -0.012604207 0.038409054 0.07309314 -0.009034443 -0.06792034 0.022384973 -0.07647268 -0.017427402 -0.005024094 -0.040478628 0.087112345 -0.05344042 0.07512514 -0.097007416 -0.027033005 -0.011475115 0.083841145 0.012996105 0.026172824 0.104831316 0.1133912 -0.034010634 0.13448654 0.066291116 -0.04016495 0.06594261 0.0421347 0.065035224 -3.7679238e-05 -0.05083963 -0.05243488 -0.07674373 -0.036394633 0.04362226 -0.07375901 -0.055305902 -0.026234578 -0.044926543 0.035290394 -0.1483912 -0.12622626 -0.05767327 -0.075135514 -0.020892391 -0.14930345 0.060029663 0.09555802 0.022039361 -0.030239798 -0.054324433 -0.036060788 0.08864906 0.03770077 0.09631192 -0.13842373 -0.052452896 -0.03180219 0.09045758
اطلاعات 0.09494493 0.044254664 -0.022246622 -0.06371403 -0.014817643 -0.081417486 -0.009390535 -0.06375738 -0.041636653 0.09422778 -0.02035696 -0.05804646 0.13976544 0.0356067 0.0012671046 0.03002031 -0.03464536 -0.073281385 -0.0097573055 0.010058925 -0.028886301 -0.037493866 -0.018963909 0.0046145148 0.016940916 -0.10375703 -0.12263359 -0.12825356 0.018968252 0.023336692 0.08385627 0.15493228 -0.10083796 -0.0011818233 0.0019323262 -0.013439183 -0.08516949 -0.11144207 -0.015833559 0.0072716787 0.016963849 -0.10941546 -0.033306602 -0.067062065 -0.0065763285 -0.0057432586 0.09519067 -0.038770225 0.027395802 0.16425668 -0.009559371 0.020974731 -0.087379366 -0.0032698226 -0.021471992 0.021140456 -0.03872905 -0.016940478 -0.029786596 0.0718251 -0.03788221 -0.07959613 0.03569838 0.004478917 0.05760021 0.042971455 -0.12330799 -0.04729048 -0.07670241 -0.02538479 -0.010457233 0.03499904 -0.10319192 0.06942159 -0.17115752 0.05859741 0.05274266 0.047887623 0.0020978625 0.02199015 -0.10019805 0.013841481 0.009967295 -0.096965365 0.037156582 0.012162794 -0.002202411 -0.0018232812 0.009323816 -0.030380387 -0.080944374 -0.031226782 0.02888502 -0.013216663 0.22286586 0.014070455 0.09117077 0.08776409 -0.010441091 -0.026592534 -0.019337405 -0.07082493 -0.010694981 0.066987574 -0.11419889 -0.06456333 -0.19651076 0.008019948 -0.05335216 0.023492968 0.01779602 0.0067526624 0.038381767 0.10022472 0.07448939 -0.072141506 -0.07387486 0.18984012 0.06995865 0.096221305 0.14783274 -0.09174937 -0.07093648 -0.040862277 -0.061151836 0.1256644 0.03074676 -0.023086704 0.050517827 0.021908253 0.030843746 -0.08505576 -0.009333815 -0.0446155 -0.14624837 -0.028728843 -0.07609102 -0.05908833 0.03056851 0.042335793 0.11468546 0.023469334 -0.06236443 0.02874945 -0.035744157 -0.02157679 -0.04039917 0.022197735 -0.058769844 -0.019853953 -0.032649674 0.08274997 -0.023391485 -0.08979484 0.12158471 -0.02654286 0.04853426 -0.07011769 0.05594569 0.12945552 0.007656963 0.12030862 0.13304244 0.02281574 0.14976653 0.048219156 -0.011599748 0.016091768 0.08764772 0.03074262 -0.008338281 -0.07189372 -0.04326555 -0.114698716 -0.0058059865 0.032125313 -0.033053502 -0.012230626 0.06476218 -0.012663725 -0.0014563132 -0.14584376 -0.14935337 -0.011740817 -0.05444294 -0.037629355 -0.10926101 -0.045574263 -0.021122465 0.014145336 -0.06851593 -0.00847631 0.00075514166 0.03696315 0.040130198 0.11368569 -0.15947662 0.04049516 0.0844081 0.09876872
کند 0.17260216 -0.042596217 0.051382005 0.01657174 0.024492143 -0.06223754 -0.085437685 -0.06708535 -0.045806263 0.012222428 -0.07787784 -0.07776155 -0.012447543 -0.05483466 -0.0020060493 0.084305115 0.03399452 -0.07014338 0.034784984 -0.03546524 0.036169697 0.0106370235 -0.0064578643 0.008137749 0.09924808 -0.074066065 -0.0775217 -0.016565233 0.115593605 0.058884516 -0.033987317 0.016987761 0.01400966 0.014161179 -0.043147147 0.100113794 -0.06300275 -0.106274545 -0.0040060137 0.043782067 0.019135697 -0.15765244 0.0787239 -0.07980619 0.05852945 0.0007763269 0.054624982 0.04168964 0.09473122 0.15772657 -0.06348889 0.03258942 0.031006096 0.01648232 0.0120101785 0.042898018 0.0071685594 -0.049259897 -0.05466745 0.026140768 0.085054666 -0.07647307 -0.10175423 0.052875116 0.12969068 0.06837099 -0.056305785 0.017414069 -0.12758553 0.030644393 -0.10264753 -0.06295621 -0.041397706 -0.054229848 -0.15420832 0.031054659 0.0391717 0.006713841 0.04102882 -0.04550398 -0.1454304 -0.07868456 -0.009558255 -0.06632915 -0.031482052 -0.025435012 0.007987146 0.10456047 0.075571865 0.024142263 -0.103106685 -0.05984875 0.1345505 0.06115911 0.16407032 0.011483311 0.148165 0.12532723 0.047722954 0.081285074 -0.03180855 -0.042801272 -0.045858257 -0.03993535 -0.104171306 -0.033306956 -0.08764445 0.06951217 -0.076193586 -0.057390574 0.0027612308 0.0610351 0.04888384 0.040940046 -0.025503395 -0.11170519 -0.021530565 0.039155766 -0.014406862 0.04881135 0.14236529 -0.054999467 -0.009566885 0.08295855 -0.1688477 0.12229775 0.055966806 -0.06922147 0.01889608 -0.07481351 -0.07904905 -0.06656627 -0.06665029 -0.03373884 -0.14666864 0.02657897 -0.03491793 -0.09109272 -0.084115215 0.071738705 0.047256608 0.015506573 0.08122439 0.03451273 0.08445138 0.06779942 -0.112213686 0.02005877 0.026987033 0.036026046 -0.045389384 -0.056290094 0.018447116 -0.05571343 0.1166628 -0.04353877 0.079243965 -0.02415407 -0.016245646 0.017337762 0.029360468 -0.022441547 0.064425826 -0.0074917623 0.121491805 -0.05668244 0.10603872 0.015354173 0.005776952 -0.028169202 -0.0022578267 0.031129649 -0.009814235 0.02142185 0.031337395 0.044338174 0.01399172 0.0650473 -0.08383073 0.0500629 0.035153367 0.006762639 0.013379092 0.07663532 -0.13883457 -0.053141937 -0.13669828 -0.0059883045 -0.06547608 0.089932986 -0.09928013 -0.051972132 0.03707364 -0.06413883 0.00043996633 0.15926977 -0.0010454967 0.076823525 0.08506014 0.13918518
دست 0.1399545 -0.03913535 -0.030294908 -0.06864856 -0.012667461 -0.09904154 0.02193327 0.00056379125 0.033763517 0.115013145 -0.09909386 -0.08320676 0.0069058994 0.10010321 -0.10913594 -0.05127232 -0.059920866 0.0014361291 -0.019126842 0.061684445 -0.0033127393 -0.07859278 -0.062131636 -0.067486756 -0.011540857 -0.09540142 -0.076498896 -0.05758196 0.036238927 0.035279788 0.040316492 0.058055397 0.0008456375 -0.050436847 0.034416467 -0.013380069 0.023451043 -0.06695887 0.017312512 -0.05812809 0.020827277 -0.17523581 0.024313532 0.059475545 -0.09830735 0.047777407 0.10582312 -0.076762564 -0.04999243 0.04833502 0.022433972 0.02406135 -0.05111141 0.02657245 0.0667055 0.025768759 0.0023716642 0.02299361 0.042322915 0.040255938 0.103065416 0.02021195 0.05561476 -0.09641493 0.022615725 -0.010166803 -0.06561934 0.074066296 0.011462771 -0.033264942 -0.122611 0.03566204 -0.04651765 0.0050510527 -0.18449782 0.1335196 0.04695226 0.102401875 0.115539104 0.026413713 -0.0015583417 -0.028387839 0.07303721 -0.033829495 -0.039020043 0.046953652 -0.086617246 0.05497999 0.0017826698 -0.05269999 0.010655898 -0.033169143 0.15602641 -0.0013870968 0.08713088 -0.021410095 0.18139398 -0.021669071 0.026555084 -0.00048312833 -0.051064078 -0.03173405 0.048615195 0.021062579 -0.100559816 -0.103548095 -0.06847903 0.14301816 -0.0105729755 0.10043701 -0.059570637 0.10147263 0.14036947 0.073861934 0.04320375 -0.013071681 -0.12707442 0.105445206 0.018300788 0.10882452 0.11983516 -0.049030375 0.03170535 -0.017264392 -0.104266986 0.053262405 0.018574342 -0.029405445 0.1286664 0.07397244 -0.04746101 -0.10905309 -0.098920174 0.019707667 -0.062200803 0.00789888 -0.105313875 -0.12149077 -0.054483555 -0.021237383 -0.017590618 -0.0908325 0.0483779 0.028766466 -0.04348008 -0.011872004 -0.06411333 0.007784787 -0.08601611 -0.0065911394 -0.045550656 0.07501795 -0.005905718 -0.011786615 0.083963245 0.0037194474 -0.080529206 -0.07977015 0.042117056 -0.026577178 -0.026619831 0.069112025 0.08916633 0.082571514 0.11848865 0.076592624 -0.019307652 0.018049348 0.022858901 0.06813606 0.052077975 0.023352833 0.055065222 -0.15464963 0.08124178 0.015523136 -0.037388593 -0.10295049 -0.057624057 -0.04556998 0.011299043 -0.07596351 -0.12388879 -0.058249187 -0.06858545 -0.030108638 -0.16207707 -0.0014427819 -0.03870431 0.019490616 -0.10167833 -0.09016767 0.032846473 -0.039292812 -0.042963713 0.12670983 -0.15930809 -0.06202474 0.0036897291 -0.031720188
هزار 0.1722288 0.07457815 0.045230716 -0.115005225 0.079844944 -0.006128731 -0.05400976 0.03914935 -0.10258872 0.038619146 -0.044844527 -0.12455479 0.039638452 0.12623346 -0.09636795 -0.04172225 -0.06851872 -0.09418901 0.0914579 0.05433627 0.06573105 -0.08084899 -0.068626165 -0.061981447 -0.009437305 -0.1949885 -0.14513205 -0.08514914 0.09811095 -0.0063152653 0.04820398 0.04751448 0.0355118 0.09594876 0.0642202 -0.026202088 -0.004819242 -0.048002787 0.0042233514 0.017123815 0.06966791 -0.10297005 0.011796068 0.07982633 0.0037061595 0.06327131 0.024436403 0.0039242636 0.057074696 0.070592016 -0.042764798 0.05576259 -0.13861081 -0.03558838 -0.0279807 -0.05523536 0.044555392 0.081275605 -0.047907777 -0.04395856 0.06783592 0.021978581 0.016390916 -0.01154549 0.091510564 0.07981108 -0.1358741 0.070836045 -0.09474723 0.09019952 -0.022505112 -0.020929052 -0.12569746 0.06752244 -0.04063779 0.06069148 0.03841121 0.063493654 0.03014362 0.032123264 -0.05094039 0.045623135 0.03193907 -0.018617244 0.042453583 0.056416612 -0.061092336 -0.05036048 -0.020253737 0.022479946 -0.04217154 -0.029845433 0.049896777 0.025030965 0.09883298 0.078509234 0.014221268 0.11226867 -0.047506556 0.08394711 0.064404584 -0.021946443 0.031567708 0.09773632 0.0011186128 -0.045233406 -0.03184567 0.09296832 0.007282216 -0.024133967 0.015459028 0.04222497 0.07547492 0.0042245355 -0.00731749 -0.08922523 -0.04792009 0.14164758 -0.028949622 0.1518666 0.17029089 -0.04971303 -0.04357311 0.0071517145 -0.10873053 0.084229976 0.0276392 -0.056962825 -0.011035538 -0.077782124 -0.038392544 -0.092789695 -0.03216681 -0.054717448 -0.14045057 0.08224758 -0.021060064 -0.01245877 -0.06354304 0.09810799 0.10672816 0.043159332 0.06384207 0.07099865 -0.06615306 0.032488674 -0.09549694 0.035130877 -0.06453995 0.017973766 -0.11162495 0.10291303 -0.018267592 -0.11128214 0.09125878 0.02384786 0.033127986 0.057083838 0.11325453 0.09397232 0.10601472 0.10654305 0.08169068 -0.04792683 0.113792256 -0.017500577 0.07548468 -0.0415098 -0.028560406 0.02864532 -0.0028156834 0.034318544 -0.039442483 -0.03234944 0.024095537 0.05267655 -0.095738575 -0.07129296 0.008160221 -0.094457775 0.07520035 -0.075683884 -0.13844673 0.02534649 -0.041867007 -0.04902317 -0.14024387 -0.0013255036 0.08748985 -0.019133277 0.037120122 -0.047896035 0.10194437 -0.010561681 0.0316397 0.04548681 -0.13615696 -0.0070083127 -0.021492383 -0.0018830698
کرده 0.036246873 0.07097747 0.02983277 -0.007771962 -0.032748852 -0.0047288532 -0.0341899 -0.08846358 0.00947971 0.0888276 0.012325056 -0.024845412 0.12017563 0.046449114 -0.0058620474 0.008653674 -0.081191175 -0.114703104 0.029310947 0.03698375 0.0046261926 0.06104951 -0.08736672 -0.033833537 0.043464113 -0.08457901 -0.13443834 -0.05818606 0.10069836 0.07898021 0.045872793 0.14120692 -0.05218618 0.04936624 0.036585923 0.014406441 -0.09870808 -0.12935376 0.067462415 0.041750006 0.078598574 -0.13083063 0.027957108 0.05273826 -0.088598765 -0.026338032 0.05268525 0.02537984 0.0952836 0.105667 -0.032206837 -0.027368201 0.0006834564 -0.06212108 -0.0062784883 -0.0011164534 -0.07332856 0.03078227 0.018832853 -0.048845127 0.05926134 -0.07550239 -0.008048731 0.040892474 0.0691153 -0.032670014 -0.02167935 -0.051001124 -0.058186777 -0.047203943 0.021400813 -0.021977944 -0.07232166 0.06949789 -0.089127935 0.05282387 0.004993404 0.017045038 0.06695398 -0.014918432 -0.06987403 -0.058175746 0.058682688 -0.14240432 -0.00045822965 -0.026472172 -0.065407835 0.0027629996 -0.059621237 -0.009437895 -0.021550177 -0.02129481 0.13507004 -0.031101037 0.193087 0.06685238 0.13965158 0.08514753 0.036618 -0.016998947 -0.009969191 -0.060962558 0.07766826 0.10724497 -0.0935765 -0.08046459 -0.19388503 0.05399272 0.023458967 0.09440974 0.008448462 0.08397925 0.112182654 0.13429773 0.058539283 -0.12050143 -0.114725195 0.1889319 0.091670446 0.030555097 0.14742297 -0.043952394 0.039181348 0.030027471 -0.08646055 0.11755937 0.07302684 0.025751706 -0.005869908 0.003087259 -0.023690736 -0.09197427 0.041340124 -0.042898316 -0.10545027 0.057941113 -0.043582775 -0.043536544 0.026688498 -0.016229678 0.035911664 -0.03503947 0.029893575 -0.066398636 0.06865695 -0.053369425 -0.08210079 0.07255846 -0.026190797 -0.012934785 -0.023629285 0.049660817 0.08119151 -0.049912304 0.0955845 -0.058201957 0.015884621 0.013317711 0.04854862 0.08052927 0.09827234 0.106466055 0.101752415 -0.04086806 0.1708393 0.055662 0.09070771 0.05983651 0.018550226 0.07274404 -0.023511846 -0.041376173 0.06094066 -0.05981961 0.080936246 -0.0565092 -0.012160607 -0.050905135 0.028056236 0.013077192 0.0062324703 -0.13724607 -0.13781267 -0.005631623 -0.05194661 0.052902814 -0.08041751 -0.03829519 0.02435491 0.054960847 0.027910959 -0.081975766 0.05846184 0.025442008 -0.07939702 0.10418905 -0.12747404 -0.008524884 0.04448189 0.04201577
یک 0.04581163 0.059122123 0.020297358 -0.09598514 0.010104417 -0.01964408 -0.09087356 0.047324628 -0.016078591 0.08770955 -0.03179426 -0.06860585 0.11695025 -0.016212795 -0.10692233 -0.011859923 -0.00077786605 -0.022407647 0.045844596 -0.048593648 -0.016469847 -0.06965348 -0.08894064 -0.062091853 -0.022521202 -0.10501309 -0.2045978 -0.123379484 0.020333476 0.025862925 -0.017237121 0.16564415 -0.05236653 0.024407383 -0.054822266 -0.019032242 -0.08902114 -0.14939031 0.009028109 0.101539426 -0.012856751 -0.11909385 0.06357737 0.045630258 -0.07359113 -0.031022435 0.07282885 0.0645668 0.06591132 0.13263813 -0.007583716 0.027739232 -0.045163468 0.039682865 -0.049266323 -0.02183167 -0.05594957 0.090004556 -0.0700713 0.07636486 -0.028788678 -0.10647588 0.004240887 0.039286535 0.07129974 -0.037089314 -0.09469112 -0.051973764 -0.088890016 0.0700235 -0.09894295 0.00073554466 -0.12350038 0.03142991 -0.14792167 0.019206015 0.0770258 0.12496477 0.109490275 -0.028051658 -0.12143441 -0.07364094 0.06833118 -0.09257543 -0.011054362 0.057555724 -0.08526737 -0.037600663 -0.06806484 -0.005660443 -0.036212403 -0.013392299 0.050220117 -0.023377752 0.09837231 0.043002028 0.13700923 0.13490006 -0.038432047 0.014995584 -0.04941881 -0.056866936 -0.029055197 0.053363077 -0.02119872 -0.07391613 -0.10992495 0.11309224 0.029635228 -0.0030512866 -0.018696694 0.07370839 0.08566299 0.025675282 -0.036762886 -0.08532798 -0.07700935 0.1804471 0.09950211 0.13408093 0.119574934 -0.055766013 -0.081268564 0.03489229 -0.06354442 0.13963656 -0.02623097 -0.017640904 0.090898715 0.06812013 0.066061646 -0.019584857 0.03974108 0.024781667 -0.13534023 -0.008753427 -0.07693535 -0.040994115 0.0076210066 -0.039918747 0.03806884 0.030206025 -0.07609279 0.042311184 0.036522333 -0.050318483 -0.07564978 -0.06725801 -0.15685266 -0.026114626 -0.13027355 0.07914788 0.028972197 -0.08433483 0.05258476 -0.04975827 -0.0071561364 -0.03419359 -0.016823202 0.05820172 0.11872763 0.014815026 0.12149075 0.008418764 0.07595798 0.017488131 0.00092089054 0.10570375 0.0008853503 0.0743028 -0.03846747 -0.00018758739 -0.014638868 -0.118357785 0.02937893 -0.004391359 -0.03412332 -0.024211904 0.006485293 0.012806734 0.07567545 -0.050467968 -0.038930584 0.053437255 -0.0170898 0.0056985696 -0.105509125 0.016456733 0.060001787 -0.007729377 -0.10105717 -0.01650879 -0.012657518 0.024627874 -0.07499787 0.103153184 -0.03693751 -0.051322516 -0.020877512 -0.00337211
