295 200
به -0.027273132 0.07476665 0.028100379 -0.014459153 0.014307331 0.10211705 0.10391959 -0.038357038 0.019563692 -0.017736385 -0.1349418 0.037525076 -0.053357564 0.09135119 -0.071205065 0.004112882 -0.119408175 -0.063730985 -0.08048923 -0.115480095 0.07166334 0.08234787 -0.008677775 0.056835648 0.11974207 -0.055044536 0.08602986 -0.12469995 -0.047794115 0.014830204 -0.007374503 0.08663891 0.071165115 0.10226205 0.01401037 0.03692919 -0.030302364 -0.047491957 0.07157839 0.101007424 0.06030236 -0.057721827 0.058571424 0.035048895 -0.026180172 -0.01732377 0.07995688 -0.031414 -0.030101767 0.0691748 0.021276634 -0.08945119 0.036368683 0.047828566 0.061316457 -0.052044332 -0.00032427482 0.10160737 -0.0006236675 -0.03334943 -0.09801126 0.04753491 0.07219581 0.09955304 0.10293528 -0.03262582 -0.103515625 0.077516615 -0.09971759 -0.018603897 -0.0033492367 0.067272015 0.018914213 -0.0705535 -0.08389278 -0.022288958 0.03232157 0.11301516 -0.052803766 0.0795285 0.049093425 0.024587806 0.08540836 -0.089821465 -0.053938784 0.016364448 -0.079006515 0.117608145 0.027498342 0.0039743665 0.10962824 -0.037855227 0.058778286 -0.10760617 -0.029440835 0.010047979 -0.02202251 -0.048917636 -0.06213775 -0.10598671 0.019077487 0.010778959 0.11812398 0.09706347 -0.06404958 -0.10328022 -0.113530025 0.09281203 0.058799025 0.044256017 -0.013554199 -0.019233895 0.028056946 0.08736339 0.024760846 -0.087112814 -0.03200983 -0.06789432 0.0025007967 0.124864876 0.053209297 -0.012659688 -0.033745732 0.08847942 -0.03487969 0.12917511 0.081739366 -0.071290925 -0.06564306 0.05027132 0.010987518 -0.072199084 -0.1103283 -0.0074551017 0.09675974 0.034642264 -0.02557194 -0.13275425 0.074774146 -0.06100946 -0.049095612 0.1048365 -0.09609058 0.09361344 -0.07995255 -0.059645332 0.072195984 -0.067511484 -0.01939571 -0.1106705 0.08352019 0.012438743 -0.08874522 0.053916864 0.061952263 -0.07545617 0.1226489 -0.036523234 0.029595498 0.07674873 0.024744911 0.12194291 0.14116515 -0.021518335 0.14371456 -0.017118795 0.07536375 0.034782536 0.014246803 -0.09233731 -0.015872981 -0.05084336 0.0032736605 -0.08943495 -0.1050441 -0.07028427 0.067537874 -0.06091282 -0.047422744 0.030019356 0.07066415 0.0681785 -0.096339956 -0.103685506 -0.12114071 0.074445084 -0.047642384 -0.07859375 0.069651805 0.063215025 -0.07970639 0.09676861 0.03736504 0.015857598 -0.041771542 -0.0935733 0.03898235 -0.00025408252 0.05617175 0.09750009
مورينيو -0.054491416 0.12569247 -0.05389141 0.06741292 0.023837466 0.035316776 -0.016596759 0.07699085 -0.050243583 -0.0031230832 -0.000110808236 0.049459834 -0.09021515 0.013213798 0.050550636 -0.04270332 0.09685202 -0.048213582 -0.0551248 -0.10432638 0.098531045 0.04160898 0.010517175 0.06487105 -0.08761924 -0.072953664 0.089738876 -0.07810228 0.008713011 0.023634955 0.08353698 -0.0194264 0.09542923 0.120188065 -0.09394677 -0.06386363 0.05299347 -0.0784837 -0.05726057 -0.013401728 -0.03956479 -0.071114115 0.090543315 -0.06297541 -0.090089835 -0.059931327 0.13672039 0.0496903 0.013857398 0.050830282 -0.11902227 -0.08166338 0.10768492 0.0826287 0.112269714 -0.014661787 0.043633223 -0.0675433 0.05686194 -0.05829428 0.013787012 0.0017907745 -0.036268223 0.0018761866 0.080341406 0.09681287 0.004382942 -0.025986522 0.0053434414 -0.026977262 -0.016652636 -0.08336341 -0.05888253 -0.062349863 0.11540006 -0.012573053 0.038433466 0.005406487 -0.088054605 0.0285678 0.024034418 -0.058322098 -0.0868949 -0.010863901 -0.0001512592 -0.098145396 -0.077089645 -0.022253674 0.046872444 0.024252187 0.11158986 0.08875265 -0.09832645 -0.10544795 -0.05079087 -0.025598727 0.09084429 0.08005511 -0.07767581 0.033228554 -0.045805115 0.0782106 -0.033691 -0.09891813 0.10756026 0.0704933 0.0716186 0.11176855 0.07454063 0.00810719 -0.11866293 -0.08786404 -0.076901294 -0.0143811535 0.081678145 -0.037651252 0.08404276 0.10870341 0.034035854 0.06678166 0.053233 0.07926643 0.12037803 0.101005115 -0.058957826 -0.06982442 -0.053209774 -0.094120555 -0.07217952 -0.09945526 -0.086920895 0.035036203 0.05743601 -0.03847209 -0.02869358 0.11875078 0.09159171 -0.025478717 -0.0038360641 -0.009604902 0.057534482 -0.005740162 -0.10295822 -0.060028385 0.05930909 0.072418936 0.111925736 0.12357521 -0.052309867 -0.0729032 0.0005600204 -0.05651221 -0.08654164 -0.11521286 0.06942145 -0.0333158 -0.10201838 -0.016136354 -0.044067353 -0.027852299 0.118192285 0.097769365 -0.06418155 -0.06455937 0.07634546 0.042241424 -0.0025629015 -0.05707725 0.10786343 -0.0034838836 0.010266903 -0.08658247 -0.008024248 0.08101585 0.0350008 -0.07942308 0.022120846 0.07110306 -0.120101914 0.044778123 -0.12086247 -0.05444637 -0.118933104 0.106529355 0.12204465 0.11950001 0.03569059 0.11588497 -0.016598515 0.027338514 0.054799568 0.046795264 0.042480275 0.09391455 -0.04429281 -0.049116775 -0.042729314 -0.025970599 -0.093251765 0.024952007
و -0.11872473 -0.06317762 -0.0015576729 -0.10540123 -0.04316093 -0.07552776 -0.03676818 -0.090365805 -0.08723634 0.06772788 -0.081473336 -0.011622328 0.08938975 0.033411235 -0.09256982 -0.039216198 -0.10641192 -0.013845547 0.069565475 0.030190714 -0.08455891 0.04057819 -0.11468804 -0.034792062 0.10814276 -0.06246304 -0.034951895 -0.035937782 -0.03167646 0.04830201 0.06697809 -0.0044932733 0.06887648 0.045602504 -0.082488365 0.096500926 -0.010789149 0.047407795 0.035625797 -0.025149437 -0.017622054 -0.08346453 0.06391295 -0.087897494 -0.073683254 0.050012793 -0.030658798 -0.061042413 -0.07630702 0.11235389 0.11711419 -0.08817169 -0.12163929 -0.07111271 -0.029194629 -0.0057140994 0.016553612 -0.054365747 0.10247995 0.020649754 0.08297844 -0.11362295 -0.038899958 -0.053554643 0.07436413 -0.0022191172 -0.09104012 -0.067947574 0.10406501 0.026177758 0.058836415 0.07587303 -0.022722637 -0.058337007 0.06820844 0.08874655 0.12584318 0.10039493 0.0867195 0.10320195 0.016361333 -0.041817572 -0.003646455 0.06453556 0.026725387 -0.106148176 0.035349216 0.03520891 -0.08339564 0.00070723874 0.122478396 -0.09114845 0.07723253 -0.039346475 0.013696417 0.06466727 0.049419533 0.1119472 0.039433524 0.025870686 0.106906176 -0.057572495 0.06551446 -0.053221546 -0.013005613 -0.074687 -0.053108647 -0.0040495885 -0.02870115 0.057241667 -0.09990737 0.083716 0.00089809665 0.010381998 -0.004324564 -0.082187444 0.09964386 0.10640995 0.0053978385 0.04084338 0.10683504 -0.06684428 -0.062639 -0.09663259 0.11397281 0.08186774 -0.017645849 0.07609544 -0.10439538 0.060469534 0.059351575 0.052477337 0.083113626 -0.036916334 0.05470271 0.096911624 -0.07069409 0.07454225 -0.006511707 0.07801217 0.119134 0.10614689 0.095206246 -0.06018715 -0.07675035 0.012913059 -0.032186203 0.082823575 -0.06485802 0.03166481 -0.07764849 0.07075539 -0.059599083 -0.028014129 -0.10770757 -0.089290135 0.06989375 -0.026756302 -0.023879562 0.100115344 -0.11129024 0.11424079 0.13636833 -0.030845208 0.10936946 0.062372405 0.0373084 -0.052284554 -0.045685697 -0.019283189 0.07694865 -0.011151127 0.07825294 -0.07537862 -0.031214133 -0.041415107 0.05217576 -0.08098542 0.04126952 -0.0980406 0.062903754 -0.11526704 0.043798592 0.10665242 -0.07707869 -0.1091336 -0.07612211 -0.0817936 0.07522745 -0.08551649 0.111032136 -0.015133401 0.045936693 -0.000646921 -0.07362472 -0.0063808877 0.01269998 -0.020383455 -0.07383155 0.006752557
را -0.093078665 0.06456229 -0.088842474 -0.095867164 -0.021209134 -0.096111305 0.08939494 0.078656346 0.0631093 0.062317505 0.087012365 0.020194637 0.13119587 0.119382344 0.013554256 -0.06285158 -0.112844914 -0.053275645 -0.11823853 0.101423524 0.047937863 -0.08414888 -0.104881786 0.103956446 0.07636266 -0.051653855 -0.07337396 0.034994017 -0.0033229345 -0.0024268879 0.040605243 0.10305367 -0.10363197 0.13045673 0.033730667 -0.086808756 -0.103578515 -0.119881116 -0.0701097 0.09984337 0.01551324 -0.051637158 -0.027503163 -0.0632734 -0.048233576 0.02466734 0.13784559 -0.0011037458 0.046273418 -0.0016997437 0.07217381 0.018312588 0.058445103 -0.044021107 -0.10570349 -0.015751153 0.008298709 0.101106174 -0.08503789 -0.043842096 0.07400199 -0.086364664 -0.08626792 0.119836815 -0.02102358 0.056386888 0.0052932873 0.1183599 -0.04675046 -0.041242056 -0.055734087 0.06671374 -0.020520233 0.08157402 -0.069191515 -0.073619634 0.06535052 0.077404484 -0.11495006 -0.023068132 -0.08420543 0.017383933 0.11174685 -0.10808656 0.072453424 0.088841476 0.07420029 0.08673625 0.0382527 -0.060336407 -0.10138808 -0.065922946 -0.046779092 -0.07791823 0.11236302 -0.014918377 0.055325307 -0.05284143 0.0168768 0.033195153 -0.07366011 0.07641385 0.082092635 0.032605477 -0.10683815 -0.042931404 -0.102007955 -0.083881505 0.031225884 -0.03177509 -0.024449805 -0.042026334 0.05985867 0.011522139 -0.051849443 0.03718321 -0.04555845 0.080920294 -0.059801117 -0.05611644 0.06918075 -0.024634847 0.08281046 -0.04071382 0.11606309 0.13267103 0.024625245 -0.08004752 -0.07292755 0.036216952 -0.09866533 0.0951313 0.05216355 -0.05535863 -0.005303318 0.09185236 0.013979533 -0.050048426 0.089575015 -0.104328796 0.0939934 0.045092713 -0.029674448 0.019573312 0.023620209 -0.047208533 0.00603079 0.049594704 0.005501431 0.062085077 0.0047840653 -0.06435814 -0.047428075 -0.12395383 0.07546171 0.04715912 -0.032103065 0.009393192 0.09323642 0.09585573 0.061642084 0.024055298 0.12565267 0.03432588 0.14333749 0.037985984 -0.042224217 0.037303865 0.007210521 -0.04200712 -0.09730523 -0.033837453 -0.029779013 -0.019336209 -0.04629327 -0.06861091 -0.015864333 -0.05887459 -0.11033566 0.0034796286 -0.019140441 -0.11180896 -0.053430095 0.09141022 0.07955972 0.09149648 -0.07828711 0.0042019826 -0.08222347 0.00822952 0.030870387 0.103448994 0.04936249 -0.0306022 0.054834116 0.06896894 -0.032254647 0.0023485275 0.08243213 -0.09813291
بود 0.09997965 0.07719917 -0.071723305 -0.05505442 -0.0037521105 -0.0017057665 0.1225658 -0.09411551 -0.015759166 -0.10852829 -0.10117229 -0.073038034 0.093264945 -0.02871036 -0.014175233 0.10951414 -0.00427525 0.07749636 -0.066625275 -0.11717281 0.100323334 0.014982485 -0.08973721 -0.019660238 0.09706663 -0.044249255 -0.03865516 -0.023233278 0.0943253 -0.10744659 0.049840122 -0.03446182 0.08720872 0.021627177 0.11359118 -0.046330605 0.06650224 -0.06155623 0.027062757 0.02417246 0.03683865 -0.06924575 0.036633022 -0.09162741 0.016230287 -0.06694219 0.1091932 -0.014685466 0.03888823 -0.028910344 -0.055832364 0.08970122 -0.115100056 -0.0005780607 0.0046249502 -0.05013949 -0.04471182 0.11224214 0.023553746 0.13049772 0.01637456 0.046129227 -0.10416931 0.059722632 -0.11594763 -0.079829566 0.10388491 0.08357701 -0.09528732 -0.11442447 -0.08403049 0.08725484 0.10456895 0.05720845 -0.083215065 -0.028736126 -0.02389496 -0.09926938 0.058650404 -0.07137457 0.10496534 0.07198833 0.05848852 -0.016088823 -0.067699224 0.011194895 0.09915886 0.10104384 0.07687265 -0.02174508 0.073626675 0.017977104 0.06669325 -0.047323935 0.11970992 0.03615451 -0.0040889587 0.068388924 -0.04837144 0.0005305003 -0.017987194 0.09856035 -0.04352893 -0.10203028 -0.110778175 0.04843137 -0.008930483 0.039498165 0.049265016 0.04407586 -0.05072907 0.11788977 -0.03813165 0.07263188 0.05464517 -0.07673516 -0.036722343 -0.074677736 -0.06493285 -0.10078687 0.033905193 0.09221095 0.06321114 0.03257864 -0.10814494 0.035897546 -0.12464275 0.05835102 0.04095226 -0.087148786 -0.07952293 0.10740649 -0.034333915 -0.11167776 -0.08643063 -0.023873787 -0.027438903 -0.100703 0.08863774 0.06212083 -0.03620928 0.03094875 0.11508096 0.05288338 -0.048843246 -0.08752462 -0.008447795 -0.08749561 -0.030464698 0.097522855 -0.01835343 -0.06926793 0.080366865 0.070433825 0.007710602 0.05737774 0.0074510435 0.03130361 -0.048057802 0.034685347 -0.060205292 0.09475313 -0.04480732 0.0035914723 0.069426395 0.08856488 0.023399226 -0.008338031 0.120467775 -0.037205387 -0.075684965 0.059542928 -0.0772535 0.04760909 0.10860448 0.054355912 0.074535936 0.08808168 0.06645854 0.03956935 0.05466061 -0.07247245 -0.010160561 -0.034303594 -0.027446834 -0.072143234 0.051181007 0.08946262 0.042956024 -0.09357334 0.044307385 -0.03441823 -0.1193489 -0.109893225 -0.12626545 0.079175025 -0.023654934 0.019578474 -0.08338069 -0.0005630733
بارسا -0.067705385 -0.10351343 -0.07019795 0.116507195 0.0071507036 0.11303872 0.0069524893 -0.051115643 0.032471422 0.11313984 -0.07367786 -0.10013026 -0.09924645 0.050400123 -0.04441463 -0.009137296 -0.011909081 0.08558866 0.08980097 -0.10523002 0.14205527 -0.050144743 0.06321217 0.12954964 -0.06548876 0.08486923 0.015745 -0.10414522 0.12318272 -0.03539965 0.019127343 0.00415993 -0.10995913 -0.064929664 -0.06744088 0.01420624 0.09857001 -0.04816146 -0.016377732 0.087210335 -0.096374474 -0.018799085 -0.030381653 -0.12521665 0.03981384 -0.012409424 0.09518958 0.025593309 -0.017686715 0.015164916 0.05238407 -0.011950046 0.054186314 0.018392846 -0.12852336 -0.09050892 -0.0813807 -0.019656269 0.031286728 0.013692317 -0.028443206 -0.02732226 0.081597954 -0.08417942 -0.12712304 0.09376257 -0.10081345 -0.049152046 -0.06671103 0.07308548 0.09732568 0.08982171 -0.03255328 0.06267611 0.045141857 0.09039465 -0.012438582 0.12687792 0.055633623 -0.02967631 -0.0472008 -0.05287182 0.09735909 -0.044318747 -0.049636766 0.0446681 0.039110646 -0.04097934 -0.08535197 -0.10019027 0.0839331 -0.05393227 -0.076495856 -0.02049308 -0.0006411589 -0.10729783 0.09008025 0.088136725 -0.03825347 0.007903673 -0.08028552 0.017709216 -0.030751996 -0.03778651 -0.083169796 -0.0062030493 -0.02278446 0.11285314 0.107734255 -0.028699908 0.04116192 0.055622507 -0.11174616 0.012585602 0.05475052 0.0075875563 -0.06601318 -0.06994966 0.046791412 0.051853605 0.032658324 -0.12587024 0.09112248 0.050763898 -0.033314835 0.10716409 0.008830315 -0.08743171 0.05390159 -0.014863136 0.12235947 0.05377102 -0.09099846 -0.10516089 0.03820025 0.08617263 0.074905425 -0.11565594 -0.11657493 -0.073862806 0.037141334 0.0045903586 -0.07812537 -0.059874848 0.0789817 -0.03859906 -0.012340415 -0.1190765 0.04692415 -0.06537098 0.0014593274 -0.01946585 0.028314497 -0.09330823 -0.13396247 0.004172363 0.06160819 0.12744357 -0.042005852 0.11997006 -0.09764749 -0.009356806 0.12245829 -0.0036763041 -0.025462314 0.07048673 -0.054094106 0.11251777 0.028794536 -0.054481287 -0.076918535 -0.10668038 0.09517606 -0.083366275 -0.12253239 0.013658587 -0.017599018 0.04872276 0.0032065464 0.017174497 -0.07981808 0.0142333675 0.0036219005 0.04495439 0.013518069 0.008831606 -0.024168393 -0.044552654 -0.08372611 -0.04534274 -0.10429455 -0.011686914 0.08913786 0.0423329 -0.0967393 0.013126026 0.009169006 0.056040306 0.029866703 0.07474038
رئال -0.019552257 -0.081090495 0.096540675 -0.00042684033 -0.10145245 -0.11020369 0.08886638 -0.021937555 -0.006963349 -0.11379734 -0.09051252 -0.1157613 -0.09682331 0.02601587 0.09913009 -0.039959252 -0.036537327 0.07365069 -0.055627674 0.03334791 -0.041609257 -0.04827838 0.010480194 -0.016762221 0.048870973 -0.030467639 0.035715863 -0.06758036 -0.08515433 0.094440676 -0.07014219 -0.02045678 0.013170984 0.12254042 -0.025630137 0.09228446 -0.047101628 -0.014857095 0.114377685 -0.021895729 0.036530547 0.015161148 -0.077034414 0.006298437 0.088867255 -0.09085413 0.016700206 -0.0039115455 -0.007118578 -0.11285096 0.045879666 -0.07570731 0.08729091 -0.11473489 -0.05631711 -0.09531494 -0.007245592 0.06441867 -0.11624857 -0.028902113 0.08849064 0.09130171 -0.003409505 -0.0290299 0.00056897197 0.08247093 -0.0063300426 -0.027588224 0.08030195 -0.032990806 -0.053774912 -0.06139035 0.10555462 0.045638863 -0.094388306 -0.09349487 0.028393505 -0.10015692 -0.09979352 0.079956524 0.024428181 -0.05688944 -0.10592724 -0.05094963 -0.096355624 0.11633496 -0.044181608 -0.05504185 -0.097468436 -0.09691594 0.014312555 0.074465126 0.10344598 0.03416045 -0.052733667 0.06035349 -0.007266203 -0.026394084 -0.07296653 0.09922222 -0.0065161777 -0.021221817 -0.06412056 -0.03559309 0.09260141 0.08890261 0.101389706 0.048172258 0.04076633 0.083653055 0.07181544 0.013587754 0.121931516 -0.10616704 -0.046775546 0.050822895 0.01580705 0.09316065 -0.08888651 -0.04574265 -0.049501438 -0.0004262375 0.07747504 -0.015541699 -0.07270213 0.12532404 0.111672506 -0.1168479 -0.03139946 0.10883764 0.045416497 0.05894686 0.09902658 -0.024958463 -0.10160509 0.118349604 0.03475679 -0.035325915 0.113250494 -0.046271864 -0.10773037 0.10495917 0.09928601 0.063099645 -0.04882071 -0.008855116 -0.043836553 -0.025559623 -0.07187026 0.034743298 0.09832767 -0.0590297 0.078866474 -0.080705404 -0.045625716 -0.030211521 0.12546839 -0.10370444 0.017093154 -0.005731408 0.108336344 0.094733484 -0.10848817 -0.014666786 0.11839022 0.022366941 -0.0636191 -0.07160992 -0.10353082 0.01460334 0.042258468 0.017801693 0.032635726 0.0609679 0.057478067 0.026193421 0.115841046 0.0847349 0.09172672 -0.040463135 -0.056618825 -0.0062048174 -0.10163569 -0.0053314217 -0.055330418 0.09281938 -0.019492546 -0.051504493 0.034206 -0.070465095 -0.07936584 0.043352555 -0.048633527 -0.057180945 -0.043332536 0.024636434 -0.092777304 0.0949647 0.061391417 0.05743358
در 0.049782317 -0.02168472 0.06976214 -0.08667243 -0.0010084889 -0.06450305 -0.07863387 -0.038851462 0.08968137 0.014177161 0.034955103 -0.0959309 0.13253048 0.107650824 0.011094873 0.049603287 0.041178133 0.06286339 -0.04267632 0.029366512 -0.042446606 -0.029737178 -0.05113348 -0.016385753 -0.082441784 -0.005503517 0.108731516 0.03443285 0.020345569 0.082892984 -0.05152161 -0.014926987 0.06328439 -0.0072375094 -0.07773282 -0.03558 -0.0436803 -0.054031093 0.13328092 -0.03486659 -0.017385485 -0.011868723 0.10360058 0.11991328 -0.081144735 0.043158285 0.04398116 0.0928107 -0.021872956 0.057495728 -0.03488226 -0.0028448836 -0.082124196 -0.06809285 -0.025812594 0.005292121 -0.018543106 0.052079167 0.022598859 -0.044326857 -0.07166412 0.04691173 0.0064324513 -0.02003381 -0.105246805 0.020189673 -0.07519528 0.053876866 0.027113384 -0.120448336 -0.046795603 0.11499888 0.010087614 -0.046739995 -0.099900976 0.028829115 0.12052767 -0.0008176303 -0.110863015 -0.011590141 -0.05255879 0.09232345 0.0076833125 -0.033251874 -0.11590392 -0.0036050451 -0.118273616 0.040276263 -0.105416514 0.015066298 -0.046090484 0.07629478 0.027452601 -0.06059862 0.12319222 0.011147155 0.03253403 -0.10468491 0.11313825 -0.11409457 0.058132187 0.0883405 0.102111466 0.040991552 -0.10440337 0.0981796 -0.07732707 0.040588796 -0.054465935 0.007947348 0.06720573 -0.045520812 0.08718029 0.015495766 0.0675993 0.008825297 0.1092119 -0.04996015 -0.067781925 -0.07562517 0.066516116 0.051060386 -0.0942925 -0.042964503 0.04557684 -0.093860894 -0.11845191 -0.04254737 0.09811746 0.050710134 0.04288708 -0.0025558232 0.09115647 -0.114184074 0.066928774 0.030636694 0.10007767 0.098007 -0.035316825 -0.113130085 0.066043235 -0.109479114 0.08537296 -0.12283281 -0.08094416 0.04811393 0.054155372 0.12612307 0.11531101 0.115972675 -0.105230786 0.026774138 -0.050769202 -0.07959986 0.0791554 0.098672606 0.05037307 0.07517437 0.0121825095 -0.020418072 -0.013055879 -0.052036665 -0.08329499 -0.07185504 0.002377474 0.071286306 0.066133104 0.087452084 0.029302321 -0.059998326 0.03373692 0.12534408 0.09989778 -0.12616313 -0.0774296 0.03907732 -0.065504275 -0.017118933 -0.11347799 0.045934383 0.1093662 -0.06297084 -0.118913434 0.041319445 0.009641569 -0.024566874 -0.033560317 0.03374312 -0.05676762 0.0330961 0.009461304 0.0866055 -0.038729902 -0.108270414 0.076323316 0.011689461 0.060638923 -0.119248375 -0.10401615 -0.049520876
هم 0.033740066 -0.1006407 -0.02455918 -0.019642862 -0.006563201 0.018557485 0.06454656 0.028777802 -0.013357398 -0.03383416 0.054268602 -0.11833843 0.12733072 -0.050239746 0.015893003 -0.0011540169 -0.030521106 -0.11293238 -0.10888645 0.10093155 -0.08861824 -0.10361067 -0.09531002 0.098875195 0.09748344 -8.421646e-05 0.0027333596 -0.06010578 -0.072142184 -0.10251589 -0.06628764 0.04700039 -0.05820193 0.06616657 -0.09856176 -0.059301276 0.0149097135 0.049771447 -0.08337416 0.048180576 0.09099376 0.07716101 0.032142136 -0.07250396 -0.102212384 -0.030528767 0.045085795 0.046360932 0.036141735 0.059066378 -0.041089687 -0.065319136 0.009313549 -0.05891535 -0.12484174 0.014291083 -0.027927909 0.08395931 0.006481661 0.09850588 0.08191785 0.0791947 -0.062274586 0.085324004 -0.008855649 -0.090860024 -0.04810993 -0.02905679 -0.07212881 -0.046162516 0.09094164 -0.039432622 -0.035821475 0.07860058 0.022285251 -0.0005032463 0.071301945 0.0043411334 -0.11989438 -0.031718537 0.03462609 0.07890182 -0.104028955 -0.035985034 0.04004097 -0.06293969 -0.06891612 -0.0060880193 0.0867992 -0.08539401 0.10903425 0.1118866 0.038239073 0.010864769 0.12058143 0.10001493 0.107532375 -0.05972588 0.05405483 -0.07011322 0.05097588 0.0805562 -0.10993984 0.012077707 -0.09149079 -0.03337816 0.014978086 0.041623436 -0.05458443 0.032451577 -0.11307286 0.05876754 -0.056266736 5.780858e-05 -0.016800327 -0.0434485 0.024156574 0.09106725 0.07589686 -0.081377134 0.094875515 0.038479958 0.11268445 -0.053662304 -0.084096186 0.104386546 -0.062396776 -0.009855276 -0.061223835 0.037193783 -0.011702142 0.029637316 0.10516265 -0.058731157 -0.09972218 0.081391044 -0.1276551 0.028112644 -0.0025902833 0.04425556 0.028180525 0.091703646 0.036512844 0.037069794 0.0051639024 0.027059758 -0.1054492 0.019613894 0.13039823 0.036281854 0.020433893 0.09197822 -0.062098037 0.059146244 -0.12058122 -0.10987683 0.052580856 0.053621273 0.119839676 0.056107312 -0.110645525 0.07403648 0.124317765 -0.010023086 0.13089937 -0.06639547 0.038763326 0.083693966 0.009495747 -0.019061768 -0.10911289 -0.031897005 -0.100375235 -0.09149495 -0.0726595 -0.098021775 -0.07546096 0.04563311 0.024222944 -0.09233239 -0.08797135 0.0005346932 0.10117909 -0.124776825 -0.08469558 -0.0936243 0.056983512 -0.055621743 0.028449614 -0.10452118 -0.09955248 -0.004312682 0.022464735 0.0018161902 0.0096766995 -0.04675997 -0.04938961 -0.08643525 -0.07419823 0.072596185
از -0.06203782 -0.026549319 0.026545603 -0.119584404 -0.027626967 -0.04138308 -0.017901884 0.025325423 -0.12182629 0.06819408 -0.1036237 -0.071231514 0.08210292 0.092585295 -0.08433832 0.03207958 -0.05528453 0.084226884 0.05754405 0.056022458 0.043670904 0.107993394 -0.035623547 -0.043299098 -0.09934834 -0.053480696 -0.05361271 -0.11313379 0.1105226 0.097321026 -0.12248561 0.10358837 -0.054969802 -0.065229975 -0.092256546 -0.08380191 0.0518439 -0.04975908 0.023293342 -0.044971295 -0.039309256 0.04471046 -0.053604886 0.00037901863 0.08654965 0.058937803 0.04523559 0.110664286 0.1142901 0.00596398 -0.08190954 -0.11071652 -0.123093456 -0.081592135 -0.034035172 0.006454645 0.06924324 0.12750337 -0.0494705 0.14037931 -0.044244513 0.016180487 0.0020389904 -0.11138839 0.01963724 0.045208417 0.074274756 0.047539167 0.08164457 0.008390625 0.05198824 0.08881718 -0.12696046 -0.080983855 0.05271931 0.0063211634 -0.0041586747 0.090245284 0.09464185 0.01766098 -0.093550704 -0.121291436 0.058979314 -0.083824754 -0.07412674 -0.04882396 0.08118153 0.0835536 -0.03653329 0.019010425 -0.061550684 -0.11773408 -0.04868083 -0.010016357 -0.04047907 0.049599666 0.106167994 -0.022814583 -0.12394566 0.104378894 0.03539856 0.04135871 0.03904639 -0.021647768 -0.025963064 0.022410097 -0.097148106 0.0366891 0.038695537 -0.061075788 -0.097115226 0.06427667 0.12623508 0.10029267 0.006948078 -0.073678754 0.055757046 -0.02986606 0.101086 0.07751602 0.023193492 -0.0031992614 0.027501607 0.05783804 -0.034303445 0.07418995 -0.09885176 0.117327705 0.07508193 0.10787809 0.012188376 0.108886324 0.048834212 0.060709815 -0.028968286 0.039368782 -0.060109977 -0.109486334 -0.11055749 0.09218459 -0.049262512 -0.111993946 -0.046654396 -0.08654756 -0.09560741 0.027544217 0.10917456 0.042281684 0.05682747 0.015324776 -0.011137751 -0.07767261 0.070273995 -0.08404754 -0.10747725 -0.08066114 -0.059416726 -0.032908212 -0.036758415 0.090192236 0.09745437 -0.0072127264 0.10822165 0.064881824 -0.09449712 -0.05906067 -0.04983732 0.043984003 -0.010537754 0.04196797 -0.10798439 0.107576266 -0.021861253 0.0054891426 -0.0078209415 0.07403623 -0.03419345 -0.054964628 -0.016226461 -0.07636979 0.02169258 -0.06284018 0.055242945 0.07220125 0.04396597 0.0038034155 0.0689231 0.043033052 0.022422135 -0.109469965 -0.0070406925 0.02743703 -0.12380255 -0.017120596 -0.04358388 -0.03295399 0.03215628 0.023512717 0.04005735 0.075567536
که 0.0776334 0.061282188 0.022807093 0.049480304 0.047224395 0.036415715 -0.056238297 -0.07917357 0.031568814 0.062146906 -0.12674308 -0.11476787 0.049686633 -0.0108176265 -0.068574965 -0.054039296 -0.025874605 -0.01874646 0.018454963 -0.008269325 -0.0030944126 0.042956214 0.019598907 0.088689074 -0.030362315 -0.0984296 -0.02777705 0.103714995 0.00786231 -0.06576313 0.06181229 0.018455746 -0.056554783 -0.08439093 0.12501223 0.08309963 0.00076801167 0.0019508043 0.110184185 -0.09638566 -0.059195895 -0.04480384 0.021012977 -0.051370777 0.09601846 0.013912553 0.045018047 0.03824836 0.015018016 0.06688533 -0.108561285 0.032543138 -0.059045456 0.04816293 0.03855864 -0.09106045 0.046617698 0.03244075 0.049139455 0.12254154 0.08446697 -0.0985656 -0.120573215 -0.05267946 -0.011996475 -0.06291335 0.11804563 0.0531464 -0.00614505 0.103100725 -0.049898893 0.09942738 -0.08622614 0.10281449 -0.089574784 0.013999938 0.068856485 0.1247594 -0.041875336 -0.11211551 0.029060936 0.08633045 0.06417764 0.03691508 0.054582 -0.08801407 -0.104038134 -0.03258156 0.04534554 -0.07907538 -0.117311075 -0.014945172 0.026296759 0.073332205 -0.0084130075 -0.06809546 0.12747243 0.08619845 0.09842929 0.04463919 -0.049014434 0.02196342 -0.07984796 0.0012560369 0.055717494 0.05132736 -0.089761004 -0.06624647 -0.03415263 0.10939878 0.106257506 -0.004287466 -0.024348572 -0.037356403 0.11494007 -0.09889381 0.07141675 -0.04931864 -0.08152041 0.07543306 0.04437365 -0.006889027 0.039748337 -0.029434504 -0.021784917 0.03305306 -0.0074806414 -0.10942111 0.023405027 -0.04951073 -0.009032032 0.07057663 -0.096896075 -0.05453865 -0.104780346 -0.03764099 -0.09375678 -0.016362991 -0.037007336 0.009148187 0.06603559 -0.08580237 -0.060328834 0.077638105 -0.11117265 -0.09269932 -0.10089592 0.04867767 -0.09744343 -0.05457536 -0.104859285 -0.03662796 -0.053467393 -0.056316957 -0.07735013 0.11029504 -0.10498312 0.10078607 -0.08949368 -0.016312432 0.06046014 -0.051055968 0.03715593 -0.014076498 0.07062459 0.051779676 -0.060417745 0.014879175 -0.010523408 0.027399583 0.071390174 0.119512156 0.004177904 0.07267351 -0.03839946 -0.09490444 -0.10310777 0.110858455 -0.12405154 -0.07357659 -0.050927106 0.0042129518 -0.12044684 -0.06454749 0.0975225 -0.0005950896 -0.057091303 -0.10269556 -0.107755385 -0.06980195 0.08472104 -0.07015167 0.0822074 0.0072716856 -0.0062519927 0.09074954 -0.069611244 -0.11543531 -0.046755906 0.12331441
بازي -0.071441256 0.021857506 0.01827154 0.08076947 -0.08297644 0.09129871 0.0495057 0.113042384 -0.10282333 -0.10986848 0.021616107 -0.05981207 0.058750093 -0.092529744 -0.08152314 0.08190408 0.06635859 0.013595135 -0.11796522 0.05833117 -0.09640943 -0.079887435 -0.038163256 0.027734535 0.096348666 0.051740468 -0.097456925 0.008822663 -0.10768833 -0.049861655 -0.04667106 -0.013830548 -0.01090291 0.09313841 -0.0122525515 -0.0836201 -0.044602763 -0.055158097 -0.10532152 -0.033977296 0.05612533 0.105351746 0.03281911 0.078675345 -0.030774409 0.034988742 0.10845413 0.06315196 -0.00094751164 0.11268359 -0.068825535 -0.066696644 -0.04720485 0.07959901 0.08920493 -0.026763411 0.0712081 -0.072828054 0.046110887 0.11903018 -0.07867883 -0.052695647 0.00935934 -0.06965384 -0.036866613 0.02840233 0.0627766 -0.09630152 0.111018784 -0.04482565 0.07570346 0.09473742 -0.11294659 0.068003625 0.090175934 0.0852287 0.1110446 0.10894581 0.033323728 -0.01506704 -0.09367893 -0.049504776 0.029655937 -0.10114323 -0.009767659 -0.08092482 -0.12071213 -0.024315309 0.0045465142 0.040209703 -0.06773331 0.06717333 0.07319176 -0.08636068 -0.08259216 -0.09110398 0.12431556 0.063428305 0.07790902 -0.009096904 0.11382045 0.064913794 0.02944827 -0.06263308 0.037602127 -0.08324344 -0.041493915 -0.08288848 -0.035084397 -0.07565395 0.07778686 -0.0453836 -0.087848336 -0.017798487 -0.07337257 -0.08852411 0.036349546 0.08392038 -0.06762372 0.08209325 0.039763596 0.08084593 -0.090460524 -0.07413611 -0.06811944 -0.03201096 0.0665531 0.11481258 -0.03939246 0.1272491 0.059843685 0.032068755 0.0034714222 -0.041625977 -0.10090691 0.07983058 0.062064007 0.018385187 0.029253403 -0.066019416 -0.019215863 -0.10805452 0.12374786 -0.101439275 0.046921514 0.07994914 0.10921996 0.020151697 -0.09131436 -0.031831365 0.048268523 0.025167141 0.08627709 0.016040502 -0.018482676 -0.033231225 -0.03230583 0.010264857 0.05720359 -0.06258613 -0.11371417 0.0955421 0.11858815 -0.11011425 0.013900341 -0.049607042 -0.012633801 0.07073032 0.06768164 0.035371535 -0.05977979 0.0485737 0.07353028 0.11186792 0.083209686 0.024435952 0.048173822 0.051583137 0.10698403 -0.09633097 -0.029918078 0.00041532874 -0.056775846 0.07999066 0.03256359 0.098649174 -0.05950287 -0.04692406 0.04915076 0.10420774 0.053303078 -0.02209308 -0.047458075 -0.077792265 0.018869296 0.00221599 0.010002241 0.007863966 0.09775407 -0.06565197
اين 0.0744854 0.00015902019 -0.08256171 0.09844271 0.0426405 0.094457924 0.010121208 -0.10010241 0.082048394 0.10595124 -0.05472609 -0.09137402 0.050346237 0.09758695 -0.01993561 -0.09024321 0.027869333 0.08093535 0.011175294 -0.104304664 0.124962434 -0.11051131 0.02975316 0.11570154 0.029659636 -0.07138016 0.09814912 0.079783455 0.08709515 0.05526279 -0.08352451 0.08436587 -0.012301441 0.117213435 0.06497333 -0.00022917386 -0.040117167 0.030968135 0.0046273973 0.09316556 0.0015500146 -0.03264973 0.03222993 -0.046978 -0.111436486 0.09803629 0.054511767 0.04116259 0.09549113 0.093674816 -0.06108497 -0.06276091 -0.018299263 0.11122924 0.10089417 -0.046867684 -0.039710715 -0.073204614 -0.086816646 0.07470295 0.019673547 -0.10563107 0.0051047914 -0.024168277 -0.025446765 0.043663297 -0.11455335 -0.0020017573 0.034134667 0.08938213 0.07530255 0.10778037 -0.11172569 -0.09501799 0.043831717 -0.10656733 0.048203763 -0.012496705 0.06628683 0.05226869 0.016296834 0.0070568323 0.029331326 0.1034032 -0.07350357 0.112049215 -0.05420826 0.0663283 -0.06407324 -0.115976356 0.11017163 -0.022677409 -0.038633455 -0.06998371 -0.07488845 0.010659014 -0.016002705 -0.03245171 -0.081955016 0.04886438 -0.03001614 0.02724155 0.05946308 0.10762145 0.10635434 0.07558755 -0.066707775 -0.09056629 0.018389063 -0.07014381 -0.049041968 0.035073187 -0.03932412 -0.031658214 0.010790229 -0.061644044 0.11178639 -0.0068865833 -0.082389444 0.02350756 0.09544516 0.04603021 0.061693463 0.043269046 0.010288247 0.11488552 0.057539757 -0.056922734 -0.07080521 0.04338191 -0.1037649 0.108466454 -0.043647174 -0.10605067 -0.049487896 0.09853712 -0.077740625 0.082125895 -0.0054956977 0.07503722 -0.0070713647 -0.004431671 0.11107026 -0.00993871 -0.06204335 0.07256095 -0.05264965 -0.009979065 -0.04515902 -0.01286102 -0.11157003 -0.09897406 0.09294912 0.0011789602 -0.011939035 0.0056393826 -0.05205212 -0.09421469 -0.018193727 -0.07794874 -0.023368308 0.07012761 -0.026968984 -0.018782478 0.11486384 0.09981474 -0.0980234 0.07057246 0.008127629 -0.011176371 0.09590412 0.00800796 -0.07904865 0.0019340643 0.045072384 -0.0903762 0.021020079 0.07888375 -0.031005481 -0.07441023 0.11156635 -0.11303494 0.103249215 -0.12166604 0.09931524 0.07938385 -0.024041463 0.07142502 0.071036704 -0.11689206 0.028663937 0.08876299 0.08714338 0.022414092 -0.021732 0.028581006 -0.000101970225 0.08621784 -0.09473937 0.062520765
براي -0.081372835 -0.036360864 0.102275684 0.014860286 0.06808263 0.07302204 0.09588238 -0.00021419005 -0.11436469 -0.06602929 0.10382822 -0.032387733 0.08305206 -0.10671745 -0.081017755 0.0030079267 0.10248388 0.11414938 -0.06781616 -0.09873201 -0.0046762964 0.09793469 -0.04926842 0.060261272 -0.106982745 0.055904057 0.09461508 -0.045463257 0.016247138 0.06402506 0.016144283 -0.09906767 0.095357835 -0.063220926 0.042204108 -0.053858813 -0.09495467 -0.06707395 -0.08932967 0.024716448 0.074795015 0.031429235 0.010823203 -0.073863655 0.09394708 0.122319795 -0.059888184 -0.03426223 -0.05501125 0.089775965 0.05803024 0.06013005 -0.04523008 -0.11294443 -0.07076813 0.005718281 -0.055830177 0.051946856 -0.08722624 0.036585167 0.04560121 -0.06636588 -0.014830081 0.0956806 0.11970342 -0.08494792 -0.009784176 0.115245044 0.023834221 -0.07158796 -0.041653913 -0.111710176 0.06709766 -0.07101353 0.040705632 0.024379605 0.060387447 0.000114237126 0.00857623 0.038044196 0.10846654 0.0429403 -0.020356692 0.101526074 -0.052583165 0.0087664025 -0.053343505 0.038161203 0.057199672 -0.13126592 0.060354386 -0.057615027 0.06179571 0.010239001 0.11990099 -0.03445964 -0.015771108 0.06763285 0.082460865 0.053207878 0.10484345 0.060571585 0.04151665 -0.12516354 -0.12444745 -0.04224431 0.0025038067 -0.11094415 -0.042015765 -0.09797993 0.07135326 0.01903335 0.11223411 -0.04660663 -0.06397223 -0.04283367 0.03723506 0.04273993 -0.058895722 -0.120598316 0.10103052 -0.07387002 0.060614016 -0.07056473 -0.030646877 0.06366713 0.05643346 -0.007652938 -0.016826114 -0.009501961 0.067335926 0.101573065 0.08028671 -0.1226665 0.05492791 -0.0798021 0.008483199 0.053122085 -0.07893507 0.009231239 0.09122897 0.089532316 -0.0026214034 -0.118449084 -0.049990255 -0.013153734 -0.090745896 0.045138445 0.026832797 0.11372428 0.03621099 -0.056530837 -0.053268958 0.017071513 0.0030355197 -0.03240218 0.02115607 -0.030555293 -0.1021947 0.04809772 -0.04789307 0.09134997 0.014015785 0.056605943 0.10065062 -0.08260493 0.11653462 -0.03279373 -0.036345273 0.10718712 -0.048520837 0.05464062 -0.04670329 0.10683585 -0.089775436 0.1232846 -0.052246064 -0.0145951705 0.011231288 -0.014374488 0.0016240788 0.10859315 0.081699744 0.026738916 -0.113001846 0.03434966 0.015132942 -0.08646762 0.07261113 -0.05877571 -0.102288805 -0.0091443 -0.122935526 0.12172278 0.056634117 -0.09470572 -0.04074334 -0.010715333 -0.06797817 0.011130946
هاي -0.09466854 0.12106451 -0.0071621006 0.09764279 -0.058853183 0.09085859 0.11783327 -0.074553005 0.07449255 0.118216544 0.11040089 -0.045618795 0.08476282 -0.022356331 0.0063172453 0.009618256 -0.030302996 0.06745197 -0.03121869 -0.022129511 -0.028145626 0.015795453 -0.02759914 0.014850805 -0.03384669 -0.0051094857 0.054707088 0.110778615 -0.018944435 0.04133457 -0.08530913 -0.028569054 0.04743997 -0.074731335 0.0058496543 0.0054170485 -0.050701473 -0.08943952 0.07575466 0.13106342 0.09199897 -0.054328762 -0.096539184 -0.119013876 0.065498926 0.014137151 -0.023344535 -0.040025376 -0.04446795 0.013547767 0.06505261 0.08648834 -0.011298092 0.12424076 0.023218026 0.030970538 -0.09660657 0.11209916 -0.028369175 0.09369173 -0.059232958 0.07447283 -0.09046353 -0.08603747 0.07861892 -0.09284916 -0.09081757 0.046228327 -0.055947702 0.051606517 0.007676661 -0.013114017 -0.03386635 0.049960386 -0.07614144 -0.09721084 0.02194995 0.03414474 -0.033959255 0.038612477 0.067524485 -0.035531413 0.07984965 -0.047688268 0.043984268 0.09548619 -0.1067095 0.055703234 0.13202587 -0.0392371 -0.09470209 -0.08099295 0.098047495 -0.03184741 -0.0057416554 -0.07110561 -0.06070474 0.022531787 -0.0006400382 -0.09502773 -0.024273211 0.043262623 -0.0898018 0.039965466 -0.05389699 -0.062119067 -0.08066859 0.11074625 -0.02292657 -0.120568536 -0.0972048 -0.024314962 -0.038690023 0.00035190504 -0.009408267 0.0942861 -0.06296799 0.05837848 0.12677088 -0.00071989687 0.040086277 -0.060971677 -0.033115957 -0.11291817 -0.064775266 0.1351921 -0.0072422973 0.052408654 -0.04399394 0.12248752 -0.0030901143 -0.12238286 -0.096361324 -0.049239337 0.09113055 0.12106319 0.013328178 -0.09895558 0.0034609593 0.050456923 -0.09156006 0.07413407 0.0020458766 0.07342914 -0.07504967 -0.09068708 -0.036378656 0.10768332 -0.00073431776 -0.1198203 0.07542547 -0.090254895 0.062757485 0.0412907 -0.014675581 -0.04994999 -0.009105044 -0.098885134 0.04402229 0.0051070307 -0.031122863 0.017377604 -0.01098297 -0.087467104 -0.10886541 -0.073496655 0.02651835 -0.12686431 -0.04253699 -0.005678571 -0.057546552 -0.039977908 0.05791675 0.042714544 0.0036243454 0.035397235 0.090812996 -0.0044808793 -0.060993172 0.053480346 0.030295147 0.10537911 0.08090018 -0.035683013 0.10133644 -0.10567222 -0.08829957 0.1164166 -0.05292349 -0.041646 0.046850372 0.122145385 -0.11665451 0.0023313903 -0.07565289 0.10544932 -0.053301346 -0.035422053 -0.10848494 0.11932726
اما 0.10956136 0.063199185 -0.1042724 0.0414107 0.04436544 -0.046297684 0.10441387 0.09837674 0.086045355 -0.049927287 -0.087700754 -0.0710733 -0.11092035 0.105420716 -0.019404415 0.07046232 0.0077474834 -0.11194088 0.05041847 0.06332007 0.041872676 0.065938346 -0.1311407 0.06953866 0.03226981 -0.12566957 0.0336779 -0.055208396 0.064801045 -0.05859575 -0.01165187 -0.08848378 -0.104337215 0.1001608 -0.102103174 0.081047244 -0.059235893 -0.012884442 0.041736476 0.0036620342 0.013199791 0.028486956 -0.065132074 -0.05577558 -0.056151666 0.099481046 0.032775633 0.034040924 -0.03726652 -0.057504293 -0.0024721008 0.074965924 0.10621917 0.12289368 -0.09288931 -0.06554481 -0.031633057 -0.078676246 -0.02390578 0.05290864 -0.04244558 0.11278416 -0.029173829 0.07857474 -0.013320058 -0.025856024 -0.008987195 0.10631775 -0.084270544 -0.10574818 0.074398264 0.106710635 -0.07706451 -0.072454765 0.08627865 -0.060016673 -0.09579345 -0.05601194 -0.003997827 0.11936332 0.07474486 0.0023161883 -0.09323604 0.014538651 -0.020840898 0.012513122 -0.084991805 -0.10183438 0.08205852 -0.012901355 0.01780132 0.08127829 0.018552437 0.0025328465 0.1025465 -0.049653832 0.117685445 -0.05585786 -0.026616957 -0.09345935 0.088576555 0.06434256 -0.0012592901 0.09545765 0.06023384 -0.06953415 -0.060671847 0.07023417 0.056545727 -0.05250981 0.11402194 -0.029326478 0.013548479 0.032953374 0.007589055 -0.009058395 -0.062329095 0.11835743 -0.016498044 0.072754584 -0.0018558806 0.081516944 0.11173493 0.12476774 0.025036393 -0.012684281 -0.10336164 -0.060748056 0.036671065 0.10824545 0.04827859 -0.11071067 -0.042922024 -0.0029401463 -0.020020798 -0.11201108 0.036266644 -0.021561243 0.02618209 0.08656107 0.10830961 0.024821695 -0.075418256 -0.118578 0.080194525 -0.04782927 -0.0023312415 0.11762226 0.013278596 0.03292008 -0.08203973 -0.010894143 0.08257374 0.08151544 0.024804372 0.06670515 -0.05674847 0.09442541 0.0411068 0.010883464 -0.017111383 0.011097431 0.12052379 -0.09481048 0.05408208 0.008275121 -0.05186602 -0.09196596 -0.10228151 0.065492176 -0.029310632 0.11899869 0.10959692 -0.11273815 -0.08087771 -0.06310479 -0.01815638 -0.0141184125 0.029351294 0.045150414 -0.11169683 0.10569155 0.025013946 0.08890014 0.059430607 -0.0071749003 -0.058375042 0.07894376 -0.06181425 0.049548354 -0.10691022 -0.03075219 0.011546724 -0.068458885 0.0096847825 0.018353954 0.042738285 -0.08306776 -0.08340021 -0.09147002
ها 0.062085457 -0.035307158 0.04737611 0.002311001 -0.047438137 0.081751846 -0.064621516 -0.050566986 -0.03207633 0.018676626 -0.06714085 0.010263972 0.06185012 -0.09754617 0.05792047 0.11885824 -0.039720614 0.09213715 0.060493037 -0.03733818 0.121371605 -0.1100742 -0.12146621 -0.0625727 0.102227956 -0.058245942 0.091117926 0.061573904 0.05653808 -0.015584514 -0.08140524 0.057110757 -0.065652765 0.08423574 0.03188041 0.021164212 0.027589059 0.014212295 0.10232732 0.06562859 -0.018743718 -0.09892271 -0.046973567 0.06949935 -0.004286748 0.007899596 0.12462982 0.06025135 0.029499521 -0.007001297 -0.07270066 -0.07714151 0.018452426 -0.0067283968 -0.05567382 0.098888196 -0.08739373 -0.037834663 0.09086983 0.11688547 0.030928677 -0.100191064 0.014857594 0.023285761 -0.10251513 0.11052287 -0.08590989 0.08106657 -0.07183334 0.03156255 0.044353936 -0.09878944 -0.102559075 -0.095088 0.0635658 0.07758459 0.109872416 -0.061107725 0.077093095 -0.09982168 0.06900029 -0.10617906 0.01787677 -0.00905632 -0.023835283 0.10893782 0.006336919 0.109542444 0.03742562 0.045106385 -0.03782509 0.059819374 0.10056186 0.07721017 0.077393964 -0.08384742 -0.08957153 -0.03229159 -0.047255807 0.08855869 0.06800335 0.06296751 -0.086083144 0.02381524 0.06836912 0.078708574 0.042994566 -0.053210232 -0.05657046 0.07187323 -0.03251249 0.089292176 -0.107744135 -0.09900371 0.10677084 -0.0028651936 0.021275297 0.108655736 -0.040742945 -0.096862614 -0.059241306 0.08368563 -0.02615895 0.11191376 0.063563794 0.11082531 0.034285728 -0.008051018 0.008640058 -0.02012219 0.038203496 -0.047322627 -0.116757706 -0.001994819 -0.07630332 0.079396866 -0.06697322 0.062906004 -0.05897807 -0.09598553 0.045641385 0.08046239 0.028811546 -0.017988581 -0.113745 0.10662584 -0.07905016 -0.03237476 -0.007878922 -0.037795156 -0.025528556 -0.11315531 -0.0134233795 -0.023007255 0.047057673 0.03284526 -0.08963593 0.014813505 -0.08903429 0.10903964 0.019200373 0.07443527 -0.017909376 -0.06433114 0.121400125 -0.015779449 -0.019441472 -0.06043431 0.11138087 -0.0046167723 0.10161735 0.09623552 -0.07411763 -0.032628212 -0.05028148 0.03887884 0.10668792 -0.03305082 -0.11285019 0.056666803 0.09400743 0.048386745 -0.048021246 0.053962708 -0.07218913 0.08010448 0.098481715 -0.027442247 -0.049913622 0.023237556 -0.095548 0.119510435 -0.043112013 0.047974244 -0.06502479 -0.027696218 0.09554169 0.01805126 -0.107769355 0.10815013
با -0.11042073 0.058096107 -0.10096589 -0.09830224 -0.04130559 -0.045640726 0.013239147 0.017687388 0.03743121 -0.045543276 -0.12075968 0.023589365 -0.08392337 -0.06612787 0.094109856 0.030426782 -0.07900376 -0.033518083 -0.047196217 0.017054318 -0.09526606 -0.06769494 -0.089595556 -0.00948228 0.078134134 0.039478123 0.0993767 -0.11140164 -0.00810453 -0.09085415 -0.078885205 -0.10388084 0.08656539 -0.08499908 -0.09785682 -0.09990208 0.04562648 0.057291787 0.033382125 -0.043754574 0.0950359 -0.09889857 -0.037616193 0.0007890778 0.035563875 0.05593871 -0.0350796 0.024907123 0.06606467 -0.10954917 -0.03913424 -0.115587406 -0.07028336 -0.008970727 0.023248872 0.053134937 0.05278833 -0.083168164 0.07065975 0.13547723 0.025395328 0.062743515 -0.1147161 -0.008969575 -0.017976569 0.105400115 -0.048553407 0.10896771 0.077600606 0.016043844 0.07993474 0.044537198 -0.017231762 -0.081056036 0.057811633 -0.005130911 0.04932734 -0.030947648 0.040801793 -0.04176663 -0.063699 -0.017111871 0.03999893 0.073978126 0.075554386 -0.0069005634 -0.048481658 0.051352527 -0.020044899 0.10799991 0.00465318 0.010253594 0.098668166 -0.091861725 0.04623791 0.10873623 0.089048244 -0.11249436 0.06381686 0.11307907 0.041827697 0.08085791 -0.07049967 0.059156016 0.028324826 0.09387013 -0.08461676 0.06988001 -0.010645066 -0.06229114 0.019351356 0.011572641 0.027618894 0.0880336 0.04588222 0.07665725 -0.014165127 -0.03496208 0.07220384 0.106055975 0.11153127 -0.03443645 0.094455846 -0.081996225 0.07598827 -0.03661603 0.09226369 -0.124245055 -0.086015195 -0.009252211 0.04330601 -3.2479024e-05 0.023764875 -0.074951604 0.08057648 0.12370453 0.06225661 -0.106022716 -0.083495095 -0.0104551315 -0.043618854 -0.08145685 0.042690475 0.1079109 0.008041002 0.10034817 -0.007058536 0.077408895 0.12743457 -0.10507053 0.0294627 0.06143728 -0.0075785606 -0.083278485 0.09561469 -0.061256565 0.041670993 -0.04134072 0.06362885 0.10503528 0.10132397 0.048604775 0.010349096 0.09464997 -0.054735444 0.02099148 -0.09462395 -0.123824544 0.09165035 0.009379898 0.111453705 -0.016159667 0.047652915 -0.06730657 0.00609641 0.11022941 0.05616971 -0.052889455 -0.11429082 0.013927431 0.108183004 -0.11704992 0.021657271 -0.112643294 0.040500306 0.061585475 -0.09109432 -0.008693393 0.0028658442 -0.049602278 0.056987416 -0.02235452 0.039272286 -0.055761743 -0.027865967 -0.122098766 0.06238097 -0.08094668 0.081437714 0.04617594
برابر -0.117582105 0.037349127 -0.10173274 -0.023986978 0.11394065 0.07223912 -0.079941444 0.034867357 -0.088492505 -0.038093977 -0.1120689 -0.086064205 0.04214978 0.11960303 0.031524364 0.015363144 0.0019233101 -0.038793318 0.052777465 0.07278535 0.09056976 -0.08427496 0.06088349 -0.033762388 -0.005125108 -0.055552386 0.05932655 -0.05279476 -0.0758975 0.052191712 0.119147524 -0.075168684 0.100717105 0.035708204 0.046707373 0.07409464 0.0055787913 -0.047182996 0.13436647 0.05939959 -0.0050913054 -0.04526491 -0.055133246 0.027822945 -0.044531092 0.03661334 -0.012929582 0.052868158 0.047117166 -0.034386396 -0.09567238 0.070178576 0.03653361 -0.087837026 -0.024282683 -0.088590786 0.05782437 0.03927968 -0.103016794 -0.089982174 0.03904116 -0.008576049 -0.04477153 -0.09123933 -0.06569305 0.028792799 -0.083080426 -0.05644136 -0.04679581 -0.029023813 0.013438213 0.10371453 0.055918526 -0.025058161 -0.026761075 0.022455588 -0.058682572 0.043883536 0.023510316 -0.015038297 0.11123604 0.042371858 -0.0016291054 0.0038788875 -0.081072226 0.011063857 0.046720516 0.00915757 0.015980542 -0.045703437 -0.03505257 -0.099669464 0.033955596 0.06595097 -0.002965188 0.09866947 0.018016955 -0.09812694 -0.12099348 0.12350125 -0.06706451 -0.057904575 0.039232828 0.04155081 -0.09634433 0.06640697 -0.08159037 0.018459344 -0.077864036 -0.12115054 -0.06920041 0.12075351 0.109071776 -0.047924154 -0.026310295 0.054946043 -0.01567112 0.095273346 0.1203494 -0.08915404 0.002563156 -0.08324717 0.09592525 0.083928056 0.023008699 0.12849703 -0.1019129 -0.018965077 0.059308216 -0.070338696 0.097666636 -0.10769903 -0.103191786 0.033040132 -0.10145038 -0.0565789 -0.040969018 -0.052562073 0.07047639 -0.057795823 -0.04131399 0.116807364 -0.033489555 0.10826122 -0.095057264 0.08803887 0.035788454 -0.04149683 0.0020490866 0.026188172 -0.026049785 -0.10326953 0.10030908 -0.08180105 0.09265096 -0.006947218 -0.007719953 -0.104133464 0.07265192 -0.10743515 -0.020393306 -0.052559674 0.09813699 -0.03141623 0.10597144 0.109274276 -0.12337749 -0.024757212 -0.089581996 -0.102805845 -0.12044779 0.048834335 -0.10442662 -0.049865894 -0.041778248 -0.058793057 -0.05212284 0.09670066 -0.0267705 0.032825887 0.10150722 -0.041950967 -0.0687576 0.001564912 -0.11560309 0.079919934 0.10996193 -0.019698577 -0.11824608 -0.05381059 -0.069429174 0.08067087 0.06731866 0.028376315 0.023688136 0.034688126 -0.07347617 0.072477885 0.022260422 -0.08273538
تيمش 0.108034566 0.093911916 -0.06358905 0.096390724 0.08411171 -0.038259078 0.10668531 -0.05166602 0.07231745 0.089307584 -0.09722463 -0.0533509 0.11003975 0.02159373 0.07265598 0.035370577 0.03266185 -0.022372197 -0.001492886 -0.082606316 0.072314605 0.009404236 0.03824144 -0.024114164 0.09207267 0.032651745 0.0013159646 -0.07769332 0.057255752 -0.09999112 0.05112539 -0.03439665 -0.052087773 0.122337416 -0.020637468 0.04055896 0.018659506 -0.09887854 0.12512426 0.096493125 -0.00978913 -0.08133654 -0.025099998 0.07790521 0.100984104 0.11514119 -0.020635648 0.08656296 0.029947206 0.0049122106 0.10865799 -0.11274151 -0.10037656 0.015338159 -0.008467713 0.08196001 -0.017252957 0.01640802 0.0056247865 0.048671074 -0.0040194625 -0.022907818 -0.07789643 -0.028740115 -0.113158874 -0.08436499 0.08197836 -0.0116955815 -0.104360096 0.086564414 -0.09515102 0.03851781 -0.108024776 -0.1129588 -0.05719417 -0.092175245 0.022510326 0.05603785 -0.08357511 0.02574676 0.04341887 -0.006565598 -0.096876174 0.06846224 0.0030892147 0.048190985 0.07759819 0.10424714 0.06521081 0.035553932 0.10646792 -0.058250792 0.05907412 -0.04066023 -0.0063842693 0.02912479 0.11316979 -0.043121893 0.015505235 -0.00042881758 -0.0039818375 -0.08709285 -0.010816143 -0.011081744 -0.05305791 0.07041377 -0.11075268 0.021069381 -0.05296504 -0.03650244 0.035953853 0.012600546 0.05781917 -0.07173436 -0.0933728 -0.06967512 0.024869 -0.037190665 -0.11092293 -0.08405929 -0.010154732 -0.09141026 -0.11105605 -0.09237446 0.08684923 0.077410564 -0.07202927 -0.046554297 -0.092953965 0.09631589 0.089519106 -0.07124159 0.054552093 -0.05020832 0.040211026 -0.07772998 -0.018840596 0.019070707 0.113842025 -0.062365826 0.063177675 -0.050113685 -0.024972351 -0.01875799 0.079439595 0.022219338 0.10834622 -0.03020473 -0.05971297 -0.11403674 0.06037537 -0.08396783 0.08425867 0.03860522 -0.08751391 -0.11639739 0.043326832 0.10780384 0.104935504 -0.09373802 0.040484898 -0.10373518 0.04062232 -0.0020485765 -0.015274321 0.036358826 -0.06442813 0.009587423 0.062440142 -0.09256315 -0.028407158 -0.07733979 -0.08291989 0.09746321 0.11261966 -0.055151355 0.017564183 0.022808729 0.08915526 -0.11160069 -0.085977934 -0.0933077 -0.014931177 -0.11805992 -0.0023571062 -0.07316705 0.03051173 0.0717893 -0.043260124 0.022570428 0.017340804 0.107670076 -0.09918059 0.067555636 0.09969343 -0.11357908 -0.110378616 0.06484751 0.06563885 -0.0738805
مصاحبه -0.119499385 -0.07805019 0.044091187 -0.10610768 0.08581529 0.10094464 -0.018325549 -0.07434784 -0.050950635 -0.013445658 -0.04482905 -0.064070165 -0.009951034 0.09587266 0.0333243 0.026619047 0.056585345 -0.107295 -0.061712153 0.05261237 0.12809208 0.07195717 -0.02710535 -0.06717964 -0.042592287 -0.1245882 -0.092940666 -0.030312078 -0.092747495 -0.06707378 0.064024314 0.10219132 -0.045449298 0.09897127 0.10989558 0.015542664 0.062495414 -0.07934446 -0.080832645 0.014858207 0.065080784 0.04185775 0.073457286 -0.05991188 0.048320767 0.0039372863 0.09251113 -0.10262349 -0.11271592 -0.08761064 0.06857688 -0.073088564 0.04022093 -0.031077703 0.05969417 0.09454845 0.035870135 0.04479571 0.10703815 -0.080979384 0.02521359 0.04321369 0.07851627 0.06475665 -0.10754939 -0.01589153 -0.0102021815 -0.03616349 -0.043805357 0.07438229 0.063662075 0.06782136 0.0004330627 0.09959849 0.091017075 0.09124507 0.08080877 0.033273995 -0.024627557 0.025929099 -0.05998879 0.003994772 -0.060181692 0.05292958 -0.03827796 0.10277243 -0.08935737 0.11953384 -0.058696453 -0.010467065 -0.036076993 0.08668397 0.082564354 -0.07621584 0.03929692 -0.07369107 0.11902204 0.08793681 -0.080507375 0.04866689 0.057895113 0.06673783 0.039029792 0.026394613 -0.00021684584 -0.09592546 -0.10468888 -0.06381809 -0.031406663 0.060007837 0.038543608 0.009968486 -0.10235931 0.027959008 -0.0642603 0.003409247 0.007669369 -0.051003233 0.03403516 0.091284506 0.108537994 -0.017653225 0.0017834629 -0.00011317036 -0.063096866 -0.036337767 -0.12337056 0.0046167113 -0.026635101 -0.02151085 0.038346343 -0.009592529 0.0829432 -0.09988308 0.04795223 -0.09376566 0.020782107 0.0826056 -0.049002692 -0.03081397 0.025139209 0.003917497 0.027475975 -0.0057923077 -0.081887074 0.11197265 -0.112503566 -0.08142735 0.10634838 0.07115397 -0.08978639 0.103325784 0.013620427 -0.1164063 0.051290106 -0.008788798 0.11695174 0.022138683 -0.0642659 0.10937166 0.07282062 0.055145565 -0.0013692724 0.04620225 0.096760206 -0.12047294 0.08939349 0.083004 -0.05527055 -0.03300216 -0.09884729 0.050799318 0.044307537 -0.07893165 -0.079576045 0.102693625 0.043300513 -0.104268335 0.051786687 -0.07396595 -0.06748027 -0.054583397 -0.0922685 -0.048281178 0.105295695 0.06621029 0.032595724 -0.111591116 0.07205747 0.11162751 0.117442586 0.030212816 -0.031359296 0.07397882 -0.09601174 -0.11882891 0.011165201 0.012398964 -0.03776344 -0.06825795
محکوم 0.07622479 0.06717979 -0.022380985 -0.036886003 -0.110767 0.0078444 -0.017781058 0.0770245 0.051289566 0.114206605 -0.10341195 0.019445552 0.07172852 0.04178452 0.05511684 0.025401616 0.0315134 -0.052892134 0.10211225 0.11088075 -0.09938063 0.10050966 0.08878169 0.10385286 -0.08800813 0.07847869 -0.100613944 -0.08564862 -0.0050636274 0.03280881 0.04236822 0.078606784 -0.11088459 0.11009886 0.024279995 0.026477426 -0.014135154 0.088798635 0.07271892 -0.00838632 -0.029737275 0.10477208 -0.09619064 0.023618372 0.05539955 -0.0021948353 0.10918089 0.10138082 -0.012881954 0.0062408624 -0.0091932425 0.054717034 -0.03489612 0.10178833 -0.09211781 0.10596009 0.048733756 -0.04892496 0.0016511253 0.0938888 -0.07602383 -0.08839703 -0.094845384 0.08960486 -0.071127675 -0.09596692 0.021425243 -0.051116765 -0.015327879 -0.11602186 -0.10940327 0.103777796 0.08815661 -0.048709325 0.031113055 0.056093864 0.057835046 0.04870946 -0.04794977 0.045853507 -0.040938642 -0.110183895 -0.04787913 -0.088445604 -0.00238612 0.06838156 -0.017933112 0.00088919274 -0.020749547 0.06706029 -0.062048014 -0.059384696 -0.0035278376 0.050553054 0.063564524 -0.020673003 0.10463048 0.09418462 -0.0658734 0.110562615 0.10842161 -0.0038931773 0.02042059 -0.04833152 0.048847545 0.059005853 -0.07456757 0.016011821 -0.041583583 0.09123775 0.0084094 0.008105999 0.057198644 -0.020973636 -0.07099541 -0.027469186 -0.038914997 0.02729343 0.08260243 0.032788917 0.11523985 0.052982554 0.026901472 -0.065106526 0.0059046224 -0.027512163 0.101939835 -0.11306365 0.110381424 0.0046566674 -0.037755974 0.088339984 -0.044640187 0.086312726 -0.0405563 0.09919207 -0.07825191 -0.1051669 0.077538304 0.041415013 -0.051487274 0.05528542 -0.05720864 -0.11439483 0.100511074 0.09087771 0.05277541 0.11268981 0.08688117 -0.037432794 -0.077824235 0.03686451 -0.057579763 0.106555015 -0.064705856 -0.08988763 0.113815814 0.06312156 -0.051374752 -0.010639636 -0.0027392784 -0.06075341 -0.056543153 -0.018892745 0.040268276 0.05447933 -0.061540857 0.07312731 -0.10954369 -0.0751553 -0.1110318 0.059044786 -0.076892145 0.091362216 0.093639925 0.0866063 -0.06059645 0.044609815 0.09846982 -0.09846516 0.106616825 -0.04742921 0.046848867 0.071535654 0.09617431 -0.08852239 0.088496484 -0.0050146063 0.0013824659 0.02917906 0.10730964 -0.07835678 -0.020572502 0.069647245 -0.11007566 0.036162023 0.038698237 0.033698563 -0.081471115 -0.0948972
است -0.052162386 -0.045932475 0.045850076 -0.06988517 -0.020631732 -0.078827344 0.10404738 0.087468006 -0.08645135 0.09882778 -0.123782806 0.10728071 -0.038707446 -0.07399144 0.026030041 0.04578223 0.047118563 0.031101055 0.08628008 -0.04166812 0.06489175 -0.05066269 -0.0749086 0.08956056 -0.066451326 0.064472936 -0.10455186 0.06297434 -0.08860001 -0.019903926 -0.075543225 0.030583456 -0.048833717 0.012971947 -0.0018639317 0.0271931 0.0229782 0.004302534 -0.04513245 0.08805478 0.004788395 0.021918898 0.06243981 -0.073647544 -0.060759597 0.029667517 0.022540418 0.109988034 -0.10693378 -0.032977827 -0.08474553 -0.03428779 -0.0723961 0.0952508 -0.090050116 -0.014973035 -0.0056937514 -0.05855655 -0.10268964 0.05996385 -0.08026947 0.017539006 -0.057094235 -0.10331274 0.081527404 -0.008885331 0.083676964 0.063161105 -0.075510174 -0.033940725 -0.040172677 0.0056153582 0.05518632 -0.11251948 0.0033577438 0.02185125 -0.07802475 0.07891542 0.0344351 -0.043188117 -0.102131926 -0.044511374 -0.04973245 0.09392873 -0.06687983 -0.09372483 -0.049112264 0.089032955 -0.08882973 -0.07056268 -0.08535777 -0.020412192 -0.050305497 -0.08179339 -0.033010196 0.09649479 0.069584556 0.07008175 0.08002759 -0.026594283 -0.026223382 0.09713564 0.050316345 0.020604594 -0.10229314 0.04029158 0.09500258 0.10617535 0.09216705 0.030596575 -0.081523575 -0.040264204 0.023026694 0.10600322 0.08286044 -0.067210734 -0.07518458 0.110758655 -0.084171236 0.07320148 0.0917259 0.05527741 -0.0018086559 0.11266994 -0.022611871 0.051253103 0.052126564 -0.088166155 -0.004238392 -0.06560363 0.11390391 -0.011052865 0.016032359 -0.10147265 0.110595845 -0.06929274 0.099885 -0.12275812 0.10049941 -0.011201928 -0.043564897 0.025175726 0.07841311 -0.09903685 -0.11936502 0.08073423 -0.029374287 0.047540687 -0.08751646 0.09840795 -0.09921701 0.04499263 -0.013368631 -0.008422733 -0.0563623 -0.04832597 -0.0030714083 0.02564022 0.09032696 -0.05364811 0.11342592 0.1126735 0.10666929 -0.045688763 0.009129082 -0.05288204 -0.01305042 -0.023988733 -0.04397845 0.019126028 -0.06063929 0.06805 0.09638749 0.03137693 0.118155755 -0.025787687 0.03829236 -0.0915377 0.047553804 -0.020004896 0.07219995 0.10734918 -0.112684704 0.056653343 -0.060682096 0.07849102 -0.07313646 -0.08424107 -0.110346235 -0.06488801 0.09288685 -0.08197151 0.10520269 -0.07364241 0.07233027 0.11125002 0.07401702 -0.060839545 -0.055233046 0.07780533
ترديد -0.10340668 0.022102263 0.061667938 0.041032385 -0.117967054 0.07379567 0.10613795 0.06120106 0.052568834 -0.0827742 -0.11197678 -0.1169775 0.049828157 0.08849911 0.098499075 0.10783626 -0.08580735 -0.11577125 -0.016953742 -0.10942373 -0.008614002 0.028219659 0.025290633 -0.100410745 0.06697773 0.046285283 0.023467863 0.005901099 0.1228902 0.11389198 0.062247578 0.011717972 -0.05627975 -0.04204145 -0.06543782 -0.061017536 0.09021836 0.020188514 -0.011975689 0.10482955 0.10965975 -0.11924201 0.02178169 0.107305594 -0.03031979 0.04012503 0.042575818 0.06848454 -0.046535503 0.108262956 -0.068375535 -0.12509128 -0.103726394 -0.06095122 -0.07088851 -0.048372027 -0.03388098 -0.02584479 0.0024200073 0.13553548 -0.0033357812 0.06464212 0.1087624 -0.09521012 0.09574002 -0.042386815 0.09160674 0.108458385 -0.0031519148 -0.11105497 0.010506888 0.066305436 -0.034373064 0.03382307 -0.026155218 0.039171115 -0.047917895 0.01019494 0.045636903 -0.089395344 -0.08258374 -0.082084045 -0.051992048 0.012526634 -0.05131777 0.10527235 0.01984791 -0.103271246 0.11423308 -0.11510844 -0.041525386 -0.013413193 0.0773775 -0.04937164 0.10811721 -0.06485325 0.07571784 0.088282585 0.11178365 -0.044959344 0.035678927 0.06875352 -0.085604995 0.00910594 0.07862485 -0.04717155 -0.06542419 -0.0745704 -0.083214745 -0.02905439 0.0027891265 -0.03267399 0.032670293 -0.0034225634 -0.004306943 -0.061265178 0.009826893 -0.103868246 -0.11346481 0.08329467 -0.048209995 0.021375855 -0.013150853 -0.010177424 -0.11764976 0.025224125 -0.040371545 0.04338979 -0.026861977 -0.030245945 -0.10935207 0.019764734 -0.11970996 -0.044797774 0.08639316 -0.062018353 -0.07823605 -0.12514147 -0.018727843 0.008722415 -0.11730691 -0.07044418 -0.06899362 -0.062126033 0.08896657 -0.011163867 0.014022824 0.01892531 -0.10522386 -0.040436063 -0.0011881437 0.028277878 0.0056846514 0.10866659 -0.11262666 -0.04987876 0.056259647 -0.027293064 0.123802714 -0.024197098 0.03035919 -0.005153474 0.08378503 -0.087430395 0.038692154 -0.101209275 -0.03301484 -0.07011192 0.023622025 0.033224795 -0.11821238 -0.10873435 0.068285026 0.032770004 -0.033585627 -0.054577406 -0.10497095 0.020021014 0.07556671 -0.09098148 0.08656716 -0.041165277 0.044561513 0.059343692 0.012154986 0.039338723 0.10839413 -0.025459459 0.094628505 0.058898613 0.076585665 0.101618126 -0.060455155 -0.034597173 0.1036595 0.004895879 -0.009658698 -0.021464564 0.048301995 0.01998449
فقط -0.076522484 0.10740787 0.009505965 0.10420951 0.03760704 -0.11336548 0.0690887 0.03636903 0.010025531 -0.11990213 -0.06476534 0.07946174 0.12067166 0.12150222 0.058276273 0.052957933 -0.054004926 -0.079440765 -0.08447545 -0.09234054 0.030787436 -0.024474224 0.028814832 0.10538157 0.056828186 -0.061343044 0.030949002 0.008030473 -0.11997482 0.057458095 -0.11715184 0.047584012 -0.017324055 0.122799166 -0.06548541 -0.045407817 0.043901946 -0.0771754 -0.07172106 0.054333873 -0.096870214 0.0690746 -0.039562173 -0.10416315 0.010906069 0.029823866 0.012836025 0.103408754 0.09779094 0.016608734 0.1180065 0.030933408 -0.10444899 -0.093566544 0.0064611565 0.046759844 -0.03342775 0.044863883 -0.053143393 0.07960199 0.07285092 0.05759029 0.043621927 0.05255904 -0.11868824 -0.026302913 -0.036338452 -0.009544814 0.10885854 -0.05300049 -0.0063018803 -0.092232905 -0.025608277 0.0162425 0.064120546 -0.105046004 -0.00977325 0.038229816 0.07261378 0.06971737 0.08743192 -0.010783774 -0.100240484 -0.07157641 -0.06505049 -0.006044501 -0.06406533 0.12203787 0.061757352 -0.035341945 -0.10277889 -0.027576385 -0.06415494 -0.024962956 0.028550759 0.1143894 -0.09927164 0.054971766 -0.04783527 0.07070302 -0.03013687 0.107122615 0.0291021 -0.06672664 -0.08972272 0.073350064 -0.08664723 0.10868539 -0.09569846 -0.11934219 0.09821455 0.07972057 -0.066687055 -0.05540292 -0.07095784 0.008535845 -0.090603895 0.03640329 -0.0011387437 -0.0067744106 0.061733026 0.025443248 0.020552505 0.10988697 0.023257058 0.09874062 -0.110557504 0.060120493 -0.10980966 0.034664277 -0.101657465 -0.11276518 -0.017458376 0.0038935372 -0.038025036 0.089750715 -0.040706012 0.06792171 -0.045501735 0.013733037 0.052967872 0.07661895 -0.0051976633 -0.10427798 0.10096599 0.04912522 0.07087648 0.09472445 -0.0802533 -0.0091430135 -0.0028873822 -0.0056942003 0.11842785 0.083123356 -0.059472438 0.025918294 0.1253316 -0.061675046 -0.04427577 -0.088870905 -0.064699724 -0.007094201 -0.06507457 0.0004571428 -0.10815462 -0.055974282 -0.056546755 0.05385422 0.031052101 -0.024464048 -0.077290624 -0.097331606 0.06954377 -0.037831392 0.102762096 0.07236571 0.06564178 0.014268582 0.037175708 -0.075829834 -0.023501374 0.09648037 0.05379771 0.03613677 -0.068762496 -0.099841245 -0.04657059 -0.09962274 -0.06527875 0.016951684 0.054981325 -0.116191514 -0.017725289 -0.07439312 0.10711229 -0.046290923 -0.11586926 0.009957482 -0.029156517 0.030119598
يا -0.011296979 0.10230694 -0.017012348 0.04591882 -0.06853268 0.05405817 0.06849329 -0.036348466 -0.104724534 -0.10293784 0.06745875 -0.0651559 0.05709655 0.024165247 -0.08080042 -0.013996599 -0.06670445 0.008453872 -0.010180124 0.09817148 0.044781473 0.096952654 -0.1377947 0.10957062 0.018129691 0.027526015 0.06916379 -0.08125084 0.119052865 0.038068894 0.11452117 -0.07861586 -0.097044 -0.024672968 0.027902914 0.12190431 -0.058539584 -0.03299695 0.008682377 0.08467529 0.09557242 -0.06786032 -0.016511539 0.06312101 0.014602011 -0.0070523145 0.058482386 0.0299371 0.11519934 0.10400511 0.0999592 0.042046927 -0.06776153 0.042298224 0.026355224 0.05766249 0.0348596 -0.0033069183 -0.073510185 0.114382274 -0.0943069 -0.04581931 0.057352986 0.0453784 -0.107887976 -0.0004538315 -0.09741169 0.036916576 0.10391977 -0.09671658 0.10773505 -0.07672529 -0.010137758 -0.05219179 0.102047004 0.04983483 -0.015280423 -0.05545447 -0.12143593 0.09023964 -0.056969184 -0.04565458 0.011068196 -0.11835841 0.092028715 0.0115580885 -0.08755174 -0.041694153 0.07445874 -0.09095309 -0.053539276 0.06670667 -0.046539456 0.014746295 -0.003910407 -0.05706442 0.0039280923 0.09710068 -0.06809666 -0.049885347 -0.11777595 0.07849159 0.05616328 0.098058596 -0.06099227 -0.08749454 -0.02959822 0.03333402 -0.009134761 0.088670045 0.034219205 -0.05707797 0.03248084 0.008251175 -0.034978304 -0.03236551 0.09483519 -0.10815182 -0.06063463 0.049348235 -0.07386475 -0.03726586 -0.08527573 0.10622282 0.11350288 0.07258052 -0.048390824 -0.07571789 -0.038149014 -0.04883316 0.082765706 0.020972887 0.0025437882 0.01403023 0.020058105 -0.07616143 0.06691215 -0.108052805 0.10594057 -0.027209645 0.058166455 0.042728562 -0.11339056 0.04523961 -0.023431981 0.10273119 -0.12774208 0.09859564 0.05076571 0.038510427 0.015772829 -0.060255855 -0.06601645 0.027698187 -0.08362125 -0.035384662 -0.046076912 0.086671695 0.07269873 0.119958304 -0.11129268 0.016135631 0.12297804 0.028730828 0.10927432 -0.11648871 0.066877015 0.07945619 0.021511978 0.0035621494 0.064605646 -0.08380268 0.008346895 -0.013805717 -0.039362114 -0.10266218 -0.057269845 0.011044102 -0.087617904 0.10836379 0.09782836 0.06338776 -0.09167531 -0.029584441 -0.11159112 0.04815985 -0.0733193 0.006995291 0.022202458 0.09379127 -0.08869177 -0.01155757 0.0421815 0.016256073 0.05733748 0.039265074 -0.0017587711 -0.113184504 0.106704295 -0.0784605
داشت -0.0772734 -0.102496855 0.08063723 0.08791795 -0.11061462 -0.11482664 0.040247913 0.09915953 -0.028250327 0.03963121 0.078056395 -0.071918026 -0.07444727 0.068382 -0.04622479 -0.08626494 -0.07314482 0.087143555 -0.0634042 -0.030275248 0.12795743 0.056430038 -0.08054612 -0.089771494 -0.06250783 0.059363373 -0.016295778 -0.047182336 0.014653019 0.030605221 -0.10992977 -0.11213182 0.065259084 -0.01940577 -0.08489346 0.07769885 0.09159455 -0.05051792 0.020869333 -0.0039388244 0.04491678 -0.015541169 0.037073076 0.054407693 -0.020430734 0.12933621 -0.05065877 -0.04537974 -0.014874499 -0.0058171065 0.011648163 -0.11676357 -0.023641614 -0.028945152 0.051065587 0.005868981 -0.07425075 -0.023472533 -0.018381266 0.066025324 0.07810267 -0.09723259 -0.093354136 -0.11342998 -0.0011813907 -0.043664414 0.11366309 0.03628923 -0.04894144 -0.048417203 -0.010250223 0.04456672 0.107617564 0.022684189 -0.058055356 0.06287971 0.09452266 0.047086965 0.0052248915 0.034873635 -0.07977299 0.04903444 -0.018563697 -0.07316662 0.092248194 0.07691698 0.049612876 0.10871518 -0.00948861 -0.12808615 -0.02676755 0.11062299 -0.014456025 -0.09133699 -0.08305095 0.031913634 -0.092996016 0.091231816 0.015810946 0.09680782 -0.0030421573 0.07203573 -0.038679264 0.028073186 0.08892929 -0.003790605 0.051827334 0.03575515 0.036736384 -0.053691614 0.083165266 -0.04345695 0.036350176 -0.06173858 -0.017806426 -0.07877571 -0.047946855 0.02925622 0.029732889 0.11858635 0.08417427 -0.0041243997 0.024922175 0.0900013 0.028970478 0.07332409 0.104708664 -0.0012786837 -0.037564024 0.02155804 -0.096998304 -0.07341238 -0.07633931 0.10467051 -0.057196505 0.0016694167 0.08452071 0.09436567 -0.08051804 0.04304502 0.100343324 0.008634807 -0.06702646 -0.09500218 -0.08228443 -0.006192419 0.0029003865 -0.09401224 0.10547679 -0.12013874 0.010610369 0.118377835 0.07270578 -0.060408924 0.096319005 -0.12658024 -0.110373706 -0.053610206 -0.053024605 0.12797832 0.11739378 -0.08861928 0.10535194 -0.08979105 0.052998513 -0.07791583 0.06445107 -0.06732984 0.011013803 -0.018412152 -0.0397445 0.061138816 -0.113951854 0.028356127 0.115091115 0.09152762 0.056604497 0.12290724 0.049081765 -0.10526366 -0.07898834 0.101895645 0.06018006 0.09142601 -0.05783179 -0.043637622 0.0048633 -0.06761148 0.05600192 0.045697134 0.09108766 -0.09853538 0.01027526 -0.0393545 0.07006144 0.06681577 -0.06263501 -0.0047921985 -0.06684791 0.030964194
بردن -0.044063356 0.00024047145 -0.0029882216 -0.05528913 0.09248124 0.06433389 -0.059101127 0.10255063 0.034419544 0.0137015935 -0.101983115 -0.015667519 0.05684322 0.079561576 0.10954507 0.11641672 0.09150167 0.120506 0.045323677 -0.045074627 0.0026409645 -0.033878636 0.09322469 0.053055394 0.11978905 -0.08154125 0.005960794 -0.03701037 -0.018975245 -0.07602701 0.06538972 -0.12040602 0.06554199 -0.04213138 -0.01239969 -0.036151644 -0.06365238 0.062438056 -0.02885786 -0.04983608 0.032010216 0.06273611 0.11336704 0.01723705 0.039163895 0.10726379 0.09569115 0.084800385 -0.05801684 -0.035871696 0.020649826 0.005447821 -0.1041632 -0.067583375 0.042122778 0.05374882 0.043103162 0.06307893 0.11183446 -0.019109275 -0.0025935608 -0.1082834 -0.091455765 0.070576146 -0.079243965 -0.09493082 -0.047457226 0.030546868 -0.0008332038 -0.123780586 0.013886299 0.07446623 0.033861544 -0.04755656 -0.037534107 0.055103574 -0.11662619 -0.04718885 -0.010205538 0.1177856 -0.09335704 0.08930591 0.09619339 -0.015363689 0.07607244 -0.020497078 -0.07651058 0.09029755 0.010792958 0.039718974 0.06643697 0.09486787 -0.09502583 -0.0489163 -0.015193106 0.057481144 0.08911918 -0.038033344 -0.05842204 0.025340123 0.10722056 -0.09224059 0.015009277 0.061925918 0.020227496 0.041111324 -0.07218439 -0.10619242 -0.06405041 -0.089529514 -0.027938657 -0.011022362 0.10383774 -0.003663929 0.008350078 -0.06728579 0.039701093 -0.014177475 -0.12232786 0.06344583 0.04176687 -0.03322354 0.08574375 0.08255453 0.06344568 0.05039381 -0.12296347 -0.0073885126 0.08167249 -0.00866892 -0.109509766 -0.0045352867 0.0021422713 0.082770325 -0.083246715 -0.07952512 -0.07330681 -0.1313634 -0.050300125 -0.08249393 -0.09343244 0.05740885 0.045779213 -0.095391706 -0.09799222 -0.099194385 -0.12930435 -0.11334638 0.03826171 0.11286534 0.0030990092 0.08262811 -0.02518316 0.05904976 -0.10851982 0.02382616 0.09994188 0.072189264 -0.07095625 0.031858683 0.04221536 0.035479628 -0.04929811 0.027970323 -0.0236095 -0.11908503 -0.017051237 -0.112596095 0.07757389 0.08157422 0.031037256 0.04623783 -0.118707314 -0.018156776 0.122389086 -0.045845836 -0.035336517 -0.09766479 0.12076654 -0.08603188 -0.11446397 0.045161728 -0.08193708 -0.06040028 0.08668931 -0.018153766 0.06796552 -0.036978364 0.005758568 -0.06526444 -0.10822725 -0.045741435 -0.114396386 -0.048341826 -0.06780232 -0.01939672 0.07345492 -0.027452152 0.033560988 -0.01762772
چند -0.023923166 -0.042827416 0.07552754 -0.033586476 0.054217614 -0.066424556 -0.0925533 0.10319373 -0.006786754 0.03751725 -0.047946777 0.08385933 0.07707336 0.07538762 -0.10560147 -0.09090112 -0.06538048 -0.06586236 -0.07813574 -0.007723678 -0.038383674 0.015428421 -0.07601677 0.10307 0.10955561 0.08964006 0.10557749 -0.07923504 0.047965832 -0.0076031913 -0.022685023 0.109386735 0.00026314185 -0.04123208 -0.10637995 0.08987791 0.04363109 -0.1052966 0.08526767 0.056116667 -0.066096224 -0.031691756 -0.07131951 -0.10218598 0.023523005 -0.0919941 -0.026308417 -0.061953705 0.05792778 0.0863258 -0.114385635 0.093982756 0.089071386 -0.10722083 -0.11697259 0.04156851 -0.018500762 -0.02797446 0.10300859 0.103780694 0.068240896 0.08244354 -0.07470491 -0.09725754 -0.07558956 0.10457273 0.026942622 -0.0817084 0.018641584 0.093366094 -0.082170226 0.070924066 -0.0374238 0.08210721 -0.10951553 -0.11026117 0.03398272 0.004928123 -0.09261918 0.07467263 -0.07926019 -0.045107085 0.09229233 -0.108382784 0.0487139 0.045909327 0.05868219 0.030899001 0.06999572 0.018839868 0.057303157 -0.073348805 -0.10813726 0.035494935 0.109439425 -0.059011914 -0.0016653531 -0.028700955 0.033778537 -0.11137758 -0.089281596 0.020805096 0.038168676 0.10326518 0.005336098 0.1164685 0.04676273 0.099339336 0.033303402 -0.09865827 -0.08997408 0.053056702 0.05412813 0.04683967 0.019067321 -0.056435905 0.043688677 -0.0747895 0.061601616 0.06796296 -0.06850981 -0.08199563 0.019346297 0.07603969 -0.03816954 -0.07996569 -0.041154407 -0.025690943 0.053893715 0.052903738 0.028534172 0.031271204 -0.09335079 -0.09203424 0.049015313 0.047009245 0.028184727 0.05383627 -0.012410167 -0.03171838 0.012777149 0.011633505 0.087538406 0.035554666 0.10377966 -0.0097001605 0.08692616 0.09965587 0.061644495 0.10364672 -0.007299979 -0.05292143 -0.056690287 -0.057826705 -0.034451693 -0.060460716 -0.08312885 0.08645758 -0.027248105 0.091130495 0.07919271 -0.01016613 0.086523 0.031919822 0.10826168 0.02823785 -0.04466166 0.011699107 0.0028251626 -0.10702666 0.0979899 -0.073008 -0.06304503 0.10610484 -0.105593674 0.022631558 0.102457985 -0.076840535 -0.09699963 -0.08588315 -0.044574928 -0.02122388 0.047710486 0.05920912 0.036084052 0.11641479 -0.042223144 0.048708986 0.1096298 0.049833927 -0.007688127 0.046535943 0.10342479 0.11085867 -0.097068116 0.046604786 -0.056728303 -0.04223253 -0.083045125 0.06546631
حالا 0.076223716 -0.068720825 0.09109868 -0.015864505 -0.01333069 -0.086776026 0.08700839 0.09435698 -0.047651958 -0.04098813 0.077990666 -0.0052739265 -0.055987373 0.0148395905 0.06569188 -0.028650206 -0.016175454 0.1055929 -0.078927316 -0.09010837 0.08542482 0.06512555 -0.119620964 -0.04261005 0.059932522 0.064171344 -0.03549934 -0.05699305 -0.051180575 -0.11860729 -0.10090017 -0.03131982 0.039392702 -0.024022417 -0.052086066 -0.098069884 0.096777394 0.019440157 -0.03602796 0.024712201 0.015857652 0.10405675 -5.099499e-05 0.075952195 -0.06602892 0.025611164 0.098536804 -0.1116782 0.06035465 -0.07490826 0.012471726 -0.09004724 0.070240006 -0.011597797 -0.09417792 0.06664062 0.07057386 -0.102772005 -0.094808094 0.03821523 -0.10456385 -0.00095358235 -0.12178598 0.07169994 -0.07760737 0.045612734 -0.08402261 -0.095601305 -0.027735965 -0.04174744 0.086443335 -0.027418466 0.021035057 -0.00095747976 -0.04892219 0.057239693 0.107402205 0.097411975 0.10283791 -0.10016536 -0.07480024 -0.057464946 -0.03636 0.063896894 -0.119101815 -0.020928457 0.048011232 0.015730761 0.0882024 0.029979156 -0.014581272 -0.0019511117 0.11068374 -0.028873358 0.092879 0.07484002 0.052313972 0.051189777 0.002022791 0.100369975 -0.007644973 0.10042132 -0.048509862 -0.05594743 -0.088695265 -0.091112114 0.06649378 -0.094602264 0.07237478 0.040901244 0.09700756 0.091678575 0.022246493 0.05934628 -0.11096863 -0.097445 -0.089583844 0.07053555 -0.058718916 -0.063942604 -0.058292184 0.02643711 -0.09754644 0.013532957 0.106514126 0.02615 0.062168207 0.027368585 0.047930267 0.022317812 -0.08505087 -0.040732652 -0.012590859 0.03088629 0.077306546 0.008492856 -0.027715342 0.09986616 -0.08071591 0.08391966 0.0022617215 -0.046418652 0.013321754 0.07311419 -0.015850052 0.06249236 -0.0870121 0.10729765 0.020768996 -0.0040289443 -0.004349855 0.044633158 0.05460288 -0.12096852 -0.030129602 0.10790356 0.09770085 0.03344281 -0.1078269 0.037985533 -0.0035957918 -0.073059805 -0.07561157 -0.07273791 -0.04257352 -0.11105631 -0.094159156 0.11083717 0.062560685 0.061031986 -0.04464541 -0.08277812 -0.040990278 -0.103382505 -0.11313284 0.09749601 0.017805157 -0.08644354 -0.11465764 0.051478934 -0.051300645 0.026545053 -0.08644653 0.0645424 0.10735318 0.08476181 0.058909364 -0.007485837 0.07626872 0.06848328 0.028978294 -0.09052419 0.09245687 0.10796472 -0.106649116 -0.026231216 -0.07196057 -0.1068682 0.06923879 0.043589804
کرد -0.04988399 -0.075989395 0.06355042 -0.09544805 -0.059553042 0.07962615 -0.021631338 -0.07537017 -0.08399057 0.06347326 0.06419511 -0.019689314 0.087230496 0.031035397 0.0868811 0.02064941 -0.022110993 -0.11580108 0.0638451 0.034868978 -0.10482469 -0.07538874 -0.09075993 0.03748794 -0.030397667 0.00057674537 0.0041764644 0.029683849 0.017062454 0.03738592 -0.050047603 -0.02218959 -0.011316131 -0.08016056 0.041614186 0.016626397 -0.09348804 -0.10334066 0.098875046 0.054792564 0.10235092 0.06678352 -0.11019686 -0.0072556282 0.024196794 0.052589465 0.062339574 -0.080060385 0.011674453 0.108773835 0.053875227 0.07022112 0.075952485 0.06659848 0.11129373 0.013113478 -0.05690492 0.12438612 -0.08072971 0.12937853 0.09973995 -0.06700408 -0.020844929 -0.07088428 -0.09898239 -0.026822438 0.031581104 0.03647991 0.056363974 -0.055642847 -0.016059218 0.026673503 0.059189916 -0.05876562 -0.09526731 -0.010441509 0.06105179 0.010955401 -0.0601437 0.10703627 0.10327207 0.11298807 0.044090465 -0.04262571 0.107557245 0.0014847224 -0.011777962 0.097830474 -0.046647634 -0.07876781 -0.097397126 0.08392504 -0.017515471 -0.03153427 0.12258343 -0.0354907 0.01183565 -0.005350747 0.029036537 -0.08727658 -0.09427903 0.11550281 -0.041169822 -0.07327655 0.09575048 -0.049237553 0.010705384 -0.0016636216 -0.099707775 0.095031746 0.105380856 0.102514245 -0.075252794 0.1019212 0.03806515 -0.08046986 0.0024681573 0.034962676 -0.072191335 -0.09822479 0.053608026 -0.06819498 -0.06821366 -0.010517598 0.09903872 -0.024424188 0.04825185 -0.07737795 0.10064977 -0.0851593 -0.042430878 0.0059901816 -0.056780905 0.026531309 -0.0084355185 -0.04198183 -0.045486994 0.06804582 -0.114043675 -0.012184081 -0.029252402 0.022908667 -0.038200937 -0.05710398 -0.09719913 -0.09663698 -0.001905607 0.12346793 0.09748833 -0.11237075 -0.072949745 -0.107150115 -0.091283664 -0.085209616 -0.031707346 0.084579594 -0.030341174 -0.06864065 0.037673473 0.092070244 0.049065586 0.11531283 0.080760375 -0.09567288 -0.06609454 0.1062368 -0.08330883 0.09670377 0.009552053 0.02523272 0.050333038 0.074806616 -0.029114835 -0.010514905 0.10466727 0.07186034 -0.07018021 0.1131121 -0.12106827 -0.013676844 0.092229694 -0.062086333 -0.08450414 0.0829212 -0.053658064 -0.053307924 0.0068249283 -0.07946078 0.04645242 -0.07633917 0.101911925 0.02971758 -0.094773345 0.018048376 -0.0724126 0.11277291 -0.087307006 -0.05537958 -0.057550963 0.032051187
تا 0.037554953 0.083220735 -0.06338682 -0.062175687 0.0384579 -0.10276404 -0.0773531 0.045421585 -0.07684756 -0.045105983 0.0713851 -0.035024285 0.045248527 -0.10309941 -0.069504544 -0.009846242 0.0020287773 -0.09220904 -0.019022198 -0.002076853 -0.034658004 0.03858364 -0.124869466 -0.103355825 0.10364261 -0.07607843 -0.03943625 0.055783447 0.11560625 0.110810876 0.10530763 -0.052268837 -0.09779931 0.009568033 -0.078235134 0.040858317 -0.09115227 0.10062227 -0.034061946 -0.10670825 0.09113926 -0.081429355 0.040091813 0.11041196 -0.006506 -0.10836111 0.040221974 -0.019513907 0.050749905 0.076656595 0.039600927 0.073132545 -0.0459937 0.0045944313 -0.09007506 -0.09464039 -0.040220838 0.009836061 -0.063974604 0.07074628 0.071889795 -0.03726654 0.05414479 0.079416424 0.07197404 0.07070599 0.097175136 0.100058116 -0.1163606 -0.091023125 0.08379057 -0.10695824 -0.0896462 0.055460047 0.11156137 -0.058772895 0.05410154 -0.038990743 -0.02663211 0.056222375 -0.064498305 -0.011159096 0.0667069 -0.029089306 0.0714107 0.090915985 0.11423486 -0.101802595 0.023758996 -0.074795045 -0.02363814 0.001080903 0.07885339 0.10419383 0.12101897 0.009788739 0.1034502 0.10890864 0.06092455 -0.09404215 0.05376716 -0.08344243 -0.024510633 -0.10966706 0.06876784 -0.01024135 -0.123856656 -0.01604964 -0.06641873 -0.08425871 -0.02674623 -0.0067265076 -0.10452003 -0.03601062 -0.06933334 -0.09053419 0.013886785 0.04486208 -0.036065295 0.02116761 0.06667951 0.07884097 -0.079665765 0.054778766 -0.0547183 -0.053707637 -0.015755726 -0.03587293 0.06374173 -0.028437546 -0.04931627 -0.097595796 -0.026369475 -0.05537113 -0.09834391 0.07346406 -0.046843544 -0.01217557 0.09303424 -0.1003697 -0.05612201 0.11194647 -0.09130298 0.02641424 0.023333741 0.012905766 0.114204705 -0.09896302 0.059014603 -0.08843772 0.115099035 0.09812892 0.004121565 0.10049003 0.07393053 -0.014217544 0.12114455 0.08561047 -0.0071470668 -0.0683455 0.06280372 0.12639038 -0.01637523 -0.065711334 -0.09522088 0.054694664 -0.024201155 -0.09412331 0.012309204 -0.0025938922 -0.015844231 -0.03509959 0.08268983 -0.044853438 0.04000532 -0.0223764 0.06178284 0.078692935 0.10693118 0.06656809 0.08414457 0.04636183 0.025634628 -0.071481645 0.061867192 0.081656665 -0.047368594 -0.046094608 -0.1107774 -0.08704221 0.047472507 0.010466731 0.095280476 -0.084146164 0.057513583 0.038925037 0.055767752 -0.027889451 0.030802881 0.009948984
بايد -0.088919654 0.12088676 -0.05026097 0.070910476 0.07437642 0.05618204 -0.06020066 0.046902876 0.09857689 0.02540137 -0.055687606 -0.09504177 0.12501809 -0.035694975 0.061569855 0.094614774 0.095013134 0.006253853 -0.0075993626 0.06200372 -0.015807487 -0.04615229 0.09905696 0.063626215 0.0590611 0.09390071 -0.002602159 -0.070395835 0.09471907 0.02236567 -0.021567106 0.079077154 -0.095201135 -0.016899511 -0.031225007 0.02617397 0.062460694 -0.028794594 0.056522742 0.04165441 0.01776045 -0.0038997245 0.099445365 -0.10157893 0.054779686 -0.010348526 -0.114418276 -0.058277737 -0.00852886 -0.082542025 0.07164337 -0.0056163794 -0.07208154 -0.069610655 -0.0038809143 -0.114966005 0.058827184 0.017950617 -0.03067653 0.118264444 -0.08719357 0.09290937 -0.12702826 -0.016239185 -0.045823544 0.097725414 0.07915489 0.08944204 -0.02453171 0.012207068 0.087447196 0.09242753 0.12263249 -0.06369783 0.07088587 0.071771264 -0.023105243 0.10743793 -0.0963986 -0.057313997 -0.040725056 -0.12117921 0.0024150482 -0.07679184 0.1069913 -0.06919233 -0.105868995 0.0039027354 0.12536415 -0.009999109 0.080126226 -0.040238373 -0.008906466 0.015413281 -0.08465579 -0.026863014 -0.03441625 0.07250775 0.04114872 -0.0075422227 0.0055731977 -0.097311825 0.0384771 0.05268367 -0.06304428 -0.10986635 -0.053506207 0.0076297238 -0.03825955 0.002923968 -0.06716003 0.05078247 0.06602795 -0.104010895 0.04153014 0.03445875 -0.053297475 0.0057400023 -0.0127897 0.109897666 -0.03170744 0.025157887 0.11665737 -0.09565414 0.03125454 0.020850677 0.09831234 -0.013446611 -0.0955003 -0.09982306 -0.02628714 -0.11438438 -0.088840924 0.00942304 -0.026088158 0.019259766 -0.12548667 -0.016693763 0.014545212 -0.06328943 0.07770488 0.03194362 0.08085643 0.08069223 -0.04663596 -0.04020197 0.034555756 -0.069713384 0.023221409 -0.087150164 0.03997469 -0.035718065 -0.10762124 -0.008844495 0.05822008 -0.04566508 0.11138329 -0.09191344 0.05325921 -0.109218016 -0.08858752 0.09826068 0.09469273 -0.12843233 -0.013351475 -0.014691144 0.047242995 -0.04078085 0.028087804 -0.09217229 -0.113423206 0.110111296 0.119267754 -0.06375881 0.08442865 -0.058890756 0.106703036 0.09315947 0.11764207 0.099605754 -0.05856056 -0.0026135554 0.05254178 0.09041251 -0.095267154 0.07325357 -0.11094245 0.02253943 0.005780497 -0.11103843 -0.04782564 0.035572533 -0.023479324 0.05126445 -0.097460486 0.0282774 -0.00301615 0.05139568 0.0008396314 0.11172723
جام -0.051036466 -0.009983045 -0.059836056 -0.101629876 0.025291683 -0.09349385 0.026955951 -0.00397282 -0.07257906 -0.0931021 0.11551003 -0.019997487 0.10009545 -0.051765732 0.12404667 0.03846904 0.04625097 0.01818766 -0.03837082 0.11029342 -0.028752647 0.0959924 -0.013006397 0.039575256 -0.08468673 -0.034604076 -0.112537906 0.05962243 0.027053664 0.0723205 -0.10088321 -0.048987046 0.028328894 0.0066149426 0.037642207 0.05141619 -0.09559385 -0.12693945 0.03567803 0.053048357 0.059366852 0.06211024 0.018984659 -0.10451381 -0.06414369 0.030881472 0.013671945 -0.039867155 0.09307346 0.10218107 0.06265944 0.02783678 -0.0026585865 -0.06143187 0.069102116 -0.11830927 0.13017416 0.049687788 -0.043069374 0.062418412 0.040742163 -0.08809098 -0.068152815 0.09653845 0.030911427 -0.08977495 0.017998716 -0.050183926 -0.050801575 -0.07850179 0.1100662 0.038471784 0.09815585 -0.07273048 -0.006000107 0.10312897 0.0064391373 -0.059305895 0.040502675 0.096878864 0.05854173 0.005761973 0.06560319 0.011221851 -0.05561689 -0.060835954 0.07316876 0.05647651 0.103612065 0.1043525 0.08945621 -0.041017406 -0.055701185 0.123176925 0.017488938 -0.094069794 0.13219373 0.00073238136 -0.10688557 -0.09675725 0.12842081 0.010330401 -0.035675686 0.08564549 -0.12969966 -0.119769685 0.059416387 0.024331259 -0.019628178 0.0075027063 0.06615475 -0.09394381 0.08165017 -0.094487384 0.04306681 0.008614437 -0.018497324 -0.03195167 -0.087330714 -0.072140776 -0.00854024 0.038689304 -0.081927314 0.026559273 0.034360193 -0.00698927 -0.045081824 0.022897974 -0.009163735 -0.1184106 -0.1258117 0.10434042 -0.118618816 0.04799574 -0.051194437 0.009924623 -0.083373524 0.061371002 -0.011740527 -0.048605736 0.076182574 0.024674045 -0.015360336 -0.040605485 -0.081663266 0.037085872 0.11847878 0.041978702 -0.054535687 0.039270543 -0.0065849996 -0.104219586 0.0053677894 -0.06651951 -0.095167354 0.01027017 0.12998179 -0.0711927 0.098367915 0.11141368 0.03994798 -0.049537838 -0.042387713 0.00027757115 -0.026165271 0.023079157 -0.026490308 -0.016038168 0.026299711 0.03965654 -0.043013092 -0.10061445 -0.009350455 0.10306759 0.059496246 -0.0919714 0.012724547 0.08107236 0.10266914 0.023904936 -0.08567896 -0.047271978 0.09095302 -0.09008007 0.08805903 -0.017672148 -0.12074109 0.10000034 0.045803342 0.1076842 -0.080773346 0.086272806 0.07940842 -0.0073970165 -0.071449526 -0.065737404 -0.10662935 -0.070031285 -0.11745711 -0.06166544
بي -0.0852998 0.08635432 -0.10039854 0.08356314 -0.04966018 0.07747892 -0.057780664 0.0041518523 -0.07933568 -0.045144424 -0.019439373 -0.03566553 -0.03021111 0.09645689 -0.09495659 0.09224982 0.013022664 0.01810257 0.041172482 -0.060339343 -0.082153395 0.06783078 -0.100677975 -0.1214151 0.05927127 0.0024613796 -0.022794472 -0.108217105 -0.00067701784 0.0009412698 -0.11972075 0.102076694 0.0832104 -0.119916536 0.09872318 0.042546578 -0.08642188 -0.10695869 -0.03178103 0.061355084 -0.029449595 -0.0036949567 0.077814505 0.008015031 0.06853699 0.08515986 0.0814498 0.0861551 -0.053380717 0.04586555 0.014866424 0.052636407 0.09910827 0.08987119 0.076195434 -0.066198796 -0.036576085 0.0019413028 -0.07140966 0.10550382 -0.035601247 -0.030995369 0.05930617 0.07708082 -0.042772368 0.053580288 -0.00406921 -0.009638711 -0.052477144 -0.050960656 0.012552157 -0.10139746 -0.009953561 -0.09713909 -0.088318996 0.10621879 0.08898353 0.020486275 0.021122774 0.082615495 0.035851713 -0.051103525 -0.089692436 0.031057388 -0.054933865 -0.013288586 0.009015894 0.069281735 -0.116322204 0.124030106 0.08292173 -0.015382119 -0.050673485 -0.12097845 0.064306386 0.031907115 -0.063797526 -0.100476734 0.099451594 -0.008781548 0.062055204 -0.11641166 -0.022394942 -0.077251025 -0.083140165 -0.08507699 0.05229758 0.13359031 0.035934765 0.01961469 -0.049712397 0.054680638 0.13892283 0.06601934 0.1263197 -0.11730028 -0.0029628596 0.04980172 -0.043171532 -0.08292392 -0.06891262 -0.036351 -0.01551958 -0.06886698 0.094639905 -0.06126313 0.10673025 0.0131875975 0.05544529 -0.06410558 0.09704985 -0.044250928 -0.0464877 0.0025245855 -0.0013339397 -0.09798051 0.06634279 -0.121288024 0.07239117 -0.105208606 -0.04015757 0.093650535 0.09899072 0.027357506 -0.016022004 -0.09717821 -0.08585946 -0.03597503 -0.11033975 -0.0592241 -0.0103155095 0.0012438588 -0.10316215 -0.039011817 -0.013719899 0.100730054 0.06516511 -0.043689467 0.1134282 0.12481775 -0.078722514 0.031773146 0.09793724 0.031300433 0.054248795 -0.022477426 0.098334156 -0.033086125 0.047430024 -0.020864487 0.06564924 0.02784424 -0.11783693 -0.06880544 0.025055232 -0.10357895 0.10678481 0.12495748 0.046150867 -0.030966468 0.075053886 0.020436633 -0.04357234 -0.011053079 0.11097423 -0.03442074 0.009762334 -0.0054564024 0.04079503 0.113122776 0.009464144 0.079857096 0.02605932 -0.017049108 -0.04810897 -0.0034892703 0.017570047 0.12194703 0.041011468 -0.08176009
هرگز 0.08557671 -0.064538755 -0.048942428 -0.065174334 -0.053063117 -0.08151211 -0.025977714 -0.12495992 0.11343684 -0.041665822 -0.120188564 -0.11501921 0.043683097 -0.02738113 0.016720353 -0.04747782 0.103725776 0.043404847 -0.017025985 0.09418737 0.043277446 -0.1030596 0.07739717 0.030915422 0.08229628 0.049760018 -0.05101455 -0.05662111 -0.034274913 0.011675797 0.095807925 0.07154219 -0.0916412 0.06980886 0.018731056 -0.055690166 0.05005876 -0.09145213 -0.041088473 0.027605886 -0.014839597 -0.07504566 0.039472766 -0.060841266 -0.060362946 0.10353917 0.08045743 -0.03543179 -0.12117288 -0.10885919 0.056165688 -0.014880372 -0.11504957 -0.045281604 -0.051000386 -0.12622324 0.10994057 0.09759998 0.09747634 -0.07827387 -0.06937183 -0.005364744 -0.020844456 0.0024282746 -0.053362753 0.0826825 0.06312543 0.09541529 -0.045539588 -0.12393851 0.040564254 -0.0011992108 -0.0017204742 -0.059440017 -0.06163348 0.11576797 -0.0008282535 -0.022022028 -0.1134087 0.028734963 -0.081032895 -0.02789194 -0.044002615 -0.0011825246 0.0063235145 -0.004825327 0.010895632 -0.06940513 -0.025452139 0.020427896 0.050187778 0.107178986 0.007960456 0.031544235 0.018701695 0.0021163742 -0.05327825 0.0430454 -0.0737743 0.10632217 -0.038665947 -0.00061967067 -0.037238326 -0.07884526 0.06953677 0.040505294 0.05178928 0.028638735 -0.118387684 0.098947845 0.044030074 0.09039928 -0.06406963 -0.013611685 -0.11124016 -0.11028326 0.09161594 0.0067648385 0.07459116 0.107058465 0.095893204 0.0154375555 0.03468755 0.053382907 0.06177344 0.092065044 0.068008915 0.013571045 -0.004584052 0.06732749 0.086839624 -0.0008903153 0.07771594 0.102029495 0.12425644 0.019503755 0.094387986 -0.008001478 0.06480534 -0.008778232 0.006154857 0.018954083 -0.067984104 0.052558236 0.061760925 -0.0030901807 0.04851134 0.039084136 0.1150919 0.11960859 0.0693024 -0.12045302 0.036586147 -0.004051209 -0.04274629 0.03809755 0.019259999 0.030538946 0.12402067 -0.07466308 -0.09657116 0.015681595 0.064233474 0.10086589 0.09643807 -0.09019548 -0.087408416 -0.031107944 -0.059694603 -0.008266316 0.11044594 0.04207061 -0.10429972 -0.12011263 0.083784685 -0.020087915 0.07319117 -0.074491434 0.083695546 -0.10697253 0.024233976 -0.099969484 -0.10670369 -0.022262635 0.0035810336 -0.013557367 -0.0067705065 -0.09515908 0.045442116 0.10703806 0.073295616 -0.025295554 0.026604537 -0.09279912 -0.08376427 -0.12366336 0.08888599 0.09161498 -0.12660114 0.09324456
تيم -0.10106666 0.10881553 0.112144485 -0.067510225 0.002407926 -0.017671676 -0.029883415 -0.015738416 -0.10616408 -0.09453249 0.046361353 0.08080839 0.017030796 0.046207264 0.024759244 0.053262204 0.06793516 0.033806145 0.058104675 -0.06526613 -0.043123845 0.058490742 -0.09543046 -0.009226925 0.031611856 0.08563533 0.0030372806 -0.014853999 -0.012656489 -0.10720201 0.04600179 -0.11448939 -0.033162862 0.123575896 -0.10778104 -0.10682967 0.022988588 -0.0019380348 0.10852692 -0.097163334 -0.06478388 0.09803086 0.028992567 -0.02639134 0.052279886 0.04626706 -0.09793372 -0.10830978 -0.056470074 0.01587217 -0.07555294 -0.09566662 0.08824498 -0.0077069276 0.05640566 0.11226374 0.012128648 0.058593802 0.029356841 -0.07000766 0.049300045 -0.095240116 0.043104816 -0.06871869 0.03405039 0.1159888 0.04678672 0.11196838 -0.10866875 0.00027617803 -0.018427052 0.030235518 -0.119783685 0.059207328 0.036352783 0.11080011 0.034159992 0.07950178 0.0307078 0.049473606 0.00923807 0.022137037 0.005659476 0.07096452 -0.08938382 -0.021021133 0.069853626 -0.05006751 -0.004954346 -0.034323145 -0.06392508 0.08161802 -0.0032167325 0.09197788 -0.013256099 -0.034820218 -0.022150123 -0.052644674 -0.05922268 -0.049477812 -0.0033038133 0.059395168 0.033581857 0.049501404 0.087509885 0.036374472 0.046502095 -0.016875466 0.03479551 -0.056947403 -0.11429414 0.11394681 -0.060366273 0.014720273 -0.019140517 0.081091106 -0.06943839 -0.07928837 -0.04584759 0.06834031 -0.05365325 0.11692331 0.07771201 0.087144084 0.11788312 0.112540655 0.04853746 -0.094095245 0.011405695 -0.014248284 -0.116998136 0.09930919 0.048383653 0.058308892 0.099322185 -0.05167397 -0.05507993 -0.048234683 0.018400533 -0.03186026 -0.08868853 0.057933144 0.0013436277 -0.103642 0.112747796 0.020631585 0.08540567 0.116074294 0.10606229 0.06149741 0.098943666 -0.043467935 0.051780395 -0.011034563 -0.12268891 -0.06121738 -0.07098483 -0.041536067 -0.09652079 -0.11319517 0.11267962 -0.07794829 -0.07712736 0.06795629 -0.10326267 0.038631834 0.01955648 -0.050866056 0.07254913 0.09292475 -0.11070508 0.038425136 -0.012074868 0.1155916 0.06483257 0.09755485 0.08181037 -0.042834688 -0.010404838 -0.04282584 0.10364841 -0.1067502 -0.08970832 0.07061168 0.030571427 -0.054215934 -0.022762341 0.030329797 -0.112787664 -0.06862454 0.009347601 0.089654066 -0.04480586 -0.08249803 -0.12015702 -0.031931605 0.026021311 -0.07624074 0.09895566 0.08942209
امشب 0.064350724 0.074237086 -0.057555526 -0.06195103 -0.11944296 0.09547782 -0.063630834 -0.074483275 0.06347659 -0.041338574 0.012810943 0.003070571 -0.050569903 0.008294239 -0.01871061 -0.03118905 -0.03602319 0.11758886 -0.04462719 -0.065406896 0.08550418 0.065948345 -0.078780085 -0.0970077 -0.088878684 -0.10484649 0.027975753 -0.12598841 -0.08596053 0.03228309 -0.1078922 0.09151597 0.076653436 -0.048980962 -0.09680375 -0.087943584 -0.04973067 0.09019266 -0.041348685 -0.07948859 -0.00803074 0.07627556 -0.007910775 0.05930902 0.09045802 -0.08612968 -0.106387965 0.11028225 -0.0022137784 -0.08055547 -0.013086504 -0.06890761 0.099889606 -0.10989878 0.056636244 0.0632329 0.033488456 0.07298226 -0.047880646 0.12543032 0.091586895 -0.09529633 0.0058381385 0.04745531 0.04783243 -0.018368244 -0.051501263 0.079867914 0.09650938 0.11269642 -0.043298703 -0.0039712535 0.115947284 -0.10720552 -0.098641045 -0.018296761 0.07339125 0.036841057 -0.0031775923 -0.062272217 0.052342027 -0.096685834 0.06317552 0.06077097 0.09488469 -0.06830485 0.03883428 0.013948803 -0.104837626 0.053163838 0.044915456 0.04931501 -0.097101286 0.08116503 -0.015300634 -0.00064160035 -0.094121374 -0.06776853 0.0885236 0.030539649 -0.016369838 0.073643394 0.12054788 -0.073726885 0.008294617 -0.115954965 0.05398963 0.106240936 -0.04471355 -0.1192912 0.06939077 -0.1124502 0.055913586 0.06747994 0.020872695 0.054571006 -0.033845324 0.022082726 -0.024316343 -0.048587315 -0.028412286 -0.010589969 -0.017448695 -0.09137522 -0.1161326 0.0827513 0.062408634 0.088298954 0.11118283 -0.05862394 0.055805378 0.04573878 -0.06895106 0.013187468 0.0055727283 -0.09454074 -0.0644565 0.036121543 0.04459472 0.0026933951 0.011600144 -0.03667943 -0.04584964 0.008860406 0.07363136 0.02508939 -0.015873495 0.102952935 -0.048198536 -0.051465776 0.09224362 0.081391655 -0.043008056 -0.08828824 -0.054635953 -0.10424831 0.07278645 -0.0813144 0.066667385 0.121511586 0.043390952 -0.032847103 -0.11219443 -0.07548623 -0.07383288 -0.007400966 -0.121416055 0.08009394 -0.08844702 -0.078359894 -0.0396659 -0.100660264 0.08263946 -0.0005273771 0.016360885 -0.024598554 0.11479545 0.02415598 0.11435525 0.003545708 0.021411583 -0.025450937 0.090025544 -0.015908077 0.115126126 0.060156804 0.083530955 -0.06349646 0.015509488 0.082920834 0.04511735 0.11679156 -0.01824569 -0.05981465 -0.035333693 0.09530462 0.046859127 0.013682673 0.053500973 -0.08605922
بزرگ 0.065641016 0.036103733 0.01292418 0.056278788 0.001671933 -0.009780723 -0.0963457 -0.021355195 -0.11990828 -0.11402372 0.031050267 0.10236335 0.10686319 -0.04131321 0.09467795 -0.058278944 0.05804406 -0.09669031 -0.027178993 -0.10145431 -0.037373587 0.07103843 0.06592207 0.04291615 -0.0839021 0.05001674 -0.07827811 0.10910206 -0.11639644 0.080394715 -0.07039926 -0.10606817 0.0956949 -0.10284261 -0.11384156 -0.07861975 0.047749136 0.1165684 0.07877934 0.0038817923 -0.09817735 -0.10571445 0.07415035 -0.055035222 -0.018593134 0.014526106 -0.024079578 0.0061099348 -0.0975296 0.028882105 0.092497624 -0.026050327 0.10699435 0.045712132 0.069152 -0.09115064 0.069062814 -0.042524397 0.038763627 0.014122745 -0.061271925 -0.026321013 -0.10546963 0.10893276 -0.009454679 0.057679005 -0.067693494 0.06064489 0.078385554 0.04189336 0.015898002 -0.052623644 -0.069564484 0.024615752 0.109919675 0.09198658 0.010065266 -0.0052257488 0.070273414 -0.0011999182 -0.041373305 -0.007689939 -0.05545234 -0.011196934 -0.089265674 0.08271924 0.04930999 0.12449263 0.11699605 -0.11288405 0.10424043 -0.012311663 0.030753728 0.01910846 0.09427704 -0.026550787 -0.040609065 -0.09545543 -0.029701864 0.10379168 0.0960837 -0.055406436 0.013682027 -0.09059257 0.07381655 0.029715909 0.06502192 0.029109934 -0.02970713 -0.061724856 0.04811574 0.0035737639 0.029540678 -0.07035796 0.003064664 -0.03613107 -0.003921271 -0.09013653 -0.05160527 0.046062913 0.111860745 -0.094818115 0.08134251 0.11107419 0.015516304 -0.017003478 0.014955749 0.08418796 0.08816959 0.009893486 -0.022410057 0.11230206 0.009779423 -0.010444186 0.08058519 -0.041908555 -0.00094192434 0.022884477 -0.05372145 -0.029038172 0.06885679 -0.08439886 0.0066155912 0.022481661 0.087399885 0.096204564 0.09011323 -0.00125866 -0.0075768977 0.042123195 -0.030423945 -0.06600585 0.0817839 -0.123479344 -0.10448433 -0.008150397 -0.073558554 -0.10208567 0.09344839 0.11801002 -0.08411506 0.04394665 0.055775758 0.10825008 0.09209838 -0.1037681 -0.11563712 -0.005822604 -0.073191784 0.09198153 0.06403064 0.06760788 0.085449666 0.06723627 -0.03771455 0.040622495 -0.09316669 0.028648846 0.05958907 0.090649925 0.047125585 -0.043358803 -0.10638545 0.04231931 -0.08639909 -0.038078494 -0.0942106 0.09510585 0.050437603 -0.048494384 -0.022033645 -0.02425374 0.070241176 -0.10015278 -0.005800634 -0.12231951 0.09619568 -0.082835354 -0.112465926 0.013422265
فرصت 0.1053692 0.046597216 -0.0292199 -0.08810355 -0.090199254 0.11080766 -0.024287596 0.06766058 0.009112009 -0.0705047 -0.106248125 -0.11758539 0.015454582 -0.101825505 0.08621128 0.08854627 0.026310759 0.07191935 -0.113542475 0.09928976 -0.074892096 -0.023666741 -0.049570117 0.1091333 0.055396125 -0.09910149 0.084339835 0.08048491 0.10798325 -0.077316806 0.016892577 -0.11078189 0.08851582 0.11902413 0.11212389 0.109223485 0.111210845 -0.046124663 -0.07851304 -0.013456724 -0.07141193 -0.015355702 0.032993227 -0.015048489 -0.08895312 0.024556868 0.044754706 0.07985861 -0.02547747 0.0032092368 -0.08620655 -0.08756022 -0.070833534 -0.080955744 0.10165409 0.049871724 -0.05449933 -0.060550153 -0.085459426 0.05061729 0.1015274 0.023215845 -0.019655373 -0.0995043 -0.024054214 -0.044855453 -0.047715075 0.08864661 0.016296335 -0.019947607 0.058625113 -0.035212304 0.020690056 -0.014187511 -0.08253069 -0.11090628 -0.0035876334 0.07374655 0.07461512 0.11601226 -0.07327762 0.07355558 -0.012978599 0.08666082 -0.119323224 0.11900853 0.032026015 -0.029330334 0.1146964 0.026624963 0.018224603 -0.043521322 -0.061408557 0.059728853 -0.08326719 0.090132155 -0.09999333 0.06854281 0.005288571 -0.049206294 0.008759623 0.105651125 -0.09553282 0.0510643 0.081984974 -0.019065162 -0.015566979 0.0017932052 0.02685301 -0.097012885 -0.017685317 0.037441652 -0.043821342 0.08523851 -0.07905328 0.08607489 0.023337329 0.1049959 -0.006741581 0.09733816 -0.0467444 -0.10261664 -0.01707739 0.04575312 -0.021640303 0.08940981 -0.114453115 0.07835889 -0.06544888 -0.083890654 -0.049338374 0.1159602 0.076384105 -0.0957982 -0.051010128 0.015448068 0.0767177 -0.02709762 0.030480666 -0.056454357 -0.098467596 0.058830973 0.10078486 0.016438616 -0.019664336 -0.085552976 -0.105218425 0.057022195 -0.0926872 0.057018694 -0.09221868 -0.0636715 0.08392397 0.06771631 -0.01674711 -0.08661727 -0.049475767 0.066054136 0.085351445 0.08865145 -0.09833063 0.09436824 -0.008046864 0.016881602 0.11299356 0.054332852 0.030401835 -0.042966902 0.06947486 -0.09766792 -0.06798399 -0.10714742 0.08402309 -0.015880903 0.076711245 -0.09313004 0.03259421 -0.03529346 0.052686106 0.090922736 0.0488393 -0.0027731021 -0.013605334 -0.019456446 -0.046232436 -0.090398714 -0.0035811565 0.08458732 -0.026443867 0.06924558 0.032146543 0.08282008 -0.0220521 -0.11220492 0.0063767377 -0.018342864 0.037213877 -0.05807188 -0.05887564 -0.025576688
همين -0.0029248649 0.06561328 0.049820825 -0.031640813 -0.045301948 0.055041224 0.072483204 -0.069635056 0.07885246 0.119503506 -0.07728309 -0.018599335 -0.039595116 0.045822904 0.042949468 0.06254418 0.088856995 0.119763345 -0.11878446 -0.04196095 0.060768902 0.08942085 0.05307069 0.052554008 -0.047306016 0.055402413 0.082622685 0.02476202 0.0761277 0.049108397 -0.022522127 -0.04275565 0.06978766 0.1014366 -0.109695144 0.07971302 -0.0201956 0.03962484 -0.0433322 0.004855556 0.00934431 0.08108422 0.08196936 -0.064682744 0.005978398 -0.086119145 0.06653542 0.050841622 0.016144376 0.03497405 0.049736124 -0.0010669107 -0.0980859 -0.10382504 -0.061765473 -0.12004219 -0.053063225 -0.026204174 0.1138975 0.0560287 0.039070778 -0.07637919 -0.05168564 0.036799546 0.080315426 0.09736581 -0.02404087 0.04606417 -0.096347764 0.09868528 0.07550845 0.12379058 -0.035615597 0.04850657 0.043534648 0.041380208 0.018819695 0.029855633 -0.03687579 -0.040549956 -0.07449395 0.049581263 0.087943345 -0.074775785 -0.054309107 0.110327356 -0.112185776 0.10921882 0.07908329 0.10838313 0.050205465 -0.05626284 0.09416311 0.032645453 -0.11421782 -0.07561979 -0.099677816 -0.08788726 0.11043043 0.07203021 0.014525743 -0.10274979 0.04720862 0.007132837 -0.044563938 0.086958624 0.11331445 -0.049010776 -0.10864122 0.026791124 -0.07530257 0.11433933 -0.019194981 0.022080535 0.035358164 -0.09230894 0.08790496 -0.10306587 -0.03992989 -0.11289025 -0.0579601 -0.023754992 -0.093275666 -0.1019657 -0.0052141813 0.05113454 0.039480522 -0.04104129 0.022227786 0.086885676 0.04956234 -0.069998994 0.09298332 0.07309555 -0.027275905 -0.08951976 0.046538334 -0.11439667 -0.063810505 -0.09954188 0.002594188 0.016722843 -0.038286213 0.07838564 0.023428356 0.061286077 0.10468501 0.060089126 0.101052135 -0.07344661 0.086580686 -0.024617057 0.023401802 -0.046093017 -0.049471695 -0.06731033 0.047287602 -0.12130437 0.017935291 0.008728015 0.061619237 0.048076715 0.0918086 -0.10078768 -0.084050305 0.016249795 0.11132462 -0.07971975 0.09094147 -0.056737326 0.029766928 -0.07143497 0.110974565 0.07735636 -0.014880981 -0.11233936 0.037522912 -0.013383723 -0.029860009 0.05368396 0.026312709 -0.11998899 0.098159514 0.021403288 0.11131984 -0.11404757 0.04547617 0.08019926 -0.052675318 0.044600073 0.09362242 0.009121354 0.06549176 0.08875122 -0.0074874707 -0.01876842 0.005600542 -0.08914294 0.10536782 0.07236711
