220 200
در 0.0737792 -0.043526657 0.08599313 -0.09875331 0.017686857 -0.06267834 -0.07851234 -0.014739644 0.06688766 0.041269545 0.062644675 -0.06297865 0.11915725 0.11920927 -0.012413402 0.028945765 0.0371424 0.06916324 -0.020638335 0.05587177 -0.06432645 -0.008507564 -0.06465101 -0.04355734 -0.0833878 -0.01696919 0.06082983 0.04868885 0.010352789 0.093687125 -0.06146407 0.01653015 0.04276279 -0.0075460514 -0.099047236 -0.04926372 -0.06311177 -0.045309715 0.12549964 -0.051060744 0.0074812924 -0.011473169 0.09289772 0.123409696 -0.077988796 0.037176 0.049733054 0.08184631 -0.01612451 0.06891315 -0.037800707 0.024686579 -0.07243881 -0.07496952 -0.031219842 0.024852436 -0.024459986 0.054711357 0.012223875 -0.07092886 -0.0669621 0.040565383 -0.0014402115 -0.020670688 -0.083153315 0.03232913 -0.0779945 0.054851957 0.008553471 -0.082454786 -0.035897713 0.091568395 -0.016287431 -0.04140132 -0.1184924 0.023566546 0.118970186 -0.044992317 -0.10719516 -0.021292295 -0.067893006 0.09478509 0.032552406 -0.05451914 -0.08015478 0.002365965 -0.10941895 0.014933134 -0.12331917 0.02203515 -0.055303123 0.08934988 -0.0034034431 -0.038263705 0.13016354 0.0033938456 0.030801876 -0.102451265 0.11117045 -0.12013452 0.056392793 0.10946235 0.116380386 0.02167584 -0.10239671 0.065996304 -0.09220735 0.051606104 -0.06967144 0.0003432935 0.050470248 -0.061095487 0.10264303 0.012639644 0.07467939 0.030538095 0.09454784 -0.0045413245 -0.04364924 -0.09751778 0.08343383 0.06854273 -0.10977136 -0.059496704 0.061131906 -0.088561274 -0.09738053 -0.054688625 0.094713874 0.032528296 0.04792518 0.008111561 0.099158555 -0.11675431 0.039016597 0.021390267 0.0925938 0.08158429 -0.053063296 -0.110191174 0.07000743 -0.12531118 0.06944427 -0.13156907 -0.0713104 0.038906086 0.049402945 0.1287469 0.10727038 0.10930587 -0.12792857 0.013746187 -0.054128632 -0.08645789 0.0877001 0.1058938 0.043284774 0.04677318 0.026519801 -0.012504313 0.02344668 -0.072172 -0.051674448 -0.05155575 -0.015636394 0.09738548 0.06856009 0.09350752 0.0350211 -0.047470756 0.023677438 0.111007944 0.14166214 -0.10684993 -0.064694636 0.044118397 -0.09267193 -0.047607552 -0.12686436 0.044646718 0.088474385 -0.055754356 -0.11652242 0.06234999 0.011079856 0.005776114 -0.05025548 0.02666538 -0.043691203 0.010526311 0.0102530755 0.07106729 0.0023055088 -0.1136583 0.079934664 0.0127062155 0.037794832 -0.09849302 -0.09647424 -0.036262006
از -0.03717249 -0.0388114 0.043172628 -0.12510261 -0.007788261 -0.043373726 -0.017356278 0.04487786 -0.14004284 0.09310301 -0.071222916 -0.041323766 0.07000527 0.10690554 -0.10328371 0.01644979 -0.04867029 0.08714917 0.07624144 0.08083045 0.016424075 0.11513949 -0.052367847 -0.06666325 -0.086371005 -0.05994377 -0.09096344 -0.09036975 0.09180804 0.10350199 -0.12858066 0.12572677 -0.06584616 -0.055339318 -0.11020062 -0.09476159 0.028032534 -0.043484177 0.023812976 -0.0522146 -0.013429357 0.043267243 -0.05878069 0.0074743177 0.07742931 0.050978407 0.054004014 0.09796866 0.11712178 0.020530267 -0.08324699 -0.07647956 -0.11463457 -0.07932593 -0.036257908 0.01911851 0.0585107 0.12800051 -0.058882892 0.112389 -0.042889975 0.0051239324 -0.008098805 -0.100874834 0.036155988 0.05604413 0.06623317 0.046094477 0.058213845 0.040712446 0.05412646 0.07083454 -0.14801078 -0.077137806 0.020547273 -0.00024030547 -0.0018680901 0.044111867 0.09170692 0.0127889635 -0.10383988 -0.111385554 0.07815382 -0.10565238 -0.041319992 -0.033804324 0.0837119 0.057882555 -0.052658573 0.023503529 -0.06740558 -0.09498548 -0.07485629 0.0074207424 -0.023725795 0.04804006 0.1011373 -0.026698373 -0.11376566 0.08813667 0.03451171 0.05836614 0.064637475 -0.036434397 -0.029453112 -0.0034555697 -0.117929175 0.050905265 0.02464448 -0.06336681 -0.1096225 0.042352058 0.14611083 0.091172606 0.020517588 -0.05082297 0.04230444 0.012371027 0.11655284 0.050958008 0.042194366 0.018785253 0.011845162 0.034220237 -0.01677796 0.0769018 -0.08381964 0.08746801 0.06824877 0.08770878 0.020518743 0.10822481 0.061735317 0.049798086 -0.059582006 0.03437854 -0.057805266 -0.12085718 -0.120912276 0.08082596 -0.042615764 -0.12499104 -0.056730784 -0.09961208 -0.08501843 0.021822548 0.09819168 0.050399333 0.053879373 0.012064817 -0.03351656 -0.08470944 0.067495786 -0.08913143 -0.0976569 -0.070941925 -0.058956835 -0.055951323 -0.018722923 0.09341357 0.12615219 -0.023155328 0.13406634 0.076593384 -0.106691875 -0.024480987 -0.04103228 0.042990085 -0.0012058385 0.046614636 -0.118892014 0.09649647 0.02375976 0.020648686 0.00399838 0.07577139 -0.057381902 -0.081768796 -0.030113528 -0.07077862 0.003888785 -0.057153292 0.049193118 0.07936178 0.043091513 0.030913413 0.04793202 0.038405076 0.033428937 -0.122300446 -0.0026533331 0.015554737 -0.08265508 -0.026418168 -0.04434023 -0.03143389 0.0115548745 0.039946657 0.041682318 0.08475682
یونان 0.041447736 0.013076473 0.09620753 0.04470778 0.072299525 0.027160179 -0.041855495 0.024400396 -0.048143204 -0.0037388701 0.017618978 0.11939919 0.047316115 -0.09248765 -0.11141307 -0.0102342125 0.061266165 -0.011315481 0.07628776 -0.039122343 0.08926384 0.01689207 0.009732158 -0.077900216 -0.047288902 -0.08562825 0.063821755 0.12364109 -0.1299325 -0.026193842 0.05594573 0.12043053 -0.07847194 -0.02773028 0.043872837 0.04216466 -0.06349708 -0.0083694775 0.0013996008 0.059234798 0.015329816 0.07356826 -0.1220514 0.010671624 0.048079718 0.11786645 0.102719426 -0.0018625095 -0.002928437 0.014923859 -0.09477662 0.094563074 -0.08927359 -0.038578067 -0.0076946546 -0.027415628 0.015926229 0.092070565 0.11826589 -0.11659159 0.07099364 -0.0008420868 0.0903932 -0.12063984 -0.062956095 0.055464923 0.094326824 0.12112418 -0.079547115 0.06813059 -0.07927086 -0.035000857 0.09767905 -0.007269914 0.06464135 0.12009077 -0.05540977 -0.038215574 -0.09616453 -0.1066949 -0.14319928 -0.11574249 -0.019714149 -0.0071909297 -0.025650619 -0.040700622 -0.019301288 0.036137454 -0.03330912 0.0127388695 0.02677017 -0.034020633 -0.0094885435 0.019895863 -0.08346502 -0.108031176 0.098380834 -0.13182122 0.0055772616 -0.04336515 0.088641554 0.09649443 -0.103055276 -0.13912652 -0.05811877 0.026618868 -0.14609711 -0.08026316 0.059402242 0.019873815 0.058830272 0.10078645 -0.018476496 0.029064568 -0.011928045 -0.042389717 -0.03207641 0.15896864 0.09452956 -0.031766064 0.0765885 -0.098077476 0.018920979 0.112319574 -0.10352632 0.0385737 0.07050782 -0.12767734 -0.0149774095 -0.08442773 -0.0005060758 0.033835236 0.01941067 -0.04293996 0.07741644 0.0563792 0.06853715 0.06715591 0.008931724 0.055939402 0.12582058 -0.114388436 -0.054681785 -0.09354999 0.011961995 -0.018168623 -0.10413451 0.062370542 0.0060783476 0.04173179 -0.06874129 -0.07092549 0.03921469 -0.09306747 0.08218049 0.0299333 0.012715825 -0.016587444 -0.07053271 -0.04573522 0.056293834 0.07896585 0.04560162 0.045830872 -0.004292388 -0.013485065 0.017536206 0.08433877 0.04109511 0.02208795 -0.047611695 -0.06687495 0.14440727 -0.034238636 0.07988725 0.0048997416 0.06918385 -0.013281082 -0.08662253 -0.09061656 -0.12768175 0.07603898 -0.041488826 0.02709076 -0.074484944 0.079202 -0.017796692 0.021379448 -0.11209592 -0.030492323 -0.020614523 0.04222298 0.050456624 -0.012515761 0.0933797 -0.0759291 0.014468459 -0.09783385 -0.060613718 0.11289419
به -0.008262067 0.064869896 0.041148 -0.023700958 0.030980766 0.100641176 0.09474269 -0.017767118 0.01208468 -0.0058591394 -0.11361907 0.06747315 -0.069577634 0.0961156 -0.07865551 -0.015418766 -0.12103703 -0.067670755 -0.07019297 -0.104918286 0.040768683 0.096144676 0.0026565122 0.031139387 0.10555588 -0.045459624 0.06861224 -0.10320783 -0.05734085 0.030101324 -0.010708275 0.10195311 0.07081982 0.096422985 -0.0062257503 0.027838856 -0.042745892 -0.03793297 0.055486575 0.09032377 0.07501049 -0.06313792 0.053283982 0.043476414 -0.018998446 -0.032638986 0.07047049 -0.045880876 -0.029573882 0.08231275 0.021675186 -0.067267194 0.054837085 0.041521836 0.07045584 -0.03442165 -0.013508218 0.09674062 -0.003891714 -0.079540096 -0.099138275 0.053436793 0.07686441 0.10380163 0.12676212 -0.030060826 -0.11152913 0.07688721 -0.11120939 0.011747129 0.00032709938 0.042660173 0.011339189 -0.06826368 -0.102003016 -0.02241143 0.03294521 0.08330204 -0.050669644 0.06973774 0.057878163 0.028622713 0.108423345 -0.09556312 -0.028517716 0.016351415 -0.07660746 0.097938225 0.004456288 0.013739443 0.106309816 -0.026367115 0.040208418 -0.09438824 -0.026161615 0.001424217 -0.03972887 -0.051508725 -0.06029021 -0.11678837 0.026431685 0.022146672 0.1312859 0.097951666 -0.06327834 -0.12280275 -0.1175954 0.0951334 0.05697004 0.043903206 -0.021120906 -0.04209353 0.031611335 0.088187106 0.034689706 -0.06910128 -0.0524225 -0.04603942 0.008615179 0.10589419 0.060812738 0.004683569 -0.048100032 0.07476019 -0.027499555 0.11742386 0.10486925 -0.078451104 -0.06260518 0.025538102 0.016619708 -0.0751335 -0.09863449 -0.0022868244 0.078447476 0.020044878 -0.022241745 -0.12844057 0.072913185 -0.06446114 -0.050234463 0.09699866 -0.11259452 0.09420296 -0.06791936 -0.068963125 0.0778871 -0.07616368 -0.034709428 -0.11525655 0.07906536 0.015951877 -0.10370954 0.062328324 0.08677993 -0.07239883 0.11544345 -0.05149265 0.027460996 0.0784198 0.047403432 0.10550323 0.1469011 -0.0058281943 0.122284524 0.0071067386 0.0890869 0.05311134 0.0085639525 -0.08352699 -0.013236393 -0.062338922 0.028775025 -0.084036805 -0.10204962 -0.06412841 0.050853346 -0.08057287 -0.061630465 0.04295108 0.06814047 0.08500255 -0.09570352 -0.08953475 -0.12110912 0.0878557 -0.0554578 -0.090639174 0.076471075 0.05710902 -0.09276456 0.08171915 0.06906765 0.020693637 -0.021499908 -0.088343486 0.021000633 0.0150617985 0.06521699 0.10342154
این 0.13038783 0.08937846 -0.048347402 0.018508015 0.103035115 -0.04705012 0.049637858 0.008357269 0.05520583 -0.038158584 0.088201836 -0.069207504 -0.04040599 -0.041636113 0.07543103 0.054827318 0.071407236 0.04929413 -0.08714838 0.12680984 0.07831416 -0.07450194 0.07898832 0.04463456 0.014013133 -0.046859667 -0.04116726 -0.08599982 0.08160571 -0.093791716 0.009775967 0.10515658 0.031070841 -0.05984912 -0.046761304 -0.05768678 -0.117150605 -0.036212444 -0.04632169 0.011193212 0.086140946 -0.015601518 0.105575785 0.042676657 0.09726697 0.04961887 0.12831914 -0.11343584 0.049345125 -0.013338244 0.09929959 -0.020968206 0.0012910785 -0.0031464114 -0.10636226 -0.10452049 0.03292308 0.08075226 0.0720441 -0.09327222 0.10236929 -0.020785661 -0.0916735 0.063723594 0.09588546 -0.041774977 -0.0664269 0.0005714619 -0.083385706 0.026557067 -0.11184176 -0.0867034 0.013107397 0.0066158962 -0.12391543 0.08915976 -0.0163524 -0.123962045 0.111787915 0.11341778 0.02331157 -0.05288087 -0.09314412 -0.043565974 -0.0967471 0.010049353 -0.020541603 -0.06771725 -0.09107201 0.06451696 0.031082384 -0.073493645 0.09081073 0.08996818 -0.10728885 0.092472166 0.045531806 0.09570494 0.07587862 -0.07098301 -0.032442756 0.0970398 0.0044200853 -0.0051184576 0.10639839 0.009915342 0.080504216 0.11425248 -0.05630939 -0.0840138 -0.08703554 0.08358848 0.050669942 -0.0039417646 0.07658504 0.011377997 -0.06955151 0.12165185 0.08625736 -0.002448022 0.07237387 0.02245625 -0.06661679 0.019098096 -0.07198195 -0.06181558 -0.07338228 0.08418115 -0.0092145195 0.07240883 0.03219381 -0.026643898 -0.09096935 0.08582263 -0.01855457 -0.01805887 -0.022442423 -0.12333609 -0.00084313325 0.10873606 0.031702343 -0.051173657 -0.0016344718 0.0691736 0.11565684 -0.02378973 -0.07105942 0.03711294 0.06989197 0.111397244 -0.10991214 0.023697171 -0.022310873 0.022466505 0.08836566 0.043421052 0.025666533 0.087036096 0.10097249 0.110772505 0.028865186 0.031699307 0.0043383404 0.046320785 -0.10060135 -0.04569367 0.03848667 -0.065090075 -0.108319186 -0.06112592 -0.07206135 0.10303887 0.0041872524 0.008417778 -0.10257816 0.02917347 -0.10444652 -0.013224928 0.08199076 0.025365055 0.04522486 0.10758363 0.08568966 -0.03904988 -0.09072002 -0.07993764 -0.04366269 -0.025087763 0.0068371426 0.05958367 0.02083089 -0.08668536 0.031728957 -0.12661842 -0.020846872 0.031651758 0.032131 -0.0010103933 0.07971537 -0.10484374
که 0.09003258 0.04767504 0.030226303 0.04328037 0.058874127 0.03474321 -0.058671806 -0.06754688 0.019124651 0.07532897 -0.11234792 -0.09525126 0.04223781 -0.006364476 -0.07760869 -0.06264161 -0.019958926 -0.014491705 0.03264183 0.0065227267 -0.016870398 0.052238658 0.016080227 0.07073447 -0.035152532 -0.09908667 -0.04943018 0.1152235 0.00198365 -0.058574267 0.055686247 0.03638715 -0.06367448 -0.08465214 0.111128986 0.07680185 -0.0074958964 0.0045209136 0.10717673 -0.10335048 -0.046393555 -0.045888208 0.016460132 -0.046609163 0.09603996 0.011800929 0.045283433 0.034264967 0.016422072 0.07363311 -0.11467452 0.049851816 -0.05472361 0.045977253 0.035769816 -0.08084206 0.04277095 0.032503724 0.04404723 0.104199626 0.084637046 -0.101770185 -0.12109051 -0.053944767 -0.0015603866 -0.054534934 0.11630014 0.05221212 -0.015561403 0.12029134 -0.050114837 0.08821321 -0.098435335 0.10380773 -0.100734174 0.012059177 0.0685425 0.10070583 -0.036502346 -0.12079477 0.023223203 0.08418446 0.07635086 0.029575674 0.07146815 -0.08054161 -0.09695971 -0.04768928 0.02906113 -0.0722709 -0.12152781 -0.005753105 0.008861646 0.08342826 -0.0039073024 -0.06742521 0.12316379 0.08392315 0.10076988 0.040435348 -0.045337927 0.03486394 -0.06867474 -0.0057975426 0.056148246 0.034423184 -0.09975867 -0.06271516 -0.04242685 0.10437605 0.10140064 -0.013573163 -0.017152963 -0.038440507 0.119791076 -0.08402148 0.063269585 -0.02646373 -0.07212322 0.0619304 0.051676825 0.0027605782 0.031678576 -0.037783563 -0.013104813 0.03529164 0.0018372536 -0.1172474 0.022256952 -0.05606565 -0.0040781754 0.07414579 -0.088733144 -0.056052405 -0.120681904 -0.043408662 -0.093918495 -0.020126378 -0.043296836 0.008071845 0.068827644 -0.09696349 -0.0698294 0.07111255 -0.1026602 -0.0969226 -0.10072372 0.048891917 -0.10258196 -0.055526454 -0.116077535 -0.041417982 -0.052949484 -0.05724682 -0.071386844 0.11605655 -0.10839945 0.088006906 -0.07976476 -0.013937552 0.0816659 -0.061765727 0.049334727 -0.0058126445 0.054043815 0.06855329 -0.058055636 0.019316964 -0.012939924 0.03537765 0.066481315 0.11425742 0.0266486 0.08066769 -0.032397825 -0.08988936 -0.11689086 0.09222289 -0.12909234 -0.07224357 -0.060832135 0.0079122735 -0.12075072 -0.051742908 0.09824911 0.013499553 -0.06614947 -0.10443581 -0.10063975 -0.0777371 0.08312709 -0.080236144 0.102300175 0.005606749 -0.0015801043 0.09408029 -0.07713347 -0.10486301 -0.043712646 0.12755951
می 0.044382207 -0.056504305 0.032676693 -0.033960566 0.017624212 -0.081918746 0.11119727 -0.022301467 0.021384273 0.03231966 0.072519764 0.096816845 0.091261536 -0.009096483 0.09604782 -0.028505746 0.005855718 0.13330854 -0.01011044 0.0113797095 0.055575352 0.021733675 0.020945942 0.09549822 -0.11405794 -0.05739068 -0.06557451 -0.09432983 -0.042225108 -0.0730538 0.10417742 0.014032888 0.060832124 0.117047526 0.057360284 0.015155305 0.08696495 0.010463654 0.11943707 0.0364139 -0.09165279 -0.096614905 -0.03347007 0.020864246 0.040887833 0.11802026 0.10023731 -0.017229533 0.00090414466 -0.10274985 0.053514417 -0.1066194 0.0851696 -0.023063712 -0.06374126 0.103078686 -0.010989532 -0.09018328 0.0608737 -0.001162848 0.004672216 0.047059905 0.06765735 0.015520142 -0.0026765377 -0.02100753 -0.070066914 0.030404037 -0.07061553 -0.026538512 -0.028492425 -0.056569975 -0.08374606 -0.089168236 -0.062449362 0.012938203 0.078512914 -0.122107506 -0.12991053 0.09613891 0.00090179447 -0.10835498 0.08510207 -0.076588094 -0.075154275 -0.025147887 -0.032519553 0.10723174 0.0543026 -0.050086766 -0.029083868 0.07028227 -0.096361674 -0.009137352 0.00015085645 -0.054505825 -0.032126088 0.08523066 0.11412427 -0.13251859 0.08430538 0.138273 -0.06993056 -0.07989718 0.025407683 0.007102415 -0.05109772 0.015339231 0.09084914 -0.08504011 0.1036877 0.021910628 0.053901933 -0.06060429 -0.03899827 -0.024826808 0.042094283 -0.015104313 0.06358108 0.07766031 0.08085326 -0.018330572 -0.0733879 -0.021247147 0.13868247 0.0799007 -0.024002656 0.020690989 0.099895954 -0.044742204 -0.020305293 0.10358209 0.08925266 -0.035940364 0.020427812 -0.04783271 -0.10625946 -0.11684895 -0.1068729 0.05182551 -0.09803723 0.048000626 0.069368914 0.0010503231 -0.09434771 -0.025596868 0.042275075 -0.044473622 0.06275755 0.041318074 -0.05735639 -0.013821483 -0.11955907 -0.12322818 0.1171816 -0.03602005 -0.09678217 0.058093145 0.050796956 -0.06957973 -0.004151303 0.022871038 0.13742961 -0.013336685 -0.025161209 0.11679253 0.014735659 0.014024467 -0.113010295 0.11851618 0.10876374 0.113361776 -0.06921215 0.0018267756 0.05436411 -0.09762416 0.04557333 0.04142864 -0.07025666 0.09136459 -0.12462724 0.09622625 -0.12693468 0.07353056 -0.007813829 0.010465876 0.042905338 0.016157413 0.13521491 0.006689926 -0.022967204 -0.07471198 -0.020697111 -0.026384866 0.023492673 -0.096272916 0.009766523 0.033965267 0.025066037 0.05834979
است -0.039800495 -0.056828223 0.05244216 -0.074841104 -0.009213178 -0.08206159 0.09997035 0.09762786 -0.094975084 0.1086586 -0.109801866 0.12032249 -0.043277975 -0.06683749 0.014696445 0.037531976 0.049366437 0.033878572 0.09541245 -0.02763866 0.05100527 -0.043274198 -0.08083149 0.0745591 -0.06766547 0.061626773 -0.12245097 0.07208214 -0.09366618 -0.013584299 -0.08092142 0.043371543 -0.054895137 0.01627458 -0.013415174 0.018099116 0.011614495 0.006753482 -0.046694312 0.07903978 0.016605137 0.021452963 0.058428336 -0.06792802 -0.0592973 0.02556716 0.026521219 0.10635439 -0.10146654 -0.024783285 -0.08653305 -0.018306457 -0.06759473 0.09157362 -0.09183275 -0.0057542613 -0.009673603 -0.058530968 -0.107039355 0.049195495 -0.08231969 0.015641352 -0.060321704 -0.100018285 0.08601456 -0.0023137499 0.08264117 0.062728554 -0.08103265 -0.017775634 -0.03837578 -0.004486305 0.03876319 -0.10904873 -0.007147716 0.019242099 -0.07782856 0.057128888 0.03709788 -0.046819594 -0.107295044 -0.044178944 -0.03741297 0.079713866 -0.050842624 -0.08555313 -0.044484302 0.07585208 -0.09823009 -0.06434346 -0.08750335 -0.012185922 -0.06490571 -0.068656705 -0.02559298 0.09353019 0.06458335 0.068471655 0.080664985 -0.033412892 -0.026824696 0.1059604 0.061160337 0.014008936 -0.102013916 0.028064277 0.08342845 0.11001263 0.08405892 0.026234495 -0.08861173 -0.04781789 0.033465434 0.103517264 0.089861915 -0.053919647 -0.08086329 0.12751728 -0.07249251 0.06038316 0.09708248 0.065798536 -0.009283987 0.10341539 -0.013450991 0.051618237 0.056617454 -0.09515688 -0.0039676456 -0.06904585 0.1168562 -0.005250268 0.019650573 -0.10380345 0.09378607 -0.07102351 0.09395898 -0.12975265 0.092831835 -0.015829228 -0.03910073 0.0134494845 0.06895556 -0.10279355 -0.11421557 0.07777873 -0.028785411 0.051829692 -0.08846822 0.09561378 -0.11022929 0.040977046 -0.013494297 -0.012973396 -0.05297229 -0.043592967 -0.0077447593 0.011405152 0.09580982 -0.050193146 0.12802789 0.10175559 0.11812063 -0.034312434 -0.0030232337 -0.03723057 -0.009484474 -0.019981619 -0.0405667 0.02374142 -0.065589786 0.065489136 0.113641515 0.03929709 0.1200879 -0.020916793 0.024938863 -0.10313007 0.040445216 -0.020147841 0.062504575 0.10848763 -0.112962335 0.06536766 -0.05804124 0.09278713 -0.081865646 -0.083329745 -0.10172113 -0.074082896 0.09216567 -0.08526412 0.120416015 -0.074492216 0.073962465 0.110443525 0.0628556 -0.054938346 -0.054305807 0.08246387
و -0.10579729 -0.07638196 0.006900456 -0.11066161 -0.03279051 -0.0768836 -0.03935926 -0.0801012 -0.09653965 0.08146881 -0.064264596 0.0121527165 0.07857245 0.035605263 -0.09822642 -0.054683574 -0.10414294 -0.012083844 0.08608349 0.043201808 -0.11004364 0.048545774 -0.11259071 -0.055171862 0.09830346 -0.05852998 -0.05249352 -0.019928642 -0.03872829 0.056372844 0.06612429 0.007996951 0.062766865 0.038558606 -0.09715618 0.08869433 -0.018895127 0.054922618 0.027337056 -0.03948833 -0.00624608 -0.083707035 0.055309907 -0.083402485 -0.06982918 0.041359723 -0.042013753 -0.06747015 -0.074248284 0.11950295 0.11577216 -0.07047738 -0.11503185 -0.076784365 -0.024949238 0.009125522 0.007316817 -0.05822384 0.10205472 -0.0109775895 0.085526764 -0.113517344 -0.034048256 -0.054731485 0.0853214 0.0049039624 -0.09065083 -0.07327834 0.10261422 0.048355334 0.058034338 0.06281034 -0.031461332 -0.055326596 0.057933915 0.08876152 0.122407205 0.07200729 0.09375619 0.09192721 0.0192726 -0.04078843 0.0072836056 0.061294608 0.04882182 -0.11224535 0.044128742 0.016871175 -0.09906219 0.013974524 0.11714682 -0.08383841 0.06344798 -0.027919332 0.015784757 0.059240423 0.040459312 0.11396916 0.044325173 0.021932919 0.111558296 -0.052554138 0.07369446 -0.055433076 -0.011525414 -0.09122258 -0.059582934 -0.0044823354 -0.034403022 0.055695962 -0.108712964 0.06705615 -0.0010214112 0.0073669516 -0.00028209476 -0.065772414 0.09002067 0.12402243 0.014393179 0.022384446 0.11143668 -0.050513174 -0.072661564 -0.1087992 0.12061131 0.07133291 -0.003602601 0.07362831 -0.10245695 0.04883185 0.06261524 0.05240158 0.09404253 -0.031793118 0.036141593 0.08987599 -0.06826959 0.079867385 -0.013368583 0.078378744 0.11938501 0.095865965 0.08956167 -0.067227356 -0.067045175 0.0096328175 -0.028864548 0.08198309 -0.075962454 0.032124236 -0.0873879 0.074051134 -0.066236526 -0.022164784 -0.098225966 -0.08093789 0.06256958 -0.03749239 -0.023574265 0.10178757 -0.09454956 0.09964124 0.13874504 -0.018543627 0.08639556 0.083448224 0.042947322 -0.046459608 -0.053490344 -0.0068808473 0.07511411 -0.01451532 0.1016113 -0.06638474 -0.02487163 -0.03433937 0.041148964 -0.097788945 0.035256866 -0.09655015 0.055620793 -0.112800576 0.05055007 0.12269183 -0.07535179 -0.10396566 -0.08283815 -0.084909864 0.07957939 -0.091012746 0.10698526 -0.02553074 0.06632104 0.0056020278 -0.06030604 0.0011578283 0.003183974 -0.0033006635 -0.07209103 0.009888175
کار 0.005255113 -0.0046615303 0.09956191 0.00731839 -0.008354164 0.06746999 0.11152009 0.08596179 0.029083025 0.07881623 0.002284852 0.11460665 -0.016198972 0.06781687 -0.0071134623 0.052757952 0.055025738 -0.067124486 -0.06902809 0.062327895 -0.066350535 -0.053852655 0.021372184 -0.08630905 -0.025061324 -0.038572542 0.032777533 3.8344228e-05 -0.06212635 -0.03158387 0.118107714 0.09855943 0.04261062 0.0031659624 0.109595686 -0.09815336 -0.06391611 0.014656854 0.05993604 -0.06111783 -0.09434805 0.0937873 -0.11426213 -0.10560106 0.042559072 -0.0153595125 -0.09456228 -0.049996156 -0.013528064 0.074083045 -0.100521475 -0.013291103 -0.08471472 -0.0364437 0.018652596 0.102332875 -0.07704882 -0.022174818 0.086821355 -0.08390368 -0.08064137 0.03733999 0.039104644 0.010375847 -0.0079282345 0.05904273 -0.07126877 -0.095350474 0.030573534 -0.11564999 0.0419514 -0.045145508 -0.095224634 -0.073789656 0.09881614 0.10248618 0.13268115 -0.078521505 0.024005048 0.008701046 0.007616019 -0.09190341 0.038956568 -0.10354659 0.08174602 -0.019058812 0.047336247 0.08690708 0.06333387 0.0901444 -0.10312591 0.13494192 0.073056854 0.1288831 0.12779649 0.04721368 -0.02682477 -0.122280516 -0.06402151 0.12377929 0.09111731 -0.009742051 0.12308372 0.038915366 -0.13114724 0.080729865 -0.023903083 0.07104623 0.104243636 -0.02921014 0.023827976 -0.09287778 -0.02717582 0.06088677 -0.018309215 0.033788003 -0.07211685 -0.0031176712 0.022124803 0.05695107 0.12442307 0.02381219 0.10951001 0.08601547 0.023782194 -0.07675876 0.065820314 -0.13923243 -0.10289964 -0.024933336 -0.012759477 0.06768778 -0.08540517 -0.028996086 -0.013390605 0.10073563 -0.12849472 0.003514143 0.0034021481 0.02704876 0.108564906 -0.03704808 0.12309498 -0.03900461 -0.1154726 0.106427 -0.105786465 0.014486004 0.06930992 0.0641671 -0.0006919428 0.05666525 -0.026247324 -0.03787966 0.04084072 0.08209763 0.00085137744 -0.12162347 0.01821169 0.10369797 -0.009404542 0.020949604 0.063532 -0.027388986 0.037397195 -0.04644294 -0.0033922356 -0.0369525 0.032561466 0.09595572 0.045286324 0.12056634 -0.005589706 0.0354836 -0.0011020757 0.005574206 -0.12217242 0.085423276 -0.11478035 0.060837198 -0.005678915 -0.0689442 0.053953525 -0.06854486 0.024293322 -0.0706688 -0.007348108 -0.013373997 -0.022828694 0.010751688 -0.0531309 0.062096976 0.06992786 -0.03532683 -0.123808704 -0.016127413 -0.04896522 0.099912666 -0.067275114 0.073760994
را -0.07214737 0.049016193 -0.07646439 -0.10246252 -0.0047292276 -0.09719436 0.081925035 0.09515627 0.053899795 0.074540555 0.1122321 0.044462312 0.115316816 0.1195538 0.005764953 -0.079217 -0.11081777 -0.051106118 -0.102978975 0.11476414 0.017387938 -0.07327348 -0.093993746 0.078087926 0.059566237 -0.044772923 -0.095376834 0.056555126 -0.011055601 0.0093304105 0.036974765 0.11952121 -0.10910737 0.11622482 0.013109239 -0.09620752 -0.11599477 -0.11279198 -0.08440251 0.0821741 0.028924407 -0.05317627 -0.036251966 -0.05782134 -0.04008249 0.016918492 0.12526318 -0.0090359505 0.046074044 0.0045054606 0.06929699 0.045687675 0.06939074 -0.049403567 -0.10092388 0.0005481458 -0.0003800581 0.09024007 -0.09008242 -0.084780015 0.07395684 -0.07890439 -0.08082598 0.113536 -0.0073243873 0.06505763 0.00563764 0.1113542 -0.05289125 -0.013447583 -0.058138564 0.041277934 -0.03275359 0.087384485 -0.081399955 -0.078068055 0.058743678 0.042462666 -0.10470851 -0.03976313 -0.080012746 0.019610085 0.12627195 -0.114586145 0.091513224 0.08600842 0.07954909 0.058442194 0.017935842 -0.04446871 -0.106754966 -0.055672437 -0.06769009 -0.06274579 0.114377484 -0.02383717 0.041315176 -0.052542765 0.023145607 0.022514394 -0.06651585 0.084956564 0.08979334 0.02569348 -0.10486967 -0.060264967 -0.10346078 -0.08405169 0.020829236 -0.03602392 -0.025843533 -0.061676398 0.05577253 0.012182312 -0.0454303 0.056435585 -0.062717296 0.10211911 -0.045334365 -0.07820905 0.068223715 -0.011258361 0.07034155 -0.053325817 0.12133024 0.1161183 0.045287177 -0.07753375 -0.06922235 0.018808177 -0.09038194 0.0943307 0.07021909 -0.049901467 -0.02369691 0.07278573 0.019622814 -0.03989475 0.0827734 -0.10433191 0.08743936 0.032641 -0.03975616 0.010774425 0.03483884 -0.057671875 0.0094269905 0.04766835 -0.009715017 0.06414534 -0.0072883363 -0.06257397 -0.054353498 -0.118186176 0.093330674 0.059510596 -0.040497802 -0.0047439467 0.09332508 0.0927922 0.07796228 0.0015582269 0.128106 0.052757386 0.1113854 0.061878033 -0.03203108 0.04314864 -0.0038636234 -0.029288067 -0.09553362 -0.041038148 -0.00030515593 -0.0032557384 -0.040378604 -0.059488237 -0.03266808 -0.07930512 -0.116660714 0.009852293 -0.025575712 -0.098448746 -0.046865765 0.110111885 0.08061768 0.10146964 -0.081825115 0.0018834196 -0.07491411 -0.0047946246 0.02080681 0.08683107 0.07868012 -0.027291266 0.07100913 0.07982653 -0.04858489 0.020387566 0.08587654 -0.09393313
خبرنگار 0.026387425 -0.04477832 0.004965874 0.026926972 0.0064694085 -0.049126863 -0.07935145 -0.05278333 -0.12619358 -0.041670207 -0.022259392 0.053268466 0.021680994 0.045978144 -0.025543334 0.060042482 -0.0398495 0.03857558 -0.08821998 0.0506666 0.0651298 0.09624324 -0.02166822 -0.093300566 0.12247259 -0.072892874 -0.003447191 -0.056326147 0.11297735 0.08780708 0.007668167 0.07412606 -0.029344287 0.048701108 0.006639439 -0.011470004 -0.05041045 0.119256146 0.022390274 -0.06290106 0.05854112 -0.04080749 -0.022035047 -0.06402351 -0.11501693 -0.0011733524 -0.08499388 -0.05838017 -0.07337096 0.06803697 -0.059600614 0.058341287 -0.0931067 0.12118325 0.09995172 -0.07823364 0.07171109 -0.07362058 -0.12199186 0.08985818 -0.113252655 -0.04180198 -0.10551106 0.08039948 -0.06621065 -0.019462304 0.10206434 0.12412863 0.073329955 -0.08209716 0.034880754 -0.041599818 -0.06764703 -0.07844896 0.11062938 0.08764575 -0.076813444 0.025673985 0.10032047 -0.05119829 0.0651312 0.08039704 0.010783182 -0.034099426 0.044853818 0.082497075 -0.035254408 0.12132771 0.016846765 0.11456443 -0.0073345047 -0.090752766 -0.06857299 0.00043578463 -0.017498398 0.10244505 0.02248865 -0.048236024 0.019880325 0.027735565 0.009804346 0.11220439 0.054941192 0.002711148 -0.1053289 -0.09307542 -0.0049004033 -0.047681704 0.019848462 -0.08421125 0.087422654 -0.08196084 0.0811516 -0.0050692204 0.01767433 -0.12250139 0.012867201 0.14198078 0.06310435 -0.12297744 -0.07056815 -0.08377847 0.10825319 -0.041291215 0.03292285 0.0792969 0.06986403 -0.023127187 -0.102148056 -0.019347662 0.120906875 0.036634147 0.029322347 0.060639426 -0.026762616 -0.103841044 0.11339289 0.013705508 0.017911062 0.011819737 0.019874766 0.10878949 -0.044777583 0.019720566 0.011607009 -0.12032129 -0.06612 0.011725737 0.115991965 -0.07896903 -0.061062157 -0.022822563 -0.09320899 0.107544735 -0.0036254947 0.064462386 0.07480737 0.053262994 0.038531754 -0.08867822 -0.021503577 -0.055650976 -0.05682917 -0.06302675 -0.117287464 0.07370176 -0.020318776 0.11838255 0.0804171 0.0013469664 -0.12772298 -0.11770328 3.5766865e-05 -0.014938119 0.115949236 0.0711447 -0.103884615 -0.09629662 -0.074358836 0.04357969 -0.07559875 -0.0563702 -0.0706747 0.031298127 -0.048791066 0.025778696 -0.012749844 -0.08348503 -0.10541112 -0.02344567 -0.070205316 -0.05744374 -0.013955877 0.06278187 -0.051118996 0.07875605 -0.09485967 -0.012593016 -0.0062074405 -0.08966686
کنم 0.080011874 -0.043395497 -0.046889544 -0.031190831 -0.10225952 0.10229984 0.09467154 0.09694693 0.010721462 0.08647033 0.085993 -0.020111041 -0.022532823 -0.023067756 0.09255919 0.043789726 -0.011593607 0.08097234 -0.061433896 0.065984085 -0.040270425 0.08039051 -0.06712438 -0.05781485 -0.06371988 -0.053811345 -0.08181463 0.0793591 0.10042644 -0.021524908 -0.095846005 0.051299598 -0.07587033 -0.061093733 0.08947824 0.098813586 0.068629995 0.065620966 -0.085903496 0.0568521 0.056474533 0.05543602 -0.06042846 -0.08417842 0.060277935 -0.080684565 0.02033244 0.08269207 -0.026806572 0.06434053 -0.073214024 -0.055202838 0.08614288 -0.08296692 -0.0632991 0.01518307 0.0998641 -0.05033137 -0.0707534 -0.038141835 -0.020619744 0.008647715 0.071725786 0.1032031 0.05409235 -0.016766943 0.018149162 0.09990407 -0.08571786 0.119994104 -0.016601318 -0.017936487 -0.065263726 0.085006185 0.059027143 -0.08190712 -0.06483519 0.026062548 -0.09887349 0.07547769 0.03624006 0.10852477 0.07023001 -0.057602275 -0.07153154 -0.09293859 -0.08017679 -0.113448896 0.0644732 -0.048469704 -0.029710744 0.091559075 -0.073730424 0.068567395 0.067996465 -0.043243926 0.08808028 0.07571006 0.08528222 0.019391326 -0.106111735 0.09256414 -0.037120845 -0.033027463 0.03794951 0.03086921 0.050515253 -0.027666591 0.019147035 -0.11374206 -0.008223564 0.081682704 -0.086277924 0.058681145 0.06599213 0.06677286 -0.09795298 -0.06232336 0.08940874 0.026638182 -0.054348964 0.09420817 -0.089090854 -0.06738183 0.007158234 -0.058275383 0.08484569 -0.08398554 -0.099286504 0.060041863 0.10282579 0.03580478 0.07073396 0.023869347 0.01822964 -0.10096204 0.014817386 -0.06039355 0.10353987 -0.06451465 -0.018747015 0.03125555 -0.035889592 0.05099487 0.016722364 0.047912188 -0.024791488 0.09689894 -0.080524035 -0.034856945 -0.119060434 0.06965174 -0.07574937 0.107799664 0.087790936 0.003669136 0.0768444 0.08185023 -0.09576891 -0.07254147 -0.041607592 0.10096268 0.11566589 0.03181892 -0.102587186 0.09113526 -0.10368883 -0.06615616 0.09055817 -0.026920456 -0.11729146 -0.055980485 0.110665485 0.032862965 0.047328934 0.06931102 0.10667528 0.047315616 -0.05446402 -0.09952777 0.09181915 0.03865974 0.09829024 0.09874744 0.045269616 -0.07894332 0.01939067 0.05212376 0.065674014 -0.07538521 -0.033251286 -0.0656497 0.06892668 -0.11412606 -0.034975026 0.03409669 -0.07817863 0.10248128 0.0034843031 -0.022042168
انها 0.064538375 -0.06678595 -0.07796328 0.013563215 0.12565473 0.019357113 -0.012651447 0.01824565 0.094209425 -0.032632817 -0.09143663 -0.045460626 0.116722 0.03359277 -0.06492245 -0.039838336 0.0018463238 -0.0123479795 -0.055442065 -0.042943325 0.058573227 -0.059414767 0.09316248 -0.005637638 -0.001008272 -0.091322266 0.045521833 -0.052823562 -0.08230423 0.040589202 0.09670552 -0.042311143 0.072085015 0.05083393 0.043999247 -0.11274303 -0.024683954 0.08568608 -0.114977635 0.016051868 0.01897374 -0.123209186 -0.093250394 0.031105436 -0.05921399 -0.07190987 -0.106123865 0.010021414 0.050388504 0.053284533 0.09370125 0.048088398 0.022581708 0.07675722 -0.059032947 -0.04011239 -0.019289125 0.040565364 -0.009456164 0.009572825 0.10067012 -0.058916494 -0.05755224 -0.08733917 0.0005754177 0.12441383 0.07295089 -0.062368326 0.02922148 0.06820175 -0.059326485 -0.1166421 -0.0949761 -0.099544406 0.07683982 0.106753945 -0.073462725 -0.10841087 0.0396364 0.031518023 0.0054876735 -0.029560857 0.009489117 -0.020214228 -0.03490482 0.062269747 -0.12003183 0.017685626 0.057200648 -0.05488767 -0.041944534 -0.10232609 -0.02928363 0.01140908 0.00440023 -0.090398096 0.07028406 0.12002255 -0.0373238 0.019581508 0.09929939 0.071858235 0.13154468 0.015256949 0.10461499 0.09980324 -0.07919961 0.04357266 -0.06498698 -0.039015874 -0.007754271 0.038201127 -0.10592086 0.015827525 -0.047440458 -0.000931186 0.05176013 0.0453132 -0.0368967 -0.057716344 0.08380883 0.105354585 -0.10443148 0.07349829 0.11147965 0.029598027 0.12238684 -0.053472333 -0.09054882 -0.035993442 -0.049423058 0.07127726 -0.12018981 0.102588154 -0.12180073 -0.008436379 -0.10045074 -0.10131434 -0.011141459 -0.012306624 -0.025161214 -0.063128024 0.10929914 -0.0082007935 0.06632649 -0.029379701 -0.08132559 -0.014197701 0.010833318 0.119475625 0.08691113 -0.12276916 -0.04695394 0.075752296 0.1187611 0.062092386 -0.016425828 0.055223435 0.003315781 0.060963064 0.08467771 0.09382785 0.0666045 0.109001644 0.12150346 -0.009986499 -0.10935858 0.10986413 0.059891347 0.12302835 -0.09169403 -0.0389558 0.089384384 -0.083783746 0.044186305 0.10899152 0.0103929695 0.061740525 -0.08717804 -0.1173809 0.037613656 0.056291394 0.010682348 -0.0559489 -0.070857644 0.097277135 0.046696633 0.010556423 0.09893705 0.068147376 0.09477606 -0.07170499 -0.014482333 -0.026619626 -0.03180062 0.008233798 0.048973825 -0.0053888913 -0.0233796 -0.1048065
با -0.0959563 0.043815058 -0.09108533 -0.10824932 -0.030272704 -0.047307853 0.009052581 0.031611655 0.024249654 -0.030174851 -0.105845205 0.043022834 -0.090114914 -0.06168246 0.08584864 0.021546556 -0.07891654 -0.028593775 -0.034866434 0.031834763 -0.11085549 -0.059157874 -0.091677696 -0.02509631 0.07173783 0.037311733 0.0749226 -0.09801578 -0.013323056 -0.082292065 -0.08671133 -0.08764203 0.079505295 -0.09090342 -0.112202436 -0.10735007 0.034403298 0.062073655 0.025644321 -0.055506248 0.10814638 -0.10144249 -0.0422771 0.0028308036 0.036923256 0.052602712 -0.033945195 0.022597753 0.0649381 -0.103864565 -0.039179772 -0.097706474 -0.06465839 -0.014156468 0.023094794 0.06557984 0.048834655 -0.08409304 0.067676954 0.11351848 0.025911584 0.06250189 -0.119997576 -0.01144364 -0.009784248 0.11145713 -0.05031092 0.11258822 0.07043572 0.036835693 0.08562184 0.030758811 -0.026910806 -0.08049864 0.043245994 -0.004745671 0.05263093 -0.055686977 0.044541445 -0.046888515 -0.067441724 -0.014161421 0.051025175 0.06363393 0.09170786 -0.0044222367 -0.04552536 0.037652243 -0.033959027 0.115503006 -0.00068290276 0.019147675 0.08335886 -0.07996936 0.052108586 0.103350446 0.08515669 -0.112926476 0.06820455 0.10669297 0.04348564 0.094468065 -0.06086867 0.050316717 0.027907858 0.076880254 -0.089053325 0.07453766 -0.019274505 -0.06616378 0.013495305 0.0009185797 0.03410988 0.0871398 0.052550506 0.092975676 -0.022681331 -0.008950409 0.08335013 0.09042401 0.12077782 -0.022111556 0.08346323 -0.09605344 0.08483349 -0.039026607 0.10475596 -0.1279374 -0.08093473 -0.020789064 0.04816826 0.0011850165 0.03532598 -0.07711495 0.068651125 0.111191854 0.06321908 -0.10984808 -0.0925204 -0.00930644 -0.041441195 -0.09069524 0.038438465 0.09856799 0.01681045 0.09724283 -0.011402812 0.07928038 0.12408469 -0.106686585 0.016615374 0.058509633 -0.013051365 -0.084554665 0.1034692 -0.055060644 0.037042256 -0.0539967 0.06988684 0.1063958 0.117633566 0.03529805 0.019892106 0.10322017 -0.069992855 0.041289385 -0.090032 -0.12031567 0.09452567 0.017811993 0.108741686 -0.022372575 0.073188715 -0.060845498 0.014024554 0.113318115 0.04052639 -0.071533814 -0.121247664 0.01622762 0.0983049 -0.11539984 0.021485494 -0.09784736 0.041694805 0.07553248 -0.09956502 -0.011806593 0.010211994 -0.060739987 0.05468245 -0.032826643 0.062276125 -0.059313934 -0.021515667 -0.119552456 0.050507184 -0.07153417 0.084510565 0.04959926
خود 0.08370643 -0.007808967 0.12314621 0.08374111 -0.018392282 -0.08324222 -0.09426282 -0.0051653143 0.06227775 -0.10889932 -0.053793833 -0.0057885507 0.020578796 -0.031853914 -0.07070203 -0.055164002 -0.12130794 0.0126527175 0.04233139 -0.08098062 0.07850569 -0.07981199 -0.08740013 -0.052977923 -0.060203206 -0.07148556 -0.061892558 0.030604273 0.012012324 -0.043505177 0.061395742 -0.013194072 -0.075415716 -0.10550111 -0.11947632 -0.011233272 -0.08904825 0.012534533 0.09087591 0.114905685 -0.030957174 0.083019264 0.030172946 0.10691298 0.09046637 -0.034947947 0.084433086 0.10328462 0.029456852 -0.009983276 -0.051146682 -0.05236242 0.07878922 0.109486595 -0.045042668 -0.010742801 -0.09353844 0.07153845 0.041758645 0.059118673 -0.081072964 -0.06334617 0.09482632 0.06914408 -0.0046138098 0.07492436 0.045206297 0.08977267 -0.03583205 0.12589914 -0.11992053 -0.09509938 -0.058626883 -0.0013809014 -0.097082876 -0.09761232 0.04731355 -0.07138768 -0.0137390895 0.10628518 0.04806448 0.013086307 0.034124788 -0.11696566 -0.00012510133 0.070028774 0.0042986665 0.07561426 0.08151071 0.057683904 0.033331893 -0.067105904 0.041309606 -0.021004576 0.08277802 -0.121459074 -0.10420694 -0.04291117 -0.03828354 -0.0051047634 0.107321665 -0.08360513 0.06881289 0.00845028 0.037485674 -0.08448717 0.11587667 -0.001773789 -0.06960095 0.088574514 0.0923515 0.11487966 0.07901894 -0.061320137 0.056131728 0.09579273 0.05824981 0.03569705 0.07364227 -0.022638975 -0.1045671 -0.101132855 -0.1103318 -0.024435 0.03265038 -0.10528678 -0.032794084 -0.053222988 -0.0547295 0.11026659 0.054373894 0.06393685 -0.016958352 0.095612206 0.08528139 -0.028711868 -0.035942283 0.0530396 -0.058403302 0.008182986 0.11512164 -0.115733385 0.049203865 0.02602681 0.028088711 0.049380776 -0.057683233 -0.093809605 -0.09808472 0.07865195 -0.00163274 0.045725532 -0.10029799 0.099428214 0.07156113 0.0900425 -0.08298944 0.069104895 -0.011137458 0.03159346 0.022413328 0.08644869 0.113084175 -0.058537997 0.09379863 -0.015567381 0.040726658 0.028279044 0.044045497 0.06289682 -0.012027255 -0.048737615 0.08533355 -0.049743373 0.106175624 -0.119934134 -0.114382654 0.0035344614 -0.06326102 -0.023057226 -0.04907199 0.015124087 0.07286041 0.09341098 0.009321856 -0.05868085 -0.04536025 -0.057131328 0.03865202 0.04322183 -0.042173434 0.024986887 0.08058013 -0.010126576 0.013544108 -0.066909514 -0.12281517 -0.1061088 -0.061968 0.12113702
برای 0.05089438 -0.039977066 0.06146685 -0.050417956 0.016223038 0.03958219 0.07490819 0.05629608 0.065916635 0.05735685 0.05136146 0.09487479 -0.09202344 0.11429177 0.034990862 0.060653664 -0.02013317 0.074109025 0.067034036 -0.10248644 0.09188001 -0.03793178 0.098264106 -0.0018118168 0.1132561 -0.06336875 -0.119166285 -0.094481535 -0.102284804 0.035537772 -0.051410053 -0.06108255 0.071875 -0.00029763998 0.100834556 -0.068879835 -0.09334549 0.096031904 -0.097726464 0.071433105 0.014233395 0.07886883 0.015999628 0.07959116 -0.07677334 0.112024724 -0.019228477 -0.017686049 0.089593165 -0.06571705 -0.063954435 0.06549379 -0.12299203 0.10026343 -0.0019382167 0.061805803 -0.010856118 -0.08110378 0.09559108 0.06320807 -0.02890954 -0.08491085 -0.059538495 -0.07797707 -0.09122962 0.099957004 0.071635775 -0.072391376 0.06254978 -0.022857029 0.03889155 0.07152582 -0.059280537 -0.09472919 -0.0063195676 -0.09356276 -0.0877623 -0.11862305 0.043432817 0.05335727 -0.05708578 -0.096450165 0.111922234 -0.029719284 0.11449414 -0.050627373 0.047990747 -0.06007559 0.04416475 -0.013878482 -0.011202563 0.018911023 -0.10036561 0.013188987 0.10887161 -0.046054434 -0.022429498 0.082477115 0.038112134 0.079474404 0.014941518 0.10347832 -0.024546124 0.016730066 0.011267373 -0.076549314 -0.072320595 -0.060870353 0.01613558 -0.05774415 0.09592278 -0.04997188 0.025835678 0.07327947 0.0017206881 -0.016757363 -0.10905826 0.09151089 0.01431501 -0.09911571 0.07993785 0.019400245 0.05755935 -0.08939181 -0.09507086 -0.07725186 0.03478706 0.062560074 -0.11762424 0.106035195 -0.00017329077 0.012114956 0.06858491 -0.10872901 0.06617068 0.09793095 -0.0030420697 -0.106742375 -0.007341058 0.097940594 0.0691128 -0.07554452 -0.06928206 -0.087093614 0.10246386 -0.06267534 -0.050832648 -0.05971594 -0.014436541 -0.11147794 -0.050453443 -0.11832348 0.04399193 -0.10529234 -0.111842595 0.08281603 0.08369711 -0.12132528 -0.06589831 -0.039738618 -0.0920838 0.02044903 -0.06455603 -0.06709629 0.00037585828 0.031097922 0.035046257 -0.0025051227 -0.0023934077 -0.104462266 -0.082487084 -0.1142767 0.11267453 -0.029257385 0.07411453 -0.07946952 0.0873363 0.052908078 -0.002335457 -0.044685166 -0.09055974 0.00021074423 -0.016523743 0.09606569 0.01947564 0.009115628 -0.012167374 0.009942072 0.06054238 -0.07844467 -0.08793657 0.10633252 0.015896713 0.052960865 0.018158419 0.055176903 0.0039348737 -0.0011220106 -0.058817867 0.11755934
کنند -0.0126041835 -0.0014198401 -0.05693506 -0.05509356 -0.050149415 0.05172037 0.012136748 0.062243655 -0.102414794 0.0036275552 0.076796785 -0.097128086 -0.09950227 0.040378723 -0.1161644 -0.11500259 -0.04161535 -0.08665294 0.096190065 -0.040621884 0.015333249 -0.0394546 0.10015102 -0.063606925 0.044134215 -0.07872915 0.043079972 0.058291018 -0.0065615694 0.020132046 0.049289536 0.034243856 -0.086404495 -0.06944488 -0.091603205 -0.034066625 0.031697832 0.06596253 -0.082412794 -0.052957103 -0.109106824 0.0017125082 -0.07466507 0.024089076 0.10410614 0.023462113 0.018247973 -0.04780704 -0.017355172 -0.07055122 -0.10076248 0.031183157 -0.08953804 0.056942906 0.086739026 0.046389025 0.019679334 -0.09748776 -0.07134421 0.096918695 -0.0018022369 0.023940759 0.0057232017 0.044881906 0.052968774 0.058889028 0.09338375 -0.06844693 0.0009464734 0.05288115 -0.09708403 0.033565883 0.07695372 0.06543972 0.010220216 0.063463934 0.061308473 -0.10024904 0.085125886 0.018255565 -0.067655124 -0.045629963 -0.06675268 -0.042476192 -0.09606881 -0.039196454 0.076642886 0.10339254 -0.104848556 -0.08191864 -0.0034754071 -0.050522424 -0.117038384 -0.10234616 -0.013476141 0.045254014 -0.10350545 0.11163617 -0.049323834 -0.10438003 -0.07724308 -0.1058306 0.049976453 0.006046474 0.11719558 0.0051004402 -0.051469915 0.09138127 0.11161624 -0.06911678 -0.061741367 0.035964202 0.029809695 -0.03634998 0.045667 -0.05342266 0.086278446 -0.06696659 0.09948591 -0.079270735 0.061577406 0.014207801 -0.07931446 -0.12172402 -0.05611663 -0.020680552 -0.03797767 -0.053362485 -0.0079643 -0.026601363 0.006856636 -0.079076104 0.10152074 -0.0116255395 -0.033353962 0.06281621 -0.12197911 -0.04246218 -0.08889722 0.09757854 -0.08853804 -0.11535508 -0.084992036 -0.014747106 0.11589072 -0.020774305 0.011425945 -0.078596324 -0.09479016 -0.085948996 -0.012274556 -0.027401544 -0.021849655 -0.07101151 -0.05927134 -0.1095031 -0.05047662 0.08721484 0.11543605 0.09634698 0.11173196 0.019134302 0.030104067 0.09315082 0.10440581 -0.07796028 -0.088526025 -0.09877255 -0.10942359 0.11724143 -0.050217323 -0.11667032 0.12250071 0.107151344 -0.02720349 -0.092229284 -0.0628574 -0.035375968 0.0036889112 -0.009343322 -0.103761956 -0.103871085 -0.06187795 0.0047844737 -0.021441726 -0.032702077 -0.11472683 -0.11887669 -0.018892467 -0.10909714 -0.032221578 -0.004016401 0.07926447 -0.0057465592 -0.044883296 0.055831183 0.024590293 -0.0128217125 -0.088246554 0.04961793
من 0.119535476 -0.085139066 0.046616483 0.008773628 0.016538465 -0.039544374 -0.086172484 0.08144786 0.06024839 -0.0941291 0.100316726 -0.07078391 -0.07422493 -0.05661469 -0.06339468 0.068272755 -0.08024662 -0.09425642 0.10986611 0.12388398 -0.052990854 -0.09410006 -0.07038942 0.044948574 0.054418664 -0.10744993 -0.11442752 0.035775747 -0.005268262 -0.011945787 0.068738244 0.099353276 -0.05579815 0.023589795 -0.0032719423 -0.03351754 -0.034132108 -0.010631363 -0.048073668 -0.07548595 0.062445328 0.017779903 0.016150432 -0.03813063 -0.09562936 -0.051508415 -0.07453879 0.06184701 0.05962203 -0.024478856 -0.015793804 0.023685174 0.10371133 -0.049411945 -0.08983118 -0.0047720782 -0.034149025 -0.095830284 -0.09649537 -0.058855273 -0.08515211 -0.046894096 -0.025919024 -0.00094217015 -0.105387494 0.090348095 -0.094979525 -0.04435313 -0.03380512 0.0021337518 0.063727535 0.10158664 -0.0930332 -0.08734901 -0.01831671 -0.091800384 -0.06530182 -0.09765102 0.035622906 0.07149849 0.09839364 0.07814133 0.05802651 -0.11487908 -0.08259316 -0.10791509 -0.08885934 0.09159528 0.058241278 -0.06793212 0.032601275 -0.0094855875 -0.11873698 0.009177971 -0.044800572 -0.09059645 0.056525964 0.022808108 0.023637637 -0.08878623 0.04303353 0.0020852392 0.12506388 0.009420763 0.07950478 0.07261315 -0.12051184 0.0155400485 -0.073967576 0.107177 0.10181513 -0.0970747 0.12513277 0.04177271 0.015250453 -0.04499586 0.07176308 0.10732178 -0.053728204 -0.061518576 -0.037218742 -0.031153925 -0.09453804 -0.018118922 0.0913675 -0.051231153 0.06610334 0.08227593 0.05823061 -0.035901878 -0.081385136 0.0029288533 0.035744324 -0.120826684 -0.046895593 0.03483208 -0.08770428 0.071184516 -0.10713726 -0.03965471 0.10938445 -0.08770923 0.09432459 -0.016800271 0.028589888 -0.0047144536 0.07398718 0.045571804 -0.06987109 -0.10321293 -0.044889487 0.0465379 0.11203734 -0.05079276 0.024284579 -0.010209066 0.027052863 -0.12479693 0.053793028 0.09656598 0.06321055 -0.094538465 0.021502994 0.10926042 0.03093064 -0.008004914 0.06538008 0.109357275 0.11317984 -0.07618379 -0.025491927 -0.08604058 0.022634171 -0.03458772 -0.07390037 0.09967268 -0.0048004324 0.039049022 -0.09013737 -0.08709199 0.017647639 -0.08824633 -0.10865032 0.002157831 -0.034683943 0.10237603 -0.054686774 0.03135612 0.023740359 -0.0055189827 0.025404263 0.0010944917 0.12711547 0.008716516 -0.050721172 -0.093289435 -0.077516876 0.028327106 -0.044223905 0.11816843
گفت -0.0034169268 0.0047951113 0.06128547 -0.10341864 0.004862309 -0.01365679 -0.059305873 0.0019124438 -0.09178226 -0.020089423 -0.1115266 -0.049327184 -0.044464722 0.060788795 0.009495518 -0.016402327 -0.0674072 -0.12158812 0.078344025 0.11353572 0.10717042 -0.017817298 0.08815612 0.078679815 0.07699668 0.088139415 -0.13688819 0.049119074 -0.069545865 0.13646767 0.02253159 0.06761782 0.07502071 -0.07555414 0.109899044 -0.05550775 -0.08732361 -0.089898445 -0.054899793 -0.0479624 -0.09087701 -0.05025296 -0.04252458 0.1285168 0.04069306 0.018278759 0.020668663 -0.120080195 0.1085654 0.12465775 -0.030950418 -0.09098592 0.055127278 -0.0034228887 0.03152511 0.06484978 -0.012362013 0.06442355 -0.022914264 0.048415303 0.0070892163 0.070788085 -0.067461275 -0.045871876 0.13573773 -0.014419064 0.08153848 -0.00047954475 -0.012992172 0.0129545415 0.07646273 -0.099098094 0.024672301 -0.07812105 0.052938864 -0.078089416 0.036392324 0.018353956 0.038656153 0.053051557 0.07309413 -0.08828897 -0.040191676 -0.13965812 0.0029437416 0.10392402 0.060854487 -0.064692214 0.07305468 0.09844947 0.03800519 0.021150894 -0.021460732 0.0021090773 -0.011500925 -0.07427322 0.1036752 -0.113331184 0.10507876 0.06967082 -0.08102194 0.041037284 -0.068211086 -0.016104802 -0.05753107 0.08199695 0.016780443 0.055042095 0.090094864 0.012068517 -0.010956176 0.10617778 0.09012826 -0.0016867571 -0.04145421 -0.054196067 -0.016754447 0.12198791 0.11294708 0.07432071 -0.024694666 -0.063840605 0.002529185 0.05768654 -0.039034333 0.116736814 -0.023378361 0.042035967 0.09986248 0.058758203 0.040445525 -0.057712615 0.07554567 0.0076920246 0.082917966 -0.08818074 -0.12189292 -0.0052797887 -0.020552725 0.022035476 0.099104255 -0.04149088 0.03739487 -0.05905915 -0.034772888 0.103773296 0.055939067 -0.04475216 -0.068895616 -0.01593482 0.013992145 -0.09573841 -0.039349068 0.0310573 -0.09719503 -0.10727717 0.09487773 0.029984346 0.017035885 0.06228316 0.028944854 0.11676048 0.12891272 -0.06107774 0.116636045 0.015933707 0.09712529 -0.05603867 0.12024479 0.032652285 0.012376498 0.054317575 0.084939845 -0.11607421 0.12234615 -0.003426549 -0.042695947 0.11184969 0.03521972 0.023302315 -0.11696009 0.0212515 0.022163184 -0.034270205 0.12219255 0.069931224 0.0733614 0.080337115 0.05397211 0.05441391 0.104180016 -0.0029020484 -0.0015998263 -0.049385943 -0.08895525 0.007591066 -0.10023725 0.05449548 -0.1056491 -0.026009563
شبکه 0.05228131 -0.087268226 -0.00030491888 -0.10472312 0.018215891 0.11772597 -0.04294372 0.0150857 0.10602823 -0.06249285 0.080767885 0.056021966 0.020157695 -0.026701037 -0.038475774 -0.029715741 0.08497292 0.06899836 -0.04943311 -0.057435784 0.056620043 0.09813991 -0.03820615 -0.015632713 -0.11422406 -0.0056999833 -0.04727867 0.101131916 0.11795557 0.07459237 0.094312325 0.037250333 -0.12199359 -0.09145161 0.11415934 0.047190055 0.04831845 0.010113105 -0.10739899 -0.08612768 -0.06599052 -0.062724136 -0.0016696714 0.10089613 -0.10740567 -0.10320645 0.054917887 -0.007413487 0.038747527 -0.05814728 0.0547133 0.102253735 0.046069812 -0.015462998 0.06928493 -0.06558165 0.08649551 0.0018848281 0.097888015 0.04156852 -0.012125568 -0.0064498316 0.015404186 -0.013016661 -0.08741951 0.10731844 0.014503836 0.05625531 -0.07115731 0.020105107 0.08249146 -0.05273548 0.057107206 -0.107358836 -0.027679084 -0.03661721 0.11951504 -0.075971015 0.05096244 -0.11961979 -0.0046432037 -0.0661704 0.039822716 -0.03860271 0.117744334 0.019503092 0.09892805 -0.060948752 0.077411614 0.079910964 -0.11480724 -0.050578464 0.0467034 -0.050639648 -0.08113694 -0.10608233 -0.11095548 0.0027975074 -0.02146929 -0.05872752 0.029875688 0.055838253 0.114232175 -0.02812806 0.049885985 0.011776699 0.07558938 -0.10626185 -0.10131803 -0.012256213 0.07961154 -0.037059706 -0.07067612 -0.10202822 0.0635021 -0.101426944 -0.024077222 -0.061666686 0.103814706 -0.09254246 -0.11093759 0.0933529 -0.043306965 -0.029068025 -0.052086614 0.035945177 -0.105838336 -0.096214406 -0.12279609 0.055620097 0.106605746 0.006251386 0.07681148 -0.07625378 -0.07542104 -0.04536832 -0.10449716 0.09704501 -0.043188024 -0.037483856 0.05527726 -0.12411386 -0.11703735 0.11069444 -0.027977785 0.07969408 0.02279577 0.015270343 -0.06833946 -0.024775174 -0.056842014 -0.056477208 -0.021163156 -0.0043072756 0.0286056 -0.060802493 0.052105088 0.033221677 -0.05713502 -0.098003484 -0.05441463 -0.051190574 0.07322028 0.024158597 0.026085723 0.0828899 -0.08434154 -0.061371215 0.059450705 0.013678751 0.049855195 0.028225092 -0.00023929836 0.121047504 -0.012505939 -0.090373084 -0.018086277 -0.019895632 -0.027102536 0.04171144 0.10565608 -0.009178113 0.10478395 -0.0651539 -0.06598572 -0.10821062 0.0821396 0.021154508 -0.06002644 -0.09286907 0.04196839 -0.096301846 0.12924932 -0.084809475 0.042361528 0.050791185 -0.06357353 -0.073017925 -0.05151072 -0.090268925
کرد -0.042095967 -0.08260593 0.06945585 -0.09755661 -0.05150422 0.081245005 -0.02637948 -0.07011307 -0.087210424 0.06890635 0.07297344 -0.009509487 0.081485935 0.032460645 0.08548682 0.015693136 -0.020286174 -0.11380218 0.069780804 0.041505974 -0.11772346 -0.07178046 -0.0843184 0.027458059 -0.037568066 0.0046926513 -0.00670393 0.03844715 0.013583447 0.041048188 -0.052225586 -0.013881615 -0.0148145715 -0.084298 0.033969846 0.0136447875 -0.0960404 -0.09932645 0.09159105 0.04738916 0.10755014 0.06688978 -0.111292645 -0.0056029498 0.026645351 0.04791002 0.05709946 -0.081523575 0.012109808 0.11101045 0.052414544 0.07899974 0.079876974 0.06259545 0.113197476 0.019761864 -0.05925886 0.119018756 -0.08029351 0.113630146 0.098012164 -0.06492021 -0.020367583 -0.07211891 -0.095648095 -0.024481274 0.031064188 0.034416225 0.05369231 -0.04442736 -0.013949179 0.015992213 0.053915124 -0.057620376 -0.10027621 -0.010821831 0.060160454 -0.003737201 -0.057664365 0.098677956 0.1018345 0.11367283 0.05039323 -0.047881525 0.11830319 0.0016731562 -0.010320063 0.08725516 -0.05412233 -0.07488151 -0.10020349 0.08808004 -0.026102206 -0.024265587 0.122178614 -0.03686885 0.005455861 -0.0048786844 0.031013627 -0.08803953 -0.09180211 0.11996669 -0.03830964 -0.074508965 0.096539475 -0.05727152 0.008374213 -0.0040262537 -0.102574594 0.091815144 0.10482261 0.0962529 -0.07257447 0.09878238 0.03976653 -0.07134465 -0.0028866695 0.04499373 -0.06669482 -0.10903863 0.0546926 -0.062184628 -0.070920825 -0.018450884 0.102216855 -0.028149094 0.056191597 -0.078240216 0.10208302 -0.09300155 -0.039200246 0.006709902 -0.04992874 0.029015668 -0.016866386 -0.04943839 -0.04298661 0.071306385 -0.11582537 -0.012604336 -0.026653439 0.015643258 -0.042249095 -0.05737173 -0.091404 -0.10072187 -0.00074842013 0.12255072 0.09372885 -0.11119448 -0.07782815 -0.108697675 -0.09401568 -0.08367195 -0.024872432 0.08944291 -0.034053765 -0.074428394 0.038140327 0.091951616 0.057027493 0.10598442 0.08126447 -0.08830083 -0.076669835 0.11585697 -0.07996533 0.100501366 0.006888529 0.030034482 0.050791968 0.06940427 -0.018855348 -0.005417797 0.10801533 0.076072715 -0.07939617 0.10453867 -0.12263303 -0.011008066 0.08874084 -0.058123324 -0.081815146 0.09093398 -0.05144502 -0.048371684 0.0047338256 -0.08032013 0.049344 -0.08072473 0.09557422 0.02048471 -0.08184559 0.018819038 -0.0651542 0.11596475 -0.0923372 -0.04902223 -0.05489357 0.032782495
دختر 0.080646835 -0.12853503 -0.025676643 0.06938759 0.051393427 -0.06024754 0.11295469 -0.054053977 -0.06614653 -0.10545131 0.028428117 0.0011678083 0.107318744 -0.018507969 -0.12742779 -0.04024643 0.018957155 0.075064726 0.06883923 0.06466648 0.014403785 -0.03499005 0.07275079 -0.08119064 -0.09245151 5.3166234e-05 -0.0779761 0.03970935 -0.1128419 -0.08688892 0.001213057 0.004574577 -0.06953634 0.09968301 -0.075320385 -0.030992867 -0.12195299 -0.08672227 -0.09533582 0.012018673 -0.024954662 -0.073453754 -0.0064367526 0.029071001 0.002262132 0.09662649 0.009690518 0.09090627 -0.09116722 -0.04999927 -0.0699198 0.016796187 -0.111644305 0.11615914 0.057704836 -0.08052546 -0.026202787 0.09876988 0.07286975 0.0070969607 -0.046109866 0.08920106 0.02296458 0.026992483 0.005136234 -0.0799646 -0.11679768 0.042476103 -0.045598563 0.01084386 0.007562455 -0.043502122 -0.025076468 0.10044529 0.03388327 0.06848098 0.10631465 -0.021859959 0.050262813 -0.121296704 0.024118606 0.12216179 -0.1021019 -0.026879823 -0.08828353 0.11439477 0.05099424 -0.10881695 -0.11231899 0.08475246 0.048635818 0.12317138 0.051671267 0.054638907 0.025091376 0.05956748 0.05004623 -0.014163404 -0.044412684 -0.04763638 -0.004786766 0.077895105 0.052026335 -0.079917975 0.02072528 -0.051988628 0.090345405 -0.04590295 -0.07615128 -0.0775614 0.068889596 0.023941182 0.11053449 -0.009831685 0.021810783 -0.04107987 0.02183487 -0.040684674 0.07681946 -0.0875947 0.09900939 0.10181996 -0.10687251 -0.08280381 0.050014768 0.053198893 0.019451944 -0.0006373487 0.030235542 0.076669574 -0.11307135 0.081544906 0.011902572 0.09441506 0.08732174 0.039476737 -0.07989024 -0.0351091 0.009924407 -0.121149875 0.10922552 -0.11621678 -0.03634344 0.0927865 0.07918438 -0.021643009 0.07995404 0.011648454 0.11748447 -0.025277201 0.007766067 -0.064153515 0.07253567 -0.04743236 -0.08214551 -0.013918707 -0.10446709 -0.07198366 0.11307664 0.05012812 0.035667915 -0.0343091 -0.07685592 -0.061850313 0.024355246 0.10939825 0.02712286 0.03217119 0.059320815 0.09001377 0.019174399 -0.007878896 -0.0897491 0.01929021 0.068566084 0.025212273 -0.04546518 -0.004784144 0.08832713 -0.020121098 0.11166235 0.08173168 -0.107610844 0.111306414 0.058937274 -0.06332314 -0.09478968 0.051084414 0.09906994 -0.12012263 -0.07634898 0.06568171 0.09154821 -0.04632557 0.09484777 -0.016939104 -0.043055512 -0.072652414 0.015640242 0.090345986
یک -0.086360596 0.08024259 -0.024699423 -0.0637287 -0.0015540082 0.013238253 -0.049562886 0.12530021 0.049144473 0.068152666 0.0036134843 -0.009994052 0.06009344 -0.09828004 -0.09856985 -0.07700348 0.12150427 0.05124563 0.036052685 -0.10116585 -0.048096515 -0.100333996 -0.11664938 -0.053430814 -0.10525464 0.030370336 -0.11702695 -0.028860701 -0.021123787 -0.020684615 -0.10724895 0.100628965 -0.02184576 0.015799748 -0.08791713 -0.08726518 -0.08365903 -0.113963686 -0.022488859 0.1161148 -0.07672879 -0.017840635 0.057539504 0.08604833 -0.05786687 -0.07997279 0.024688914 0.08617628 0.040518362 0.06672439 -0.043249834 0.104578994 0.031167671 0.113249004 -0.06282161 0.0028279645 -0.052529834 0.120048575 -0.0785896 0.092052214 -0.07995371 -0.1092343 0.04430316 0.11342574 -0.03304606 -0.11334912 -0.06415537 -0.101830594 -0.08450277 0.09689246 -0.097694226 -0.06535134 -0.063203186 0.044487074 -0.031235103 -0.06909282 0.06870218 0.07940906 0.08398991 -0.10751833 -0.08129629 -0.07255054 0.014648625 0.003306936 -0.0040242644 0.10195557 -0.054042183 -0.10007883 -0.081103705 0.02966161 -0.03002536 0.045317028 -0.06169011 -0.05424549 -0.067158565 0.0014009781 0.04436405 0.11716853 -0.054877445 0.008810181 -0.112898946 -0.064782426 -0.08222523 -0.016653778 0.043556973 -0.03607131 0.03512961 0.09111768 0.05965214 -0.08249982 -0.0042678094 0.036646806 0.04259284 -0.08288059 -0.08369306 -0.011428368 -0.03923101 0.0996875 0.07233822 0.08689321 0.037124727 0.03194662 -0.09712668 0.0552329 0.057798967 0.09270067 -0.069774814 -0.04139039 0.0734019 0.101087004 0.0857349 0.042810533 0.10848642 0.0172767 -0.109523825 -0.0015711864 -0.019602558 0.034137733 0.037982333 -0.11242783 -0.008547261 0.06421061 -0.11291324 0.06925773 0.022146877 -0.07731901 -0.066926144 -0.11469988 -0.11420528 0.06555322 -0.12488148 0.09981223 0.017389584 -0.08021317 -0.050075237 -0.039050117 0.006640202 -0.043393373 -0.10259991 0.004460834 0.12262151 -0.07093081 -0.010382869 -0.0028949825 -0.07208009 0.035524726 -0.04701752 0.101114504 -0.05155783 0.102516025 -0.012594493 0.046411257 -0.027445065 -0.06286982 0.0026200064 0.015595167 0.0044045267 0.0040102205 0.001449834 0.039388265 0.040425956 0.058066085 0.09846169 0.12177671 0.07510935 -0.01448874 -0.031663913 0.022227518 0.04982064 -0.023367694 -0.101316586 0.016541159 -0.071949035 0.015206012 -0.09977261 0.026423832 0.088032335 -0.098234035 -0.06344008 -0.10186017
جوانان -0.036820978 -0.11071545 -0.0694349 -0.11941866 -0.0057305046 0.009389891 -0.073720105 0.09517406 -0.06609862 -0.10121234 0.07989055 -0.06805425 -0.057027057 0.039532833 -0.07777432 -0.00721681 0.11630038 0.014042556 0.07321454 0.10127757 -0.020098057 0.11436803 -0.10337631 0.07984615 0.018552758 -0.0982626 -0.008411929 -0.08400205 -0.05285807 -0.025303375 0.05682896 0.009027877 0.092317194 0.07874295 -0.0666396 -0.029302642 0.070994765 -0.016319996 0.019781692 0.03550694 -0.07259466 0.08798505 -0.0754826 0.11579077 -0.083695866 0.03730891 -0.09073439 -0.07600542 -0.0031683042 0.062244214 0.00057668466 -0.016130183 -0.07587384 0.09878308 -0.09932185 -0.08379982 -0.058471065 0.09914759 0.050293107 0.07214984 -0.060914 -0.0025291233 0.07374914 0.10929789 0.09730193 -0.08938548 0.099888675 0.0010901522 0.08767386 -0.076476775 0.0024180452 0.01238808 0.084595084 -0.07986101 -0.029511586 -0.0054131243 0.05433401 -0.043848444 -0.011060324 0.056768242 0.05221812 0.08505687 0.07696506 -0.0062043923 0.08502315 -0.08603853 -0.0570872 0.03797507 0.052474923 0.11199239 0.033233356 -0.06810935 -0.113361135 -0.033632647 -0.0875615 0.08212475 -0.0630046 -0.072083525 -0.09530223 0.110855445 0.09274377 -0.096964955 0.1006657 -0.08203095 -0.015207561 -0.073293075 -0.049061142 -0.09796997 0.0071000103 -0.043192532 0.0606042 -0.113266975 -0.06007371 0.043363083 -0.013593661 0.09792213 -0.072418265 -0.101696715 -0.099644385 -0.0023107873 0.008286454 0.09553032 -0.10186127 0.06027796 0.10673255 0.03970243 0.034085713 -0.030868176 -0.03112971 0.088061824 -0.100982286 0.053983938 0.054474976 -0.0027030823 -0.11200146 -0.082876414 -0.073742315 0.058016285 -0.069879286 0.029349724 0.007994998 -0.10184732 -0.06478469 -0.09678418 -0.11524315 0.09703444 0.082728915 0.017946787 0.04521752 0.04575744 -0.07694501 0.093155295 0.087230496 -0.052716654 0.008151782 -0.0651751 -0.06601236 -0.010784031 -0.039378576 -0.06982478 -0.007563941 0.072455026 -0.024957975 -0.072454065 -0.0798725 -0.022948474 0.04234782 -0.02973463 -0.0022089581 -0.08336955 0.08751403 -0.06475592 0.07608342 0.0483247 0.054133512 -0.08436209 0.015143346 0.10704368 -0.08791594 -0.03616938 0.0133348815 0.033800557 0.11144046 -0.018792817 -0.117395796 -0.008505374 0.022894382 0.024295267 0.029747844 -0.08092116 0.11080889 -0.113591716 -0.097204015 0.10022884 -0.057054512 0.036642026 0.06168946 -0.021975294 -0.10356954 -0.083980314
یونانی 0.03345933 -0.07333711 0.071304746 0.035680246 -0.09830834 0.07852813 -0.026351254 0.022892714 0.08150871 -0.109768644 -0.0641575 0.09875558 0.0034429813 -0.051642895 -0.05675556 -0.10793658 0.046229646 -0.0050223833 0.015850537 -0.10968235 0.04685393 -0.018096538 0.004058862 0.08352622 0.024880989 0.099916704 -0.06273981 -0.046441387 0.104855716 0.097151294 0.08659297 -0.017079411 0.027097194 0.026439106 -0.04956427 0.10344403 0.09652921 0.014963924 -0.06927234 0.08374912 0.098094724 -0.0001478441 -0.087695904 -0.081128776 0.102712475 0.059931893 0.06782404 0.003168147 -0.0856652 0.004698768 0.0258722 0.06564571 0.03343781 -0.03156956 -0.12324576 0.10927451 -0.01954192 0.10867635 0.0092445025 -0.113071956 0.053247735 0.00039906023 -0.041225005 0.01778878 -0.04247317 -0.030067578 -0.006778334 -0.107835814 0.08786126 -0.021360494 0.028784567 0.0041973568 0.055687334 -0.07021352 0.09292291 0.013361381 0.12093045 -0.08705301 -0.029217552 -0.0012237396 0.0565626 -0.09928737 0.045628402 -0.065254875 0.09826472 -0.003068614 0.07794608 -0.060908124 -0.017330635 0.05501528 -0.11709907 0.10874522 -0.02927613 -0.045976367 -0.063327454 -0.08943572 0.11336612 -0.10522009 -0.015881205 0.114688985 -0.11590935 -0.0382023 -0.09268912 -0.030412937 -0.1093203 -0.1271637 -0.00020911737 -0.08725261 -0.0626456 0.07814617 0.08835418 0.074696265 -0.059839446 0.05510189 -0.020950973 -0.030147532 -0.0019291952 0.13915846 -0.019930037 0.09710296 0.08874793 0.11144669 -0.089138426 -0.0017217892 -0.057604942 -0.022279596 0.11139548 0.0033948568 -0.10198506 0.036721718 0.063738644 0.023687715 0.07075985 -0.07467906 0.03423935 0.05417052 -0.050775524 -0.12715618 0.047812272 0.11833374 -0.071655735 0.10965215 -0.031502783 -0.030658284 -0.086775765 -0.11600491 -0.003118646 0.053232126 -0.026176745 -0.072260655 0.044649035 -0.11934734 0.08566405 -0.037824545 -0.07314645 -0.0137381395 0.07373347 -0.048587717 -0.040414475 0.070609204 0.085935175 -0.07532903 0.10788111 0.055412922 0.0031877204 0.0953135 -0.1040532 -0.052885536 0.046293292 -0.095052876 0.01918069 0.068133675 0.118130885 0.10606919 0.08263755 -0.07055141 -0.0533611 -0.11960832 -0.03180996 -0.05349456 0.0076507432 -0.03697031 -0.004410559 -0.0596279 0.03688009 0.041521493 0.07225309 0.048068818 0.10611637 -0.052074928 -0.060792368 0.0073251026 -0.014842833 -0.11349443 -0.0046307547 -0.0018082215 -0.07923649 -0.041326407 0.08543492 0.07829606
وی -0.07130857 -0.03490796 -0.103374384 0.03815067 0.0952173 -0.060082033 -0.018555224 0.080449924 -0.049226977 0.060334977 -0.08977973 -0.0004680279 -0.040659454 0.06067692 0.010186373 -0.043769065 -0.10136037 -0.065822534 0.008740506 0.09319972 0.047205348 0.092672095 -0.0009354606 -0.105290726 -0.08881212 -0.07172091 0.051011685 0.0541711 0.049324013 0.07028537 0.06725666 -0.007526306 0.11086225 0.031147197 0.030238084 -0.111242205 -0.04559772 0.050431423 0.08469443 0.020393973 0.04574828 -0.010754863 -0.050473027 -0.050125457 -0.11698075 -0.02677911 0.065028764 -0.10637875 0.101315744 -0.08943871 0.04885685 -0.07816945 0.09814238 -0.031122865 0.008014408 -0.07012622 0.07942413 -0.0746018 0.10191426 -0.10141549 0.10308986 0.09894048 0.033878334 -0.1069843 -0.06199202 0.013035471 -0.109449595 -0.062065635 -0.061525006 -0.052257318 -0.03266073 -0.050378826 0.035535946 -0.015926162 0.06699238 -0.07792875 -0.06313158 -0.094420694 0.09608573 0.086293995 0.057967044 0.088436864 -0.08912723 -0.119432196 0.0778771 -0.019115651 -0.002936619 0.09546305 -0.06378555 -0.05429683 -0.06113207 0.116462715 -0.065036096 -0.008544113 -0.036720525 0.11204001 0.08754471 0.07381287 0.07832824 -0.023974026 0.103618205 -0.0025229282 -0.010615065 -0.0062934877 0.026488617 -0.0077901967 0.09744398 0.11580683 0.049858533 -0.11580833 -0.05168975 -0.0782599 0.04693764 -0.08749285 0.029929193 -0.013304917 0.028653136 0.006830999 0.061938994 -0.042824868 0.026102273 0.1020339 0.011159463 0.051385242 -0.028552447 0.11670494 0.032917086 -0.10448481 0.05505404 0.032776613 -0.027551105 -0.053135324 -0.044753544 -0.07952373 -0.10770417 -0.009915052 -0.0771316 -0.111430526 0.022322899 0.06652385 0.055665974 0.05269723 -0.082827464 -0.100014485 -0.101058885 0.08101775 -0.099085 -0.008429163 0.003831804 -0.0047291704 -0.08417381 -0.05611821 -0.07237881 -0.012679766 -0.10803309 -0.10174758 0.049347226 -0.021258598 0.05544931 0.038115237 0.10470215 -0.01702577 0.12386649 -0.09599692 0.09710264 0.09333904 0.008093116 -0.022140136 0.0106136985 -0.060853623 -0.11954401 0.0053277886 0.1088818 -0.07505157 -0.10392629 -0.041878413 -0.04577697 -0.07696503 -0.11193573 -0.07028153 0.09688518 0.054981925 -0.11556021 -0.114556685 0.038989186 -0.06450846 0.08895027 0.029878125 -0.0016499513 -0.09683737 0.07350012 0.06369626 0.03571229 0.10147297 0.033534974 0.08908496 0.08304852 -0.042880267 0.07417786 0.0145468945
پیدا 0.035909258 0.016474396 -0.007973461 -0.077493005 -0.05293284 0.103409074 0.11642695 0.0004903059 -0.10940781 0.078504786 0.007087566 0.07605017 0.024448104 -0.057285007 -0.050322488 -0.06177273 -0.031712927 0.0012361618 -0.030800048 0.07120469 -0.11850307 -0.028791739 -0.026256707 0.080841616 0.10740444 -0.10846726 0.09732729 -0.06926125 0.112426534 0.03065629 -0.060275957 0.12122888 -0.0010548739 -0.0724001 -0.028735591 -0.079846375 -0.006981285 -0.015096062 -0.043738965 -0.09377991 -0.031276904 0.008607842 -0.06603518 0.038276583 0.10326145 -0.055553727 0.06655908 -0.0044429293 -0.048659485 0.044361703 0.0938044 0.08867328 0.022626238 0.035830874 0.10724232 -0.017424567 -0.06648873 -0.014226167 0.10836257 -0.014869117 0.06890065 0.09941649 -0.07895116 0.0732548 0.0082635665 0.08613255 0.10354524 -0.029669087 0.07620509 0.07948345 0.1101101 -0.120178044 -0.050191533 0.046459645 -0.023347815 -0.048333548 -0.0070448644 -0.08068396 0.029466359 -0.11803542 0.11251382 -0.031069813 0.014320575 -0.06795666 0.039282586 0.006154146 -0.06647062 0.09794478 -0.036539473 -0.047149133 0.091295935 0.043025758 0.043400936 -0.016027529 -0.01339 -0.11019958 0.053574037 -0.055920534 -0.084506705 0.05336166 -0.06089973 0.09834352 -0.10650338 -0.06878908 0.06777214 -0.030289283 -0.032283798 -0.01602852 -0.09651733 -0.0014568479 0.09697976 0.002894226 -0.08525142 0.10470261 -0.08062006 0.01430068 0.07293895 -0.025988886 0.11369817 0.11199642 -0.07260491 0.079158664 0.06113673 -0.03532363 0.0020410994 -0.004706213 0.08079481 0.07336899 -0.10000661 -0.12051555 -0.030506883 -0.0298321 0.08727127 0.103980295 -0.08682372 -0.05495115 0.10647642 -0.025954679 0.08638459 -0.03353523 0.0057372944 -0.11325497 -0.03663276 -0.092274226 -0.101847365 0.06745902 0.030411405 0.082900725 -0.109421395 0.062289085 0.01436006 0.070429526 -0.050437495 0.042194035 -0.028082147 0.103916675 0.05641204 -0.07766954 -0.021362383 0.04304351 -0.088188745 0.056451973 0.028530728 -0.081735566 0.095348425 0.098799735 0.06470829 0.11259588 -0.035675205 -0.082545735 -0.019086227 0.09888056 0.044961806 0.013107196 0.031011095 0.0883208 -0.09915344 -0.084379576 0.09672005 0.08014395 -0.009782801 -0.07782723 0.045387458 0.0678913 0.05677617 0.12203749 0.05281045 0.06522749 -0.014169413 -0.014267354 -0.09022695 0.023228634 0.12222612 -0.054037854 -0.08637836 -0.08701369 -0.1141368 0.088458255 -0.09249355 0.08082709
حتی 0.04206538 0.052172046 0.054366257 -0.12529676 -0.034454685 -0.121450394 0.09250271 0.12702511 -0.0007575838 -0.019292135 0.07959349 0.10839846 0.10625775 -0.09873656 -0.061897695 -0.040932775 0.04407094 0.040618554 0.0049878443 -0.030808399 -0.027754432 0.10386672 -0.0848268 0.044567276 -0.006539117 -0.04308733 0.027245319 -0.017391171 -0.054707374 0.08685756 0.10675192 0.10085313 -0.106843546 0.039811816 -0.09777887 -0.0764204 -0.08019637 0.10281403 0.05132065 -0.05046271 -0.090737864 -0.084333144 -0.07018086 0.026044438 -0.012229474 0.1157807 -0.06346555 0.039855655 -0.010851024 0.09991895 0.10949466 0.038262773 0.01995856 0.10797624 -0.11521898 -0.07323303 -0.10673624 0.10478168 -0.100811005 -0.017219678 0.032985255 0.0668802 0.02258967 0.083259165 -0.048129894 -0.07549397 -0.076383196 -0.03955469 -0.12285769 0.0066439216 -0.09241386 -0.028461674 -0.096651986 -0.057312466 -0.06722955 -0.006941951 0.08804194 -0.107541546 -0.0036210795 -0.048204657 0.092006095 0.07888563 -0.069331974 -0.04578635 0.078680314 0.10066882 0.0071349614 -0.041499987 -0.10042772 0.07660404 -0.04522206 -0.030264314 -0.12486256 0.091996275 -0.09115504 0.02405983 0.10927688 0.10611913 0.099326275 -0.029512059 0.026046693 0.12913379 -0.011020416 -0.05727596 -0.011944618 -0.0049561565 0.08850706 -0.02902556 0.082651384 0.06929931 -0.109020054 -0.040467646 0.023858702 -0.027950037 0.06941625 0.111484356 -0.085930936 0.067636825 0.124028236 -0.015820585 -0.00022718427 -0.10159633 0.04560669 -0.045580562 -0.043679707 0.041631214 0.044002246 -0.12981512 -0.04837906 -0.062398598 0.045450866 0.11959668 0.0033532802 0.015047446 -0.052351058 -0.018157993 0.05780989 0.04713383 0.041134235 -0.05229931 -0.08024392 -0.04743999 0.06686708 0.02665418 -0.06900998 -0.09960589 0.020777456 0.09705048 0.044225313 -0.0035552073 -0.038203657 0.023968572 0.07655681 -0.09578148 -0.060356367 -0.041159615 -0.102999836 -0.04735469 0.08379047 0.009279031 0.07018514 -0.04981524 0.052229077 0.116950095 0.09233879 -0.091397345 0.050972205 -0.066274166 0.03396726 0.016530575 -0.03338204 0.09895324 -0.053160988 -0.043644235 0.06822546 -0.0921246 0.006189388 0.0866297 -0.048687667 -0.007078793 -0.00820962 0.07497602 0.016143348 -0.088054396 -0.078000955 -0.0008215542 -0.047202278 0.04707182 -0.037493553 -0.12335943 -0.038921915 -0.08114083 0.12620682 -0.11188188 0.10153287 -0.011202601 0.006815724 0.04968331 -0.0007261515 0.033796616
شود 0.047909115 -0.011361331 -0.06820675 0.035778288 -0.11059336 -0.09048078 0.10246396 0.056309596 0.04388166 -0.0032842606 -0.09008552 0.11313192 0.02416414 -0.0058447407 0.067530714 0.06469735 0.10443816 0.05379653 0.11075037 -0.04175163 -0.080847606 0.09213615 0.087784424 0.009055219 0.06308536 0.09126557 -0.0851767 -0.09397656 -0.091592856 0.096617825 0.10804397 0.07696357 -0.08262187 -0.059010793 0.0044453074 -0.008563719 0.045008905 -0.11779662 -0.08101394 -0.014247462 0.12561037 0.047240783 -0.0017413796 -0.11464638 -0.116322905 -0.10528266 -0.039965123 0.073993966 0.051581 0.10098714 -0.05923512 -0.0016993535 -0.111770056 0.065088645 0.019669943 0.086139314 0.06616467 -0.004054897 0.06865174 0.027164748 -0.032028936 -0.092501804 0.0494236 -0.085048534 -0.06632305 -0.101062305 0.114453785 0.112664156 -0.0930653 -0.031599805 -0.112764336 0.016899474 0.09062677 -0.09660079 0.06675924 -0.043348294 -0.056901913 0.103125945 0.05017826 0.084849425 0.07327377 -0.03333381 0.11989568 0.09756847 0.08863773 -0.029714186 -0.11118398 -0.007823013 0.030222341 0.024502426 -0.064276956 0.026388306 0.09085427 0.1188733 -0.09469742 0.020276416 0.06084452 0.053221103 -0.089276545 -0.046091657 -0.07261002 -0.013784574 -0.023534153 -0.09795607 0.04523111 -0.0025675811 -0.11134506 0.071748 0.0025767833 -0.09350499 0.008116248 0.07621733 -0.012418414 0.011583672 0.090839185 0.020633355 0.017122352 -0.055956606 -0.05202197 -0.05650717 0.05999084 0.027807532 0.040456936 -0.044516686 0.10907195 0.07114549 0.07543902 0.0104514975 0.11495967 -0.10196712 0.05562989 0.09079954 0.0655615 0.033792008 0.062422764 0.004243806 0.065907225 0.026965562 -0.085627235 0.02772224 0.109430194 0.023410045 0.08765733 0.018675717 0.087143846 0.05668655 0.090859674 -0.04148187 0.021608926 0.049967483 -0.11782076 -0.11023046 -0.012036666 0.04643915 -0.110423915 0.051718246 0.041117188 0.069165625 -0.027039928 0.063749805 0.04045161 0.0633235 -0.06700207 -0.016435295 0.09195417 -0.07309405 -0.043485507 0.032865945 -0.09864104 -0.015332647 -0.06677789 0.00076334015 0.09583964 -0.022039419 0.03783236 -0.08760463 -0.058861617 -0.057459086 -0.016882105 0.00090872025 0.06854672 0.036124885 0.021148782 -0.1119635 0.069677636 0.07470161 -0.0003786518 0.11635327 -0.091208845 -0.04319228 -0.061230153 0.013334988 0.07465209 0.10478999 0.111952595 -0.0040971045 -0.08327534 0.0076581584 -0.10155941 0.04719708
ولی 0.086928196 0.021022981 0.057243157 0.020876365 0.116804294 0.05776917 0.106478736 0.09282434 -0.09840527 -0.040380917 -0.061355982 0.004396948 -0.039457 0.07077314 -0.11393738 -0.06663364 0.032293975 -0.03522492 0.118206754 0.10579924 0.06833185 0.005028659 -0.021367678 -0.06701952 0.07888268 0.044035174 -0.08523928 -0.008081856 -0.0074483277 -0.056217715 0.0034081705 0.076726034 -0.07001095 -0.019236652 0.016601238 -0.027616505 -5.815846e-05 -0.07344597 0.041278463 0.0028074596 -0.0489277 -0.11235283 0.0053257337 0.11052811 0.09944568 0.044058684 0.03422628 0.082651414 0.10118918 0.026755137 -0.10445081 -0.047063056 0.032850318 -0.05625225 -0.0337716 -0.0725086 0.10267722 0.0143962065 0.05669323 0.09906717 -0.021482486 -0.085921325 -0.085706405 -0.074237816 -0.03514658 0.019943045 0.08313879 -0.044378262 0.08289182 0.05986585 -0.099626206 0.011086817 0.04782092 0.09611491 0.055550408 0.033250332 0.074562125 0.019072885 -0.059353616 -0.026896512 0.0043699425 0.10918909 -0.04006417 0.05368241 0.08054605 0.10246851 -0.08871188 -0.03929493 -0.088050514 0.10573452 -0.0619951 0.12486568 0.01527703 -0.045273967 -0.025072552 0.012354368 0.116775386 -0.00027120067 -0.093717314 -0.12072782 -0.031771623 0.046425547 -0.08969152 -0.04882962 0.054426614 -0.12558503 -0.08020174 -0.06378298 -0.08611197 0.08655478 0.077427596 0.082491554 -0.0947292 0.10000462 -0.0032454412 0.06841998 0.03863589 0.03315559 -0.09027554 -0.07506607 0.019932792 -0.003342177 0.0004787891 0.057317212 0.07607458 0.076202706 0.0055656442 0.038282182 -0.08303182 0.09131551 -0.069122955 0.06821205 -0.09752168 -0.05602362 0.008058118 -0.09344563 0.049718544 -0.004405276 -0.12405986 -0.06433426 0.03009001 -0.07482771 -0.09486695 -0.049367078 -0.10066877 -0.08765596 0.08996402 0.01446944 -0.07780697 -0.028048372 -0.08914579 -0.12384357 -0.0857674 -0.07528334 0.07134148 0.086834915 -0.09084822 0.055500533 0.081318855 0.028597573 0.051208135 -0.114973344 0.039773077 0.11398276 0.01085422 0.0132680815 0.090749785 -0.047044896 -0.07588575 -0.055203512 0.032025907 -0.06986071 -0.004952234 0.049921762 0.017835481 -0.012244911 -0.037723523 0.080797866 -0.11478002 -0.10570716 0.019274145 0.10269982 -0.1040284 -0.103544034 0.045699652 0.12789972 -0.10527872 0.08218001 0.089379765 -0.015925558 -0.054696616 -0.089739524 0.10020351 -0.05298959 0.058731623 0.08831371 0.02856556 0.07991954 -0.029435955 0.0851126
دیگر -0.08578836 -0.09289554 0.099321686 0.11201707 0.10570468 0.02773971 0.0073170993 -0.07690977 -0.032929078 0.06784421 -0.098006405 -0.008321166 -0.10945812 0.019576093 -0.06331048 -0.05759336 -0.06999823 0.048899904 -0.10564921 -0.046497054 -0.07946085 0.013082826 0.0092135025 -0.09567322 0.12329338 0.07562502 -0.08167043 0.014368647 0.022787297 -0.0024231004 0.050568294 0.021510273 0.07789189 0.010744429 0.01806363 -0.08043691 0.027291372 0.027021933 -0.112129875 0.091464825 0.094643995 0.012377822 0.07207852 -0.070516825 -0.09158127 -0.10559419 0.07418333 -0.09851297 -0.019359784 -0.023202717 -0.02941216 -0.048571084 -0.054627776 -0.09936912 -0.041553292 0.028083382 -0.012253478 -0.040300764 0.038794298 0.095562816 0.0014428765 -0.093517624 -0.055558275 0.04904054 0.016739052 0.033011895 -0.09971869 0.119702116 0.101464204 0.07704237 -0.068158165 0.059519507 -0.0014725069 0.052005194 0.10956212 0.052218005 0.0059861923 -0.08045837 -0.0020684667 0.11329082 0.035977818 0.100508854 -0.10489149 -0.08931919 0.055454772 0.021126887 0.11043309 0.063110866 -0.12149089 0.07609045 -0.10730368 -0.024054503 0.091365814 -0.07444209 -0.06508556 0.029599125 0.061556946 0.102186374 0.08086817 0.09776963 -0.10441817 0.11219445 -0.06567059 -0.019996291 0.09215104 -0.00039571789 0.06579942 0.08927006 0.05393011 0.086404406 -0.08995877 0.038771372 0.12634414 -0.07890845 0.11664658 -0.07620051 -0.07230386 -0.015992252 -0.068931736 -0.029729422 0.11663434 0.07113043 -0.03360271 -0.116724595 -0.09549752 0.049359437 -0.051039714 -0.093376495 0.05286637 -0.029984377 -0.026706025 0.10375884 -0.11121659 0.0053491537 -0.10027107 0.031929404 -0.07138041 -0.023027109 0.04933886 -0.018884782 0.057909943 -0.088625215 0.0712399 0.015632117 -0.051442895 0.107490145 -0.0015892019 0.01164627 0.00517837 -0.09369565 -0.024771228 -0.08280505 0.0018470335 -0.074988246 -0.021923635 -0.10256087 0.016372947 -0.037043594 0.11778981 -0.081408836 -0.05457597 0.02909987 0.056506325 0.0075670793 -0.0766015 -0.008987344 -0.037192985 -0.027785359 0.10520702 -0.0038451261 -0.110044 0.08368361 0.12521583 0.022952607 -0.07096312 0.053087182 0.07493028 -0.004393972 -0.04183594 0.11556586 0.080771446 -0.10180331 0.011914465 0.05278306 0.02879065 -0.050484154 -0.07164954 -0.0357371 0.05735797 0.06361033 -0.0982138 0.0020548685 -0.07499536 -0.0941791 0.022317 0.011811686 -0.079455756 0.049661472 -0.119151354 0.025533888
اوضاع 0.11639477 -0.088988215 -0.047508337 -0.012477981 0.0738546 0.08812629 -0.027462617 0.102378555 0.09552078 -0.055403356 -0.053475432 0.043843783 0.016964266 -0.087358706 0.048988577 -0.022663219 0.03478139 -0.01812211 -0.09380216 0.07917176 0.09012633 0.06669773 -0.08877187 -0.06100277 0.029568262 -0.022521775 0.070702575 0.08001239 -0.07675148 0.015854979 0.10708729 0.057685204 -0.1173123 0.048119638 -0.09565905 0.08414585 0.083157904 -0.07521709 -0.0572014 0.09400352 0.04160812 -0.067975074 0.03386221 -0.096794516 -0.021845367 -0.025720473 0.013290662 0.06381831 -0.010413652 -0.06977859 -0.086074844 0.048357677 0.0072298814 0.09877197 0.072579 -0.06661966 0.00741579 0.098731875 -0.08893537 -0.10275106 -0.04814077 -0.008111406 -0.109528586 0.07937585 0.109468505 0.061061054 -0.028513925 -0.10402084 -0.104367614 -0.03173581 0.09436393 0.0054046093 0.015194886 0.038215917 0.08284442 0.07292565 0.010832224 -0.08556334 -0.11239039 0.06252786 -0.109924845 0.013515626 0.10098726 0.09499813 -0.09836965 -0.024452737 -0.043754622 -0.019293426 -0.04293871 0.07451514 -0.105591066 -0.08394012 -0.11150352 0.10422548 -0.05085642 0.065921135 -0.06653799 0.019055825 -0.0739539 0.10176579 -0.008792542 -0.043750823 -0.07164434 0.083348975 0.041796893 -0.103914835 0.053692475 0.110862695 -0.057562675 -0.09100642 -0.0859686 -0.11162152 0.005983563 -0.09889229 0.038886245 -0.08253517 0.018676506 -0.00011781609 -0.054078676 0.09985413 0.019763345 -0.070009634 -0.020412186 0.022246998 0.09316958 -0.0017626154 0.06043925 0.013470565 0.026383556 -0.034627732 0.067116626 -0.012532119 -0.08571166 -0.027132975 -0.053150956 0.08789103 0.085072964 0.028816607 -0.08670505 0.06948404 0.04447083 -0.061273832 -0.0012708748 0.053413022 -0.103082664 -0.09452765 -0.07688716 0.10184839 0.09247295 0.09543466 -0.056442834 0.0691858 -0.07887593 0.092354365 -0.07402036 0.03281664 0.08433149 -0.10139742 0.03508733 0.04179182 0.056552712 -0.012388786 0.099740446 0.041153308 -0.070339076 0.07007193 0.016455103 0.06346399 -0.09381638 0.043253075 0.09537862 0.09176547 0.11743237 -0.023900004 0.104295634 0.054863006 -0.022405738 0.053528856 -0.058032736 0.060887914 -0.0040901783 -0.09403953 -0.022309195 0.07889898 -0.08651484 0.030209573 0.05157072 0.07024981 0.11042578 -0.07559411 0.11043472 0.039739493 0.06997678 0.038492016 -0.09276845 -0.11040002 -0.03025277 -0.0065254024 -0.062556 0.09157229
رشته 0.10774253 -0.09132296 -0.079647474 -0.086526856 -0.055782698 -0.053680036 -0.08805229 0.06570634 -0.03734169 0.13270919 0.050376736 -0.07707457 0.014867446 0.099569015 -0.01853097 -0.06501938 -0.022739388 0.08682408 0.09638226 -0.033352498 0.08566746 -0.03484211 0.010492412 -0.0073253606 -0.041454278 0.06465732 -0.08681673 -0.11701428 0.11034498 -0.05478685 -0.102795474 -0.01802142 0.056078464 -0.03436885 -0.051765334 -0.007773226 -0.028070679 -0.08655712 0.11075313 0.051102012 -0.03477894 -0.024715547 -0.030206868 0.09803752 0.00022754654 -0.05979763 -0.0037537855 -0.024034321 -0.048399437 0.09948535 -0.109482646 0.09282775 -0.013297929 0.109083444 -0.09795585 0.035671957 0.068713136 0.020250497 0.10817428 0.041001897 -0.0755994 0.010937741 -0.12211795 0.10297284 0.04050656 -0.044645786 -0.07222226 0.10286697 -0.029603338 -0.05395955 -0.11348022 -0.028059056 -0.015945787 -0.07414693 -0.0359906 0.04363107 0.10165434 -0.063805714 -0.02950976 0.028810706 -0.041320086 -0.1182543 0.059055407 0.057402752 0.105054386 0.041567195 0.058890834 -0.1173775 0.11000377 -0.11550585 -0.1052705 0.0188703 0.08383927 -0.08160671 0.11453167 -0.05750326 -0.0040394017 -0.045592256 0.0918294 -0.027062945 -0.08323337 0.108874306 0.022846276 0.031503208 -0.027322594 -0.11351794 -0.10735388 0.090671204 -0.11885553 0.0548355 0.053166777 0.008291112 0.09042133 -0.08704727 -0.08691073 0.101737045 0.04106786 -0.036459845 -0.08961344 -0.12199133 -0.093129426 0.12187674 0.063516855 -0.078276515 0.043340784 0.04356463 0.04401653 -0.078981705 -0.08679541 -0.10388103 -0.07388781 -0.012149921 -0.050218735 -0.029345972 -0.0068693846 -0.055577975 0.10624485 -0.044106003 0.05931011 0.042923443 0.031374753 0.03729115 0.03560614 -0.082881995 0.0028529349 0.10979166 0.098622315 -0.07261925 0.03242597 -0.04526981 -0.041155655 -0.040435616 0.032454144 -0.103012435 0.07612786 0.009386922 0.077206396 -0.019267034 -0.02021586 -0.014720997 0.11675898 -0.10635447 0.11558009 0.020027865 0.0073626153 -0.048477456 0.04373011 0.116650835 0.09615853 -0.070310205 -0.025718272 0.07989273 0.049295705 0.0065223374 -0.0845408 0.042910974 0.048489705 0.092000745 0.029713187 0.08700274 -0.065375455 -0.049656525 0.0706298 0.022577126 -0.043012526 0.003992476 -0.07584262 -0.083020665 -0.04598761 -0.08397487 0.0284883 -0.07922402 -0.08185193 0.00011347666 -0.10995678 0.00048380694 -0.024455726 0.08853506 -0.045492295 -0.056154013
اضافه -0.02621284 -0.04119538 0.0913057 0.08644172 0.0687771 0.051607557 -0.058589425 0.054234073 -0.006401171 0.038318697 0.10983297 0.04070433 -0.109604396 0.12180666 0.016989565 0.016519805 0.03505456 -0.003777874 0.03189959 0.079497635 0.021390568 -0.031964332 -0.06993288 -0.10311314 0.05904616 0.079243116 0.031125922 0.027806649 -0.00050885923 -0.090139255 0.009983626 0.018005181 -0.0193505 0.035327327 0.08526663 -0.082847305 0.04034842 -0.034229927 -0.044781443 0.10980199 -0.014895151 -0.027591143 -0.027424812 0.11295904 -0.013718359 0.008626817 0.010009997 -0.0063083936 -0.024904624 -0.035008296 -0.05280872 0.103418425 -0.04153271 0.113469526 -0.013016482 0.02645195 -0.08187699 0.06906464 0.02231052 0.002238321 -0.016549302 -0.11678238 -0.12441343 0.051786013 -0.05392127 -0.10002703 -0.08238493 -0.10452072 0.098858744 0.09083315 -0.01518428 0.09092402 -0.12931783 0.0036203444 0.0057361126 -0.05102724 0.05817182 0.0640067 -0.020395441 0.041514248 -0.082561396 0.082085 0.12354436 0.076744564 0.06221598 0.11555788 -0.04294439 0.07329053 -0.123276435 -0.091400936 0.109512866 0.0517215 -0.00648218 0.050240003 0.08335977 0.11337521 0.12217231 0.043563347 -0.04646982 -0.0040413453 -0.10370222 -0.08245711 0.075655445 -0.035449035 0.057766672 -0.047383174 -0.078415796 -0.11022968 -0.11992687 -0.10352469 -0.1087326 0.012025228 0.11093711 0.003032557 0.05493505 0.021806324 -0.039267115 -0.034025703 -0.0481686 -0.060738176 -0.071374424 -0.101475425 0.0024238857 -0.08706268 0.0012692076 -0.017851412 0.063588895 0.07131678 -0.08216731 -0.015774943 -0.0013413831 -0.027919892 -0.0056850268 0.06595803 -0.120356895 0.05138264 0.056418527 0.107150584 -0.085370004 -0.052649155 -0.068111375 -0.012465832 -0.050907787 -0.10508971 0.007983398 -0.0828603 -0.03536608 0.021353962 -0.10818685 -0.036545068 0.0736903 -0.106237315 0.005393398 0.11075474 -0.06841132 -0.07465624 0.061017577 -0.020576918 0.079050735 0.08672376 -0.052229676 -0.09860165 -0.017265163 -0.039820824 0.098684184 -0.105216846 0.1180721 0.07844078 0.012815989 -0.019284945 -0.042020094 -0.010366359 -0.0069258017 -0.05658513 -0.038255386 -0.07465875 -0.063806236 0.0076084253 -0.028965913 -0.11367502 -0.11882433 0.11376075 -0.10805011 -0.0650931 -0.09993175 0.12751481 -0.11995223 -0.05689591 -0.116351716 -0.037248142 0.08828668 -0.00737292 0.019405056 -0.12184955 0.050688427 0.025559343 -0.021836393 0.050007958 -0.10514994 -0.10423213
دانشگاه 0.096843116 0.04768165 0.04694051 0.006122558 0.11514577 -0.0031613419 0.04393263 0.04900348 0.0425122 0.101873465 0.107264094 -0.036827195 -0.0337333 0.014018297 0.08642272 -0.049341228 0.04427038 0.06680092 0.02697594 0.07241956 -0.101288825 -0.062784836 -0.095450886 0.10742185 0.0740124 -0.073618494 -0.04939091 -0.023212945 0.10650691 -0.066380516 0.10985383 0.043399148 -0.04711011 0.08633959 0.042910617 0.023046477 -0.11616911 0.097743854 -0.032905813 -0.048044097 -0.0501295 0.00818534 0.092017025 0.023061484 -0.07346433 0.04788206 0.10244422 -0.036477678 0.013137567 -0.08079174 -0.055314507 0.040284038 0.055959255 0.10534712 0.079728425 -0.0915704 0.09827706 -0.10084122 -0.11550403 0.039267205 -0.077252164 0.108904295 0.0569441 0.08132507 -0.0042583146 -0.036121663 -0.061176687 0.07627737 0.0115411235 0.094520725 0.036302548 -0.091461554 -0.08752667 -0.02687583 -0.0026580924 -0.073262736 0.11047216 -0.054766387 -0.010051839 -0.09647517 -0.02508057 -0.034773286 0.01849487 -0.076085635 0.10316455 0.045185413 -0.083976515 0.07619632 0.05209755 0.05696512 -0.026220564 0.09896692 -0.117186576 0.032822307 -0.0878414 0.01977068 -0.03162734 0.03363338 0.084913656 0.07489511 -0.014341226 -0.108674206 0.070670776 -0.0112121 -0.03629377 0.040095866 -0.110880084 0.079755336 -0.07854843 -0.050671857 0.06869673 -0.1051815 -0.1002416 -0.02263481 -0.037231825 0.07393335 -0.04387082 0.051520668 -0.006966769 -0.067342915 0.09669492 0.0066429866 0.08400929 0.09004921 -0.08965803 -0.008236217 -0.009485788 -0.030022059 -0.048737463 -0.07861703 0.11336761 0.09512573 -0.0052328766 -0.049794074 0.07223869 0.07405477 -0.062228512 0.080814905 -0.119403556 0.09638849 0.02437478 -0.028299103 0.026417803 -0.016211083 -0.105581984 0.09453584 -0.08013 -0.0791471 -0.058756508 -0.0054212604 0.07301174 -0.039065853 0.0043797027 0.053531237 -0.017818987 -0.076035306 -0.067892075 0.024920031 -0.10368027 0.03661745 0.07657789 -0.109841526 -0.024026541 0.0218033 -0.043772142 0.098426305 -0.0067715673 0.06496158 0.1064442 -0.09317875 -0.098596714 0.06484268 0.09230382 -0.09684719 0.11156781 0.05026701 -0.027587013 0.06187866 -0.1162092 -0.0881342 -0.07783483 -0.015425129 -0.04577795 -0.05321664 -0.09165535 0.04572258 0.09595536 -0.11389164 0.10627802 -0.107544385 -0.07402972 -0.08026071 -0.102571234 -0.017631272 0.033298563 0.061063092 -0.10349293 0.056082297 -0.016170967 0.06632491
نیست 0.022675786 -0.015597543 -0.05075928 -0.09021956 -0.116120614 0.013104967 0.10440403 0.029781263 -0.0062905136 -0.048159864 0.054095745 0.07654372 0.09182107 -0.014302697 -0.060529806 -0.11151941 0.10051386 -0.008318898 0.11503717 0.07226842 0.021152182 0.11504663 -0.083098896 0.07720085 0.11171057 -0.12197819 -0.10625574 -0.06682274 -0.06529714 -0.10944886 -0.06262597 -0.019836038 -0.06372382 -0.06544116 0.087293155 -0.05863161 0.055111203 -0.0996113 0.037478384 0.10528712 0.051863577 0.10306559 -0.08300547 -0.09496261 -0.013582008 0.036561415 -0.0813512 -0.09181151 -0.08314683 -0.09815117 0.10011979 -0.0053602406 0.03133301 0.079219885 0.041750748 -0.052779295 0.060285684 -0.0133826835 -0.073653 0.0026551483 -0.032523308 -0.10909927 -0.0045086695 0.016720343 0.08384419 0.005867132 -0.05106801 0.10601233 0.06423592 0.12062659 -0.06812367 -0.07789836 0.10812924 -0.09469696 -0.06317089 -0.09141297 -0.11838723 -0.026227493 -0.016570792 -0.040212218 -0.12189675 0.061417993 -0.056751896 0.014818178 0.00340419 0.0011907612 -0.10374773 -0.048626944 0.11451082 0.03280374 0.08462366 0.027184293 -0.0021827458 -0.00031033234 -0.06713247 0.08215187 -0.06600245 -0.10206988 0.06301315 -0.06362475 0.06316066 -0.022736492 0.01675461 0.0766403 0.08086777 0.10381908 -0.08915281 0.04526055 -0.07835434 0.002482866 -0.06731544 -0.050879244 -0.053876884 0.11082818 -0.02299975 0.08776242 -0.08285771 -0.041657466 0.07653217 -0.111630365 0.12107952 -0.11426853 0.012635223 0.10398076 -0.041477174 0.07970777 0.020992627 -0.11681507 0.010818269 -0.008281086 0.09279905 -0.07137359 -0.10069598 0.0533765 0.04764173 0.044762604 0.06550307 -0.01133331 0.05024395 0.010917036 -0.039889235 -0.07083643 0.07760511 -0.11671512 0.116261594 0.0021338994 0.037045974 -0.0252129 0.11974853 -0.008086951 -0.076492295 -0.014837435 0.10222397 -0.03250487 -0.023708295 0.11296203 -0.11449816 -0.046132516 -0.02570514 -0.088769875 0.061605632 -0.046873532 -0.039281722 0.09915081 -0.0127532305 0.012516473 0.07148486 -0.023211194 0.09297847 -0.011991514 -0.02705244 0.011325542 0.11458125 -0.10877143 -0.017006679 0.0077572786 -0.036326677 0.02731233 0.014898432 -0.0424244 -0.08504022 0.02999212 -0.0659873 0.05867148 -0.07522516 0.07510705 0.092054494 -0.042952 -0.04927197 0.107080296 -0.08432703 -0.020450102 -0.11645622 0.023875697 -0.037010286 0.044513393 -0.008198373 -0.10327858 -0.037592433 0.055489346
سال 0.07915619 -0.03940603 0.09110642 -0.00805508 0.06612683 0.0092786085 0.008358003 0.10160844 -0.0936136 0.07841248 -0.009368926 0.010658052 0.028989108 0.09774252 0.09020827 -0.030534962 0.042078238 0.06418734 -0.085871175 -0.07498133 -0.023462402 -0.10009996 -0.0118718175 0.06682963 0.043708812 -0.014419821 -0.12419985 -0.022364076 -0.116975956 -0.04835951 0.034918718 0.121138565 -0.058500897 -0.08570113 -0.0034550657 0.054910008 -0.082570195 -0.024042604 -0.023134016 0.09807987 -0.05478215 -0.014105268 -0.015074109 0.016189726 0.040019825 0.03273932 -0.03838182 0.09053027 -0.029270165 0.12024189 0.023547418 0.026210954 -0.057595924 -0.04684591 -0.050940756 -0.077658825 0.00592436 0.04970847 -0.06682584 0.07908131 0.07133461 0.034781393 -0.054699548 -0.09148128 0.06523827 -0.035123393 -0.01876472 0.1014037 -0.103983484 0.084399655 0.068510175 -0.032366343 -0.07521657 0.10009215 -0.06119246 -0.09341963 -0.02356538 -0.0688291 0.050676793 0.02021699 -0.12304165 -0.09983638 0.113099694 0.021725297 -0.04773355 -0.07767018 0.114574865 0.03854277 -0.005255518 -0.05578109 0.0767383 0.11696209 -0.11939787 0.044259336 0.08027385 -0.09166981 -0.06346238 -0.11114038 -0.07340415 -0.0791787 0.022457287 -0.09504936 0.050185874 0.02797815 -0.086601265 0.06483211 -0.12659435 0.09833853 0.025547812 -0.09226948 -0.05245612 -0.00974394 0.08838917 0.08006388 0.1098264 0.034149066 -0.003542491 -0.07821036 -0.09239668 -0.021029063 0.07788868 0.11224892 -0.035858396 -0.1066342 -0.02158866 0.094394356 -0.03655447 -0.07178757 -0.001635931 0.06954249 0.018296896 0.025440406 0.012581764 0.0843542 -0.112298824 0.10981267 -0.10396991 -0.059083033 0.03240394 -0.09965925 0.071643114 -0.091043405 0.10825982 -0.07753845 0.10647566 -0.06233981 -0.10771184 -0.0053137974 0.03227971 -0.0005487542 0.013238219 0.10160022 -0.05841271 0.055432703 0.06520765 -0.042509794 -0.015645057 -0.12440992 0.09047777 -0.04614051 -0.08574341 -0.11651687 0.05510918 0.09955361 -0.05546485 -0.0042939074 -0.042954747 -0.10395182 0.07749137 0.053393964 0.04603978 -0.06557555 0.11921036 -0.031326618 0.07882075 0.074035734 -0.08868594 -0.08637634 0.07286076 -0.042337723 -0.044516593 -0.08655221 0.05961905 -0.08057587 -0.023794672 -0.045080546 -0.062389657 0.037980083 -0.032511882 -0.09515078 -0.031242756 0.082298234 -0.09244514 -0.05908754 -0.06431183 -0.072748624 -0.041186698 -0.058934413 -0.0889019 0.06960321
شده 0.09853936 -0.01742507 -0.0033682513 -0.022232264 -0.037749443 0.059632607 -0.0128120575 -0.11430575 -0.104611 -0.055824324 -0.009976571 0.13042216 -0.08511947 0.048425417 0.014082101 0.0589862 -0.07547469 0.065847315 -0.0511193 -0.08277116 0.085944295 0.06200129 -0.12280624 -0.057400115 -0.0025619685 -0.11050858 -0.075222544 -0.10276493 0.11856425 0.004905855 -0.01149295 -0.050179824 -0.059923816 0.005404102 -0.048841406 0.011171432 0.0075692907 0.04705483 -0.027498364 -0.09516701 0.014954219 0.018952643 0.1017902 0.03534565 0.02810145 -0.0013297086 -0.10083796 0.12644413 0.053686608 0.06775046 -0.086822994 -0.08996874 -0.023516128 -0.0919091 -0.008062345 -0.022836806 0.0122566745 -0.09548544 0.0071798908 0.029818518 -0.039890785 -0.038782217 0.03517763 -0.074770235 0.11779354 0.10630968 0.021933543 -0.111185044 -0.064256646 -0.09677803 0.046883073 -0.0033162136 -0.03557964 -0.03783906 -0.018651174 0.0902975 -0.015117952 0.075495064 -0.118035235 0.099878184 -0.09567958 -0.023130542 0.08993632 -0.10262632 0.11140591 -0.027592445 0.103951305 -0.081322715 -0.042318247 -0.12120336 0.002809823 -0.088966064 -0.11142903 0.070198104 0.08281788 -0.005109903 -0.05065439 0.09075362 -0.036522772 -0.059614122 -0.00063207664 -0.04972549 0.023830658 0.09947966 0.070625484 0.04785788 0.013991818 -0.0124037 -0.08410579 -0.06592404 -0.016119672 0.097177334 -0.07300671 0.026193326 0.08522325 -0.033027742 0.03873968 0.013643361 0.059597917 -0.09090252 0.050830428 -0.018852709 0.10535491 0.06808306 0.13183372 0.022518408 0.08330395 -0.01293788 -0.04381899 -0.064421386 0.07035734 0.0009788026 0.013326347 0.060483087 -0.06770167 -0.02282578 -0.045726683 0.11614715 -0.047053218 0.09079588 -0.07713931 -0.105732515 0.11050225 -0.05484983 0.021660967 0.078101 0.03305979 0.076088384 0.084059976 0.040290847 0.1086338 -0.12826039 0.05775071 0.002396483 0.014076699 0.10796182 0.0024027147 0.06518995 0.08666566 0.12425329 0.08762442 -0.11561852 0.08950453 -0.047904506 0.08292828 0.02398087 0.08951463 0.07488365 0.09054812 0.0038562908 0.0301151 -0.06617693 -0.022300193 -0.03640139 0.059424896 -0.05651081 -0.10195317 -0.07007099 0.09344997 -0.12877974 0.087238334 0.10053863 0.06520927 -0.06954913 -0.0051052053 0.10629413 -0.11556153 -0.055092808 0.040498737 0.047578048 -0.027770761 0.057060618 -0.032325666 0.041969087 -0.0866043 0.12015112 0.002445775 -0.09135908 0.09129677 -0.032374043
مردم -0.11845868 -0.1225101 0.12491477 0.109207906 0.055431385 -0.04017429 0.010411629 0.10747417 0.04805712 0.055151094 -0.02936193 -0.11584953 -0.109948225 0.096173696 0.013417611 0.056817695 -0.029523551 0.053442143 0.106318794 -0.032279547 -0.11524383 0.05408329 0.03676647 0.066698484 -0.042305432 -0.009750601 0.10785001 -0.11389399 -0.03736588 -0.03675411 -0.07145206 -0.009751832 -0.06158697 0.035247914 0.047280475 -0.05805442 -0.016094623 -0.101398245 -0.09935052 0.018241964 0.071212165 -0.04041024 0.0067815566 0.086110584 -0.030868834 -0.1060872 0.013801729 -0.0058730356 0.012928311 0.11645532 -0.1172458 -0.09530044 -0.052287634 0.064757794 -0.020869702 -0.0005546587 -0.037416726 -0.06392003 -0.019763554 -0.109101474 0.12010345 -0.006451368 0.06477168 0.062550075 -0.050201807 0.07762947 0.12103271 0.028919406 -0.12699209 0.078972384 -0.065274686 -0.035550285 0.10054509 0.057011716 -0.116055086 -0.02549569 0.05857424 -0.07991417 0.063114114 -0.034458887 0.00019284521 -0.06456806 0.11030383 -0.1261666 -0.021002408 -0.06753601 -0.0072337757 -0.1147732 -0.12627503 0.114016965 0.003048175 0.10292898 0.04392102 0.09994773 0.044813477 0.039133083 -0.04239537 -0.07994546 0.044643413 -0.018182486 -0.028628407 0.0027266697 0.09237747 -0.09653361 0.034983847 0.0034894377 0.0043838695 0.026979938 -0.039219063 -0.0031094055 -0.12682985 0.07055685 0.114313446 0.1037207 0.035385955 0.039217107 0.066140786 0.020367436 0.12785974 0.019758094 0.022632785 -0.0022196677 0.00879587 0.0021667462 0.03710396 -0.061453246 -0.020156944 0.021628805 -0.09379171 0.11482154 -0.0055179414 -0.015925068 0.110857196 -0.0927389 0.04413616 -0.062193543 -0.02478647 -0.049559075 0.09763971 -0.11594101 0.05584591 0.008849328 -0.008682518 0.083280616 -0.11772421 -0.06614313 -0.08879879 -0.085983254 -0.06528308 -0.060212974 -0.053714585 -0.008207367 -0.042973407 -0.08929165 -0.026513938 -0.00066693977 -0.10311942 0.1023978 0.10289824 -0.017295405 -0.03355084 -0.08553611 0.099451706 0.08469748 -0.050620414 0.104893975 -0.04104872 -0.057076626 0.079130016 0.05073844 0.06995775 -0.0882692 -0.030960083 0.09530848 0.05252803 0.07976624 0.050898116 0.008008673 0.064767174 -0.089428954 -0.092770934 0.07942696 -0.016049596 0.084464654 -0.109445795 0.12231318 -0.03597506 0.027436947 -0.06176154 0.02950455 -0.016477268 -0.0025276751 0.12316371 0.09228097 0.013636369 -0.0016030322 0.07645245 -0.005669708 -0.0184275 0.038693953
های 0.052521374 0.0098002525 0.017105252 -0.024604514 -0.047940172 -0.07733458 -0.0054448815 -0.043589193 -0.07348741 -0.027912797 0.11041081 0.03313154 -0.013316555 -0.074276134 -0.100717545 0.029384958 0.090217724 -0.09154295 0.0036231058 0.12633562 -0.04169606 0.008249128 0.024485985 -0.07530576 0.115714855 -0.10434571 -0.06537173 -0.0019713617 -0.07688911 -0.025902871 0.062579624 0.1160268 0.04999899 0.040882077 -0.123933956 0.06639142 0.097113214 0.07450771 0.0646644 0.038252592 0.06551007 -0.038474962 0.102663495 -0.015594566 0.04983956 -0.040422026 0.03842785 0.106380746 -0.08467651 -0.08353129 0.06370999 0.07338023 0.08714234 0.0054676137 0.09181522 -0.10376766 0.09629359 -0.096531875 0.08458226 0.05150323 0.10284687 -0.03844135 0.0577688 -0.0066016153 -0.041168083 0.07988253 -0.062143855 -0.108672984 -0.026666857 0.06971856 0.019258184 -0.11696121 -0.03959148 0.10813181 -0.032365903 -0.023164885 -0.04334222 -0.037085988 -0.04757963 -0.09469038 -0.080683716 -0.0949795 0.070365354 0.020631574 0.114914544 0.016018854 -0.072421305 -0.06251748 -0.006953303 0.10171229 -0.1130694 0.12028108 -0.074972056 -0.031077346 0.0068437047 0.039256334 0.09711849 0.060808185 0.010999552 -0.07922015 0.11520515 -0.10012063 0.0117405215 -0.12116367 0.08506727 -0.11250059 -0.050878994 -0.035117984 -0.035224292 0.10061536 -0.08326082 -0.09663616 0.04671875 -0.016255165 0.071710065 -0.062174723 0.11001434 0.003073487 -0.024900429 -0.031577874 0.10581584 0.019118048 0.041531134 -0.096845314 0.027976466 0.11455861 -0.09295326 -0.11129223 -0.02021782 0.036092628 0.1015272 -0.0055956943 -0.097760014 0.077330336 -0.106484614 -0.072285734 -0.06427267 0.0019536563 -0.009316267 -0.047437254 0.074166395 0.08776522 0.010997255 0.044487547 0.040261913 -0.0013182564 -0.084446765 0.05027181 -0.013885581 -0.09913156 0.099714056 -0.015451607 -0.016455382 -0.0452338 -0.041789405 0.05566554 0.024325127 0.020673087 -0.09537969 0.024923274 0.12296869 -0.04355442 0.11378875 0.115035504 -0.014390396 0.113173254 0.07039498 0.053920157 -0.04696029 0.017339153 -0.03297509 -0.055578534 0.059721492 -0.08468509 -0.055089507 0.10864809 -0.0176216 -0.028250044 0.07559546 0.05191057 0.03713928 -0.08002144 -0.067740254 0.04981184 -0.08528087 -0.03134642 -0.09537191 -0.08124135 0.07222303 -0.01984278 0.026850492 0.09596629 0.08994408 -0.10919525 -0.1070555 -0.1103799 -0.007996789 0.049432836 0.07409945 -0.059344154
